200 128
54 0.466739 1.5215908 -0.33480787 0.3225121 0.21739013 0.40414053 0.09181062 -0.76072 -1.044497 -0.004264936 -0.9260571 0.47187477 -0.3309641 -0.3809198 -0.718513 0.80733675 0.20676605 0.19918072 -0.007846414 -0.76140255 -0.035423987 -1.3063906 -0.8394562 -0.23292685 -0.043596793 -0.42035872 0.53223145 -0.5521181 0.51904315 -0.7319488 -0.12332714 -0.6950496 -0.064718865 0.25391042 -0.38549516 0.52039057 0.08624217 -1.1664867 -0.40716183 -1.3805188 0.114214204 -0.19692853 -0.98530823 0.26897207 -0.7277321 -0.21863016 0.27525336 -0.6708152 -0.021223428 0.58687973 -0.63735336 -0.5888719 -0.9232959 0.7031908 -1.0123265 -0.44106793 1.3305329 -0.1091393 -0.104511306 -0.87450254 -0.70902926 -0.08628968 0.072015226 0.4333475 0.7302263 0.15691146 -0.31348205 -0.016403437 -0.17446047 0.74025375 -0.074444436 -0.73288524 -0.23805045 -0.064169474 -0.6184325 -0.5164473 -0.14945608 0.15742671 0.010039364 -0.23626538 0.6587225 -0.5016085 0.046615366 0.46886638 0.57340467 0.2483302 -0.67499477 0.52117485 -0.52893454 0.34612498 -0.47055724 0.84317636 0.25090224 0.38097775 -0.32014793 0.23431504 -0.14997016 0.14303908 0.28685609 -0.90114033 0.52243733 -0.262734 -0.08718625 0.016696218 -0.64514303 0.02764588 0.018414177 0.6259338 -0.4282122 0.20716889 -0.24256864 0.61401397 0.62800723 -0.34763113 -0.5397131 0.48956248 -1.3095472 -0.8150496 0.42099392 -0.57480466 0.44258752 0.31447622 -0.46033716 -0.17628676 -0.54579854 0.032805584 0.008661819 -0.72093606
105 0.35422203 0.96761364 -1.2212762 -0.044059895 0.28253582 -0.13002162 -0.7888944 0.41591275 0.1703376 -0.19399153 -0.6609264 0.27659222 -0.09014243 0.36869127 -0.27143967 -0.64191353 0.5004094 0.14864852 -0.5333795 -0.50077254 0.012777427 0.37213188 0.09225091 -0.4860382 0.0022274018 0.58581865 0.05543192 0.4954522 0.71659625 0.53653765 0.75776875 -0.37993643 0.3296726 1.30657 0.0141311595 -0.21541692 1.2544286 0.0522634 -0.24048117 0.08783822 -0.34282407 0.3037619 0.6629214 -0.11699564 -0.40754896 0.16017197 0.2203904 0.23803969 -0.3350297 0.25567818 0.034096904 0.32252574 -0.8043309 -0.531013 0.23170073 -0.6857815 -1.0618584 -0.55340374 -0.191248 -0.040429357 -0.64859027 -0.37163922 1.2141604 -0.93439186 -0.13704154 0.117881395 0.41301802 -0.68810004 0.46733356 -0.4341633 -0.05325619 -0.47850537 1.3247211 -0.83484524 -0.30802983 1.1173757 -0.50300187 -0.16391931 0.47040614 0.73869497 -0.7794378 -0.14541793 0.5243893 0.7377518 -0.019215615 -0.8077594 -1.3056064 0.3736498 -0.48445702 -0.82479364 -0.48025352 -0.30609906 -0.11562062 0.96195865 0.7329815 0.111757524 0.23244648 0.86531854 0.46831873 0.053790525 0.3646659 -0.6414632 -0.18112758 0.39502823 0.7939997 -0.18157528 -1.3415025 0.7643546 -0.4193921 -0.07726763 -0.5760674 0.032400798 0.5901318 0.103906915 0.34855646 -0.6170139 -0.8449064 0.18176556 1.0045061 -0.45580187 -0.04773138 -0.42119747 -0.1506868 0.52971745 0.3429493 -0.4102079 -0.4699351 0.2430419
154 0.52164704 1.6116943 -0.28178394 0.36459446 0.36697966 0.6079173 -0.028132224 -0.72475016 -0.93699276 0.16210248 -0.9399314 0.66686445 -0.28015545 -0.40656993 -0.7108401 0.8622172 0.18246979 0.20615205 -0.14260647 -0.66674995 0.06454247 -1.1747772 -0.84932286 -0.10689204 0.07906353 -0.38764018 0.5382202 -0.48356462 0.5293583 -0.7659614 -0.20989998 -0.8320473 -0.08399194 0.2611386 -0.28790295 0.4855615 0.16447441 -1.1116681 -0.35771748 -1.3846359 0.14926112 -0.28423607 -1.0693767 0.1948685 -0.77905554 -0.24990621 0.19532715 -0.7430311 -0.06961014 0.67386127 -0.61418366 -0.6586863 -0.99635464 0.6461336 -0.9020493 -0.49650142 1.2143873 -0.13797405 -0.2369576 -0.8192504 -0.6556478 -0.12300596 0.041021463 0.3271054 0.8036638 0.27259636 -0.21824323 -0.07479881 -0.08044212 0.65294725 -0.06384973 -0.86701006 -0.18060957 -0.03572784 -0.612088 -0.536676 -0.27095282 0.14293402 0.008779741 -0.20548083 0.66856754 -0.6162287 0.056559052 0.4363396 0.68942744 0.284102 -0.6564873 0.38664076 -0.5252461 0.27665284 -0.492767 0.8457418 0.27108577 0.375122 -0.28690338 0.32608068 -0.05471181 0.08348608 0.22627917 -1.0534421 0.46149123 -0.26935267 -0.12630771 -0.0005839674 -0.7076313 -0.025940187 -0.07317721 0.7367312 -0.41753653 0.28278884 -0.33811697 0.59720206 0.7078539 -0.33974454 -0.5622805 0.50208515 -1.31554 -0.8321659 0.37383705 -0.63935786 0.39143547 0.44773504 -0.32313004 -0.21353029 -0.6123889 -0.046968475 0.0074369777 -0.77339196
85 0.5356401 -0.73423123 -0.5005044 -0.15664974 0.09689723 -0.9248931 -0.5084618 0.44995603 -0.8649374 0.5304224 -0.10505241 -0.08873154 0.27820426 0.5431776 0.71301883 -0.080421 0.98678935 -0.31312826 0.2825608 -0.69414437 0.31606415 1.2074696 0.3114392 -0.10238475 -0.60552686 -0.14412722 0.14420958 -0.24723263 -0.17573205 -0.45783117 -0.19152623 -0.10249899 0.1481464 0.48442656 0.9084051 0.50184846 0.3225555 -0.19366106 -0.35071507 -0.8727595 0.37311518 -0.19097823 0.57237464 -0.67843795 -0.09161882 -0.08175804 1.0584266 -0.95382416 0.06361737 -0.0030740483 0.36878055 -0.48136067 0.17609625 0.84400624 -0.8888784 -1.4856541 0.80200726 0.042401407 0.28263184 -0.10021459 0.16042483 0.21303739 0.49045727 0.7687468 1.2539951 -0.09490789 0.15344553 -0.1274434 -0.18245575 -0.46112913 0.2882488 -0.44594142 0.23909585 -0.22910464 0.70409745 -0.14861976 0.0007366497 -0.3852603 -0.3942276 0.814045 0.66240144 0.01859648 -0.00665067 -0.39936393 -0.78731287 0.27262458 -0.8933174 0.38037944 -0.8300834 0.2821214 -0.6226743 -0.19598737 -0.5713385 0.80291516 -0.7493566 0.68579614 0.09208035 -0.051427793 -0.245491 -0.034685884 0.6854464 -0.15286052 0.63894325 0.44313964 -0.50847155 -0.49595255 -0.9064265 0.60814893 -1.0047791 0.56270975 -0.52514845 -0.38809153 -0.49023327 0.992944 -0.35861194 -0.025230275 -0.3475272 -0.53964394 -0.3695128 1.1231987 0.4965296 -0.76945496 0.024784284 0.77286464 -0.07619692 1.336985 -0.037400845 0.764256
13 0.32581207 -0.24393508 -0.31539682 0.53901887 0.9766163 -0.35544765 -0.2363465 -0.0034406856 1.2716836 0.1052047 -0.19872727 0.1463644 1.0138326 -0.28731504 -0.8234865 -0.01784188 -0.19362666 0.5282702 0.14559904 -0.53797144 1.6219062 1.5476651 0.0950447 0.65450907 0.44445336 -0.6240749 -0.22013594 0.054699555 0.38202772 -0.92582273 -0.07274876 -0.42708027 0.061088644 0.05778221 -0.25138888 0.17415772 0.9709458 -0.5269241 -0.17305353 1.1402463 -0.36577705 -0.07302742 0.1384093 0.36538985 0.40317705 -0.3631538 0.33928668 -0.45386726 0.72904867 -0.39402032 -0.42084375 -0.07054613 -0.67800236 0.80078286 -0.2077014 0.43105218 1.1718116 -0.5341136 -0.056542847 0.2104733 1.1083246 -0.6905729 0.16841798 0.6653501 0.9081219 -0.5243032 1.0943494 -0.043300446 0.14192843 1.3022239 -0.7587286 -0.1514886 0.16895862 -0.18125992 0.92107916 -0.34664145 -0.83225214 1.1630218 0.021223037 -0.08376469 0.9798403 -0.5230353 -0.20767039 -0.28075895 -0.17010333 0.4423733 -0.5255972 -0.74185425 0.40839446 0.85040164 -0.92083484 -0.28699407 -0.14973724 -0.09762119 -0.041343983 0.7308167 -0.94164 0.065306164 1.0227847 -0.8059271 0.35643977 0.15230022 -0.15832976 0.5229582 1.1659603 0.8646982 0.8238133 0.18577771 0.16083403 0.29138133 0.27258137 -0.7450055 0.18169169 -0.03754992 -1.0354114 0.25743154 -0.7382109 -0.49276584 -0.29969126 0.2250782 0.98460215 0.32570517 0.33731642 0.57412374 0.6849356 -0.51969045 -0.32704622 0.3429581
106 0.012714075 0.9675072 -1.376281 0.03130552 0.3098716 0.103223614 -0.7183902 0.097684525 0.18778951 -0.37462544 -0.40668714 0.5212933 0.24433431 0.071407564 -0.07045235 -0.37448975 0.7368138 -0.04443503 -0.6148836 -0.7029898 0.44139564 0.037434984 0.04825748 -0.44572556 -0.02587707 0.24665098 0.26063097 0.3944436 0.7971669 0.4609616 0.7498909 -0.51782763 0.48290375 1.1393139 -0.10516562 -0.23584102 1.1451588 0.05443818 0.10128144 -0.026677871 -0.028580798 0.26039106 0.78062963 -0.2688785 -0.25343627 0.14913447 0.24552003 0.1309184 -0.00806467 0.17074053 0.12001071 0.14932501 -0.8854552 -0.76902425 0.27885532 -0.81915283 -1.033127 -0.42810524 -0.40934676 0.16574144 -0.9524772 -0.5371412 0.80454904 -0.8690846 -0.1542559 0.3189487 0.4296314 -0.65949833 0.85476434 -0.30824742 -0.22583666 -0.48702466 0.9832344 -1.028377 -0.19316895 1.0437708 -0.24814545 0.02783345 0.64916164 0.39780343 -0.84543127 -0.043413255 0.50794023 0.79735655 -0.16583753 -0.54318064 -1.381077 0.47989148 -0.047996074 -0.969836 -0.16551569 -0.35853517 0.09368027 1.1056355 0.7588273 0.36389342 0.2938789 0.32688773 0.5004679 -0.034274057 0.43297377 -0.6443523 -0.3719054 0.18390113 0.6452977 -0.09693723 -1.3006785 1.0061028 -0.41219035 0.22503564 -0.6969225 -0.02334651 0.4861995 0.17039816 0.44875053 -0.48194468 -0.7591058 0.06361296 0.8014364 -0.49998382 -0.29277185 -0.35027474 0.3486839 0.154842 0.5810846 -0.5168027 -0.22036777 0.056393284
12 0.45194888 -0.3672853 -0.13845412 0.5166444 0.80179816 -0.115853846 -0.47797123 -0.28813544 1.2198739 0.1435055 0.024213117 0.14137766 1.1507477 -0.42641753 -0.64094645 0.1845935 -0.19982405 0.5020769 0.17286474 -0.1955815 1.6670061 1.5188686 0.065182 0.8433053 0.2038418 -0.5316024 -0.19856547 0.023515625 0.28258812 -0.80880404 -0.32730547 -0.52644867 -0.26955807 -0.55552894 -0.3097702 -0.0022674336 0.9853887 -0.5194133 -0.049404204 1.206126 -0.12558497 -0.21011505 0.15191203 0.44926152 0.6077948 -0.52998185 0.23967378 -0.2733952 0.5973686 -0.1878108 -0.32314914 -0.33850527 -0.33025825 0.95461273 -0.022302935 0.3457463 1.0325006 -0.933196 -0.54386455 0.43884036 0.7391145 -0.80556834 0.032423038 0.5292716 0.5802318 -0.6482004 1.2026697 0.23558523 -0.08678918 0.95673966 -0.8790084 -0.31113416 -0.058246594 -0.40775463 0.6851533 -0.32227302 -1.1608655 0.8640226 -0.12331384 0.004325028 0.72470194 -0.47581598 -0.07236909 -0.26680008 -0.3563705 0.4279132 -0.7632061 -0.34997758 0.21485914 0.63067985 -0.93619806 -0.15266593 -0.08179224 -0.0645568 -0.023802323 0.27778295 -0.70367897 0.33154222 0.6609216 -0.89409405 0.0073606125 0.2786764 -0.23351935 0.6878286 0.9119229 0.66127235 0.7060852 0.22822198 0.2325896 -0.15389486 0.10639446 -0.63224185 0.3488083 0.23159343 -1.2541262 -0.061429065 -0.5481639 -0.62228405 -0.5415186 0.43234 0.8587503 0.4886688 0.31919366 0.64819616 0.9885791 0.07257629 -0.45283172 0.41544667
149 0.53694165 0.7098266 -0.2541128 -0.27444208 -0.69997567 0.5456383 -0.5536768 -0.8560309 -0.5062287 -1.3520963 -0.49130604 0.35495213 0.17060518 0.4892252 -0.9619572 0.48260376 0.41879842 -1.1386209 0.16237909 -0.052106936 0.8140197 -0.4137117 -0.7878951 -0.87862134 -0.22084899 -0.058828272 -0.1665705 -0.22500955 0.14302334 -0.20540193 0.66249543 1.0859637 0.21519005 -1.1122681 0.6125494 0.9746851 0.005253627 0.058119487 -0.34656852 -0.046050794 -0.79093015 -0.82773453 -0.19114593 1.13232 -0.23853466 0.37904626 0.4323349 0.08135248 -0.124359496 -0.2574834 0.124654755 0.23862624 -0.41573876 0.008538473 -1.0591092 0.60586965 0.21427743 -0.63049614 0.13241574 0.35121801 -0.18723252 0.32312158 -0.3929174 0.13557361 -0.58064246 -0.30001268 0.5038533 -0.1633539 -0.35872436 1.0134101 -0.3021252 0.7307827 0.21688081 -0.3510965 0.58335644 -0.07019063 0.45857733 -0.2299844 -0.13789813 0.09937921 -0.14307633 1.1386644 -1.4898274 1.1061617 -0.8828079 -0.51140165 0.24617 0.7819985 0.49924213 0.4104234 -0.1945549 -0.06143852 0.2571387 -0.14848292 0.35433817 0.62413526 -1.2697186 0.5666359 0.4781793 0.14245328 0.08135273 -0.27749696 0.036007985 0.8056484 0.679764 0.3980679 0.15163817 -0.8566807 0.617174 -0.08742591 -0.03726314 -0.48379484 -0.22662765 0.32194722 -0.40880415 0.28163648 -0.7880494 -0.63247895 0.40567517 0.7601421 0.6903013 -0.35718146 0.43366262 -0.05802484 0.33819884 1.3298559 0.4295032 0.04583367
185 0.49148637 -0.80204993 -0.4659545 -0.18781754 0.098289415 -0.846987 -0.57797855 0.50110805 -0.90084535 0.6802374 -0.105945945 -0.11250866 0.41225347 0.59044266 0.8146549 -0.042178232 0.9419673 -0.3935216 0.28696606 -0.7459 0.36450917 1.3591332 0.22685644 0.010180945 -0.64706945 -0.10368256 0.14733914 -0.20742325 -0.30525738 -0.5452061 -0.17782594 -0.1573112 0.051190883 0.41618624 0.91766286 0.6738728 0.28544208 -0.23340833 -0.28859425 -0.8898737 0.41979927 -0.07777264 0.5966301 -0.80066764 -0.03674526 -0.08961112 1.0500071 -0.9340918 0.028691689 0.13097496 0.32919276 -0.5152403 0.22786248 0.8545399 -0.86603177 -1.5800272 0.8369434 0.000679927 0.33321148 -0.118345834 0.084717885 0.22551838 0.49485558 0.80525947 1.3162146 -0.016654836 0.10518476 -0.107779585 -0.07671569 -0.51643574 0.2767155 -0.50511575 0.1701818 -0.27754554 0.70138633 -0.08578031 -0.06612015 -0.38127965 -0.31100127 0.91828847 0.72728866 0.11710865 -0.006917494 -0.4741328 -0.9489546 0.29729337 -1.0221887 0.40858105 -0.85949403 0.22092266 -0.7120784 -0.21730255 -0.5036506 0.8304961 -0.7598641 0.7392247 0.16333845 -0.08059146 -0.3325011 -0.1648581 0.6928292 -0.13253908 0.8345991 0.5015782 -0.57978046 -0.4722171 -1.0896426 0.6387556 -1.1110468 0.6406276 -0.6115666 -0.4435181 -0.5470184 0.99829274 -0.33974895 -0.061146148 -0.31945115 -0.56018484 -0.44097954 1.2873778 0.554098 -0.90000796 0.089333005 0.74901915 -0.18235314 1.5001853 -0.09992126 0.8780521
86 0.503188 -0.42259425 -0.80002093 -0.15673837 -0.014997238 -1.0385635 -0.35788348 0.11319152 -0.8540759 0.16969034 -0.29091766 -0.47082287 -0.107865214 0.38176876 0.72406024 -0.263365 0.6455979 -0.1040716 0.3158272 -0.6475729 0.17228913 0.80336225 0.36923677 -0.050262097 -0.5684555 -0.52809876 -0.029160654 -0.6890337 -0.45840606 -0.5579018 -0.11040628 -0.18333593 -0.08229911 0.45508817 0.83703136 0.6119956 0.39059758 0.23045263 -0.24929537 -0.68743944 0.6544193 0.17481148 0.47513017 -0.6787762 -0.12579936 -0.043743245 1.0320919 -0.6603709 -0.29999125 -0.41028967 0.21594663 -0.5177006 0.48758382 0.69360244 -0.9805825 -1.2531323 0.64853 0.091336906 0.56498474 0.007816358 0.4847061 0.3702462 0.76044923 0.4999211 1.1771239 -0.09435661 0.5189461 -0.0065009594 -0.19411574 -0.32531917 0.14556327 -0.60480535 0.297396 0.051422752 0.6751935 -0.18660714 0.57827055 -0.092369266 -0.011203629 0.6798663 0.8195773 -0.092816375 0.0074700653 -0.1134458 -0.9074484 0.19187647 -0.88497955 0.8344076 -0.76579356 -0.07064375 -0.5738291 -0.19875714 -0.7782984 0.68815297 -0.8258022 0.79702914 0.121405184 -0.1371427 -0.060410675 -0.14583473 0.4805004 -0.50885165 0.46241382 0.49985585 -0.5536593 -0.22847304 -1.034618 0.5380633 -0.8183381 0.5294123 -0.40871966 -0.4648628 -1.1078447 0.61693764 -0.5631463 -0.27890694 -0.2638142 -0.12452055 -0.5693676 1.1514696 0.3467497 -0.65633076 0.047713693 0.8535123 0.30285457 1.2067745 -0.0046405783 0.6452354
5 0.37078965 1.0609992 -1.1848539 -0.18270898 0.49616453 -0.18187329 -0.8105361 0.49562347 0.36315465 -0.18199368 -0.7463502 0.3590994 -0.23721085 0.37592718 -0.16471617 -0.53668445 0.3516169 0.23492034 -0.5933512 -0.38529748 0.21377127 0.23766589 0.13719231 -0.4073609 0.1051697 0.7456149 0.026496869 0.60205376 0.76326627 0.73085594 0.8413794 -0.2709742 0.22716199 1.5488849 -0.12648806 -0.36673164 1.2794552 -0.14281824 -0.38800353 0.008484093 -0.3990504 0.1079539 0.71525913 -0.105271704 -0.4520062 0.24731652 0.23158944 0.106530115 -0.5153161 0.19741468 -0.059523508 0.17992477 -0.94215053 -0.3735963 0.19151583 -0.6833779 -0.9041519 -0.20773166 -0.23734702 -0.06916775 -0.40998867 -0.4992597 1.2665975 -0.8432751 0.116537645 0.07552309 0.3391932 -0.92439157 0.4355952 -0.08796566 -0.10916201 -0.7565155 1.4993658 -0.6319204 -0.26748693 0.947118 -0.7385922 -0.1643091 0.6178033 0.8682265 -0.68491215 -0.46713984 0.5479195 0.39652163 0.035885517 -0.63432395 -1.1969291 0.13560617 -0.3877048 -0.99146587 -0.565247 -0.29904518 0.004224961 0.8585802 0.5619095 0.15257667 -0.0260867 0.6635344 0.38085392 0.0605723 0.26920727 -0.5598736 -0.38561597 0.24476324 0.7405983 0.13570848 -1.4528931 0.7629503 -0.5941267 0.07635311 -0.24539529 -0.017916137 0.46726358 -0.20099759 0.3909961 -0.6180289 -0.8176606 0.08281319 0.8586803 -0.4997892 0.08469862 -0.32146215 -0.24910697 0.62589455 0.29354855 -0.43117702 -0.4573718 -0.034573972
130 0.023594758 0.21842963 -0.016086716 -0.20548388 0.12034121 0.3692898 -0.88374555 -0.10385936 0.9352571 -0.2760072 -0.16572264 0.5766451 -0.19480199 -0.01308753 0.5265875 -0.2758553 -0.22863837 0.28844365 -1.1312803 0.22085343 0.5895549 0.58602214 -0.3695304 0.1774207 0.84178245 0.45195115 -0.2490837 0.60534924 -0.0040554157 0.003484597 -0.42295593 -0.66054225 -0.9301046 0.091438636 0.6512562 1.3054135 0.26227215 0.53275394 -0.14677745 -0.36025652 0.3263903 -0.5401602 -0.44423142 0.80794084 0.19583498 0.17427465 0.156369 -0.15396069 -1.2793399 -0.31303093 -0.271321 -1.1223091 -0.58347446 0.9696942 0.3098074 0.488994 -0.4311191 -0.0024750095 -1.277182 -1.3260299 0.7798756 0.7347014 -0.24395874 -0.25877544 0.13397376 0.61769664 0.12956037 -0.30201277 0.7468994 -0.66993004 0.85804236 -0.27854747 -0.30882794 0.0037002298 -0.837799 0.12217325 -0.56010896 -0.5729017 -0.4197639 1.0821192 0.318651 -0.5794828 -0.633738 0.016803905 -0.37324578 0.29707885 0.02120154 0.7817337 0.0012488314 -0.77801806 -0.052317284 0.047213186 0.10853112 -0.14336757 -0.7578088 0.030292278 -0.27542695 0.6512678 -0.7198243 -1.0900905 -0.09337323 0.26928434 0.42703056 -0.14819215 -1.2238557 -0.5505638 -0.9867394 -0.40927497 -0.4973919 0.4859646 -0.36400536 -0.69440633 -0.15579681 -0.4013316 0.17446467 0.89847875 -0.30417234 -0.14414118 0.015871942 0.29952908 0.044823654 1.031828 1.422288 -0.039185863 -0.55263895 0.29355657 -0.51587385 0.38702703
109 -0.06196548 0.2884501 -0.9149535 0.31949908 0.2176539 0.7068794 -0.7719404 -0.7553144 0.7249017 -0.43290225 0.6876103 0.91002715 1.0765553 -0.87008846 -0.34432894 0.75664127 0.61796206 -0.22066213 -0.22692247 -0.38596982 1.5882608 0.32355404 0.14924195 0.35443172 0.13104385 -0.52294546 -0.030048078 0.057951223 0.35462475 -0.35261318 -0.38891655 -0.7178439 -0.24411133 -0.70967776 -0.3041238 -0.39429376 0.69556624 -0.119790435 0.88124084 0.16137207 0.94579893 0.11086558 0.5517522 -0.38155627 0.47910124 -0.5287057 0.25675353 -0.067404866 0.9044314 -0.28768024 0.07850433 -0.7615054 -0.6026743 -0.1410953 0.55210114 -0.208342 -0.29826927 -0.7227951 -1.4868463 0.17335664 -0.65621734 -0.9093899 -0.503828 -0.23205277 -0.17990704 0.24551445 1.0001831 0.11553602 0.73396206 0.094398744 -0.86393136 -0.2882566 -0.75222623 -1.5818503 -0.13378912 0.2909147 -0.5785584 0.34323227 0.24384797 -0.26411533 -1.0289713 0.120889485 0.13893718 0.1438785 -0.6844794 0.5107773 -1.1246037 0.7231251 0.40606636 -0.5799743 0.34545118 -0.001435512 -0.3935514 0.27369893 0.36093003 0.2573532 -0.2057992 -0.4737713 0.18410079 -0.88801813 0.340429 -0.048009235 -0.3553227 0.23100433 0.3456553 -0.12278712 -0.21849538 0.9593781 0.27721515 -0.09642412 -1.0029391 -0.03871891 0.6210095 0.6335089 -0.74825 -0.023309685 -0.17312914 -0.8245659 0.018747937 0.30881777 -0.42369086 0.9169536 1.2394403 -0.27122748 1.0975503 0.08564775 0.5025737 -0.27800396
194 1.1291634 0.1428429 0.7557725 -0.5454992 0.19208486 0.20802595 -0.96580034 0.6735417 0.011712348 -0.36612144 -0.50779545 0.37938714 0.50024277 -0.46466342 -0.7886854 0.43833742 0.19306092 0.071001895 -0.057653498 0.14935754 1.5111673 -0.23872235 0.69253695 0.007177301 -0.91925335 0.48478326 -0.29011878 -0.19151472 0.5346426 0.7413816 0.3933883 -0.9931693 0.53956157 0.8737519 0.0072783916 -0.36306155 0.18860695 0.06270495 0.34472197 0.6545466 -0.3059673 -1.366322 0.3235244 1.6836224 0.1466391 0.3316072 0.24865802 -0.74498945 1.0178171 0.19937444 0.22055598 -0.17917682 -0.46404964 0.56667495 -0.69369507 0.38289532 -0.03465212 0.7688444 -0.78933764 -0.0023714504 -0.885972 0.08999175 -0.8598309 0.8729553 0.27944082 0.14090686 -0.72465813 -0.18564822 -0.40398255 -0.5595301 0.0010048487 -0.1669525 0.0034369947 -0.24414307 -0.7132888 -0.97387314 -0.45485377 -0.39083204 0.27760577 0.858787 0.72892505 0.41389117 -0.8746453 -0.6326264 0.07894986 -0.78016406 0.4854938 -0.10745914 -0.92186993 0.42562333 0.81548136 -0.42677897 0.55460393 -0.31533054 0.4537542 -0.13088213 -0.46088177 -0.1655359 -0.49079752 -0.7499453 0.3051978 0.18040581 0.2636227 0.7155939 -0.16251096 -0.57595336 0.7749862 -0.28391853 -0.8267033 -0.7055991 0.79840726 -0.27463788 1.1614903 1.1199762 0.59833694 0.360893 -0.66529375 0.06109034 0.16312055 -0.7756576 0.29315668 -0.26414928 -0.22378124 1.0049713 -0.39298877 -0.36096886 0.06927308 0.4622279
49 0.3887 0.70392424 -0.26789638 -0.5629467 -0.7431489 0.49779284 -0.6912311 -0.7997473 -0.44756734 -1.4118949 -0.19611147 0.36648056 0.33667898 0.5872241 -0.89148915 0.39310238 0.55377626 -1.311411 0.18479443 -0.106970266 0.7705607 -0.3837289 -0.605943 -1.0289174 -0.26307136 -0.048692517 -0.1636391 -0.17846848 0.09460862 -0.09896456 0.66485083 1.1702784 0.16331536 -1.0423746 0.63306993 0.75105685 -0.05880018 0.10858732 -0.50732195 -0.09019629 -0.69317627 -0.8432025 -0.14456832 1.3577236 -0.07121843 0.3559997 0.56898767 0.2966153 -0.28763163 -0.40621343 0.047755018 0.31983256 -0.3783606 0.10918556 -1.0927526 0.7864048 0.22378476 -0.6659651 0.06505955 0.5160738 -0.23990929 0.13634133 -0.25899228 0.12748338 -0.780212 -0.43372214 0.451991 -0.07558628 -0.33933827 0.844527 -0.10472099 0.82655126 0.21160245 -0.6095652 0.6752292 0.084546715 0.5690843 -0.26278558 -0.11532285 0.109806314 -0.122645624 1.2752396 -1.3973829 0.93306017 -0.9515577 -0.6064233 0.49140286 0.8818642 0.56303495 0.36081854 -0.09758578 -0.22161356 0.2092278 -0.1917228 0.28532913 0.6862166 -1.1734636 0.6192244 0.3260091 0.22998112 -0.07712959 -0.09619462 -0.043331694 0.84926593 0.80344653 0.35870662 0.14343408 -1.0649701 0.6227983 -0.18212341 0.28209367 -0.56959146 -0.35133275 0.51536626 -0.44344023 0.2500153 -0.66146326 -0.58109915 0.24478807 0.78141713 0.74398154 -0.32630062 0.45587426 -0.018435676 0.4946544 1.3474991 0.3503391 0.08255067
184 0.32483163 -0.67635405 -0.107135 -0.2224838 0.15227775 -0.5148607 -0.64256066 0.46511912 -0.6177846 0.9242563 -0.049285583 0.25188056 1.0454212 0.52082974 0.6281982 0.11133893 0.91087925 -0.7277594 0.34269744 -0.782851 0.5299375 1.5490166 0.03730125 0.020982914 -0.46439013 0.22013427 0.2379955 0.18909286 -0.23794782 -0.50151867 -0.31750548 -0.096323706 0.07784975 0.19336133 0.8786451 0.5453804 0.079479545 -0.4289456 -0.17967318 -0.86235636 0.09111451 -0.347493 0.87001956 -0.7983589 -0.003636193 -0.07179535 0.55932266 -0.9445385 0.38342363 0.7566792 0.24310142 -0.29428977 -0.017631825 0.70751834 -0.50876695 -1.571462 0.78752023 -0.012269543 -0.08098543 -0.3039501 0.035551388 0.09440466 0.16548325 0.65369713 0.8727634 -0.13566913 -0.45445743 -0.23658283 0.033279356 -0.7239569 0.44673234 -0.06211614 0.03486703 -0.43640766 0.8133493 0.07224439 -0.5133696 -0.73534673 -0.26053438 0.80634266 0.531647 0.36706185 0.28253952 -0.5101124 -0.7364549 0.39267954 -0.9607322 -0.07549991 -0.74645025 0.42945167 -0.61548465 -0.10470425 -0.010751574 0.8373009 -0.4722069 0.70981437 0.3644349 -0.00454101 -0.24617784 0.09865685 0.71991664 0.3552377 0.95500565 0.24268019 -0.45848417 -0.5396011 -0.8456583 0.29366592 -0.9667261 0.62132454 -0.61947495 -0.15728445 0.28793788 0.971763 0.090235904 0.16313441 -0.3481222 -0.73225594 -0.15257683 1.1891706 0.6966676 -0.76257455 0.25386816 0.5535113 -0.57770526 1.328325 -0.14762247 0.73773956
165 0.020759275 0.43088046 -0.5150046 -0.04666075 1.0058926 -0.7345647 0.22035877 -1.0481886 -0.070102595 0.5645899 0.04662289 0.9219239 0.035473835 0.12899838 -0.40504614 -0.31947845 0.86455655 0.5481411 -0.17447938 0.65112805 -0.1883349 -0.27032402 0.38671008 -0.82826686 -0.036039095 -1.0797616 0.4556547 -0.5372327 0.9285595 0.06244003 0.07542916 1.0030013 0.06666452 0.67532617 1.0395558 -0.27911738 0.1622568 1.4606882 -0.21193136 -0.15499187 0.37302628 -1.0222363 0.07370513 0.28272817 -0.33757588 0.051109396 -0.10455765 -0.54700786 0.46520108 0.4780643 0.23847878 0.19541278 -0.2605531 -0.38186747 -0.30326778 -0.08607224 -0.34739208 -0.06909206 -0.6701845 1.5580624 1.1007928 -0.5930073 0.37920284 -0.73940784 -0.10650968 -0.20329861 0.8913319 0.39063436 0.14867099 -0.14874214 1.2496262 0.5077732 0.36573887 0.30120906 0.9237952 -0.21066408 -0.17002445 -0.53398305 -0.010894962 0.4443696 0.5949085 0.5701558 -0.015500741 0.20712401 0.977784 0.30905965 -0.81934506 0.9406089 -0.30573466 0.46002033 0.34314078 -1.004246 -0.15690918 0.10860173 -0.47731784 0.6863078 0.47855413 -0.26547745 -0.24324223 0.5932474 -0.24831176 -0.793696 0.37326398 0.6621879 -1.1296592 -1.2131582 0.06766581 -0.920183 0.15490189 0.3385001 -0.7047353 -0.34820393 0.9231009 -0.49317744 -0.56020004 0.4517061 -0.52014023 0.5025789 0.44003662 0.032052025 0.19229916 0.17821884 -0.17107674 1.4065326 0.41748092 -1.1736894 0.884965 -0.4014312
23 -0.09927295 0.6537647 0.23212555 0.22536707 -0.17771037 -0.4526551 -0.49276775 -0.696618 -1.5748974 -0.6641347 0.6521543 0.5006789 0.5337232 0.16735929 0.012064597 -0.5681614 -0.29907334 -0.08265089 0.34278342 0.7463557 -0.28517595 0.116062485 0.3459265 -0.5888973 -0.47530165 -0.24795313 -0.45808077 0.04147332 -0.005040197 0.54819024 0.13173966 0.22648028 -0.24663787 0.08328907 -0.54246885 0.61555165 -0.00048513102 0.3852176 -0.4299629 0.02812763 0.8021564 0.058320675 0.38091275 -0.5718358 0.30123642 -0.81996876 0.81847686 -0.16522466 -0.639994 0.56198657 -0.4047053 0.4699946 -0.57500803 1.1327436 -0.1429489 0.1331881 0.8204826 -0.64853007 0.65014404 1.1907462 -1.8009701 -0.3518844 0.8365079 0.5072082 1.171408 0.009182224 -0.23592642 -0.16696747 -0.54949945 0.5612194 0.07549214 -0.24132405 0.16324992 -0.8809603 -0.20016706 0.89179975 -0.6604902 -0.4476099 -0.15229964 -0.8397065 -0.5082535 -0.026296832 0.25889316 -0.63668823 0.31308252 -0.5635539 -0.27694258 0.14220445 0.013175166 0.052600626 -0.6803529 -1.0990846 0.25351387 -0.62421596 0.31876016 -0.15445462 -0.52366567 -0.4854253 -1.3416973 -0.8264579 -0.59553224 0.0747175 0.01985811 0.29237875 -0.1653984 -0.048144154 -0.0596381 0.04317572 0.10042559 -0.60288095 0.64892447 -0.5868468 0.47397125 0.74758387 -0.40589708 0.006442529 -0.6291724 -0.39183232 1.2184111 0.7320657 0.33187488 0.28681305 -0.5232574 -0.18020517 0.42802656 -0.6145401 0.5697835 0.25848645
193 1.0521075 -0.027023109 0.7840366 -0.7009774 0.4142228 0.30279535 -0.90073705 0.6327036 -0.1533547 -0.5101016 -0.4498544 0.25816625 0.26490974 -0.3723859 -0.6349809 0.5105933 0.24418744 0.027480306 -0.010089467 0.1789399 1.4568172 -0.26272705 0.56169677 0.00040372243 -0.55491245 0.36739567 -0.17017944 -0.16410562 0.08526786 0.6955665 0.067991436 -1.3863358 0.45682645 0.64024496 0.3747264 -0.40860975 0.5299089 -0.07093162 0.4701924 0.43467832 0.27898028 -1.4571971 0.20164245 1.3787105 0.033839364 0.4461601 0.3096468 -0.5637909 0.9140474 0.14463355 0.009441849 -0.18064672 -0.5243086 0.539974 -0.5765758 -0.054614305 -0.11588293 0.564585 -0.6238839 0.17145793 -0.62607396 0.44628185 -0.86413497 0.78588 0.31052384 0.19417387 -0.6059146 -0.39912283 -0.77868104 -0.39725578 -0.001328586 -0.3699129 0.3454246 -0.460924 -0.5673125 -0.84698135 -0.32483137 -0.37540197 0.28207985 1.0527904 0.640998 0.49476567 -0.5655627 -0.51765144 0.16845901 -0.72451776 0.63342005 -0.16436481 -0.4518849 0.34791893 1.1902115 -0.6023698 0.46580234 0.12982553 0.15308206 0.22841819 -0.3869631 -0.47003803 -0.5829508 -0.7140959 0.23797569 0.09407956 0.02564888 0.647128 0.13695695 -0.52643037 0.74849164 -0.2561818 -0.4031 -0.9925768 0.8779042 -0.09017626 1.1044835 1.1910366 0.6911848 0.05517905 -0.28069958 0.022743447 0.10921646 -0.38537002 0.019209497 -0.050071433 0.07936135 0.5708012 -0.53121704 -0.43328917 0.23906823 0.26147765
87 0.43586925 0.09848382 -1.052955 -0.27665055 -0.18367457 -1.037526 -0.18563049 -0.25558662 -0.6555127 -0.51401883 -0.54358107 -0.70489067 -0.42801827 0.12970254 0.4395352 -0.34692663 0.23617476 -0.07919468 0.29758644 -0.67568755 0.3293834 0.35084352 0.5072559 -0.24957342 -0.33120775 -0.9349943 -0.24336448 -0.9814137 -0.8217649 -0.614787 -0.24346697 -0.44504997 -0.36872125 0.37297505 0.7835677 0.7966844 0.6805852 0.55855894 -0.22005384 -0.4637983 0.96136415 0.40506822 0.5888777 -0.5095826 -0.1714149 0.046352457 0.94210404 -0.3539419 -0.5301449 -0.62780166 0.018714877 -0.4573916 0.63169336 0.44641837 -1.0470694 -0.96457964 0.45577785 0.02856715 0.68168044 -0.0248093 0.81316423 0.6386556 0.9922691 0.16992101 0.9727964 -0.25419042 0.6958314 0.009768534 -0.4101936 -0.26638532 0.11681952 -0.7444766 0.57874745 0.14284198 0.67968166 -0.21404696 1.0440336 -0.0016796308 0.3718648 0.5270792 0.9873431 -0.041197713 0.12415302 0.20890675 -0.87911904 0.12846656 -1.0216104 1.1414278 -0.6067364 -0.2185777 -0.40246806 -0.28508973 -0.74060506 0.5778137 -0.8055125 0.96297246 0.088951215 -0.18787205 0.13158615 -0.24255553 0.29982793 -0.52553624 0.32925043 0.42134616 -0.47573584 0.11894926 -0.8731134 0.2585413 -0.4488718 0.3037101 -0.07435099 -0.2892893 -1.3047543 0.39502192 -0.5820135 -0.48965093 -0.22329627 0.124959506 -0.44454974 1.1476237 0.2688869 -0.25260177 0.31289056 0.85543275 0.6500562 0.72953665 0.19071485 0.45869952
51 0.99168044 1.3486105 -0.17093879 -0.39429036 -0.4745143 0.9977991 -0.5616458 -0.24480002 -1.1203294 -0.5196983 -0.28237882 0.6290603 0.20157428 0.3575061 -0.9827535 0.8297812 0.6876801 -1.1815377 0.26148146 -0.36147815 0.12986061 -1.1117376 -0.21154384 -1.3740078 -0.14063098 -0.40951642 0.40119728 -0.06032063 -0.08961789 -0.4419817 0.41417915 0.92796797 0.35668063 -0.584107 1.1322864 0.5311647 -0.39952916 -0.98319286 -0.7021712 -1.5279266 -0.23821688 -0.60787404 -1.0124311 0.60846686 -0.7248521 0.3519388 0.7971139 0.003776725 -0.95112747 -0.5938041 0.13492872 -0.13340838 -0.5640043 -0.43554133 -0.902704 0.2375278 1.0079325 -0.42574963 0.30131733 0.045063186 -0.57393384 -0.00027915082 -0.2802413 0.03552441 -0.35391557 0.66801417 0.03944687 -0.48492777 -0.18277203 0.3697241 -0.45988703 -0.11824452 0.33548975 -0.76170176 0.21886992 -0.5027544 0.5802896 -0.07511518 -0.32160908 0.17163858 0.65807736 0.6284483 -1.4417665 0.45174783 -0.35480902 -0.18609723 0.377199 0.6519981 0.23111622 0.60009134 0.25354236 -0.09112447 -0.025884496 0.39597386 0.18966047 0.8779904 -0.8605075 0.6697245 0.5371683 -0.2863919 0.057546865 -0.327092 -0.15903392 0.7264974 0.28000534 0.7603749 0.26961192 -0.34780213 0.52499634 0.077186495 -0.01422042 0.10619648 -0.20064394 0.121982135 -0.037668735 0.79743165 -0.85331327 -1.1356949 -0.37076005 0.12208699 0.748237 0.1369818 0.5504845 0.07740604 0.22034068 0.4263283 0.21791857 -0.5311626
53 0.91369194 1.64665 -0.3111043 0.152378 0.036531065 0.74826527 -0.19742006 -0.5780959 -1.3084652 -0.03438852 -0.6950156 0.6364581 -0.12852219 -0.18722565 -0.9444211 0.8823524 0.42019346 -0.23823872 0.22218306 -0.75595677 -0.04661596 -1.2840427 -0.48905453 -0.86851496 0.035983045 -0.5269872 0.85060483 -0.38493636 0.42914405 -0.64227104 -0.10823146 -0.2787084 0.19214587 0.01733942 0.4326504 0.38614517 -0.07423082 -1.40794 -0.5889274 -1.9652051 0.21003321 -0.35295075 -1.2783008 0.13936141 -1.0293748 0.012625333 0.48583752 -0.5654593 -0.43514046 0.1650664 -0.34217957 -0.63703203 -0.9208437 0.27004567 -0.98154783 -0.34063733 1.6571623 -0.22123069 0.034834724 -0.6588512 -0.78541726 -0.014629858 -0.08169311 0.2951311 0.49350584 0.58213526 -0.27207875 -0.24186468 0.012084694 0.36909908 -0.22458394 -0.8962926 -0.09989045 -0.4595227 -0.4625676 -0.5812283 0.2009557 0.12788884 -0.17531513 -0.11896407 0.98746014 -0.37827787 -0.44314587 0.44294095 0.47525796 0.09679916 -0.39881492 0.3987931 -0.37429592 0.46045077 -0.09706108 0.5689487 -0.0005725293 0.57953304 -0.19660239 0.5621941 -0.211428 0.4575103 0.3934326 -0.92306703 0.41551694 -0.36381233 -0.23107068 0.32613066 -0.36733097 0.43401924 0.26070485 0.5555522 -0.0661144 0.27837005 -0.14337963 0.61324275 0.44193962 -0.19901808 -0.40948242 0.69177604 -1.2734779 -1.100499 -0.03373347 -0.48292542 0.49617547 0.47116882 -0.18285434 -0.056080226 -0.44684184 -0.13990466 0.13130121 -0.86266756
6 0.05003089 1.0167861 -1.3949252 -0.116552904 0.52965283 0.14976647 -0.8094785 0.07072296 0.43171126 -0.35819858 -0.41370225 0.6267967 0.17809108 0.022828259 0.053978123 -0.24701624 0.70350355 0.02031207 -0.6786446 -0.62484026 0.7172581 -0.09599619 0.002690597 -0.26662406 0.14141421 0.33282697 0.2985835 0.47976848 0.80534726 0.57945335 0.6790574 -0.51002127 0.3758738 1.1823502 -0.1713544 -0.39807764 1.1893463 -0.0829437 -0.05515898 -0.088450536 0.06371644 0.02661047 0.8770946 -0.30016854 -0.24776499 0.25481084 0.29727662 0.052402817 -0.13268138 0.04805941 0.030145649 -0.105712116 -0.98988825 -0.6341449 0.31041613 -0.7882885 -0.9068156 -0.1787698 -0.61587185 0.14236163 -0.71466523 -0.6626636 0.7325069 -0.7218107 0.019165479 0.3054755 0.39324722 -0.7749269 0.8817157 -0.03842215 -0.35277227 -0.845857 1.0089573 -0.8857273 -0.2108838 0.84617937 -0.5273278 0.054197017 0.7582994 0.4991378 -0.7452223 -0.39920354 0.4964544 0.4710004 -0.19226623 -0.29698947 -1.3060563 0.40627098 0.024914494 -1.150514 -0.29304233 -0.34130165 0.18062177 1.0719216 0.51663095 0.4734401 0.0013781369 0.1761327 0.37802172 -0.1892483 0.2666544 -0.5730621 -0.5885506 -0.02430731 0.57035977 0.167101 -1.4804685 1.0851996 -0.60240936 0.427444 -0.47640666 -0.024352858 0.3692897 0.009662566 0.389109 -0.45989004 -0.743133 -0.049583074 0.5941745 -0.4874215 -0.18295746 -0.10824924 0.47834486 0.25084475 0.67088026 -0.4281403 -0.20181254 -0.19865726
62 0.6624553 -0.114029884 -0.37207127 0.6724127 -0.15078628 -0.13739207 0.3981321 -0.37605762 1.0600061 -0.7345404 0.8434869 1.0302703 0.26669285 0.14093421 -0.8543347 -0.68441194 0.45653558 0.13210729 0.35978708 0.34896272 0.32318845 0.45005533 1.274666 -0.6894938 -0.443463 -0.37621528 -0.17636663 0.23201565 0.55112803 -0.44152072 -0.5065944 0.08023657 -0.39738214 0.18385582 1.0075475 0.4670712 0.20304143 0.5651782 0.30397838 0.525313 0.3638938 -0.28978953 -0.47385404 -0.43470407 -0.56768847 0.37081409 0.08661746 -0.521215 0.7703693 0.92897934 0.8935701 0.013455288 0.111253716 -0.11794945 0.120924875 0.14281483 1.0968052 -0.94433564 0.24056886 0.8520321 -0.29491466 -0.6124519 0.20871928 -0.694274 -0.35224387 0.23033276 0.45225325 -0.6147188 1.3079864 -0.6064297 0.5653236 0.8165339 -0.5046002 -0.15072744 0.50096446 0.34968665 -0.1634253 -0.78481555 0.5504605 1.376036 0.06538484 1.1692252 0.31235763 0.64253825 0.34524357 -0.9766691 -1.5145051 0.33855513 0.8375709 -0.18713105 0.8657268 -0.854602 -0.16864601 -1.0370516 -0.69850254 0.738772 1.5117614 0.3313748 -0.49994117 0.09735091 0.19181815 -1.2773689 0.69327784 1.2149184 -0.8458295 -0.18363622 0.74544066 -0.79076326 0.44884577 -0.3924053 -0.13562238 -0.7160437 0.8399274 -0.30882567 0.38982105 0.5809395 -0.9255792 0.24764964 -0.16701587 0.46077883 0.34809008 0.012337108 -0.11043132 0.75915384 0.06732564 -1.2845739 0.28464293 0.22351213
152 1.2104647 1.7159147 -0.23646194 -0.024387311 -0.15946221 1.080075 -0.4874535 -0.31928194 -1.2633435 -0.104688644 -0.5397498 0.7955472 -0.022807585 0.1346605 -1.045624 0.9480341 0.60151494 -0.7146988 0.2053821 -0.3569473 0.012122452 -1.2012881 -0.20827422 -1.2322649 0.022752149 -0.4431793 0.6945684 -0.085099354 0.16347715 -0.4678876 0.21788992 0.36611325 0.33655286 -0.29307628 1.1238064 0.41363117 -0.18300796 -1.1958342 -0.6021539 -1.9134929 -0.017279651 -0.5600177 -1.3067533 0.24686167 -1.1105148 0.26842356 0.62697 -0.36329356 -0.8971504 -0.26156744 0.03740693 -0.472248 -0.7689707 -0.31383452 -0.7690212 -0.10988216 1.3079668 -0.3461899 0.13748233 -0.2512009 -0.6758048 0.013888542 -0.25209218 -0.027023043 0.09162598 0.93244517 0.001023138 -0.46542713 0.009388864 0.25947148 -0.39889878 -0.7475851 0.27113816 -0.6099166 -0.12528546 -0.61794096 0.3174063 -0.04204631 -0.3061739 0.16351795 0.8921941 0.031993005 -1.0769746 0.45775717 0.14407226 -0.05871508 -0.029520271 0.41249377 -0.047217958 0.4683178 0.1439052 0.19681834 -0.111784294 0.5500086 0.06547099 0.7217363 -0.50146556 0.59767425 0.5245249 -0.7068467 0.18779722 -0.4439876 -0.22395542 0.6631264 -0.07712959 0.6281654 0.23761965 0.22261485 0.30868873 0.22632328 -0.29794934 0.35291073 0.19193651 -0.14558294 -0.17992559 0.82631564 -1.0699713 -1.194662 -0.24865964 -0.24147074 0.5819021 0.46405357 0.28738827 0.15522088 -0.122039534 -0.025843618 0.25612962 -0.85626817
187 0.4129765 0.09296931 -1.050272 -0.3801119 -0.09408341 -0.9387065 -0.23418887 -0.25113553 -0.7784241 -0.30311057 -0.49861473 -0.6089462 -0.26589477 0.16526195 0.4775529 -0.38505962 0.4631658 -0.23541747 0.32527068 -0.71478 0.28989652 0.39809245 0.2756285 -0.1633775 -0.43848002 -1.0829529 -0.10756227 -0.93891215 -0.9542962 -0.8277498 -0.29265967 -0.57080287 -0.35645723 0.4495526 0.881043 0.730421 0.63685995 0.6441042 -0.22323199 -0.57349116 1.1549076 0.38289168 0.53335416 -0.5631289 -0.058361404 0.09284327 0.8846302 -0.33725548 -0.47498766 -0.6551693 0.022395065 -0.39615285 0.5493623 0.43930274 -0.99013454 -0.9135351 0.5413675 -0.0009607243 0.7779373 0.08851707 0.722476 0.63750494 0.9976921 0.24347238 1.0192654 -0.17549618 0.6461038 -0.1096661 -0.27998254 -0.3140948 0.09749538 -0.6026117 0.41170302 0.10367148 0.68125904 -0.08759108 0.9930177 0.14159822 0.45329794 0.6262739 1.0169605 0.03892627 0.06838143 0.11947142 -0.8398558 0.10080008 -0.8777832 1.1430395 -0.56990254 -0.1668548 -0.3454426 -0.3267036 -0.66304266 0.76141226 -0.79653406 1.2492483 0.22108993 -0.2862137 0.15617783 -0.39100355 0.0693545 -0.72273135 0.3572756 0.36597806 -0.41166195 0.09528918 -1.0063137 0.18075396 -0.33157334 0.2785689 0.03925012 -0.15461075 -1.3319722 0.37842372 -0.64927626 -0.45268464 -0.15085037 0.16100381 -0.6854237 1.1096492 0.27226222 -0.38126385 0.5254696 0.84287894 0.653964 0.62772405 0.10448298 0.4671341
14 0.22417703 -0.16308741 -0.49648637 0.366401 0.9738924 -0.70714974 0.02549956 0.32680118 1.214004 -0.009203261 -0.33058843 0.14630127 0.71503204 -0.2173327 -1.0108341 -0.10513544 -0.09638103 0.45378542 0.10280651 -0.6884271 1.4787501 1.338308 0.22093338 0.32820553 0.44813454 -0.6826954 -0.23075481 -0.020309018 0.42292574 -0.88380927 0.078969784 -0.024632744 0.38603967 0.6276994 -0.16753748 0.3008085 0.5877528 -0.34439373 -0.12661232 0.9393796 -0.52183867 -0.051215567 0.23967952 0.20950995 0.16730936 -0.21617101 0.5564318 -0.6942572 0.9222427 -0.5522309 -0.33947098 0.14174907 -0.85393673 0.44662887 -0.50823534 0.5295443 1.0426009 0.12647064 0.30502927 -0.13070768 1.4490812 -0.5073764 0.25466654 0.6742498 1.0580069 -0.50173694 0.8396992 -0.2679829 0.22955786 1.3887972 -0.6421989 0.10313385 0.29934034 0.12666386 0.94977355 -0.43050295 -0.54964346 1.2155756 0.0550467 -0.051032484 0.9773768 -0.38361302 -0.41123736 -0.31281573 0.009667517 0.6054303 -0.22920212 -0.9524046 0.37485555 0.94345504 -0.7073293 -0.28791597 -0.28006437 -0.25166667 -0.20390585 0.9620757 -1.1368736 -0.39724076 1.0394162 -0.5591595 0.6565815 -0.019734908 -0.030259911 0.29693085 1.1881353 0.98562473 0.9467928 -0.046085086 -0.03743059 0.5933176 0.5138862 -0.6922685 -0.0138819665 -0.36268422 -0.68700105 0.532783 -0.75098133 -0.29705244 -0.0040322314 0.10343569 1.0298762 0.120928586 0.24425887 0.54770947 0.29515517 -0.9399787 -0.06978952 0.20795368
52 1.0139798 1.592804 -0.30004364 -0.03807901 -0.2277785 0.9160693 -0.35334048 -0.35830298 -1.2706541 -0.1436199 -0.45814312 0.6612241 0.025233744 0.08569341 -0.90379393 0.8299093 0.53960836 -0.661705 0.28424653 -0.49067783 -0.08609045 -1.2060697 -0.30333358 -1.1431723 -0.076025456 -0.4050928 0.68084353 -0.19921274 0.14764436 -0.548445 0.18907751 0.38837585 0.32160854 -0.30528402 0.9068415 0.41730765 -0.24287651 -1.1382157 -0.62226653 -1.8594407 -0.024385743 -0.49467131 -1.2663294 0.27804348 -0.95596147 0.17883268 0.67855686 -0.3239616 -0.78145796 -0.22948459 -0.03639361 -0.37381876 -0.74043036 -0.1523729 -0.8461788 -0.059116226 1.3965452 -0.3305769 0.18877278 -0.30102146 -0.707252 -0.022790989 -0.14113529 0.036296904 0.06994668 0.77076054 -0.16843823 -0.36245352 -0.0011770938 0.24617878 -0.3657193 -0.53506637 0.13273501 -0.57309365 -0.14087585 -0.5163407 0.36404794 0.020202605 -0.27465513 0.12799335 0.8540913 0.089860834 -0.93298066 0.44203988 0.14034376 -0.024800198 -0.014837775 0.4928706 -0.07396624 0.5270821 0.05325887 0.2599658 -0.06497066 0.50652546 -0.028829185 0.63268864 -0.46924812 0.60002935 0.49232453 -0.61751455 0.20333597 -0.37172523 -0.20737137 0.56245387 -0.1000806 0.61328804 0.24344292 0.11740191 0.21087667 0.22959003 -0.14722648 0.31411278 0.10102774 -0.11132396 -0.21281838 0.8348955 -1.0439633 -1.1339413 -0.23255965 -0.22335121 0.57403845 0.28449383 0.20869845 0.08986765 -0.069546744 0.032320794 0.11899354 -0.7535163
50 0.7653645 1.0630481 -0.20710412 -0.496118 -0.6320221 0.78748703 -0.6698702 -0.41744938 -0.89451796 -0.9612017 -0.2543208 0.53184724 0.30022764 0.50781 -0.95267177 0.66404194 0.64147997 -1.3171016 0.26819628 -0.28483963 0.4215172 -0.7905498 -0.34420753 -1.2917843 -0.21915542 -0.25230947 0.114560656 -0.15118402 -0.10719785 -0.33625552 0.52993554 1.128056 0.26421803 -0.8454002 0.9871758 0.68048143 -0.3091849 -0.5842078 -0.6492938 -0.98978275 -0.4597355 -0.6988251 -0.6449062 0.91864276 -0.44692868 0.3831621 0.78372926 0.13353008 -0.7580247 -0.5999874 0.14154395 0.07458908 -0.4805751 -0.2270447 -1.0123668 0.4486428 0.69047034 -0.55453986 0.283696 0.2193081 -0.41756853 0.056926873 -0.28151926 0.07678572 -0.5396991 0.24138977 0.22396472 -0.39182746 -0.3042857 0.5886125 -0.3652895 0.31875393 0.35476488 -0.7487838 0.5220311 -0.28217188 0.6105933 -0.19174439 -0.278941 0.21307346 0.34815586 0.9736864 -1.5253525 0.6454229 -0.70949 -0.3448328 0.46109533 0.8134077 0.38316548 0.5548204 0.07976892 -0.19940202 0.025499072 0.16169013 0.23786996 0.8726461 -1.1182315 0.66686225 0.46379843 -0.0283114 0.036241435 -0.2385536 -0.08184439 0.81818074 0.5460123 0.6594549 0.2439308 -0.69325435 0.5827988 -0.030024713 0.062372476 -0.21389566 -0.34571323 0.30101296 -0.14741372 0.6188795 -0.8272725 -0.9700943 -0.13353229 0.5105631 0.8417446 -0.098813 0.6152213 0.008452722 0.36100104 0.8869607 0.25881648 -0.24097347
139 -0.69052356 -0.6484289 0.016409528 0.056797367 0.56374854 -0.7204894 0.43910968 0.1923731 -0.11896908 0.4510402 0.561059 -0.6067886 -0.68702924 -0.82764095 -0.9595701 0.16691351 0.6419489 0.18157227 0.048587155 -0.044588827 -0.18512467 0.130804 1.0974709 -0.7755058 0.6509205 -0.68316364 -0.6666975 -0.63434273 -0.20249507 -0.5828058 0.6728313 -0.6008936 -0.60076284 0.2022324 0.28070384 1.0921676 0.110803664 -0.44494218 -0.28251436 -0.6379999 0.34394798 0.969706 0.30670276 0.58542335 0.114334814 -0.11370971 -0.029335475 -0.092341654 -0.72851247 -0.9619865 -0.21386015 0.30925536 -0.6226655 -0.13212785 0.40809658 0.5162654 0.03131971 -0.18928793 -0.4489589 -0.3932729 0.06904839 0.72374046 0.18904716 1.206503 -0.7117339 -0.11398565 0.28132275 1.0181509 0.47912273 -0.23561957 0.8658118 0.581002 -0.08698695 -1.370515 -0.81441563 0.23528317 -0.0883777 -0.9870761 -0.38810083 0.032771964 1.092138 0.8989563 -0.5536272 0.11151008 -0.08764445 0.08032147 -0.7133487 0.6429195 -1.3232459 0.86191523 0.48214892 -0.3813828 -0.43062076 0.713322 0.7913591 -0.46284568 -0.14178726 -0.15651304 -0.12623914 -0.14790976 0.44125757 1.0847192 0.6348416 0.58126444 0.6875696 -0.5543537 1.3836854 0.46026397 0.03345092 -0.10705291 -0.83261544 -0.11441634 0.8016698 0.024413506 0.1855387 0.3715196 -0.97162914 0.19105929 0.791728 -0.49912328 0.17945832 0.47753784 0.22958858 0.2433418 -1.287116 0.18364874 0.5291256 0.04622272
84 0.41329738 -0.69838053 -0.12751561 -0.1446043 0.14866427 -0.67323864 -0.6447576 0.39975113 -0.7984158 0.900071 0.022885049 0.31991747 0.9325585 0.52228105 0.6583088 0.09478116 1.1000279 -0.57649416 0.37268174 -0.6706894 0.48053992 1.4944289 0.10238986 -0.037518274 -0.49853045 0.2459468 0.2635328 0.24207923 -0.053974915 -0.33650184 -0.2954998 0.014888165 0.18303472 0.3324483 0.9101138 0.40518737 0.039700367 -0.4942373 -0.25367215 -0.9872927 0.09603506 -0.52026016 0.7730843 -0.79931164 -0.15549447 -0.16778083 0.768541 -1.0794193 0.37545577 0.57413936 0.28528932 -0.35133028 -0.11515158 0.8535922 -0.61102873 -1.5407625 0.8822452 0.081295624 -0.0885523 -0.20364134 -0.023216473 0.09320476 0.14673604 0.75293326 0.986371 -0.18486759 -0.3969281 -0.22270453 0.006723307 -0.6393549 0.4438087 -0.08916366 0.10706658 -0.46224836 0.68773335 0.043116234 -0.65073526 -0.80101055 -0.44398618 0.7954463 0.4090873 0.2387129 0.20647264 -0.563079 -0.5959964 0.30285814 -0.8759657 -0.10822936 -0.755147 0.49847296 -0.6306934 -0.16234146 -0.11429469 0.85992616 -0.49349734 0.59119153 0.20362923 -0.0086495895 -0.32482007 0.07297395 0.7370282 0.26630902 0.82181495 0.2986898 -0.38626024 -0.66622466 -0.8077316 0.4608621 -0.9647922 0.6499786 -0.63103575 -0.19674522 0.30198514 1.0300986 -0.009386432 0.26576862 -0.45100206 -0.8163552 -0.10416426 1.1422246 0.7362846 -0.72101825 0.086909354 0.59099007 -0.5013507 1.4006104 -0.13248412 0.6659993
4 0.5831111 1.1756498 -1.0311992 -0.0120090805 0.18084 -0.26860794 -0.8042823 0.42257944 0.13048 0.011382333 -0.751646 0.31516227 -0.48204893 0.6377181 -0.36342707 -0.4075651 0.30720526 0.42355987 -0.2842418 0.044037893 -0.22354622 0.46585873 0.10644734 -0.16282763 0.10019353 0.963818 -0.19029775 0.7459612 0.55686927 0.8092915 0.6888944 -0.08894778 -0.13155916 1.3023019 0.07942621 -0.6520746 1.3635417 -0.13223766 -0.70850927 0.078765444 -0.56465685 0.13152039 0.5435193 -0.059826013 -0.60227865 0.11549759 0.1437533 0.14503157 -0.7387903 0.090627514 -0.1214891 0.26905936 -0.7625523 0.1897793 0.38511822 -0.29599756 -0.57180333 -0.33869424 -0.022255357 -0.30667245 -0.00019912307 -0.36658302 1.3776786 -0.7224729 0.16005236 -0.034172557 0.42577508 -0.84522754 -0.20968696 0.0489932 0.15265404 -0.45980892 1.4951187 -0.42894062 0.030587314 0.9827984 -1.1152644 -0.35317215 0.30958423 1.0866042 -0.8854518 -0.5756347 0.5708589 0.17467992 0.049954925 -0.8575986 -0.90620375 -0.013929158 -0.5059923 -0.7759962 -0.7377969 -0.05961007 -0.3933127 0.509179 0.45398003 -0.23709701 -0.3399441 1.0203059 0.48116657 0.18772027 0.2534772 -0.35863683 -0.146799 0.44897908 0.9933388 -0.045429267 -1.1215612 0.4741577 -0.17020309 -0.3912301 -0.34299982 0.14419249 0.70937854 -0.21307048 -0.047419373 -0.40709698 -0.7102047 -0.16827005 0.93226606 -0.13155311 0.48501438 -0.19656798 -0.5459132 0.98418087 0.36315164 -0.24698162 -0.47951943 -0.18075037
198 -0.13538246 0.8800713 -0.34505704 0.3514432 -0.8087952 -0.28396547 0.17924516 -0.29425114 0.52267563 -0.64438564 -0.3441036 -0.22656518 -0.255963 -0.47341958 -0.5529987 -0.35488066 0.15837489 0.61621815 -0.48406747 -0.67466396 0.9994784 -0.17065366 0.82653934 0.46163586 -0.43106395 0.0338599 0.35726652 -0.06678041 0.5580497 1.103316 -0.28014448 0.5195989 -0.32056066 0.40597102 -0.58952194 0.47173622 0.088214464 0.36073264 -0.523692 0.11974998 -0.98697644 0.4148763 0.83965373 0.6320437 -0.07041887 0.47687218 0.55332625 -0.22920631 -0.060530093 0.16075996 -0.55286425 -0.1626516 1.0760889 0.26965246 -0.12132555 0.6807841 -0.3852569 0.121108525 -0.550245 -0.671926 0.13101839 -0.4796539 0.6753187 -0.26966923 -0.33381546 -0.3454535 -0.31352976 1.2936138 0.77175164 -0.4791462 0.23878974 -0.63572 0.36328343 -0.022967866 -0.4493018 0.25165954 -0.15280248 -0.26229212 -0.07102124 -0.39945614 0.2767128 0.4612693 -0.06151005 -0.19831963 -0.17884526 -0.14672731 -1.0312482 0.5323386 -0.96131986 0.113406 -0.5317749 -0.27992156 0.22058496 -0.62341225 -0.27983886 -0.531756 0.011777661 0.75557745 -0.7277434 -0.62035364 0.43532512 0.9565505 0.79318815 0.3712241 -0.82925475 0.34907186 0.32072058 -0.04490781 -1.1471632 -0.05248428 0.40360913 -0.7286485 0.32358626 0.41222227 0.082693264 -0.21885936 -0.84857094 -0.13696301 0.31100726 -0.6198121 1.0404806 0.23236044 -0.36135212 0.72110057 0.29030392 -0.28260177 -0.39395076 0.2079386
186 0.5128173 -0.50354797 -0.76054955 -0.2967041 -0.0025318647 -0.9283145 -0.41745576 0.22357959 -0.8677445 0.23640694 -0.3229729 -0.40428814 -0.0010287431 0.40074673 0.67779666 -0.23724402 0.7518158 -0.3254688 0.31514668 -0.7367641 0.32642496 0.9178408 0.27829453 -0.05728685 -0.6087986 -0.60972726 0.04500646 -0.5901746 -0.6015656 -0.7100068 -0.22313397 -0.29281595 -0.121595964 0.50733316 0.921842 0.67447984 0.44624454 0.1437028 -0.31331572 -0.77427614 0.73271483 0.18008415 0.5604367 -0.68909293 -0.055782974 0.026047349 0.9976267 -0.6762706 -0.21106018 -0.27681795 0.25657913 -0.48901635 0.44269118 0.6772938 -0.9950212 -1.3087479 0.7106317 0.021742338 0.6166048 0.01140128 0.34055886 0.3961762 0.74559224 0.602374 1.228703 -0.11814309 0.39621747 -0.15185367 -0.1496621 -0.414277 0.17262085 -0.60256976 0.2290609 -0.056594875 0.7256944 -0.13673258 0.54641974 -0.08306811 -0.0005487151 0.7715732 0.9095993 0.06835268 -0.019759286 -0.2554102 -0.9035937 0.19245504 -0.9227737 0.75739974 -0.77934045 0.060594186 -0.5554736 -0.23670284 -0.69969004 0.76983654 -0.79978347 1.0350938 0.1897391 -0.15647693 -0.13024002 -0.24073187 0.44126517 -0.49269924 0.59017235 0.4435978 -0.5175613 -0.20481609 -1.0590475 0.461479 -0.7664255 0.46236402 -0.31012252 -0.31475422 -1.0314226 0.7721189 -0.52236575 -0.3070252 -0.270588 -0.188965 -0.609006 1.1704545 0.38684216 -0.7126231 0.21567008 0.8013907 0.19029827 1.1656569 0.013964012 0.73235714
24 -0.0039359485 0.83563244 0.4818283 -0.15413593 -0.17453453 0.24315901 -0.6562303 -0.730962 -1.1807522 -0.69781786 0.77831954 0.3700935 0.3617963 0.29277223 0.3299038 -0.4747275 -0.49772656 -0.05220728 0.5269561 0.7802031 -0.028443659 0.16389436 0.24991855 -0.6664408 -0.15824048 0.16449562 -0.65202403 -0.010716603 -0.14614756 0.46764284 0.3485211 -0.2115166 -0.41126832 0.120444484 -0.63181126 0.70071805 0.411622 0.7445289 -0.0761505 0.08452416 0.8993026 -0.01721487 0.009574979 -0.23557995 -0.04246969 -0.6522818 0.6014166 0.09944955 -0.8779622 0.76114655 -0.88091457 0.5116393 -0.7260507 1.0830437 -0.36856866 0.08331194 0.57704455 -0.57236195 0.55989486 1.3013955 -1.9013276 -0.29473498 0.87436235 0.3414916 0.90159494 -0.04416306 -0.34455687 0.32063544 -0.1798395 0.3885458 0.3420219 -0.63961166 0.22614427 -0.9702362 -0.56279564 0.6155036 -0.6207004 -0.635667 0.06227991 -0.45070928 -0.32104886 0.19489773 0.59585375 -0.81278366 0.42422903 -0.6196837 -0.28512764 0.07141097 0.36618027 0.117625274 -0.8529425 -1.0353173 0.20762525 -0.8896322 0.27489808 -0.15094006 -0.29142997 -0.40082029 -1.6776645 -0.8826162 -0.49694046 0.37495494 0.010409376 0.48775992 -0.14931658 -0.36991516 -0.37765265 0.16815445 -0.050240774 -0.053687617 0.15391603 -0.8423204 0.30674133 0.7538769 -0.51767814 0.076463304 -0.58743286 -0.4524489 0.94836396 0.69367826 0.29326507 0.36814153 -0.5020021 -0.48698452 0.2009881 -0.28454775 0.265907 0.1053133
151 1.0714095 1.4570243 -0.231967 -0.2090375 -0.3975265 1.0767201 -0.5693212 -0.27999225 -1.0841206 -0.49468753 -0.43719748 0.7058195 0.060754087 0.30710208 -1.0010512 0.85670525 0.6095991 -1.0633706 0.16849977 -0.19331163 0.23255375 -1.0178164 -0.27381074 -1.2789558 -0.04472791 -0.36277816 0.31619218 -0.0057585984 -0.10281887 -0.47496155 0.44013304 0.85349226 0.28803912 -0.63824725 1.1947775 0.697959 -0.26695177 -0.86844885 -0.59217817 -1.4715604 -0.28636888 -0.65368503 -1.066732 0.5163271 -0.85797447 0.3453816 0.7152036 -0.16611521 -0.970538 -0.47633183 0.20394321 -0.20075424 -0.6325014 -0.4528739 -0.81838334 0.17802157 0.89195836 -0.46590078 0.24376887 0.01461051 -0.5230778 0.09308365 -0.32632232 -0.08617381 -0.22805469 0.7271821 0.17206399 -0.5731098 -0.112835124 0.44004676 -0.49489444 -0.20191947 0.41464713 -0.62304693 0.18376175 -0.48637074 0.39980054 -0.16730905 -0.3158834 0.3008193 0.57991 0.5674962 -1.4500685 0.5636589 -0.3012364 -0.14504246 0.1808584 0.6042093 0.24101874 0.53654414 0.12091506 -0.020780584 -0.03437122 0.37004614 0.21314214 0.8226166 -0.8787027 0.6337403 0.52593684 -0.4252508 0.077256545 -0.4413119 -0.12318081 0.76201385 0.19600417 0.6951423 0.17387305 -0.2226518 0.5361271 0.11816887 -0.30196765 0.05111209 -0.104612745 -0.0030374643 -0.108059816 0.7960564 -0.97724307 -1.1308435 -0.17683652 0.17623356 0.68054885 0.21016309 0.62602055 0.059941165 0.15556772 0.42966202 0.29031813 -0.5734053
98 -0.079680234 0.80722946 -0.36911756 0.41138083 -0.84826446 -0.35396448 0.15549146 -0.26001465 0.5534238 -0.5876651 -0.39506114 -0.20678887 -0.20552024 -0.5043179 -0.6081791 -0.33500963 0.1620393 0.6396271 -0.43706256 -0.6157996 1.0610236 -0.00396428 0.8687436 0.48018396 -0.36562943 -0.06736408 0.29620647 -0.027141422 0.58784235 0.9987335 -0.26011115 0.5834138 -0.42913046 0.47971487 -0.5917224 0.526017 0.12300593 0.3216511 -0.5004043 0.15240957 -1.0187626 0.52022153 0.9324037 0.47210333 -0.135628 0.37822163 0.52438676 -0.2627684 0.00531664 0.11635086 -0.44584122 -0.14827557 1.1225585 0.2361524 -0.1492644 0.6723536 -0.3741003 0.11536225 -0.5564851 -0.6157782 0.1549302 -0.47074512 0.6691743 -0.18809554 -0.32694688 -0.44986138 -0.21292754 1.2265007 0.8090239 -0.4900255 0.14659765 -0.58298886 0.30886313 0.074788086 -0.35836244 0.22278677 -0.21305157 -0.2930678 -0.08731496 -0.40724894 0.24546266 0.44381425 -0.08133558 -0.20200884 -0.2629818 -0.10826634 -1.2159796 0.48894972 -0.98464704 0.063618034 -0.6249816 -0.26309606 0.20039262 -0.62901837 -0.21825682 -0.44988006 0.031921662 0.74256355 -0.6461977 -0.636851 0.48531237 0.9127971 0.9200644 0.40367594 -0.74573576 0.34712544 0.27833834 0.08825885 -1.0453646 0.0051089446 0.21040253 -0.66543096 0.3868306 0.35612112 0.0403029 -0.23326363 -0.9448429 -0.19078496 0.3161825 -0.5206148 1.0783986 0.23888089 -0.38764778 0.7717092 0.31337819 -0.16862136 -0.37006688 0.2650232
148 0.39088753 0.56314707 -0.46470368 0.02826594 -0.7449237 0.32646605 -0.43044606 -1.0857992 -0.35893154 -1.5015808 -0.5225155 0.18094528 0.06849609 0.38373846 -0.7088037 0.13989598 0.1979096 -0.85825884 0.14140333 0.13169603 0.757963 -0.10285079 -1.0765935 -0.6593206 -0.21158917 0.26751038 -0.13900073 -0.385643 0.31461546 -0.030088406 0.6601046 1.0114335 0.3272764 -1.2515881 0.43265152 0.9983298 0.35626522 0.82191724 -0.071658574 0.46861076 -0.85151047 -1.0301739 0.009251431 1.31491 -0.16209824 0.43975404 0.35252687 -0.12879734 0.34869653 -0.029950328 0.10127574 0.47572845 -0.47707117 0.2439262 -1.0331666 0.7476479 -0.07727969 -0.74826187 -0.0057924273 0.29668868 -0.07637984 0.6645217 -0.4693956 -0.00786509 -0.52963454 -0.49863756 0.44144982 0.16718549 -0.41621876 0.8694393 -0.13857205 0.85244805 0.13830936 -0.0921087 0.46147215 0.2084955 0.33037737 -0.34598368 -0.10064461 0.26470897 -0.35553047 1.0530291 -1.234206 1.3961482 -0.80202043 -0.565795 0.18064728 0.80656695 0.40338576 0.26793528 -0.38350457 0.0175483 0.3737148 -0.32648408 0.28505424 0.1056212 -1.2117063 0.51097935 0.32370427 0.27082214 0.025982847 -0.29562047 0.05959815 0.6425092 0.6685607 0.08817389 0.03409357 -0.9123406 0.4690733 0.02698288 -0.06425537 -0.7596167 -0.22692123 0.3257187 -0.5110308 0.24625117 -0.67722595 -0.22428223 0.83520025 0.8799449 0.35275993 -0.6269271 0.39140728 0.021630704 0.3890297 1.3073143 0.25141302 0.31697178
178 -0.73097116 0.8747741 -0.83103675 0.26015463 -0.32381156 0.07032858 0.20315912 -0.049479663 -0.2647704 -0.13238908 0.55533075 0.38944668 0.15735075 -0.06362635 -0.019647228 -0.31978774 1.3826259 -0.1438448 -0.07032451 -0.663272 -0.47108692 -0.06888413 -0.54643095 0.013705437 -0.66168094 -0.45714355 0.054316975 -0.37008318 0.04714764 -0.7248531 -0.17914614 -1.3349215 0.7465946 0.41712353 -0.25013426 -0.16941321 0.5465985 1.3452519 -0.34283653 0.23775834 0.10823954 -0.18114862 -0.22995129 1.3177803 1.2967105 0.16116348 0.3219519 -0.03900906 0.29278392 -0.4315766 -0.17787679 0.6703233 -0.54550564 0.5827495 -0.00071695034 1.0132325 -0.13216822 -1.0892268 0.11030237 -0.33658582 -0.22098663 0.30807114 1.2132201 0.1185162 -0.33034247 0.2070333 -0.49316078 1.1504817 -0.39274815 -1.01179 0.6934303 1.1940237 0.06845039 -0.15550698 -0.15172078 0.61380154 0.29178947 0.3944851 0.18124186 0.16683225 0.07881439 0.38897827 0.25512558 0.46295276 0.5630559 -0.27838868 0.62427694 1.2267615 -0.3225508 0.6584359 -0.16238606 0.09966187 0.4562599 0.41621986 0.1559078 0.21989317 0.5463803 0.29805037 0.5258002 -0.19205835 -0.83606434 -0.09293263 0.16316772 -0.13285425 0.022643859 -0.97923553 -0.15051949 -0.22591864 0.08623234 -0.27511784 0.509147 -0.050177153 0.21342184 0.6547902 -0.5664432 0.78726345 -0.06706164 -0.29397714 -0.71460605 -1.0449752 0.25929376 -0.3850134 1.363317 0.59703755 1.1926652 -1.3022511 -0.88144565 0.5848993
108 -0.25659403 0.7167174 -1.3410075 0.35828522 0.18109447 0.7761137 -0.79548603 -0.6158223 0.3904337 -0.5608986 0.40638727 0.98711276 0.89916897 -0.58678 -0.17108765 0.49518365 0.9212527 -0.3062948 -0.42600578 -0.6491006 1.3282228 0.02298637 -0.033121355 0.08004613 0.1657952 -0.39899033 0.18744326 0.2724414 0.57761097 -0.06731845 0.08619145 -0.78364617 0.09264388 -0.0811238 -0.22214101 -0.3895166 0.9617728 -0.068198346 0.72647226 -0.08938272 0.7494765 0.23133487 0.6626608 -0.3896799 0.16910276 -0.21934558 0.23705177 0.018227806 0.67560637 -0.18937165 0.12449014 -0.4456897 -0.87265885 -0.5055259 0.54578084 -0.48328218 -0.66356266 -0.5842452 -1.1370037 0.25127968 -1.0812795 -0.80268264 -0.2833559 -0.4759874 -0.24195102 0.4699981 0.78695244 -0.26178756 1.0580378 0.01320606 -0.631611 -0.34217536 -0.24505553 -1.5594449 -0.08960931 0.6744219 -0.25253382 0.31637785 0.50899214 -0.17566563 -1.163018 0.1301291 0.27725676 0.48909444 -0.5913473 0.09616375 -1.2354032 0.72786754 0.5391354 -0.81116194 0.32683077 -0.10700418 -0.16833581 0.725623 0.6692173 0.46479726 -0.06353096 -0.31904823 0.44436708 -0.6324786 0.5045589 -0.32680893 -0.42708573 0.0885315 0.53245395 -0.21207954 -0.6992577 1.2274628 0.1627192 0.20160569 -1.1754228 0.01215144 0.5781065 0.5887864 -0.27213538 -0.0020673913 -0.41128492 -0.5918333 0.36856607 -0.047589883 -0.61729944 0.49944663 1.288455 -0.44520044 1.0038348 -0.27929702 0.39782235 -0.28181103
7 -0.1994275 0.9644831 -1.4216605 0.07369134 0.47008204 0.45978367 -0.747215 -0.2378235 0.38089454 -0.48200423 -0.04889696 0.8374619 0.51458424 -0.27879855 0.054780945 0.10449356 0.8441366 -0.13333051 -0.6530228 -0.62434286 1.0295377 -0.22565182 -0.0054428247 -0.16775958 0.094790116 -0.07905223 0.3242541 0.36284837 0.7557425 0.36149463 0.50962985 -0.5829179 0.37676048 0.66946965 -0.2929565 -0.40179306 1.0327803 -0.14759119 0.34064543 -0.13048604 0.4003131 0.057820994 0.8123969 -0.42923504 -0.061581947 0.08513895 0.30785614 -0.020240672 0.22550297 -0.04026639 0.14225857 -0.31145743 -0.99154264 -0.67012453 0.37714693 -0.77863055 -0.8174833 -0.21392582 -0.8090077 0.31296486 -0.97200966 -0.8088186 0.19936231 -0.62520224 -0.054797813 0.45628572 0.5130904 -0.62519497 1.0776538 0.122015 -0.5536478 -0.7081276 0.45865917 -1.1208665 -0.12242109 0.7358483 -0.35029733 0.21843013 0.7845722 0.14080071 -0.91109717 -0.21704566 0.4017759 0.5272619 -0.35015696 -0.06816864 -1.2707334 0.52418524 0.3953425 -1.1694121 0.05654407 -0.2356124 0.18006915 0.991076 0.56084573 0.5482247 -0.019801266 -0.28249815 0.37452418 -0.33834475 0.32561862 -0.5604486 -0.6155065 -0.110644236 0.44932622 0.110011905 -1.2077653 1.2387578 -0.3766687 0.49597096 -0.7131841 -0.0026775731 0.32673192 0.15954883 0.28941387 -0.24466416 -0.5827441 -0.27274415 0.44325823 -0.36843643 -0.49061465 0.09259167 0.90267503 -0.19511525 0.8307338 -0.42599687 0.13327302 -0.3489965
153 1.0699946 1.7955966 -0.30087164 0.25388414 0.11101237 0.92334366 -0.27341822 -0.6555286 -1.2215259 0.012549196 -0.8089909 0.7775835 -0.23098324 -0.118640475 -0.97555536 0.9349193 0.3728189 -0.18083341 0.11082185 -0.49660224 0.047982104 -1.2386264 -0.52809936 -0.779006 0.08635947 -0.41530207 0.76731706 -0.28295758 0.47336793 -0.58895457 -0.03491328 -0.29485345 0.16506822 -0.032451373 0.5628457 0.39904496 0.0793029 -1.210477 -0.49038276 -1.8236771 0.095909275 -0.4971597 -1.3215812 0.17956546 -1.1359303 0.06581865 0.3623023 -0.5932388 -0.4640289 0.29472315 -0.27365917 -0.638806 -0.90632397 0.21460709 -0.9024002 -0.33561492 1.4659646 -0.26221102 -0.06066246 -0.52460074 -0.7823684 -0.046139084 -0.15930615 0.13530488 0.48548645 0.6460546 -0.098420404 -0.2612811 0.04321227 0.4202967 -0.24828385 -1.0034318 0.019351335 -0.31320748 -0.41398337 -0.5926143 0.05606904 0.055829994 -0.16800512 -0.041151475 0.85871327 -0.40536752 -0.4964087 0.5144934 0.49706334 0.005583608 -0.4249491 0.3750529 -0.27502805 0.36207518 -0.20659234 0.5725841 -0.00080594374 0.50329924 -0.1343225 0.51534396 -0.23532367 0.46592245 0.42006305 -0.94946826 0.37959117 -0.38800618 -0.21871398 0.44024593 -0.42393315 0.30610555 0.15896669 0.603895 0.004878017 0.28965855 -0.40431005 0.5352893 0.5356918 -0.23913722 -0.48903972 0.6425713 -1.2865459 -1.0727448 0.08547162 -0.48508704 0.43195698 0.5639236 -0.14085774 0.012034988 -0.4202357 -0.1189454 0.19817764 -0.90081495
150 0.82455623 1.0837219 -0.15837161 -0.3027216 -0.5849015 0.8570669 -0.5847423 -0.56756383 -0.83734524 -1.0224366 -0.45667356 0.5471307 0.15237622 0.5130402 -1.0582724 0.75372255 0.5223836 -1.2170509 0.15611225 -0.0688877 0.5031662 -0.84067476 -0.5690807 -1.2010556 -0.15597276 -0.2768874 0.015116596 -0.1166206 -0.0070672417 -0.33189696 0.6429036 1.0717049 0.3240754 -0.97368497 0.8771601 0.9361301 -0.19882204 -0.47539777 -0.4741998 -0.6698884 -0.5989012 -0.74912673 -0.62983626 0.8660668 -0.48016918 0.4131707 0.607651 0.039576247 -0.58951145 -0.4633537 0.16644984 0.079630256 -0.55427337 -0.3371811 -0.9704733 0.43321273 0.50022626 -0.5936619 0.30427918 0.27867988 -0.38049138 0.20552388 -0.4360787 0.07775728 -0.47418216 0.2477418 0.42243013 -0.39818642 -0.42018148 0.89653134 -0.5190221 0.32010606 0.39138344 -0.52367026 0.4206796 -0.3488009 0.44913766 -0.1762739 -0.2619802 0.07020488 0.17768465 0.9266682 -1.6416171 0.84980273 -0.7129573 -0.35381392 0.3275282 0.7350436 0.49850377 0.52298814 -0.0015555312 -0.087611005 0.17028005 0.1060659 0.42239702 0.7036388 -1.2688752 0.6037233 0.60752904 -0.07178225 0.036052268 -0.33415407 -0.043935023 0.849877 0.60112756 0.63481534 0.23336883 -0.545817 0.70251745 0.019892717 -0.24776684 -0.2092508 -0.24214539 0.14865129 -0.20315331 0.5431544 -0.8055989 -0.9452195 0.12245901 0.49907708 0.7624909 -0.11582998 0.591354 -0.058822956 0.3232239 0.96991056 0.41147214 -0.1714578
124 -0.009489478 0.96762764 0.5102904 -0.10182798 -0.17951281 0.25336996 -0.77264374 -0.6331308 -1.3557099 -0.5904107 0.7461792 0.3891839 0.3544298 0.3235635 0.2436151 -0.45191628 -0.43378565 -0.07694389 0.66694945 0.79315263 -0.23791887 0.116595544 0.35090983 -0.7518083 -0.10733535 0.07853668 -0.5523221 -0.11702781 -0.009113003 0.53167087 0.43634796 -0.23379174 -0.2893098 0.052613363 -0.71004957 0.59404516 0.45818475 0.89261776 -0.08973264 0.19320959 0.7459868 -0.012541659 -0.12424105 -0.10782474 0.1287153 -0.60628986 0.5055306 0.07136138 -0.8152484 0.8002756 -0.9823186 0.62813103 -0.7531157 1.2286001 -0.21730484 0.059653003 0.49887478 -0.69182086 0.6226293 1.2028658 -1.9481342 -0.35533816 0.99378425 0.25875458 0.8555795 0.14333645 -0.4218194 0.53383327 -0.38117874 0.4320195 0.45425054 -0.628306 0.2251061 -0.91589564 -0.3946103 0.6318096 -0.52666706 -0.6836731 0.034863204 -0.60965246 -0.23489946 0.16745369 0.66366124 -0.7639966 0.39949518 -0.60775274 -0.17903607 0.18419 0.30945274 0.03988749 -0.87288773 -1.0481396 0.21010421 -0.8148141 0.4028475 -0.15911116 -0.041215964 -0.44878763 -1.6302623 -0.6353679 -0.47082818 0.3917599 0.03510428 0.56634736 -0.19777872 -0.46378264 -0.24966079 0.14315598 -0.17271057 -0.13441922 0.09832774 -0.9742032 0.3718858 0.7293435 -0.45092213 0.05813884 -0.5541387 -0.43106693 1.0508423 0.70037276 0.4313364 0.16941966 -0.55360144 -0.36493942 0.10423999 -0.47718036 0.33429024 0.12982537
9 0.084329836 0.58367187 -1.0775324 0.356856 0.124235354 0.7800683 -0.8436241 -0.80466586 0.588228 -0.4087342 0.5956341 0.9700326 0.9342798 -0.7205149 -0.37673852 0.80174285 0.74339634 -0.19834633 -0.19636615 -0.13156942 1.4617178 0.18172531 0.0321054 0.42730084 0.07473515 -0.42869854 -0.073408455 0.20714706 0.36003762 -0.13208641 -0.30762896 -0.5320362 -0.22919942 -0.68660104 -0.28583646 -0.5965392 0.79815704 -0.17144887 0.6674288 0.100157276 0.8236276 0.015749566 0.61856514 -0.41070932 0.34123716 -0.4962541 0.2588991 -0.070939615 0.7328303 -0.2433977 0.11244468 -0.7443587 -0.5880057 -0.01936118 0.57266 -0.19264685 -0.28319728 -0.67082596 -1.3391864 0.17810883 -0.66565126 -0.9279187 -0.42729926 -0.23521486 -0.19858798 0.24414472 0.94095737 -0.056984197 0.5062668 0.20841397 -0.89645773 -0.36877623 -0.50237554 -1.3999232 -0.12029449 0.4165205 -0.865563 0.22757043 0.27777478 -0.11205267 -1.2228181 -0.0024406363 0.14103052 0.14255583 -0.63292843 0.35426164 -1.0834465 0.7348092 0.40639737 -0.6718288 0.17076786 0.16035962 -0.3353936 0.3013914 0.39086616 0.0943398 -0.44065922 -0.4108994 0.18536064 -0.80136925 0.27221692 -0.11612088 -0.34596184 0.12659676 0.3839813 -0.047768783 -0.31663015 1.0479099 0.30240384 -0.07026235 -0.992556 0.0988574 0.67415667 0.5126445 -0.7518263 0.010113142 -0.15090688 -0.95642686 0.0599798 0.35700127 -0.33697146 0.8706258 1.1538774 -0.18811022 1.1816043 0.1881464 0.524937 -0.42778444
179 -0.6468742 1.0411987 -0.8264217 0.057016853 -0.36347154 -0.02074824 -0.11233664 -0.2917675 -0.28071526 0.23335776 0.20368588 0.43917584 0.55073136 -0.41238037 -0.061829936 -0.40257582 1.3353851 -0.38341618 0.016552595 -0.921879 -0.34073895 0.119544774 -0.9252991 0.15836161 -0.56590056 -0.6179722 0.5923842 -0.27333024 -0.016300341 -0.6683262 -0.64223236 -1.3022192 0.68811727 0.39532903 -0.03659926 -0.040379774 0.4089903 1.248242 -0.14627008 0.12892425 0.16639853 -0.3665076 0.06577469 1.0606878 0.99852574 0.08314403 0.2253188 0.06752645 0.5072004 -0.29844594 -0.4545468 0.7288468 -0.38617644 0.937848 0.20236586 0.75211495 -0.39153802 -1.0833827 0.018661352 -0.49197263 -0.096159786 0.39720923 1.0052013 -0.099761374 -0.61986977 0.08292046 -0.72359645 1.2288663 -0.30269986 -1.1202394 0.6663899 1.126694 0.011005399 -0.26710021 -0.017338656 0.7009141 0.034870904 0.17690203 0.21870647 -0.024932144 0.1738225 0.48277667 0.31758702 0.34566882 0.7787681 -0.36818206 0.6908643 1.2376994 -0.5077158 0.6398625 -0.32290763 0.22714633 0.6100109 0.70072013 0.4703819 0.65790504 0.5158951 0.5323329 0.5804748 -0.4909037 -0.8606034 -0.18894531 0.327101 -0.19744886 0.31177878 -0.80195063 -0.16150986 -0.20436084 0.34238774 -0.35858238 0.2865802 0.19418633 0.20488533 0.6638155 -0.193141 0.74486345 -0.24975339 -0.31506976 -0.7112225 -0.8085618 0.5270635 -0.40331334 1.6675216 0.4776114 0.8272083 -0.90516686 -1.1160244 0.5083954
107 -0.24391754 0.80939806 -1.4010787 0.14865096 0.3317853 0.39614448 -0.6903757 -0.24999599 0.32134032 -0.5126977 0.010445817 0.7412286 0.60954136 -0.3062463 -0.012495312 -0.01472856 0.9012117 -0.17730074 -0.6235568 -0.8174739 0.96310884 -0.08817219 0.025572423 -0.22822978 0.06834446 -0.14789937 0.35019043 0.28021222 0.76952815 0.20905864 0.4600988 -0.70328933 0.41347647 0.6362079 -0.19448864 -0.28648835 1.0201001 0.04079353 0.4460718 -0.062398735 0.42400375 0.24129258 0.7963334 -0.36932164 -0.028847938 0.010120765 0.2930395 0.061171312 0.38974413 -0.052586097 0.13679387 -0.16424857 -0.9316453 -0.7996042 0.4051119 -0.7025838 -0.91036254 -0.40615606 -0.8181901 0.24841392 -1.0553778 -0.6974864 0.23412608 -0.6563162 -0.17844959 0.44971827 0.5768986 -0.4552416 1.1444423 -0.14673056 -0.42821702 -0.47940737 0.35200202 -1.3008727 -0.14510047 0.843197 -0.1390318 0.25169024 0.6230262 0.028436054 -0.91816413 0.022758622 0.38909063 0.6786325 -0.37686285 -0.13364357 -1.3264986 0.58640283 0.28331998 -0.9417781 0.12005164 -0.3108208 0.046906523 1.0033478 0.6571222 0.53594846 0.19108811 -0.114765264 0.4455913 -0.3342629 0.4704491 -0.50500613 -0.49431416 0.028081816 0.5280731 -0.10535557 -1.0753176 1.1482719 -0.2580241 0.37557375 -0.88190484 -0.026202988 0.41496396 0.3829946 0.22260639 -0.25141183 -0.59021026 -0.13931972 0.548024 -0.3907859 -0.5145451 0.06298499 0.92031753 -0.20763466 0.8355305 -0.5028253 0.06835351 -0.14044504
96 0.7384324 0.64345825 0.26557794 -0.2087707 -0.42588538 -0.1653098 -0.60309374 0.24881935 0.59216976 -0.54164773 -0.13327058 0.20373902 0.61437076 -0.6646076 -0.71600765 -0.079592116 -0.14859371 0.14938222 -0.06564605 -0.416536 1.301299 -0.044355076 0.97437954 -0.1738629 -0.9001068 0.37353975 -0.27060187 -0.29744345 1.0674323 0.7498128 0.27931753 0.11624373 0.2683317 0.8766627 -0.75766015 -0.45932677 -0.16695322 0.0999788 -0.21242328 0.4986734 -0.9881672 -0.23253195 0.70934373 1.5654879 0.18349126 -0.026521778 0.28997093 -0.278479 0.38730222 0.421172 0.20529304 0.05112756 0.3099761 0.53552306 -0.7536534 0.9471628 -0.17974468 0.49685532 -0.82354075 -0.07582234 -0.8768252 -0.63385135 0.019095339 0.3691619 -0.3288256 -0.39562157 -0.61533046 0.9202618 0.21356712 -0.6671995 0.19691743 -0.15115374 -0.14541051 -0.14068246 -0.52905524 -0.59291536 -0.37790707 -0.38927945 0.25848496 -0.07642028 0.7601125 0.27050224 -0.58284765 -0.4720685 -0.057963826 -0.5039792 -0.33498868 0.46528357 -1.4475203 0.12284803 -0.5585033 -0.19737267 0.2750943 -1.1220381 0.62446654 -0.81183314 -0.3214131 0.6088099 -0.27158996 -0.29818 0.422472 0.65105826 0.68718255 0.45854554 -0.720814 -0.33096772 0.533311 -0.10355547 -1.0841966 0.16968969 0.39923438 -0.533024 0.5558049 0.7309718 0.21925375 0.43484873 -1.109062 -0.013856862 0.20148355 -0.93243694 0.62884057 0.08184523 -0.9246421 1.4439932 0.5829522 -0.11084215 -0.14870963 0.38332722
22 -0.34125254 0.35675436 0.04342497 0.45673084 -0.23957357 -1.060675 -0.33950162 -0.6592737 -1.6668001 -0.6601267 0.45049223 0.6328905 0.6857704 -0.07266933 -0.06596079 -0.5969569 -0.07104763 -0.16465358 0.047159497 0.5023393 -0.3363226 0.1380014 0.428825 -0.45782787 -0.7218916 -0.63525414 -0.27918336 0.16011822 -0.045416396 0.54813063 -0.2567327 0.42126885 -0.24679717 0.1067452 -0.36391625 0.7347895 -0.37596953 0.039418403 -0.7181206 -0.07678086 0.7938376 0.08016388 0.6745913 -0.6499144 0.5749863 -0.78074795 1.0325518 -0.49654964 -0.3824046 0.18234229 0.021062996 0.2429346 -0.35076204 1.0923843 0.016063113 0.31359994 0.9657004 -0.6024247 0.5192439 0.83786374 -1.4041697 -0.22558776 0.6895055 0.66326314 1.3938655 -0.102968946 -0.11625447 -0.685154 -0.5991239 0.5006251 -0.05561286 0.22239697 0.005075463 -0.7081895 -0.1284857 1.0190696 -0.7986372 -0.324919 -0.3618053 -0.88012004 -0.50641316 -0.16868451 -0.12773928 -0.55777866 0.24797249 -0.32113478 -0.31665716 0.178892 -0.37111568 -0.0058720643 -0.43192118 -0.9942361 0.4768609 -0.32402503 0.18639708 -0.23750353 -0.7057472 -0.5195077 -1.1197124 -0.88377655 -0.83164907 -0.20862058 0.13584474 -0.007829508 -0.28134316 0.25685412 0.098660745 -0.11402896 0.11018395 -0.9407641 1.1507767 -0.29580203 0.4315444 0.6742261 -0.16468544 0.010084612 -0.4533735 -0.19285567 1.3093297 0.7166593 0.35320568 0.27535135 -0.23396267 0.11818177 0.64025724 -0.8021229 0.6713946 0.46294072
127 -0.33412477 0.8259351 0.515516 -1.1008775 -0.19761948 0.67652017 -0.5779642 -0.5346383 0.26678616 -0.6212931 0.80174786 0.2532005 -0.04015333 0.0406848 1.1563876 0.09343753 -0.02526301 0.2669299 -0.18647778 0.18309277 0.81542677 -0.0086971745 0.24104719 -0.40598136 -0.07520709 0.9990051 -0.56177306 0.22847812 -0.31900048 0.15140553 0.06525911 -0.90831417 -0.6431039 0.3032793 -0.074305326 0.9411311 0.4328025 0.2111207 0.34091797 -0.2114685 0.6257592 -0.36243218 -0.7756743 0.566011 -1.0823026 0.17545022 1.0374187 -0.053969603 -0.9527835 0.16007185 -0.93274325 -0.2717812 -1.0407134 0.27003527 -0.64886844 0.4204938 0.4327539 -0.1955926 -0.32776445 1.00584 -0.42324507 0.14382827 0.41222104 -0.28298384 0.03987529 -0.42156518 -0.26127648 0.66868997 1.093223 -0.28171942 0.7093673 -0.5834737 0.3946245 -0.7420285 -1.3238605 0.45785517 -0.9932563 -0.9659767 0.2172464 1.473815 -0.06579274 0.6161731 0.9603619 -0.526591 0.534736 -0.20325062 -0.37065023 -0.10767488 0.8554699 -0.011135724 -0.61774683 -0.30327472 0.27968624 -0.55725706 -0.50227606 -0.724602 -0.0386705 -0.2029043 -1.3852584 -1.1649022 -0.4256758 0.49890742 0.25643662 0.87752914 0.16225065 -0.3101451 -0.768491 0.08758227 -0.7314396 1.3213761 -0.1433463 -0.6314507 -1.2825172 -0.09683685 -0.29077733 0.52864814 0.16992666 -0.021652447 0.14912194 0.07705879 0.19076702 0.29309195 0.80761987 -0.45320565 0.41566703 0.7836726 -0.89844954 -0.2137814
196 0.69006956 0.7159412 0.2739269 -0.21629028 -0.49022484 -0.12672272 -0.42220327 0.16864024 0.5494631 -0.6782606 -0.19615194 0.052747652 0.42323488 -0.6557462 -0.6661602 -0.124867156 -0.09120696 0.21323669 -0.21503241 -0.50527483 1.3036078 -0.30071273 0.9380781 -0.040073644 -0.9586667 0.41583806 -0.098791525 -0.32194483 0.935719 0.9509307 0.17558296 0.07100506 0.35467306 0.8039479 -0.63772255 -0.38396838 -0.15730675 0.1706357 -0.21270669 0.45738894 -0.95889634 -0.3664231 0.686698 1.6173029 0.17415464 0.20576268 0.40088075 -0.29995263 0.42125523 0.46853977 0.039531417 -0.033748638 0.4677535 0.49242827 -0.73564476 0.8597615 -0.19598135 0.6017686 -0.78844255 -0.20922665 -0.7343513 -0.52185005 0.049034428 0.26055014 -0.3330554 -0.23430534 -0.77002674 0.94132435 0.2050505 -0.6901051 0.23336796 -0.25550655 -0.008195689 -0.13078487 -0.6739261 -0.56548685 -0.29238164 -0.36081594 0.28915727 -0.0021182024 0.8151138 0.40733445 -0.56794846 -0.4036165 -0.030098338 -0.6071514 -0.27299055 0.4480296 -1.3913484 0.17842102 -0.28296828 -0.26807976 0.39807108 -1.01159 0.38943207 -0.7989809 -0.2999857 0.58968437 -0.41756848 -0.384832 0.4294226 0.72727966 0.65219873 0.49748328 -0.8794695 -0.19206703 0.64438504 -0.26045346 -1.2295403 -0.019781161 0.7150947 -0.60080713 0.58748776 0.8282832 0.37591794 0.34188536 -0.9729466 0.013310029 0.1454458 -0.9578414 0.6843904 0.03154873 -0.8260916 1.4013139 0.48026577 -0.22880219 -0.21856679 0.33826098
146 0.1602004 0.19020686 -0.7282242 0.8581251 -0.3902549 -0.06310923 -0.15346648 -0.49054083 -0.29473424 -1.034441 -0.48897663 -0.17969255 -0.12566504 -0.09748875 -0.064157024 -0.31224355 -0.42599633 0.052474525 0.04494038 0.39508635 0.19904733 0.38843507 -1.022309 -0.1629258 -0.16227196 0.7487681 -0.13381901 -0.9151636 0.2082796 0.085903674 0.47109973 0.61172086 0.5907417 -1.2988479 -0.07454328 1.0357637 0.75623995 1.6107317 0.73000824 0.8474239 -0.75371456 -0.84852767 0.19121987 0.90239537 -0.007326973 0.49515533 0.49116233 -0.8620052 0.8316523 0.10384722 0.16717598 0.7737157 -0.6776779 0.24440907 -0.44286165 0.4131597 -0.8306056 -0.87988484 -0.07504012 -0.34043118 0.21105817 1.1179382 -0.64423597 -0.48159456 0.038623936 -0.08164535 0.10756756 0.63836974 -0.60899705 0.20316267 -0.28450075 0.43072042 0.3959391 0.25489324 0.046523888 0.345804 -0.17021951 -0.65753317 -0.27143267 0.7853095 -0.39017478 0.3506535 -0.65589535 1.3970053 -0.44640875 0.04483904 -0.14821205 0.87478447 -0.3362932 0.09356733 -0.77091885 0.024754819 0.20476088 -0.47160643 0.20375268 -1.2201393 -1.1507192 0.07152671 -0.0879745 0.3399214 0.24575138 -0.31348315 0.24141316 0.11542891 0.3575719 -0.3794641 -0.041712776 -0.3548384 -0.32608265 0.52583855 -0.8541137 -1.1569344 -0.309707 0.05000107 0.05205643 0.53747857 -0.5531604 0.49509424 1.5740956 0.8359753 -0.31302336 -1.0003759 0.68009514 0.07253468 0.20883404 0.56512034 -0.43080252 0.9424537
30 0.075285375 0.1666872 -0.08402407 -0.3149573 0.20853977 0.27032492 -0.93085873 0.015240069 0.8949548 -0.25914523 -0.12824708 0.5626468 -0.14546783 -0.046702754 0.39373788 -0.2825033 -0.22533281 0.27569556 -1.1858962 0.15917538 0.6730924 0.59717697 -0.32092035 0.14598522 0.7556389 0.49176204 -0.13579504 0.582897 0.07564659 0.06482869 -0.41285375 -0.57558763 -0.8567157 0.12165419 0.6666838 1.1073505 0.3559052 0.25197178 -0.1949255 -0.49855024 0.28064862 -0.6256489 -0.47097343 0.786034 0.24217057 0.1346518 0.26538882 -0.24978036 -1.2307798 -0.5585949 -0.20788394 -1.24588 -0.64770913 0.95071363 0.3029654 0.5005979 -0.34333006 0.06002837 -1.3579617 -1.3403765 0.9446167 0.5577813 -0.29835737 -0.27847826 0.07784084 0.4260713 0.15419069 -0.27840704 0.7847628 -0.5796966 0.69535273 -0.35469785 -0.24829051 0.05596054 -0.68454 0.11473607 -0.548851 -0.39691097 -0.47179198 1.116739 0.31234315 -0.68503433 -0.65270084 -0.0014550866 -0.4658447 0.4525731 0.16569225 0.67101043 -0.004049072 -0.79871476 -0.1150383 0.1434271 -0.08415088 -0.10035093 -0.7124835 0.056340333 -0.35318622 0.6063494 -0.6677873 -1.0420244 0.052276567 0.18651298 0.3086301 -0.24338418 -1.0499582 -0.39756516 -0.8831166 -0.41404837 -0.45489162 0.50828004 -0.32279584 -0.6323616 -0.3517399 -0.42291686 0.13043807 0.85501045 -0.36965957 -0.12365307 -0.0032046242 0.19731392 -0.01867997 1.0537837 1.3220966 -0.024621602 -0.47834516 0.30855218 -0.43010145 0.40467155
104 0.6266157 0.9770112 -0.9904911 0.04808444 0.17146812 -0.30572963 -0.7628114 0.5807441 0.029173324 0.078821555 -0.76252156 0.09563518 -0.33015192 0.5954058 -0.48564282 -0.60573125 0.21298222 0.38802132 -0.28275982 -0.13311978 -0.403585 0.666128 0.1406559 -0.34104165 -0.07969669 0.8440237 -0.20034693 0.55575985 0.62874824 0.5567252 0.7136676 -0.13910915 0.11068816 1.2206736 0.031381536 -0.4937155 1.3022978 -0.109122045 -0.52212524 0.15677646 -0.6416484 0.3466071 0.42270273 -0.009843862 -0.5147002 -0.06410523 0.14146073 0.26202554 -0.55153084 0.24088803 -0.07966039 0.42677775 -0.71372586 -0.012438452 0.29023492 -0.4659895 -0.7559758 -0.6004136 0.056795564 -0.2928359 -0.21383978 -0.3194833 1.425199 -0.8676433 0.023936676 -0.03778373 0.4854055 -0.6919396 -0.14972821 -0.19421898 0.09904196 -0.2724882 1.4269953 -0.6399079 -0.0981589 1.1056104 -0.86146045 -0.24482365 0.13684613 0.917147 -0.8381659 -0.31443077 0.5600428 0.4982624 0.06559931 -0.9442612 -1.0066801 0.044168644 -0.7063461 -0.5836002 -0.6722076 -0.020733768 -0.48183554 0.58591765 0.641078 -0.30427843 -0.033127908 1.1731435 0.55562043 0.22902943 0.40029225 -0.44111428 -0.017321859 0.6548054 1.0677702 -0.21827151 -1.0267099 0.42913452 -0.16795132 -0.5080133 -0.46191108 0.15325287 0.69714105 -0.033476457 0.030446423 -0.55788004 -0.6770467 0.0063010375 1.0693659 -0.25361088 0.28168854 -0.37984195 -0.70329034 0.84832454 0.21145459 -0.27768707 -0.6347002 0.1291743
166 -0.095698155 0.66877955 -0.60882175 0.033715636 1.2997489 -0.92811435 0.018447638 -0.77110386 -0.38774875 0.8330834 -0.105420835 0.6789357 0.2734875 0.09523048 -0.22388415 -0.14525513 0.82173973 0.7839869 -0.3082768 0.780447 -0.42341155 0.09859294 0.52133787 -1.0776979 0.15262286 -0.8134601 0.58563864 -0.78963506 0.92011124 0.31796622 0.29138878 1.0482712 0.3865281 0.3429858 0.6899789 -0.40779173 -0.11485454 1.4096634 0.0059608035 -0.19458263 0.35566124 -1.0226797 0.21362303 0.40172097 -0.26484564 -0.083013214 -0.07601002 -0.72284114 0.060052916 -0.039608594 0.13923655 0.13539329 -0.30511394 -0.19378932 -0.27471873 0.00073936535 -0.5349442 -0.059207715 -1.1050156 1.1798782 1.3287141 -0.4485937 0.26557586 -0.9547682 -0.123139635 -0.24105518 0.8189965 0.7839832 -0.29186445 -0.016148068 0.978631 0.060310926 0.22713514 0.053062424 0.9777277 -0.28202313 -0.18698919 -0.53498936 0.014485454 0.19487065 0.4843032 0.11503502 0.010137812 0.259255 0.67379886 0.5619589 -0.32655367 0.9398108 -0.42442584 0.042744365 -0.11472586 -0.5824913 -0.4314039 0.51663804 -0.52262795 0.42313623 0.19991665 -0.44100285 -0.016935002 0.5430729 -0.43069264 -0.34485027 0.20119052 0.70244896 -0.72474235 -1.103008 0.09182864 -0.8473526 -0.22103658 0.20527789 -0.63543165 -0.5851647 0.6329813 -0.6961017 -0.7104154 0.27420372 -0.3248774 0.32766408 0.47199175 0.14619572 0.16024625 0.05518335 -0.16862127 1.4050629 0.37012812 -0.80512387 0.6869438 -0.8603256
123 -0.25020936 0.6369859 0.26533493 0.23304963 -0.200586 -0.46413708 -0.5790781 -0.6515164 -1.7606261 -0.553494 0.64942044 0.5437102 0.58165526 0.12421203 0.06348607 -0.5969237 -0.29119536 -0.18241797 0.41760615 0.6621868 -0.48501256 0.10095497 0.39813393 -0.6056379 -0.483448 -0.3874956 -0.3790343 -0.06209579 -0.011528896 0.49781665 0.08240596 0.037757196 -0.19047166 -0.02291403 -0.55149907 0.6870637 -0.03222713 0.48379943 -0.5321004 0.008092894 0.76544076 0.10273316 0.21080473 -0.2710041 0.6229078 -0.7631418 0.7604986 -0.16306934 -0.6167863 0.5668508 -0.55883056 0.5356182 -0.46252316 1.3216115 0.02171774 0.20218737 0.7446492 -0.858915 0.61775696 0.9473823 -1.753208 -0.24461004 0.8729044 0.5168126 1.1013722 0.13478386 -0.3652957 0.022373457 -0.6152497 0.41997248 0.2199097 -0.15351938 0.08777609 -0.7804789 -0.18789244 0.93396866 -0.5639362 -0.51215863 -0.28179967 -0.97263503 -0.24744263 -0.000687467 0.29340267 -0.61580944 0.26494768 -0.44924313 -0.079224296 0.3455166 -0.1553028 0.032539755 -0.65734065 -1.0571307 0.37100586 -0.5044973 0.40978146 -0.1978272 -0.2983196 -0.46475977 -1.3401239 -0.6898169 -0.6644467 0.17169061 0.16699758 0.23539825 -0.34922084 -0.19949122 0.03488637 0.014477589 -0.06150038 -0.6609596 0.646628 -0.74126524 0.4549689 0.7930364 -0.25905004 0.008296155 -0.46795553 -0.26975483 1.2176236 0.64911556 0.4025684 0.15420392 -0.38739836 -0.07005007 0.33226258 -0.76733327 0.5917894 0.47165045
61 0.42658642 0.02229198 -0.49532166 0.7221673 -0.4273679 0.28730044 0.4394737 0.34042263 0.9386512 -0.82553685 0.69516474 0.79665476 0.28970012 -0.06238696 -0.8231693 -0.3338648 0.1953492 0.13756646 0.15390229 0.3951529 0.4709253 0.6440886 1.2402463 -0.26711547 -0.2134325 -0.18721773 -0.6627769 0.37252232 0.112873524 -0.58631915 -0.37484282 -0.36952373 -0.5205886 -0.043517537 0.5124739 0.9720761 -0.025101345 0.081398435 0.319779 0.59733206 0.21694207 0.04045813 -0.7279978 -0.5634939 -0.2083283 0.13849859 0.042975202 -0.5765247 0.38990775 0.8381389 0.89278513 -0.0946391 0.35412645 -0.04618921 -0.0019084797 0.3354914 1.0808778 -0.84139794 0.30471402 0.36256766 -0.5309395 -0.28445166 0.21996194 -0.64585215 -0.26511195 0.2300954 0.08233591 -0.89321697 1.2278262 -0.63686097 0.20082365 0.91621137 -0.5101169 -0.14725421 0.21518406 0.3708468 -0.24956599 -0.8274005 0.9475347 1.4661682 -0.1519606 1.2619536 0.2616996 0.74852425 -0.113074906 -0.93400526 -1.3096396 0.27991575 0.8246658 -0.40136823 0.7657844 -0.26793206 -0.016778499 -1.1126858 -0.63428766 0.828547 1.5020146 0.28619534 -0.4110907 -0.32850015 0.24764869 -1.1145543 0.8906394 1.086066 -0.6383542 0.3386134 0.69261235 -0.5972608 0.15020177 -0.7021839 0.07505379 -0.7213978 0.8141432 -0.11515451 0.29635468 0.4134648 -1.0528092 0.13305458 -0.1450994 0.67869115 0.19222488 -0.36777803 0.11122206 0.1858461 -0.13603039 -0.7979067 0.007918874 0.22431147
164 0.21775375 0.2270977 -0.4210254 0.10553096 0.6048449 -0.51172197 0.30911815 -1.0760325 0.4464115 0.22023985 0.27112356 1.0140666 -0.10340282 0.23943104 -0.54024583 -0.52163714 0.8242262 0.2867589 0.042182926 0.42633972 0.032743808 -0.39383963 0.40668628 -0.57007813 -0.27939892 -0.9761801 0.2830169 -0.2523231 0.88430345 -0.17694125 -0.10896923 0.80862176 -0.18088172 0.72232187 1.1481043 -0.22590174 0.41975233 1.2407317 -0.1549859 0.091882534 0.21021958 -0.7832978 -0.08863327 0.085443884 -0.47119203 0.22582296 0.0066486406 -0.41264024 0.79306346 0.77702326 0.35598966 0.16833939 -0.27112484 -0.45189214 -0.116835214 -0.14364737 -0.07884806 -0.3052094 -0.23204184 1.4950466 0.7493348 -0.7019588 0.42063597 -0.56388986 -0.15177715 -0.022386586 0.8623577 0.06607938 0.5515735 -0.18635452 1.2045045 0.8153163 0.29186976 0.35216683 0.87368464 -0.024146179 -0.22456601 -0.46274087 0.027227348 0.7358957 0.45743558 0.8389665 0.06302349 0.2586655 1.0165182 -0.0728861 -1.1939313 0.80070776 0.08762789 0.5200456 0.5604278 -1.1928136 -0.0052615996 -0.34180075 -0.4524779 0.6727504 0.7497505 -0.0466567 -0.3786772 0.5919047 -0.03242514 -1.0417068 0.35888234 0.73429006 -1.247197 -1.0787443 0.15327653 -0.84758174 0.45399845 0.31272045 -0.7127173 -0.2975769 1.0212653 -0.41907588 -0.2547284 0.5890945 -0.652574 0.4355606 0.34206247 0.026302664 0.36007988 0.27526578 -0.1500232 1.3194128 0.39565638 -1.3895553 0.81717783 -0.05577879
65 -0.059530552 0.40829182 -0.4877365 -0.0057159513 0.99876446 -0.6985236 0.22858204 -1.0689658 -0.09830394 0.5925302 0.09704367 0.85638696 0.14467506 0.12212262 -0.3206242 -0.37318593 0.78276825 0.6583955 -0.23994908 0.746854 -0.24527526 -0.22938254 0.42383453 -0.8641811 0.042197846 -1.0868964 0.43868414 -0.43833694 0.96475 0.11002715 0.16347761 0.9861497 0.06312618 0.7019265 0.94965184 -0.3122163 0.14645107 1.5324941 -0.27294064 -0.13864776 0.48287836 -0.97118986 0.13063963 0.26646906 -0.25909334 -0.030079044 -0.20268968 -0.4963572 0.33921337 0.4762647 0.2702349 0.13599744 -0.14765702 -0.44236162 -0.3008855 0.06725954 -0.3572714 -0.038770393 -0.7332118 1.5309182 1.0796942 -0.58578944 0.3652112 -0.7504555 -0.16144745 -0.3475363 0.89572567 0.37505195 0.16918255 -0.18114576 1.2045685 0.27712938 0.3327847 0.28032878 0.8647812 -0.19971201 -0.18690367 -0.43043315 -0.041886915 0.2752982 0.5956043 0.34842375 0.030787265 0.14166437 0.8882967 0.34796372 -0.72539157 0.84077895 -0.28726292 0.43164742 0.35841352 -0.9609801 -0.22829202 0.07144537 -0.45578763 0.6760137 0.44095525 -0.1983603 -0.24413611 0.57899076 -0.33877257 -0.68469834 0.34978318 0.548507 -1.1206988 -1.1769755 0.05637014 -0.85517246 0.13655673 0.35185876 -0.61865014 -0.3468254 0.9945336 -0.46520606 -0.743418 0.46685857 -0.43127766 0.50293386 0.35178462 -0.034184776 0.109455965 0.2682219 -0.22857143 1.40906 0.49190184 -1.2216271 0.8750507 -0.4678226
63 0.43830448 -0.039464794 -0.32517958 0.41805366 0.26851183 -0.34817767 0.46500468 -0.84084266 0.8451124 -0.19791064 0.6092061 0.9788721 0.04737304 0.2156415 -0.6434506 -0.6861165 0.5697473 0.257086 0.19919159 0.41798493 0.09990237 -0.033503257 0.8435943 -0.632417 -0.35785216 -0.70008856 0.032729726 0.05204794 0.7486463 -0.4024762 -0.32583064 0.5195162 -0.33644012 0.4707187 1.0751076 0.16976216 0.2835026 0.94736195 0.11593458 0.33761433 0.36553976 -0.48191267 -0.34300843 -0.21421151 -0.5992761 0.26142198 -0.021893706 -0.42385104 0.813365 0.9886989 0.66991496 0.050256144 -0.0036702743 -0.33081332 -0.016691929 -0.027004352 0.5111432 -0.62535113 0.038337395 1.2664747 0.23582864 -0.73534524 0.28430608 -0.65939415 -0.28898412 0.021563925 0.6950374 -0.2788188 1.0482118 -0.34744817 0.90356725 0.74356085 -0.17779163 0.16508107 0.6784997 0.12894261 -0.14350961 -0.5596816 0.2777873 1.0087761 0.30249202 0.9650113 0.24471214 0.42400864 0.7294806 -0.51683867 -1.441941 0.5421402 0.5379702 0.18073079 0.748968 -1.0888356 -0.14177667 -0.79097414 -0.6386875 0.7213305 1.2210926 0.21672015 -0.507829 0.42830145 0.077353194 -1.2277304 0.525752 0.9533397 -1.2522383 -0.72806394 0.40674844 -0.8324939 0.47900367 -0.00010376597 -0.47302353 -0.52694714 0.9293822 -0.47345683 0.043719716 0.63129884 -0.8115361 0.35971186 0.06473328 0.20779583 0.32279655 0.25454423 -0.20604469 1.0371063 0.20397437 -1.4174002 0.6254218 0.09719752
192 0.95819366 -0.14224347 0.6528212 -0.8925383 0.4288106 0.18706939 -0.5709093 0.38768438 -0.11443924 -0.96298736 -0.38208827 -0.1125173 -0.07024674 -0.4157189 -0.5434707 0.43675268 0.16065453 -0.027238574 0.028599491 -0.10193225 1.5619854 -0.35577568 0.56235516 -0.043697212 -0.05156635 -0.051331285 -0.028304124 -0.2502846 -0.48458254 0.6288053 -0.48071772 -1.6649594 0.24015734 0.44334647 0.78259593 -0.35470077 0.9226842 -0.18439421 0.4313575 0.13031447 0.9445758 -1.3280014 0.3531747 0.9109364 -0.15235248 0.55891925 0.5331613 -0.2350414 0.79381853 0.112622686 -0.30240005 -0.23659426 -0.26762715 0.37881294 -0.60386163 -0.5356367 -0.12551543 0.52258885 -0.42385924 0.18831803 -0.07160008 0.83841705 -0.6466905 0.63865095 0.31435686 0.08639085 -0.4305965 -0.5174149 -1.0900323 -0.24579325 -0.014597509 -0.6174939 0.9058357 -0.66174287 -0.35273004 -0.6426032 -0.06811315 -0.27911875 0.30037126 1.0788246 0.71038234 0.666282 -0.26194626 -0.30101487 0.19571336 -0.573655 0.37677196 -0.11634731 -0.047120504 0.3330467 1.5386908 -0.89275753 0.40718213 0.55602604 -0.323356 0.64988387 -0.3644616 -0.69053656 -0.5973894 -0.7529475 0.23427212 0.16994262 -0.10770018 0.5099729 0.29823336 -0.17640646 0.7612337 -0.30452478 0.036851898 -1.1955714 1.1329465 0.15436935 0.94963086 1.2766634 0.76573986 -0.2840306 0.07759372 -0.0101263095 0.03138951 0.14490655 -0.07862632 0.350988 0.3203779 0.22875193 -0.45881814 -0.5508403 0.4359695 0.098027386
173 -0.9854091 0.7574851 0.05659591 -0.4684174 0.11579276 0.14226316 -1.3962171 0.7003827 0.2723205 -0.19390562 -0.20238514 0.5864867 0.7004433 0.29703704 -0.4694489 0.794719 0.047256716 -0.5252129 0.13881326 -0.9122898 -0.30262187 -0.53477764 0.5238858 0.41815466 -0.73475504 0.4250517 0.20581049 -0.80127066 -0.015811386 0.4077654 0.78534836 -0.8139596 -0.24633797 -0.36753163 -0.0481692 -0.5562601 0.15730967 -0.23345484 -0.20186158 -0.5067003 -0.21085352 0.18252645 -0.37166396 0.13841003 0.82020956 0.22270827 1.0026493 0.3507732 -0.7769855 -0.07199739 -0.92318624 -0.36329213 -0.4791648 0.21744227 1.1731626 -0.9340605 0.5036876 -0.6946502 -0.24369912 -1.3128135 0.28520942 -1.1755834 0.41700602 -0.05665216 0.46815914 0.98674446 0.065925404 -0.053012405 -0.34118658 0.51982313 0.8313311 -0.55710995 0.7806729 -1.2889483 1.1688683 0.451772 -0.04480212 0.22733136 -0.20478858 0.7304584 0.36389297 -0.58055127 0.4667554 -0.3466351 -0.87952745 1.2320493 0.2962033 0.07080164 -0.53780437 -0.46212316 0.65653884 0.0648095 -0.14965212 -0.5133326 -0.5683352 -0.43832412 0.282446 -0.94717765 -0.3487684 0.30068383 0.41340193 0.15572594 -0.19835074 0.28110257 0.32807583 0.48781174 0.095569834 -1.1491078 -1.2217246 -0.17136694 0.43021616 -0.49903274 0.24628802 0.18732703 0.068495676 0.34869367 0.13088362 0.48185694 0.23714486 0.17643097 0.69900185 -0.27596387 -0.44709396 0.32882228 0.26138774 -0.030903008 0.021233147 -0.5502958
44 -0.045951422 0.53696567 -0.14191431 0.8394438 -0.5612577 -0.5152005 -0.4013208 0.606495 -0.44892132 -0.40340307 -0.65189785 0.19346106 0.43787742 0.4198476 -0.18617043 -0.06854263 -0.25108132 0.37980267 -0.10134594 0.33924434 0.058745123 0.22600636 -0.07814294 -0.42175832 -0.592539 0.08417911 -0.14729893 -0.56297433 0.07285797 0.5349259 0.06397525 -0.49586758 0.593116 -0.8304471 -0.074657165 1.3041998 0.26867753 0.92255265 0.9488345 0.97101676 -0.49878216 -0.45436662 0.23732725 -0.23756008 0.4414492 0.76351124 0.6920246 -1.2606788 0.57425094 0.23618695 -0.0039628153 0.33441943 -0.20866714 -0.16502284 0.21858242 -0.16672221 -0.8022004 -0.8242316 0.4380142 -0.49557647 0.29079944 1.0842624 -0.29795837 -0.837523 0.28733966 0.5469376 -0.09532042 0.6800913 -1.0010817 -0.22492915 -0.2294643 -0.25191882 0.56005543 0.47189835 -0.15819122 -0.19583195 -0.589195 -0.4455192 -0.008375515 0.40385234 0.024955321 -0.09294761 0.0092657255 0.81422216 -0.6392274 0.4272532 -0.5235599 0.70563984 -0.3411458 -0.117889136 -0.4460677 -0.053643096 0.21252021 -0.31723395 0.24288842 -1.4713877 -0.49192747 -0.31523988 0.22847094 -0.094284385 -0.108189315 -0.20336445 0.99765307 0.48255107 -0.012166631 -0.14313112 0.22023076 0.43463242 -0.8386408 0.6488093 -1.1865338 -0.98314965 -0.19460353 -0.29289195 0.72082484 0.36559844 0.32233113 0.4826922 1.2176819 0.55151635 0.13422169 -0.9560766 1.022655 0.3494732 0.29618633 -0.47386396 -0.06649514 1.4824324
39 -0.8686682 -0.5324169 0.08576334 0.041619822 0.5873479 -0.84821606 0.36404663 0.3210481 -0.16330694 0.5950036 0.5997019 -0.4288975 -0.5237434 -0.76197845 -0.90938705 0.19229355 0.70917124 0.24747314 0.043557275 0.008036102 -0.2646363 0.082159445 1.197805 -0.62114996 0.45353478 -0.55746466 -0.65710366 -0.59550637 -0.10291306 -0.41957223 0.77590036 -0.6782422 -0.53576034 0.20449708 0.16195562 0.88213366 -0.0016917838 -0.5601719 -0.3185412 -0.5554918 0.2634904 0.96859413 0.2804394 0.359331 0.22154604 -0.11972333 0.06956729 -0.09734046 -0.7527716 -0.9615961 -0.28601497 0.27640858 -0.70980304 -0.1475028 0.6041871 0.4329081 0.10082631 -0.144334 -0.41594297 -0.4047571 0.012261283 0.5333571 0.25855252 1.099363 -0.70136666 -0.055877734 0.15099047 1.115899 0.37341642 -0.109422944 0.8412292 0.5715152 -0.12866788 -1.3948888 -0.69118077 0.33690792 -0.18272911 -0.91256785 -0.35815606 -0.022428894 0.9198753 0.7725672 -0.34476873 -0.05131065 -0.0665765 0.15171011 -0.60491157 0.48130718 -1.233851 0.7753913 0.4964806 -0.28370827 -0.48013845 0.72155255 0.85990846 -0.6171447 -0.04693966 -0.3384981 -0.037806984 -0.104725815 0.3757331 1.12762 0.5951684 0.5736796 0.890591 -0.4639874 1.4587038 0.47648796 -0.050233185 -0.12917092 -0.77024305 -0.16349183 0.75091547 -0.16233863 0.22667725 0.36025608 -0.7618652 0.18591608 0.7489919 -0.63476515 0.26318848 0.2962433 0.18769468 0.23294987 -1.20923 0.0712718 0.54583627 -0.052396085
66 -0.24687026 0.8019999 -0.64376736 -0.013930309 1.3190603 -0.8313695 0.03140475 -0.822169 -0.58082515 0.8752397 -0.10347983 0.66325474 0.3339971 0.028827894 -0.12803324 -0.14428957 0.81244594 0.8808907 -0.42450824 0.9237513 -0.40166798 0.11628502 0.5150927 -1.0436954 0.25916985 -0.9010803 0.49927855 -0.6889638 0.8395378 0.32342568 0.35174656 1.0019757 0.30877787 0.5022462 0.557839 -0.32659942 -0.10135416 1.522401 -0.120691516 -0.30019197 0.6104108 -1.053085 0.1633436 0.41325113 -0.15634377 -0.31296474 -0.17142573 -0.72538775 -0.15547803 0.01946988 0.12142501 0.07505193 -0.25060427 -0.167914 -0.46306336 0.18466714 -0.51934874 0.061685886 -1.1877476 1.2865494 1.280474 -0.42072284 0.38602567 -0.9408462 -0.059008416 -0.44250938 0.75901693 0.67506015 -0.28872383 -0.010942598 0.99549496 -0.06934753 0.24035722 0.11584707 0.88293076 -0.27939707 -0.19929692 -0.47179475 0.036277685 0.03521922 0.46850696 0.014834002 0.11089878 0.14939986 0.6830268 0.6296631 -0.25192934 0.8967081 -0.4215849 0.057527993 -0.1757741 -0.52875805 -0.4392597 0.5100303 -0.5660091 0.54908085 0.13850527 -0.4455748 -0.119073495 0.3996183 -0.5300692 -0.2783117 0.26200503 0.5083423 -0.82189244 -1.1148517 -0.09475772 -0.7630556 -0.26235664 0.1717273 -0.4733055 -0.5259429 0.70805436 -0.601419 -1.0392925 0.28429347 -0.33388537 0.28113765 0.43119586 0.093514256 0.033437055 0.0957809 -0.13218041 1.3363891 0.4628867 -0.8508411 0.7230911 -0.91120094
11 0.46284977 -0.19536632 -0.3777358 0.47145733 0.5005928 0.31864917 -0.66123503 -0.6137724 1.1612922 0.0018356062 0.42251667 0.43823358 1.1618974 -0.63182396 -0.6014186 0.50822 0.020872975 0.2601105 0.12934862 0.03972354 1.6316533 1.123056 0.036387138 0.8673195 0.067245044 -0.4277343 -0.2258011 0.047028273 0.25408772 -0.60111713 -0.5190953 -0.46246207 -0.4097757 -1.0242431 -0.39745247 -0.36214992 0.8674129 -0.4027766 0.27701983 0.94628793 0.29565945 -0.1213229 0.30627298 0.13575928 0.6766819 -0.6952564 0.18391475 -0.07009548 0.6617392 -0.15158026 -0.16642576 -0.6062318 -0.24738877 0.69245726 0.31573114 0.23259719 0.614665 -1.0860509 -1.0870157 0.36988205 0.22112343 -1.0061367 -0.19564797 0.20648271 0.12202905 -0.4398578 1.2623034 0.33068657 -0.042106308 0.5941238 -1.0789564 -0.37907392 -0.39186448 -0.8592251 0.27011517 -0.04933918 -1.3077098 0.5914828 -0.12867565 -0.053498082 -0.16473785 -0.3272854 0.018761858 -0.15353757 -0.50616884 0.5244464 -0.94238466 0.1598643 0.22681902 0.12728573 -0.59676963 0.08603629 -0.29956985 -0.03715797 0.16041589 -0.06353028 -0.596259 0.17756864 0.34215036 -0.90108657 -0.03267897 0.2365066 -0.3444674 0.55230516 0.68523276 0.42933434 0.41780353 0.50597525 0.35274425 -0.34647632 -0.3603764 -0.3216819 0.55630106 0.39596868 -1.3212106 -0.2015517 -0.2748328 -0.9042722 -0.5225159 0.51292837 0.43676382 0.83452773 0.54861295 0.37149796 1.2531217 0.4302555 -0.1504168 0.15379424
55 -0.04645894 1.3487294 -0.2675521 0.3436161 0.32777765 0.3336622 0.30019715 -0.58065385 -0.7269973 0.12138623 -0.98001814 0.33714777 -0.4259015 -0.54184043 -0.51830137 0.8414829 0.12480345 0.34601107 -0.2966259 -0.7445139 0.025239367 -1.3497292 -1.0569227 0.3702977 -0.07122531 -0.40138134 0.056737833 -0.60440135 0.29927635 -0.90809256 -0.044798974 -0.91770035 -0.31479117 0.37701583 -1.0133339 0.7388224 0.054379407 -0.97904956 -0.2428602 -0.82831216 -0.026896715 -0.04055802 -0.7883194 0.42316854 -0.30005157 -0.45969018 0.17627576 -0.684345 0.14960803 0.8130092 -0.78791004 -0.45478302 -0.818646 0.8276944 -0.923416 -0.48291478 0.76947576 -0.057027157 -0.16380504 -0.9435364 -0.54966706 -0.14802957 0.18503292 0.4165585 0.75831026 -0.09428505 -0.3798197 0.038016118 -0.38443622 0.9900582 0.012988061 -0.31205472 -0.23404178 0.20346357 -0.6270656 -0.50081795 -0.38236496 0.14505367 0.22682014 -0.17382444 0.3623731 -0.26682425 0.29399082 0.4575761 0.5405205 0.4577803 -0.752733 0.7107562 -0.5487278 0.31240284 -0.5666774 0.94587463 0.54836714 0.15334177 -0.34105048 0.15319967 -0.06981266 -0.20996498 0.15499884 -0.85228866 0.5207107 -0.24127062 0.123140246 -0.28889608 -0.90231955 -0.25214684 -0.23319374 0.4600786 -0.66458756 -0.015898887 -0.24873507 0.48722568 0.7290956 -0.39940286 -0.41465408 0.43428403 -1.2641875 -0.5738027 0.6113097 -0.5661526 0.44673288 0.0870555 -0.40124282 -0.37019202 -0.55842876 0.20049195 -0.10286982 -0.5429429
145 -0.019105574 0.27470222 -0.5316135 1.0566467 -0.47672883 -0.40150687 -0.2710524 0.16921407 -0.47741595 -0.74918914 -0.6210602 -0.047880445 0.04102321 0.12309274 -0.11697861 -0.21949606 -0.38365567 0.26346657 -0.03884749 0.47284636 0.039669983 0.42360663 -0.5511849 -0.38263053 -0.2745981 0.3907251 -0.19148953 -0.8841482 0.0062585105 0.24549475 0.26606202 0.17664635 0.594385 -1.2010466 -0.12011055 1.421583 0.5483658 1.3971903 1.0016793 0.9176497 -0.66007566 -0.5978208 0.2475871 0.29708338 0.2283139 0.71869934 0.6375363 -1.2935488 0.69504267 0.019661877 0.21151322 0.6450252 -0.52618104 -0.0050452817 -0.09006473 0.16548336 -1.09058 -1.0370569 0.24612057 -0.5158561 0.35713834 1.3144932 -0.5317965 -0.73370486 0.1943141 0.20386311 0.07657869 0.7260078 -0.8557669 -0.059379783 -0.29940012 0.065965325 0.6309148 0.3446185 -0.047421694 0.09571676 -0.4106421 -0.73951626 -0.20770743 0.64785177 -0.26417762 0.115098305 -0.4343834 1.2251123 -0.5629582 0.3541234 -0.42771795 0.98892206 -0.5019969 0.027440652 -0.7562998 -0.073224545 0.124539435 -0.42953244 0.2908648 -1.5683522 -1.0301694 -0.11481266 0.0011579448 0.15851802 0.1305877 -0.30419657 0.6685923 0.18904057 0.2068712 -0.31817418 0.09589143 0.12425273 -0.60036284 0.70069766 -1.3143846 -1.116 -0.34930047 -0.117941916 0.4800697 0.5014115 -0.23807217 0.60254085 1.6898409 0.79186153 -0.17262271 -1.0293634 0.976154 0.11086198 0.14800675 -0.0072872583 -0.2547532 1.3902221
177 -0.71558094 0.8323805 -0.81356204 0.26136726 -0.20748149 0.19829538 0.19643012 0.07880536 -0.3440822 -0.48011824 0.6973689 0.2820571 0.069050536 0.413671 -0.05509391 -0.1040916 1.2968313 -0.07775664 -0.016055843 -0.54890853 -0.4986041 -0.35582495 -0.10507524 -0.20656338 -0.9102852 -0.25925824 -0.5288355 -0.736761 0.09008402 -0.6496708 0.5074186 -1.405104 0.84969044 0.17809454 -0.4154246 -0.5841306 0.7324316 1.2500955 -0.53194904 0.076957166 0.061729092 0.011567108 -0.31504282 1.4078062 1.5027647 0.2134996 0.5786346 -0.28027794 -0.00195684 -0.44323632 -0.18391818 0.57631165 -0.77262044 0.006918267 -0.15149611 0.85609746 0.34825218 -1.0464141 0.16702126 -0.3744879 -0.0962065 0.14187351 1.2490317 0.19954684 -0.058638863 0.54886514 -0.2839636 0.8657877 -0.5865944 -0.70562565 0.6351321 1.008736 0.31857792 -0.1986784 0.063967586 0.50953686 0.5389103 0.62355256 0.13224036 0.40280533 0.093602374 0.19675654 0.31002605 0.6188118 0.0014873539 0.037408326 0.578914 1.1158307 -0.04456293 0.50526094 0.09057852 -0.021243084 0.26606923 0.268809 -0.19625483 -0.2872387 0.2876081 -0.1382947 0.58361924 0.27735513 -0.5932252 0.13589163 -0.055906057 0.030916937 0.001258514 -0.7864698 -0.16468662 -0.35339698 -0.31230226 -0.021976558 0.77139366 -0.33767107 0.1989605 0.44984263 -0.8233879 0.6794147 0.27147752 -0.2069261 -0.6065382 -1.0931828 0.026001658 -0.46843854 0.9319181 0.7888219 1.4660374 -1.465346 -0.5546309 0.4856302
