39 128
38 0.018854314 0.006136465 -0.23208427 0.08800671 0.28908902 0.0906308 -0.22844902 0.25422654 -0.07315272 -0.043639924 0.1714955 0.041456778 -0.147404 0.0861271 -0.14584804 -0.27677837 0.18038693 0.009653183 0.06473457 0.13917617 0.06432464 0.32952252 0.06944255 -0.0073104356 0.04981276 0.071563184 -0.015579389 0.22649847 -0.09293476 0.01539271 -0.031609148 -0.10663611 -0.010357332 0.03283954 0.15865362 0.05458434 0.29398668 -0.14440756 0.069781706 -0.058496334 0.07233052 0.07297108 0.17259052 0.07210042 0.05164591 0.065226175 0.17372939 -0.119832575 -0.39069384 -0.21170883 0.11580265 0.14893182 -0.04810151 0.027712326 0.18058577 0.12687932 0.020929582 -0.030799609 -0.07864416 0.15095797 0.14422373 -0.10711224 0.025929345 0.13298579 0.032007027 -0.14190601 0.1589561 -0.05178493 0.10527036 0.07296338 -0.026041992 -0.0815877 0.28773838 -0.25621033 0.04931219 -0.028121542 -0.32738438 -0.042755593 0.18726511 0.29091418 -0.06603745 -0.101904266 -0.016770892 -0.011775406 0.042579968 -0.019897034 0.06224706 0.028458629 0.10482456 0.06959091 -0.30068192 0.021727527 0.04335682 -0.08723757 -0.019887451 -0.14205448 -0.26893833 0.026168799 -0.13819642 -0.036821283 -0.14310999 -0.03236365 0.039478853 -0.18907812 0.002016354 0.14591093 -0.015358219 0.20990488 0.1144906 0.014330812 -0.110211305 -0.10939628 -0.036112614 -0.078474574 -0.025106898 0.018908111 -0.2616866 -0.014528219 0.040799692 0.16109982 -0.20019773 0.326895 0.34377843 -0.008146482 0.06015792 -0.20552704 0.17104404 -0.08642166
35 0.040867064 0.013192686 -0.2147909 0.110734046 0.28211695 0.096678436 -0.2419366 0.24396673 -0.057379644 -0.08025148 0.16040267 0.039969563 -0.15702511 0.101979546 -0.13423261 -0.283185 0.16538332 0.020119525 0.08613731 0.14151971 0.055006225 0.3066917 0.047865815 -0.025765162 0.03205005 0.07669361 -0.009894219 0.21862195 -0.10022622 0.041192442 -0.04999603 -0.12534203 -0.011555733 0.03227286 0.1696595 0.0445493 0.28465942 -0.1100596 0.091776945 -0.05116192 0.08140059 0.09862619 0.17480935 0.090405956 0.04932838 0.041610852 0.17226975 -0.13930608 -0.4014649 -0.21900836 0.12711895 0.15061441 -0.042389385 0.01850109 0.15480845 0.14231642 0.025847755 0.000309588 -0.06507245 0.14207688 0.1279144 -0.09303135 0.035574116 0.118623205 0.04505114 -0.16992651 0.15081409 -0.060744856 0.10486615 0.06511114 -0.026727285 -0.066392414 0.28283167 -0.26004848 0.028442275 -0.022472626 -0.34775427 -0.048453607 0.18699326 0.27510387 -0.07929552 -0.112847105 -0.00984638 0.0009753507 0.05030676 -0.009466742 0.057938132 0.012623978 0.10317294 0.09966433 -0.3073146 0.041941725 0.037391953 -0.1163865 -0.03127913 -0.14637297 -0.2799033 0.013058396 -0.18149836 -0.060801297 -0.12267039 -0.040471464 0.04178132 -0.20028469 0.022290064 0.14761527 -0.018778127 0.21895745 0.11869214 0.042656768 -0.10386508 -0.112174265 -0.058826745 -0.06614352 -0.030232064 0.04043028 -0.27428597 -0.016195102 0.05366637 0.15954053 -0.19037199 0.33266026 0.35512403 -0.025507614 0.07393918 -0.20360571 0.15801245 -0.07453027
37 0.016659262 0.004150209 -0.2157408 0.09305107 0.29529563 0.08402269 -0.22548196 0.2394179 -0.073890634 -0.041106 0.16789117 0.029161008 -0.14874114 0.08526535 -0.13692228 -0.2847032 0.18447128 0.015971152 0.061107986 0.14103852 0.05632169 0.32430097 0.06791437 0.002519939 0.046474766 0.070187874 -0.014728764 0.2168248 -0.09622917 0.03473077 -0.022877704 -0.11488207 0.0015271215 0.024687218 0.16133702 0.056515276 0.29628205 -0.14138094 0.07255285 -0.060009632 0.06992615 0.07118892 0.15895401 0.07500889 0.066918306 0.059470277 0.16407917 -0.11973204 -0.40217832 -0.21054548 0.119140066 0.14031741 -0.049721148 0.04179399 0.17460866 0.13257094 0.018494116 -0.029501336 -0.07068003 0.15692894 0.12977049 -0.095183045 0.032901276 0.12166956 0.022027524 -0.14946857 0.16629498 -0.06714204 0.096279934 0.065737255 -0.02119234 -0.07288562 0.2743285 -0.2634341 0.043738592 -0.032640602 -0.32167268 -0.0419509 0.18209653 0.28622955 -0.07182504 -0.10591652 -0.011580281 -0.006507022 0.05044251 -0.022177333 0.06580129 0.025425408 0.1056047 0.0666045 -0.28568026 0.026035622 0.039503764 -0.08579352 -0.029919488 -0.1352905 -0.27299175 0.020356193 -0.14835075 -0.05349238 -0.14760338 -0.0411756 0.04666576 -0.19279808 0.0043791863 0.14506085 -0.015410986 0.20875636 0.11635353 0.025051037 -0.09063878 -0.101094924 -0.037562005 -0.08089383 -0.01562825 0.029439583 -0.26186138 -0.014977775 0.04328999 0.14731234 -0.2040012 0.31896532 0.34421018 -0.012876649 0.06598309 -0.1915919 0.16626471 -0.0767026
34 -0.03689501 -0.020459691 -0.26455835 0.024573535 0.30842525 0.09875748 -0.1942758 0.26958805 -0.10353559 0.049141288 0.19555274 0.028108789 -0.13121949 0.06066766 -0.18433522 -0.24109046 0.23249319 -0.0138427885 0.004323995 0.1297063 0.07627549 0.3642321 0.11440063 0.037607636 0.083547585 0.04318538 -0.00536479 0.2342967 -0.06786185 -0.04241609 0.012655191 -0.064406924 -0.0043365867 0.023777222 0.12526411 0.06726559 0.3068292 -0.22449079 0.020999478 -0.08407071 0.041362155 -0.0048934477 0.15068866 0.0038192053 0.05070286 0.1534753 0.1516278 -0.047521334 -0.36829552 -0.19072014 0.096659586 0.15447764 -0.050448284 0.059585392 0.24256466 0.093211114 -0.010055143 -0.102196746 -0.11785256 0.18081224 0.18656603 -0.12981027 0.012773927 0.14542477 -0.012220319 -0.07154336 0.1869908 -0.033882957 0.09351605 0.097220175 -0.036084402 -0.12948805 0.2925759 -0.22683756 0.13208081 -0.031960193 -0.2660996 -0.01052816 0.19623783 0.3045437 -0.04574472 -0.07655321 -0.011794775 -0.033099614 0.020121746 -0.030942002 0.07611 0.0683151 0.12848988 -0.02619999 -0.27126634 -0.019315649 0.043409906 0.0053294166 0.008563516 -0.104477786 -0.22029279 0.076453075 -0.023795418 0.019508839 -0.20165357 -0.012314886 0.030570423 -0.14888945 -0.05591283 0.13035187 -0.0025886889 0.18884824 0.10076908 -0.054435868 -0.11627304 -0.09080528 0.012821178 -0.095064975 -0.017424868 -0.05083199 -0.21391875 -0.009462667 0.019373318 0.14992304 -0.2072003 0.3142048 0.33677 0.020391261 0.03287195 -0.2013779 0.20529641 -0.09392192
21 0.0077122296 0.0055173417 -0.21274513 0.08225787 0.28914097 0.08768465 -0.21689238 0.23505136 -0.07668607 -0.022887198 0.16637641 0.034351703 -0.13443317 0.08683232 -0.13717203 -0.26395878 0.17774996 0.006804 0.04355717 0.1353073 0.050573632 0.32140785 0.07365658 0.0067147175 0.044278033 0.06491135 -0.010604455 0.2117203 -0.09032876 0.021721592 -0.022830678 -0.098449565 -0.0029945816 0.024844466 0.14339358 0.05888822 0.2823805 -0.15925403 0.06454953 -0.06989488 0.07018259 0.05136164 0.1566241 0.059458256 0.056534093 0.08051284 0.16013722 -0.09871122 -0.38298392 -0.19744523 0.1107924 0.13678032 -0.041698594 0.036992375 0.1788542 0.1219289 0.01978273 -0.03163475 -0.081200615 0.14934129 0.14813489 -0.09216436 0.03190834 0.11613984 0.01874269 -0.13314568 0.16213374 -0.059307374 0.09413566 0.078478985 -0.026476068 -0.075169496 0.26258042 -0.24234477 0.056301977 -0.022337068 -0.30221102 -0.023943445 0.17991616 0.2785853 -0.057225548 -0.0961282 -0.017631153 -0.01160657 0.04092559 -0.025479596 0.06977147 0.032343324 0.106630795 0.040198322 -0.27122617 0.02121209 0.041479234 -0.06457933 -0.02511017 -0.12807247 -0.25560254 0.03125446 -0.12499206 -0.03863886 -0.1530562 -0.031487796 0.038965043 -0.16994716 -0.011743938 0.13824807 -0.014212752 0.18755516 0.10282487 0.007500661 -0.09007674 -0.0978023 -0.024071174 -0.08231055 -0.012908373 0.018754192 -0.23804148 -0.013238227 0.03528572 0.14563768 -0.18996821 0.31342334 0.33461294 -0.01009335 0.050889067 -0.19213906 0.15751092 -0.07807979
7 -0.012912232 -0.004119913 -0.23840736 0.06987777 0.30339873 0.0892236 -0.21084376 0.24465095 -0.084879965 -0.0031069394 0.1787838 0.033020012 -0.1370156 0.07578468 -0.15264067 -0.26654822 0.21371254 -0.0014288459 0.02823274 0.13627504 0.061167005 0.3418362 0.08678064 0.017945407 0.05832162 0.055881552 -0.011270102 0.22854786 -0.07622063 0.008391462 -0.0004371545 -0.08552473 -0.0014015933 0.020640928 0.14068541 0.050807115 0.30459535 -0.18749472 0.048272546 -0.07319957 0.056851376 0.033242334 0.15980141 0.038634077 0.06341418 0.10734758 0.15491712 -0.079732604 -0.3859022 -0.19206035 0.11382543 0.13491401 -0.056606274 0.055484377 0.20800263 0.10828501 0.003043516 -0.06165361 -0.09356368 0.17199907 0.15378582 -0.11598128 0.023846224 0.1281585 0.0014343824 -0.11333374 0.18075836 -0.05034457 0.103246264 0.0873078 -0.03021791 -0.09744022 0.27716586 -0.24520177 0.08783037 -0.02092235 -0.30151182 -0.027318941 0.18746503 0.29356205 -0.0567921 -0.09829181 -0.00668931 -0.012912909 0.039086975 -0.03333535 0.06280278 0.049589198 0.12214105 0.012157754 -0.2706445 0.006932779 0.04414334 -0.04038066 -0.008204752 -0.11730639 -0.25809166 0.04149623 -0.09063932 -0.017543633 -0.17679918 -0.032650825 0.03563483 -0.17357089 -0.023955025 0.13676707 -0.015447756 0.19990708 0.109839 -0.008686731 -0.10003247 -0.09158976 -0.018141417 -0.08495572 -0.007862934 -0.00048659166 -0.238962 -0.021528933 0.028124245 0.14151369 -0.21163358 0.30816337 0.34454167 0.001432269 0.055293098 -0.19491273 0.17990673 -0.08448432
1 -0.021510651 -0.012608707 -0.2428118 0.048411425 0.30260688 0.088782474 -0.19883627 0.2499211 -0.08804587 0.018765848 0.18302594 0.033332303 -0.12592107 0.06588862 -0.16556798 -0.25026828 0.22268811 -0.009921233 0.019955346 0.1300074 0.072557285 0.33837467 0.0936524 0.03258373 0.07170049 0.053875953 -0.010382105 0.22810893 -0.072640225 -0.012583617 0.004904942 -0.077701114 -0.001804714 0.017043877 0.13614869 0.053225756 0.29739258 -0.19508284 0.042782795 -0.074665 0.045907445 0.021102216 0.15157951 0.025323108 0.052867774 0.12379831 0.14841023 -0.065075584 -0.3674632 -0.19135922 0.10115845 0.14813834 -0.04985099 0.05308336 0.22388673 0.096806526 -0.0007697727 -0.079831354 -0.10469203 0.16756648 0.1663875 -0.11977312 0.020353705 0.13953198 -0.007877032 -0.09251403 0.17991708 -0.049176563 0.09352526 0.08999993 -0.036017694 -0.10642212 0.2766283 -0.23764192 0.10589589 -0.031874474 -0.2841278 -0.02465977 0.18766111 0.290937 -0.054279193 -0.08899368 -0.0069488683 -0.023539126 0.030549038 -0.03391905 0.0679958 0.05225055 0.12277132 0.0005973833 -0.27487475 -0.0045809085 0.04251831 -0.019722914 -0.007954507 -0.10760084 -0.24048497 0.055867072 -0.05987294 -0.0033581608 -0.18104333 -0.021608213 0.034696713 -0.15607154 -0.03932768 0.13593213 -0.009967495 0.19082496 0.10094743 -0.028150612 -0.104431555 -0.09453429 -0.007220709 -0.08883174 -0.018032528 -0.02208341 -0.22161537 -0.018246708 0.021882594 0.1430905 -0.20403425 0.3001304 0.3349277 0.016566094 0.05125416 -0.19677004 0.1895425 -0.09292624
0 -0.03420625 -0.018797105 -0.26299104 0.021543348 0.30807403 0.100589775 -0.20219778 0.26644823 -0.10275915 0.04227258 0.19943042 0.03878704 -0.13115524 0.07217094 -0.18615243 -0.2235321 0.2418752 -0.019133117 -0.0060034464 0.13095054 0.08538578 0.36182994 0.11022365 0.0401086 0.087822355 0.04305809 -0.0073692393 0.23081978 -0.065653205 -0.053059362 0.0014641285 -0.0631627 -0.016097521 0.031642705 0.11598926 0.07352933 0.29427364 -0.21471818 0.019246146 -0.083123304 0.034766763 -0.00085393566 0.15232886 0.0042365864 0.046087366 0.16847119 0.1589677 -0.051508322 -0.36729005 -0.19107872 0.09553116 0.16331592 -0.046381894 0.05100463 0.23993394 0.09597695 -0.009123562 -0.092966124 -0.13130862 0.17994013 0.1833061 -0.122449346 0.0098451 0.14520489 -0.0070762527 -0.060102265 0.17436436 -0.019339383 0.092214204 0.10217906 -0.038214765 -0.13777265 0.30957633 -0.21689777 0.14607665 -0.031156821 -0.25448886 -0.0069624125 0.20567064 0.29763773 -0.044798423 -0.07519011 -0.013776225 -0.038003992 0.013734355 -0.02409715 0.08177574 0.06444839 0.124441646 -0.031500306 -0.27577835 -0.023683334 0.047533236 0.018261297 0.011181506 -0.10189877 -0.22328836 0.07817105 -0.013065671 0.034964222 -0.21610613 -0.012195193 0.017847532 -0.141819 -0.051758766 0.13249175 0.0042626546 0.1842901 0.10390698 -0.05677086 -0.12177758 -0.09189187 0.007732228 -0.09394497 -0.030728646 -0.057788283 -0.2102987 -0.008468617 0.013891842 0.14625837 -0.20375359 0.31871027 0.33373377 0.0142868655 0.02380836 -0.21394071 0.20795341 -0.10068769
6 -0.022676073 -0.018557463 -0.25210223 0.031993087 0.30055803 0.09308672 -0.19697092 0.2553118 -0.08938504 0.033609554 0.18568832 0.031337515 -0.12658572 0.06289694 -0.1678353 -0.23938291 0.22773603 -0.01225222 0.009925761 0.12693244 0.077937156 0.3438698 0.10070228 0.036371157 0.07840271 0.05014596 -0.00549061 0.22495939 -0.06023498 -0.028707998 0.0034462393 -0.06779433 -0.0046313494 0.023827368 0.12732565 0.057551168 0.29460254 -0.2033199 0.025290426 -0.074933104 0.038675148 -0.0005159738 0.1547469 0.01230883 0.053058837 0.14084621 0.15276726 -0.05398045 -0.35894063 -0.18409804 0.096007384 0.14829946 -0.04749823 0.050996892 0.23274978 0.08829736 -0.0066879313 -0.09144299 -0.11786398 0.1725269 0.17252974 -0.12261045 0.015525709 0.14229973 -0.008598389 -0.072020926 0.17560901 -0.042158373 0.095516786 0.09270846 -0.04325314 -0.1217086 0.2866564 -0.22440141 0.114258766 -0.026326299 -0.27158564 -0.020027794 0.19000427 0.29147506 -0.04581802 -0.08282036 -0.008051947 -0.031171607 0.022163862 -0.032099027 0.06412274 0.06464505 0.117865145 -0.021710837 -0.27225646 -0.015437994 0.043796018 -0.0008308161 -0.0023157035 -0.10108913 -0.22667167 0.06711705 -0.04169074 0.0078199785 -0.19218393 -0.016787447 0.027789395 -0.14792944 -0.045704458 0.13568375 -0.009642365 0.18909335 0.09499637 -0.04286322 -0.10733224 -0.09312491 0.006877796 -0.08727152 -0.018597985 -0.042001806 -0.21238284 -0.0128486855 0.019732673 0.14317867 -0.2015135 0.3011316 0.3247936 0.02171624 0.040998533 -0.19167 0.18960539 -0.0928633
22 -0.0033765812 -0.0037923183 -0.22422676 0.074836284 0.29218784 0.083738 -0.20459162 0.23120406 -0.07743459 -0.017268738 0.1667437 0.034254327 -0.13102825 0.08138441 -0.14093031 -0.2607882 0.1966977 0.00407389 0.036548965 0.12892947 0.05608108 0.32598013 0.07587696 0.016801218 0.051231742 0.061140742 -0.015401745 0.21487127 -0.079175346 0.01190266 -0.015188064 -0.096413285 -0.0034176663 0.023308843 0.14187668 0.05617266 0.28508532 -0.16414258 0.059774257 -0.06597887 0.06361404 0.046070598 0.1522677 0.053701457 0.05993217 0.08298177 0.15498829 -0.09052952 -0.3772941 -0.19524488 0.10704473 0.1343509 -0.048106775 0.043844804 0.19331864 0.11679007 0.01508536 -0.05329177 -0.08796882 0.15863147 0.14488593 -0.10464701 0.02495876 0.1251455 0.012000262 -0.11523227 0.16813579 -0.058181398 0.09088124 0.07713957 -0.030558124 -0.08567015 0.27150264 -0.24428526 0.07473896 -0.02165576 -0.29422328 -0.029869888 0.17512462 0.27824762 -0.058210615 -0.09538761 -0.0069535496 -0.011603986 0.04244496 -0.028316423 0.06306969 0.042806927 0.110789046 0.027482346 -0.2729511 0.011109085 0.04281592 -0.048788674 -0.020562226 -0.12141642 -0.2560916 0.03944426 -0.11033697 -0.02421066 -0.16229212 -0.02801883 0.040796243 -0.16496812 -0.022024369 0.14006084 -0.019826706 0.1893498 0.10707525 -0.0054407413 -0.09192097 -0.09860211 -0.018577836 -0.07435451 -0.014172781 0.0070804902 -0.23295231 -0.01569674 0.03430978 0.13999407 -0.19903964 0.30634454 0.32918742 0.002768626 0.056585006 -0.18570673 0.16762048 -0.08079866
18 0.028800588 0.0036886788 -0.2088485 0.09078902 0.27118576 0.08196125 -0.22460313 0.2276862 -0.059318673 -0.056958307 0.1529222 0.036836784 -0.14927159 0.08751572 -0.13150086 -0.27138323 0.17050552 0.014592931 0.06436221 0.14163859 0.06037942 0.300693 0.05003866 -0.011555185 0.044273566 0.072429374 -0.009765295 0.213742 -0.08734518 0.032669008 -0.03471778 -0.108361855 -0.011503881 0.03133819 0.16237529 0.045809552 0.27765715 -0.11790059 0.07344482 -0.04590723 0.06833803 0.08011697 0.16016859 0.07989578 0.049696777 0.046271354 0.1674489 -0.124154635 -0.3838161 -0.20629175 0.12035144 0.13621606 -0.04809008 0.023550509 0.16672696 0.12751408 0.020428786 -0.018120388 -0.06700034 0.140513 0.120783284 -0.09776987 0.03188898 0.12039531 0.027654927 -0.14966178 0.1554467 -0.062701374 0.10061961 0.06430586 -0.02971196 -0.07511932 0.26491022 -0.25249934 0.03400166 -0.028167028 -0.3257144 -0.04856677 0.178591 0.2735184 -0.07637891 -0.10421525 -0.011523765 -0.007948487 0.041691046 -0.013779201 0.054364257 0.014917096 0.097387895 0.07070161 -0.29146078 0.028644137 0.044489928 -0.096205525 -0.03108488 -0.13917488 -0.2689307 0.017641524 -0.1569436 -0.054728292 -0.13389717 -0.040098816 0.040830895 -0.17996712 0.012561181 0.14296731 -0.017508468 0.20272881 0.11213806 0.03072281 -0.09687695 -0.10034397 -0.044122458 -0.067432255 -0.023914054 0.032213565 -0.25837657 -0.014159323 0.045290235 0.14638042 -0.19327182 0.31295714 0.33030125 -0.014531343 0.07174236 -0.19328885 0.15401678 -0.078120895
11 -0.0043080063 -0.010211893 -0.22950858 0.058914065 0.28300852 0.09035168 -0.19983985 0.23752041 -0.07593391 -0.004146798 0.17146035 0.03240103 -0.12800334 0.07300896 -0.147736 -0.24879315 0.19975345 0.00044984976 0.028983528 0.1324223 0.068031155 0.32201833 0.0775182 0.02005067 0.055633113 0.051484972 -0.013813024 0.21795233 -0.0772508 -0.004016748 -0.015864233 -0.08483051 -0.006637713 0.019162169 0.13810092 0.052618053 0.28290966 -0.16450098 0.04589405 -0.05939375 0.053388674 0.036096077 0.15689577 0.04376063 0.054561723 0.09674379 0.15388758 -0.08235288 -0.36194065 -0.18459265 0.10530708 0.14322405 -0.046642672 0.044580724 0.19599864 0.09981246 0.008025072 -0.060649388 -0.09350122 0.15540539 0.14691506 -0.10737091 0.016976349 0.12831916 0.005588594 -0.10544545 0.16143344 -0.04672715 0.08895357 0.07728903 -0.032360956 -0.099035606 0.27500618 -0.2305918 0.08244593 -0.024927506 -0.28910697 -0.02623832 0.18062527 0.279889 -0.060561646 -0.08749299 -0.009696362 -0.013042819 0.03281354 -0.02074274 0.056839712 0.043819364 0.11286277 0.017495926 -0.27485865 0.0076263575 0.038390987 -0.03652443 -0.0082475785 -0.11590245 -0.24014221 0.04361394 -0.091442145 -0.015249258 -0.16422966 -0.031676076 0.035039667 -0.16333272 -0.026997242 0.13683023 -0.011342104 0.19107191 0.10586574 -0.012199156 -0.10337048 -0.09425022 -0.019096984 -0.075246915 -0.018151186 -0.008101903 -0.22507997 -0.016400147 0.024931459 0.14473061 -0.19537859 0.30249405 0.32474083 0.000809167 0.053919736 -0.18643619 0.17159589 -0.07970979
26 0.03646989 0.024517315 -0.21057856 0.10446965 0.2758461 0.091803856 -0.23483716 0.23184277 -0.05447227 -0.07790205 0.15441737 0.043617964 -0.1508725 0.100975156 -0.12783022 -0.27465153 0.15014598 0.017294407 0.08411996 0.14099142 0.054149628 0.30598444 0.047305096 -0.029304784 0.028377907 0.07950979 -0.018055268 0.21393418 -0.10423491 0.03905233 -0.045516815 -0.123826966 -0.012630876 0.038356576 0.16256316 0.04556818 0.28380147 -0.11141208 0.08361925 -0.05371086 0.08536181 0.0980202 0.16616496 0.09252397 0.047492113 0.03420543 0.17477114 -0.13481274 -0.39245322 -0.21210381 0.11877263 0.1436206 -0.04242337 0.02090606 0.15012597 0.14048392 0.029341085 -0.0037698199 -0.060697146 0.13837653 0.12196009 -0.08721894 0.035252325 0.119176574 0.041076273 -0.16806819 0.15074141 -0.06121886 0.10290858 0.0676368 -0.02578607 -0.061281074 0.27072185 -0.25100812 0.016253237 -0.022550555 -0.344464 -0.043279596 0.18141179 0.27632293 -0.07615074 -0.106739655 -0.015077716 -0.005199302 0.056061704 -0.013410308 0.061842505 0.010981473 0.09732038 0.09813951 -0.30051327 0.04124481 0.046122935 -0.11527067 -0.032840677 -0.15106654 -0.28330562 0.0062855664 -0.17708014 -0.06579164 -0.124902494 -0.03319616 0.041306324 -0.18989149 0.02641496 0.14425367 -0.024470434 0.2096792 0.110636696 0.04707563 -0.100636624 -0.11219782 -0.05157884 -0.06763597 -0.026827032 0.044700637 -0.26597154 -0.017492808 0.0468061 0.15568885 -0.18870492 0.3221559 0.33539194 -0.023628522 0.07386852 -0.1906779 0.14857924 -0.0794517
17 0.039492033 0.023939367 -0.2055449 0.10684259 0.26884115 0.08953449 -0.23553215 0.23836388 -0.054207433 -0.08375897 0.14831114 0.035753317 -0.15253304 0.09628107 -0.12781923 -0.27978268 0.15319449 0.020179553 0.087815136 0.14334446 0.057619616 0.30384144 0.04466963 -0.030634802 0.027977258 0.06917489 -0.011847943 0.21630071 -0.097196035 0.03144185 -0.055017002 -0.117206246 -0.008657385 0.038428526 0.16593894 0.04186736 0.27402586 -0.10172153 0.08616795 -0.04766587 0.078787714 0.101989545 0.17872407 0.09081691 0.04768476 0.032654315 0.17117287 -0.13980931 -0.38553232 -0.21294136 0.12541148 0.1420353 -0.044265326 0.020307673 0.147565 0.1319054 0.03200484 0.0022889744 -0.061952274 0.14006886 0.12144366 -0.089189716 0.028755175 0.12255851 0.049199887 -0.1635587 0.1424126 -0.061892565 0.104806416 0.06176151 -0.022628158 -0.05977339 0.2766365 -0.2555498 0.020900281 -0.023577819 -0.3407159 -0.05086454 0.17418519 0.27320087 -0.079354405 -0.109403916 -0.017623885 0.0033155805 0.05256209 -0.00936467 0.050680816 0.0059450413 0.08928385 0.10819383 -0.30945054 0.038859904 0.044253163 -0.119311176 -0.028572321 -0.14777449 -0.27364218 0.0037645814 -0.17769465 -0.063691825 -0.11780124 -0.038534537 0.043771937 -0.19855782 0.02793857 0.14447019 -0.02115386 0.20924437 0.1128694 0.044415615 -0.10604149 -0.10775319 -0.056368787 -0.07237024 -0.033730548 0.046034284 -0.2711445 -0.0071978206 0.051886465 0.16437075 -0.18162094 0.32911107 0.3436198 -0.021923944 0.07105722 -0.19341847 0.1548611 -0.080812685
14 0.04352119 0.02199024 -0.20371959 0.11426382 0.26548424 0.085873656 -0.23539318 0.23205274 -0.05046515 -0.085919425 0.15056601 0.038057934 -0.15723631 0.10282573 -0.1192603 -0.2794463 0.14149769 0.024245583 0.095797524 0.14196357 0.0572839 0.29786384 0.035443127 -0.02809082 0.028375577 0.073335856 -0.014466142 0.21287641 -0.09738922 0.042278275 -0.053068858 -0.12348464 -0.009054176 0.037046347 0.16781221 0.0417612 0.26995057 -0.08862385 0.09073399 -0.04491186 0.086662464 0.10807624 0.17315838 0.10066864 0.04714877 0.021243434 0.1717804 -0.14857967 -0.38084924 -0.21546198 0.122383334 0.14121208 -0.03854654 0.0143654905 0.14041309 0.13377279 0.03417882 0.0083947955 -0.052480828 0.13095547 0.11782544 -0.084601015 0.033788443 0.116793714 0.050435137 -0.17061819 0.1385194 -0.06696816 0.101473324 0.06237227 -0.029154582 -0.055133693 0.27142268 -0.2528129 0.005388023 -0.026623381 -0.35016337 -0.05021792 0.17113778 0.27018028 -0.07972885 -0.113823876 -0.017818954 0.00020188883 0.057781603 -0.005724228 0.05375535 0.0019515383 0.08990528 0.11473278 -0.30925086 0.041167393 0.04181106 -0.12329012 -0.03611101 -0.14716533 -0.28395033 -0.0030997887 -0.19255632 -0.06948571 -0.1068552 -0.040264867 0.043945868 -0.19359855 0.03479756 0.14876327 -0.024317015 0.21223274 0.11358502 0.058810104 -0.098716006 -0.111410335 -0.059813056 -0.07054567 -0.030496832 0.053409763 -0.26750413 -0.010022808 0.04876022 0.15383855 -0.18118066 0.32413453 0.339237 -0.021206567 0.07845329 -0.19201908 0.14675675 -0.08021894
13 0.044159584 0.02238191 -0.21488017 0.11172104 0.27761072 0.09420964 -0.23668335 0.2504049 -0.058474436 -0.07732396 0.15861797 0.04033629 -0.15295112 0.1026127 -0.13940835 -0.28530067 0.15421735 0.022123208 0.09055621 0.14584212 0.063869864 0.316094 0.048768528 -0.03126743 0.030808566 0.07159244 -0.010724785 0.2167085 -0.10531507 0.033543635 -0.055339128 -0.121517405 -0.008749603 0.037834983 0.16209015 0.048612114 0.287888 -0.11050139 0.09236331 -0.048623174 0.079232074 0.101797275 0.18325928 0.093284756 0.04229369 0.03965583 0.1786378 -0.14343429 -0.39369038 -0.22466233 0.12741002 0.15556608 -0.039252535 0.021904102 0.15498011 0.13858074 0.03130352 -0.0046691666 -0.0650883 0.14679827 0.1299731 -0.09692221 0.027139306 0.12861621 0.050633583 -0.16539088 0.14984974 -0.06419298 0.10132412 0.07274179 -0.027110932 -0.06658411 0.2893761 -0.26500055 0.018445093 -0.028900834 -0.35432205 -0.051334076 0.18928085 0.27898994 -0.074860685 -0.111418754 -0.021218942 0.00024665904 0.057321016 -0.011181637 0.0593429 0.005897491 0.0915802 0.10849836 -0.3199265 0.03888109 0.04531768 -0.11654761 -0.028980862 -0.15129647 -0.282246 0.011545342 -0.17732462 -0.062401295 -0.12201135 -0.03444148 0.03876481 -0.20086794 0.029815603 0.15467395 -0.021610392 0.21908586 0.12159615 0.048525892 -0.11192578 -0.114034064 -0.050671995 -0.07354093 -0.035141878 0.040589303 -0.27877885 -0.008586309 0.04911571 0.16832611 -0.18924671 0.33993855 0.3532901 -0.025321344 0.071493685 -0.20375496 0.15842922 -0.08370569
10 -0.00559978 -0.006713988 -0.22934228 0.052188568 0.28669563 0.08790473 -0.20473836 0.2356856 -0.07608124 -0.0010987888 0.1707202 0.033730507 -0.1323451 0.06848856 -0.15653856 -0.23955914 0.20173618 -0.0045926785 0.026663445 0.12999684 0.07041426 0.3242028 0.07994111 0.020052403 0.06492189 0.05091921 -0.012788913 0.21816263 -0.0759675 -0.008095642 -0.011138678 -0.077892244 -0.0038466325 0.021203717 0.13476303 0.04970911 0.28112316 -0.16788834 0.044001736 -0.061922546 0.052570906 0.026583584 0.15300788 0.035503246 0.052186374 0.09925551 0.15132612 -0.07320672 -0.35399693 -0.18344067 0.10328383 0.13795947 -0.043929067 0.04220616 0.19944952 0.101118416 0.0067031137 -0.06498002 -0.09168772 0.15726662 0.15198326 -0.110953756 0.020413883 0.12720808 0.0023059659 -0.09587211 0.16489865 -0.040068664 0.0898175 0.08251741 -0.037013795 -0.09936217 0.2728992 -0.22990687 0.088221334 -0.023135325 -0.2827021 -0.02797893 0.17969497 0.27519524 -0.05779911 -0.08490782 -0.012580885 -0.017368466 0.025592498 -0.02492277 0.058130942 0.049018815 0.105705425 0.016702222 -0.26856697 0.0061517362 0.041489564 -0.033776067 -0.011765914 -0.11192113 -0.23401286 0.042206086 -0.08211221 -0.009818917 -0.16920035 -0.02796436 0.031773407 -0.15808563 -0.027091278 0.13294251 -0.012982995 0.18388648 0.10503964 -0.017224235 -0.102532886 -0.089807265 -0.016938785 -0.07890166 -0.023489289 -0.015857577 -0.22089459 -0.017140402 0.02462207 0.1421438 -0.1894577 0.29924744 0.3214663 0.009575997 0.051173724 -0.18802415 0.17758581 -0.08749063
8 -0.015655918 -0.0055446937 -0.24137263 0.049862515 0.29751092 0.092274904 -0.20084293 0.24835794 -0.085412756 0.010281174 0.18006134 0.032100033 -0.12510993 0.06906685 -0.16286644 -0.2490962 0.20989321 -0.0020107431 0.01940628 0.12819824 0.0700867 0.3349122 0.092524685 0.02599822 0.06495613 0.049066674 -0.009033538 0.22289178 -0.066980444 -0.013698797 -0.0017467199 -0.08069181 -0.0046779513 0.023965832 0.13478309 0.05425096 0.29335645 -0.18833558 0.040584568 -0.065157585 0.05170431 0.0184885 0.14983292 0.032870367 0.050549116 0.10995223 0.15472162 -0.06941816 -0.3596467 -0.1910672 0.10416944 0.14430286 -0.052529518 0.047563612 0.21519639 0.095584825 -0.0017756891 -0.075302206 -0.10288803 0.16979551 0.1565675 -0.1119577 0.019907348 0.13134933 0.0009050021 -0.0933857 0.16945201 -0.047186386 0.096413314 0.08971784 -0.03427418 -0.1060505 0.27578786 -0.23445934 0.10061809 -0.024828095 -0.2846753 -0.020512944 0.18370755 0.2842564 -0.05538451 -0.087250814 -0.007992356 -0.020009262 0.02601631 -0.027681515 0.06357661 0.050693184 0.1169649 0.0055474555 -0.2717836 -0.0022527885 0.039428808 -0.027133984 -0.0040780273 -0.11158155 -0.23715734 0.0543866 -0.065345004 -0.0035163765 -0.17402019 -0.025960641 0.038287077 -0.15932833 -0.03575088 0.1327719 -0.014741289 0.19387367 0.09760885 -0.023185909 -0.10537446 -0.09086438 -0.009336404 -0.08392197 -0.016417608 -0.021138385 -0.22495691 -0.014235089 0.028735282 0.14207923 -0.19904129 0.30106416 0.33272234 0.014320617 0.0493436 -0.19426352 0.18068926 -0.0925224
31 0.0156201115 0.008197653 -0.21892132 0.088645495 0.28479615 0.092372514 -0.2172043 0.2288488 -0.07012505 -0.035880744 0.16183996 0.030100109 -0.14517029 0.08431813 -0.14066784 -0.26599512 0.18034717 0.0081756385 0.05322146 0.13585703 0.050757464 0.3218385 0.06408197 -0.005144774 0.048673537 0.06621681 -0.014298968 0.2202138 -0.088172644 0.02407585 -0.025101336 -0.10844476 -0.0034592836 0.031120004 0.15121128 0.050300818 0.28847802 -0.14616247 0.06580478 -0.06110915 0.07291698 0.06295396 0.15929164 0.062070042 0.060309414 0.07095631 0.16019185 -0.10708026 -0.388097 -0.20377663 0.11821574 0.13145706 -0.049248617 0.04108409 0.17121676 0.12803566 0.014810419 -0.026506435 -0.077922255 0.14598472 0.13737072 -0.0900857 0.031413063 0.116274044 0.017049579 -0.13392098 0.16375293 -0.055338126 0.1015396 0.07545854 -0.024522396 -0.07921468 0.2640708 -0.24638802 0.05008068 -0.02778257 -0.30741477 -0.02991848 0.1741471 0.2786153 -0.065689236 -0.10237969 -0.016181592 -0.0051300926 0.04225712 -0.026595004 0.06642214 0.029284626 0.10947012 0.05035743 -0.27880624 0.02800662 0.041011192 -0.07952911 -0.023560096 -0.12836207 -0.25812197 0.024024282 -0.13151552 -0.044184867 -0.14806983 -0.03336405 0.03761347 -0.17899187 -0.0039657103 0.13426517 -0.01760151 0.19682199 0.10640618 0.01683291 -0.09451413 -0.1009626 -0.03223706 -0.07943452 -0.021366833 0.02677982 -0.24898238 -0.0154953515 0.035164896 0.14598884 -0.19785357 0.31721148 0.33246878 -0.012294782 0.055826265 -0.19205442 0.15974748 -0.07313281
2 0.047419418 0.029316183 -0.21415049 0.107036725 0.25609317 0.0954963 -0.23603271 0.23417263 -0.04763226 -0.08476097 0.1443108 0.04860605 -0.15429418 0.10040346 -0.12755121 -0.2622131 0.14307477 0.017083963 0.09399927 0.13977483 0.060702488 0.286691 0.03932259 -0.033221837 0.033064675 0.0783272 -0.014894496 0.21305236 -0.097957455 0.03282113 -0.055585686 -0.11987411 -0.015453282 0.044855166 0.15016934 0.04539752 0.27204815 -0.09972745 0.08241339 -0.043219946 0.08303839 0.100519896 0.17714024 0.0860324 0.041921705 0.03035081 0.17108747 -0.14548536 -0.3769728 -0.20614831 0.11856681 0.15186204 -0.04607543 0.009062602 0.1390513 0.13810542 0.030588666 0.008545254 -0.05725422 0.13418914 0.12457762 -0.09091233 0.03203844 0.123126216 0.0491949 -0.15606941 0.13627455 -0.055722952 0.10002061 0.0710971 -0.022065958 -0.06431517 0.27824524 -0.24009031 0.02442943 -0.015655417 -0.33861944 -0.047467686 0.17805679 0.260236 -0.07133504 -0.11159405 -0.013079633 -0.0064266375 0.042147696 -0.006841879 0.05409658 0.008777486 0.09051456 0.11052177 -0.3047982 0.042634267 0.04026754 -0.11667843 -0.021882184 -0.15147838 -0.27265325 0.0115568545 -0.1748258 -0.050721638 -0.109400585 -0.032259695 0.030278105 -0.18929544 0.03182928 0.14114173 -0.026910556 0.20823002 0.110924356 0.0470395 -0.11048123 -0.11144156 -0.06253534 -0.062006522 -0.040715147 0.037491284 -0.25826284 -0.009662456 0.046941873 0.16239108 -0.1713775 0.32523912 0.33698115 -0.018728714 0.06653174 -0.19071515 0.15246758 -0.079139546
32 0.016793601 0.0024663568 -0.20861366 0.088369854 0.27470648 0.08621808 -0.20970865 0.22594784 -0.061154738 -0.048450567 0.15440997 0.036293093 -0.13716194 0.08367012 -0.13000382 -0.25704345 0.16923377 0.008979611 0.05418117 0.12910844 0.05053659 0.303024 0.058185253 -0.0010773931 0.04463476 0.06584774 -0.014837354 0.2069653 -0.08842077 0.02618451 -0.030286092 -0.10753934 -0.0020795418 0.025965627 0.15378524 0.044408407 0.27785775 -0.12834607 0.07225728 -0.05372161 0.06585583 0.068880886 0.1528088 0.07227027 0.05816004 0.059126034 0.15437117 -0.108042754 -0.37310892 -0.19276473 0.10939534 0.12814279 -0.045111213 0.030831996 0.16830347 0.123454355 0.018372755 -0.029266471 -0.07282623 0.13939737 0.13000461 -0.08918595 0.029728243 0.11451156 0.019762179 -0.14060272 0.15178606 -0.06137311 0.09467837 0.06799239 -0.021484071 -0.067797944 0.25918928 -0.24045698 0.04316547 -0.024616113 -0.30885616 -0.03525819 0.17014028 0.26515725 -0.06707799 -0.10364914 -0.0136092575 -0.008054248 0.047207322 -0.019321173 0.056861565 0.026426353 0.09801886 0.0628165 -0.27442962 0.026314897 0.039425056 -0.077900685 -0.027335927 -0.12967734 -0.26112944 0.0249396 -0.140848 -0.04276298 -0.13213117 -0.03469902 0.03895474 -0.17616534 -0.0016738315 0.14151527 -0.023955612 0.19071025 0.1098688 0.024897268 -0.08870877 -0.09753375 -0.03978566 -0.07144958 -0.017185094 0.029174041 -0.24142957 -0.014267749 0.044258203 0.14338677 -0.18351415 0.30349398 0.32181624 -0.00726273 0.060088273 -0.1816373 0.15217082 -0.07097615
12 -0.008963118 -0.009654544 -0.23388793 0.05004231 0.29495654 0.087311625 -0.2016739 0.24945866 -0.08134286 0.0064301067 0.17822532 0.03067665 -0.12699656 0.069060706 -0.16180332 -0.24100812 0.20755312 -0.00097146764 0.023567056 0.12942198 0.07171073 0.3363361 0.088372275 0.025114108 0.063782826 0.050722834 -0.00846084 0.22059065 -0.06905053 -0.017055728 -0.011632259 -0.07537172 -0.008291165 0.026498575 0.12861197 0.056118567 0.28200576 -0.18267334 0.045158774 -0.065467596 0.04893174 0.019811608 0.15272875 0.035799026 0.048075434 0.11240759 0.15122212 -0.0676382 -0.36230707 -0.1890499 0.102687806 0.14948641 -0.045968488 0.04364064 0.20639557 0.10338283 0.0009415777 -0.06780629 -0.10353251 0.16690719 0.15833798 -0.11406411 0.015983766 0.13413443 0.0008258929 -0.09560132 0.17005341 -0.046514697 0.0935931 0.08885368 -0.038224492 -0.10561954 0.28314137 -0.2270428 0.098085575 -0.027653597 -0.2833163 -0.020037906 0.18380906 0.28386268 -0.0503442 -0.08350543 -0.010604068 -0.021578588 0.027176628 -0.02757651 0.060228202 0.050311938 0.11060183 0.011597254 -0.27719998 0.002188389 0.047098305 -0.022062713 -0.00991915 -0.11520338 -0.2348707 0.053058475 -0.07201633 -0.004821493 -0.1742562 -0.019621693 0.029357221 -0.15307052 -0.032612883 0.13806848 -0.008388461 0.18595007 0.10054534 -0.025290834 -0.10272973 -0.09816741 -0.011063988 -0.08276464 -0.025800627 -0.01880063 -0.22483061 -0.010379383 0.02045309 0.14385456 -0.19425449 0.30143937 0.32755607 0.012881736 0.047400307 -0.19154765 0.17650001 -0.08690586
25 0.03544891 0.016471583 -0.20296644 0.10144104 0.26700747 0.09217317 -0.22748242 0.2249363 -0.05067892 -0.07131177 0.14778966 0.034689557 -0.144885 0.09091622 -0.122117296 -0.26620653 0.15801649 0.021858927 0.078168765 0.13438834 0.0594289 0.29229203 0.041304596 -0.021892624 0.036134228 0.07534138 -0.014941813 0.2081165 -0.09309267 0.035407905 -0.043602265 -0.11543203 -0.012154459 0.031655777 0.15854734 0.04942198 0.27353343 -0.10440086 0.08326779 -0.050055183 0.07898575 0.08621127 0.17051162 0.08571946 0.04611925 0.044440467 0.1650896 -0.1286133 -0.38114718 -0.20330217 0.119576454 0.14560014 -0.04254835 0.015390149 0.14821881 0.12728186 0.029142858 -0.001359985 -0.062280875 0.14232619 0.11717253 -0.08792205 0.030824348 0.119802445 0.042935554 -0.15342529 0.14553513 -0.057478994 0.100896224 0.06494478 -0.022413177 -0.06798434 0.26984257 -0.24777524 0.024341514 -0.021907793 -0.33034322 -0.047594056 0.17781258 0.26253632 -0.06961325 -0.106419064 -0.017883535 -0.0011637728 0.050168544 -0.016269313 0.049711213 0.0125431195 0.09623365 0.09514081 -0.29838762 0.034083065 0.040075306 -0.10888363 -0.023319742 -0.14481187 -0.2689231 0.010298828 -0.17054564 -0.059323367 -0.1249478 -0.035231948 0.03527741 -0.18298303 0.018156378 0.14055781 -0.02318173 0.20062892 0.115015246 0.038555823 -0.10348566 -0.103916585 -0.054867376 -0.07068386 -0.031787585 0.035346016 -0.25616542 -0.012315033 0.04636511 0.15129662 -0.17995915 0.31947908 0.3315006 -0.019318277 0.06736287 -0.18854778 0.1513298 -0.076316096
29 0.0061735264 0.0011716868 -0.21089123 0.07466494 0.27719444 0.08609748 -0.212267 0.2270673 -0.07177989 -0.03428189 0.16159347 0.037943266 -0.14088811 0.07960532 -0.13543002 -0.25728026 0.17746921 0.0031537483 0.04430753 0.13466613 0.056156203 0.3121541 0.06328403 -0.0024480233 0.04648631 0.061665006 -0.017505867 0.21515684 -0.085020125 0.021228425 -0.020331591 -0.09724909 -0.007073585 0.026290035 0.13948666 0.047828924 0.27974334 -0.15000091 0.06204668 -0.059971128 0.067037314 0.05826526 0.15033938 0.060599264 0.050875694 0.06877323 0.15880892 -0.09885971 -0.36421192 -0.19475156 0.10722695 0.1331093 -0.046520058 0.04039783 0.17315942 0.11732813 0.018464185 -0.031111114 -0.07855962 0.14754647 0.13761762 -0.09697107 0.027668102 0.11962791 0.015231214 -0.12503828 0.15434447 -0.050940163 0.09083404 0.07834623 -0.0294442 -0.07281324 0.2564594 -0.2392284 0.05379137 -0.024456495 -0.30303168 -0.030734539 0.1708513 0.271143 -0.059400685 -0.099570505 -0.011087969 -0.0072160307 0.039361563 -0.022193016 0.06779669 0.024845459 0.1052428 0.04463223 -0.27503285 0.017453408 0.04102921 -0.06536704 -0.020997161 -0.121471904 -0.25342306 0.024599928 -0.124151535 -0.03575067 -0.14498395 -0.034913637 0.042214464 -0.16886222 -0.007537135 0.13254294 -0.019663785 0.19086108 0.10404717 0.014562877 -0.088562705 -0.09505965 -0.033429664 -0.07573892 -0.015435336 0.015630808 -0.23278528 -0.0118783945 0.039051052 0.13617373 -0.19288261 0.30173334 0.3261849 -0.010695789 0.051110238 -0.18407261 0.16129242 -0.07511658
27 0.03016524 0.016268294 -0.21097307 0.09639951 0.27649215 0.0916135 -0.22509827 0.23475415 -0.05795069 -0.06571769 0.15898386 0.035385113 -0.14836349 0.095897034 -0.1260465 -0.2700281 0.15662311 0.020051036 0.07794351 0.13532306 0.0513586 0.3072483 0.05067733 -0.01935315 0.035757095 0.07524582 -0.013491519 0.21120714 -0.10050456 0.035369493 -0.045025226 -0.116581574 -0.007451117 0.035334606 0.15320934 0.048100576 0.2791711 -0.11681689 0.08357937 -0.05646911 0.0820576 0.08088029 0.16984856 0.08073586 0.046993095 0.046290938 0.17040485 -0.1328088 -0.3865495 -0.20496622 0.118469074 0.14137012 -0.041706022 0.020463707 0.15050142 0.13455929 0.023763783 -0.006501045 -0.06491876 0.14643838 0.12933108 -0.087503046 0.030747049 0.12170174 0.0343522 -0.15725227 0.15349893 -0.062773965 0.10379807 0.063335374 -0.024746187 -0.06994303 0.2721391 -0.25265637 0.023528839 -0.02444148 -0.32859945 -0.04229445 0.17843944 0.27436903 -0.071407475 -0.10462051 -0.012017244 -0.00795373 0.05409753 -0.018294752 0.057681993 0.01278249 0.09690391 0.09106369 -0.2949987 0.03323374 0.0428191 -0.10805764 -0.031853635 -0.14522417 -0.2703246 0.014367873 -0.16963094 -0.055988584 -0.12693398 -0.03691748 0.03874795 -0.1892051 0.020867683 0.14035413 -0.02305937 0.2071108 0.11603619 0.03663541 -0.10229704 -0.10983952 -0.05121903 -0.072573364 -0.028575763 0.03604521 -0.2591786 -0.012623562 0.042251002 0.14860229 -0.18603255 0.32459116 0.33848667 -0.021701513 0.069755204 -0.18703139 0.14960773 -0.07439939
28 0.038404904 0.01939727 -0.20304003 0.09894627 0.2609939 0.08671658 -0.23017164 0.22514221 -0.050839238 -0.07152332 0.15295973 0.040136144 -0.14828855 0.09353986 -0.12321851 -0.26793736 0.14936894 0.02070576 0.07533413 0.1378353 0.05857819 0.29371968 0.041369073 -0.025384383 0.029296597 0.073725216 -0.010618437 0.21174116 -0.093862444 0.031019516 -0.049793042 -0.1145994 -0.014211936 0.03886665 0.15963086 0.046324603 0.27082646 -0.109320424 0.08324751 -0.050164927 0.07508119 0.085347965 0.16474527 0.08851506 0.043719668 0.041457307 0.16944939 -0.13355845 -0.37966517 -0.20554127 0.115568995 0.13882203 -0.04669055 0.018962894 0.14984499 0.13184336 0.029645294 -0.008165304 -0.0657413 0.13682993 0.12390324 -0.08919163 0.026737312 0.118611254 0.04091147 -0.157602 0.14250103 -0.06249603 0.102673896 0.06467708 -0.025814166 -0.067143515 0.2723918 -0.24286115 0.020482829 -0.021096427 -0.33107477 -0.04859016 0.1761805 0.2693807 -0.072918124 -0.10401953 -0.011088571 -0.0027272247 0.049574398 -0.013095642 0.05687611 0.009061276 0.09159556 0.09141455 -0.29590723 0.033652287 0.040612727 -0.106460094 -0.027119525 -0.14524078 -0.27087614 0.0071854806 -0.16916354 -0.061251037 -0.11870468 -0.03518336 0.040039483 -0.18342109 0.02594741 0.14205983 -0.017952127 0.20423849 0.11092566 0.042877898 -0.09858731 -0.10707881 -0.05662141 -0.069405444 -0.03085506 0.036697615 -0.2564109 -0.008926098 0.046167538 0.14720508 -0.1854618 0.31580326 0.32732496 -0.021689419 0.06673647 -0.18608597 0.15158278 -0.074371435
24 0.03542725 0.020320633 -0.20366116 0.11008527 0.26645085 0.08953977 -0.23074372 0.22657365 -0.055078987 -0.07766632 0.1548922 0.039253958 -0.14874625 0.09685962 -0.1274939 -0.2761712 0.1485239 0.017843865 0.082778916 0.14400853 0.054333847 0.2997786 0.04347105 -0.02656301 0.026457021 0.077115394 -0.014655479 0.21200639 -0.10142125 0.043331437 -0.04865277 -0.11886864 -0.009200151 0.036319647 0.1615292 0.04430858 0.2760105 -0.102814704 0.08938328 -0.04597218 0.083322026 0.091921955 0.17132446 0.08964522 0.048003897 0.029711885 0.16885681 -0.13400505 -0.38809505 -0.21385837 0.119219095 0.14385498 -0.03871392 0.02359733 0.1453366 0.13365638 0.027082972 -0.00080136384 -0.06371639 0.13479838 0.11957399 -0.09094054 0.032301415 0.120717764 0.0432506 -0.16577144 0.14408623 -0.06697831 0.10310188 0.06242123 -0.026288496 -0.06047143 0.26727024 -0.25553775 0.011899753 -0.02553927 -0.3445754 -0.048839577 0.17921363 0.27211195 -0.07901558 -0.10574507 -0.015304614 -0.0026068534 0.05731919 -0.009936966 0.05759286 0.00726186 0.09445125 0.1020904 -0.3047414 0.03875131 0.04198614 -0.11926412 -0.032550216 -0.14513738 -0.2809685 0.0047586127 -0.18386424 -0.07042662 -0.12229549 -0.034189206 0.04110593 -0.19581796 0.025241433 0.14140221 -0.025507241 0.21239059 0.11626173 0.044069827 -0.09695107 -0.11275053 -0.052628003 -0.06707558 -0.031690862 0.045775842 -0.26668742 -0.017655136 0.04973548 0.1555126 -0.18466498 0.32416984 0.33528045 -0.025768287 0.07423183 -0.19302805 0.14932474 -0.07195161
15 0.038136087 0.019263169 -0.22018632 0.09710224 0.2745218 0.09030336 -0.23705147 0.24317917 -0.054489993 -0.072393596 0.15459232 0.04704144 -0.15384917 0.09989724 -0.13785952 -0.26954815 0.15812398 0.012439947 0.08279025 0.14014214 0.06059044 0.30664808 0.048731945 -0.021385748 0.037017185 0.07177094 -0.013278467 0.21915436 -0.10014861 0.025895486 -0.04744639 -0.11295905 -0.008321356 0.041057225 0.15350048 0.04597369 0.27707267 -0.1117841 0.08181767 -0.050020896 0.074845105 0.092669666 0.17821945 0.08290654 0.047474686 0.041238982 0.17627193 -0.13136281 -0.38457036 -0.2094442 0.11799899 0.15410532 -0.048689988 0.017613377 0.16014776 0.13724521 0.030954618 -0.005054878 -0.063745864 0.14159064 0.13484047 -0.0950943 0.029837947 0.12769185 0.045478445 -0.15698142 0.15126099 -0.0575822 0.1045673 0.07615837 -0.028943678 -0.07417055 0.28009638 -0.25077447 0.034110803 -0.024620771 -0.33701655 -0.04302999 0.17888348 0.2733744 -0.07586394 -0.105791524 -0.01779239 -0.0023770547 0.047761686 -0.013505633 0.057995986 0.013082953 0.09855114 0.08800247 -0.30772075 0.034164283 0.040809754 -0.10690236 -0.022333361 -0.14656359 -0.27463737 0.014405641 -0.16543849 -0.04875197 -0.12759909 -0.03652289 0.03673726 -0.18669972 0.014754139 0.14695331 -0.02001735 0.2064167 0.110058986 0.038717177 -0.104597256 -0.10821866 -0.050322954 -0.06968931 -0.030679679 0.030162875 -0.26445425 -0.0089758225 0.04963097 0.16155148 -0.18983728 0.33015293 0.3451407 -0.014217547 0.06489147 -0.20167418 0.16300711 -0.08116141
20 0.010161223 0.0030318736 -0.21971844 0.0881182 0.2833448 0.08446641 -0.22093174 0.23815848 -0.07224845 -0.03790074 0.16128525 0.03392307 -0.14759763 0.08518759 -0.14251582 -0.2636178 0.17972942 0.009069947 0.053380504 0.13121133 0.053777777 0.32045382 0.069685064 -0.0001582561 0.049511548 0.06539249 -0.01702728 0.22136454 -0.09343993 0.019366298 -0.030585872 -0.10587331 -0.0026938566 0.031427164 0.15650585 0.05437138 0.28694737 -0.14715524 0.071816124 -0.058082294 0.067966215 0.06768546 0.16329435 0.06616118 0.059946075 0.07294468 0.16191924 -0.111755855 -0.39045995 -0.20513317 0.11763032 0.13970202 -0.04447158 0.03986097 0.1736307 0.12273416 0.017518776 -0.034195647 -0.07974056 0.15556191 0.13396625 -0.10016874 0.030891694 0.12300046 0.025206046 -0.1352262 0.15879318 -0.06054083 0.096914664 0.07022126 -0.0231515 -0.07458989 0.27761537 -0.2526449 0.053847764 -0.030730298 -0.31171525 -0.036397025 0.17827255 0.28087384 -0.06799457 -0.10722767 -0.013441922 -0.0137626575 0.043928444 -0.024071276 0.06604207 0.0298321 0.10711697 0.059332553 -0.28368407 0.0218798 0.043787964 -0.076315455 -0.021191943 -0.13509277 -0.26255998 0.030362332 -0.13347982 -0.041905455 -0.1524637 -0.03922115 0.04137581 -0.17827997 -0.0020202037 0.14650355 -0.014632592 0.19773267 0.11537812 0.015409064 -0.09427754 -0.09559596 -0.039604887 -0.075548574 -0.022627385 0.020523341 -0.25088406 -0.014938915 0.044878263 0.14671274 -0.19892147 0.31420258 0.33427602 -0.0044635967 0.06456364 -0.19673467 0.16496381 -0.07513667
9 -0.0029790623 -0.00016796331 -0.23359033 0.06161206 0.28495902 0.092014134 -0.20437907 0.24705932 -0.0777682 0.00032967288 0.16967107 0.033322934 -0.13452668 0.07561453 -0.15453923 -0.24595535 0.20242281 -0.0024535516 0.032383 0.13327113 0.06773732 0.3268561 0.086971 0.015636628 0.05883343 0.052205354 -0.01334748 0.21647596 -0.07372743 -0.009510472 -0.011194186 -0.07930252 -0.0058316533 0.022483166 0.13237402 0.050135024 0.2848396 -0.17430092 0.045378394 -0.06570359 0.055165935 0.035545282 0.15653692 0.03322112 0.048503254 0.102971025 0.15213831 -0.084859826 -0.35822797 -0.19377999 0.101912014 0.13835588 -0.050840907 0.04487428 0.19912273 0.10304763 0.0028994032 -0.058853935 -0.098657325 0.15904179 0.15466718 -0.11461508 0.017616235 0.1337373 0.007970309 -0.097146966 0.16532326 -0.04925594 0.09555663 0.08699926 -0.036741138 -0.097963646 0.2761983 -0.22965977 0.08753921 -0.022814427 -0.28707802 -0.024524817 0.18213235 0.2799115 -0.05779096 -0.09188035 -0.01333836 -0.019187743 0.03054547 -0.028717251 0.06576777 0.046438884 0.10895806 0.017525705 -0.27341855 0.0046405136 0.043546587 -0.038578767 -0.0056227637 -0.11606864 -0.24301165 0.041588083 -0.07863502 -0.015688155 -0.16402555 -0.023986284 0.03160426 -0.16161092 -0.02259205 0.13257203 -0.008998155 0.19478299 0.100778356 -0.011729417 -0.10205382 -0.09342427 -0.010464691 -0.0842364 -0.023906978 -0.008367043 -0.22418188 -0.01429646 0.03029175 0.1455127 -0.19633797 0.30800888 0.3297935 0.0030841106 0.044677246 -0.19204086 0.17928134 -0.09134967
30 0.020984897 0.014125967 -0.20321175 0.08896024 0.27960458 0.08712826 -0.22416137 0.22824523 -0.068716645 -0.046849623 0.16025129 0.034335762 -0.14250706 0.09345881 -0.13093786 -0.27013043 0.16202533 0.014156694 0.05574536 0.13712278 0.047330562 0.31019896 0.059194874 -0.006336913 0.04132631 0.07448003 -0.012623152 0.21417084 -0.09164835 0.03387602 -0.031914566 -0.111643426 -0.0073735034 0.02485309 0.15371569 0.05517788 0.28336716 -0.1353357 0.07125391 -0.0638534 0.07729609 0.06995819 0.15554567 0.07135748 0.059666824 0.054401528 0.15963694 -0.120609306 -0.38783014 -0.2070803 0.115338154 0.12952365 -0.047868382 0.035229992 0.1643807 0.12966329 0.024383975 -0.014566038 -0.07436735 0.13761917 0.13409115 -0.088072106 0.03394549 0.11384131 0.026987137 -0.14884412 0.15295742 -0.06149831 0.09819519 0.06863571 -0.020331452 -0.06667856 0.26274997 -0.24353598 0.037727956 -0.025895162 -0.31695047 -0.031704355 0.17406349 0.2760184 -0.06533075 -0.10790151 -0.01965516 -0.008052998 0.044872057 -0.01655667 0.069747485 0.01851699 0.10599412 0.06650676 -0.27948868 0.033061784 0.04139719 -0.08967942 -0.029241014 -0.13496055 -0.25938082 0.022597343 -0.15360633 -0.051178154 -0.13664064 -0.038296446 0.04037496 -0.18437055 0.0041643768 0.13950272 -0.022465922 0.19130233 0.11245646 0.024799533 -0.09525188 -0.097455725 -0.042333335 -0.077758394 -0.016173039 0.03618871 -0.25244167 -0.016319286 0.041563313 0.14687607 -0.18939652 0.31716114 0.3322154 -0.017065218 0.06291028 -0.18792757 0.1532702 -0.0744164
16 0.032974113 0.021084758 -0.23609106 0.08699494 0.28113973 0.10480225 -0.23764823 0.25818557 -0.060188692 -0.06554895 0.16717711 0.049788732 -0.15365605 0.100449465 -0.1534363 -0.25890633 0.17329222 0.009082209 0.076666385 0.13575928 0.06596461 0.31627885 0.062103603 -0.026630962 0.036941666 0.06770607 -0.017311258 0.22041288 -0.10031237 0.0038311763 -0.05497504 -0.10885491 -0.010424244 0.048757214 0.14763963 0.05809811 0.28427678 -0.12355271 0.07671154 -0.05994074 0.07786643 0.08986479 0.1794728 0.07073336 0.04105778 0.060129207 0.18221577 -0.13776356 -0.3882172 -0.21285257 0.11532943 0.16268411 -0.04648462 0.016310781 0.16344996 0.1390088 0.021454912 -0.011290198 -0.07789066 0.14074649 0.14414819 -0.10170822 0.032758813 0.13441044 0.042925492 -0.14341746 0.14993198 -0.048591785 0.103544876 0.08211501 -0.028116055 -0.08108245 0.3005407 -0.23943807 0.0493897 -0.019198444 -0.32568103 -0.033719856 0.18442751 0.2804693 -0.068117574 -0.10928505 -0.019307509 -0.012195376 0.034896474 -0.006361314 0.0699576 0.020355571 0.09776433 0.08624357 -0.3052639 0.033993278 0.040737335 -0.09549185 -0.018807571 -0.14120914 -0.26780397 0.021887759 -0.14346173 -0.03421676 -0.13116767 -0.027456114 0.027949918 -0.1799298 0.02074075 0.14754003 -0.021306818 0.20846094 0.11291393 0.02692337 -0.11622941 -0.1057224 -0.053147063 -0.068393305 -0.041695055 0.018554395 -0.25853536 -0.006205593 0.05142619 0.16898872 -0.18332933 0.33672547 0.34249005 -0.0132068135 0.05503112 -0.21051967 0.1665527 -0.082628936
5 -0.019073948 -0.0011408557 -0.26311526 0.03062163 0.31705505 0.09954603 -0.20972942 0.2822792 -0.08964174 0.033674046 0.19247767 0.03928724 -0.14439486 0.08024554 -0.18857527 -0.23250115 0.21413629 -0.0181916 0.009666521 0.13144591 0.082571864 0.37083298 0.1022609 0.022350444 0.08289973 0.05801744 -0.012520778 0.24443682 -0.07396212 -0.041547526 -0.0027430484 -0.06715405 -0.01686994 0.031815477 0.12010181 0.05929169 0.30782858 -0.21446699 0.032928366 -0.08755122 0.037132286 0.0049420055 0.16369243 0.024860663 0.04883467 0.14317633 0.15800628 -0.055962898 -0.36698195 -0.19846651 0.09413543 0.16820772 -0.04857519 0.05132394 0.23610349 0.09537235 -0.005426351 -0.08952928 -0.11712832 0.1673292 0.19200635 -0.12802568 0.019352214 0.14254127 -0.00073428045 -0.07975262 0.17441407 -0.035529494 0.09166105 0.102125704 -0.04174245 -0.12481992 0.31284893 -0.23162588 0.11538317 -0.037227236 -0.28492928 -0.016581757 0.20850931 0.31205937 -0.053462498 -0.08376225 -0.022780677 -0.03764286 0.029094506 -0.0226786 0.07276298 0.059331648 0.11085017 -0.0034838167 -0.29475445 -0.01773376 0.04607009 -0.009100907 0.008548019 -0.11535928 -0.23394597 0.07317462 -0.03837359 0.020851268 -0.20310482 -0.012823553 0.036112502 -0.14531922 -0.049862884 0.14299373 -0.012506128 0.19246735 0.10793305 -0.05200461 -0.11675365 -0.10243404 -0.0024463101 -0.0982668 -0.0378054 -0.048834454 -0.22688045 -0.01518388 0.021765815 0.15165997 -0.2024418 0.32427734 0.33030295 0.02202169 0.026927935 -0.21371494 0.20280217 -0.10298154
3 0.011051882 0.018843371 -0.2575898 0.07026091 0.29408363 0.111231335 -0.24400939 0.26981187 -0.08361623 -0.035093434 0.18226767 0.04907922 -0.15808553 0.10080334 -0.1705139 -0.25650847 0.19989242 0.0053693973 0.057609443 0.14322376 0.07709321 0.3482714 0.07563944 -0.0064729606 0.051195543 0.06673283 -0.02179999 0.24022785 -0.088987574 -0.017776167 -0.046366543 -0.0987765 -0.01935584 0.050499007 0.14191313 0.069111146 0.29033497 -0.15263401 0.05496901 -0.06870104 0.070187695 0.06852429 0.18495291 0.05265802 0.032683637 0.10740485 0.18171737 -0.11827377 -0.39588556 -0.213475 0.10514999 0.1719442 -0.05393479 0.026210792 0.19737056 0.13462394 0.012676723 -0.03860682 -0.10287567 0.15715446 0.16332121 -0.10666934 0.029497394 0.13756421 0.035073187 -0.12082211 0.16061339 -0.03337942 0.09589556 0.09914801 -0.026149865 -0.10496603 0.32301217 -0.24134117 0.08611189 -0.020020822 -0.3212412 -0.028853359 0.19922696 0.29630026 -0.06475223 -0.103100084 -0.019882938 -0.026503284 0.029234828 -0.013297903 0.08506669 0.02591763 0.10916244 0.0527367 -0.30726933 0.016560374 0.044456176 -0.065949455 -0.008617714 -0.14002417 -0.2629526 0.050015736 -0.10528751 -0.010478216 -0.17089403 -0.025475534 0.023400135 -0.16694896 0.0027032704 0.14349212 -0.012641077 0.2034283 0.11356163 0.0027013412 -0.124785006 -0.10843997 -0.034084253 -0.07642601 -0.0397849 -0.012339367 -0.24266899 0.0012359394 0.04335523 0.1678704 -0.19457532 0.35104522 0.35617366 -0.0035142808 0.034497865 -0.22375125 0.18475574 -0.09455981
23 0.013476801 0.0019738094 -0.21135254 0.080753565 0.27532753 0.08283648 -0.21043572 0.23547268 -0.072060555 -0.03242853 0.16180618 0.031029863 -0.13849352 0.07976787 -0.14267355 -0.26113108 0.17695084 0.011617486 0.050038185 0.13570124 0.055685245 0.31019086 0.06514131 8.646895e-05 0.04576385 0.060871884 -0.014095057 0.21300013 -0.082327165 0.015808333 -0.022720609 -0.09564043 -0.007852606 0.024997147 0.14454918 0.053606946 0.27799517 -0.14536393 0.060356554 -0.05460047 0.06693691 0.06132902 0.16069902 0.05594896 0.057087034 0.07027005 0.16122979 -0.106304385 -0.37450168 -0.19161925 0.11450029 0.13948576 -0.05019085 0.039690495 0.17627454 0.11922385 0.017154977 -0.03495697 -0.07544804 0.15251583 0.13162342 -0.097648636 0.023683835 0.12317351 0.0219642 -0.12700568 0.15272464 -0.05078547 0.0927545 0.07460051 -0.022218194 -0.079475515 0.2662587 -0.23854184 0.053783298 -0.023788808 -0.3032945 -0.033337645 0.17215388 0.26777494 -0.0628747 -0.101737075 -0.016319158 -0.010169699 0.03802712 -0.022711292 0.061938547 0.029686337 0.101404674 0.053495284 -0.27721423 0.01675353 0.037153285 -0.072680935 -0.017941885 -0.12840793 -0.25348604 0.02897372 -0.12657334 -0.039010014 -0.1415476 -0.032338224 0.03718606 -0.1723747 -0.00718934 0.13698477 -0.013708489 0.19259015 0.108078234 0.010064989 -0.0929274 -0.09552698 -0.03425079 -0.07417188 -0.0235253 0.017784756 -0.24326321 -0.01187595 0.03996574 0.1452623 -0.19261022 0.3085547 0.32410756 -0.0063041206 0.05783683 -0.18660808 0.16220763 -0.076219164
36 -0.03862018 -0.01005303 -0.30533662 0.010052835 0.34026077 0.11756036 -0.23387466 0.30757102 -0.11329648 0.05195325 0.22182257 0.053738125 -0.15151957 0.080451146 -0.22080311 -0.23585656 0.2546299 -0.019384699 -0.008547458 0.14221212 0.10497022 0.40588197 0.12646921 0.025614548 0.087223925 0.055283032 -0.020039815 0.25654903 -0.08103193 -0.07905883 -0.0110242255 -0.06378332 -0.01842425 0.044714004 0.11104914 0.094100446 0.3119971 -0.23722889 0.011180485 -0.10398374 0.03920835 0.0021469637 0.17571688 0.008395292 0.029692996 0.19671056 0.18664792 -0.067687064 -0.40310848 -0.21993984 0.094974644 0.19314393 -0.048645645 0.048072383 0.25843644 0.11116354 -0.010270507 -0.09833194 -0.14612597 0.18854034 0.21858607 -0.12841205 0.008145647 0.15801188 -0.0023052546 -0.07123137 0.18328166 -0.0018759718 0.10041798 0.12862623 -0.04420465 -0.1519269 0.3596383 -0.22813798 0.16699241 -0.027499327 -0.2709835 -0.0019953751 0.23099466 0.3331728 -0.046159234 -0.0774513 -0.0122654475 -0.049153566 0.010475383 -0.022468215 0.10650269 0.06796143 0.13466723 -0.022377819 -0.30466506 -0.0187976 0.044680957 0.022083832 0.021037646 -0.117719956 -0.2350756 0.086896665 -0.0009405607 0.05048597 -0.24072461 -0.012897857 0.013138491 -0.14500685 -0.044802193 0.13414903 0.009820814 0.1884827 0.11554319 -0.071561545 -0.14534734 -0.10704772 -0.00560501 -0.09419486 -0.04494327 -0.07421391 -0.22230348 0.0043971813 0.017628817 0.16073671 -0.21714161 0.35701674 0.357456 0.0044774534 0.0023549886 -0.24757142 0.23177664 -0.10808636
19 0.010067148 0.0066599124 -0.21310495 0.08056736 0.27438006 0.08605819 -0.2102164 0.22984862 -0.066594094 -0.036608785 0.16054314 0.036721773 -0.1341609 0.085415386 -0.1373103 -0.2543406 0.17965947 0.0064024744 0.04620009 0.12606637 0.05652805 0.3084711 0.06970656 0.00073283835 0.042560328 0.059089947 -0.009356149 0.2109006 -0.08251132 0.017518813 -0.02181858 -0.09993489 -0.007149544 0.02827525 0.14350003 0.050891764 0.27439332 -0.13944797 0.060334377 -0.058894068 0.0671271 0.05674046 0.1586625 0.054620847 0.05047172 0.07267516 0.15690738 -0.10511605 -0.36491308 -0.19559315 0.11057044 0.1383178 -0.047757823 0.035824914 0.17489034 0.11471695 0.011837435 -0.03794868 -0.07477008 0.14966118 0.13295746 -0.09508231 0.025513778 0.12449589 0.019289006 -0.12696213 0.15338898 -0.055134438 0.0960212 0.072549395 -0.023184989 -0.074381016 0.26813942 -0.23290409 0.057610054 -0.024775414 -0.30200765 -0.030035855 0.17289019 0.27220696 -0.064252414 -0.101150714 -0.015540605 -0.008038229 0.0427768 -0.022546677 0.057034113 0.032998875 0.10327298 0.050801214 -0.27084905 0.015098207 0.04149936 -0.070754506 -0.021199577 -0.12829083 -0.25399664 0.025214504 -0.12147307 -0.037063878 -0.14749783 -0.034777835 0.03388498 -0.17368297 -0.0040774425 0.1374505 -0.018874075 0.19138744 0.10751736 0.009335519 -0.09114318 -0.09218806 -0.030817203 -0.07344098 -0.017756924 0.012546762 -0.23686412 -0.012663283 0.035791267 0.14583011 -0.18812892 0.2991544 0.32542524 -0.0035063864 0.059930168 -0.18392001 0.15988226 -0.08071954
4 -0.019130863 -0.00062769523 -0.2910154 0.030070966 0.34371322 0.11138902 -0.23490833 0.3089268 -0.09768803 0.03002572 0.216887 0.052526068 -0.16166325 0.094825 -0.20746185 -0.24962264 0.22624421 -0.011507312 0.008189049 0.13688591 0.09051499 0.40572006 0.11329295 0.014496654 0.084672034 0.067211725 -0.016657537 0.26341254 -0.0864829 -0.046527054 -0.019327184 -0.07730625 -0.025408074 0.037655607 0.12782365 0.07115679 0.3302445 -0.2213009 0.030083906 -0.09128253 0.049868803 0.008760493 0.1819067 0.025118362 0.037846677 0.16391252 0.18043458 -0.0714856 -0.40360558 -0.21854664 0.09517915 0.18946104 -0.05284476 0.048011836 0.24601102 0.11081293 0.002507515 -0.08354592 -0.13283582 0.17753305 0.21257634 -0.13831858 0.021152882 0.16031028 0.0056740697 -0.08774263 0.18032393 -0.023313781 0.09934275 0.11202824 -0.049110666 -0.13864715 0.34306002 -0.24612121 0.1251053 -0.038346257 -0.3008925 -0.017511893 0.22782911 0.34035757 -0.052327488 -0.094445944 -0.017248536 -0.044857733 0.023449294 -0.027973656 0.09309245 0.058020037 0.117441446 -0.0052231625 -0.32369104 -0.015883157 0.048065837 -0.0127611235 0.010596803 -0.12400166 -0.25162792 0.084247276 -0.04286797 0.028582977 -0.22500826 -0.013528414 0.035541605 -0.1537012 -0.043086275 0.14573358 -0.013139519 0.20439216 0.114532016 -0.056614224 -0.13755096 -0.108070485 -0.00096976466 -0.10107031 -0.051414523 -0.046655525 -0.2478825 -0.011262011 0.026712786 0.16277903 -0.22279064 0.36553144 0.3576238 0.014778609 0.021406373 -0.23239763 0.21678536 -0.10871743
33 -0.044766307 -0.0024848874 -0.32180372 0.009515787 0.3498494 0.12388751 -0.24859002 0.32971552 -0.12405817 0.06021451 0.23285815 0.04506994 -0.15960251 0.09282547 -0.23343746 -0.24572694 0.26663116 -0.020638255 -0.008753451 0.14314732 0.10991945 0.43641254 0.12837358 0.024680445 0.09859558 0.05136962 -0.02072061 0.27793765 -0.088628575 -0.08383992 -0.011853865 -0.07574512 -0.027115395 0.04994045 0.11684705 0.10031604 0.33198503 -0.25248107 0.013015861 -0.1074015 0.038102176 0.00023054326 0.1883675 0.0047053746 0.031028269 0.20772561 0.195257 -0.064314075 -0.42234525 -0.2274542 0.097333394 0.20509759 -0.058903992 0.048265196 0.2801108 0.112844124 -0.007150932 -0.11121362 -0.1479855 0.19052345 0.23178059 -0.14100377 0.009640772 0.1742809 -0.005477054 -0.06558756 0.20031853 -0.004613691 0.09810386 0.13097975 -0.041339356 -0.16092095 0.37717447 -0.24930055 0.17197178 -0.04254236 -0.290195 0.002106552 0.24626537 0.35893348 -0.04578282 -0.088790685 -0.025967998 -0.054290347 0.014241894 -0.019015366 0.11273305 0.0620423 0.1406399 -0.02815171 -0.31892732 -0.025537381 0.05310125 0.021803193 0.014047103 -0.121318676 -0.24096975 0.103899635 0.0007716701 0.049982294 -0.25871184 -0.016259173 0.021799497 -0.14548026 -0.054417174 0.14574197 0.0077462555 0.19864011 0.116332576 -0.08085236 -0.14539854 -0.10613482 -0.0014523885 -0.101956956 -0.052379955 -0.08228126 -0.2342924 0.00874473 0.02367766 0.17992555 -0.23498656 0.38614228 0.37374318 0.0094587905 -0.0007446397 -0.25857994 0.24663784 -0.12194291
