1005 128
366 -0.68495953 0.7862148 1.6227047 -1.8561139 0.019901475 1.1380211 1.5114125 -1.7143686 0.45674625 -1.7933716 1.1295818 -1.1849719 0.74578327 0.07441427 -0.6006453 1.1179328 -0.9808094 -2.1880467 -0.7804372 0.29620844 -0.85906494 -2.684997 -0.79462254 -1.4668041 -0.9815338 -1.828786 2.1086748 -0.74012125 2.037534 0.61054546 -1.2502046 0.66048366 1.2346969 -0.31024307 -1.4551347 -0.70644665 -0.44333854 -0.60656404 -0.7390603 0.3534956 -0.6362498 0.7955529 1.0861135 -0.13458915 0.36155993 -0.8283197 0.3982448 0.10195505 -0.56590426 0.25029564 0.3592001 2.3482683 -1.7351118 -0.18229921 0.01015683 -0.20852649 -0.31473634 -0.34985858 -1.4306955 0.22070041 -1.8708829 -0.6640555 -1.0083 -0.74549323 1.8510158 1.342313 -1.1537483 1.3227047 0.9326521 -0.3795886 -0.35990766 2.3135748 0.490729 2.0179272 -1.9469649 1.5558703 0.9176174 1.8504089 -1.1121222 0.036005124 -0.79061276 -0.57235676 -0.9027203 0.7557192 -0.2892212 0.23963833 -0.3226361 -0.12620895 1.3500088 0.95502853 -0.7472464 0.8848537 1.1120967 -1.2370927 -0.021395607 0.2624436 -0.23283745 -0.17798732 0.4527103 -1.0512469 0.84190714 -0.9706606 0.51913136 -1.0124357 1.1573813 -2.2110121 0.23943146 0.44112375 1.5199095 -0.6352223 -0.48400685 1.5550936 -0.057821084 1.017995 1.1180401 1.0958455 0.97825944 -0.6061593 -1.1382945 -1.7296956 -0.16444977 0.17402521 0.013294185 0.112194926 -0.7157064 2.4321232 -0.21067797 -2.0846894
365 -0.612916 1.074525 2.2077522 -1.455715 0.3529193 1.2361284 1.3267751 -1.343499 0.87418544 -2.1529238 0.62322366 -0.7587858 0.73247135 0.15012711 -1.1579401 1.4049447 -1.4786568 -3.1162195 -1.8937227 0.8987039 -0.75698835 -2.8033004 -0.9289866 -1.4713342 -1.1379298 -1.0302899 1.9934211 -0.33657053 2.2948923 0.8502965 -0.9342932 -0.060481682 1.0148166 -0.55636364 -1.7628897 -1.6764019 -0.62372494 -0.664806 -1.2888321 -0.40193972 -0.5475596 1.0381917 1.0805542 0.3556075 -0.38793346 -0.3489309 0.9264641 -1.1588107 0.37145284 0.14791928 0.73185647 2.2509332 -1.9493113 -0.37536263 -0.91894037 -0.08214536 -0.9830031 -0.33735806 -0.541169 0.85868436 -1.3381441 -0.49819866 -1.9122063 -1.3512201 2.2475247 0.8964154 -0.75984937 2.1880877 0.14014752 -1.0580435 -0.25778034 1.7842374 -0.18764482 1.8642117 -2.0663602 1.4464196 0.9431999 2.0144162 -0.44670168 0.33882076 -1.034998 -1.0402305 -1.1175587 0.78473496 -0.23935984 0.30945304 0.63297874 -0.3983776 1.176402 0.36659688 -1.4464668 0.7797877 0.6848469 -0.68201447 -0.06963876 -0.020804947 -0.16470286 -1.1973467 -0.10110582 -0.86587644 0.5263912 -1.1913729 -0.12797163 -0.99564683 1.5864751 -1.6037953 -0.38524204 0.62577444 1.3199917 -0.3321762 -1.0427712 1.5713145 -0.16286768 0.81151944 1.0493661 1.1161667 1.2391711 -0.9028526 -1.1245123 -1.4785273 0.17256579 -0.5972652 0.3027726 0.33841014 -0.5684099 3.1927853 -0.8623978 -1.8495594
966 0.23600698 0.053803656 1.9460013 -2.1028945 1.5902565 1.0617976 2.3556824 -1.5671765 0.98076457 -0.622644 2.1314359 -1.1658883 0.0102924 0.8375619 0.039707005 1.6053361 -0.59860015 -1.4747608 -1.1432413 1.6373634 -0.2652649 -2.9365008 -1.4633712 -1.6844647 -0.5036131 -0.048980962 0.572683 -0.98654556 1.9665468 -0.33499646 -1.313758 1.11974 0.19444695 -0.76220286 -1.7423234 -2.1091266 -0.6625015 -0.7920835 -1.1538597 -0.80295116 0.10355746 0.28346977 -0.4229898 0.26164484 -0.085390866 0.0699826 0.66851634 -1.422119 0.12696633 0.17682229 0.44993848 2.1511781 -0.99338037 0.07185946 -1.1548266 -0.51035297 -0.8720827 -0.20734131 -0.6276181 2.3162868 -0.2539425 -1.2727414 -1.6506809 -0.4057491 1.6165812 1.5846753 -0.3450368 0.34663916 -0.27882114 -0.87230116 0.3836118 0.45476565 -0.6063523 0.828224 -2.5547278 0.44559458 1.2638568 2.4441116 0.07179283 1.2476135 -1.5811881 -2.3357105 -0.4667066 0.61427575 -0.37618482 0.33561185 0.94476867 -1.1874812 1.0884559 0.8342144 0.16808139 2.679689 1.5556561 0.33970892 -0.19741383 0.9040648 -0.8547595 0.71834654 -0.604884 -0.3565302 0.7498003 -0.91575253 -0.1510568 -1.004856 -0.0734773 -0.70782447 -1.2381006 1.6829538 1.0497631 -0.37968177 -1.4792432 1.078493 -0.7533164 0.4583867 0.3561192 -0.018761652 0.36149055 0.07894269 1.1934423 -1.746619 0.8495166 -1.250033 0.7441488 0.053838182 -0.93527186 1.7087585 0.31595722 -0.7451319
455 0.36356 -0.4975242 1.7487758 -2.5740733 1.2203819 1.0734966 1.1592444 -1.9487761 0.3330325 -0.71758354 1.2448537 -0.12147876 -0.33780283 -0.18443574 0.38948905 0.621498 -0.19313225 -2.4499497 -1.4473639 1.0629267 0.12939945 -2.0948288 -1.1368505 -0.9441142 0.562678 0.25689313 1.3792514 -1.022707 1.6904552 -0.33170423 -0.7485882 0.98385966 1.494312 -1.5932654 -1.5499363 -1.8113534 -0.4240298 -0.47982004 -1.3813266 -0.9733025 0.39357108 -0.020574449 -0.43498343 0.6775908 0.104403205 -0.68957025 1.3092071 -1.2643324 0.3655582 -0.11375964 0.54776603 1.8890479 -1.0013887 -0.1657413 -0.52944547 -1.1569461 -1.3745788 -0.7128066 -0.6386841 1.5628221 -0.72702044 -1.7648935 -1.6400281 -0.24602665 0.5743872 0.54956627 -0.61496025 1.4827867 -0.6815141 -1.5092809 0.6349071 1.4612492 -0.0916742 1.4968415 -2.1413171 1.0237774 1.181568 1.5649276 -0.77597463 0.9060392 -0.6693461 -2.3828454 -0.63804615 -0.08736594 -0.12714952 0.8706765 0.9958057 -0.8006241 1.9616168 1.0735693 -0.339581 1.2028608 0.8445506 1.0194643 -0.45001805 -0.2189707 -1.4254735 0.868926 -0.45809704 -0.10669832 0.4701021 -1.4014418 0.19908653 -1.1124676 1.6902122 -1.0855436 -1.0112102 1.0018834 0.63822794 -0.089190215 -2.0921223 -0.123625144 -0.15117557 1.586045 -0.46556035 0.29250175 1.972478 -1.0998235 1.7007557 -1.2474233 0.040616333 -1.1676724 -0.19738777 -0.5385593 -1.1957383 1.261481 0.14319819 -1.4292455
369 -0.94258505 1.6943853 1.9150518 -0.43920517 0.48634028 0.6121274 2.0997393 -0.26395145 1.2496898 -1.2934805 1.6861994 -1.0953834 0.42974243 0.70432633 -0.13582708 1.7969402 -1.0722704 -0.99190015 -0.7028507 1.3192672 -0.97434247 -2.706916 -1.1123888 -1.8757902 -1.9060669 -0.5990027 0.08558151 -0.387315 2.201381 -0.28989527 -1.06199 0.47382492 -0.10418514 -0.31611738 -1.6032164 -1.9900091 -0.36693278 -1.1490864 -0.8648003 -0.9339713 -0.31315306 0.9397349 0.13108738 -0.30545673 -0.15329514 -0.14536713 0.14315218 -0.5649709 0.08375981 0.0058378223 1.1754094 1.9268503 -1.1131305 -0.9280384 -1.6194026 0.12198819 0.006727665 0.47854748 -0.44675258 2.0272422 0.45546517 0.16422205 -1.9454542 -0.95173013 2.6978614 2.1705134 -0.40628996 0.54930115 0.2217027 -0.5131345 -1.2064465 0.99491715 -0.9128271 0.9866864 -2.502628 1.1538067 0.62226343 2.6012914 0.71975887 1.2894723 -1.5472322 -0.9231095 -1.105572 0.5996239 0.07731016 -0.05344548 0.18696155 -1.2782323 -0.17028362 0.24139123 -0.23771916 2.803727 0.94129413 -0.2424608 0.02186922 1.1190569 0.4619789 -1.000319 -0.6725847 -0.94695663 0.927512 -0.15654242 -0.46606323 -1.1646829 -1.2680924 -0.5836558 -1.08181 1.3216304 0.9731906 -0.6326776 -0.022254717 1.2127733 -0.42448518 -0.6002752 1.8344969 0.0042491523 -0.95052546 0.35817063 -0.46402702 -1.3172412 1.2630737 -0.93956375 1.7035934 0.58569694 -0.38647452 2.4842587 0.2764632 -0.62632644
957 -1.7325407 2.4003038 1.2748057 0.71163315 -0.46784955 0.27713796 0.9720425 0.41428974 1.1720905 -2.0223427 0.24808785 -0.5611442 0.59040457 -0.083978824 -0.67773235 1.2245846 -1.5922359 -2.4680629 -1.1346155 0.099834934 -0.9699335 -2.6989164 -0.04236333 -1.8943411 -2.1597593 -1.1618949 0.29851788 0.15744531 1.7185225 0.48364463 -0.14225876 -0.61440295 0.2861813 -1.0462856 -1.2890828 -1.947095 -0.2672255 -1.3561953 -1.0497671 -0.73562115 -0.6709167 1.8503906 0.752819 -0.57925093 0.42558226 -0.26262495 0.6889061 -0.07161513 0.7010338 -0.13150372 1.0128407 1.4649458 -0.5266367 -1.4055542 -0.7705001 0.1574966 -0.74258727 0.5029843 0.09660865 1.0254871 -0.016196644 0.7798663 -1.9501657 -1.4775593 2.6405637 2.1190789 -0.9153527 1.4020663 -0.032780163 -0.20983861 -1.3557017 1.9832252 -0.75575453 0.970802 -1.299141 1.1565664 0.17977262 2.8165784 0.15490769 0.64640945 -1.1638179 0.102415666 -1.059583 0.18974648 0.40058059 -0.10283389 0.46631035 -0.9084173 0.009236441 -0.16913265 -0.8072049 0.9406741 0.23768859 -0.1533887 -0.42170876 0.4060203 1.121902 -2.2097461 -0.37672877 -0.9639096 0.7447123 -0.31690344 -0.55725837 -0.83020353 -0.32667786 -1.0767754 -0.35276496 0.2701251 0.73431283 -0.13469586 0.845402 0.7120496 0.2676912 -0.7138492 2.158627 0.14273722 -0.75758237 -0.26144302 -1.8707869 -0.49041596 0.8170822 -0.13263421 0.8186123 0.36648142 -0.5540895 3.1679802 -0.5692087 -1.0939423
816 -1.7899724 1.9441639 1.5376866 2.2690427 -0.88846684 -1.3007125 0.13095206 2.2156136 0.63172275 -0.56850505 0.25779653 0.81308454 1.2338125 0.05981831 0.33394068 0.9114815 -0.7232508 1.6270608 -0.36435086 -0.47233027 -0.86593646 0.04767956 0.77574795 -0.723967 -2.2866495 0.44382137 -2.4573994 0.28939736 0.6656485 -1.1248437 -0.30275813 0.2219005 -0.56220216 0.08880486 -0.318685 -0.55393255 -0.7823309 -0.2636183 0.09197365 -0.9649711 0.7514839 0.73309314 0.4608591 0.14633217 -0.061385028 0.22731735 -0.4484796 -0.2591285 1.4334221 -0.4981302 1.5721452 -0.6692749 -0.44494748 -1.7232813 -0.12064424 0.10025431 0.5469017 1.1713762 0.59574604 1.3598017 2.3560727 1.6504751 -1.6096559 -0.22254083 1.6155252 1.9019959 -0.18257065 -0.29977742 -0.44586045 0.258062 -1.5341141 0.13180731 -0.7868894 -0.35033363 0.25619596 0.36462784 0.29537627 1.2149127 1.9478536 1.514086 -1.0781335 0.31760103 -0.24452461 0.3391482 0.949439 -0.46023387 -0.17750312 -0.44770685 -1.7924621 -0.13205996 0.2316508 2.3362994 -0.29773575 0.43644804 -1.3953719 0.087073304 1.7283235 -1.4711534 -1.0023977 -0.7408036 0.46847102 0.70731217 -0.0693807 -0.9245686 -1.5939479 1.1087129 -1.3110456 0.1385115 -0.9118579 0.35350755 1.8179375 -0.1166735 0.60520107 -1.3118267 1.3562973 -0.037228383 -2.973237 0.73092 0.10740798 -0.1106065 0.78428555 -0.8172389 1.9315261 1.1347795 0.563557 1.2195661 -0.18694758 1.7026942
431 -0.27514812 1.4508817 0.27170843 0.80982804 -0.54734445 0.077727534 -0.81619257 0.37809885 1.4199586 0.73996484 0.09817575 -0.55038023 -0.022602502 1.0625321 -0.7538196 -0.22956954 0.28106806 1.7576506 0.12992735 1.4467434 1.6894406 1.0907979 -0.17953773 -0.92023724 -0.28193706 -1.0835572 -2.7388868 0.5422197 0.05241048 1.0217524 -0.24698696 0.37409577 -0.35375336 0.67404205 -0.9389651 0.5112434 0.17327157 0.30351204 -0.5566319 -0.0472986 -0.9617677 -2.1447468 -0.4768076 -0.460061 0.49655208 0.16968998 -1.486483 -0.17657998 -0.8505406 1.7304387 -1.0121081 0.96933556 1.0481825 -0.72043717 1.2623968 0.31418794 -0.72816855 -1.4974036 -0.8395848 1.1188538 0.40357947 -2.029511 1.7943577 1.2584132 0.010993978 -0.783475 0.35432863 -1.0047034 -1.4012388 0.4740094 -2.135375 0.8910211 1.9030427 1.3146079 0.43760094 -0.53264475 -1.6322833 0.65301853 0.4957143 0.791436 -0.8880638 0.12691733 0.51233685 -0.108047456 1.6292487 -1.2099811 -2.1761408 1.1504799 -0.5440835 -0.72930497 -3.1865087 -0.003267779 -0.06096499 -1.382379 1.1509724 0.8797439 0.93363583 1.1750449 0.09840587 0.7912819 -0.033140555 0.0819238 0.8436605 0.5372869 1.0979134 -0.2334871 0.5097933 1.506465 -1.1038009 -0.5164798 -1.5147176 -0.022333885 -1.1571193 -0.20895167 -1.2564765 0.59078896 1.1365211 -0.6245084 1.0556371 -0.17611517 -1.9018244 1.3617723 -0.1520819 1.1538695 1.5095603 0.43723744 -2.1491756 0.9780916
964 -1.5597924 2.4386818 1.714106 2.122237 -1.3163276 -0.9141517 0.6654818 1.5930344 0.7533714 -0.9775238 0.7879902 0.27672452 0.7678546 -0.4967165 0.8258627 1.302058 -0.44763157 1.0186987 0.12328636 -0.557411 -1.2163124 -0.43444988 0.2601183 -0.91859514 -2.1718583 0.075259954 -1.6292022 0.23831855 0.8900845 -1.1161308 -0.58808273 0.07578533 -0.28500286 0.090679064 -0.6377369 -0.5530742 -0.81867015 -0.3688551 0.18604425 -0.6497581 0.7298572 0.5851793 0.59287107 0.031807724 0.27614766 -0.24231695 -0.37843993 0.20440812 0.5779618 -0.42418683 1.6600542 -0.25014898 -0.45221394 -1.7759814 -0.20728879 0.6099417 0.62776124 1.4128771 -0.014798034 1.067261 1.9634663 1.8216566 -1.5592982 0.22319561 1.4749285 2.4301531 -0.14377324 -0.46247414 0.018534742 0.36414582 -1.837045 0.7330589 -0.49001393 0.24955405 -0.39717302 0.7895167 0.13142946 1.5751851 1.863497 1.5616354 -1.2460045 0.36249167 -0.4357905 0.3615898 0.48966968 -0.075945385 -0.75015014 -0.5869553 -2.0153773 0.0024228205 -0.018985333 2.4003444 0.072053984 -0.20925914 -1.1170686 -0.07354729 1.6496428 -1.7347 -0.81997675 -1.0564089 0.49895996 0.4445884 0.61745256 -0.46501222 -2.0351834 0.55097616 -1.4450576 0.102796994 -0.053138774 0.20563424 1.8622171 0.26965564 0.58309036 -1.0998734 1.7054085 0.2502218 -2.9085305 0.3632528 -0.32131273 -0.84826154 0.4942512 -0.74812984 1.6049228 1.2545105 0.9450097 1.582837 0.20105134 1.1084067
541 -1.0120174 -0.6673712 1.5068582 -1.635748 0.086219504 0.6168616 1.0919383 -1.8040159 1.0599785 -2.2977626 -0.6434733 -0.6234646 0.33737275 0.8319821 -1.4724332 0.6546628 -0.74576616 -2.2021072 -1.1538653 1.3729328 -1.0453556 -1.8871081 -0.9755552 -0.5247942 0.058418524 -0.8252389 3.0921133 0.20326836 0.35145804 1.3779868 -0.31186944 -0.7264068 1.166093 -0.33533558 -0.105587214 -0.32005435 0.19945434 0.9340421 -0.85328823 0.3425352 -0.7636382 -0.751439 1.1919878 0.7704306 0.1537051 0.06819823 0.823551 -1.0046468 -0.26892242 -0.27846608 0.7095497 1.586094 -2.5221374 -0.3172874 -1.0860425 -0.1403571 -0.7614584 0.6222525 -0.172291 -0.19167623 -1.9168253 -0.85645866 -0.44377574 0.0029464297 0.83285934 -0.84801877 -0.6036873 2.013282 1.3667362 -0.3218762 -0.7136697 0.866464 -0.11192435 1.5574901 -0.10268098 2.132599 0.850102 0.3110838 0.08207404 -0.67275524 0.9546547 -1.1023878 -0.39432883 1.0540495 -0.60787004 0.20465939 -0.41637006 0.087230265 0.81972605 0.54225576 -1.5208502 -0.01815799 0.7781937 -0.22366773 0.67466235 -0.8440304 -0.45199537 -0.96543413 0.7443187 -0.53281164 -0.8239662 -1.2014594 -0.26372653 -0.57190967 2.0851552 -0.9544047 -0.014117847 -0.2995108 1.0360559 0.7575103 -2.0702913 1.4638771 -0.3150899 1.2980145 -0.077873155 2.2274573 2.3067608 -1.4920645 -1.782503 -1.502413 -0.8786921 -1.3075114 -0.34594983 -0.5235519 0.40212083 1.8880703 -1.3618419 -2.8199625
990 -1.5004108 -0.30128354 0.6081939 -0.67357963 0.26500255 0.37352687 1.113265 -0.80057085 0.8965163 -2.1000335 -0.7255611 -1.083606 0.9393217 1.0379177 -2.701872 0.97363824 -1.7936565 -2.9200158 -1.7374711 0.5864358 -0.40488344 -1.6469696 -0.81539476 -1.8363422 -1.3516115 -1.6876131 2.4286675 0.20408064 1.0669607 1.5658245 -0.5083076 -0.7096274 0.47188985 -0.16339973 0.063789286 -0.91666245 -0.29516456 0.36143717 -1.1541134 0.5561723 -1.4073294 0.5496986 1.1763761 0.45706987 -0.11603209 0.57832503 0.15440327 -1.0805641 0.1793647 0.2345532 -0.14948317 1.8539659 -1.5721796 0.49692988 -0.39862654 -0.07198086 -0.8292493 0.19691864 0.15229195 -0.7965067 -2.081015 -0.39540717 -0.1809208 -1.4954447 1.9352496 -0.44525188 -0.58289945 1.4779445 1.2669148 0.09209746 -0.049942654 0.40766063 0.10400949 1.1084731 0.4500144 0.83879054 1.0608205 0.90995646 -0.24671233 -1.0219946 0.11899683 -0.80281776 -0.53356755 1.4012135 -0.56443614 -0.21374086 0.33236003 0.7192072 0.90257275 -0.28506055 -1.3580918 -0.38291663 0.6384794 -1.0694678 0.2796834 -0.29116416 0.35033238 -1.1136078 0.9165553 -0.6392642 -0.80382836 -0.49305078 -0.71879065 -0.41925022 1.8890342 -0.83490396 0.23648272 -0.37708485 0.8352105 0.7521178 -1.3862506 1.9752141 -1.0263588 0.51959884 -0.42907667 1.9589665 1.3485796 -0.25261998 -2.9788134 -1.0986085 -0.34699163 -0.3929647 -0.86675787 -0.0069731157 -0.11425753 2.4613626 -1.4441525 -2.669915
978 -0.36574143 -0.042778715 1.9945464 -2.2908707 0.08747578 1.0171996 0.63952607 -2.0707276 0.4445492 -1.5458456 -0.052430544 0.06731042 -0.41358605 -0.22555117 0.016059233 0.42318547 -0.29178214 -2.8190322 -1.2475855 0.99151057 -0.9028369 -1.8414516 -0.7579691 -0.18199268 0.9237977 0.32198173 2.4133387 -0.14402775 0.67674005 0.49854848 -0.03501317 0.07722585 2.2477095 -1.0492024 -0.8801947 -0.78484213 -0.05839181 0.19850475 -0.8683006 -0.6798667 0.15824988 -0.9313156 0.5670926 0.7669669 0.22255327 -1.0284882 1.6941022 -1.0348847 0.0097568 -0.33967826 1.2085943 1.622597 -2.1669567 -0.6552477 -0.78457063 -1.0602136 -1.2231315 -0.30063832 -0.66476506 0.8416163 -1.135418 -1.1658329 -1.4098608 0.38489 -0.21523096 -0.4456552 -0.56521124 2.4153066 0.008785651 -1.2011412 -0.45872417 2.1139088 -0.07421408 1.929291 -1.3621347 2.3750076 0.79643995 0.59860253 -0.35901603 0.3379347 0.23312221 -1.3553365 -0.4783371 0.08208266 0.092509836 0.6677245 0.25536206 -0.54425925 0.99449176 0.9281321 -1.1802186 0.3254017 0.5404045 0.9328789 -0.06659282 -1.2855735 -1.2362598 -0.41658324 -0.19065678 -0.17256127 -0.2979758 -1.7089976 0.26004 -1.1051322 2.2994308 -1.1527615 -0.5127188 -0.050460216 0.5168774 0.37972632 -2.2643325 0.48620656 0.46518844 1.758117 0.15059404 1.0630602 2.7401917 -1.9207637 0.35628462 -1.2357773 -0.80904514 -1.2766758 -0.2722975 -0.5840849 -0.22279094 1.5512716 -0.9559812 -2.0118227
606 0.6119958 -0.78097713 -0.030458573 0.50418127 -1.1904836 -0.016306344 -1.323456 0.83682036 -1.1290839 0.6074487 -0.15952943 -0.50327796 -0.7919568 -2.0728543 -0.20261441 0.49853787 -0.052454773 1.336871 -0.2722416 -1.1973916 0.12524457 0.90886647 0.75997 -0.36009344 -0.61239755 -1.453518 -0.2465336 -1.0324434 -0.5771323 0.73362225 0.9105933 2.0578873 0.09637356 0.18903193 -2.3941584 -1.7025598 0.2549047 0.57577616 0.80729616 -0.083076835 -1.4289347 -0.28904814 0.73489714 -0.49121952 1.198514 0.4236178 -0.81191915 -1.4960438 0.03260131 -1.1061145 0.09768749 0.28314915 0.8756093 -0.07028277 -0.12540792 0.5330787 0.8069287 -0.041373927 -1.2705868 1.0647656 0.7829813 0.87214893 -0.11792969 -0.026681645 -1.3077335 -1.8073326 1.7310872 -0.3096036 -0.9230874 -0.529453 1.5794305 0.93821853 0.25741136 0.7478116 1.2202919 1.2332753 -0.19644186 -0.65440446 -0.8517005 0.24603346 -1.2189332 -0.8351569 -1.0343474 -1.0072764 1.027484 -0.9682175 -0.6237986 -0.9844555 -0.5509802 0.16749908 1.6038095 2.661118 0.39416173 0.55858165 0.59125876 -0.33182415 -0.08445307 0.71113425 0.4747783 -0.7518117 -0.9639272 1.349428 -0.6448769 0.09313267 0.8451147 0.5452311 0.3184244 -0.18288632 0.30598307 0.28301847 0.19412327 -2.5205514 0.09214704 -2.495169 -0.69396627 -0.6148024 0.19383742 -0.10107187 0.0501066 1.638228 -1.4385154 -0.8644415 -0.1539178 -2.4686334 0.44907066 -0.384679 1.031781 -0.8566413
689 0.26837033 -0.55185235 1.2235768 0.8033495 0.6440645 0.7403259 0.3867356 -1.4342575 -1.2071999 0.054753914 -1.7712026 1.702628 1.4626945 -0.38804534 -0.17960778 -0.48194268 0.51077616 2.6043174 -0.1363952 -0.023490546 0.09620951 1.1275166 -1.4613274 -0.60595673 1.0738444 -1.338335 -1.2713615 0.2858005 1.9991021 -1.678453 0.18627927 -0.69481844 1.726235 -0.24566412 -0.00081830076 -0.68452394 -0.76791626 -0.29428262 1.914175 0.24668504 -0.3595612 -0.36087155 -0.6951363 -0.72968143 1.873286 0.11207805 -1.4240153 0.36233932 1.7178197 -2.7267072 0.26012036 -0.92854464 1.3060755 -0.8326583 0.7829743 -0.27478895 1.8023666 -0.81489885 -1.5832075 -0.7964618 0.33502147 2.1961007 0.6712441 -0.43182528 0.5660087 -1.9611057 0.8518183 1.352026 0.37387362 0.723841 0.33589864 1.1508325 -0.6874588 2.526783 -0.42486417 -1.0168707 -0.25808302 1.3703539 -1.30256 0.5865293 -0.64029 -0.17125058 0.86554193 -0.6371393 0.3019386 0.33223912 -1.0941868 0.65639764 -0.09572152 0.41765416 -0.76461196 -0.17358765 -0.65795666 -0.83951586 1.7618458 0.43198106 -0.19107886 1.268949 -0.4275921 0.46268272 -0.8372176 0.08779243 -1.0011865 -0.5295114 -1.0571904 -1.1501554 -1.7742715 -1.8939013 0.6652118 -0.13420929 0.30938596 0.90025395 -0.23462142 1.7284101 -1.3264714 0.22157139 0.32186165 -0.59300023 -2.2616136 0.36528847 0.6860909 1.4247568 0.5767655 0.97366035 -0.82409716 -0.9385231 -0.8543792 -0.21229221
890 0.448883 -1.1525184 0.32364503 -1.286135 -1.1171962 0.5895977 -0.32692668 -2.0679543 0.9116759 0.18366039 -1.9588606 0.37666658 -0.7112585 0.5761975 -0.12658948 -0.5582475 0.61837375 -0.35211307 -0.19981365 0.9434121 -0.51189774 0.052993476 -0.13680603 1.8741823 1.8898001 0.8149454 2.1001678 1.0891215 -1.3806905 1.0666707 0.98930186 -1.2349266 0.4906137 1.1872075 0.37074634 1.4092357 1.7027465 1.1432735 0.211722 -0.8753202 -0.6729995 -1.646439 1.0821826 0.561114 -0.29722393 0.15394858 1.092946 -0.669828 -0.3670391 -1.1873515 1.3301798 -0.6057805 -2.4725862 0.121287756 -1.7010818 0.09873583 -0.3721394 0.27541065 0.13716638 1.2978368 -0.07601917 -0.7343284 -0.604146 1.4147624 -2.0424972 -2.3903782 0.05400942 1.3568283 0.050079852 -0.5064685 -0.1695931 0.46338797 0.5017488 0.52920234 0.7768008 1.3046682 -1.6782547 -1.9463938 0.67102134 -0.1956438 1.7776915 0.39445755 0.7189909 -1.3342966 0.750328 0.383276 -0.021902312 -0.034233987 -0.41174832 0.0018906569 -0.21616973 -2.0102575 -0.51101166 1.053282 1.0928111 -0.82537884 -1.5799668 -0.14871067 -0.6111656 0.8714626 -0.8845789 -0.2617727 -0.14196728 -0.12509854 1.4439459 0.04341694 0.9179961 -1.0812013 -0.42806396 -0.0050180666 -2.4347997 0.26732123 0.40766776 0.8184364 -0.36239693 1.3825287 2.2470162 -1.179616 0.24359605 0.7827827 -1.1563662 -0.6421374 0.30123243 -1.0096928 0.19296257 -1.3727599 -2.2909691 -0.6550661
603 -1.3624505 -1.6970438 -0.88612366 -1.3479564 0.7449391 -1.3064551 0.41333064 1.6658173 -1.3537394 0.9595955 0.46136346 1.583347 -0.9502919 -1.1498601 -0.9000657 0.27844414 0.13759626 0.2752097 -1.5202961 -0.86549884 0.89014477 1.2213466 0.47619325 0.98017424 -1.6236196 -2.0650558 0.8281266 -2.4025564 0.22379649 0.7888132 0.7559114 1.1631924 0.0015711245 2.0374577 -0.16452642 -0.46366584 1.00702 1.0794318 1.6825893 0.111167364 -0.24650206 -0.1213737 -0.2761969 0.29981136 1.3711115 -0.0670394 1.0557733 -0.08226712 0.755414 -0.33682555 -0.98786443 0.87578434 -0.47256088 0.5775834 -0.79517114 -0.03385509 1.6861349 -1.2574166 -0.02939487 0.73986197 0.37769884 -0.033654187 0.34561822 0.3420726 0.4099819 0.41309142 2.5917656 -0.23085028 -1.7650454 -0.23644833 0.31351745 -1.0162483 1.2306545 0.4387975 0.3489568 0.6095078 -0.8305065 1.4119339 -1.1022164 3.1065614 1.5409417 -1.5353316 0.9656251 0.004795663 -0.34275874 0.20248777 -0.17152373 0.5329764 -0.13653632 -0.7285284 0.676179 1.0235224 -2.0924823 -0.16727695 -2.6222699 0.976943 0.6958272 1.160611 2.1733873 -2.5807931 -0.60872626 -1.0862057 0.6484241 -0.6761516 0.061823327 -0.713686 -0.71721065 -0.064830504 0.009887234 -0.7066602 0.22343017 -1.6917003 -0.27528003 0.575812 -1.0353466 0.41828144 1.0886104 -0.3851929 -0.9287412 1.6282252 -0.20005669 -0.39870858 -0.9184291 -0.7121619 -0.57754505 -0.7261029 -0.32825106 0.70075136
960 -1.3267131 2.7550278 1.7293998 1.1600928 -0.8849134 -0.05785358 1.1803389 0.5847269 0.8766567 -1.2155311 1.0598559 -0.46551362 0.7844966 -0.13796207 0.30945408 1.479793 -0.81884485 -0.15564723 -0.27249342 0.20173499 -1.3857663 -1.5290328 -0.01461508 -1.3723358 -2.0710838 -0.49787858 -0.7826039 0.11975901 1.574504 -0.36901942 -0.6555228 0.0022668883 -0.23501784 0.24500993 -1.356507 -1.1592387 -0.232834 -0.93625444 -0.35480368 -0.7068552 0.17961304 0.9626262 0.75882405 -0.48325086 0.106311485 -0.3000496 0.17220336 -0.056588326 0.28752056 -0.175962 1.2803503 0.59045273 -0.78432226 -1.4408864 -0.6271038 0.6884226 0.1964964 0.9487322 -0.596634 1.5477853 1.1026211 1.4272647 -1.7905105 -0.58124197 2.1929054 2.4025676 -0.37200344 0.3111011 0.3462028 -0.020664655 -1.7969524 1.427328 -0.59273744 0.67419505 -1.7433567 1.2118613 -0.1799054 2.0918012 0.99520695 1.3246982 -1.4836994 0.18208897 -0.9902925 0.17468347 0.5006308 -0.08500663 -0.31794292 -1.0046704 -1.3379183 -0.04054082 -0.34715852 2.215471 0.29306862 -0.4678054 -0.46809715 0.6980637 1.2288117 -1.8008808 -0.87744486 -0.855771 0.8995353 0.34389734 0.1386457 -0.6752456 -1.8446875 -0.461217 -0.87773746 0.49917138 0.5717368 -0.4417485 1.4260044 0.8207389 0.4913731 -1.1241331 2.3974514 0.0963922 -2.117531 0.29451653 -0.7173 -0.7391114 0.91398305 -0.5136569 1.7198304 0.851777 0.28713894 2.1915433 -0.068055876 0.40925637
437 -1.313678 -0.900287 -0.5424743 -1.2905594 -0.091103174 -1.1346178 1.1130103 -0.3737638 0.6265875 0.31980225 -0.6588639 -0.42297 0.25967035 -1.6732103 -0.33358496 -0.31776598 0.73570716 -0.7733367 0.65073055 -0.2010982 0.1418639 1.645127 -0.6491394 0.65460503 -0.49107617 1.1101451 1.5028282 1.30343 0.8435507 -0.3605552 1.0261021 1.3028461 0.2969974 -1.1035883 1.7401997 -0.8466299 0.43301097 0.09835743 0.3948039 0.46663758 0.6766013 -0.5234754 -0.063541085 -0.05306789 0.6117563 -0.617119 -0.8069466 -0.09827219 -1.936891 -2.0357351 1.0214434 0.17535332 -0.065201074 -0.12851135 0.8148607 -0.75003815 1.670491 -0.23243779 -0.4998479 0.4599656 -0.14110895 -0.52324724 -1.4850683 -0.79585135 0.311004 0.14794552 -1.1789442 -1.3387561 1.7053276 -0.34834743 -0.7122345 -1.4552073 0.07233495 -1.3536019 -0.31422988 0.58245146 0.100173466 -0.8541168 0.17007013 -0.32577047 0.5478155 0.70467865 -0.31963253 -1.8766087 -0.6557685 -0.2007283 1.0218155 0.31923205 -0.34001952 0.5220975 1.0105337 -0.29144204 -0.4810479 1.0670129 -0.54103416 0.65357274 0.1477735 -1.1039138 -0.201554 0.018737365 0.2687242 0.7397663 -0.4128225 -0.017756311 -2.034174 -0.11910459 0.30573693 0.51400876 0.46371984 0.059602838 0.44958588 0.18431036 -0.7293947 0.13126783 0.41164428 -0.4633414 -1.0776452 -1.3247962 0.7577985 -0.64015037 1.8502135 -0.39752448 -0.8504479 0.44326952 0.26464045 -0.3012598 -0.7319907 0.14967546
975 0.7691422 -0.9850014 1.2400386 -2.2863805 1.5863091 0.9061909 1.6695675 -1.858975 0.02587176 0.47847182 2.3193738 -0.5018953 0.07775572 -0.030525364 0.59212947 0.4880246 0.21326272 -0.7611504 -0.8349527 1.1506413 0.78333837 -1.1281749 -1.2948601 -1.0384876 0.36039773 0.6775972 0.5691077 -1.2331665 2.0221581 -0.99356526 -1.4231578 1.6684427 0.6153677 -1.2013202 -1.234369 -1.529577 -0.65311646 -0.5693091 -0.95138067 -1.0482559 0.81898516 -0.20177653 -0.9272687 0.6494279 -0.12877615 -0.171998 0.8420864 -1.3288741 -0.16408686 0.3495639 -0.11221064 1.1726198 -0.54593337 0.6548011 -0.10969179 -1.0856876 -0.9858493 -0.83375084 -0.73765785 1.873933 -0.28257167 -1.9706663 -1.1435937 -0.12243821 0.37281454 0.5786741 -0.20508061 -0.10273552 -0.69503754 -1.3313147 1.4766246 0.07125505 0.13057153 0.93022656 -1.9834682 -0.00075364887 1.2210164 1.1208669 -0.73842007 1.0337385 -1.1294993 -2.3521957 -0.16326533 -0.2511088 0.075743124 0.6326939 1.2950865 -0.84725416 1.8609961 0.59453166 0.46859252 1.8653729 0.72270703 0.637349 -0.74773216 0.5562153 -1.4374573 1.8006244 -1.0542461 0.31742325 0.64233696 -0.5625914 0.15877359 -0.8306279 0.40483162 -0.5378211 -0.9694661 1.3713987 0.4769253 -0.8300379 -1.8679323 0.19498572 -1.0377378 1.3762289 -1.0032856 -0.2236042 0.67512894 0.25512958 2.9879014 -1.092856 0.36799324 -0.93500865 -0.13778357 -0.2415277 -1.4405779 0.15137185 0.62579536 -0.28009474
459 0.5173396 -1.144983 0.8955966 -2.2652586 1.2348521 0.5800948 0.5879035 -1.8832922 -0.159042 0.6791715 1.4270352 0.3065079 -0.22946723 -0.5566636 0.84304774 -0.25397068 0.51260567 -1.144159 -0.90217733 0.725599 0.8895573 -0.31250694 -0.7564076 -0.54172784 1.2172184 1.0599177 0.62902385 -0.9237513 1.4520456 -0.9944895 -0.8385296 1.3427327 1.4580033 -1.7166433 -0.8079068 -1.2905124 -0.1466501 -0.5234673 -0.85318166 -1.1455954 0.86153674 -0.7101562 -1.1435403 0.73987454 0.12778862 -0.6386948 1.6032076 -1.3153123 -0.019031448 -0.004069892 -0.14378391 0.6398947 -0.27896369 0.43589172 0.4549799 -1.605133 -1.2216616 -1.0873381 -0.6930049 1.4276899 -0.2140575 -1.9505994 -1.1188496 0.00919464 -0.6079064 -0.18243536 -0.13541137 0.49529684 -1.0759511 -1.7972416 1.4259088 0.8580204 0.47720453 1.1587673 -1.5807836 0.3842509 0.752577 0.29475868 -1.4570742 0.8600359 -0.47108114 -2.1148963 -0.24715242 -0.98896533 0.70978075 0.6451075 1.5368451 -0.90563023 2.0224323 0.39209104 0.24930453 0.84026307 0.092431374 1.4893674 -1.0017766 -0.15102206 -1.4409349 1.7783681 -1.0231175 0.9469639 0.24502611 -0.46166214 0.12042437 -0.8092354 1.1853516 -0.6599254 -0.67342645 0.8869969 -0.2942775 -0.5749077 -2.2613463 -0.65270585 -0.31983545 1.8310882 -1.1569018 -0.4792388 1.586131 -0.49976438 3.2493312 -0.29012403 0.023092043 -0.95672536 -0.7001064 -0.896346 -1.5830646 -0.13160817 0.4327986 -0.33377877
627 -1.6375374 1.2371423 0.27796322 0.19555837 -0.25764307 0.5049584 0.9503679 0.20594192 0.90402573 -1.787836 -0.69629705 -0.9495661 0.7920493 0.19565096 -2.1012466 0.79498893 -2.1120732 -3.7040966 -1.8024693 -0.21731317 -0.09243243 -2.252186 -0.3476161 -2.2330592 -1.9446102 -1.8957503 1.4862851 0.19609281 1.6254306 1.222742 -0.16759685 -0.91592145 0.27142683 -1.214226 -0.6202884 -1.9952475 -0.37758124 -0.8841613 -1.43148 0.099958956 -1.2834636 2.0814068 0.82387865 -0.06861684 0.4651859 0.26976657 0.27769879 -0.56289935 0.7945483 0.23600274 -0.05424137 1.6034261 -0.30183288 -0.36025953 -0.26792586 0.06129884 -0.7545056 -0.24266586 0.5343543 -0.15149063 -1.3633802 0.0042740447 -1.1123756 -2.255428 2.5524473 0.8978931 -0.8760799 1.6182086 0.17729871 0.013274532 -0.24683325 1.4175682 -0.31135514 1.0621862 -0.16231875 0.2438993 0.47383067 2.1815293 -0.41748312 -0.26487148 -0.7175015 -0.06948666 -0.7739034 0.46682608 0.07343875 -0.18695918 1.1542925 0.21245687 0.83611715 -0.5269879 -1.0811923 -0.5316113 0.21635471 -0.7011484 -0.30431256 0.09529914 0.73226523 -1.7572314 0.40430033 -0.75723153 0.17264357 -0.2609797 -0.9332183 -0.5840652 1.062109 -0.9520886 0.52675515 -0.16741613 0.7671414 0.21822764 0.050370444 0.87838906 -0.9228492 -0.20625482 0.58782196 0.73219144 0.2539321 0.052251827 -2.5929737 -0.43804094 0.40810046 0.35366473 -0.71372044 0.040957045 -0.92326844 3.020454 -1.2588284 -1.9765775
926 -0.57203794 -0.49128324 -0.5762796 1.4702461 -0.030116841 -0.5982651 -0.62991875 1.1709003 0.66674143 -0.20531282 -2.5269852 0.07587291 1.085988 0.93820465 -2.987557 0.38040552 -1.6537799 -1.3042115 -2.3573725 -0.8173208 0.8718768 -0.48725307 0.17236054 -0.82624733 -1.3268472 -1.6308683 -0.43412808 0.44209006 -0.51798314 1.9163473 0.81881124 -1.2130705 -1.7141923 0.16756712 0.03236707 -0.10356064 0.33958486 1.5324352 -0.43929425 0.629346 -1.4010234 1.5543149 0.23760435 -0.3164828 0.55413437 1.4264272 -0.84116477 -0.72799486 2.1397312 -0.8788987 -1.1045153 -0.06839097 0.53775036 0.9234426 0.9270119 0.9455323 -0.5956739 -0.374112 1.4567323 -0.7708795 -0.8892624 0.7900996 -0.20687038 -1.7897619 1.4479768 -0.61011434 -0.47322106 0.8171853 0.049614474 0.969706 1.1264693 -0.6327901 -0.053224612 -1.4614414 2.7965846 -2.2539809 -0.5299895 0.16515172 0.06771469 -0.7051359 0.3117433 0.084721096 0.77289057 0.10841763 -0.76126283 -0.56598985 1.5853567 2.2786944 0.28938138 -0.8005786 -0.4287928 -2.143498 0.29721043 -0.7081495 0.30513662 -0.0025217154 0.3298423 -0.39374846 0.35601935 -0.34206286 -0.68732613 -0.101600766 -1.0583739 -0.07979205 0.8801752 0.23210143 0.8307237 -0.66996676 0.10742173 1.5515358 0.057440683 0.07648524 -0.34393275 -1.314414 -1.1847241 1.4603641 -0.057636216 0.47860909 -2.073272 0.762654 -0.08144565 1.3504622 -1.3372647 -0.057270467 -0.23578279 -0.13414301 -2.2882464 0.6083139
969 -0.0006181262 0.7010721 1.7500461 -0.70931834 1.0781336 0.61603427 2.2422702 -0.40519598 0.62633324 -0.057215393 2.356333 -1.0359217 0.57044065 1.0738908 0.08480576 1.5589492 -0.29153964 0.8702603 -0.48363325 1.6556157 -0.589697 -1.4692285 -1.117044 -1.299015 -1.1432916 0.19211012 -0.74737114 -0.58434254 1.7341589 -0.8181401 -1.5051186 1.1949394 -0.6914059 0.6882299 -1.405287 -1.3777895 -0.61615 -0.44918138 -0.44099444 -0.72678626 0.53998953 0.12110934 -0.13444464 0.18236889 -0.61711913 0.3860169 -0.18964393 -1.4035994 0.04123794 0.29131043 0.42689556 1.1228662 -0.988749 -0.055810418 -1.0854484 0.090627484 0.27800897 0.18745457 -0.7289481 2.3166833 0.8594301 -0.11823259 -1.1821536 -0.20765479 1.9112777 1.7052137 0.1854859 -0.5892889 0.08584643 -0.32405815 -0.16599974 -0.43460223 -0.63573414 0.21651334 -2.3331954 0.22125378 0.6770522 1.5350977 1.0618477 1.6693885 -1.875432 -1.5474985 -0.38605428 0.7451291 -0.085236795 0.00045030427 0.16526012 -0.87621415 -0.35816723 0.39208898 0.398009 3.4865785 1.3398178 -0.2700278 -0.18394038 1.5229524 -0.19498329 0.32998398 -1.0435554 -0.41527024 0.9521763 0.26386467 -0.14482114 -0.98549694 -1.6037632 0.040572472 -1.2395345 1.6621233 0.5971768 -0.78656965 -0.40144324 1.1371514 -0.78074354 -0.34682617 0.7052492 -0.045992274 -1.5491639 1.0808176 1.2858946 -1.3925022 1.235061 -1.1930974 1.6654104 0.65978914 -0.13230647 1.0009968 0.57252955 0.7487859
981 0.45858428 -0.6546445 1.2815578 -2.307194 0.26586056 0.8079355 0.018358875 -2.1122491 -0.25031438 -0.1268248 0.36045703 0.6219521 -0.42322043 -0.7754359 0.9762394 -0.46442643 0.40646636 -1.7432184 -1.0226668 0.6214528 0.0490491 -0.5200527 -0.5564317 0.25324193 1.6018461 0.9578246 1.5183835 -0.46811375 1.0013092 -0.44419718 -0.16695492 0.76265514 2.125761 -1.3696373 -0.80315924 -0.7041384 0.13950521 -0.22037204 -0.7454332 -1.2296171 0.77230746 -0.98676926 -0.24763478 0.7726674 0.13482018 -1.1399732 1.6766351 -1.0327908 0.005582436 -0.3672142 0.6553292 0.6642098 -1.2312694 -0.10005107 0.13389832 -1.6304111 -1.0752478 -1.1009367 -0.72355795 1.2142162 -0.5270601 -1.572024 -1.2949262 0.25313196 -1.0083971 -0.8739853 -0.40275264 1.681673 -0.8185733 -1.7052381 0.6804167 1.9991511 0.48057708 1.8795736 -1.5593019 1.5091215 0.36763912 -0.27383208 -1.2781184 0.5775581 0.24106179 -1.5340645 -0.2891748 -1.069091 0.84120023 0.77782667 0.96871847 -0.64600235 1.4409994 0.66670173 -0.41081035 -0.024499925 -0.20695907 1.3844217 -0.49151912 -1.0192373 -1.5519574 0.9797877 -0.9244313 0.70938283 0.024755998 -0.9205718 0.2791321 -1.012762 2.083222 -1.0321451 -0.36400992 0.15514998 -0.26523677 -0.3635931 -2.3938951 -0.5845029 0.42099786 2.2382534 -0.6834324 0.25895002 2.4465916 -1.4523324 2.3281243 -0.16754141 -0.5756805 -1.0319774 -0.6635651 -0.8600808 -1.066274 0.15566283 -0.3813708 -0.976563
854 0.1364462 -1.2607626 0.1416577 -1.1579443 1.6768163 0.41517916 0.8040815 -0.88472736 -0.40952793 1.8673931 2.0559819 0.22246885 0.12573986 0.60478675 0.5599478 -0.4835439 0.53730184 1.2408206 -0.25880027 1.1876801 1.5710043 0.698734 -0.71158946 -1.0293119 0.63053924 1.6710613 -0.67851865 -0.6259209 1.3370174 -1.2469478 -1.116109 1.4088719 0.018363254 -0.99363434 -0.02973348 -1.2584969 -0.20775208 -0.42879164 -0.44904888 -1.1733264 1.1763089 -1.1127632 -1.0928931 0.91504437 -0.5055144 0.37777254 1.2228531 -1.8236526 0.37659967 0.5294142 -0.58614504 -0.59291685 -0.1380114 0.91192627 0.13347746 -1.5127165 -1.1173722 -0.48906147 -0.14980721 1.8732591 0.69895583 -2.0027683 -0.05609999 0.45433736 -0.14828481 -0.16465865 0.6999978 -1.1654017 -1.195484 -1.5511895 1.2758249 -1.0776286 -0.18319738 0.66017467 -0.6297405 -0.3869557 0.9991839 -0.31970876 -0.10629428 1.0975554 -0.94321054 -2.2390838 0.35522497 -0.6146963 0.86114407 0.021830373 1.4741361 -1.1661679 0.9949102 -0.47515783 0.7512298 2.1198323 0.29087898 1.2179921 -1.1331027 0.72584265 -1.3466094 2.0226142 -1.413576 1.2100819 -0.00059479405 0.3582129 -0.4841994 -0.46460277 -0.34996855 0.5351404 -0.97289395 0.46895996 -0.72127616 -0.7404635 -2.114513 -0.25206897 -1.6387204 0.94606763 -1.6173934 -0.8866302 0.07979699 1.1458726 3.4936159 -0.14345644 0.43646994 -1.2775921 0.36098546 -0.83938205 -1.508929 -1.2915437 0.85065013 0.5917926
993 -0.87097657 -1.4890846 0.6559952 -0.9001279 -0.11508516 0.2102585 0.6462364 -1.3994108 1.0682552 -1.4235146 -1.4472414 -0.73519737 0.9080076 1.429635 -2.6722915 0.53204066 -0.9323147 -1.3397306 -1.1562653 0.96259224 -0.49560636 -0.7272572 -0.69169265 -0.32024422 -0.3564221 -1.0611318 2.6916637 0.40065128 -0.1481106 1.8515382 -0.25220087 -1.0932236 -0.07836448 0.82809746 0.3534833 0.5903897 0.51409525 1.6178951 -0.49710888 0.6078633 -1.2856102 -0.6248548 1.392651 0.8050139 -0.3826787 0.9217588 0.07364782 -1.1594312 -0.28366876 -0.30389118 0.07679139 0.82753444 -2.4552479 0.79827386 -0.71995056 0.5651758 -0.45226908 0.6444326 0.22765447 -0.66935194 -1.9046965 -0.57799685 0.1808391 -0.4303198 0.68673086 -1.6514355 -0.4561767 1.2713269 1.7707219 0.17921655 0.14558795 -0.5117609 0.25365525 0.5526484 1.3533351 0.81500214 0.24480265 -0.71579653 0.21390235 -1.3244007 1.0296011 -0.56764156 -0.09151083 1.0665474 -0.6839348 -0.09364864 0.015279105 0.96804404 0.61165947 -0.24230735 -1.1070511 -1.0978268 0.44567606 -0.82255054 1.0054668 -0.5387742 -0.23695056 -0.6377394 0.7650987 -0.15291364 -1.4109516 -0.3428845 -0.47529492 -0.01424823 1.8884007 -0.21578808 0.6388896 -0.7676115 0.80905545 0.8108634 -2.0033052 1.9907143 -0.7493584 0.52225626 -0.8397015 2.596956 1.7047207 -0.49000934 -2.4474964 -0.867377 -0.9155641 -0.5406028 -0.55138665 -0.21110861 0.48536578 1.0005795 -1.9984149 -2.086574
436 -2.506611 -0.84291315 0.10680966 -1.0042149 -1.3961762 -1.1977051 1.1246625 -0.6736161 0.7227605 0.9824933 -0.9327415 -0.38471574 0.009964277 -1.3660877 -0.72879213 0.1638047 0.0034409314 -0.9635909 0.56683195 -0.12637626 0.66335046 2.1235042 -0.88992876 0.87009656 -1.2187709 0.76508415 1.1888211 0.5079385 0.13553752 -0.390386 0.6951131 1.0398871 0.7208974 -1.2494032 1.9005067 -1.0334661 0.3897597 0.30298343 0.8040797 0.4494153 0.49513724 -1.2242509 -0.3125279 -0.35317418 0.54939014 -0.8943229 -1.1616625 0.13829021 -2.0007863 -0.88480926 1.0530207 0.64091754 0.86257374 -0.85451525 0.7131799 -0.50866705 1.7849131 -0.42772982 -0.4935389 -0.37104824 0.7176783 -0.7173276 -1.1124667 -0.31459662 -0.33061582 0.09450873 -0.8493316 -1.0673497 1.5979797 0.43092892 -0.58437 -1.5712491 0.16839628 -1.4311119 -0.32016784 0.5495312 0.31746542 -0.5670306 0.014217663 -0.39986023 1.1823554 1.4421155 0.14318167 -1.4983144 -0.17132458 -0.42308658 0.86584806 0.68746644 0.24587758 0.63226175 1.1032563 -0.2383995 -0.9374103 1.2263047 -0.9349121 0.4170453 -0.6141559 -0.56403565 0.19415498 0.12161293 0.67874765 1.0778085 -1.5068644 -0.72413814 -1.7822112 0.43371645 0.95329195 1.2767595 -0.16346927 0.47985533 0.75503266 1.4220014 -0.96334416 -0.62036127 0.038325734 -0.41227147 -0.51711196 -0.48621938 1.623645 -0.37261483 0.7622949 -0.08674225 -1.2160789 0.7740137 0.2862902 -0.81085736 -1.2444471 0.7898975
377 -0.7246525 1.9000279 1.7560172 1.0254978 -0.65963507 -0.51958895 1.6633462 0.7871756 0.51002645 -0.4568468 1.7680115 -0.6259233 0.6440473 -0.13773486 0.67674553 1.4430099 -0.1065034 1.3091749 0.0154622765 0.1036973 -1.1837888 -0.18751475 -0.15268019 -1.3792069 -1.5415539 0.4170247 -1.5881901 -0.19296195 0.6026857 -1.1431564 -1.2997711 0.66873574 -0.2596621 0.96238285 -1.034819 -0.73202085 -0.8646363 0.10660581 0.21981847 0.0043622735 0.9430739 -0.1392872 0.42429566 0.34675035 -0.12563066 0.036028717 -0.37421003 -0.89861137 0.17197369 0.08093562 0.7258771 -0.4311965 -0.6927942 -0.63794756 -0.12494216 0.49311173 0.7838519 1.1694615 -0.59331954 1.3656512 1.6280802 1.477454 -0.93143064 0.5121178 1.2348387 1.8755158 0.51598567 -1.1755731 0.13510078 0.36656818 -1.1467245 -0.23395468 -0.61557543 0.28326535 -1.16798 0.44726706 0.21498096 1.3981864 2.043652 1.5132627 -1.9660048 -0.81762296 0.03263161 0.82348996 -0.08640678 -0.012155978 -0.75051624 -0.5102887 -2.1168287 0.39897445 0.054175466 3.2926328 0.76896954 -0.2834049 -1.0461553 0.5074753 0.9792226 -0.78534347 -0.94530445 -0.6925477 0.28968737 0.38262913 0.8071249 -0.19250159 -2.444912 0.6867935 -1.6663556 0.692458 0.29356778 -0.045781933 1.1681343 0.7921663 -0.40662464 -0.6576652 1.1403296 0.3328833 -2.9496894 1.0399323 0.5599867 -1.7922877 0.45343995 -1.2648203 1.1462728 1.1862769 1.0122497 1.1126846 0.47734106 1.40423
463 0.23247871 -1.1630596 -0.26140484 -2.0612078 1.4192879 -0.06101018 0.14487916 -1.172556 -0.4464542 0.6587053 1.3587898 0.5063635 -0.06573506 -0.36191255 0.7027509 -1.0055193 0.8959666 -0.5978463 -0.5818703 0.44612232 1.3026234 0.099260084 -0.06209407 -0.9558427 1.0728588 0.95269686 0.38514748 -0.56260264 1.0421277 -1.1849144 -0.34854296 1.4789613 1.4297849 -2.178153 -0.08999569 -0.9633968 0.2346882 -0.82717794 -0.7419766 -0.9779702 0.6215716 -0.99909395 -1.6296048 0.31505904 0.3813199 -0.756521 1.4562708 -0.88972235 -0.33759537 0.21262178 -0.48338598 0.1899092 0.16539235 0.5719327 0.9142227 -2.4660609 -0.90207005 -1.263242 -0.57922196 0.9391094 -0.53846246 -1.6741531 -0.19189171 -0.22418594 -0.5714985 -0.6568364 0.06438208 -0.08590583 -1.0661118 -1.5217276 1.1875094 1.0032928 0.22350779 1.4735111 -0.95451415 0.38648766 0.60256565 -0.22032964 -1.7935389 0.28062633 0.037244815 -1.7548568 0.038010113 -1.2603745 1.123963 0.2044877 1.2820548 -1.0641466 1.8592484 -0.24777941 0.2804872 0.6318521 -0.47083685 1.53125 -0.5714784 -0.13736561 -0.78612804 2.2399907 -0.84867483 1.4037368 -0.011055968 0.049385518 -0.2741194 -0.8337885 0.66637677 -0.58130264 -0.3505502 0.4086358 -0.6719501 -0.6493228 -2.08653 -0.78067005 -0.6565749 1.8788651 -1.0382067 -0.78651357 1.2264631 -0.24981786 2.8830688 0.32585675 -0.12409847 -0.7458987 -0.94002825 -1.0300796 -1.8954971 -0.7167239 0.6602985 -0.52329874
1001 -0.5390314 -0.32868204 -0.68495685 1.0446755 0.21418257 -0.15453258 -0.19762619 0.8235402 0.25435272 -0.542657 -2.159747 -0.08699761 0.9000942 0.75041085 -2.9691892 0.5324068 -1.4673905 -1.9332721 -2.0837758 -0.6427356 0.8254465 -0.6792138 -0.03220427 -1.2100888 -1.2388694 -2.0517712 0.097284175 0.26931536 -0.037818395 1.8009329 0.48870555 -0.8272209 -1.248347 -0.11538412 0.17016974 -0.13660601 -0.106430575 1.1579661 -0.60983664 1.056224 -1.5194709 1.6132141 0.15522443 -0.3043844 0.7469667 1.3258449 -0.8528866 -0.3268508 1.773136 -0.32857674 -1.2568094 0.6902568 0.7243678 1.0734417 1.0678669 0.84360045 -0.77581215 -0.65186864 0.7481217 -1.2605008 -1.422205 0.42484638 0.27366537 -1.8049399 1.6669849 -0.4335102 -0.45112503 0.8063838 0.2571138 1.0481249 1.2835983 0.056007065 0.483174 -1.0322697 2.199242 -1.9248422 -0.09116271 0.36256585 -0.4198247 -0.863335 0.32742694 0.2535396 0.31939313 0.3805024 -0.8975553 -0.58968806 0.9815053 2.3728485 0.6056287 -0.6125499 -0.8230299 -1.9558667 0.5910514 -1.354328 0.26089585 0.09643365 0.08755291 -0.17398216 0.75848037 -0.87822276 -0.32574433 -0.37699157 -0.80956227 0.035889328 1.1169279 -0.45991874 0.9288774 -0.707494 0.53073835 1.3746314 0.0051894225 0.15225255 -0.33906478 -0.9980266 -1.1168395 1.2279586 0.43160775 0.23995769 -1.9306828 0.5049411 -0.00094148505 1.6364188 -1.9154183 -0.112415634 -0.38457143 0.2934799 -1.791324 -0.09964954
909 -0.19488417 -2.2658613 -0.661367 -0.47043428 -0.5010666 -0.22540109 -0.22293334 -1.305179 1.6013402 -0.0059360014 -2.581299 -0.23168935 0.71799934 1.4095105 -2.5455992 0.085927 -0.5610676 -0.17568998 -0.8173516 0.31741554 0.032946587 -0.16280149 0.26073566 0.5852711 -0.103018634 -0.35727322 1.7370818 0.640295 -1.1975306 1.7957715 0.6605447 -1.7637085 -1.3219335 1.4204183 0.9446966 1.1686242 1.5184048 1.8114992 -0.21546087 -0.03548016 -1.568465 -0.5059631 1.263109 0.31717893 -0.6677474 1.2742587 -0.40933347 -1.0943061 -0.082790785 -0.8652459 0.0901512 -0.56474227 -1.8584915 1.260294 -0.7188035 0.9844815 -0.2239206 0.66000295 1.1409513 0.003360138 -0.91105145 -0.34115702 0.06825962 -0.36879843 -0.5880455 -2.1201053 -0.42707014 0.5521929 1.1910483 0.29902756 0.60306525 -2.0616987 0.273264 -0.76736367 2.3903406 -0.3352927 -1.1075501 -1.6206952 0.5481563 -1.2749996 1.6753441 0.2035207 0.9230288 -0.16133408 -0.3525916 0.1371017 0.7718065 0.88518465 0.1620882 -0.69357485 0.10378987 -2.3258264 -0.23015831 0.24321912 1.3008143 -0.20904213 -0.1879817 0.16291249 0.18860541 0.89212584 -1.7912147 0.3587054 -0.39350075 0.48906296 1.1954595 0.62469316 0.8528694 -0.77839774 0.10979002 0.38497663 -2.0852096 1.2435172 -0.55556643 -0.29760835 -1.2337768 2.2413187 1.2136234 -0.17098549 -1.9032599 0.5840153 -0.97238314 -0.25215083 0.18260708 -0.30529892 -0.12637906 -0.9959307 -2.4996521 -0.6609954
517 0.18679334 0.448679 0.7934779 1.12518 -1.353121 1.045647 -2.012222 -1.4675705 -0.6407456 0.51376176 -0.8489469 -0.28276533 0.6338148 -1.3315545 0.3262236 0.9500674 -1.4895148 2.1343546 0.079231046 -0.810906 -0.18487437 0.60777926 1.8125587 0.69018096 -0.112764426 -1.6853831 -0.9106 -0.4615053 1.4782096 0.9614922 0.1588081 -1.7311735 -1.0237936 1.5162566 -0.5017418 0.42091662 0.029491564 2.2899363 0.7787587 -0.4566832 0.2955946 0.7300283 2.1320689 0.11239 -1.6913737 -1.0209842 0.4724816 0.84671324 -1.9380987 0.26710725 -0.42494756 -0.11755081 0.30949083 -0.1500444 0.9661178 0.059721302 -0.5851981 0.5808664 -0.47311622 -0.32892472 0.15412521 1.2971164 -1.2492207 -0.017459586 1.6767017 -2.3090503 -0.04550272 0.52370816 -1.8345919 -0.75165164 0.92066544 -0.03864872 2.7871554 -0.42459166 1.3994942 -0.35743216 0.34109932 -2.148349 -0.26920965 0.5315297 0.5978592 0.83310443 0.16772793 -1.1434526 -0.10038245 0.45004404 0.62932336 0.57217103 -1.052321 0.15797624 1.8099557 0.43616468 -0.2395284 -1.5959915 0.55116683 1.6202852 0.021975484 0.08733753 -1.3441117 -0.5264408 2.3750806 1.388926 -0.42933455 -0.23884587 -0.08663121 -1.4270083 0.18789509 0.5641138 0.18831263 -0.9769521 -0.37469405 0.14960177 1.7487345 2.780959 1.3526613 0.4786906 -1.248351 -0.91929793 1.4529113 0.34496883 0.5931996 0.114793174 0.2323636 1.4284867 0.4569924 -0.9538067 1.0132567 0.6168571
692 1.7586391 -1.0992672 0.57250744 1.806914 -0.82931566 0.22473471 2.1686525 0.22411673 -0.28767043 0.056431964 -0.53113085 1.701717 1.6576678 -1.0292065 -1.7506335 -0.7517018 0.67861474 0.46505517 -0.10694498 0.20240565 -0.5585937 -0.13794236 -1.1158065 -0.08025346 0.67958117 -0.6851928 -0.16627505 -0.09275029 0.23140457 -0.7079669 -0.20396283 -0.37868318 0.42019424 -0.8925359 1.3701831 -0.69706273 0.8559693 -0.22409599 0.27110252 -0.6281901 1.4605767 1.7684536 -0.2058324 -0.15173219 0.9400691 1.0692871 -2.5029182 -0.89238137 1.1331319 0.45326993 -1.308473 -2.4607718 0.50224185 -0.18997636 -0.7013815 0.43481162 1.4536395 0.010289433 0.8851288 -1.2165471 1.0799725 -0.2013846 1.0574238 -0.8184886 0.72258943 -0.8768464 -0.7767871 -0.3583889 0.5540283 -0.11853051 1.9873081 2.4999065 -0.12294148 2.2929351 -0.062282525 -0.37486032 -0.25434524 -1.2604477 0.07718937 0.1567447 -0.7816214 -0.39151704 0.42734396 2.0511458 0.34245124 0.25929767 -0.67196184 0.8992138 0.74145573 -0.31399122 0.8473141 0.81210166 0.8631162 -0.51258737 0.6304981 0.12072684 0.16573559 0.22266546 0.6422984 0.16253912 0.39811897 0.5928872 0.046120856 -0.26861355 0.24385649 -0.32796776 0.46782675 0.88285184 0.77833164 0.16616254 -0.8066783 -1.1659535 -0.46278337 -0.39097404 -1.3683133 0.5074559 -1.082602 -0.38915658 1.541625 -0.71614623 -0.58467305 -0.6301191 -0.72581774 -0.018647568 -0.8024551 -0.15184964 0.29497817 0.44195986
608 1.3076131 0.15998206 0.06586133 0.5944736 0.07441825 -1.2614228 -0.7135555 0.2588825 -0.4613229 1.0760037 -0.23784807 -0.49576756 -0.38956136 -0.6216801 1.229107 0.6225017 -0.78803056 -0.12639837 1.6158924 -1.7181406 -0.6851035 1.4988586 0.45898536 -0.85049284 -0.34083018 0.31769523 -0.5693899 -0.6461714 -0.10337243 -1.1577672 -0.3600961 0.1378727 -0.004323066 0.75188714 -1.6813422 -1.0684081 0.72277725 0.8963997 -0.17016383 -0.6419386 -1.297805 -0.55884635 -0.006767287 0.40699992 1.7109488 0.9323648 0.843855 -1.8673723 0.2374087 -1.1104463 0.40853634 0.29738897 0.45567745 0.22703108 0.5636019 0.17824115 0.8242853 1.0110773 -2.1221514 -0.13847478 -0.28273347 0.15307929 0.24026568 -0.72136015 -0.71257347 -1.1022923 0.19249445 0.015117834 0.11836672 -0.0813648 0.6558176 1.1770251 0.7250694 -0.06723835 1.5858103 0.23354833 0.37946033 0.12713738 1.2299899 -0.34716913 -1.0325752 0.14840546 -1.1286243 -1.010281 0.80743265 0.11858982 -0.24202618 -0.6310685 -1.193293 1.3999568 1.0568908 1.7982808 1.8358728 0.5771661 1.7196237 -0.2170841 0.35224867 0.17436594 -0.20951407 -0.10740126 0.57209516 1.0360051 -1.0619055 0.028391011 0.46540374 0.28451958 1.8169277 0.21055879 0.47953674 -0.00403211 0.3904905 -2.1271758 -0.08011829 -0.8877717 -0.13599433 0.0065667876 -0.20337436 0.27727067 0.05830333 0.84920996 -0.093343586 -0.99213094 0.8535178 -1.1524044 0.20520413 0.37002245 0.19439653 -0.78876764
973 0.044175703 0.19971511 1.5894681 -0.34806365 0.55368775 -0.0496007 2.5233188 0.10242954 -0.049634997 0.37081403 2.411603 -0.99149853 0.42197245 0.692463 0.75939673 1.1392536 0.26742437 1.5979054 0.050984044 1.0191807 -0.49270415 -0.34794274 -0.83852565 -0.8216251 -0.5696649 0.9438119 -1.1999635 -0.5038496 0.83694315 -1.6818756 -1.7147144 1.314247 -0.14802507 0.8320742 -0.8979126 -0.9133084 -1.2777596 0.11116049 -0.12114098 -0.39297712 1.2296747 -0.22843947 -0.10699526 0.6704932 -0.5704637 0.5291819 -0.6163627 -1.4779329 -0.009942222 0.455403 0.51592946 0.008229741 -0.610336 -0.43958953 -0.554265 -0.14072455 0.5641281 0.45118004 -0.48502088 1.8290532 1.4724305 0.3462115 -0.5689938 0.699527 1.0123811 1.4452318 0.4396556 -1.5856795 -0.03289848 0.14605401 0.07505442 -1.1684014 -0.36206323 0.22693504 -1.4734895 -0.1919538 0.99136525 1.0752088 1.7848963 1.8525329 -1.9733952 -1.4112417 0.2759679 0.99526703 -0.14414452 0.3221829 -0.31764716 -0.6602798 -0.70406866 0.5087601 0.7312264 3.8348312 1.3994838 -0.06833648 -0.9021177 0.8658701 -0.20349078 0.466031 -1.066571 -0.36025545 0.63899785 0.5264806 0.44938445 -0.7459843 -1.8249086 0.86452675 -1.6027122 1.3039753 0.35274017 -0.65713596 -0.07201286 0.7264215 -1.2257129 0.292779 -0.11317246 0.19196147 -2.3667893 1.4653065 2.000804 -1.9393259 0.79328847 -1.7144444 1.1450707 0.60055107 0.43501285 0.15337887 0.7223873 1.4301453
367 -0.5016947 0.5454167 0.8626014 -1.6121172 -0.12894903 0.8933139 1.6313943 -1.6056373 -0.052559838 -1.1302053 1.2259996 -0.84300137 0.5583763 -0.22842689 -0.17844005 0.7689306 -0.26280704 -1.4241053 0.0084245205 -0.43758252 -0.41830003 -1.9680778 -0.4681611 -1.2764556 -0.47459543 -1.8850994 1.9169688 -0.85715955 1.4625782 0.0067617577 -1.084303 1.1236417 0.91010195 -0.5664841 -1.0345585 0.09638928 -0.4567588 -0.46018195 -0.58259624 0.87358135 -0.67119676 0.6162793 0.92608786 -0.34178305 0.72526723 -0.806846 -0.20743516 0.96733373 -0.7306383 0.45226815 0.08941754 1.6721746 -1.2199311 0.021968547 0.3372485 -0.14153711 -0.014999963 -0.16284941 -1.4835764 -0.31630167 -1.8940032 -0.6754436 0.025895687 -0.0024909806 1.1451336 1.4763362 -1.322298 0.45727247 1.3191406 0.45023856 -0.12538834 2.339238 0.7602132 1.8432381 -1.2419486 1.1279931 0.72449374 1.5221982 -0.93480766 -0.18442063 -0.64238095 -0.19665422 -0.60844356 0.66539884 -0.28545797 0.17632237 -0.85762835 0.14139166 0.9944303 0.8702311 -0.21310721 0.6744561 0.99609494 -1.3467821 0.010568645 -0.019051582 -0.32201222 0.62518585 0.73431087 -1.2245476 0.5333445 -0.7426685 1.1314286 -0.30870095 0.52710146 -1.8827478 0.436236 -0.13992678 1.6619041 -0.3850678 0.05437401 0.87985957 -0.017605469 0.9243053 0.6228315 0.80233186 0.56025517 -0.24294232 -0.704932 -1.5461551 -0.25463036 0.71035683 -0.24447194 0.062006798 -0.63351995 1.4733591 0.15985848 -1.9752169
373 -0.78573895 1.9401367 1.8196106 0.7079951 0.048826523 -0.17575727 1.5673436 0.498128 0.7977516 -0.46452528 1.6277571 -0.6403489 0.6952904 0.6502101 0.24273196 1.6074167 -0.48417473 1.2637173 -0.27612635 0.9120782 -1.2230135 -1.0015904 -0.33846235 -1.4224406 -1.7257714 0.026991319 -1.5039889 -0.15459254 1.1259767 -0.6191045 -0.9704488 0.6517038 -0.7305573 0.9162125 -1.2172163 -1.1285714 -0.28434753 -0.35087958 -0.07545135 -0.5337622 0.45982677 0.07005225 0.20013997 -0.23814164 -0.23210397 0.1531703 -0.09813864 -0.9104601 0.34324923 -0.09847151 0.70678306 0.40151072 -0.8779916 -0.708742 -0.70866346 0.4685522 0.46694994 0.9227047 -0.6947625 1.9862585 1.4518614 1.2012691 -1.3143332 -0.13929385 1.9611924 1.9862502 0.31028673 -0.49486297 0.37620184 0.10605233 -1.2944846 0.06399379 -0.8746333 0.031633563 -1.7231487 0.7120012 0.10712438 1.6453547 1.4993767 1.5528768 -1.7055358 -0.88845944 -0.4870383 0.61333144 0.21725412 -0.30830678 -0.32961532 -0.86745566 -1.6701454 0.25568777 0.061292104 3.3251731 0.85144407 -0.13273281 -0.38195255 1.1640829 0.8941196 -0.7573346 -1.0123307 -0.56426656 0.6682756 0.47595656 -0.09174633 -0.6173856 -2.336228 0.21717069 -1.3698372 1.0679065 0.29768157 -0.22941938 0.85192716 0.94657546 0.09318505 -1.2202764 1.740296 0.031052342 -2.3661838 0.9260691 0.26956287 -0.9711842 1.1509871 -1.0981202 1.9156699 0.7967515 0.5016709 1.2963735 0.3235903 1.1353903
542 -1.0949236 -0.5336926 1.0167271 -1.7748665 -0.11072296 0.6335733 1.212693 -2.0320559 0.6108732 -2.0665123 -0.23107561 -0.75251853 0.3372137 0.37432578 -1.1505804 0.52846855 -0.54545295 -1.9284886 -0.34551585 0.59521586 -0.9951574 -1.6601621 -0.86429924 -0.5277658 0.10532674 -1.4255607 3.2328918 -0.25006893 0.32633263 1.1654662 -0.47524208 0.021223674 1.3785456 -0.34618545 -0.15914267 0.36134046 0.236952 0.8651649 -0.5751321 0.81746346 -0.89513296 -0.7143486 1.2915227 0.34603357 0.56971496 -0.45077962 0.3311723 0.024596037 -0.8080619 -0.17036939 0.3910871 1.7270925 -2.154029 -0.11676678 -0.39227057 -0.30107304 -0.22392473 0.5246483 -0.867915 -0.88754743 -2.5819132 -0.95755315 0.17511564 0.2028807 0.68244994 -0.37578383 -0.95420545 1.5940106 1.7834389 0.17202081 -0.72031385 1.6489697 0.32207713 1.7435284 -0.15111858 2.1958501 0.8530716 0.24807107 -0.47733718 -0.97241235 0.87044996 -0.6542034 -0.50816405 1.0234083 -0.51471394 0.13066469 -1.0611633 0.33209705 0.77538776 0.9108116 -0.97729445 0.020247925 0.9519939 -0.75663364 0.71440023 -0.72040045 -0.41727236 -0.1958869 1.2235307 -1.0253263 -0.67300135 -0.9811639 0.299658 -0.5225307 1.9619439 -1.3877783 0.6064899 -0.5906598 1.3232219 0.5409924 -1.2933941 1.045913 -0.08305607 1.4359156 0.07820116 1.8165733 2.110892 -1.2337005 -1.9013909 -1.5850959 -0.85384464 -0.3219781 -0.6384551 -0.37703225 0.33669496 1.7527351 -0.75694185 -3.0842564
102 0.40660107 -0.038663544 -0.49180493 -0.019882193 -1.7290145 0.24768095 -0.3206502 -1.2027239 -0.8619222 0.5099065 0.7525712 0.64332783 0.32575887 -1.2146748 -0.33781776 1.9827838 -1.2209138 2.0994127 -0.90903544 -0.25104243 0.0035997776 0.97312224 1.2337494 1.1634418 0.03098982 0.24413463 -0.48393708 0.5739505 1.7786013 0.86000884 0.4213925 -1.3119612 -1.6445918 2.401855 -0.29169106 -0.79299664 0.8955404 0.8827487 0.6031227 -0.61913544 -0.8225732 0.46622798 1.5604203 -0.056176934 -0.6502796 -1.3015811 0.31745094 1.0413598 -0.361742 -0.8751826 0.42757866 -0.4224922 0.18897222 0.20177697 1.0882355 1.3536973 -0.27654064 0.5925222 -0.113997355 -0.7785291 -0.43306908 0.9318836 -1.3105946 -0.30348244 1.6618966 -0.7524375 0.7093427 -0.55893743 -1.7324468 -0.47907993 0.05210183 0.750111 0.12486812 -0.31438646 -0.18414074 -0.16144656 -0.5555695 -0.43340477 0.03957541 0.44220817 -1.9358333 0.36553586 0.05592008 -1.3995426 0.7155311 -1.2200714 -0.6363268 -0.79772323 -0.6181653 -0.34854767 1.1514674 0.07578764 -1.8019375 -1.2236964 0.33362398 -0.29435673 0.40213385 -0.39861688 -0.0050055836 -1.5902693 2.6022768 1.5269778 1.0184287 0.63622385 1.4018155 -0.9606505 0.85398877 0.3305139 1.1733431 -1.0599442 -0.7940974 0.26696163 1.5466369 1.5951416 -0.058514606 1.2466885 -0.57022995 -0.6702919 1.6174095 1.0350118 1.4992844 0.3447376 -0.9809474 0.46746588 0.5266674 -0.87901115 0.37328213 -0.3017311
987 -0.35028931 -0.39915624 1.4477135 -1.6000017 -0.6902326 0.72223777 0.103367016 -2.0559485 0.6540754 -1.4648715 -1.2241749 0.3529536 -0.32326293 0.16963835 -0.27053273 -0.074289195 0.23891452 -1.4551479 -0.537263 1.0532489 -1.219462 -0.9816033 -0.4849013 0.99960834 1.1181111 0.09103817 2.7974508 0.47080657 -0.3180268 1.0680478 0.52418196 -0.77460015 1.4803216 0.23672558 -0.16115196 0.67953116 0.8340441 1.0741553 -0.22888382 -0.42601526 -0.34820867 -1.5215542 1.2176462 0.5900152 0.18162788 -0.48117894 1.1538079 -0.6169452 -0.31614286 -0.88365376 1.4135168 0.6285142 -2.8201277 -0.4774174 -1.1543723 -0.23305638 -0.53181607 0.18480812 -0.3456516 0.46354106 -1.1051449 -0.64705527 -0.67428476 0.8794305 -0.7724296 -1.5525441 -0.39936185 2.3418465 0.6177289 -0.64484763 -0.7769957 1.5594234 0.19163743 1.4779859 -0.31737596 2.4930584 -0.38870057 -1.0262485 0.054205474 -0.29657778 1.452848 -0.29460534 -0.05676114 -0.25652668 0.18530555 0.42380935 -0.55588156 0.009882145 0.23385793 0.6495112 -1.216249 -0.7703586 -0.034485377 0.52257025 0.79849887 -1.2367982 -1.1804802 -0.74811816 -0.14967248 -0.002287534 -0.69409007 -1.1919588 0.011312757 -0.63090044 2.004546 -0.895847 0.46429035 -0.7818067 0.3887752 0.26585165 -2.1384604 0.5417044 0.5636433 1.4833138 0.21846008 1.7777996 2.5368319 -1.9009173 -0.5538703 -0.47369975 -1.1894372 -1.1056329 0.0021515563 -0.65269727 0.4163709 0.6211894 -1.7049483 -1.6803865
456 0.21602343 -0.31268862 1.293565 -2.6931198 0.7724729 0.8644141 1.3768406 -2.031173 -0.11840678 -0.8340354 1.7700342 -0.5387683 -0.15866192 -0.41964743 0.925385 0.36863774 0.31077147 -1.6687981 -0.5078718 0.390783 -0.07216153 -2.0546625 -0.8437951 -1.0083433 0.50939596 -0.5753907 1.4418572 -1.1861161 1.5499824 -0.69555116 -1.0013033 1.7232836 1.6689835 -1.5194949 -1.2161373 -0.87942904 -0.43929204 -0.46282068 -0.94469315 -0.21239561 0.29548562 -0.13206676 -0.41082582 0.11629946 0.80037105 -1.144693 0.7726238 0.15263036 -0.39538345 0.08545728 0.32632872 2.034338 -0.7654344 -0.08060553 0.28547114 -1.3704858 -0.5502896 -0.6683889 -1.3053427 0.7159151 -1.4049698 -1.6511612 -0.69403815 0.2159436 0.43808198 0.8521223 -1.0996741 0.8143005 0.04365124 -0.66901153 0.38913116 2.2328691 0.4308345 1.6919565 -2.0350718 1.2888925 1.108009 1.4626241 -1.3295143 0.4095115 -0.6467539 -1.666108 -0.37292314 -0.09740741 -0.14928769 0.4976844 0.03934544 -0.5218858 1.9103942 1.6143658 0.13115323 1.3620065 0.9496034 0.44057727 -0.47765243 -0.21854697 -1.0955764 1.3877194 0.0061837933 -0.6232445 0.91161346 -1.2353173 0.7295919 -1.0882882 1.0596825 -1.7348562 -0.20405428 0.7860846 0.86561817 -0.3485461 -1.3014466 -0.12984999 0.05380689 1.9042594 -0.09340204 0.11971032 1.4318476 -0.94022864 1.5975943 -1.5652478 -0.2576673 -0.41377968 -0.65151006 -0.39428946 -1.1481404 1.0891092 0.66843367 -1.6454806
977 0.20365252 -1.2356805 -0.029713761 -1.5770622 1.7851264 0.30638573 1.0403149 -1.0848492 -0.6222104 1.2808772 2.3545012 0.080640845 0.07285155 0.17501521 0.82221645 -0.3482801 0.8688476 0.3825899 -0.058972776 0.71163034 1.4030875 -0.060292322 -0.7156911 -1.4136257 0.42269877 0.9086775 -0.16347744 -0.90739167 1.6617184 -1.4538411 -1.1037613 1.7739886 0.39429182 -1.4983056 -0.28476226 -1.4198172 -0.37252387 -0.77149445 -0.52911484 -0.7265112 0.9969214 -0.9153695 -1.3168007 0.63874006 0.099043384 0.15248777 0.86221457 -1.2399552 -0.047671672 0.500207 -0.7122224 -0.06999641 0.20128998 0.91646874 0.43367347 -1.6039804 -0.91730684 -0.77079 -0.46965045 1.4375073 0.043716107 -1.9679911 0.11166776 0.2116286 0.06860556 0.4189941 0.394741 -1.1379459 -0.99587923 -1.4075731 1.5258732 -0.5200018 -0.08904457 1.0277681 -1.1109844 -0.36086532 1.3504391 0.19006956 -0.5430529 0.86121625 -0.8782545 -2.2779207 0.2648969 -0.4661389 0.44052973 0.32575282 0.92069644 -1.0514368 1.5784091 -0.030688245 0.8614135 2.2812207 0.46438873 0.8609385 -0.92498076 0.7950697 -1.2629039 2.3478758 -0.9849617 1.023928 0.22438803 0.07061346 -0.19834438 -0.50247896 -0.3341169 -0.021225423 -0.73890907 0.60152465 -0.20506907 -0.7849269 -1.7787112 -0.3479117 -1.8276851 1.2221683 -1.5667006 -0.76604134 0.105660714 0.9238707 3.105299 -0.6277405 0.30363062 -1.1806263 -0.18610299 -0.7874289 -1.7456288 -0.9075591 1.1399262 0.10483295
607 1.3390173 -0.24448723 0.19051644 0.54683477 -0.60189587 -0.81224895 -1.3001388 0.59406126 -0.7714832 0.8217915 -0.087218545 -0.8196158 -0.7262559 -1.4397404 0.6197403 0.51867276 -0.4804975 0.41954973 0.82488614 -1.5559888 -0.39886382 1.568686 0.6969666 -0.8817368 -0.55812025 -0.42505202 -0.53771156 -0.88030493 -0.40983927 -0.25590163 0.17928793 1.0046242 0.14499892 0.7036375 -2.378764 -1.5129656 0.49676317 0.6290908 0.35722682 -0.3975247 -1.5746824 -0.42113248 0.34262055 0.069643706 1.5917164 0.81690097 0.06725868 -2.1653717 0.39731643 -1.3940496 0.44819698 0.50693405 0.674265 0.043754864 0.23568548 0.3002684 0.8737773 0.71546274 -2.074851 0.17541005 0.16452011 0.5022196 0.19345987 -0.47168273 -1.1375924 -1.8101152 0.89156574 -0.043698534 -0.35144067 -0.22669125 1.2148724 1.211081 0.29381046 0.3887945 1.8204893 0.8621481 0.28143182 -0.37405482 0.6311279 -0.12519382 -1.2903796 -0.27057058 -1.469188 -1.1002192 1.0212508 -0.5626957 -0.6580985 -0.9827879 -1.0551449 1.2165134 1.2944318 2.3489807 1.5654502 0.71970063 1.5650173 -0.3657114 0.21384937 0.28290775 0.07691195 -0.3342256 0.022506135 1.5664499 -1.1077877 0.1456098 0.951816 0.65929514 1.4059952 0.076163605 0.3354499 0.24254857 0.31297737 -2.6048806 -0.072224826 -1.9593544 -0.334981 -0.40794054 0.13183962 0.1639087 0.18712145 1.2994314 -0.59479773 -1.1006575 0.50831145 -1.9202007 0.4353862 0.092065364 0.61148685 -1.0407192
1002 -1.7948714 2.3639581 0.23397285 1.6544439 -1.162585 0.071859375 0.026428482 1.2992256 0.6007452 -1.4518219 -1.0540783 0.13358267 0.8969058 -0.68607503 -1.1069201 0.614466 -1.6877447 -2.3628447 -1.2938807 -1.2442731 -0.22513567 -1.553313 0.6277594 -1.5064847 -2.2209468 -1.7025161 -0.042205635 0.49772418 1.2471117 0.8328736 0.36461803 -0.9462074 -0.1813266 -0.9995633 -0.81451374 -1.2946486 -0.34262264 -0.9546225 -0.8439081 -0.20158075 -0.99425876 2.4482906 0.9639912 -0.6564103 0.8697807 0.1239156 -0.0033609928 0.4152005 1.4239292 -0.15783152 0.376783 0.6249653 0.37441084 -1.1082916 0.31657213 0.6415925 -0.5104444 -0.17231163 0.68301994 0.09527222 -0.1898887 0.99057007 -1.4078972 -1.8071645 2.3506455 1.6255788 -1.0959947 1.485307 -0.42525607 0.38985294 -0.7715557 2.0203643 -0.08874042 0.4891179 0.21395217 0.019730927 -0.39892548 2.0330918 -0.14132863 0.18588713 -0.75928646 1.1973437 -0.61591136 -0.37693873 0.61944085 -0.2765373 0.6859337 0.34286603 -0.025095567 -0.5378076 -0.8633351 -0.665846 -0.36781716 -0.6114088 -0.70657176 0.06882257 1.1676039 -2.2450447 -0.23190227 -1.0466897 0.7182843 -0.016136352 -0.5848158 -0.61048704 0.17521279 -0.96281904 0.6888186 -0.551186 0.32072878 0.08793511 1.6972466 -0.185179 0.37648946 -0.96207553 1.4989147 0.14107995 -0.9849304 -0.035323538 -2.1438158 0.62011635 0.5505459 1.2077299 -0.07329968 0.4449998 -0.6313615 2.4354334 -1.2243261 -0.39022034
434 -2.8420093 0.49143064 0.7555773 0.6342556 -2.0925834 -1.0797789 0.80218077 -1.4586695 0.26083001 1.0978382 -0.41845566 -0.24627233 -0.25030723 0.16489443 -0.36830717 0.9805969 -0.52469075 -0.578877 -0.11062776 0.28927067 0.77554536 1.4820392 -0.8573441 0.15294592 -1.727403 -0.50874734 -0.47873732 -0.9841848 -0.4929838 0.43104625 -0.046068784 -0.013633795 0.997841 -0.442626 1.1938694 -0.042922184 -0.11825096 0.6170111 0.7492814 -0.7552181 -0.36717153 -2.0975053 -0.73520416 -0.81305665 0.64311695 -0.49407268 -0.6767807 0.17471468 -0.7201979 1.2483499 -0.14461805 0.7402344 1.814566 -1.5455973 -0.3644412 0.29305515 0.84671754 -0.5787065 -0.014405124 -1.1554805 1.8563427 -0.43795392 0.4178668 0.9118713 -0.40652847 -0.571535 0.023932282 0.19361494 0.5947413 2.0887282 0.04103326 -0.23655254 0.26927942 -0.88714594 -0.4299532 -0.08638957 0.45940334 1.0620809 -0.29583326 0.098645486 1.3792336 1.5258939 0.433045 0.24949111 1.3157383 -0.36530465 -1.107745 0.7435244 0.22758445 -0.16851519 0.5616407 0.15114816 -0.55464876 0.08096965 -0.23248287 -0.7843933 -1.2682207 0.9119713 0.15841967 0.040425837 0.6775463 1.3171527 -1.7325534 -0.5505343 0.06559643 0.8559773 1.6952828 1.8813369 -0.8898027 1.1583686 0.10596097 1.4587625 -0.15477782 -1.4040371 -0.38985962 0.08327336 0.32160383 1.2946243 2.3866818 0.6632574 -1.0539317 0.5353529 -1.3009738 1.275229 0.046894673 -1.3420914 -1.5195534 1.5420878
520 -0.30253792 0.27271137 -1.7330756 0.32001492 -1.0173575 0.26561287 1.2979255 0.31141376 -0.12401673 0.38684523 0.9720179 0.29049802 -0.2956353 -1.3001016 0.4997884 0.079853095 0.7477858 1.2033753 0.6107879 -0.3627436 -0.22662345 0.8380398 0.18899734 -0.38403568 -0.86038184 -0.6924745 -0.28443763 1.068259 -0.33894247 0.53511107 -0.030266294 0.66764694 0.05939715 -0.119463146 -0.2845678 1.2361178 -0.57836634 1.0918759 -0.8533743 -1.8422341 0.3701607 0.9247682 -1.5946289 -0.07019632 -1.418889 0.2002606 -1.4974847 1.712669 0.7032989 1.1554188 0.7075678 0.17550837 1.5111411 -0.24981555 0.7629423 0.11012778 0.4526097 0.3726699 -0.80738676 -1.3017067 -0.13899738 -0.5215937 0.74537575 -0.553606 1.8802096 -0.3092827 -0.87466526 0.2063686 0.45352605 0.1728897 0.9940335 -0.23212613 1.979251 0.13010558 0.8045556 -1.5053586 -0.88009673 -2.0901217 -0.23911513 0.13126639 -0.54723185 0.29513115 -1.938842 -1.2597896 0.40744087 0.9559504 -0.5548937 0.5172316 0.398455 -0.19762725 -0.37728554 -0.27424154 -0.71506244 -1.0753018 -0.5327294 -0.886092 -0.6010796 -0.8616244 -2.0490906 -0.6347314 -0.79235166 0.04483368 -1.5845983 -1.7040582 -1.2250087 0.17561682 -0.7452279 -0.25961918 -1.0302929 -1.8509374 -0.9639175 -1.1671637 -0.34946463 1.4326115 -0.12536317 0.768742 -0.57352906 -0.14397879 -0.7069847 1.0394685 0.16038549 -0.30121407 0.6591209 1.6306525 0.95063376 -1.3392501 1.443515 1.1793076
635 -0.9023557 0.88269264 -0.94590104 1.2810167 -0.12464619 0.35410985 -0.34072256 1.2184837 0.18970531 -0.37238884 -1.8637962 0.12655209 0.8010872 -0.107211225 -1.6667238 0.47369605 -1.3740939 -1.7726518 -1.8495202 -0.9681215 0.5574685 -1.2146462 1.0921484 -1.4487925 -1.149826 -1.9599047 -0.6416689 0.72714794 -0.074014336 1.4776356 1.1335338 -0.8286788 -1.2637252 -0.94752526 -0.024389882 -0.9390826 -0.38921395 0.45158994 -0.7220882 0.8420321 -1.2002242 2.2288916 0.14493415 -0.7181091 1.4928086 0.8685692 -0.39112186 0.1189319 2.1759114 0.03777062 -1.1302559 0.23904729 1.4935458 -0.15111607 1.0602175 0.8079985 -1.1071588 -0.7811519 0.9716621 -0.33519426 -0.8960541 0.25877297 -0.075526625 -1.0388292 1.7988212 0.7256233 -0.64392996 0.8756683 -0.5614841 1.4050175 0.69878376 1.1760396 -0.1746445 -1.0556843 2.0994074 -1.4941916 -0.098421425 1.7025186 -0.16657606 -0.40212545 -0.33662796 0.796131 0.5065011 -0.016328309 -0.2895556 -0.5745276 1.1773404 1.2971038 0.16986898 -0.3264258 -0.46972445 -1.4847422 0.55226386 -0.6938165 -0.45251393 0.09602845 0.71289164 -0.73556095 0.72721726 -0.9907502 0.4108223 -0.21112254 -0.709449 -0.10543132 0.7534901 -0.8092309 1.2348299 -0.6503023 0.29672432 1.1583986 1.4822711 -0.9873073 0.51955783 -1.3978426 -0.24481395 -0.21507442 -0.4899574 -0.2561247 -1.6403817 0.9806381 0.4176555 2.3819354 -1.2207288 0.36000305 -0.41419318 0.48323214 -1.1806945 -0.068362094
999 -1.1510187 0.046058185 -0.36779982 0.38463247 -0.013211394 0.209677 0.2409681 0.36751497 0.55968076 -1.1238928 -1.573374 -0.7108217 1.2851993 0.6494529 -3.0249364 0.5477088 -2.1283584 -2.7365458 -2.2006557 -0.6893702 0.47817615 -1.0454993 -0.06302611 -1.8586047 -1.6847858 -2.1878173 1.0927088 0.21384995 0.90749335 1.7047131 -0.119969256 -0.81548995 -0.5143226 -0.27202034 -0.13956016 -0.85669154 -0.29307666 0.29304504 -1.0453432 0.7946002 -1.6650537 1.8720486 0.9500951 0.03364634 0.18752854 0.93181425 -0.47788525 -0.73976034 1.3431107 0.16222423 -1.0090353 1.0300382 -0.08653843 0.85916495 0.7065955 0.40460163 -0.63858306 -0.68817794 0.72268313 -0.94527423 -1.6880171 0.043390904 -0.24116564 -2.3199906 2.1334143 -0.14734757 -0.8279286 1.3189825 0.39673486 0.55314726 0.8855783 0.36820513 0.28795293 0.16318521 1.3087502 -1.0644187 0.35542327 1.0078641 -0.5304826 -0.9820667 -0.19800785 0.03333828 -0.10607819 0.6056392 -0.40064925 -0.45852292 1.1724017 1.6040003 0.9411437 -0.6252026 -0.9480818 -1.5852027 0.29886663 -1.2885778 -0.11354552 0.045053404 0.4665672 -0.78472465 0.7110942 -0.54660124 -0.31481162 -0.054807086 -0.884123 -0.2572707 1.6358811 -0.6201955 0.93502855 -0.61363524 0.46641627 0.72018373 -0.08658476 0.8131445 -0.8265253 -0.39331505 -0.6677273 1.2728001 0.4946851 0.40421817 -2.704158 0.111958414 0.048570253 1.1106874 -1.4789369 0.10866945 -0.7703995 1.7396364 -1.7369215 -1.2246277
545 -0.6083451 -1.1725804 0.84826857 -1.119751 -0.51681936 0.3524033 0.27186105 -1.9169556 0.99934524 -1.1980633 -1.5636017 -0.008071997 0.11929428 0.94141227 -1.4141241 0.19173892 0.032422863 -0.68001086 -0.19236529 1.1667988 -0.8037411 -0.3434994 -0.53980225 0.82160443 0.5665934 -0.23635322 2.6961286 0.51556987 -0.72939557 1.4459716 0.30254626 -1.1517835 0.4145655 1.0280842 0.3868699 1.2268671 1.0194086 1.6209595 -0.076008536 0.1325163 -0.9703339 -1.5090277 1.3298246 0.6686574 -0.2261756 0.46868545 0.4596785 -0.754034 -0.69796216 -0.7721809 0.8687157 0.39792627 -2.807203 0.20723315 -1.3346581 0.53719383 -0.2906584 0.6789374 0.025938686 -0.122108005 -1.2668835 -0.53173375 0.09931092 0.7029874 -0.49063402 -1.79964 -0.21012135 1.4358261 1.4057271 -0.12516524 -0.48120192 -0.16533257 0.32101145 0.6589281 0.82211584 1.7296636 -0.47531572 -1.5036677 0.46826047 -0.8972775 1.6105529 -0.11782326 0.07165499 0.37462765 -0.18732229 0.22998497 -0.61834323 0.43074185 0.11951277 0.053889927 -1.0200435 -1.0128498 0.041273177 -0.12023971 1.1514102 -0.78969175 -0.8075352 -0.74298465 0.23949763 0.029451245 -1.2968237 -0.5760787 -0.30380666 0.008361691 1.6110346 -0.27108335 0.66780746 -0.84619254 0.56335604 0.4453658 -2.1256506 1.3086392 -0.07890076 0.8291489 -0.292446 2.2437222 2.0119023 -1.0238532 -1.4806093 -0.38379416 -1.1053212 -0.8405439 0.12801874 -0.5352885 0.70964164 0.25272402 -1.856782 -1.6669226
370 -0.77750736 1.5277427 1.4969004 -0.6738465 0.09271716 0.56105065 2.288524 -0.607365 0.7173934 -1.0181643 2.1376135 -1.4472208 0.4264504 0.41294044 0.32533798 1.6842921 -0.6290091 -0.7028372 -0.03700414 0.49094 -0.970641 -2.6562474 -0.8112064 -1.9284049 -1.5198326 -1.2243744 0.36213863 -0.6582085 1.7516884 -0.4146728 -1.2736075 0.971137 0.1764285 -0.36884424 -1.5549331 -1.3165985 -0.4455845 -1.0710112 -0.566347 -0.061932832 -0.22891997 0.87510157 0.21599449 -0.5766947 0.60194105 -0.54477406 -0.07256213 0.33049002 -0.5434904 0.26777887 0.64955753 1.8164175 -0.849816 -0.8300654 -0.65403503 0.13226053 0.13194895 0.5025731 -1.2084471 1.2117864 -0.15795642 0.1319557 -1.0977567 -0.26856345 2.087192 2.709762 -0.70206374 -0.18384632 0.982863 0.30528432 -1.0411603 1.5266904 -0.34476203 1.1611127 -2.135684 1.1286122 0.7201074 2.8508763 0.3213446 1.0008096 -1.6893167 -0.80132145 -0.7434332 0.8043705 -0.24955173 0.123326704 -0.5054447 -0.9843591 -0.11765927 0.7072298 0.12254447 2.6793036 1.4312508 -0.72374773 -0.041137043 0.85878485 0.3969811 -0.3343368 -0.040597845 -1.0161545 1.0131556 -0.24898234 0.45491394 -0.7778049 -1.485231 -1.1103752 -0.8115654 0.931893 1.3722788 -0.4387801 0.5838334 1.2472304 -0.31273672 -0.42828235 1.5402067 0.28387597 -1.1576172 0.45619065 -0.6130503 -1.8344913 0.7011845 -0.32029423 1.1658343 0.3764458 -0.2163051 1.8046956 0.6332769 -1.0014118
942 -1.5344844 1.908069 -0.14613049 3.002513 -1.0079831 -0.6241274 -0.96884996 2.2448215 0.49551347 -0.46870476 -1.8737284 0.86435694 1.0865314 -0.35575792 -1.333714 0.082941525 -1.3716676 -0.42982572 -1.5980383 -1.399249 0.10104402 -0.37196112 1.4833455 -0.706945 -2.0946074 -0.8904856 -1.8949589 0.74287 0.026773704 0.92296314 1.2964247 -0.95150584 -1.3585985 -0.6942824 -0.37796587 -0.71627873 -0.11748575 0.005123939 -0.80669105 -0.5416592 -0.7782634 2.4901116 0.28490698 -1.0169896 0.98442554 0.8448132 -0.29962844 0.38521615 2.68339 -0.53454506 0.20789453 -0.3799688 0.86267126 -1.0384384 0.68066055 1.0563774 -0.85895216 0.30057982 1.2666265 0.22832474 0.70758086 1.4721164 -1.1647533 -1.2997878 1.8018893 1.0689728 -0.7406645 1.0322853 -0.8849098 1.1952555 -0.34199184 0.6525571 -0.19814643 -1.6871208 1.9614367 -1.0038925 -0.3069712 1.646834 0.6230034 0.32832864 -0.5061182 1.2073864 0.27851194 -0.2664882 0.6793855 -0.91904664 1.0930845 1.0193026 -0.5127991 -0.3854154 -0.41362062 -0.43017825 -0.4261121 0.20493366 -0.9474216 0.112951785 1.3299041 -1.9374365 -0.69175243 -0.9448556 0.5223765 -0.06508027 -1.1835108 -0.3671044 -0.37496063 0.12598033 0.52163243 -0.72644013 -0.50751716 1.1542916 2.214327 -1.1432105 0.8353166 -2.1717272 0.99452597 -0.08356097 -1.7209071 -0.087983586 -1.0617017 1.3678714 0.5189578 1.5003853 0.24649122 0.7675838 -0.50844043 0.6916324 -1.5917419 1.533095
549 -0.37054577 -1.0848205 0.11152998 -1.2224045 -0.77386826 0.8182508 0.27597386 -1.9899734 1.2236001 -0.59518033 -1.6838912 0.25152695 -0.12412784 0.8989005 -1.361511 0.16572306 0.49080887 -0.52248627 0.47822115 0.74629116 -0.9083562 -0.31895658 -0.22539033 1.3314866 0.44867754 0.38949 2.7268763 0.1957815 -1.1214461 1.4245006 0.7842484 -1.1286464 -0.1236861 1.4787704 0.10625227 1.8524629 1.4857429 1.2202085 -0.060567047 -0.026127283 -1.243705 -1.5520645 1.5192926 0.58201283 -0.8362364 0.49939144 0.08831439 -0.27511427 -1.1577849 -0.7672478 1.3329976 0.3753119 -2.477928 0.86235905 -1.8760195 0.71850455 0.054975484 1.0664498 0.16465466 0.48854682 -0.7922544 -0.7966441 0.0037884703 0.9926343 -1.0824999 -1.8578378 -0.70626736 1.0523554 1.0414711 0.28240392 -0.3715789 -0.6293663 0.14351882 0.20962268 0.79714787 1.7273558 -1.2746092 -1.6833988 0.84075415 -1.0394435 1.4257219 0.60611224 0.05067718 0.036641493 -0.029101122 0.44973022 -0.7285336 0.23256934 -0.33874643 0.05921131 -0.0153224105 -1.4290398 -0.39738342 0.15325983 1.724245 -0.4837049 -0.9949271 -0.1908673 0.2650665 0.14766753 -1.6292976 -0.35614935 0.27628723 0.31108972 1.0168666 -0.14984806 0.95649236 -1.2417887 0.56664693 0.34143978 -1.8364297 1.2571162 0.04428458 0.3556933 -0.1172045 1.6505858 1.7849541 -0.7306372 -1.3514229 -0.053765338 -0.9120387 -0.19433236 0.91943806 -0.11956388 0.49449763 -0.056026157 -2.1307898 -1.6119138
521 0.12769598 0.47492528 -1.3356415 -0.10442904 -0.28599373 -0.078529075 1.387762 0.85687786 -0.786085 0.46151686 1.0268027 0.69566953 -0.54623675 -1.0338094 0.070040695 0.14547028 1.549619 0.22235069 0.9992896 -0.41955236 0.16965187 1.1704097 -0.16574815 -0.17493707 -1.0918452 0.37046584 -0.051367644 1.4838033 -0.8627437 -0.026267156 -0.08711858 1.3950562 -0.15006743 0.025281653 -0.032416116 1.2111179 -0.18040164 0.8477414 -0.9297235 -2.0499907 0.1939827 0.6426415 -2.467934 -0.6311993 -0.70951295 0.23325738 -1.8305825 0.8798558 1.0339744 1.0836548 0.4517962 0.5801923 1.5130153 -0.060069337 1.309149 0.6216009 -0.08422279 1.0607377 -1.1391002 -1.8569629 -0.3680777 -0.28250656 1.2136793 -0.12933575 1.1087497 0.86301506 -0.38995236 -0.19628114 0.43406513 0.26209468 1.1940895 0.28305554 0.8639799 -0.66621256 0.5994844 -1.941733 -1.3235085 -2.3108146 -0.38208628 0.63943344 -1.2806144 -0.5504999 -1.5483999 -0.96205604 1.222411 0.14430088 -1.1319615 0.62683403 0.174043 -0.7340353 -0.3662059 -0.2533455 -0.5844662 -0.120842166 -1.2735395 -1.3834692 -0.44099966 -0.60721236 -1.9715967 -0.9672839 -0.69588673 -0.12024186 -1.3817294 -1.104431 -1.4844216 0.45705 -0.40411854 -0.054368224 0.2906089 -1.6622772 -0.51275474 -1.3380624 -0.60470784 0.8709169 -0.062467027 0.7175945 -0.90909475 0.91087353 -1.206802 1.3464029 0.6091076 -0.5227573 0.6382976 1.6472442 0.9011589 -0.60115415 1.2470478 1.8644419
985 0.20831402 -0.67982566 -0.102058336 -2.3647947 0.23255874 0.15011889 -0.53011113 -1.5238132 -0.5229617 0.56512797 -0.043433446 1.0775349 -0.90817946 -0.7390845 1.3261931 -1.2376769 1.347035 -1.048764 -0.44518968 0.2871103 0.625227 0.20275955 0.04669512 0.31510362 2.1328888 1.0856268 1.2206244 -0.019168818 0.0016118113 -0.76439005 0.5008713 1.0373667 2.3891547 -1.3594396 0.07322358 0.014503342 0.91288555 -0.75113595 -0.40925217 -1.199249 0.58959574 -1.7102125 -0.82909054 0.28378505 0.40191 -1.1171297 1.5129633 -0.8019172 -0.515309 -0.43130323 0.50324124 -0.15594862 -0.943352 -0.076100364 0.487226 -2.323068 -0.32732716 -1.2159157 -0.58755827 0.9031209 -0.6222136 -1.2387714 -0.23433043 0.37614027 -1.4524736 -1.1791887 0.1134829 0.82109094 -0.90393317 -1.7247682 0.52813977 1.853942 0.36028472 2.1407185 -1.1648239 1.5568484 -0.04538773 -1.2233264 -1.3393279 0.3849591 0.72865546 -1.1232847 -0.08786093 -1.3412594 1.4918258 0.6385385 0.5195355 -0.95286155 0.8963646 -0.07961465 0.11183025 -0.15166749 -0.6493582 1.7054689 -0.06430084 -0.9482842 -1.339109 1.5345349 -0.7548712 1.2968752 -0.4591643 -0.41092587 0.15633322 -0.9791951 1.1641229 -0.65628624 0.22700201 -0.31450793 -0.8725801 -0.659336 -2.255095 -1.0092052 0.2074453 2.0921624 -0.41078135 -0.25867468 2.08803 -1.0051914 2.1689677 0.6230918 -0.68224883 -0.9488262 -0.7890213 -1.4646469 -1.3749328 -0.8250586 0.037977356 -0.7969947
1004 -1.4092275 1.9928757 -0.016064381 2.2422793 -1.0089406 -0.2291842 -0.6001469 1.7824124 0.3170648 -0.84159875 -1.4674246 0.6235839 0.70997643 -0.63985837 -0.9848651 0.3448041 -1.1933482 -1.2356616 -1.2893236 -1.2232862 -0.00011878278 -1.0920553 1.3774201 -1.0444635 -1.669891 -1.3833492 -1.2679416 0.7309552 0.24774864 0.8330119 0.982287 -0.8261179 -0.8085038 -1.2076498 -0.48194027 -0.8778925 -0.34279457 -0.26578534 -0.8660652 0.009920327 -0.8453725 2.4509976 0.2929227 -0.85114264 1.4361038 0.44632354 0.00936204 0.75703096 2.1648653 -0.26601696 0.15292569 0.28507408 1.081359 -1.2419826 0.8266149 1.0457729 -1.0796129 0.121752895 0.6025442 -0.010969147 0.118460014 1.1649995 -0.9190235 -0.9768714 1.8786777 1.5338583 -0.8322652 1.0239158 -0.5507262 1.12745 -0.48090875 1.6722949 0.051856913 -0.9710882 1.2292856 -0.6994156 -0.18917878 2.1456864 0.082015105 0.31585047 -0.49560213 1.2237508 -0.15796885 -0.3595525 0.32781926 -0.67695445 0.5481957 0.73330563 -0.18977214 -0.22935706 -0.7505451 -0.4763129 -0.0062494213 -0.31781408 -0.88660574 -0.006913378 1.0881034 -1.7671597 -0.1846029 -1.4124918 0.84253275 -0.46561098 -0.55172247 -0.1833839 -0.14751258 -0.6063857 0.4985919 -0.7016113 0.24684122 0.94380283 2.0891132 -1.1159077 1.161856 -1.8473259 1.2892587 -0.18446 -1.0243269 -0.59302473 -1.0450935 1.0059978 0.4206504 1.6684383 -0.30344406 0.39527166 -0.46362802 1.060554 -1.0729012 0.5593535
628 -1.6120164 1.1786933 -0.05385336 -0.2735959 -0.59174335 0.6782758 1.1789782 -0.25831914 0.49665514 -1.4858171 -0.35203227 -1.134061 0.8947689 -0.22219034 -1.5412474 0.8483867 -1.7717253 -3.0826144 -0.6848831 -0.8165925 -0.32364753 -2.109046 0.0032481642 -2.141267 -1.7350594 -2.663432 1.7402184 -0.0983198 1.494441 0.9350563 -0.43579423 -0.3573025 0.40580195 -1.2082921 -0.53566784 -1.2948067 -0.46932375 -0.8153022 -0.934197 0.9386126 -1.4337091 1.8515371 1.1863984 -0.23841742 1.1941217 -0.1794523 -0.21309388 0.43583137 0.07440492 0.50233966 -0.45074463 1.5687184 -0.15540104 -0.2898591 0.33815485 0.26991984 -0.111143455 -0.56458056 -0.26944068 -0.64816445 -1.7826041 -0.26857007 -0.44587636 -1.6768316 2.1012876 1.5449618 -1.257231 1.1966287 0.7976142 0.5263184 -0.32952547 2.0218277 0.085973665 1.3001561 -0.23805487 0.38642338 0.47833455 2.173347 -0.8032511 -0.54838985 -0.43128344 0.5826631 -0.7296487 0.4006369 -0.0036125802 -0.10096875 0.077396624 0.338926 0.8452531 0.043978177 -0.6293782 -0.53529894 0.5566685 -1.2930465 -0.32503006 0.13401453 0.6535412 -1.0185461 1.0281774 -1.051694 0.57836616 -0.044086132 -0.16775139 -0.41481158 1.0450075 -1.4522485 1.1374611 -0.3666422 1.1993662 -0.15238 0.9152051 0.48620743 -0.42364928 -0.15878865 0.7234792 0.4550347 0.19485354 0.18036398 -2.609055 -0.31512356 0.3454228 1.2499275 -0.8778329 -0.025943395 -0.8406711 2.6421127 -0.69461656 -2.2632554
631 -1.5101978 1.2795016 -0.4799784 1.4145818 -0.4916937 0.10495928 -0.015942264 1.2670969 0.44741502 -0.98263013 -1.6648811 -0.06779092 1.092944 -0.14178681 -2.238694 0.39485598 -1.9881997 -2.5037742 -1.9866778 -1.2665974 0.48350275 -1.061724 0.46259955 -1.7960813 -2.0955286 -2.103818 0.13401583 0.43707418 0.91377795 1.3634629 0.46806926 -0.9962122 -0.65633476 -0.78886336 -0.3401399 -1.3312862 -0.37407145 -0.2693884 -0.9648068 0.36121985 -1.4255999 2.4619298 0.7538835 -0.46315745 0.8998326 0.82042986 -0.47388697 -0.25527364 1.9108576 -0.08272982 -0.8049311 0.57395643 0.7780688 -0.0132977525 0.80615354 0.5359245 -0.62449586 -0.8824652 1.1092774 -0.47633275 -0.8403318 0.58283275 -0.7028219 -2.2406077 2.3208294 0.7777556 -0.89090514 1.375519 -0.45695683 0.7241996 0.41955817 0.9348276 -0.013181126 -0.06511215 1.2206261 -1.1303451 -0.18891704 1.5091585 -0.37933636 -0.37633318 -0.4938911 0.66759294 -0.015047918 0.0051810145 0.24040292 -0.44849402 1.2228993 1.3649708 0.50249517 -0.62777674 -0.8260088 -1.3846321 -0.1483754 -0.82135034 -0.616792 0.12821427 0.81258017 -1.5642712 0.14859332 -0.732178 0.2692679 0.058510214 -1.1713752 -0.3974097 0.9558101 -0.6087416 1.0878562 -0.59113747 0.16395485 0.5783792 1.1378019 -0.19737542 -0.37469724 -0.8828238 0.12415194 0.46820644 -0.5678511 0.50056666 -2.3111877 0.90327054 0.46080408 1.5609366 -1.1425909 0.24384885 -0.92635256 1.8316998 -1.662927 -0.36968324
995 -0.91106987 -1.2155663 -0.4355791 -0.118836746 0.14179732 -0.049917467 0.61202556 -0.5481962 0.9164095 -0.9316787 -1.5380327 -0.98137105 1.2620451 1.2951125 -3.1478384 0.63037115 -1.6031696 -1.6651396 -1.5235537 0.026613643 0.25206003 -0.5479103 -0.38831893 -1.3044606 -1.2769783 -1.7678431 1.7175894 0.15791501 0.3626197 1.641231 -0.3098332 -0.9521058 -0.7874468 0.4745298 0.63283527 -0.03544926 0.20043354 1.0079188 -0.80497265 0.79418725 -1.6203765 0.78757405 1.0021281 0.26568416 -0.2898599 1.1622533 -0.70752996 -0.87649655 0.3350736 -0.006728155 -0.7786523 0.8232993 -0.9524134 1.2128806 0.11972822 0.6263977 -0.3279677 0.0696037 0.5519813 -1.0783306 -1.6931157 -0.19711155 0.3487783 -1.6556815 1.3739264 -0.86075884 -0.55010366 0.61008924 1.5806162 0.6012891 0.75066847 -0.9832024 0.40403098 -0.050776638 1.6864283 -0.63633746 0.33121687 0.03195221 -0.12220653 -1.3453401 0.5632309 -0.27984378 0.049287878 1.0330639 -0.73209924 -0.23346753 0.71858025 1.4370028 0.694947 -0.6231681 -0.7850202 -1.4725035 0.40558928 -1.2211287 0.510611 -0.0054759714 0.39892548 -0.35346133 0.94261056 -0.16675599 -1.1429543 0.223791 -0.6584759 0.22830983 1.4129928 -0.07154116 0.62442327 -0.4982862 0.6026095 0.7459459 -1.074091 1.6334711 -1.1840794 -0.1531993 -1.246494 2.0669847 0.7641434 0.42859238 -2.7793722 -0.2903339 -0.29810217 0.34689447 -0.9705484 0.020494532 -0.3101016 0.8406652 -1.69894 -1.5812787
997 -0.40844625 -1.8286699 -0.6396043 -0.64186 -0.10840333 0.2971399 0.45637348 -1.5666097 1.2468904 -0.63630337 -1.9775659 -0.5502642 0.6104451 1.3275998 -2.773708 0.47783583 -0.5905902 -0.67229015 -0.27817285 0.32221624 -0.3502969 -0.17272033 -0.33157828 0.18849196 -0.59895074 -0.5962119 2.440234 -0.021608803 -0.54243386 1.6264364 0.061560113 -1.150424 -0.9575589 1.6077682 1.0498497 1.4058219 0.97379726 1.4737247 -0.39566052 0.28091496 -1.642043 -0.42117116 1.5290259 0.18886466 -0.96842134 1.0932983 -0.86138695 -0.48342392 -0.6951862 -0.085543364 0.15307572 0.41823116 -1.9047539 1.572788 -0.8896169 0.82894444 -0.053484086 0.8988502 0.40170708 -0.6655813 -1.3035362 -0.5132757 0.5101666 -0.47332713 -0.10264395 -1.8330529 -0.69078207 0.46044305 1.7580068 0.5341204 0.40635273 -1.7861396 0.6419753 -0.24444783 1.6303262 0.42518148 -0.40452236 -1.3644254 0.6279303 -1.4950234 1.5325476 0.47417864 0.38332582 0.8496168 -0.67787516 0.17354196 -0.19383565 1.1502736 0.011365308 -0.20724192 -0.2512325 -1.7765361 0.030744372 -0.58894736 1.3953397 -0.039884567 -0.26732323 0.112889096 0.75436646 0.09899987 -1.6091539 0.102838576 0.010572157 0.5998718 1.1472462 0.051169895 0.63578624 -0.91180605 0.56489617 0.37003088 -1.8091336 1.793461 -0.6260416 -0.10796228 -1.092448 2.2099316 1.2807523 -0.029195685 -2.2362351 -0.13202727 -0.83296293 -0.089170724 0.19322705 0.20949641 0.007030281 -0.093858615 -1.9519367 -1.5189159
837 -0.26882982 0.29191658 1.5747671 0.02959453 0.48768607 -0.31923226 1.6515818 0.67688036 -0.0026711507 0.7202061 1.8137956 -0.41138816 0.72927314 0.94008356 0.45094356 0.72676456 -0.028856331 2.318691 -0.5083705 1.2382832 -0.2338367 0.40828964 -0.29252332 -0.73340297 -0.54986286 1.6019871 -2.1007705 -0.17500994 0.503391 -1.5362643 -1.4917749 1.1984851 -0.36543733 0.79561824 -0.4691925 -0.9028189 -0.9662728 0.28420714 -0.13756995 -0.740195 1.365321 -0.37338078 -0.09139165 0.8932448 -0.9510334 0.6556038 -0.045416124 -1.9291395 0.74355614 0.39759177 0.45341304 -0.5765743 -0.67457163 -0.32813624 -0.36431623 -0.6003829 0.37751427 0.4732749 -0.0009666699 2.1138506 1.9416395 0.33242795 -0.7223354 0.49514046 0.9886604 0.6914292 0.62806654 -1.342539 -0.553415 -0.17164287 -0.12681654 -1.2923706 -0.6408354 -0.19813004 -0.9363012 -0.20995674 0.6627516 0.44014114 1.7436806 1.7806557 -1.8705685 -1.3983907 0.36104792 0.5175588 0.49875075 -0.28153116 0.38556045 -0.7666407 -0.99450064 0.107274316 0.62725765 3.482144 0.7731948 0.68896157 -1.3585614 0.77021086 -0.033021744 0.33413848 -1.560292 -0.09873084 0.5301775 0.7083213 -0.06468853 -0.9373827 -1.6009378 1.3063813 -1.6678936 1.1331354 -0.62228435 -0.4638552 -0.28678498 0.39557403 -0.7439139 0.036870115 0.010619385 -0.25841188 -2.184294 1.466839 2.5725837 -1.0938293 0.9040813 -1.706461 1.3316425 0.42034128 0.25106627 -0.05430421 0.46784693 1.9698035
989 0.28943574 -0.74296683 0.17236547 -1.614497 -0.9940838 1.0044931 -0.20323902 -2.3079286 0.55333537 -0.4870213 -1.6009146 0.40824822 -0.8280056 0.33218282 -0.061308548 -0.45690548 0.82147527 -0.80885315 0.49499595 0.8768794 -0.9255684 -0.23065053 -0.3539145 1.7017152 1.3687913 0.791481 2.5421665 0.49513113 -0.97559947 0.75642365 0.8461175 -0.82392186 0.8479582 1.2205373 0.4213252 1.6673517 1.2852602 0.99356776 -0.0058991816 -0.71348166 -0.58709896 -1.7684917 1.0854349 0.31323978 -0.4025636 -0.15635599 0.73332644 0.024815677 -0.9339821 -0.69504565 1.5916231 0.01560825 -2.5755813 0.19440085 -1.7316242 -0.11677422 -0.20873673 0.3978995 -0.34864563 0.95569164 -0.42463955 -0.7487559 -0.23223825 1.4410272 -1.8348835 -2.214106 -0.35000062 1.4392906 0.52809995 -0.38954964 -0.3635247 0.7824055 0.5875606 0.98330706 0.07392722 2.0275877 -1.3710597 -1.8424165 0.6024489 -0.51701736 1.6042871 0.76410776 0.39075282 -0.6412575 0.475859 0.5755452 -0.6220015 0.07216709 -0.3344616 0.63434076 -0.39404207 -1.5466408 -0.5894162 0.7813191 1.1689924 -0.89710385 -1.5357252 -0.34446242 -0.4375063 0.4014909 -0.7183097 -0.69941604 0.14023653 -0.1433739 1.2766535 -0.5895536 0.87011284 -1.2075428 -0.036767248 -0.17884725 -2.19164 0.5590324 0.5826575 0.9355524 0.05107209 1.1203213 2.0395412 -1.297865 0.11909887 0.2168827 -1.2638541 -0.53174615 0.4510226 -0.35877308 0.12986837 -0.6383948 -1.7464422 -1.0513048
971 0.47839725 -0.482838 1.1549925 -1.5837549 1.7873477 0.67041796 2.1630256 -0.8398603 0.20261368 0.57383704 2.4572203 -0.8547824 0.29777983 0.8777165 0.21703775 0.95238566 -0.031846028 0.6679644 -0.5619904 1.4825639 0.6094234 -1.0349962 -1.2179928 -1.4031531 -0.28845587 0.49352327 -0.49115726 -0.94429505 1.615791 -1.070997 -1.5904325 1.5692352 -0.31950668 -0.30745178 -1.1271642 -1.4636338 -0.7444411 -0.40422606 -0.6450232 -0.75134623 0.50381136 -0.1117209 -0.82842815 0.49760848 -0.42361152 0.47598702 0.0868436 -1.60827 0.13374738 0.469639 -0.19215967 0.97104883 -0.54113495 0.4959983 -0.67455405 -0.63187385 -0.21373028 -0.4262795 -0.4659482 2.10708 0.41233057 -1.2120795 -0.70753986 -0.06763836 1.2297165 0.9447401 0.2459821 -0.8808297 -0.49596003 -0.58836496 0.8652311 -0.7959013 -0.45411623 0.3390957 -1.718629 -0.35675478 1.0924555 1.2990823 0.31104583 1.4005436 -1.705703 -2.1030893 -0.018464155 0.28194442 0.058276907 0.17163314 0.8504466 -0.8069225 0.7416505 0.4218771 0.6885977 3.0088594 1.1923956 0.29268697 -0.4337461 1.2458329 -0.9092308 1.4430158 -1.0725578 -0.12202519 0.69869155 -0.035305686 -0.31086442 -0.83429897 -0.82559144 0.16481811 -1.0432833 1.5994809 0.43348923 -0.82158506 -1.1583242 0.41871858 -1.3277063 0.5062824 -0.4688016 -0.36976528 -0.7313464 1.1628194 2.375535 -1.0788105 1.0342082 -1.0557009 0.7972 0.019103164 -0.87444365 0.20991975 0.8192698 0.43379357
284 0.73760265 -0.20468384 0.07642315 -0.11139439 -0.692356 -0.0798707 0.43515176 -2.2105906 -0.98598325 0.64972067 -0.7509657 -0.05849071 0.9161299 -0.19466257 0.3472187 0.63628596 1.0389689 0.22304334 -0.48579016 -0.40176868 0.9497031 -0.35034654 0.875409 -0.033191603 0.097136624 -0.01272394 -1.1902244 1.3671552 2.065809 -1.510255 0.36547136 -1.4681524 1.4209564 -0.48093393 -0.14320752 0.28796366 0.49489474 -0.07913705 1.6388537 0.24278691 -2.1424015 0.46793628 -0.31857333 -1.016432 1.8475016 -0.7285715 -3.2234135 0.69139165 0.7488051 -3.016166 -0.007681471 -1.057427 0.85180044 0.47591686 -0.027624983 -0.850387 0.15616317 0.016494337 -0.08419465 -0.055392582 -0.6602865 0.1035559 1.0223607 -0.5369356 -0.5564039 -0.6951884 0.5351339 -0.21830192 0.22395837 0.6452051 -0.42597046 1.3421081 0.43202716 1.5304967 -1.1691153 0.42593357 0.7506446 0.9593534 -0.35238624 -0.92571354 0.052797787 -0.95431477 1.4978504 -0.53715163 -0.09907921 -0.3361282 0.50370085 0.7939241 -1.1724514 -0.87263817 -0.37957963 0.3213687 -1.5148225 -0.6128029 -0.023122128 -0.074612685 -0.2970656 0.505696 -1.1766608 -0.36994672 -1.5841504 0.1383319 -1.1332865 -0.33220854 -0.82036674 -0.54090464 -0.90915406 -2.1897576 0.28462148 0.17019983 -0.26025507 0.18110804 0.55230117 0.26045126 -0.95265204 0.0994503 -0.499434 0.4406619 -1.5947483 0.10016334 0.50724053 0.4251796 0.5434246 1.9701362 -0.723961 -1.1159725 0.37361875 0.6366192
873 0.45706177 -1.0534178 0.017314957 -1.7700406 0.16205125 0.032123625 -0.5025526 -1.3418422 -0.34296748 1.5382591 -0.29467973 0.94657105 -0.9875347 -0.3677729 1.1357961 -1.2973263 0.9739496 -0.10514164 -0.6565315 0.5261351 0.90159416 1.0893667 -0.12601516 0.7882028 2.5072417 1.6124984 0.7375595 0.34390646 -0.40956616 -0.48096472 0.44833595 0.54757583 1.8211832 -0.5514484 0.11087585 0.13699667 1.1050621 -0.30114266 -0.13065621 -1.5825008 0.7317353 -1.7805594 -0.50245845 0.6601414 -0.10497185 -0.6587481 1.6238636 -1.5475371 -0.0039434405 -0.6152527 0.45216876 -0.9078549 -1.1206019 -0.056014754 0.17730856 -1.8316425 -0.48330963 -1.0164167 -0.25853103 1.36398 0.14388648 -1.193229 -0.42934874 0.6239233 -1.8284986 -1.596376 0.6892861 0.46816388 -1.1906084 -1.7779908 0.5894099 0.9770786 0.40769675 1.5433552 -0.37853706 0.9295574 -0.29883415 -1.6685686 -0.60624695 0.87721163 0.77886987 -1.3047466 0.106797986 -1.5775313 1.809707 0.5525202 0.9879473 -0.8854383 0.279396 -0.59239334 0.2896367 -0.40083548 -0.51407975 1.708784 -0.06508738 -0.7494377 -1.6135086 1.4668596 -1.097604 1.6002575 -0.75559956 0.09955461 -0.08612212 -0.7590231 1.2237662 0.3332031 0.051704533 -0.3290808 -1.207854 -0.5851824 -2.4572866 -1.0507455 -0.16057333 1.7433056 -0.9143469 -0.0069625773 1.8363504 -0.50764173 2.462976 1.0592264 -0.5186987 -1.1202999 -0.46355987 -1.726366 -1.0262142 -1.6727972 -0.37838393 -0.07900578
962 -1.8076415 2.7080042 0.82374203 1.9786614 -1.266601 -0.36166963 0.2857885 1.4615039 0.64938575 -1.2322949 -0.31893626 0.31002983 0.6178135 -0.7899532 -0.04112713 0.7782873 -1.0286343 -1.0218538 -0.46738428 -0.7694581 -0.7748662 -1.2592918 0.6447851 -1.0740335 -2.25773 -0.8740046 -0.8931042 0.36462057 1.1683726 0.0020795765 0.31098092 -0.51722205 -0.16139776 -0.829461 -0.92322457 -1.1925375 -0.30067956 -1.0311657 -0.48498455 -0.76982296 -0.32703793 1.8359268 0.52547264 -0.77014333 0.8597058 -0.14729658 0.06971574 0.6712933 1.100485 -0.47367814 1.1647961 0.4100909 0.23716648 -1.8027419 -0.16520369 0.7007938 -0.20402184 0.5241494 0.25641292 0.76362056 1.0059564 1.4141308 -1.7642381 -1.0340759 2.0287745 2.197179 -0.79341 0.8635478 -0.26654136 0.29159543 -1.4836141 1.7961105 -0.36503348 0.20361519 -0.41152492 0.6548834 -0.32784143 2.1349173 0.49083164 0.8645707 -0.86052537 1.081518 -0.822861 -0.32700494 0.8401392 -0.227166 0.09078801 -0.40129423 -0.7447017 -0.2124936 -0.4974961 0.81075513 -0.3751681 -0.083023146 -0.7806868 0.1912509 1.3634115 -2.3613744 -0.67508024 -1.1412807 0.94671124 0.15452874 -0.37494484 -0.6722532 -1.036343 -0.5162595 -0.088362135 -0.14250046 0.17651825 0.00805579 1.9874653 -0.35263672 0.8235347 -1.3259745 2.1345537 -0.18150513 -1.8353497 -0.046498805 -1.1358479 0.4126797 0.83372927 0.4960583 0.93338984 0.5857591 -0.21471304 2.0751722 -0.59286475 0.3040047
522 0.3291032 0.38116884 -0.5870718 -0.23505999 0.19116537 -0.2806521 0.92497605 1.1304971 -0.84040904 0.5050168 0.42206952 0.65087426 -0.24995479 -0.5169639 -0.363131 -0.0024155304 1.6413647 -0.71795577 0.8118543 -0.57969886 0.6149819 0.8813736 -0.4317987 -0.017096264 -1.0367223 0.7980098 0.445194 1.3141704 -1.1275263 -0.20479558 -0.2674366 1.3210591 -0.35913152 0.43709657 0.2846716 1.2019302 -0.0058618705 0.7045704 -0.6634534 -1.6372001 0.13116693 0.23751067 -2.0587173 -1.0592539 0.06561366 0.085921116 -1.2528124 -0.09743143 0.74766606 0.8012198 0.043277673 0.8242638 1.0518687 -0.101517744 0.9109755 0.798982 -0.7823682 1.6520486 -0.9625316 -1.4948939 -0.2457975 -0.24327254 0.99719703 0.42298347 0.2600978 1.4140424 -0.06866353 -0.03501166 0.19405805 0.499601 0.8472974 0.8714528 0.44287196 -1.142158 0.5066653 -1.6259418 -0.9416969 -1.9390289 -0.16897531 0.68650335 -1.286449 -0.83285 -0.9524499 -0.5770572 1.4102509 -0.5558206 -0.8867899 0.6309616 -0.12663141 -1.0371562 0.0133497305 0.020671073 -0.24973273 0.3789904 -1.3137841 -1.0861534 -0.43807274 -0.12752135 -1.4526205 -0.9260215 -0.63983864 -0.13927978 -0.72773445 -0.37590155 -1.1864855 0.15498489 -0.09491603 0.13854566 1.3032504 -1.2117836 -0.01798413 -0.881502 -0.814495 0.25523952 0.20501556 0.4162154 -1.1907285 1.3008977 -1.2351538 1.3358834 0.54621094 -0.663473 0.49935195 1.2905468 0.8191468 0.029637234 0.8779167 1.9999604
609 0.8807462 0.51924866 -0.18239069 0.7529559 0.6709653 -1.4074502 0.31588256 -0.47113666 0.14436588 1.2784196 -0.6724377 0.15187924 0.24604116 0.26288438 1.621887 0.52161586 -0.97684544 -0.7393983 2.1920657 -1.7604585 -0.61990714 1.6197217 0.08644125 -0.5984999 0.08997511 1.1380521 -0.41017073 -0.11287333 0.25476208 -2.0609956 -0.58694106 -0.5107636 -0.24268952 0.41530722 -0.49839795 -0.30624792 1.251761 1.052993 -0.8480392 -0.9860748 -0.9738627 -0.77139604 -0.34432572 0.6282054 1.6515881 0.88731384 1.3042283 -1.4400761 -0.21797213 -0.8647431 0.49762544 -0.36468652 0.17536317 0.43195936 0.84276813 0.114086494 0.8730002 1.1336414 -1.6943026 -0.19628914 -0.68249464 -0.3630054 0.05687113 -0.7387105 -0.2585751 0.042706642 -0.7789185 -0.20053628 0.70717055 0.11739535 -0.04521499 0.7641294 1.1625911 -0.4098093 0.6099409 -0.5069894 0.37563264 0.56576675 1.7072464 -0.74246955 -0.6528532 0.57207704 -0.7303779 -0.83435374 0.585176 0.91530585 0.17167385 -0.07772916 -1.1251897 1.1236026 0.7228282 0.9090253 1.5457196 0.29314318 1.5875739 -0.06819412 0.17611562 0.5193098 -0.4771613 -0.05107769 0.8289352 0.18463941 -0.62952274 -0.07948968 -0.40176275 -0.2003648 1.9001553 0.31374866 0.51519597 -0.29512444 0.54762566 -1.4044564 -0.15174317 0.37249228 -0.10390837 0.6085514 -0.52165014 0.17045036 -0.17704283 0.36440647 0.18853995 -0.5267316 1.1108614 -0.4640492 -0.25288063 0.36654893 -0.1443308 -0.32079265
523 0.38344955 0.34690446 0.043393318 -0.4164107 0.6508493 -0.68074954 0.41488025 1.1703192 -0.62007314 0.58632874 -0.28696087 0.6144402 0.22572365 -0.10093019 -0.6325753 -0.20449476 1.5549542 -1.3754494 0.44396526 -0.55516714 1.1478547 0.568352 -0.64896756 0.13108204 -0.60881186 1.1599474 1.2272367 0.92779434 -1.0984979 -0.23515776 -0.50453013 1.0630159 -0.8260822 0.95085 0.8402752 0.84110534 0.20366195 0.4067169 -0.3593648 -1.0754124 0.027997514 -0.5255837 -1.2699031 -1.2494458 0.986605 -0.12671533 -0.13131182 -1.1989717 0.2360765 0.295761 -0.18907188 0.9576729 0.26474112 0.042606883 0.14921373 0.8515294 -1.1527066 1.9449718 -0.68933254 -0.68537366 -0.052038815 -0.20825303 0.51353437 0.9211152 -0.5491239 1.7776026 0.21845092 -0.021448439 -0.082981534 0.83275926 0.21712802 1.569949 -0.021200579 -1.2849534 0.18525468 -0.8755412 -0.45110658 -1.1520796 0.16497761 0.63182724 -1.2059495 -0.932572 -0.17576286 -0.37208366 1.3853357 -1.3080736 -0.70331484 0.42565817 -0.4022623 -1.3266726 0.4699316 0.38221338 0.08503681 0.861459 -1.109996 -0.5986323 -0.5064877 0.4974265 -0.6613328 -0.7217033 -0.5008343 0.23359115 0.3544091 0.5625273 -0.68162614 -0.35309398 0.40019238 0.2568972 2.073352 -0.54264283 0.5710426 -0.32585385 -0.70748955 -0.2799382 0.14829117 0.19134033 -1.3676859 1.3292743 -0.7970836 1.3924216 0.52756524 -0.629751 0.29046452 0.6726834 0.7057103 0.5246427 0.21356814 1.6586273
979 -0.461125 0.022725798 1.3251563 -2.3623252 -0.24071105 0.8843652 0.78091705 -2.2269878 0.06480485 -1.4392729 0.4589898 -0.20680754 -0.32423404 -0.42610165 0.45153433 0.11826508 0.13939355 -2.1705034 -0.23501568 0.26310113 -0.904828 -1.7772179 -0.47903797 -0.26178357 0.7868303 -0.54605216 2.496025 -0.47118717 0.70274514 0.16374487 -0.21254808 0.7856096 2.2477405 -1.007186 -0.7106235 0.066563345 0.0837863 -0.05153903 -0.52294976 -0.06808685 -0.08693789 -0.82207483 0.59768426 0.13943557 0.75757027 -1.3840818 1.0918934 0.32294026 -0.6686789 -0.25018042 0.9818591 1.6942825 -1.8064059 -0.44921884 -0.144615 -1.1756141 -0.53126866 -0.22096407 -1.2330492 0.17163765 -1.793522 -1.1849597 -0.620604 0.6135982 -0.25903735 0.040282562 -1.0750847 1.7323226 0.68328524 -0.58152056 -0.584357 2.8401048 0.44528475 2.1612592 -1.3861086 2.4767096 0.65332395 0.48525783 -0.98857665 -0.13267551 0.34937584 -0.6801727 -0.47346896 -0.029461559 0.14940608 0.37004516 -0.4883727 -0.38635382 1.0989394 1.2759466 -0.51513404 0.28842664 0.59390396 0.36432368 0.061681427 -1.0277668 -0.9822062 0.32202232 0.3347493 -0.571868 0.008958637 -1.3589622 0.8092424 -0.9360981 1.7561759 -1.7479441 0.28581488 -0.34528047 0.76873356 0.04454447 -1.5183443 0.377411 0.5622586 1.8641497 0.44714394 0.76880664 2.2855372 -1.6478728 0.15784992 -1.3562355 -0.90816575 -0.40830225 -0.50800437 -0.5123121 -0.48397768 1.2953492 -0.38592693 -2.3062441
958 -1.58088 2.162911 0.9409917 0.49189842 -0.8502078 0.31505898 1.3996485 0.19949916 0.6663433 -1.608616 0.6003497 -0.8908817 0.6117396 -0.36756545 -0.26048395 1.2497371 -1.2631025 -1.997879 -0.38546875 -0.61612105 -1.0090542 -2.6861103 0.20478028 -1.9720672 -1.9466008 -1.9726986 0.49934557 -0.1405987 1.3869213 0.24561861 -0.42343232 -0.0777308 0.3919488 -1.1180937 -1.2690504 -1.3239197 -0.5224549 -1.2072386 -0.69090945 0.19297028 -0.7660311 1.8604562 0.8857111 -0.70468587 1.31375 -0.47329128 0.14876355 0.8052279 0.19194679 0.082833394 0.5189193 1.3847749 -0.26278788 -1.342171 -0.033643693 0.40443698 -0.37744576 0.38158467 -0.530618 0.36958167 -0.50292563 0.62670106 -1.1624194 -0.78628516 2.1665018 2.8085637 -1.2189785 0.7169501 0.77089244 0.59169245 -1.1883216 2.4953914 -0.2175205 1.1504725 -1.0207735 0.9809608 0.35249415 3.0124702 -0.08886019 0.4508445 -1.1364381 0.37202606 -0.8051717 0.39937207 0.10173099 -0.003292255 -0.28350058 -0.55227435 0.03170901 0.3005581 -0.3872963 0.9134601 0.76000935 -0.8372789 -0.44058704 0.22369102 0.95746213 -1.4886627 0.33021787 -1.2504894 0.96828353 -0.30197793 0.2885938 -0.54275686 -0.4929752 -1.3962284 0.010672155 -0.044050105 1.1972659 -0.011812818 1.5106472 0.5577018 0.4225612 -0.7410526 1.8670754 0.24977154 -1.0098089 -0.028084217 -1.9349437 -0.8520307 0.46029627 0.61243206 0.3784336 0.17415543 -0.43831497 2.5460129 -0.15251312 -1.3533455
693 2.0153747 -0.792278 0.6092698 1.7389004 -1.0939524 0.23998962 1.7833105 0.009193456 -1.2947025 0.41442114 0.088353515 1.304399 1.0695881 -0.7997626 -1.2084951 -1.1204051 0.8902795 0.20649183 -0.45834768 0.041635033 -0.43886092 -0.45050016 -0.67259085 0.68454444 -0.1748993 -0.6659685 0.6415835 0.39186293 -0.45338783 -0.14774545 -0.39078605 -0.6346393 -0.40098137 -0.23589893 1.4735196 -0.90310514 0.91497606 -0.29231456 -0.6837236 -0.3031229 1.6350651 1.8081548 0.326523 0.281781 0.76969385 1.1302632 -1.992109 -1.1302466 0.79832244 0.6577446 -1.7722605 -1.7589394 0.23428467 0.4549969 -0.9154919 0.7443942 0.9802175 0.080054514 1.2447215 -0.27617007 0.656282 -0.78287214 1.1054164 -0.9027517 0.7152594 -0.6742401 -0.87579656 -0.85188025 0.46668038 0.446921 0.9578644 1.9157237 0.4381786 2.43914 -0.15300857 0.11264807 -0.36610177 -1.8063567 0.18759765 0.29735258 0.41909677 0.35528985 0.20396149 1.393858 0.43805736 -0.19347852 -0.73096937 0.13713418 -0.05481818 -0.73361707 1.3375343 0.673358 0.7590589 -0.55336666 0.76727575 0.2157739 0.4475338 0.5475051 0.84177303 -0.28503153 0.43194503 1.5468012 0.70238906 0.51237035 0.25363088 -0.23350017 1.2742246 0.5121812 0.36840087 0.37489012 -0.9074048 -1.3191423 0.033119798 -0.695738 -0.62705946 -0.07443524 -1.3322549 0.48696247 1.4206142 -0.5013804 -0.19935234 -1.1615106 -0.8417225 0.24618116 -0.26475796 -0.13653882 0.07069393 0.30574474
