800 128
595 -1.3494399 -0.27242213 -1.7916435 -1.0297946 0.10046266 -0.38578257 -1.4193048 -1.7590804 0.97965544 2.3798592 -0.4972497 0.20979331 -0.63857764 0.5138351 -0.963327 1.1249459 0.14016576 0.0056638075 0.094729654 -0.49748638 0.07232079 0.5798439 1.849192 -0.051085684 0.41417688 -0.40489507 -0.549027 -0.65839607 1.6417534 -0.34258938 -0.6183905 0.1399607 0.09168473 0.66366863 -1.0773035 -0.42752922 0.30714524 -0.57133406 -0.3705477 1.2933106 -1.2026945 0.5610751 0.13156106 0.05318979 0.18887761 -1.5883986 -0.75611424 -0.9553326 -0.19909646 -0.49333975 0.5404659 -0.3634533 1.1966712 0.8419214 -0.39690113 1.2019417 0.9072213 0.082607046 -1.6823432 2.0046608 -0.27430493 -0.09023542 -0.3532887 -0.11027178 -0.56982845 -0.2374982 0.32587332 -0.9800895 -0.6794486 -0.4324962 -0.911459 0.4821359 -0.7244207 0.68368834 0.4522403 -1.0471631 0.47697484 0.15597698 -0.05893411 0.098840445 -0.24230531 -0.70357174 1.2090933 -0.93685806 0.4511002 0.20517485 -0.21386833 0.3546509 -0.47217688 -0.11290424 0.81719464 -0.16519147 0.82981336 -0.6246288 0.625997 -0.38905528 -0.89105725 -0.298549 1.7673773 -0.81640214 -0.5001845 -0.019552086 -0.13661432 -0.03320629 0.7369663 -0.47784543 -0.1637308 -1.2656786 -0.49339178 -0.2799177 0.8238426 -0.12578292 0.24861301 1.7619942 -0.8228218 -1.0117823 -0.35176453 0.29781333 -0.613418 -0.666165 0.19182438 0.026033288 0.52058166 1.7085131 -0.25164136 -0.026579924 -0.13993505 -1.4302952
712 -0.4173465 0.16387498 -0.50989664 -0.9056058 1.2243857 0.27906522 0.66249216 0.55999357 -0.89044935 0.5076645 -0.23401049 0.529928 1.3981566 0.4707863 -0.47001663 0.6533341 0.7754316 1.206907 0.088499136 0.71098083 -2.284225 0.18766594 -1.0631489 -0.96016085 0.18532752 -0.9173652 -0.4857294 0.10764736 -0.082460955 -0.68005174 0.0065903226 -0.48897934 0.57890236 1.4370184 -0.75725806 1.1371436 0.18671145 0.84881747 -0.6000676 0.226845 -0.20766217 1.652015 0.20725924 -0.47565916 1.392931 -0.71182865 1.0037516 0.016737323 -0.5333654 0.35382235 -0.2519631 -0.29451385 1.2762153 0.4527894 1.5786413 -0.5350872 0.18440272 0.63302827 0.65130115 -0.3977241 -0.3193692 -1.1616267 0.2254478 0.5659994 1.8293298 -0.16195492 1.4619157 -0.03296529 0.32245165 0.6284892 0.8847483 0.1409783 -0.25562835 0.49257368 0.5773011 0.53720254 0.8867734 0.13575302 -1.100818 -0.40122262 -0.2940705 1.0804853 1.7810262 -0.44192064 -0.49527067 0.6236937 -0.0631025 0.3025992 1.358066 -1.3856413 -0.117464066 -1.237664 0.05278165 -0.8943611 1.8244282 0.88103086 1.1237154 1.1473025 0.38941392 0.13717 -0.47920337 0.88035774 -0.66225356 0.1863969 -1.5454562 -0.82385606 0.046143748 1.0638636 0.23376098 0.16434194 -0.44003868 -0.9843862 -0.4337649 0.029042888 -0.7424061 0.3758689 0.09639071 -0.82543564 0.70629406 -0.23683405 1.9652647 -0.22540827 -0.97495097 -1.2448592 0.4834089 0.3552637 0.53667843 1.7349114
413 1.2737342 -1.524636 -0.26496437 -0.36059168 -0.75552225 -0.9058662 1.2129675 0.13955249 -0.7535118 0.41037577 0.66747993 -0.61986446 -0.74712527 -0.5883032 0.25092083 0.4923445 0.88501894 1.1640811 -0.04936844 -1.0077704 -0.64470655 1.5772315 0.63762957 -0.047063097 -0.43542603 0.21222295 0.5555347 1.1022553 -0.14456905 -1.0945059 -0.27770135 -0.01560893 0.9432155 -0.1276915 2.1251433 -0.2555402 -0.6454107 0.6536114 0.5776812 -0.5883303 1.2837416 -0.07854476 -0.881567 0.45362127 1.2308164 0.32814133 -0.563253 -0.48108754 -0.7450044 0.33552426 -0.33712155 -0.2256722 -0.29792863 0.2536423 -0.41534802 -0.3488586 1.0638168 0.66938573 -1.0563596 1.6550481 0.88360023 1.2935411 0.06579173 0.4925323 -0.91036403 -0.5155764 0.048891027 0.6576708 0.19941169 0.7455357 0.61462444 -1.2261226 0.9686968 -0.1828178 0.2128854 -0.37044185 -0.2753371 0.2732445 2.1076264 0.25599346 -0.3666095 0.32012662 -0.8883871 -1.1068891 0.78324133 -0.24588303 -0.4382259 -0.26827312 -1.2467519 -0.37510365 -0.7075044 0.040363684 0.46853375 0.055287577 -0.049416173 0.15329015 -0.5969489 -0.3481687 0.2665136 -0.2574176 0.38823944 0.90383536 0.92766285 -0.2072873 0.6045808 -1.1213213 1.2822952 0.55190897 0.95440584 -0.52108365 -0.1310348 -0.18882859 0.20506246 0.105023794 -0.5853212 -0.7775748 -1.4643056 1.0720327 1.0559145 -0.15035877 0.7871845 0.76413333 -0.05442192 0.36753026 -0.24998046 0.45543966 -1.3306401 1.0383246
596 -1.1871983 -0.6570358 -1.9873558 -0.6380214 -0.47370166 -0.74063545 -0.45157638 -2.1194909 0.5094653 2.607055 -0.19213605 -0.227288 -0.7416662 -0.39414015 -1.3683625 1.249347 -0.57839817 0.90811116 0.5954013 -0.8103453 0.18484487 0.6889977 2.4658618 -0.37885275 -0.2159322 -0.8859759 0.45955926 -0.13575763 0.9686633 -1.09656 -0.24414982 0.4764717 0.098864906 0.88904417 -0.90580547 -0.045755032 0.6957716 -0.035959877 -0.15124032 1.1566763 -0.37444946 0.93220913 -0.259769 -0.18574165 0.6416351 -1.4006572 -1.0667151 -0.40306634 -0.55093926 -1.0120952 0.5572875 -0.538267 1.5042727 0.89623976 -0.20758829 0.8847833 1.2844172 -0.104883134 -1.2118574 0.9472417 -0.14268525 -0.60513216 -1.4201249 0.16370784 -0.73306173 -0.33152023 0.12984115 -1.3384486 -0.67763615 -0.48941568 -1.1095362 0.027408827 -0.29472962 0.4485588 0.16845104 -1.4892373 -0.2047299 0.18238851 -0.50216883 0.1057009 -0.015970191 -0.15160891 1.398058 -1.5125787 1.3705294 -0.856246 0.25377354 0.81430024 0.20968638 -0.00097011146 0.9221631 -0.1584901 0.10429027 -0.1617154 0.7358621 -0.08069366 -0.6365674 -0.5607929 1.1332927 -1.1255432 -0.18413772 -0.2159063 -0.11825179 0.36953348 0.5963286 -0.19377019 0.11796886 -0.6913841 0.34134924 0.33111465 1.1566241 0.13576438 0.34370336 0.83600265 -0.62534946 -1.205333 -0.04164086 -0.18471704 -0.6451316 -0.62438405 0.123511165 0.22507004 -0.39830378 1.0793484 -0.20891443 -0.4312698 -0.115885995 -1.45514
743 -0.23521912 -0.12381653 -0.3855247 -0.12614518 1.0807531 -0.55942 -0.67512137 0.55683815 -0.67295825 0.8450241 1.0814698 0.45899153 1.0158643 0.49212405 -0.20641887 0.20184532 1.1033746 0.008742009 0.7324146 -0.2664646 -1.7983664 0.2760399 -0.20884053 -1.3769157 -0.6509162 -0.5431604 -0.46268982 0.5858979 0.26677606 -1.7343959 0.4521069 0.6655588 0.9320926 1.6866505 -1.3041558 0.4942343 0.7728728 0.20886154 -0.25472578 -0.56196827 -0.26456615 1.5108248 0.49378422 -0.615645 1.203717 -0.016307672 1.6177752 -0.28343466 0.27318555 0.60088557 -1.2226237 -0.6777314 1.0575676 0.08269679 1.1111863 -0.3646539 -0.75459546 1.0202683 0.58228177 -0.44261461 0.30009595 -0.8702736 0.6413813 0.090939716 1.8064597 -0.4674168 1.3382951 0.6229741 0.77684194 0.10021834 0.8947302 -0.7426098 0.116988674 -0.42978886 0.45913383 0.016226703 0.1243732 0.27490386 -0.4941791 -0.1235811 -0.8959979 0.4863366 1.8638022 -1.0895153 -0.9521619 0.2348422 0.39253318 -0.06107857 1.372428 -1.6856633 0.39950016 -0.41586417 0.016073914 -0.5727725 1.2745247 0.9725129 0.7973542 1.1177884 -0.25045153 -0.37539068 -0.88970584 0.6353908 -0.6172487 -0.11338691 -1.3722862 -0.09622364 -0.07465738 1.0537946 0.24355951 -0.7399416 -0.012622952 -0.12656066 -0.30240518 -0.6833619 -0.4577661 -0.066506095 0.7239284 -1.4863849 0.49453333 0.16626593 0.45839575 -0.7109403 -0.7343081 -1.2456989 0.3715251 -0.54993856 0.3513006 1.4291394
711 -0.34946612 -0.05369138 -0.724942 -0.44905615 0.58936495 -0.11187625 -0.12842642 0.36802134 -0.9494587 0.8415908 0.021345157 0.5164483 0.8910006 0.9630696 -0.87257224 0.5795374 0.90015775 0.23923077 0.11396572 -0.053084284 -2.23138 0.19319305 -0.72697586 -1.5492915 0.013671371 -0.718005 -0.5332188 0.026066305 -0.031111542 -1.1185005 0.4186199 -0.065342784 0.6578334 1.8118678 -0.5492928 0.51606214 -0.04777901 0.6450576 -0.04765756 -0.18383583 -0.10626338 1.5698551 0.3035655 -0.3666574 0.99449915 -0.6869046 1.0002004 -0.35021082 0.437192 0.3808013 -0.8980305 -0.65493983 1.4550112 -0.015885193 0.96721864 -0.23457126 -0.2600609 0.9920957 0.26357943 -0.36254588 -0.005531629 -0.9685328 0.768372 -0.04164817 1.8878661 -0.4866026 1.4697224 -0.32956648 0.19560874 -0.21513328 1.2520902 -0.21011819 -0.020313237 -0.22401255 0.47327262 -0.02704042 0.89246273 0.2166983 -0.65387094 0.2854118 -0.82112 0.64399207 1.7571331 -0.7063575 -1.0453237 0.5068585 0.49720225 0.063105635 1.037081 -1.5011963 -0.40824604 -0.7502248 0.11310177 -0.74001116 1.1649406 0.9887612 1.6586146 0.9258591 -0.098084345 0.21833993 -0.9373569 0.79674923 -0.33007175 0.054464255 -1.695285 -0.28305697 0.056871135 0.49715045 0.5194962 -0.2126579 -0.20076582 -0.30027518 -0.53740835 -0.36889884 -0.8672557 0.19725387 0.2885777 -1.2345114 0.339864 -0.05329559 1.5279325 -0.60203177 -0.9174743 -0.74370444 0.21888252 0.049742512 0.6276075 1.6410425
142 0.58608574 -0.24475297 -0.4557881 0.6889255 -2.2627854 0.37304395 -0.511124 -0.4957456 0.65225995 0.057321746 0.62279356 0.34138918 0.8521987 0.28251144 -0.7048713 0.25422654 0.42181346 -0.3080351 1.2023247 -2.1017787 -0.48953655 0.29173926 1.1372318 -0.39237812 -0.34751362 0.050241984 0.81821936 -0.59629005 0.284962 -1.3815217 0.28592786 -1.4628215 -0.59693766 -0.2575958 -0.30150607 0.4448062 -0.5121439 0.15924081 0.78890765 -0.01762111 0.071574725 1.0009165 0.96963453 -0.81085795 1.176339 0.07342555 1.0351226 -0.711615 0.1277706 -0.7154843 -0.2132527 -0.6701508 0.64331645 0.21900834 2.1745458 0.7121868 0.48057127 -0.7991874 -1.4709526 -1.588332 0.29918244 0.8284507 0.71154094 0.35469374 0.98415554 0.82792073 -0.09036285 1.2850965 0.51756674 -0.224919 1.2193731 0.40365255 0.04001878 -0.71383125 -0.76070595 -0.2889041 0.8501376 0.2926965 0.20989634 -0.28834987 0.70613766 -0.20500012 -0.2514477 -0.853072 -0.3858826 0.7142913 -0.052642394 0.6731283 -0.26533252 0.37229508 1.0436362 -0.39049608 0.5531809 0.3822917 0.6714186 -0.8020697 0.07796047 -1.1480806 1.1606201 0.39672047 -0.60326797 1.6265091 -0.034972228 0.261011 -0.52413446 -1.5416092 0.8795536 -0.19921209 -0.30936858 0.38489747 -0.7398798 -1.2396646 1.8692925 0.4475729 -0.08680867 -0.62238115 1.0315416 -1.1660062 -0.29201248 -0.58775324 0.39402607 -0.44222176 0.19987187 0.48182836 0.2693752 -0.030643344 0.035116363 1.4265795
2 -0.10490985 1.1055853 -1.0250366 0.16663224 0.052774772 1.3431569 -1.3395436 -0.18102556 0.21844216 -0.78814614 0.20605968 0.8292133 -0.97130334 0.9621434 -0.5405014 -1.1095021 0.15139793 -0.11725773 0.44777945 0.9317738 1.000251 0.27754706 -0.40383196 0.0030571502 0.09868149 0.99265856 0.15506975 1.5076135 -0.33695453 -0.9924059 0.47139874 -0.2960217 -0.66801554 0.15231852 0.92276925 0.118875295 2.1760342 0.35160005 0.17671885 0.25786594 -0.4862511 0.20058179 -0.014685647 -0.93942773 -1.7931808 1.5429578 -0.94674325 -0.66266835 0.055629358 -0.16954 -0.7248866 1.3724996 -0.99230206 0.81146663 -0.5941991 2.1146882 0.3761741 0.15771604 0.026982458 -0.21034805 0.9971819 0.87184805 0.626449 -0.2702963 -0.56694007 -0.23188603 0.5799525 0.37362254 -0.5335106 0.7515013 -0.4723372 -0.547935 0.6744888 1.1242867 1.5774075 -0.06714067 -1.2409488 -0.14989585 0.6885037 0.38972238 -1.071874 -0.68537515 0.98122936 -0.5522271 -0.6364681 0.5467352 1.2554735 -0.97352386 0.10743694 0.3477824 -0.3371774 0.3820862 -0.14599006 -0.5653834 0.48896286 -0.58961034 0.11087675 1.2023237 -0.02802987 1.1280655 -0.604294 0.6721369 0.54433656 0.6327599 0.44911325 -1.8596267 -0.89205396 0.005536654 0.8110688 0.10577232 -1.5176065 -0.5402545 0.40764475 0.026947651 -1.7462345 -0.404526 0.07631999 -0.060113706 -0.21638952 0.016979342 0.02118684 0.66093117 0.96415937 1.0865663 0.16773246 -0.22324279 0.86497146 -0.23594643
564 -0.82072026 0.2398939 -1.8324692 -0.28048548 -0.33304206 -0.6560831 -0.58931553 -2.0432987 -0.28851846 2.0878227 -0.5884094 -0.1320762 -1.1283574 -0.14902191 -1.0840063 0.76646686 -0.21020746 0.58439547 0.17971995 -0.8829999 0.1954071 0.97406775 2.3472452 -0.13275562 0.449414 0.20787996 0.22924642 -0.3621984 0.7692449 -1.0691023 -0.66917837 0.25450343 0.0630665 0.89170045 -0.7767568 0.39755642 0.24713144 0.2732561 0.011844823 0.9391796 -0.3098688 0.38902265 0.14696942 -0.34221253 0.2677231 -1.3905911 -0.6879295 -0.36286628 -0.7964317 -1.4718692 0.7382087 -0.22269684 1.8389233 0.9300172 0.3051928 0.045090523 0.6602639 -0.36389858 -1.3165334 0.795248 0.031895395 -0.44663936 -1.4226679 0.59607905 -0.83717036 0.13856709 -0.25118017 -1.1265961 -1.1113576 -0.07315361 -1.1765262 -0.0939183 -0.017765759 0.25908735 -0.18812096 -1.6588744 -0.40632024 -0.14881247 -0.88294035 0.046036232 -0.0008235861 0.4884443 1.1012433 -1.291196 0.8598019 -1.1410669 0.381575 0.5176153 0.15580808 -0.041617684 0.70476574 0.1876649 0.51634103 -0.2530587 1.0960044 0.28797796 -0.47262028 -0.7601456 1.0520984 -0.8809372 -0.43059212 0.19672383 -0.16882806 0.42278725 0.23147394 -0.5359861 -0.05210802 0.07686061 0.8659467 0.9771619 1.1717646 1.0216963 0.74688196 0.6689334 -0.46952257 -1.2807168 0.010321324 -0.21201453 -0.34793848 -0.035231616 0.53444123 0.57911414 -0.22834198 1.4852674 -0.43275234 -0.7366423 0.079547904 -1.2348366
770 0.015113267 1.2786452 -0.36779833 -0.07594567 -0.43672425 1.1559119 -1.813943 -0.9884489 0.33566087 -0.7679065 -0.17484601 0.92542833 0.022640388 1.4247143 -0.49902743 -1.1103712 0.489632 -0.18021859 0.23179169 0.5809581 0.69019556 0.05661765 -0.62523234 -0.1322811 -0.48939416 0.41420996 0.40352604 1.5900334 -0.7578368 -1.4855734 0.35042325 0.22707373 -0.28385407 0.15869275 0.99174047 0.12980679 1.7014291 -0.011023605 0.21763991 -0.12823229 -0.21230635 0.020871332 -0.48798308 -1.6485238 -1.9938794 1.1631486 -1.0517117 -0.6213212 0.3317703 -0.07963152 -0.94919336 1.56643 -1.0169467 0.6179276 -0.115755856 1.6445199 0.6569987 0.44898498 0.22273651 -0.6944001 0.7233268 1.3258396 0.466592 -0.36813056 -0.14387733 0.5803096 0.690393 -0.0580974 -0.6225277 0.9082016 -0.9604987 -0.7866345 0.6249263 0.8410811 2.0197706 0.038589112 -0.992458 0.5214236 0.49758202 0.4344437 -1.5747687 -0.34347585 1.0085717 -0.16291797 -0.5996403 -0.0753908 1.2116473 -1.09447 0.2318606 0.29459566 0.08429105 0.32519522 0.09445864 -0.67380726 0.40667352 -0.6745421 0.14327854 0.9146286 0.33288234 0.8454928 -0.93180984 0.4093123 0.34837508 0.23945902 0.7366422 -1.3696605 -0.80728704 0.37557754 1.5106013 0.2616708 -1.08657 0.01939338 0.4807766 0.3863952 -1.8054436 -0.4618253 0.23055317 0.015736338 -0.34208098 -0.0033730287 -0.29552126 0.42234942 0.39087117 1.7249019 0.441334 0.051647972 0.79777837 -0.35267076
742 0.19050248 -0.26553944 -0.09061461 -0.035585623 0.62896776 -0.65497917 -0.90047264 0.21149443 -0.5659398 0.58101755 1.0359293 0.40961665 0.8693515 0.73645085 -0.57834625 0.3023541 0.9735849 -0.7444837 0.524371 -0.94488925 -1.5402386 0.6335676 0.053598277 -1.8614212 -1.1604993 -0.12938035 -0.70052284 0.5773707 0.16755316 -1.9939147 0.72440666 1.0834394 0.8285075 1.4940978 -0.5770085 0.12975645 1.0390996 0.119490005 0.14234486 -0.8966989 -0.285494 1.2348241 0.1423669 -0.6786531 0.77360237 0.024744863 1.3079134 -0.64177847 0.7846676 0.61497325 -1.7341217 -0.4397445 1.3684384 -0.26935157 0.5181322 -0.22015661 -0.56278217 0.90217966 0.35970196 -0.600825 0.46421236 -0.7489914 1.0668064 -0.4276059 1.9827204 -0.36611173 1.3035617 0.026878003 0.5988976 -0.42999506 1.0302188 -1.0105984 0.51153016 -0.6466626 0.507798 -0.7736554 -0.007437442 0.23676595 -0.47592026 0.18030085 -1.2552696 0.49611542 1.3568307 -1.4752426 -1.2837642 0.27154085 0.94154197 -0.48549768 0.86972576 -1.2226202 0.14973858 -0.5533752 -0.17599212 -0.71085054 0.8506035 0.7809263 1.1278877 1.1391066 -0.4596112 -0.4212638 -1.4280787 0.38575158 -0.7871783 -0.16536003 -1.4631777 0.2781279 -0.23432367 0.51217 0.5120733 -0.879498 0.11847769 0.13011326 -0.19952247 -0.9607729 -0.8825925 -0.013669892 0.9597825 -1.1459187 0.3053623 0.07619778 0.36668396 -0.9508214 -0.5822976 -0.36818606 0.28020638 -0.8254001 0.26013738 1.1288095
25 -0.7713518 0.5638421 -0.2966608 0.11363874 -0.29890668 -0.6441391 -0.7221523 -0.92259645 1.3307048 -1.3390923 -0.41869363 -0.7033285 0.80917436 -0.7649392 0.3175571 -0.89628917 0.7644675 0.4976358 1.0039809 -1.3076894 0.68702453 -0.36207947 -0.9024093 -2.1960683 -0.097598076 -0.24936517 -1.4614346 -0.1743416 -0.68476105 -0.35730904 0.035971172 -0.89357996 -0.9496149 0.062269606 -1.066399 0.7062514 0.94355524 0.64040864 0.030489175 -0.5790001 -0.47961584 -1.095226 -0.3242839 0.63915735 -0.12792398 -0.74905384 1.4615971 1.3806775 -0.7719436 0.69098425 -0.41503203 1.2170559 -0.18335018 0.5651729 -0.92797035 -0.5200636 -0.0093758525 -0.5499072 -0.46821347 -0.06174331 0.15068111 -0.07815789 -0.03235074 0.21061566 0.28573042 -1.7967286 -0.19577841 0.9041922 -1.397451 0.39305028 -0.016965536 -0.33804914 0.19684203 0.12639372 -0.88300645 -0.42803577 -1.296056 -0.4293816 0.05073603 -0.44899184 0.14774542 1.0301483 -0.28682184 0.08303682 1.521957 -0.20768441 -0.358543 0.35191843 0.5185849 0.905505 0.2716427 1.0107739 -0.07156388 -1.8827914 0.13637659 -0.2913876 -0.9825986 0.70966756 -1.5745919 -2.105955 -0.7006875 0.6242055 0.108715616 -0.32878864 -1.5963324 -0.8357442 -0.54101294 0.23112422 -0.37307483 -1.7458928 -0.7147929 -0.8221287 0.7317356 0.5149806 0.59274083 -0.5418838 -0.6229632 -0.9889148 1.3854976 1.841023 -0.019002032 1.4439051 -0.10887672 0.060723145 0.08543895 0.97537243 -0.872487 -0.16268286
627 -1.5510072 -1.3845474 -2.334997 -0.9767535 -0.44663072 -0.120384805 -0.57642555 -1.4091259 1.1575086 2.1018605 -0.17178501 -0.10495618 -0.34608254 -0.25916916 -0.95878595 0.88957846 0.09233878 0.19837113 0.8738724 -0.3076232 0.2735 0.429788 1.7042319 -0.8713566 0.53430885 -1.1786137 -0.16380821 -0.6013374 1.6701072 -0.5309194 -0.012772817 0.09467794 -0.16130789 0.41894794 -0.9377576 -0.8642927 0.62654364 -0.59586537 -0.24358179 1.1470114 -0.97323275 0.92658967 -0.20578665 0.46617252 0.48988986 -1.6589271 -0.88327456 -0.614555 0.43574595 0.021478444 0.12207767 -0.9840368 0.5420837 0.5599337 -0.69912654 1.9220058 1.3793601 0.32287902 -2.06928 1.8279727 -0.23108429 -0.1581694 -0.38023785 -0.4293119 -0.7547967 -0.941431 0.5079066 -0.81557703 -0.20330976 -0.4843139 -1.3081361 1.3146436 -0.92225295 1.2363291 0.70471984 -0.8619898 0.20887917 0.7962514 0.30966085 0.30549815 0.055494748 -1.2225666 1.1243925 -1.1115408 0.92121774 0.27943817 -0.028981498 0.48193532 -0.27700043 -0.0727229 1.0118872 -0.5841549 0.15287215 -0.43136552 -0.032315873 -0.80184704 -0.72647727 -0.20256755 1.7622936 -0.8388823 -0.32283056 0.1633639 -0.4323545 -0.058338046 0.6795685 -0.07181001 0.12192978 -1.1796362 -0.7120394 -1.0730919 1.1571691 -0.7768925 0.11013312 1.3742418 -0.8868874 -0.80252016 -0.41786858 0.17147954 -0.90164524 -0.8455394 -0.099117056 -0.4864817 0.24162339 1.1425234 -0.1392987 0.38398302 -0.34100497 -1.7660062
563 -0.9040698 0.6800698 -1.977836 -0.88745123 0.17997211 -0.72046286 -1.0240066 -1.6649489 0.0009969512 1.9912304 -0.97814256 0.47624302 -1.126143 0.5501576 -1.1595557 1.0223747 0.096606836 -0.31270257 0.08268725 -0.86856574 -0.30727676 0.86305845 1.9534767 0.45431343 0.50448185 0.5685436 -0.47036844 -0.8445608 0.8199954 -0.4940048 -0.9997559 0.22533599 -0.011226142 1.0074122 -1.0955851 0.2253483 -0.026877526 -0.18560988 -0.05737277 1.0330087 -1.1696814 0.3005396 0.23113993 -0.37389815 -0.037082832 -1.6455368 -0.4137787 -0.8645355 -0.7047541 -0.8938588 0.47917736 0.19903246 1.52624 0.7496234 -0.2388635 0.021207474 0.2892274 -0.4695514 -1.5752711 1.7152225 -0.07924855 0.036583275 -0.59193045 0.6980977 -0.8319714 0.43449202 -0.07969335 -0.87280464 -0.92988145 0.10004282 -1.0662656 0.14008921 -0.436686 0.059621792 -0.19852145 -1.5443217 0.086973436 -0.15405372 -0.7216371 -0.08129081 -0.42171335 -0.15561172 1.1314006 -0.5759695 0.17513773 0.072369695 -0.084272645 0.2646101 -0.20755008 -0.14167838 0.41151103 0.30438036 0.6483464 -0.93695086 0.9349199 -0.07721917 -0.49227843 -0.60306615 1.3940233 -0.6627083 -0.521314 -0.007997164 -0.22070813 -0.2466139 0.34664845 -0.5162035 -0.28245595 -0.5712141 0.08217393 0.44195288 1.0390829 0.75691944 0.44965637 1.0258877 -0.46349084 -1.3552337 -0.031168735 0.38793054 -0.6012919 -0.36755383 0.3594385 0.51103157 0.55325794 1.6929259 -0.16253106 -0.18913317 -0.011254175 -1.204094
667 -1.0240393 -0.077753484 -0.23161002 0.33324534 2.1112537 0.3623617 1.770729 0.054127987 1.3929197 -0.55436665 0.060198054 1.0744736 0.07421213 -0.577138 -0.1655766 -1.0620066 -0.41924772 0.3446322 -1.2283188 -1.3704095 0.07915746 0.28956437 -0.75862837 0.07433862 0.13652188 1.5739193 0.47845852 -0.53795487 -0.23323894 0.45149615 0.49757627 1.3941357 -0.44972798 0.44016445 -0.7194743 -0.039371416 -0.17438334 0.80149853 1.1260797 -0.08183896 0.4139154 0.91076726 -1.587827 -0.41845626 1.1083201 0.7004193 0.22452629 0.5629342 0.3220249 1.8282764 -0.4490411 -1.344561 0.78825605 -2.3742788 0.7778568 -0.08955193 0.78777015 -0.4645791 0.95188147 -1.1802574 -0.8287343 -0.15731785 0.31339848 0.22803038 1.6399239 -0.30995655 -1.0352094 0.31262156 -1.0872967 1.3277546 0.69671166 1.49365 -0.2149564 -0.17054528 0.62805045 -1.3819644 0.3106293 0.63509876 -0.8159091 -0.058905113 -1.1201922 -1.9913036 0.53987736 0.28949526 -1.0156409 0.6295004 0.60467595 0.63508874 -0.7088412 -0.73224473 -1.2347679 1.0253506 -0.44529945 -0.008004045 -0.79632205 0.8179282 0.20699194 -0.13634954 -0.23758855 -0.2227724 0.3173099 0.2727603 0.008972202 0.15499435 1.1131035 -1.4338974 0.84144324 0.10222006 -0.40532637 0.3402485 0.9430668 -0.45724022 -0.43155646 0.92089796 -0.29004675 0.65841293 0.68119705 0.12811862 0.7553536 1.3170755 -0.1480706 0.44579053 0.43034145 -0.50336885 -0.06853723 -0.25935712 -0.49574292 0.5336503
744 -0.4683611 0.10656884 -0.0921449 -0.4579143 1.4719431 0.013703759 0.11329888 0.8004788 -0.6447746 0.73189527 0.74951047 0.3036202 1.2780169 0.09119453 -0.09779738 0.16773675 1.1367761 1.0178176 0.5194678 0.60182446 -1.7497239 0.008973701 -0.7434409 -0.72276163 -0.16052498 -0.9854954 -0.146855 0.6298748 -0.074872464 -1.1972127 -0.05167277 0.083557375 0.9800062 1.7390331 -1.3299398 1.1746699 0.6235138 -0.10953185 -0.8065854 0.08606167 -0.01473818 1.5874192 0.26382318 -0.7204523 1.4915209 -0.035220396 1.4828291 0.3290347 -0.23954834 0.3404462 -0.18599045 -0.6392947 0.5596203 0.5351959 1.7998008 -0.7233844 -0.44166547 0.44166753 0.53368044 -0.27851278 -0.04346698 -0.51169443 0.19964978 0.47765464 1.4634408 0.048080195 1.3304017 0.8519245 0.875585 0.9796561 0.21286583 -0.3778662 0.113152765 0.06732858 0.5101678 0.74814415 0.28045323 0.11945602 -0.83694476 -0.5444115 -0.5540913 0.83652353 1.678171 -0.33233234 -0.12602505 0.067958064 -0.4213391 0.03218635 1.8094122 -1.9459816 0.71211463 -0.34375852 -0.41301337 -0.8503353 1.5969251 0.9215771 0.4416704 0.9882718 0.20247553 -0.61330026 -0.35647625 0.95122766 -0.79821634 0.041913595 -1.3137664 -0.4107347 0.3010707 1.6221795 0.21304812 -0.46651566 -0.00021626984 -0.52121454 -0.55775684 -0.29096726 0.044466633 0.28876033 0.51336485 -1.0810163 0.8447697 0.26964223 0.9247826 -0.22001718 -0.70608014 -1.709931 0.46996057 -0.059304267 -0.0026672857 1.3486562
236 -0.34358206 0.7334462 0.6078413 -1.0288157 0.054670755 -0.3635345 -1.5130911 -0.7005268 -0.3387632 -0.5069892 -0.7760618 0.74866045 0.48445615 -0.7672822 -0.023690287 -0.697056 -0.5578896 0.9045768 -0.44016725 -0.028904319 -1.3549443 0.3918051 0.6440632 -1.6294528 0.37579328 -0.77257276 -0.46017092 -0.6254435 0.59796387 -0.02121262 -1.0607787 -0.10102557 -0.6681368 -0.012895908 0.26648837 0.11628349 -0.2702015 -0.54139453 0.4214278 0.53963965 0.8477886 -0.41151765 1.0447919 -1.4027871 0.09309913 -0.20909931 -0.83382547 0.7638009 0.352855 -0.86238563 -2.2081637 -1.0813259 1.1007499 0.670199 0.8393985 -0.058705583 -0.19633907 -1.1259278 0.0833126 0.023553865 -0.5966938 0.56552833 -0.123152226 -0.21200158 -0.539736 1.3856323 -0.03760883 -0.35588756 -0.3200329 1.4285779 -0.7357885 -0.26976663 -0.18678471 -0.12280803 -0.13777076 -2.2366447 -1.4770694 -1.2030144 0.55195475 0.8723778 1.3534744 -0.9478032 1.1761045 0.04294063 0.84579027 1.1540307 -1.0476391 -0.14272976 -0.00073734205 0.6673328 0.6486609 -1.240052 0.5386771 -0.9489974 -0.0794975 -1.1852262 0.13673893 -0.7655248 -0.58635527 1.2042174 -1.2438242 -0.19349925 -0.44132316 0.63712585 -1.35464 -0.5753557 0.08021264 0.45231763 -0.28521544 -0.33681375 -1.0612494 -1.1323265 -0.7236466 -1.4367063 -0.03878427 0.03535842 -0.16112165 1.7000312 0.38657242 2.5271244 0.09680145 -0.037793335 0.48907143 -0.38734198 0.5571522 0.1942694 0.20898259 0.0046885237
57 -1.0428799 0.85630727 -0.7963105 0.34107262 -0.095526844 -0.3575857 -0.6419045 -0.65063983 0.5558143 -1.7584032 -0.14454089 -0.9336334 0.60538244 -0.8568033 0.20772354 0.2543862 0.07613002 0.6378954 1.2085623 -0.97654366 0.519033 -0.20133092 -0.14099033 -1.7597334 0.1682018 -0.504776 -1.5627383 0.16897742 -1.1969544 -0.58268255 -0.22282293 -0.29020047 -0.7135041 -0.15792772 -0.487944 0.9534355 0.6389623 0.41675767 -0.20719032 -0.09640011 0.21314032 -0.6995581 -0.41219136 0.86248195 -0.49158832 -1.0028358 1.7259337 0.43929005 -0.69459397 0.57932377 -0.6540857 1.1135076 0.46615902 1.0093777 -0.8484689 -0.30385444 0.4652369 -0.17476156 -0.3543696 -0.80649585 0.4439695 0.12230238 -0.13574353 0.22097358 0.09934894 -1.5071819 -0.20741643 0.45439312 -0.73281044 0.2967291 -0.08849011 -0.19784619 0.294116 0.28061965 -0.31261444 -0.7195271 -0.48488212 0.2961059 0.116181396 -0.22954866 -0.15187578 1.1531435 0.0061527067 0.023233335 0.95963454 0.57899773 -0.3778708 0.76927674 0.23347998 0.7391179 0.5650174 0.98008895 0.51589274 -1.1314244 -0.11736776 -0.29528356 -0.781133 0.69695455 -0.8216575 -1.313259 -0.53763264 -0.3895519 -0.2011698 -0.6158929 -1.9855205 -0.6353882 -0.59042346 0.8401435 -0.3747712 -1.4107897 -0.54670215 -1.1118343 0.6117513 0.117861286 0.4354502 -0.5874671 -0.19600946 -0.96387094 0.95959437 1.8706213 -0.36054686 1.3491701 -0.16832004 0.85193676 0.689858 0.87314326 -0.16794461 0.11175851
110 0.7675703 -0.38260433 -1.016756 1.0205024 -1.7479647 -0.05146104 -0.42268485 -0.6468741 1.188029 0.026076335 1.0816451 0.02984831 0.6149252 -0.0157305 -0.75073934 0.5001828 0.3707298 -0.18153696 1.2190955 -1.9296992 -0.3580509 0.26173475 0.266034 0.056051396 -0.5354395 0.38523653 1.0746189 -0.908051 0.31940654 -1.1938967 -0.009110039 -1.0962056 0.02387799 -0.7719083 -0.57356566 0.37623173 0.042488825 0.7737781 0.87218237 0.26840258 -0.11997653 0.96725327 1.1839225 -0.3695528 0.91559696 -0.1376483 0.85811317 -0.3666608 0.8750572 -0.5522235 -0.58838314 -0.12457309 0.2923496 0.18390997 1.2279762 0.6322611 0.87695074 -1.1392875 -1.2458075 -1.4676843 0.02326205 1.3787198 0.81480646 0.44728503 1.0837116 0.43622363 0.43888003 1.7076925 0.04171029 -0.31401426 0.7528079 0.8039886 -0.28503382 -1.0883018 -0.58895856 0.28097698 0.55516815 0.48038083 -0.1490833 -0.55427253 0.27234146 0.012817151 -0.065439194 -1.1426449 -0.20204167 0.38641715 0.470994 0.7889809 -0.41424578 0.4999059 0.3981942 -0.18558228 0.47703207 0.7001712 0.68535954 -0.1752915 0.0406392 -0.72324055 1.5592856 0.32157174 -0.6275773 1.4935478 -0.09911657 0.22922033 -0.012737857 -1.3151172 0.9352846 0.04283441 -0.19142213 0.4372871 -0.7798543 -1.1285214 1.8230143 1.0847743 -0.51940197 -0.554137 0.45595074 -1.4190613 -0.15700115 -0.5577298 0.58643997 -0.4351903 1.0790997 0.7445503 1.0382016 0.5533955 -0.09097753 1.3680946
561 0.0027316604 1.3212816 -1.4592444 -1.8018243 0.43851578 -0.21157217 -1.7340349 -0.21772137 -0.0496989 1.1331068 -0.9790109 0.523683 -0.24502301 1.2132535 -0.2522626 0.4674039 0.28491142 -1.2031124 0.26592466 -0.43340185 -0.165751 0.8389767 1.0470841 0.3057921 0.9239113 1.079954 -0.32756418 -1.131917 -0.080411814 0.8060907 -0.1883573 0.37473243 -0.015008209 -0.4386847 -0.9509866 0.1361724 -1.836601 -1.0080314 0.3878435 -0.20627466 -1.920285 -0.6131558 0.5075981 -0.091718346 -0.9286826 -1.471394 -0.16204008 -1.443625 -0.24074519 0.06308518 0.13602842 0.99820656 0.60576415 0.7864597 -0.9286533 -1.2745311 0.042237 -0.8183412 -1.2903264 1.5018588 -0.44425404 0.98323965 0.70074266 0.55594295 0.07834499 0.8529791 -0.93388224 -0.32903922 -0.6517301 0.6590856 -0.54325813 0.4132256 -0.44460523 -0.19696477 -1.0841503 -0.96120894 0.54360336 0.3246657 0.24996525 0.05722024 -1.2953023 -0.34734812 -0.20396388 0.081181675 -0.75818336 0.9190477 0.03622166 -0.15850693 -0.8103561 -0.79962724 0.49262908 0.0559007 0.9942016 -1.4659963 1.2681339 -0.38391337 -0.9237277 0.109063186 1.5545136 0.1252801 -0.7917366 0.57676643 -0.60533017 -0.8266966 0.6319504 -0.1376502 0.25366482 -0.5785284 -1.2223612 0.11932535 0.16478767 -0.8521208 0.9258686 1.1612291 -0.04023234 -0.907068 0.012906074 0.5703622 -0.430878 -0.5004988 0.5181899 0.20120095 1.1541865 1.7727791 0.25889617 0.9770234 -0.16330107 -0.8118437
625 -0.15692522 -0.49930733 -0.78622603 -0.85909396 -0.12349794 0.8226037 -1.362476 -0.11928076 0.5829742 0.7214077 -0.385666 0.01714164 -0.18225369 0.82685846 -0.12431715 -0.102734625 0.6798623 -0.63213414 0.65935504 -0.36227936 1.5960922 0.78458005 0.58440995 -0.63569033 1.4983103 0.06589631 -0.47171012 -0.84204185 1.006525 0.5586149 0.050738927 -0.038306106 -0.35301387 -1.0108147 -0.5541868 -0.8787747 0.0493838 -0.9229325 0.53498006 0.20637448 -1.3947062 -0.15011553 0.10424596 0.85256183 -0.37816516 -1.6752273 0.427428 -0.89879537 0.6905262 0.59997725 -0.51162106 -0.6187564 0.09730212 -0.0026444178 -0.4448239 0.48927167 -0.109201394 0.39389092 -2.012732 1.5472955 -0.41118574 0.35346174 0.8265717 -0.3444464 -0.28279367 -0.8614577 0.21165854 0.042237148 -0.32695374 0.91064996 -0.87593484 1.0401679 -1.0444403 1.4516988 -0.5718177 -0.20242032 0.83335596 1.1160265 0.8306185 0.26144904 -0.68272805 -1.35799 0.041713834 -0.2857044 0.031641193 1.2520714 -0.32518044 -0.47860384 -1.0657341 -0.19261618 0.74376243 -0.7776568 0.91712046 -0.30324832 0.06983024 -1.6677824 -0.65387505 0.6276023 1.3507779 0.17552076 -1.0543298 0.8171904 -0.110462606 -0.062838934 0.42535284 0.38939413 -0.12158393 -0.93006676 -1.2423012 -1.6213888 0.1325947 -1.6103162 0.5612482 1.1355761 -0.90893805 -0.2178592 -0.681923 0.4359829 -1.3032099 -0.45548227 0.31866044 -0.5853937 1.18422 0.8433752 -0.054750364 1.5250373 0.043923788 -1.4212453
112 -0.6361714 -0.056267224 -0.67082566 1.0019033 -0.36023688 0.27817455 -0.7670993 0.113674365 0.93808097 0.6543959 -0.5120048 0.89776975 -0.6626383 0.74381036 -0.21992853 0.5972753 0.49984878 -0.16497454 1.1463933 -1.128693 0.16090216 1.8149551 -0.8151155 -0.2133901 -0.043285735 -0.26594532 1.1497458 -0.5822568 -0.57058406 -1.3118228 0.1489512 -0.8558464 -0.18812576 -1.3385183 -0.47660735 -0.42104 0.39333272 0.48132396 0.20195627 0.15171644 -0.81572306 0.32674295 -1.2843653 -0.9682621 0.88468546 0.67097133 0.7634994 -1.6885809 0.025321096 0.70191175 -0.59874123 -0.15420139 0.5287432 0.4237464 1.2414714 1.0490133 -0.008561368 -1.6184806 -0.49130878 -0.46282098 -0.19970344 1.3973659 0.38648003 0.15735254 0.15978551 -1.0619961 0.6825524 1.5831487 0.6453419 0.27878594 0.7319681 0.3940009 -0.5904993 0.16127443 1.5202175 0.37015533 1.408909 0.1592127 -0.6327839 -0.14106064 0.91128707 -0.10510733 -0.52513087 -0.0755298 -0.37357855 0.62454903 0.9322375 1.1928232 -0.40986487 0.3837462 0.91561604 -0.58583206 0.3703558 -0.60063696 1.0957823 0.19644895 0.42128238 0.62659895 0.71695185 -0.92408687 -0.9635701 1.2249726 -0.6014141 -0.34259224 1.1526443 -1.4084481 0.920413 -0.25250703 -0.17517321 -0.027077567 -0.19772689 0.3965266 1.130301 0.5711977 -0.79150486 -0.20721965 -0.041007664 -1.3169892 0.625493 -0.6646415 0.41583583 0.14047748 0.11939072 -0.46096966 0.37733957 -0.20516258 -0.9065577 2.329891
58 -0.6914253 0.88542587 -1.182593 -0.25359002 0.10602484 -0.33026326 -0.9336623 -0.5221592 0.7053248 -1.5722785 0.11471931 -0.6325416 0.44881552 -0.28932893 0.8166286 0.17088886 -0.27903792 1.2424781 1.448307 -0.31679568 0.44190997 -0.28070623 0.43554002 -1.6552174 0.4635093 -0.095913745 -1.6858741 0.5975255 -1.042114 -0.5768584 -0.7565008 -0.51492333 -0.64765483 0.27432412 -0.78070754 1.0120212 0.82001454 0.16968603 -0.5474498 -0.53718114 0.028629586 -0.9793713 -0.9189828 0.76889163 -0.39366567 -0.7592496 1.4294404 0.33797327 -0.7055793 1.167079 -0.52143276 1.1368232 0.21821892 1.28654 -1.0618345 0.09991092 0.2961553 -0.37164035 -0.36020184 0.08312694 0.2612748 0.4566102 0.05600369 0.81592953 -0.07581381 -1.5558779 -0.27053937 3.4072702e-05 -1.0022044 0.054086875 -0.101240076 -0.4540093 0.8797022 -0.3146315 -0.060283653 -0.24848266 -0.9533678 0.5990242 -0.027729817 0.375871 -0.7755837 1.3442076 0.6655808 0.2001459 1.0024034 -0.09780642 0.20320931 0.725383 0.24706045 0.40688482 1.4222013 0.5800609 0.41547838 -1.2725257 -0.51717633 -0.8205607 -0.5526599 0.07397301 -1.3302292 -1.1677994 -0.2038719 -0.40221006 0.022090813 -0.32107162 -1.4719175 -0.6063562 0.4685135 1.0257986 -0.37981325 -1.1010108 -0.48287085 -1.0273784 1.2814837 0.19796307 0.7051153 -0.76344275 -0.43024498 -0.9504257 0.9946883 1.7269758 -0.87290275 1.1306677 0.36726576 -0.061025206 0.41634947 0.6734995 -0.27557397 0.229433
375 -0.26634997 0.7041209 0.23655137 0.8247278 0.21584317 0.44679618 1.4366678 -0.013781079 1.9730445 0.7561361 -0.5378013 0.20408103 1.2507315 -0.6264694 0.032663282 0.093072094 -0.17663251 -0.6117268 -0.31079277 -0.72213 -1.0336534 0.39714298 -0.7090801 -0.5116149 -0.33233562 -0.615403 -0.28791592 0.19138423 0.14097007 1.0571133 -0.76314116 -0.019611558 -0.17370185 -0.57983714 1.0215142 -0.4864016 -0.8947072 -0.6933113 0.9351822 0.28493288 -0.95412815 -0.49223804 0.03745457 -0.38390267 1.172158 0.2969375 -0.23089443 -0.47908968 0.2587353 0.16085142 -2.4348676 -0.24596773 0.40385175 0.6673035 0.0776027 1.0016893 0.33337227 0.15237743 0.20403513 -0.87149423 -0.415647 -0.3674494 -0.81010133 -0.49171564 -0.43799216 1.6445009 1.160925 -1.0715959 2.091889 0.9341391 -0.33552215 -0.018435866 0.4135864 -0.12717922 -0.17168811 1.0204436 -0.06971818 1.1870126 0.28649116 0.11324358 -2.196948 -2.3921514 0.31330356 1.2716839 0.7945701 -0.6958023 0.27027595 1.4063659 -1.0116757 -0.41655678 -0.71673363 0.88883585 0.29253417 -0.76393765 -0.24496485 -0.9114868 0.7831933 0.26625177 0.372812 0.85812116 -0.5050533 1.1726576 -1.6642215 1.0017289 -0.88509774 -1.3098094 -0.8403955 0.1269791 0.46878925 -0.53966314 -0.79206055 0.79727966 0.57784563 -1.3942012 0.59487325 -0.23296489 0.014200082 0.29096228 0.38513944 0.58948857 0.688218 0.9821248 -0.7838172 0.10849751 0.6764608 -0.6853053 -0.35980558 0.1809274
204 -0.15678085 0.77744466 0.5469019 -1.1982206 -0.3428741 -0.31162575 -1.6233962 -0.6201211 0.3545237 -0.81814295 -0.41141862 0.35377777 0.6511742 -0.5009715 -0.23771639 -0.35404593 -0.24550004 0.7890091 -0.24231006 -0.2451865 -1.1774538 0.07999607 0.7478604 -1.6414514 -0.06638667 -0.3966174 -0.6582128 -0.89499116 0.52495617 -0.28296065 -0.35180882 -0.49981067 -0.528405 0.3993203 -0.10110837 0.56440973 -0.38237852 -0.5705012 0.80134976 0.32144186 0.919082 0.29803327 1.5928656 -1.0927002 0.26676098 -0.27464032 -0.19843484 0.08894253 0.12464157 -1.3323474 -1.5133622 -0.577963 0.7826099 0.5930288 1.3570125 -0.27903074 -0.10016824 -0.6977528 -0.15746674 -0.46102542 -0.44918615 0.0019379788 0.5118271 0.2782832 0.15924108 1.8974122 0.2876663 -0.31040826 -0.35028914 0.92690957 0.42740187 -0.45646262 0.22472309 -0.8113922 -0.045787882 -1.9890532 -0.9720354 -0.8251499 1.0540009 0.93381774 1.422666 -0.3781566 0.95992446 0.046057723 0.4254226 1.3863426 -1.1065668 -0.45865542 -0.724686 0.8625445 0.67331815 -1.6772517 0.5196929 -0.30001596 -0.393463 -1.6019789 0.34461358 -1.0668571 -0.26336643 1.7100276 -0.9866572 0.426063 -0.6514847 0.74604255 -0.98904836 -1.216047 0.552545 0.4519133 -0.45409673 -0.82518685 -1.5564103 -1.6479424 -0.16889286 -1.2960718 0.09719254 -0.04686469 -0.18804032 1.3201066 1.1868272 1.5113382 0.19761063 -0.0432984 0.29966846 0.056746308 0.51088625 0.14220043 0.20917034 0.57817954
317 0.66952044 0.3144518 -0.89163953 0.8666608 0.07011082 0.73442227 -0.9470364 0.51344633 -1.4435381 0.37386826 1.3754832 -0.696214 -1.2809418 0.11002667 0.6339572 0.21076556 1.7788128 1.083466 -0.45149404 -1.0924166 0.37772995 0.35276228 -0.88435847 -1.3383104 0.038705762 -0.101706974 0.11120659 0.9178578 -0.062924914 0.39497653 0.85370207 0.5416636 1.2714735 -0.08548353 1.4236045 0.24475312 0.56722754 0.31809932 0.49811167 -1.2495819 0.3144162 -1.3264576 -0.4567795 0.079832 -0.020602046 0.42365026 -1.0151775 0.8167022 0.80758154 0.05249739 0.7909529 -0.97101897 0.5311496 0.6058923 0.62763435 0.23930801 0.2337551 0.119273126 -0.44289038 0.41153607 2.8298037 1.2084569 -0.5898783 -0.29963362 -2.3804467 0.083525665 0.058502547 0.69034725 -0.15948913 0.13556941 -1.0813538 0.1573239 1.6334116 -0.8336465 0.62286496 -0.12533753 1.3541684 0.7535511 0.79334956 0.49994677 1.0297526 0.1528467 0.29581907 -0.51973015 -0.840932 -0.71036005 -0.4688897 -1.0922402 -0.06852687 -0.53874993 -0.030819107 0.6690292 0.7302199 -1.0355057 -0.033935584 0.26383775 -1.0537264 -0.07631361 1.507552 -0.4408497 0.2613326 -0.49988955 -0.9515006 -1.0864961 -0.14404505 0.7656305 0.81331855 0.34390822 0.5340526 0.7601051 -0.6541423 -1.470531 1.3239554 1.4260291 -0.42355636 0.655944 -0.10456187 0.33078593 0.07662936 0.39686754 1.4305135 -0.5564129 0.0057413634 0.30925858 -0.047295738 0.033530325 -0.83062017 0.3114467
111 0.42251235 -0.29273853 -1.1896571 1.1876221 -1.3172823 -0.049118415 -0.7201246 -0.13163051 1.3790494 0.44958872 0.44785097 0.60114896 -0.15107062 0.50669116 -0.45517722 0.69497997 0.234257 -0.2211475 1.4070086 -1.7355906 -0.25346842 1.1131924 -0.36061326 0.08731867 -0.45093966 -0.017381707 1.3890992 -0.8603636 -0.28248903 -1.3676621 0.057919677 -1.0437088 0.009560389 -1.2619914 -0.6421669 0.16766316 0.27931026 0.8341379 0.79350936 0.37804893 -0.50283027 0.8614343 -0.04968474 -0.89866114 0.9326962 0.057822943 0.9204545 -0.9743484 0.66092926 0.2529683 -0.5971096 -0.18014503 0.7449049 0.51180696 1.4334172 1.0541149 0.48524913 -1.4535663 -1.103841 -1.0461254 0.021492 1.6723728 0.566774 0.2165956 0.87712413 -0.3551183 0.6641643 2.0570378 0.3606198 0.034917314 0.65716535 0.46116734 -0.6011481 -0.5634888 0.20232649 0.2936989 0.9204296 0.47314546 -0.52701706 -0.4835401 0.81668735 -0.18827422 -0.59412014 -0.8449548 -0.3082909 0.79213244 0.84379435 1.0987731 -0.31977445 0.49180254 0.6548171 -0.3129876 0.39478937 0.33294678 1.0857077 -0.005434584 0.22217394 -0.24922551 0.93593365 -0.21100913 -0.797597 1.318593 -0.5425775 -0.19249298 0.47545025 -1.4141409 1.0292063 -0.10087367 -0.46275148 0.3108798 -0.358442 -0.35042298 1.6629757 0.7904142 -0.50433666 -0.48384404 0.38256478 -1.5574579 -0.0038792132 -0.71603614 0.6895471 0.06606692 0.7201986 0.058004297 0.7024911 0.43627524 -0.29586962 1.8614897
591 0.8864181 0.85373825 0.053698167 -1.9240179 -0.081375375 1.1646904 -1.3543006 1.0329478 -0.1990963 0.016320316 -0.22959682 0.9600952 0.43557912 1.2413551 -0.082997404 0.17251015 1.0925021 -0.7279113 0.73793435 -1.1674774 1.6116339 -0.07574935 0.0779917 -0.47479424 1.4624959 -0.5518245 0.43612593 0.42007452 -0.59077406 1.8372726 0.9979747 0.7967979 0.16206881 -1.6710913 0.12825212 -0.18625064 -2.2215254 -1.2351277 0.9256071 -1.5027732 -0.7979411 -1.0954871 0.97723156 0.3521868 -1.356063 -0.33380568 -0.017486073 -0.47996208 0.7220752 0.5637084 -0.31826863 0.8353984 -0.70727056 -0.35217336 -0.44613704 -0.7810471 -0.5522954 -0.94727397 -0.1311767 0.18179472 -0.4316126 0.3922257 0.7041519 -0.081698164 0.4175925 -0.48709258 -1.0404556 0.3430536 -0.20071052 0.70341223 -0.7047118 -0.58570796 0.5374936 0.2703462 -1.440055 0.5218035 0.23357986 -0.07329318 1.4543345 0.31933743 -1.3924695 -0.55318767 -0.94350356 -0.3240542 -1.2335929 0.22402558 0.19720791 -0.6694439 -0.70799434 -0.77238995 1.2544336 0.20153797 0.12826106 -0.18208474 0.13242672 -0.4963899 -0.379541 1.0186251 1.4901952 0.2791631 -0.992391 1.036703 0.5857483 -0.4137844 1.1858484 0.10137368 0.6178787 0.11838101 -0.9977733 -0.326768 0.11474783 -1.7703804 0.60223603 0.23441276 0.11408393 -0.038211565 0.40730906 -0.5191786 -0.94870603 -0.06878445 0.025972812 -0.307365 1.3560368 0.47543696 0.6634395 0.5457478 -0.04985269 -0.7999299
381 1.4365137 -1.0672411 -0.77851254 -0.08245738 -0.9544369 -0.47246334 0.33922598 0.36426285 -1.2178662 0.74559593 1.0837754 -0.88686115 -1.285594 -0.11009043 0.3949497 0.36412972 1.2718384 1.1273264 0.13424419 -1.3914177 -0.10835465 1.3762282 0.32548732 -0.7875795 -0.6043947 0.3787095 0.508419 1.3018934 -0.32577464 -1.1978216 -0.10382934 0.21568185 1.2596186 0.11378387 2.2305353 0.25385225 -0.48510727 0.5369739 0.42339432 -1.0000396 1.4872422 -0.3616173 -1.2990476 0.5509435 0.95791614 0.42469832 -0.5083747 0.00021725809 -0.12942241 0.4955678 0.30037183 -0.39369166 0.26168704 0.5622164 -0.3505335 -0.19639617 0.7823486 0.7121474 -1.2003835 1.4232067 1.6065952 1.5861028 -0.12808187 0.46438512 -1.5088412 -0.39343446 0.1794955 0.63677174 0.17038125 0.4019159 0.06458125 -0.74858606 1.1607106 -0.36493215 0.24763419 -0.68857366 0.2923322 0.32078838 2.1066856 0.44755498 0.15981747 0.087820694 -0.77392244 -1.0855842 0.18692148 -0.09140952 -0.36936286 -0.60081625 -1.4016535 -0.8172678 -0.61393327 0.31735584 0.82472384 -0.29224774 -0.3190059 0.5362714 -1.0884782 -0.54691035 0.32560351 -0.4148082 0.2033445 0.3538284 0.9705863 -0.7800536 0.42853683 -0.55607224 1.5450845 0.7156443 0.9738097 -0.031441078 -0.0023446695 -0.41073713 0.17638995 0.050135896 -0.7830351 -0.05340163 -1.5475906 1.1531826 0.98161256 -0.10141555 1.0679712 0.59492517 0.003031454 0.27558547 0.12296757 0.4293494 -1.5118527 0.9987349
205 0.15683626 0.5876649 0.41297483 -0.78972924 -1.0413554 0.2872716 -1.477355 -0.87952036 -0.3178778 -0.4905891 -0.36263543 0.44177297 1.5400077 -0.17935601 -0.8663895 -0.7692088 -0.011394812 0.49302697 0.056269743 -0.5530582 -1.0167353 0.13582577 1.200383 -1.4057995 -0.31823722 -0.5754656 -0.46601018 -0.77880234 0.33636296 -0.8889285 -0.35488978 -0.9146487 -0.7712601 0.27758503 0.026243787 0.43782386 -0.80735207 -0.7472285 0.31030136 0.23700319 0.832515 0.1831019 1.4106331 -1.1728599 0.8258536 -0.27391538 0.58258694 -0.06312044 -0.29353008 -1.3473682 -1.1529535 -1.2475591 0.8209402 0.68533605 1.6337343 0.0626451 0.09473816 -0.3845701 -0.61853427 -0.3724172 0.022555903 -0.02151871 0.014032247 0.23231658 0.26771912 1.3721569 -0.17992267 -0.2407749 0.121411584 0.86504817 0.44769165 -0.4094085 0.18787098 -0.33535174 -0.6686717 -1.6138471 -0.5964954 -0.79242504 0.706315 0.8017669 1.4742056 -0.6487774 0.6175425 0.07198743 0.32037026 0.9755406 -1.3313813 -0.41791388 0.014958866 0.57572854 1.089123 -1.4510806 0.7134837 -0.49085546 -0.18677244 -1.7823427 0.13782436 -1.0846472 0.38552526 1.1800388 -0.7539807 0.35414958 -0.72964084 0.7838748 -1.1688514 -1.1959561 0.50075525 0.29345453 -0.3206802 -0.25459433 -1.6300668 -1.6989739 0.086184174 -1.1559916 0.6940931 -0.069150135 0.61605984 0.89889693 0.36392197 1.5061264 -0.028157534 -0.3565565 0.46188417 0.31600332 -0.03159676 -0.18909988 -0.049992714 0.951531
515 0.06448173 0.38154933 -0.835458 -0.32893425 -0.34686643 0.18584852 -0.13057007 0.10501562 0.045093738 -1.0180314 0.6392499 -0.0063135424 0.58884096 0.11589415 0.8369966 -1.3135481 0.5681447 -0.25124577 0.00797723 -0.29457974 0.7045838 0.24356541 0.7168069 0.72006667 -0.59924024 0.29559243 0.76833206 -0.20305783 -0.2987257 -0.76304436 -0.5269512 1.8519585 0.7180196 -0.5222455 1.1549973 1.4943463 0.47640175 -0.8479763 -0.2049445 0.20324674 -0.46770403 0.057263553 -1.9800345 -0.8764901 -0.4633343 0.023901712 0.40971744 0.34447402 0.50306284 0.29305086 -0.35065904 1.5067687 -0.31374982 -0.004659518 0.8827794 -0.43526107 0.08274713 -0.13256653 0.6149048 -0.29332012 -0.063153215 0.31761536 0.123042926 -0.59809196 0.7189434 -0.14588277 0.11603339 1.4895697 1.6121632 0.9337305 0.16520734 2.0431578 0.34954023 -0.49873725 1.3033123 -0.67146385 0.36078396 -1.4351801 -0.62776387 -0.41208526 1.0258001 0.05792415 0.42825702 -0.49740636 1.0621692 -0.1575926 -0.40676555 -0.10840398 0.26407546 -1.8321694 1.13922 -0.42934552 0.67464256 0.30257624 1.1705033 0.41778 0.14066653 -1.0985204 0.3343484 -0.56841654 -0.5274634 0.25206834 -0.47248873 -0.8635524 1.2567984 -0.69203794 0.37573683 0.7962128 -1.2945334 -0.17275377 1.2116324 -1.2374828 -0.067633204 -0.43655625 -0.34550866 -1.406944 0.4893041 0.81907123 0.8428012 -0.7365976 0.014612786 -0.8497312 1.1139711 -0.37621135 1.0420856 0.6618823 -0.7409005 -0.6404782
78 0.872796 -0.097268865 -1.6407983 0.89286953 -0.8771596 -0.44861528 -0.3660758 -0.67115 1.378714 -0.15893492 1.1220628 -0.31181985 0.41783512 -0.27495462 -0.99789953 0.57982296 0.45954105 -0.24927115 1.1949527 -1.3141482 -0.3192231 0.25821853 -0.8180345 0.43711376 -0.8051467 0.308799 0.99242324 -1.0133891 0.32164472 -1.0904344 -0.3820397 -0.533205 0.8709902 -1.0862699 -0.85261655 0.26463184 0.755503 1.2745997 0.4712423 0.5071422 -0.6286722 0.6282676 1.2262472 0.16953 0.7767947 -0.614815 1.1470802 -0.26313025 1.3717705 -0.21667662 -0.72195435 0.8025136 -0.20296712 0.24466859 -0.01919501 0.65423363 0.86284894 -0.937451 -0.8058786 -0.97277695 0.18176578 1.5093778 0.542195 0.45534438 0.88645864 -0.21418412 0.7844572 1.7383689 -0.41099775 -0.26282164 0.2531968 1.1546117 -0.5453842 -1.0831212 -0.15713666 1.0212452 0.3223176 0.68790364 -0.5266338 -0.4184011 0.1892486 0.15253003 0.0019852235 -0.8839892 -0.2226181 0.19419469 0.86517113 0.69273645 -0.5477897 0.7349457 -0.0031734833 -0.08031935 0.34750563 0.72452533 0.47966284 0.090019666 -0.052967135 -0.16777432 1.7587937 0.31890884 -0.70408493 1.0485265 -0.14378491 0.16104351 0.63153136 -0.97112405 0.99567115 -0.14895256 -0.15132612 0.59282815 -0.57000023 -0.79183674 1.3314801 1.3043343 -0.6361918 -0.11010823 -0.24413542 -1.1351553 0.03666239 -0.058576636 0.8083505 -0.54303676 2.0178082 0.692553 1.3583871 0.9930843 -0.25786585 1.632059
207 0.56651026 0.39180976 -0.27549487 0.13977315 -1.6804513 0.76926696 0.06053029 -0.10452069 -1.1500325 0.25126153 -0.7897405 0.84897804 1.1699547 0.88352466 -1.472313 -1.0620449 0.6132726 0.08762599 0.47280076 -0.5961106 -0.65427315 1.2033565 1.454862 -0.46548548 -1.0309732 -0.48231885 -0.5695504 -0.51139164 0.49525514 -1.8704574 0.075838335 -1.2078084 -0.63873494 0.055670507 0.15764432 0.3316639 -0.76518327 -0.15651172 -0.48218438 -0.33944154 -0.10295959 0.12939602 0.01848588 -0.88802296 1.1873646 -0.26425302 1.2304239 -1.3918324 -0.32277286 -0.8671514 0.39599764 -0.80458707 0.36189157 -0.08730824 1.5350988 0.9007734 0.4051059 0.35268036 -1.1389228 0.49508572 0.8715605 -0.33835283 -0.32672423 0.58894056 0.3581774 -0.58252347 -1.2925946 -0.065042615 0.5868171 0.3411471 0.23257078 -0.26544988 -0.07390946 0.99652755 -1.155748 -0.5298892 0.1787529 -0.20298086 0.23634188 0.46876326 1.3430506 -1.1874524 -0.6096126 0.796572 -0.13186747 0.81290686 -0.10556811 0.74992853 0.8501148 0.5888192 1.4681463 -1.2316719 -0.15558518 -0.513289 0.13397099 -2.0968218 0.07803818 -0.17898498 0.35120508 0.14092296 -0.13160533 0.4027317 -0.7050012 0.9140562 -0.67856216 -1.191444 0.111189574 -0.17465608 -0.46582848 1.1486014 -0.39103577 -1.0314645 1.4536859 -0.26169938 0.54856294 -0.022026615 1.0810034 -0.42471123 -0.6254416 0.9057187 -0.4883119 -1.062692 -0.038876638 0.07824912 -0.73010254 -1.8553602 -0.23028788 1.5215776
483 0.10898312 0.44929007 -1.1776196 -0.065863006 -0.7114613 0.14239782 -0.78478414 0.036625564 0.36998385 -1.0348779 0.6665823 -0.5714336 0.60543835 -0.2033936 0.75346506 -1.1995325 0.743341 -0.50019014 0.23871005 -0.30598143 0.79391676 -0.026335083 0.13682093 0.18276581 -0.75481313 0.46856993 0.64309007 -0.29659992 -0.4968702 -0.42513812 -0.91424716 2.1024897 0.56368047 -0.10033193 0.93160915 1.4980017 0.5350442 -1.2219815 -0.0010044627 0.13379881 -1.4078697 0.020119853 -1.9579846 -0.7415583 0.029606417 -0.13706663 0.79872745 -0.24239512 0.6702228 0.13291876 -0.73888075 1.2368199 -0.095309556 0.4794213 0.98280793 -0.36665437 0.7529012 -0.54875207 0.20235527 -0.17868122 0.37864804 -0.3531526 0.6220198 -0.782355 0.70928866 -0.15035391 -0.16155812 0.8861439 1.454115 1.4286073 0.21797648 1.8608671 -0.14970152 -0.45620373 1.1135477 -0.09303449 0.41907743 -1.250189 -1.2241843 -0.5754688 0.6457147 0.57513803 0.595095 -0.20369564 0.8407741 0.37617767 -0.48164144 -0.53135693 -0.20292939 -1.7885841 1.0912638 -0.4278639 0.89743334 0.50171226 1.6592493 0.25397268 0.64488953 -1.8072762 -0.3896963 -0.48331442 0.020109808 0.57788664 0.050660737 -0.42995748 1.0200664 -0.37760547 -0.26926008 0.297993 -1.0542687 -0.1690782 1.3155195 -0.7683746 -0.8164076 -0.7207651 -1.0419258 -1.5256205 0.45014387 0.45926055 1.1785468 -0.6407938 -0.08924438 -1.0309557 0.58742416 0.08763873 0.9008257 0.69191015 -0.80677664 -0.5436534
710 -0.15210068 -0.2783641 -0.26826036 -0.050259143 0.05051509 -0.53757745 -0.362827 0.086540714 -0.7951118 0.94257295 0.41854033 0.62799543 0.660798 1.040669 -1.2276574 0.58393425 0.8784725 -0.46396205 -0.23817378 -0.6699076 -1.8880097 0.6343053 -0.29935154 -2.3690283 -0.45516247 -0.40559545 -0.6984957 -0.17180493 0.114200056 -1.2849094 0.626455 0.6717579 0.7971187 1.6186186 -0.05910498 -0.07737232 -0.05654488 0.50142133 0.13242102 -0.75881505 -0.204487 1.3601924 0.31445584 -0.4690021 0.9902782 -0.6108643 0.76156133 -0.9177876 1.0284303 0.47413903 -1.3401549 -0.7030301 1.7363352 -0.71458936 0.73360497 -0.48584837 -0.591114 0.71870375 -0.18589044 -0.36581308 0.23223521 -0.86856025 1.159266 -0.60642636 2.068274 -0.9114944 1.4454919 -0.546749 -0.112778336 -0.7600038 1.5750068 -0.48498148 0.32313392 -0.6058145 0.31712225 -0.712004 0.91176146 0.27319458 -0.5937557 0.70464015 -0.99113303 0.20155378 1.0960656 -0.87493163 -1.2541069 0.45330477 0.8875367 -0.08333883 0.6296681 -1.2683781 -0.49342656 -0.41723228 -0.04059327 -0.71136177 0.5411392 1.0967762 1.9170672 0.9657513 -0.45568436 0.17585938 -1.3284411 0.46078932 -0.50990975 -0.37430695 -2.0782878 0.42703474 0.060826775 0.12074523 0.5933944 -0.51601964 0.06384173 0.25673896 -0.33581707 -0.7028984 -1.0369099 0.15878679 0.6120482 -1.4304745 0.22099957 -0.11628597 0.9476544 -0.67799455 -0.53287846 -0.06017039 0.20540838 -0.5552333 0.44077307 1.5100174
635 -1.2244895 -0.1467809 -0.20647772 -0.19983962 2.1626797 0.22964406 1.5294082 -0.10655492 0.881408 -0.58362204 0.30685318 1.1458284 -0.40209037 -0.58400464 -0.13036746 -0.41761118 -0.40506563 0.13488694 -1.1991967 -1.3470509 -0.16303766 0.3309934 -0.617391 -0.07615601 -0.042777684 0.9379968 0.54391724 -0.66420996 -0.7999297 0.20754789 0.64601874 1.695773 -0.34061664 0.41730586 -0.2133585 -0.2284689 0.17573231 0.05038739 1.0772247 -0.40613526 -0.33734143 1.2692891 -0.75043 -0.37587175 0.68670624 0.88433164 0.4693208 0.30348796 0.7560249 1.8026944 -0.65401953 -1.1122539 0.46135113 -1.6977181 1.0610142 0.35013685 0.30829966 -0.5660427 1.2001953 -0.99536574 -1.0891669 -0.33258963 -0.0156718 0.38089782 1.1914814 0.045630395 -0.81420076 0.18621069 -1.2199963 1.0004933 0.6558714 1.4023851 0.12233481 0.32639712 0.5164396 -1.2696042 0.7072572 1.1904987 -0.761749 -0.16272366 -0.9168078 -1.9672339 0.6985525 0.08766736 -1.4003817 0.8347981 0.9587712 1.1073425 -0.48224962 -0.9410601 -0.14110889 0.9446111 -0.51741034 0.20403695 -0.55233604 0.628937 -0.07061193 -0.6295512 0.59212106 -0.3120288 0.39903706 -0.30354 0.23054115 0.064925276 0.49072698 -0.8631565 0.81429577 0.24911198 -0.3265417 1.130842 0.43784034 -0.5205488 0.3070825 0.6038913 -0.9827753 0.7781448 1.0114601 0.45831272 0.19600528 1.3389373 -0.42235497 0.44917217 -0.019355763 -0.3879986 0.104532 0.0751704 -0.1898496 1.0203447
678 -0.021657161 -0.5184198 -0.8563363 -0.27914897 -0.15450738 -0.058578804 -0.045366142 0.087496355 -0.7718025 0.875977 -0.45120472 0.8152436 0.028723488 0.85981274 -1.8960246 0.62804604 1.0049537 -0.3404862 -1.072169 -0.8518829 -1.5630766 0.84182763 -0.51002264 -2.4440217 0.13608226 -0.78716415 -0.5911013 -0.8180231 0.29737774 -0.6815596 0.3440246 -0.04296929 0.74157554 1.3344356 0.6551733 -0.4047551 -0.8848007 0.53124255 0.31773388 -0.5261602 -0.034376636 0.97458076 0.5251397 -0.7864802 0.83007216 -1.0279227 0.18399365 -0.8508026 0.8020231 0.5474619 -0.9846307 -0.6231268 1.7106937 -0.9276528 0.5952352 -0.70990443 -0.31747413 0.8398099 -0.4921771 0.26108128 0.04958919 -1.0807139 1.3158227 -0.48471674 1.4985412 -0.86012805 1.254407 -1.1595784 -0.5997789 -1.0256189 1.715388 -0.06819222 0.26757544 -0.50900626 0.47104946 -0.19714169 1.5032855 0.34812605 -0.4450801 1.378917 -0.47295994 -0.32980853 0.12873232 -0.5834986 -0.762786 0.15250462 0.6362812 0.09280158 -0.111031845 -0.381188 -1.0031602 -0.007290754 0.08613965 -0.9070421 -0.015844485 1.1666545 2.0843017 1.0314734 -0.2307585 0.6081431 -1.1823196 0.83774275 0.18349746 -0.3185904 -1.9812416 0.57713306 0.38408312 0.13465707 0.6040786 0.014217458 0.2263497 0.27484477 -0.2923631 -0.4416862 -0.67981845 0.22684701 0.067803726 -1.2894654 0.13022622 -0.115827285 1.2622646 -0.28263244 -0.43918896 0.12098334 0.031181704 -0.1017118 0.83616114 1.3280058
665 -0.31698775 -0.28058034 0.32917863 0.36764023 1.9576042 0.32822955 1.0736206 1.2056268 1.6381497 0.6449229 0.21492694 0.6709929 0.47027662 -0.31956926 -0.44798446 -0.7586443 -0.19446346 -0.72124946 -0.53936 -1.6436255 0.14769419 -0.30812335 -0.6032088 -0.42175215 0.27381885 0.38216865 1.0535448 0.35498473 -0.21109682 -0.006143964 -0.25136003 0.82354224 0.34908947 0.12933208 0.025574706 0.12750527 -0.16589305 1.7314912 -0.4674035 -0.52884173 -0.47690725 1.160914 -1.203952 -0.43398687 1.9978437 0.29184788 0.77208155 0.49927396 0.4345897 1.2019547 -0.24963228 -1.382766 -0.6589551 -1.4147716 0.30708337 -1.0160507 1.2278107 -1.4981589 0.8798892 -1.0104543 -1.5938582 0.59928405 1.1443232 0.87041 1.6091003 -1.102796 -1.0601442 0.45872533 0.40408394 1.3592879 0.69939715 0.14248733 -0.47607404 0.42026824 0.7362379 -0.27513534 -0.3507199 -0.5809952 -0.8373483 0.33195868 0.002929619 -1.0139159 -0.24545588 0.51944226 -1.3502979 0.059012633 1.0206809 0.5983472 -0.44912222 -0.06586589 -0.08887853 -0.513571 0.36050293 0.7846316 -0.32298994 1.2675956 0.99785525 1.3136554 -0.5385798 0.50447285 -0.40486085 0.9325919 0.05294337 -0.562845 1.3219014 -0.36530146 0.629592 -0.7469711 -0.9813308 -0.6592333 0.57370013 -0.68579006 0.073513575 -0.27857143 -0.9909691 -0.73663116 0.79399437 -0.5481181 0.89143854 1.7555124 0.39160824 0.027555183 0.24098699 0.30171847 -0.44237137 1.1952351 -1.1474458 0.12375664
38 -0.32892597 0.16876215 -0.82133794 1.2170526 0.7790843 -0.9259878 -0.9710666 0.50188494 -0.85876626 0.8773565 1.548617 0.9818621 -0.6636718 -0.01563326 0.20912305 -0.58608115 1.1189765 -1.0093888 1.0532886 -0.8741532 -0.8517811 1.0981325 1.6278175 -0.17069922 0.105337836 1.3513141 0.30047485 1.1486475 0.9063124 -0.8618017 0.96016884 0.9605069 -0.0872862 0.07812638 -0.93075156 -0.54726064 1.5650746 -1.0515673 -0.6067471 -1.0607054 -0.4271603 -0.28974748 0.27348304 -0.389846 0.65103877 -0.077935465 1.5894066 -0.3061733 -1.031758 -0.096700184 -0.9029247 -1.3010143 -0.7315284 0.6683821 0.55291003 0.82685393 -0.440839 0.1748206 -0.04075115 -0.3078738 0.60296917 -0.527441 0.4212596 -0.4421187 0.36090127 -0.1841045 -0.35228184 1.400107 0.7694621 1.1468519 0.16710952 0.093580596 0.608129 -1.2572341 -0.9717256 0.2695234 -0.4227501 -1.3512573 -0.5286854 0.94573134 -0.15865357 -0.77159566 0.5752238 -1.7370863 -0.02373986 -0.9324349 0.06909644 0.5049935 -0.12394313 -0.5736877 -0.18809918 0.62689316 0.0027605945 0.12578179 0.69487095 -0.68698406 -0.5918713 -0.16049413 -0.5488236 -0.35904658 -0.77860856 -0.033297185 0.5713071 -0.16326821 1.0033929 0.24503048 0.49498525 0.8142526 0.058067456 -1.2733464 -0.37199748 -0.15798411 0.40221947 -1.0951183 1.2238007 -0.6668155 -0.17309202 -1.4974629 0.29067603 0.073256046 -0.5358449 -0.86293316 -0.9239126 -0.33507276 -1.7016635 -0.51623505 -0.13009351 -1.0755211
414 1.0416405 -1.3958807 0.1630657 -0.24765144 -0.42470756 -0.6234354 0.5185697 -0.16319329 -0.52323395 0.5596215 0.26848802 -0.25240028 -0.6318318 -1.1336595 -0.09402445 0.4003552 0.6616182 0.8944585 0.08159421 -0.64084613 0.41036308 1.3675299 0.64836884 -0.05835907 -0.5968616 -0.40573052 0.7445202 1.5538505 -0.56972563 -0.49741033 -0.029273687 -0.02243895 0.81161934 -0.25389326 1.4345071 0.039748415 -0.7200958 0.8251868 0.17388435 -0.4264323 0.6908256 -0.31375918 -0.49092692 0.99339855 1.1355994 0.43122602 -0.7431248 -0.4977147 -1.2812972 0.10265828 -0.29109457 -0.15556334 0.22519936 -0.18167032 -0.2677241 -0.44248366 1.0188806 0.29576126 -1.0349686 1.8006462 1.3108802 1.6885611 0.18703414 0.4508952 -0.69882345 -0.8973907 -0.21584448 -0.15926707 0.17866403 1.444186 1.030859 -0.501984 0.89009935 -0.38489664 0.05766332 0.021272799 -0.062456034 -0.3671777 2.0318055 0.8021157 -0.12829648 0.46690366 -0.79764235 -1.1730618 0.55458367 0.07427178 0.35142377 -0.17519087 -2.0733345 -0.18370436 -0.87152755 0.03305612 0.74793375 0.024944607 -0.21932721 0.12470376 -1.2431822 -0.1800446 -0.08160613 0.78307766 0.44400114 1.295329 1.7586215 -0.117975816 0.6268739 -1.7271099 1.4972403 0.056079537 1.1170504 -1.1952919 -0.46029526 -0.18961304 -0.12597094 -0.2680887 -0.8972686 -0.6770556 -1.0554475 0.92411417 1.2845895 -0.3525444 0.8651535 1.2983034 -0.051748328 0.06398993 -0.43631122 0.93739927 -0.9455738 0.98256606
593 -0.0443479 0.6448202 -0.950976 -1.6194787 0.28766873 0.31335598 -2.1190808 -0.22907387 0.4941536 1.2586954 -0.7194834 0.44881788 -0.15064965 1.4127803 -0.23938827 0.24386738 0.5438015 -0.9481675 0.6047371 -0.41704264 0.9494331 0.8637881 1.0641176 -0.15483856 1.2705932 0.42283052 -0.3001795 -1.0279248 0.8163068 0.7269267 0.037187763 0.2507102 -0.1921633 -0.9030655 -0.7838867 -0.51524323 -1.0698522 -1.1607089 0.37898165 0.13388528 -1.7629101 -0.4388583 0.3609335 0.34536344 -1.0010427 -1.6616708 0.036553185 -1.2687827 0.11029838 0.23034447 -0.11626547 0.31234542 0.4626264 0.5062409 -0.66622066 -0.33630177 0.018888582 -0.10327689 -1.7279998 1.842885 -0.50016016 0.69152206 0.822303 0.005257562 -0.093377165 -0.043180346 -0.2465968 -0.115924135 -0.5888661 0.82394224 -0.7146221 0.3708484 -0.7241236 0.58902895 -0.85896814 -0.5413797 0.93486017 0.7510309 0.95360565 0.05014687 -1.0169929 -0.95113295 -0.025428765 -0.24549335 -0.47433892 1.0877712 -0.25405782 -0.32971844 -1.0475372 -0.41142157 0.9279246 -0.44428697 1.1164603 -0.7252129 0.6215403 -1.059046 -0.9808081 0.6415359 1.6733773 0.082651556 -0.96776545 0.8383937 -0.15968981 -0.44721332 0.66966534 0.16106184 0.0050581223 -0.9800107 -1.3365784 -0.72343314 -0.06900094 -1.4188334 0.88969165 1.52036 -0.4713628 -0.4430686 -0.52735806 0.290348 -1.0102494 -0.53494227 0.38316652 -0.31854913 1.3558499 1.544768 0.13306622 1.258274 -0.12505713 -1.2412633
333 0.82814676 0.9916193 1.4774293 -0.17382722 0.1844207 0.5596126 0.44827852 0.48806024 -0.66591835 0.053636204 0.47801018 0.6349016 1.549924 -0.8439567 -0.5535329 1.4917841 -0.015386843 -0.19999732 0.7355353 -0.48541087 0.64744747 0.8512506 -0.03133308 -0.08765412 0.65690804 0.43954512 1.069251 -0.27930903 0.8670634 -0.6061967 0.4869517 0.26606533 -0.5559377 -0.5787123 0.6154103 -0.7051705 0.11593827 0.6881404 -0.21926716 -1.105233 0.44287595 0.1247602 -0.12551981 -1.4055426 -0.15285678 -0.49016318 -0.44054553 1.2719883 -0.21517783 -0.4011114 -1.2934201 -1.6931062 0.19987208 0.06667731 0.07649747 0.9342763 -0.6098281 -0.44015938 -1.0820875 -0.25312844 -0.7782739 1.7137623 0.26861557 -1.2239344 -1.2302856 0.29826307 0.19759405 -0.62148654 0.91737664 1.3607495 0.42039222 0.6319182 0.116526075 -0.19580305 0.4152288 -0.905198 -0.14829542 -0.87127954 -1.3832586 -1.7532275 0.04490408 -1.4441292 1.0248532 -0.02381783 -0.07802301 0.9009485 -0.4880069 0.22447424 1.1834638 -0.9615805 0.033305038 -0.5003099 1.013935 -2.557427 0.42712873 1.5281067 -0.47968104 0.00926618 -0.8436456 -0.523108 -0.48501706 -0.6220137 0.9061375 0.47254857 -0.866347 -0.45087573 -0.3757131 0.5580266 0.6504347 -0.4353406 1.0090442 -0.45199567 -0.38229564 -0.5170239 -0.5424525 -0.20745029 -0.5608082 1.3251117 -0.7931773 0.4783533 0.59869707 0.28862053 0.65855217 0.5832599 -0.5672959 0.9359013 -0.3008863 -1.6415107
737 -0.061308693 1.7337079 0.46784866 0.31805626 -0.5422172 0.87959945 -1.6363772 -1.5882304 -0.06388006 0.4511964 -0.96224177 0.6434608 0.89273036 1.4182622 -0.6491078 -1.2098396 1.1045866 0.179929 -0.2619035 0.5298599 0.65700394 -0.47162288 -0.2832517 0.80550945 -1.0713543 -1.1161777 1.4108118 1.2772394 -1.0157304 -1.7357867 0.38703433 0.21763939 0.2331014 0.7104548 0.91776526 0.031643715 0.2855009 0.2883552 0.33460432 0.19631048 -0.24753517 0.22846022 -0.06753818 -0.9853099 -1.7507493 0.4677301 -0.8344655 -0.6746865 -0.117531694 -0.3677565 -0.7414682 1.5478839 -0.6713552 0.17988756 1.1615115 0.8522254 0.17040184 0.57420135 0.4841501 -1.2078677 0.3610348 1.1409944 -0.27498442 -0.21071763 -0.4381647 1.8541739 0.5238092 0.17149214 -0.11101641 0.8753551 -1.3390322 -0.7094588 0.6683047 0.32016227 1.8339642 0.26233613 0.17812316 0.8307696 0.15179732 0.7043619 -1.6986768 0.20203182 0.76121545 0.8920805 -0.27679002 -0.752676 0.38520324 -0.22602963 0.7786889 -0.14265856 0.6928861 -0.33916938 0.42650834 0.10483101 0.5300674 -0.4045152 0.44641533 0.6044076 0.7243257 0.56145793 -0.72325164 0.649576 0.9734878 -0.065516055 0.4970308 -0.7594115 -0.4436061 1.308134 1.5906279 0.69015914 -0.49464896 0.32650995 0.11428721 0.34832984 -1.3201832 -1.0525315 -0.5643213 0.31087583 -0.58061856 0.3967045 -0.9652267 0.26605603 -0.17538352 2.1312923 1.006309 0.264545 1.1134411 0.20429395
674 -0.046526965 1.3574663 1.3841559 0.048284102 0.19122262 -0.29045078 -1.1682879 -0.9290488 -0.39554238 0.64433134 -1.2089267 1.1950082 0.16020964 0.29875594 -1.1452323 -1.5770752 -0.4105868 0.118699424 -0.5230429 0.4479719 -0.90863454 -0.9485294 0.4470673 -1.0828727 -0.48222622 -0.23717625 0.9239886 0.55955964 -0.12841858 -0.97579116 -0.25853053 1.6679722 0.8832433 1.1479789 0.74643135 -0.6625928 -0.55994165 0.0049313325 0.09277538 -0.5827334 0.8552107 -0.46735632 -0.65557396 -1.1201918 -0.22450428 -0.5195725 -0.9548883 -0.687495 -0.5632727 -0.79224354 0.9177058 0.00080360315 -0.80422825 -1.5266428 1.118143 -0.8566745 -1.2494668 0.42346323 -0.21360864 -0.08046369 0.0012056299 0.9357001 -0.0903662 0.043791067 0.21760882 1.4269571 -0.57391465 -0.07008754 -1.2512399 0.10804599 -0.8352654 -0.7289591 0.9684567 -0.005078413 1.3229765 -0.17646354 1.1288902 0.7716048 -0.16154636 0.84247535 -0.59995425 0.38010186 -0.033620138 1.0272276 -0.1338351 -0.7612674 -0.058991466 0.91294235 0.56522554 1.0534588 0.9125618 -1.1493849 -0.23563059 -0.2504754 0.82510555 0.48497173 1.2087203 0.66990316 0.141699 0.1522867 -1.249457 -0.6088057 0.9527989 -0.34354046 0.28725567 -0.35342923 0.451782 0.56937647 1.5998307 -0.40745482 0.96811897 -0.5492072 0.4552564 2.2073853 -0.5476683 -0.43399048 -1.1939794 -0.6573691 -0.62478465 -0.4587375 -0.11577952 0.772033 0.786891 2.5274265 0.058201294 -0.2839001 0.25811034 0.30780858
713 -0.36312443 0.073585734 0.28363538 -0.92018765 1.2605484 0.57672983 1.645928 0.47056285 -0.90850717 0.08392838 -0.48461506 0.35272905 1.4496504 -0.33551535 -0.13024862 0.45263892 0.30028644 1.5097301 -0.14918368 1.1787537 -1.4807665 0.38196498 -0.792013 -0.27511847 0.1924449 -1.0996096 -0.32223803 0.1084071 -0.37970108 -0.034310892 -0.47831023 -0.6723714 0.6679949 0.95210063 -0.60126716 1.2437936 0.5822672 0.6281185 -0.96595776 0.71990126 -0.27946538 1.3307998 -0.044571172 -0.24756494 1.4458745 -0.5021527 0.76612103 0.035905078 -0.955528 0.044190176 0.5503982 0.0027602531 1.0727619 0.7471987 1.7673154 -0.98834866 0.5751964 -0.30320022 0.8131742 -0.34076858 -0.17148288 -1.1092198 -0.37291074 0.6986858 1.3365068 0.53743273 1.2475367 -0.010189781 0.15064867 1.3575481 -0.0136907855 0.3952076 -0.26138455 1.0015609 0.40089634 0.6213721 0.6029697 0.054024626 -1.3794817 -0.6715499 0.10017146 1.3707517 0.7380435 0.2403628 0.28425154 0.4946555 -0.74267477 0.259588 1.251396 -1.0285177 0.4423801 -1.3029482 -0.24071857 -0.9082372 1.8147315 0.5964753 0.23786862 1.0510365 0.56166863 -0.400602 0.20461923 0.61981934 -1.0340532 0.17917928 -1.2468727 -0.7981466 -0.03105858 1.4891913 0.08246533 0.5143798 -0.3608834 -1.1582352 -0.31465712 -0.18431574 0.009640057 0.6745334 -0.15620354 -0.09542813 1.0931847 -0.17015427 2.0090067 0.19129881 -0.47691497 -1.0316987 0.80511886 0.36475906 -0.045028817 1.5594279
797 0.6214102 -0.26423374 -0.33799273 -1.4484152 -2.266806 1.5155388 0.20249254 -0.47531098 0.66468257 -0.5723948 -0.363181 0.83224493 0.25393483 0.9118657 -0.45686805 0.78379774 2.5631735 0.7229944 -0.4796206 0.44971225 -0.22195035 0.25866812 -1.4360342 -0.17044084 1.1820881 -0.25767574 -0.49934775 1.2708125 0.43371797 0.78525424 -0.9217077 -0.40919062 -0.1448079 0.19266492 -0.5339508 0.8548528 0.20959601 -1.185932 -0.12366511 -0.14304118 -0.69747484 -0.81848776 -0.9345679 -0.28157276 0.31669518 -0.76458895 0.4646961 0.842555 -0.22689715 -0.008644843 -0.2683452 -0.5124049 0.35642615 0.81656945 0.51005834 0.35519674 0.2536895 -0.18965857 -0.7325414 -0.24940337 0.55271834 0.0791333 -0.274612 -0.71037346 -0.9690311 0.633806 -0.44629955 1.7032435 -0.3515473 -0.44468954 1.3612 0.97947854 -0.43921548 -0.6291332 -0.6186974 0.15255006 -1.1723228 0.6144812 0.11069157 1.5281409 -1.177178 0.0065311585 1.5039699 1.0414546 0.58206975 -1.2859583 -0.17415376 0.15830079 0.5274434 -0.46323544 0.7242994 1.3052051 0.2603263 -1.1776794 -0.7789188 -0.10712034 0.3727786 0.5341977 -0.009310419 -0.45454592 1.1639299 1.5262455 0.7846444 -0.31271803 -0.06615184 -0.42100373 -0.018199535 0.8578706 0.8897193 0.6963789 0.15740104 0.1746542 0.25401798 -0.92327714 0.24714546 1.0513849 -1.1859703 -0.39652702 0.0073702335 0.4238218 -0.13343073 1.0539184 0.22712214 -0.40487495 -0.42212167 -0.7132696 -0.44077653 1.2058024
594 -0.7430523 0.07996187 -1.5612239 -1.1027032 0.20433281 -0.13732399 -1.7519323 -1.1328672 0.7640182 1.8175471 -0.722592 0.40780288 -0.5302594 1.0236881 -0.6120317 0.68474245 0.3768793 -0.41506055 0.30695185 -0.56903255 0.35896173 0.8480126 1.5263853 0.066669464 0.7760911 0.122678414 -0.61648494 -0.83907604 1.4178832 -0.0020060132 -0.49809286 0.0830765 -0.03596039 0.11938382 -1.0539837 -0.49114665 -0.0900118 -0.71180123 -0.10452477 1.0128286 -1.5202223 0.20313226 0.2697337 0.18385337 -0.26826486 -1.6416191 -0.35966817 -1.2505081 -0.11399975 -0.16730975 0.20875657 -0.05171802 0.8409752 0.74993026 -0.50732505 0.66179234 0.41995642 0.06813881 -1.7937123 2.1973577 -0.30928168 0.3290692 0.2243788 -0.023849588 -0.33015546 -0.1518767 0.16478804 -0.6171671 -0.58509195 0.20354469 -0.9325317 0.49188673 -0.91507554 0.68100756 -0.10579466 -0.8468911 0.8142655 0.37882507 0.43435308 0.041575376 -0.5097147 -0.96891606 0.6874793 -0.39440805 0.083904244 0.69861656 -0.4092282 0.11503 -0.80760133 -0.17243043 0.6974877 -0.16096915 1.0732697 -0.68957496 0.5383439 -0.7700858 -0.9094553 -0.0008548896 1.7253038 -0.3337843 -0.6594658 0.3258857 -0.12284493 -0.20122431 0.6050173 -0.17791453 -0.30913705 -1.2608459 -0.79425424 -0.67683595 0.46099928 -0.538196 0.3995171 1.653798 -0.6888248 -0.8002928 -0.46803614 0.42189315 -0.8538353 -0.6505302 0.3479653 -0.15172885 0.98463917 1.6398304 -0.17872262 0.6804762 -0.20752063 -1.4147973
603 -1.1743611 -0.30688524 -0.086326376 -0.49105883 2.0096805 0.16598494 0.9775325 -0.37059462 0.6777577 -0.42317873 0.73820007 0.7359219 -0.6224009 -0.55020314 -0.122459486 0.096392214 -0.22733359 0.14434558 -1.1040925 -1.3716663 -0.35754377 0.41271728 -0.6680358 -0.2560187 0.029208196 0.4148305 0.63671416 -0.79089206 -1.0952808 -0.015953215 0.3747357 2.0014215 -0.1046584 0.5109932 0.24394588 -0.2161858 0.29418507 -0.6949733 0.64942026 -0.91707534 -0.8233274 0.9966401 0.059919223 -0.2712051 -0.4631242 0.8290254 0.3980854 0.26931396 1.132028 1.5187969 -0.601608 -0.64638275 -0.0025836495 -0.953994 1.0512297 0.6545368 -0.4914127 -0.53944135 1.3735825 -0.8433418 -1.1700892 -0.60217434 -0.07917362 0.21302018 0.781078 0.10962702 -0.35990626 -0.048911653 -1.290635 0.56823736 0.44537622 1.2634821 0.47445065 0.9794599 -0.16734461 -0.8656855 0.6823258 1.1784332 -0.6359172 0.038023796 -0.32858047 -1.8027862 0.5776935 0.04451943 -1.3070254 0.55335975 0.74276507 1.3590442 -0.13864018 -1.0180111 0.52409136 0.78620785 -0.6428486 0.23536463 -0.33366394 0.53945017 -0.12417511 -0.61093014 1.0302361 -0.38848594 0.04067123 -1.0616031 0.409963 -0.07646334 -0.32837877 -0.56275445 0.63029414 0.14118595 -0.42087132 1.4710546 -0.04556211 -0.58090955 0.99981785 0.7082606 -1.4051728 1.2601762 1.4184501 0.8053849 -0.31509936 1.0887078 -0.42384702 0.1804848 -0.33265993 -0.46685058 0.006564484 0.33908412 -0.030281086 1.2049329
123 0.78608453 0.77904785 -0.7359484 -0.8352169 0.9990507 -0.35252607 -0.75055444 -0.3019265 -1.28309 -0.4362573 -0.09735197 0.8937407 -0.5488395 0.2080877 0.38937998 0.61186236 -0.57161057 0.36389068 1.2732636 0.47516158 0.41440463 -0.006550795 1.712456 -0.35017502 0.29849145 -0.31525448 -0.46145642 -0.22960688 -0.23236153 -0.88315696 -1.4276434 -0.47904113 -0.15648146 0.7328796 -0.28052142 0.5420606 0.5887863 -0.099773295 -1.2935127 -0.9385069 0.56291866 -0.7063166 -1.031641 0.94972664 -0.9089764 -0.15406719 1.0023935 -1.3066651 0.22678328 1.3081938 -0.55846655 0.40781164 -0.21924931 1.8692962 -1.487186 0.67575175 0.6966143 -0.1880822 0.65987134 0.9997104 -1.1431935 0.2927759 1.1454804 1.4467511 1.594899 -0.92757195 0.044667028 -1.0223131 -0.19599539 0.12504286 0.1887232 -1.3771801 2.1764483 -0.71365744 0.20312905 0.066575445 -0.7821895 -0.21531409 -0.48924837 1.0865657 -0.310196 0.7485633 0.46570495 -0.27022582 0.1302522 -0.5095983 0.19803457 0.79731315 -1.2271659 -0.2861253 0.9464375 -0.8214552 0.9845641 -0.1708371 -1.0962052 0.12939154 -0.03990087 -1.1208549 -1.0875275 -0.27717316 -0.017394412 -0.69168484 0.60706156 -0.06548652 -1.224569 -0.17061923 1.3750278 1.1214374 -1.0624272 -0.08936492 0.5752851 -0.73850757 0.78815323 0.3183694 0.8056514 -0.72394216 -0.54784584 0.26318777 0.7918947 0.66161096 0.076966174 -0.6118181 1.1804379 -0.25084725 0.31788042 0.23576897 0.35517028 0.43828928
481 -0.26290968 0.90910757 -0.8649969 -0.79845023 0.041936316 0.3195164 -0.8677172 0.26051253 -0.5318749 -0.7166317 1.0087351 -0.084482744 0.22576816 -0.4824119 1.446612 -0.7478404 0.76816046 0.57691276 -0.27354825 0.2634876 1.0408345 0.6639839 0.06353114 1.1114489 -0.58875364 -0.32123652 0.48661247 -0.44088066 -1.0479391 0.14073892 -0.20741129 0.9317571 1.1007077 0.20203437 -0.08420948 1.6869107 -0.2151472 -0.008738639 0.2209856 -0.4104012 -1.8672297 -0.023092246 -0.9690292 -0.90197253 0.007037841 0.6171462 -0.2534069 -0.12674141 -0.24954413 -0.29596555 0.12095606 0.9461151 1.0871129 0.18571356 0.52430344 -0.051658366 0.37795514 -0.38720253 0.40279844 -0.6676535 -0.088100985 0.16732879 0.9940409 -0.34427622 0.6978039 -1.149445 0.071248844 0.68310946 1.2947528 1.2287917 0.3010616 1.2194502 -0.3518876 0.7471167 1.1656249 0.36514664 -0.09110543 -2.10957 -1.143557 -0.3885191 0.35403818 0.29106253 0.34634075 0.20276791 1.7679633 1.3067703 0.3491145 -0.023345038 -0.40506524 -0.53338134 -0.23875836 0.7855593 -0.4675922 0.06982272 1.1153438 -1.3868439 0.34589228 -0.8338915 -1.2160562 0.67645043 -0.69425476 -0.30603465 0.123119734 -0.52822 0.30958003 -1.2138013 -0.69055057 0.106582455 -0.6409189 -0.086731814 0.73804927 -1.3310167 -1.3441514 0.66177946 0.5302185 -1.5310795 0.43118268 -0.8747669 1.3096843 -0.5283733 -0.7669247 -0.6600229 -0.59265184 0.9643858 0.16163792 0.43142152 0.21215959 -1.7330765
679 -0.074455485 -0.1931145 -1.2718208 -0.6974972 0.4933381 0.2229438 0.40296337 0.22314389 -0.8550595 0.6170404 -1.045833 0.89798576 0.39594468 0.7045752 -1.1468875 0.8874328 0.6488718 0.519321 -0.7747003 -0.30956548 -1.86674 0.44996476 -0.8697798 -1.6259263 0.495348 -0.80477905 -0.75279915 -0.5249573 0.202219 -0.31301025 0.13458087 -0.64145523 0.26256484 0.9969255 0.38389894 0.3128086 -0.7968179 1.0453972 0.1882876 -0.01841444 -0.12990831 1.0297143 0.41326588 -0.5506919 0.83811206 -1.2195963 0.3420591 -0.44439313 -0.18830872 0.526147 -0.71733737 -0.30206615 1.7621062 -0.234368 0.7259612 -0.48133308 0.18361956 1.0092086 0.13632429 0.08388483 -0.36115333 -1.4935364 0.89219594 0.19832008 1.3683366 -0.56790394 1.1083386 -1.1477734 -0.28336078 -0.47993118 1.5545932 0.20722437 -0.29089043 0.106922224 0.6445062 0.17659952 1.286789 0.23648044 -0.45902413 0.59665763 -0.20429245 0.09360683 0.8526772 -0.6388567 -0.7459961 0.4717573 0.47864503 0.25076047 0.16202259 -0.3755441 -1.1194583 -0.6576052 0.5155244 -0.64997035 0.83977854 0.91052645 2.084961 1.1040535 -0.020330213 0.7813633 -0.7744288 0.80483687 0.1567658 0.047747694 -1.471873 -0.20211542 0.11575854 0.2690093 0.3290528 0.41446117 -0.2116559 -0.49751347 -0.37425643 -0.16378126 -1.0268353 0.1462917 -0.055735435 -0.97587025 -0.03630188 -0.217507 1.7147905 -0.31722564 -0.9053268 -0.49518907 0.13832678 0.37159622 1.0653398 1.2822175
697 -0.3123216 -0.3175799 0.21769713 0.6793778 1.4650549 0.3276562 0.33718243 0.5127549 1.5125908 1.072697 0.03960211 0.7235937 0.9744633 -0.10133395 -0.5697836 -1.3982532 0.3419561 -0.47162262 -0.54409105 -1.5599374 0.24935293 -0.19778457 -0.82217574 -0.29395828 0.3868321 0.78250754 0.926902 -0.06604108 0.46838546 0.2548896 -0.44478706 0.1942553 0.4102583 0.12190485 -0.47043872 0.123926856 -0.4348562 2.168745 -0.31264308 0.083629765 -0.22700134 0.3281416 -1.7032925 -0.44477355 1.5882561 -0.16126041 0.15170358 0.63266647 -0.010373663 0.60706824 0.07678977 -0.49183527 -0.62123996 -1.7549706 0.15673047 -0.69186777 0.9502006 -1.4404445 0.09937911 -0.85727257 -1.1775981 0.345402 1.1812899 0.5608545 0.96455556 -1.4461269 -0.29472896 0.47451237 0.4738382 1.63709 0.29622385 0.37622085 -0.36415 0.03533506 0.42094648 -0.1775236 -1.1398375 -1.6147257 -0.99254155 0.5151718 0.2734408 -0.8138084 -0.88903385 0.7273318 -0.5165209 -0.2486072 0.35866028 -0.21809158 -0.41932684 0.20960669 -1.0109565 -0.060394194 -0.033022095 0.05247921 -0.25069538 1.0035274 0.9870773 1.6212361 -1.012131 0.39718375 -1.117079 0.9216493 -0.15483782 -0.5306891 1.5170493 -1.0404835 0.46669638 -1.00919 -1.1496022 -1.3634424 1.0264465 -0.14531858 -0.5587607 -0.020545503 -0.41670966 -0.6226596 0.26219648 -0.33585906 0.40123785 1.4691294 0.53484875 -0.47668085 1.0055661 0.2008736 -0.47332647 0.67928267 -1.0480106 -0.38748798
758 0.08081003 -0.299037 1.0602939 0.45382947 -1.124776 -0.042802405 0.53443617 0.31014684 -0.41458938 1.3551036 0.02214571 1.0811919 0.21974623 -0.99725705 0.12669338 -1.941636 1.1262147 0.20437868 -0.41428638 0.21548492 -0.7958279 -0.33919045 -0.059068732 0.34696382 -0.5921569 -0.06625681 1.6443434 -0.13850069 1.2139696 0.62612104 0.057497032 -1.155999 0.3663125 1.0072157 0.7522289 -1.1430683 -0.32717127 -0.17157972 -0.225475 -0.7550941 -1.1329508 -0.16469671 1.6429471 0.37972307 0.5688684 0.43865386 -1.3381739 0.39571843 0.48661178 0.21403313 -0.14756308 0.38425174 -1.0021634 0.5562944 -0.26740998 0.86928576 -1.6694927 0.2869809 0.62737375 -0.26471198 0.35739398 -1.8148717 -0.09487155 -0.80656 1.4795659 -0.25087306 -0.30669373 -0.091333166 -0.6063612 -0.45490378 -0.6957839 0.108435296 0.31292784 0.31548515 0.019471746 -0.15552825 -0.7581973 -0.5075535 -0.43369666 -0.9680079 -0.015065624 0.057376973 -0.44692194 -0.93343997 1.143413 -1.7979711 0.10709801 -0.15590695 0.02432066 -1.0829533 -0.16238466 1.1147281 -0.35162893 -1.8247539 1.0113451 1.7003362 0.29625082 0.7836911 -1.1363214 -1.0189053 0.5030903 1.2041521 -0.33585694 1.3549358 -0.79744685 -0.049591884 0.65062743 0.1505707 -0.25207344 0.18774363 -0.5242234 0.08236347 -0.16338082 0.48878884 -0.20283459 -0.5534671 -0.6425393 0.56333536 0.59198177 0.050696563 0.94165426 0.7841956 -0.7257063 0.6059924 -0.4125041 -0.20463349 -1.1994859 -0.92078847
562 -0.7054687 1.1063391 -1.85323 -1.2704284 0.4778072 -0.60314894 -1.5686554 -1.0258836 0.06431872 1.704256 -1.0957751 0.69242734 -0.82064134 1.0667578 -0.8064471 0.83223265 0.36496943 -0.97521186 -0.1002242 -0.62143224 -0.5351485 0.82905364 1.6458033 0.5606436 0.6682525 0.95227057 -0.7390444 -1.1149873 0.5900363 0.12918468 -0.8553729 0.2521114 -0.030910894 0.56744504 -1.0515056 0.14006092 -0.74241114 -0.6250756 0.008323694 0.6666031 -1.8232236 -0.13518119 0.34255597 -0.23724017 -0.5280184 -1.5345155 -0.24874757 -1.4352255 -0.3744454 -0.42398968 0.33286926 0.5458955 1.2009964 0.8546244 -0.59836435 -0.45686626 0.14864361 -0.4943 -1.6734998 2.0861182 -0.22332716 0.60961574 0.27749053 0.670109 -0.56263876 0.81782067 -0.2805924 -0.5665584 -0.7955722 0.32383472 -0.8139354 0.3277738 -0.5980731 -0.16136906 -0.3933338 -1.3226701 0.45929745 -0.032543182 -0.2912645 -0.13747941 -0.87480205 -0.3380647 0.617018 -0.09627301 -0.39635956 0.67472327 -0.19789714 0.025430338 -0.69184244 -0.5145955 0.44813994 0.19759949 0.88433474 -1.3252605 1.075304 -0.10121954 -0.6617417 -0.09889576 1.6131871 -0.24430586 -0.6573302 0.32296282 -0.4258344 -0.56733865 0.3475557 -0.49322933 -0.18731374 -0.7392153 -0.40529904 0.24961157 0.5432183 0.19656564 0.6210189 1.3755637 -0.4063395 -1.3135703 -0.21895443 0.64080095 -0.36724415 -0.4502893 0.39212 0.4209428 0.9991169 2.0953665 -0.074973166 0.31567234 -0.2218859 -0.96525913
141 0.36719975 0.016766379 -0.033326454 -0.14790706 -1.7020193 0.2089583 -0.808869 -0.8475506 0.84504324 -0.52956975 0.8126295 0.051284164 1.3380823 -0.05291958 -0.6681088 0.5593673 0.42771295 -0.031095503 0.7657538 -1.8346248 -0.41874692 -0.5169579 1.138434 -0.87246436 -0.13370043 0.578526 0.32584712 -1.0513215 0.68603355 -0.67068523 0.54151785 -1.3544409 -0.6202809 0.34440744 -0.32029313 0.4999286 -0.49229905 0.17183878 0.9634437 -0.20306113 0.5339342 1.1253569 1.6567731 -0.5600607 0.8080655 -0.15060385 0.45044556 0.020913612 0.11008855 -1.491618 -0.52616894 -0.51292 0.004861545 -0.010697412 1.8043767 0.1784357 0.49753094 -0.4888123 -1.2872407 -1.7159483 -0.19307876 0.53360856 0.90638745 0.46584737 0.7188233 1.6614934 0.23635688 0.54158545 0.117914185 -0.30268756 1.5426328 0.35470206 0.42622656 -1.5129557 -0.63088244 -0.6181488 0.21398582 0.17145905 0.68320024 -0.10375871 0.33096486 0.0749966 0.68134356 -0.68969715 -0.29629192 0.864226 -0.64609087 0.20074105 -0.83042824 0.30636793 0.46610972 -0.79552937 0.58847773 0.2548618 0.0031670895 -0.9663619 0.11674873 -1.3334053 1.1585778 1.0484601 -0.4537868 1.4311464 -0.08363998 0.81205857 -0.46228805 -1.5704348 0.73617244 0.022484431 -0.16610485 -0.15401316 -1.4487686 -1.8540558 1.6067368 0.35763374 -0.2277355 -0.44867662 0.4298272 -0.12835708 0.47803682 -0.367539 0.50790256 -0.5121476 0.34342963 0.9311648 0.24766672 0.21668784 0.07402548 0.7345983
386 -0.61827666 0.3630806 0.07011997 -0.028119858 -0.56473255 0.4369737 -1.4908909 -0.12176098 1.1119674 0.3236546 0.23047324 -0.27507913 0.3668454 -1.5235221 0.517177 -0.051716562 1.0924754 -0.5628105 -0.5204612 0.12628672 1.667414 0.8216752 -0.7325429 -1.364332 -0.50388646 1.2233741 0.14571586 -0.2654092 -0.63326865 0.2671424 -0.30909675 0.07550437 0.54275715 0.1617995 -1.0704099 1.5716616 1.1398277 -0.8621581 0.7900971 -0.056285653 -0.54657537 0.3738501 -0.7050292 -0.7611376 1.5605367 -0.6883253 0.7565147 -1.1968894 -0.7164132 0.09812229 0.4066075 -0.7586372 1.0947584 1.0147431 1.0764016 -0.25759858 -0.43941543 1.5346235 -0.70997155 0.9918774 0.22827329 -0.48786402 0.4909651 1.1570927 -0.59654456 0.85378754 -0.055072475 -1.812597 0.12422842 0.48373652 0.13946222 0.55375105 -0.16430993 0.95334 -0.2775417 0.96088153 -0.2019095 -1.1550081 -1.2480507 -1.5918059 -1.0612109 -0.1141608 -0.41157106 0.020255987 -0.19213562 0.15659697 -0.3754333 0.107063435 -1.565796 0.09403402 -0.45197907 0.55538875 0.43597487 0.8026528 -0.2483149 0.060517184 -1.4134134 -0.634112 -0.39300242 -0.051694002 -0.315486 1.1835045 1.2575841 -0.1486093 -0.9035009 -0.09029088 -0.08688959 -0.5305004 0.6678074 0.19004448 0.7112347 -0.3899018 -1.4173647 -0.5708972 -0.8935263 -0.25785303 -0.7405127 -0.03420625 0.7034438 -0.22192942 -1.1147417 -0.4613798 -1.0378321 1.5248585 0.38995808 0.5010973 0.50927943 -0.4316808
46 1.1338532 0.15640742 -1.6292903 0.75520295 -0.4471973 -0.9291279 0.024315208 -0.21177548 0.9446165 -0.40414616 1.1269716 -0.9255818 0.5988293 -0.5821674 -1.2841599 -0.036768008 0.2543337 0.5040992 0.96543163 -0.48725647 0.33523655 0.32300612 -1.1299981 0.8623293 -1.1577935 -0.12173877 0.7159396 -0.6279476 0.08568339 -1.199219 -0.7982085 0.14962111 1.0557685 -0.97709507 -1.2797798 0.13499105 0.6972624 1.1944607 0.48344347 0.7188437 -0.89295095 0.49986088 1.7724485 0.8233494 0.57562494 -1.1659346 1.1689138 -0.56655073 1.7788169 0.23626402 -0.60275835 1.0176684 -0.1574231 0.43918884 -0.8354638 0.8256775 0.9216013 -0.65178466 -0.05189889 0.18364947 0.2741613 1.0610703 0.13738889 0.66083205 0.9075161 -0.2919271 0.46851394 1.2212366 -0.52471393 0.08635458 -0.7048495 0.94696546 -0.47749537 -0.47599247 -0.61504936 1.0056602 -0.30333877 0.90441364 -0.8127319 0.17161553 0.41901794 -0.2867431 -0.09735386 -0.24678575 -0.14751515 -0.15548848 0.48075292 0.599427 -0.40535808 1.1926835 -0.23387352 -9.718096e-05 0.21521786 1.1235206 0.07941578 -0.09087846 -0.08629311 -0.4658392 1.4506434 0.36983818 -0.29945657 0.29856086 -0.19424617 0.22049913 0.78411937 -0.3734299 0.8035839 -0.37982276 -0.27445802 1.066576 -0.07548745 -0.9758081 0.98611325 0.45680752 -0.4492769 0.16009009 -0.94447315 -0.10042186 0.1689843 1.0007396 0.79178494 -0.40609184 2.3867998 0.99296796 1.7829179 0.9924627 -0.36377755 1.351697
272 1.076462 -0.07775033 -0.18283987 -0.17453682 -0.57314587 -0.091146864 -0.089513615 -0.1764325 -0.68520945 -0.03714301 -0.77101123 0.9429724 0.6944147 0.016009856 -0.3874011 -0.3090264 0.66161555 0.24794397 0.82293046 0.0634579 -0.4872776 0.43035367 0.3294969 0.9132817 -0.6335576 0.18834445 -0.3238701 -1.5250981 0.9102766 -1.0446799 -0.37771645 -0.4551556 -0.46439514 0.23075992 -0.024117762 -0.10442934 0.4329318 0.9181815 -0.34848732 -0.6779217 -0.33440724 -0.29300147 -0.3201596 -1.0582471 -0.9497663 -0.6935269 -0.23223998 0.44267672 0.20783655 -0.8894254 1.1976916 0.35510975 -0.3846896 0.16904223 -0.81624717 0.90300155 0.2457563 0.9468109 -1.1652402 1.674886 0.7149469 -0.32817426 -0.84237504 0.4368235 0.22686388 -1.6229926 -0.28028983 -0.08622934 -0.10189546 0.29119837 -1.2365291 -0.86001503 0.08731277 1.2302432 -1.4899982 -0.01641997 -0.5530376 0.08295362 0.49090654 0.74142087 0.6055762 -1.9799454 -0.28389636 0.0056394404 -0.4846044 1.5183192 -0.08844341 0.93862224 -0.28378156 -0.5058857 0.43143725 -0.084258124 -0.37201405 -0.95913935 0.0060440246 -1.620473 -1.3436993 0.5347278 -1.264779 -0.71374726 0.33635074 0.12447458 0.1010912 1.0575399 -0.5386808 -0.64137405 -0.46824563 -0.8338736 0.026081646 2.109524 0.19000193 -0.59751666 1.0007683 1.0379503 0.46082023 0.5071428 -1.0243013 -0.55824226 0.17548838 1.8091439 0.5442694 -0.58989674 -0.4205372 -0.28553647 -1.6652684 -1.3752038 1.3716339 -0.3617851
771 0.2286935 0.81402004 -0.226773 -0.21287279 -0.118377686 0.64120466 -1.8850867 -0.6895226 0.5618581 -1.0111296 0.26723436 0.90342283 0.07382804 1.1103687 -0.5145523 -0.83672297 0.19026533 -0.30888632 0.4249172 -0.14774288 0.30095991 0.29195112 -0.39346233 -1.0867724 -0.90555054 0.9628234 -0.0021326882 1.587099 -0.47176886 -1.3215375 0.28847492 0.8557105 -0.46290368 -0.35693252 0.7476003 -0.0033560323 1.9459271 -0.20130166 -0.004210663 -0.70183575 0.055201914 -0.38151553 -0.6538931 -1.7227715 -1.5759907 0.80099 -0.68801814 -0.6326795 0.4731412 -0.040546175 -1.0042346 1.1688272 -0.9875766 0.43530568 -0.7100556 1.282584 0.68406624 0.31299174 -0.029409474 -0.3909049 0.67132944 1.1210358 0.9037361 -0.43545064 0.26251677 0.31798834 0.42905316 -0.40891486 -0.67786753 0.7942021 -0.878906 -1.1580865 0.82960975 0.46849957 1.7477424 -0.18127994 -1.1532493 0.33404666 0.37204367 0.26880795 -1.464746 -0.23324594 0.7609029 -0.9051209 -0.87937737 0.09446248 1.4431665 -1.2443304 -0.273424 0.75118667 0.004783343 0.23060176 -0.3824925 -0.9667241 0.5943987 -0.6009462 0.18376413 0.97183377 0.0109267365 0.48215416 -1.2677716 -0.17072275 -0.16900027 0.38534114 0.9191403 -1.0659124 -0.80095464 -0.22100745 1.4194815 -0.3556884 -0.8210004 0.14902216 0.6350406 0.8399578 -1.867861 -0.25992078 0.577575 0.030236522 -0.12058326 -0.29578847 0.01282225 0.10964421 0.27741253 1.6409642 -0.08932089 -0.14350168 0.1534727 -0.6212046
513 -0.3019844 1.270914 -0.78587097 -1.0828278 -0.025052477 0.10949267 -0.008311669 0.45446423 -0.7967421 -0.81883955 0.77739775 0.629867 0.13089289 -0.45930266 1.9000766 -1.0574138 0.34212002 0.6484404 -0.085531734 0.014596964 0.6507681 0.7558757 0.7901288 1.4036654 -0.13583048 -0.10790508 0.31059173 -0.7895555 -0.832425 -0.32259712 -0.22830503 0.3921534 1.1868132 -0.005389625 0.21901233 1.5003948 0.009022854 0.57743216 -0.3358865 -0.3464919 -1.3426071 -0.23904647 -0.6902765 -0.83646536 -0.5348548 0.6393726 -0.55316156 0.084181145 -0.2605132 -0.7312589 0.5727823 1.4413077 0.89074993 0.1842901 0.040534746 0.20682219 -0.1664443 -0.43052372 0.38190445 -1.0245868 -0.40663728 0.72198904 0.4779317 -0.14193696 0.28613177 -1.2825396 0.3533589 1.2278066 1.611336 0.39661527 -0.044966355 1.1408534 -0.0061566583 1.0157877 1.0633533 0.044640064 -0.49757016 -2.3561096 -0.5718484 -0.13043356 0.8545279 -0.059959546 0.24202593 -0.09951444 1.9110143 0.97434586 0.20190048 -0.23225927 0.03827272 -0.80002296 -0.1268863 0.77335715 -0.6352313 -0.115010835 1.0805285 -1.3971112 0.44631454 -0.4405522 -0.82296836 0.1951652 -1.3416952 -0.9080502 -0.646473 -1.0167902 0.76198626 -1.0865488 -0.258939 0.46627107 -1.0346694 0.29588947 0.36056963 -1.657538 -0.4845035 0.80726945 1.1032159 -0.95560026 0.40106347 -1.1779895 0.907234 -0.52120036 -0.23169178 -0.5055788 0.16564514 0.6405441 0.38971207 0.45524237 0.17127983 -2.1349945
769 -0.12853146 1.488929 -0.3566018 0.24903809 -0.26746488 1.1316962 -1.5455905 -1.2011526 0.12843597 0.080814265 -0.47441798 0.69570726 0.24178922 1.3987962 -0.42430303 -0.9300425 1.258644 -0.2223208 -0.16869767 0.7634315 0.8121765 -0.0775285 -0.47956124 0.71397525 -0.39717582 -0.49612752 0.78905845 1.2622601 -0.90102434 -1.662589 0.5253753 -0.35862735 -0.017627155 0.6631534 0.9725234 0.0046420996 1.2644377 0.21167779 0.42198235 0.32240057 -0.73155653 0.5004804 -0.042857658 -1.0322514 -1.7145729 1.2166963 -0.8137326 -0.73776776 -0.0161619 0.021321988 -0.96716696 1.5822017 -0.69886714 0.7449482 0.75353813 1.4130468 0.44273856 0.285216 0.5294223 -0.992257 0.6129987 0.9373274 0.090851516 -0.13948278 -0.51175636 1.0106672 0.80134827 0.41024682 -0.29313445 0.8270298 -0.78649974 -0.46315786 0.3899376 0.8063226 1.7606722 0.21092424 -0.59785324 0.85160094 0.41085717 0.43361357 -1.4965006 -0.3064857 0.9316777 0.13711275 -0.38560015 -0.2801771 0.82589775 -0.6705699 0.6244404 -0.36018977 0.2910569 -0.0045608785 0.22742355 0.118591934 0.5003019 -0.6735775 -0.24605659 1.0174174 0.64403635 0.7382197 -0.5310214 0.89546585 0.5347898 -0.16029826 0.5131256 -1.1755271 -0.48563975 1.1314213 1.3119779 0.8939127 -0.93126625 0.2302826 0.12453656 -0.5095597 -1.6048211 -0.46895927 -0.45326343 -0.06891387 -0.38821372 0.33629242 -0.6753989 0.47783056 0.032584116 1.4331915 0.91367126 -0.029509569 1.1607691 -0.030296545
657 -0.3303526 -0.6359154 -0.49098134 -0.42421925 -0.276078 1.0311575 -0.39181548 0.27515244 0.3204052 0.16710204 -0.0011929021 -0.34633496 -0.17095225 0.072746836 0.032049883 0.042756524 0.825139 -0.2776238 0.38161275 -0.24026492 1.6637467 0.28073078 -0.022239614 -0.8955535 1.4911758 0.005746817 -0.83630496 -0.53881747 0.72699696 0.2242584 -0.026205935 -0.27143452 -0.3678649 -0.8303359 -0.4015367 -1.0444171 0.8220912 -0.92885226 0.510462 0.05258283 -0.8805694 -0.33105457 0.03843055 1.2791702 0.15285005 -1.3536345 0.7455167 -0.4363191 1.0509658 1.1347481 -0.7747886 -1.1787533 -0.012043468 -0.25587854 -0.25961927 0.8147065 -0.44895062 0.597597 -2.167435 1.0998696 -0.24885121 -0.17332922 0.7435388 -0.47554836 -0.7434358 -1.0486852 0.2064377 0.10401673 -0.046155065 0.8455645 -0.6435732 1.4010813 -0.96643627 1.9287549 -0.16712034 0.052111447 0.44379508 1.1905273 0.12741165 0.79074097 -0.20791166 -1.4644073 0.24683893 -0.4559823 0.033830762 1.6007499 -0.22099209 -0.8841972 -0.76035285 -0.24124925 0.6995859 -0.67159337 0.5251565 -0.26217258 -0.07195776 -2.0565565 -0.3331343 0.482148 0.80133486 0.20654576 -1.2349663 0.494554 0.050569743 -0.17720026 0.24496363 0.40427455 0.24490437 -0.59556866 -0.86895955 -1.4285295 0.3496603 -1.6036202 0.2738309 0.5299388 -1.1726182 -0.39434963 -0.70924294 0.82740366 -1.3839142 -0.27274716 0.4442998 -0.47831732 0.9590255 0.38432845 -0.12052411 1.3310444 0.36366308 -1.1020262
124 1.0273421 0.5399883 0.27501515 -1.0061896 0.6689806 0.076968424 -0.15690303 -0.12567006 -0.89628667 0.19632187 -0.03942123 1.0928036 -0.817241 -0.3317615 0.05801238 0.4111713 -0.19947855 0.099022314 0.76351124 0.8705278 0.68803847 -0.11944136 2.010492 -0.056883723 0.56384885 -0.10604613 -0.44643995 0.07199147 0.16894431 -0.32951164 -1.277199 -0.5609569 -0.29442847 0.70468825 -0.6023741 0.6019359 0.7895005 0.009238349 -0.5336076 0.055523217 0.5519101 -0.6731286 -0.88257927 0.46813568 -0.71218055 0.17863902 0.023190098 -1.042988 0.079180285 1.0243086 -0.65541244 -0.22748068 -0.5944105 1.4895719 -1.0478 0.7940189 0.07989442 0.29088786 0.5762316 1.7852385 -1.7508609 -0.13638364 1.3909248 1.136756 1.5712112 -0.64136666 -0.12975885 -1.0725453 -0.15681618 0.18302779 0.4919266 -0.9618872 2.232108 -0.9226488 -0.6244623 0.03601101 -1.1753347 -0.7909017 0.07231685 1.3538647 -0.20044006 0.6573827 0.27297422 -0.41609028 0.26405245 -0.7929901 -0.24829483 0.707745 -0.836444 -0.32779768 1.1596197 -1.5419338 1.3547128 -0.18955244 -0.7883305 0.42903367 0.8553592 -0.8611791 -1.243995 -0.06877663 0.010574318 -0.12411019 0.79730177 0.66209376 -0.8436 -0.16080518 0.9620282 0.50001454 -0.8108006 -0.15737377 1.1303501 -0.19971645 0.8432719 0.8234966 1.0809803 0.13579023 -0.6811192 0.6750965 0.7385185 0.27516785 0.32586366 -0.8397747 1.2534165 -0.7153741 -0.17849843 -0.18872042 0.12387831 0.45648453
337 0.6082803 -0.5510262 -0.5318757 -0.026478643 -0.9013185 -1.3394525 -0.6207256 -0.53058803 0.47640762 -0.3284317 0.59146947 0.37730205 -0.21338747 -0.46522263 0.4037997 1.0774759 1.004893 0.28330156 1.7520307 -0.48760465 0.16822685 -0.8188331 -1.069959 0.53548723 -0.35191458 0.45376316 0.81307167 -1.212402 1.1923107 0.9367214 -0.44747168 0.406976 -0.62423486 0.6394503 -0.7077634 0.13553905 1.9031903 1.0861944 -0.38296187 -1.7909399 -0.31436098 -0.03618351 -0.6269116 -0.8278273 -1.3520104 -0.53397346 -0.4220193 1.0808291 0.24327467 0.07660345 0.2619382 1.4405954 -0.40251306 0.7810454 -1.1975949 1.4076499 -1.287613 0.4980774 -0.2608159 1.0116444 1.557638 0.14970198 -0.14540364 -0.97895753 0.10517724 -1.311027 0.764082 1.2136469 -1.01423 -0.49746495 -0.2866642 -0.7120442 1.1173747 -0.10728449 -1.1750823 0.44572976 -0.14740671 0.58385557 0.06766094 1.3097438 0.314911 -0.855481 0.5293682 -1.2014812 -0.4335586 1.5395733 -1.8614516 0.56659484 -1.5931171 -0.8927062 -0.103753604 1.3213482 -0.47985378 -0.31699082 -0.43614128 -0.80226976 -1.3162049 -0.26178667 -0.7606398 -1.0661097 0.7065853 0.46489024 0.9898438 -0.14593425 -1.0190446 -0.19027856 0.6185571 -0.736087 -0.27641368 1.0203902 -0.03816411 0.10143436 0.28149018 0.4672544 0.0507038 0.74123853 -1.3879284 -0.17416427 -0.46415064 0.36761698 2.229825 0.1506839 -0.5649196 -0.66376406 -0.94082254 0.15235108 0.84024507 0.2909014
119 -0.020459443 0.6509367 -0.7243711 0.54510397 -0.72109383 -0.28441578 0.63771975 0.3065162 -1.3969731 -1.1829767 0.3017722 0.073841885 0.79579794 -1.5549622 -0.7355552 1.413659 1.5043385 -0.8986868 0.819306 -0.050904877 0.21323307 -0.18718152 0.14214514 -0.9342691 -0.069470644 -1.5967275 0.05597844 -0.48586142 -2.0468438 0.70012605 0.49446607 1.0863473 0.07958561 -0.59189725 0.5760767 0.9546433 0.15890583 -0.23853298 -0.55822897 0.28183782 0.23193121 0.10488528 -0.23185799 0.04819683 -1.0351605 -0.59685355 0.46878517 -0.88634855 -0.47676235 -1.1902056 0.15060233 -0.9989904 0.5257563 0.25987297 -0.10005207 0.21911229 1.8577019 0.22721407 -0.034989003 -1.6370275 1.0402184 0.031476054 -0.16095757 -0.43990245 0.9859711 0.19028702 0.8351206 -1.128585 0.0119512575 0.8005472 0.5062046 0.45054126 -0.008998275 0.96964407 -0.59905535 -0.42255148 0.027204584 -0.7867021 0.075358935 -0.2822936 0.2544129 0.42011166 -0.64343417 -0.89036924 0.38453478 2.0464215 -1.2358315 -0.11043684 -0.1901903 -0.21755704 0.20710663 0.60930896 0.08197256 0.99840724 -0.0132151395 1.0941248 0.7223197 0.24733369 -0.073837124 0.14278252 -0.57091147 -1.7360187 -0.6759344 -0.71918994 -0.9235192 0.39646167 -1.2567071 0.45188367 -0.11602588 -0.70141625 -0.16514884 -1.0332744 0.21420962 -0.4224593 1.2970448 -0.11622898 -0.597037 -0.36935094 -0.37513423 1.3151994 1.0955707 0.9409518 0.36236733 2.267293 1.4692656 0.59311754 1.0934806 0.4758638
741 0.3673056 -0.21273103 0.6185177 0.100723326 0.053017728 -0.7877569 -1.1036011 -0.12843744 -0.021867584 0.1410223 1.0931866 0.5507754 0.75660455 1.0074122 -0.8101616 0.45760885 0.7664536 -1.1136521 0.12347524 -1.3317404 -0.95998573 0.965947 0.18682343 -2.337345 -1.5761756 0.3392912 -0.72026455 0.81267595 0.17504258 -1.9268119 0.7058631 1.780992 0.54559124 0.6673526 0.15142193 -0.24499156 1.3073437 -0.40565437 0.14915472 -1.5852371 -0.24494044 0.43684632 -0.37851092 -0.9315016 0.43669575 0.23741993 0.7476869 -1.0764148 0.9372561 0.5604297 -1.5142754 0.016856568 1.1472162 -0.49502707 0.12381149 -0.13317463 -0.32656765 0.3536577 -0.33009025 -0.68507814 0.6944162 -0.0594741 1.3357611 -0.8507748 1.6993387 -0.4930808 0.9484129 -0.29099393 0.20343745 -0.4101871 0.7818531 -1.4287941 0.88839304 -0.68151844 0.6085982 -1.2804614 -0.18189035 0.28827086 -0.3559176 0.4229039 -1.3422043 0.28744134 0.4612427 -1.4409062 -1.2028726 0.31732026 1.2380239 -0.8441341 0.33197653 -0.35755 0.10497355 -0.28390786 -0.560136 -0.93013626 0.41209933 0.45899558 1.0714523 1.0563756 -0.4797852 -0.422199 -1.6422158 -0.2694259 -1.0148133 -0.4384109 -1.0134169 0.7094662 -0.34962574 -0.002619834 0.922369 -0.9510897 0.155834 0.6917232 0.13773604 -0.75396514 -1.2871517 -0.0053311926 1.2139637 -0.90776414 0.42267624 -0.29593801 0.021190394 -0.64137566 -0.2161012 0.6862676 -0.08172166 -1.0281712 -0.284984 0.4609069
240 0.6959038 0.07578565 -0.41322836 0.045490626 -0.860021 0.22907986 0.32134694 0.0008052 -0.9154857 0.106989466 -0.8979467 1.0034701 0.38655987 0.59247196 -0.93382245 -0.8634459 0.6567029 0.08289378 0.69324607 -0.13947302 -0.5095194 1.118742 0.8555619 0.5000244 -0.98276126 0.021312365 -0.6397389 -1.2203566 0.879003 -1.4643152 -0.42795914 -0.83670545 -0.28680778 0.28281462 -0.171046 0.31071758 0.09741035 0.5349415 -0.4827361 -0.5051579 -0.569133 0.07493893 -0.7015292 -0.94495386 -0.008641747 -0.7556015 0.22537905 -0.5600412 0.2955363 -0.8121087 1.155027 0.40829057 -0.24953857 -0.29613656 -0.01056472 0.8418212 0.34900516 0.94235504 -1.0891329 1.4322811 0.8522142 -0.4921992 -0.6587802 0.7195369 0.19200848 -1.5727148 -0.8354115 -0.007354572 -0.049363114 0.18971735 -0.774159 -0.75553775 -0.040570114 1.2832602 -1.521075 -0.0045193695 -0.35693228 0.1759061 0.53920656 0.74875784 0.79840505 -1.7755653 -0.2738407 0.7236277 -0.46848214 1.2807127 0.28599975 0.912448 0.009317233 0.12938268 0.8890361 -0.61344874 -0.7129516 -1.065368 0.04172045 -2.0800238 -0.5837966 0.63287616 -0.7264921 -0.45964873 0.2316695 0.22399575 -0.11338217 1.018467 -0.46314836 -0.9654023 -0.29805556 -0.74740624 -0.34038395 2.1394968 0.0707692 -0.65570694 1.3389122 0.71046257 0.3378652 0.46140552 -0.29477027 -0.58676237 -0.14840189 1.4673041 -0.17871219 -1.1107352 -0.53474396 -0.32002437 -1.5020636 -2.0493875 0.70105195 0.7357684
285 0.2775804 0.45419434 -0.40203142 0.87257135 0.6208657 0.9063998 -0.90612173 0.3646219 -0.9738097 -0.04280703 1.1401684 0.0043862727 -1.4454982 -0.57849216 0.273621 0.12532572 1.7529882 0.6834128 -0.8998239 -0.88329744 0.39027554 0.011942748 -1.0075693 -0.7240145 0.4852446 -0.71560675 -0.0648604 0.3388418 0.20533462 1.1849514 1.0508169 0.22645292 0.8211627 -0.32737496 0.54410785 0.017200755 1.3849127 0.61168045 0.66326725 -1.2954514 -0.18502896 -1.490042 0.2271704 -0.23950493 -0.37987956 0.45674154 -1.2381741 0.5915713 0.9605687 -0.20515466 0.47106937 -0.991204 0.59514713 0.5176192 1.0818491 0.22038314 0.2981568 0.124278255 -0.17159076 0.20396295 2.3100457 0.9059367 -0.45772904 -0.14431511 -1.7166343 0.2006329 -0.40976045 0.64603007 -0.20525204 0.24554564 -0.9170449 0.46636918 2.0510643 -0.7823106 0.9489586 0.35509115 1.4555582 0.6753821 0.21823262 0.5118346 1.4345384 0.2857657 0.31610382 -0.29217738 -0.8627064 -0.724721 -0.44109213 -1.1535324 0.27518943 0.22632381 0.27777207 0.48528597 0.534318 -0.8969356 0.22735885 0.40955308 -0.8779922 0.346488 1.3942289 -0.38976908 -0.00014668869 -0.374321 -0.9946179 -0.57244617 -0.41684118 1.1796168 0.2720508 -0.1777365 0.5964819 1.0061557 -0.52067286 -1.9451182 1.6425713 2.1940565 0.100879274 0.666708 0.37327814 -0.17493665 -0.24926437 0.1297237 1.564856 -0.86782277 0.34001297 0.4766767 -0.13069491 0.3187152 -0.37723616 0.17434303
255 -0.72602344 0.11246674 0.7282091 0.1836101 0.6159239 2.1515236 -0.20009282 0.91863465 -0.65315634 -1.3724873 0.8742422 0.897499 -0.28847888 -1.6353583 -0.6002939 -0.2285261 0.38792557 -0.37249207 0.19190013 -0.8354669 0.16733791 -0.35729754 -1.0577638 0.36402935 1.3116586 -0.7550175 0.5895916 -0.5744315 0.08285582 1.9120733 -0.049293008 -0.89826185 0.644012 -0.20654704 0.42138577 -0.23552565 1.1781971 -0.31182933 0.29551324 -0.5867336 0.63266945 -0.67171156 -0.094457604 0.082253136 -0.6180445 -0.5630391 -0.35240275 0.13826025 0.76342535 0.21770495 -0.37467414 -0.7783176 0.9239314 -0.51392686 0.7375398 -0.24194019 0.65744346 -0.097451895 -0.38151127 0.4081193 0.92032206 0.5474569 0.36864617 -0.7809392 -0.67795295 -0.1737004 -0.3504971 1.018557 0.70346665 1.2290378 -0.42983186 0.40206996 1.5189407 0.17644066 1.0809497 1.0300868 0.8530707 -0.44582656 -0.608175 0.83577794 0.2552645 1.1930108 0.53603244 -1.6410831 -0.30305338 -0.09065939 -0.27772966 -1.636309 1.5015211 1.0763803 -0.72936344 0.1237293 -0.096801914 -0.5473824 -0.69065803 1.0613099 -0.085843325 0.95415395 0.36276618 -0.35089388 -0.8142504 0.37819543 0.22776724 -0.9339529 -0.11709657 0.7394406 0.42222816 0.01818228 0.33647558 1.3250201 0.03389694 -1.688638 1.2664624 2.0260546 1.1784456 0.94480574 0.46983477 -0.62080103 -0.6738568 0.057616528 1.9042093 -0.38519108 0.04646691 -0.53917193 -0.75390095 0.45035604 0.030240098 -0.17321745
615 0.36791942 -0.41900405 -1.8857386 -0.57701606 1.1658801 0.6749352 -0.19600554 -0.010744329 -0.10872845 -0.034531765 -1.672438 0.7786183 -0.99386054 -1.0069631 -1.007065 0.96045977 0.62621814 0.68644714 -1.2147031 -1.4581891 -0.9322298 0.7474537 -0.51621747 -0.30615452 0.26952383 -0.6759963 -0.70738435 -0.30935827 0.6380293 0.28639627 0.12047993 -0.5255022 -0.11595562 0.07017188 0.7929824 0.37788105 -0.2807308 0.6973713 0.98736715 0.16428195 -0.05220139 0.67803526 -0.0033591557 -0.8682712 -0.01127359 -1.3928719 0.05410153 0.04053867 -1.420933 1.0006313 -0.90150243 0.48361564 1.3358117 -0.2880929 -0.25720283 -0.17425829 -0.06437839 1.4896876 0.9045863 0.28030863 -0.24324389 -1.9400933 0.50329304 0.20604923 -0.011773295 0.6035106 -0.10496188 -1.1817945 0.20803085 -0.76589054 1.4875965 -0.2174812 0.006142055 -0.58599854 1.2827334 0.85588413 0.8215641 0.22067828 0.4975502 0.14852013 -0.3114537 -0.36992922 -0.90964484 -1.1762985 0.33880076 -0.5116359 0.00028127275 0.427515 -0.64684594 1.29717 -0.91811544 0.3743691 -0.29418385 -0.14092806 0.043737624 0.23588932 1.5322403 1.5015067 -0.21856369 0.57639253 -0.53172874 1.2540865 0.3715953 0.43890828 -1.1562328 0.76578355 0.5183146 0.3571515 0.015611942 -0.1137064 0.48012778 -0.96305376 -0.17377152 -0.47770637 0.2376035 0.18411371 -0.15823004 0.0795755 -0.8584775 0.7848643 0.68511736 -0.30261782 -0.07608113 -1.1189376 0.048448164 0.14559838 1.8541057 -0.29966038
