252 128
156 0.019340768 0.3450548 -0.6233798 0.024102945 0.38156173 -0.46452546 -0.5711649 0.72069275 -1.4068066 0.77172166 -0.8203842 1.863805 0.0064795827 0.13639043 0.23822095 -0.2937873 0.3375996 -0.3432444 -1.0758381 0.027388424 0.027612383 -1.2195551 -1.4234905 0.19628651 -0.60813475 -0.114111885 -0.2499875 -0.69872475 0.48936662 -0.6750043 0.52339256 -1.0739127 -0.4725256 -0.2783674 -0.75493425 0.03619719 -0.7661088 -0.021004548 -1.0949551 -0.9089834 -1.4015137 -1.1138616 0.2759443 0.8948158 0.3005714 0.4023101 0.3597909 -1.1609876 -1.2925569 0.20489296 -0.5513835 -0.09246542 0.012527605 1.2959391 -0.93046016 0.5527032 -0.105145365 -0.06472734 -0.2791311 -0.92428607 -0.34313998 0.20914109 -0.44561183 -0.6910298 0.6441694 -0.21623442 -0.4235129 -0.19443166 -0.4905921 1.2493961 -0.2809564 -0.05637454 -0.19305477 1.7479424 -0.3771535 -0.22945674 0.34874877 -0.7682042 0.9531864 0.029565483 0.29070556 -0.5041528 0.24845153 1.2819884 -0.10271337 -1.0795093 -0.07956497 1.7035012 -0.5733451 -0.23756175 -0.93814033 0.4898077 -0.70872486 0.5911 -0.59065026 0.090049446 -0.28766593 -0.43330315 0.6636946 0.5792734 -0.76303506 -0.5278718 -0.14459708 0.20384048 -0.779665 -1.2746689 0.49959347 -0.9399341 -0.49561307 0.8422429 0.03142069 -0.71186656 0.4518596 -0.4703978 0.04565717 -0.8417285 -0.12571667 0.6339663 0.98867947 -1.4753681 -0.9453981 -0.20164616 -0.5957301 -1.0106609 -0.93143743 0.0046311626 -0.6458145 0.54859054
243 0.05320371 0.6809279 -1.4892266 -0.11059233 0.21762916 -0.28346336 -0.2780764 1.0582751 -1.4942633 0.19381091 -0.52465177 1.3681511 0.1910801 0.059351444 0.107940294 -0.6886378 1.019673 -0.342313 -0.56529784 -0.25390387 0.28308275 -0.747217 -1.4054958 0.21695329 -0.6569991 -0.68644357 -0.18534097 -0.38342658 0.5901732 -0.6567814 1.0370069 -1.0417948 -0.41727453 -0.2217882 -0.6743958 -0.5765208 -0.7381702 0.08746615 -1.3133942 -0.85999364 -1.0981442 -0.51926446 -0.08077762 0.65845656 0.88885283 0.17441303 0.61885047 -1.1683481 -0.83664596 -0.21445087 -0.20796919 0.43387374 0.73450863 1.136792 -1.1374065 0.79660416 -0.26179597 -0.38736838 -0.5052753 -0.88074005 0.18832937 0.38012475 -0.5148623 -1.0116384 0.75073856 0.5535876 -0.739276 -0.27103043 0.106926255 1.2442021 0.038216338 0.05809756 -0.41240445 2.2771113 -0.2716045 -0.073070176 0.28859946 -0.39852625 0.5970989 0.33171356 0.71770483 -0.481401 0.19750442 1.0303831 -0.9795084 -0.545828 -0.23864715 1.6331826 -0.34712616 -0.3964045 -0.3327826 0.23002528 -0.71370935 0.88393724 -0.6753208 0.057985898 -0.45519507 -0.12201111 0.7085523 0.18947802 -0.5849419 -0.4763018 -0.019102031 -0.026647978 -0.84820974 -0.6360392 0.7069997 -1.1673214 -0.7980212 0.8285731 0.15090628 -1.0778813 1.0585388 -0.7948986 -0.041822318 -0.91157967 -0.36519462 0.5565821 0.5246467 -1.0299866 -1.0606023 0.3763663 -0.27320826 -0.5374013 -0.38237998 -0.542784 -0.7147869 0.5975828
175 0.012824412 1.0691043 -1.8832465 -0.13683711 -0.12486575 0.08145356 0.20106307 1.0515621 -1.5052365 -0.2721989 -0.0856981 0.7502383 0.18614317 0.044408273 -0.07600885 -0.88036454 1.485369 -0.27228126 -0.06192906 -0.19074917 0.36018032 -0.18732424 -1.0036132 0.11171775 -0.7288592 -1.2465849 -0.031174202 -0.09128862 0.4874713 -0.717371 1.2280511 -0.72762996 -0.21797298 -0.14100273 -0.2558571 -0.9510539 -0.5444019 0.0463491 -1.3396368 -0.6520428 -0.80852145 0.019017382 -0.40964162 0.54073006 1.2436128 0.11905471 0.78157663 -1.0409058 -0.3407243 -0.37827712 0.1319656 0.8205069 1.0384828 0.8252908 -1.0857451 1.1394882 -0.21557863 -0.73614854 -0.46956918 -0.5352973 0.6883714 0.56066173 -0.21648487 -0.92421705 0.6931638 1.1351722 -0.76555496 -0.3126434 0.67364275 0.9213582 0.40457442 0.13942458 -0.37967506 2.3131382 0.055756353 0.12208845 0.4528935 -0.05104955 0.22768354 0.6648974 1.0746375 -0.19696055 -0.18060993 0.61566997 -1.5044208 0.07631975 -0.013464278 1.2845353 -0.16310328 -0.59190834 0.39698753 -0.19764698 -0.39654434 0.9813342 -0.47285578 0.11972874 -0.511617 0.067081206 0.547104 -0.014825198 -0.3858663 -0.12065766 -0.0024399385 -0.39960447 -0.6845413 0.070833 0.74306905 -1.0459478 -0.8873968 0.79738563 0.23069505 -1.105743 1.4358528 -0.9199124 -0.08754579 -0.5521959 -0.7369701 0.47533876 0.13961777 -0.40470552 -0.9071669 0.942387 0.09637899 0.035875883 -4.8973037e-05 -0.8713299 -0.3904057 0.5854026
44 -0.5952684 -0.544462 0.54769284 0.17181012 1.3279643 0.01967069 -0.8493523 0.83929735 0.30461398 -0.6222404 -0.9660405 -0.7072584 -0.07866027 0.7839556 -0.009315599 1.0119171 -1.2473767 -0.3936579 -0.36925176 0.15804727 -0.1357394 0.21746936 0.047951616 -1.1277143 0.69738644 1.1681153 -0.7692319 -1.4568344 -0.7019457 0.044252414 -0.48136273 0.62890923 1.1100522 -0.64675367 -0.009812125 0.502026 -0.67517674 0.32932034 1.6366432 1.1614631 -0.9329982 -0.7108192 -0.65614396 -0.021459712 -0.1972415 1.0805335 0.1139013 -0.5585332 1.5977092 -0.40437594 -0.1563659 -0.880448 -1.1475594 -0.50886446 0.36025083 -0.44359905 -0.9428828 -0.32712147 0.41385043 -0.06575366 -0.072491065 0.18975212 -0.6247144 0.14688477 -0.6364466 -0.18927935 -0.9717902 0.9228732 -0.83781576 0.37693983 -0.7154962 0.35170782 -1.1327535 1.1241313 0.7073778 0.1144091 -0.5765148 -0.1561285 -0.15442316 -1.1189991 -1.2069663 -0.1316518 -0.33471915 -0.04150644 -0.2988642 0.53538096 0.4454738 0.7931643 1.4846075 0.17157285 -0.70020777 0.046271406 -0.034755588 -1.4226635 0.661167 -1.3925935 -0.18621589 0.6880714 -0.022247383 0.21845843 0.7254266 -1.1936228 0.3870729 0.44676122 -0.090778716 -0.05162097 -0.67361164 0.76325154 -0.8260716 -0.3900575 -0.8932121 -0.7427879 -0.7568842 -0.15268497 0.80370057 -0.02431224 -0.12640916 -0.16090947 1.1604712 0.785362 1.3923081 -2.181217 -0.027965752 0.44174516 0.35136935 -0.6622948 -0.46944165 0.93391365
249 1.0989362 0.4041107 -0.23221529 -1.0714108 -0.7191162 0.16097397 0.25290853 -0.54667044 -0.022617728 -0.5760697 0.2878905 0.46202183 0.03661293 -0.6532191 -0.8843004 0.2949106 0.43013638 -0.032478917 -0.6660798 0.49759617 0.4409665 -0.55896115 0.60387474 -0.113757886 0.23794493 -1.2573692 1.0507408 -0.10748222 -0.41802448 0.5492482 0.12832238 0.04671332 -1.3088666 0.13799536 0.06549628 0.49476492 -0.36446384 0.68481666 -0.64478654 -1.3007395 0.4806709 -0.78500265 -0.516529 -1.372605 -0.7061775 -0.1780315 -0.7080818 0.41587552 -0.25778037 0.33105028 0.16393448 -0.16373877 0.7346023 -1.3602521 0.1429848 -0.27318338 0.67017263 -0.16018525 -0.51672983 0.46322146 0.10395733 1.3038342 -0.28260306 -1.3074461 -0.3824471 0.20305933 -1.0435696 1.1903203 -0.73305243 -0.052250013 -0.0329071 -0.8327718 -0.61720836 -0.6062113 -0.20426424 0.45089626 -0.015408468 -0.036251307 0.47045717 -0.2232066 0.4927746 0.5039808 0.54969245 1.0274514 0.5452295 -0.53545487 -0.45063117 1.3121368 1.1923836 -0.8055567 -0.57023287 -0.32867643 0.90627784 1.0191759 0.6346186 1.4627773 0.79418176 -0.030444767 1.4804771 0.50356 -0.6458856 -0.0342929 1.3873993 1.178052 1.3861083 0.82249737 0.56265956 -0.973307 0.2841216 -1.0109423 1.0611551 -0.29784414 -0.95801777 0.07669215 -0.44992933 0.30838975 0.7284003 0.44657734 0.19447148 1.0137593 0.5463961 0.23771586 -0.47823694 -0.49625826 -1.0369512 -0.10595447 -0.03995119 -1.4588724
19 -0.16500467 -0.68029106 -0.73676276 -0.1421439 -0.5449919 -0.113550775 -1.1810395 0.17548394 0.34873018 -1.4898274 0.3676596 0.29956505 0.3170168 -0.6036369 -0.081464596 0.540317 0.27089533 -0.026775036 0.40743563 -0.07982924 0.8557529 -0.28999355 0.716885 -1.5886502 0.079799876 0.29067162 1.3356937 1.2807475 0.26932478 0.44624 0.042174798 -1.4961002 0.18315688 0.46651495 -0.18629134 0.46651244 0.6213261 -0.36739433 -0.48756167 0.46672493 -0.199366 -1.1225677 0.3566642 -0.39854744 -0.4944191 0.834733 -0.6913054 -0.7281609 0.32475248 -0.5521784 1.1964213 -1.1504364 -0.61380863 1.1862596 -0.33153567 -0.35613146 -0.1428752 0.39790392 0.3071705 0.32241613 0.33047304 0.12748651 0.08675065 0.51304144 -0.81609374 -0.9854027 0.23950866 -0.6259118 -0.118620515 -0.1382588 1.454697 -0.52649283 -0.2123693 -0.077234454 0.1896374 -0.6220104 -0.2795713 -0.3988023 0.41932243 1.1235058 0.2965253 -0.4153497 0.44018266 0.19235463 0.37238732 0.32860684 -0.22229332 -0.38941056 0.14043538 0.85403943 2.6903014 -0.9850782 0.9424923 -0.8555572 -1.0021739 0.21991165 -1.0028211 -0.08552849 -1.5693785 -0.8448019 -0.3547896 -1.4572605 0.40690255 -0.6231282 -0.24355604 0.8838787 0.75351864 0.16248477 -0.22901759 -1.1877893 0.7338448 1.1378977 0.43980977 0.21537815 2.338229 -0.23098783 -0.7964085 -0.35548857 0.8473925 -0.54325175 -1.9541048 0.7929658 0.48136324 1.1420157 1.4866741 0.6493212 0.7906652 0.5645934
169 -0.26519302 -0.4081811 0.52824426 0.11399644 1.4399084 -0.40676394 -0.8967304 0.6211454 0.54503626 0.08867779 -1.1679091 -1.0458043 0.3774237 0.83997905 -0.035050824 1.0819148 -1.2470156 0.33218348 -0.3026655 -0.20012654 0.17203651 -0.034709524 0.16198128 -0.29602185 0.35960168 0.78037655 -0.63003606 -1.9306134 -0.62194574 -0.41745737 -0.11622984 0.5020489 1.594192 -0.1538109 -0.39515203 0.5355208 -1.4289753 0.052225694 1.3568057 0.69225067 -0.56639534 -0.9208997 -0.49477434 0.077950805 -0.33483 1.202607 0.5358842 0.28355536 0.961171 -0.31893826 -0.24300393 -0.5539432 -1.0692301 -0.10787122 0.2805134 -0.80263954 -0.6587655 -0.0010040902 0.20787068 -0.24803749 0.15077561 -0.6651275 -0.65093297 -0.23098765 0.00808777 -0.4532539 -0.7305367 0.9497238 -0.64354396 0.25747454 -0.55662256 -0.06682994 -1.1481249 0.6569019 1.0881685 -0.3160838 -0.79015535 0.28005728 -0.024869459 -0.76252055 -1.1348591 0.25774005 -0.20529205 0.25983167 -0.1622331 0.7470314 0.17017479 0.9083379 1.0803944 0.2838795 -0.54220617 0.33110124 -0.9507828 -1.6744096 0.07011051 -1.1232269 -0.4733676 0.46387532 0.28909087 -0.52876437 0.93582594 -1.3645971 0.50804305 0.8173532 -0.08871016 -0.50926167 -1.2935984 0.40237513 -0.71424794 -0.65654236 -0.443217 -0.8124783 -0.26716238 -0.023252144 0.42901012 0.5367202 -0.3530922 -0.44973606 0.57277805 0.5305504 1.6314274 -2.0054388 -0.32419854 0.38868937 0.35119137 -0.57806957 -1.001216 0.33962557
239 -0.20482944 0.037054118 0.3354698 0.6461285 1.582719 -0.03854867 -0.68678355 0.47508597 0.6838391 0.2592997 -1.4093908 -1.1463431 0.6950905 0.34698054 0.11874054 0.76424074 -1.0473967 0.7471447 -0.23009787 -0.37760106 -0.5282641 0.2853463 0.11502703 -0.3232474 0.3842128 0.6633856 -0.7760075 -1.7118307 -0.32874337 -0.21486612 -0.6516406 0.13606659 2.0514462 -0.5621963 -0.19493948 0.4308191 -1.8766117 -0.027050704 1.046015 0.8959893 0.17855044 -1.4023354 -0.9629949 -0.42237806 -0.18608211 1.8283397 -0.051784337 0.32828873 0.40565017 -0.39575106 -0.70891976 -0.28202063 -0.90939987 0.0884061 0.32015324 -0.27575442 -1.0109646 -0.25714526 -0.14499502 -0.18175605 0.7400787 -0.9468804 -0.9235664 -0.5597464 -0.3912579 -0.1921301 -0.50224227 1.0110427 -0.39732915 -0.41962585 -0.7719777 0.1976896 -1.1999375 1.0142142 0.8385596 -1.2335479 -0.60038924 0.33818245 -0.47486934 -0.9501229 -0.6058424 0.3623789 -0.118141346 0.30818748 -0.3242174 0.6260835 -0.5682526 0.8911018 1.1596953 -0.3922193 -0.32780537 -0.12417978 -1.3844998 -1.2659329 -0.07359467 -1.7206081 -0.6458965 -0.09687978 0.7859927 -0.6994099 1.2092874 -1.3238182 0.8930515 1.5936348 0.051285695 -0.39089727 -0.916964 0.51639575 -0.4955888 -0.4292083 -0.5965257 -0.52342 -0.61355823 -0.41231468 0.6917593 0.43515524 -0.33785486 -0.70129186 0.6350705 0.85441166 1.2503209 -1.7074902 0.065812774 0.45916343 0.09855829 -0.693112 -0.6532732 0.40389282
148 -0.5775801 -0.42421433 0.881773 -0.42413035 0.93516177 -0.23070998 -0.6181047 0.6888338 0.018190991 -0.89014465 -0.5796731 -0.78394437 -0.6944942 1.2418753 -0.26434863 0.82444686 -0.97314906 -0.36490858 -0.7412996 0.58384496 0.2807491 0.15469721 0.3150849 -0.63332444 0.20531324 0.59392506 -0.48712966 -1.864407 -0.96010923 -0.10755811 0.19107015 1.6441021 0.69482213 -0.43770754 -0.2588416 0.59289956 -0.49333978 0.32800028 1.4926109 1.016303 -1.4292557 -0.3743351 -0.18510002 0.68600845 -0.05175695 0.5560777 0.48683566 0.06577798 1.8466123 -0.5420996 -0.06323743 -0.5868022 -1.304309 -0.95044196 0.07575427 -0.43530476 -0.47318563 -0.2537428 0.92722166 -0.2761617 -0.48043358 0.33235064 0.0034640976 0.3844469 -0.055799715 -0.16051432 -1.3634627 0.9872322 -0.85707045 1.233792 -0.4091219 -0.09090062 -1.2627023 0.7260751 0.88720113 1.1339926 -0.4375379 -0.01734491 0.21702065 -0.95660114 -1.364734 -0.08356211 -0.68873686 -0.12646107 -0.28500617 1.0797815 1.2987207 0.7816424 1.1976902 0.075523995 -0.83274436 0.32846957 0.1250599 -1.1758595 0.7843796 -1.0260332 -0.0065566823 1.2126 -0.13624103 0.6891169 0.20391111 -1.0288908 -0.1388721 -0.44109872 -0.2811506 -0.2526222 -0.9125338 0.6995723 -0.9037938 -0.23565367 -0.68951184 -1.2849555 -0.456467 0.29657543 0.3871489 0.42272553 -0.3431529 0.3741793 1.0030566 0.8451557 1.900333 -2.1860876 -0.5800243 0.0036682982 0.21772975 -0.618513 -0.43035388 0.7741875
206 0.3157158 0.5882078 0.6349109 0.55153984 -0.50680166 -0.04901894 1.1432185 -1.7401135 -0.13451733 0.6352979 0.04950743 -0.5264725 -0.59505254 0.039789993 0.51917005 -0.8480892 1.2270266 1.7373921 0.14439188 0.8416908 -0.3606416 0.92926174 0.340365 1.3795452 0.41420096 -0.5241166 -1.1811142 0.6580322 0.46566293 -0.054713484 -0.46812952 0.3339065 -0.5888921 -0.33165038 0.44474578 0.60707814 1.1113741 0.04822523 -0.29523706 0.39564183 0.8663802 0.65226203 0.5324012 -0.43498778 0.11946255 -1.0503769 0.68962467 0.1882568 -0.6146987 -0.43869668 0.5592929 -0.32923448 0.07833722 1.4930507 1.4208617 0.9512751 0.78127486 -0.7135376 0.7048629 0.79914147 0.321258 -0.09916773 -0.063590355 0.12077129 0.25911734 0.71625584 0.7359502 0.37362185 -0.9341043 -0.62018377 0.48583612 -0.34152353 1.2949309 0.05680311 0.25880194 0.7264448 -1.0981183 0.031837914 -1.6515489 0.46402454 -0.64808804 0.022179054 0.34565994 0.77971405 0.47151652 -0.8165935 -1.5305688 0.57397515 0.3634135 -1.0010979 -0.21550994 0.32187238 -0.89073217 0.058111604 -0.36516243 -0.40312436 -0.40012696 -0.06873842 -0.82562095 0.09063139 -0.09379497 0.05752951 0.8326662 0.4210122 0.06313693 0.09903046 0.11186784 0.05389613 1.0804996 -1.0667375 -0.36899355 0.0015602488 0.46578702 0.58448744 0.14576812 0.18333094 0.07919354 -0.69794303 0.97376066 0.86513954 0.43150595 0.55058795 -0.010109096 0.06810837 1.1189362 0.50226 -0.4772042 -0.08511553
242 -0.25884843 1.0632341 -1.7095847 -0.19118087 -0.2658992 0.33294737 0.85599184 0.76218134 -0.9639737 -0.79317695 0.46673164 -0.030923918 -0.084379956 0.331738 -0.34649077 -0.84687483 1.7450143 -0.09423852 2.6283221e-06 0.25367615 0.3432025 0.10142649 -0.32524422 0.37268734 -0.83173686 -1.7622308 0.4335263 0.068259455 -0.0064105103 -0.93953264 1.3574328 -0.12924635 0.15560919 0.15888594 -0.15148911 -0.89016855 -0.41986454 -0.031188145 -1.170025 -0.22593974 -0.55523145 0.536176 -0.6449601 0.52174574 1.5145463 0.106053144 0.74032754 -0.2745463 -0.029623833 -0.47342232 0.80859584 1.174204 1.1653031 0.3757406 -0.8304599 1.3944756 -0.03805414 -0.558031 -0.3402441 -0.19080515 0.9457602 0.6682563 0.053850103 -0.5706027 0.7622397 1.4173837 -0.669352 -0.14461842 0.7386777 0.35015544 1.1214414 -0.22131908 -0.4957883 1.7002397 0.6826211 0.17467108 0.48006883 0.36562526 -0.066889144 1.057612 0.97654754 0.28053465 -0.6660459 0.551169 -1.6692573 0.8487775 0.47441715 0.7292482 0.0075932597 -0.6592255 1.0203966 -0.4240648 -0.20081158 0.5542535 0.027467519 0.24429038 -0.77130115 0.30399615 0.3388894 0.085334875 -0.09343667 0.35667214 -0.20994899 -0.9333131 -0.16743554 0.7154429 0.2612896 -0.64747536 -0.8712188 0.67510533 0.05494843 -1.1922233 1.7485846 -0.8258953 -0.22903031 0.36171728 -1.2275523 0.4401123 -0.17802498 0.52315 -0.352292 0.9535733 0.3569132 0.30113986 0.032989774 -1.075851 0.15103838 0.5956893
181 0.8937821 0.7327455 -0.35769114 -0.77563524 -0.6999233 0.3867728 -0.16208336 -0.39019606 0.04473946 -0.2676095 -0.12696625 0.31717804 0.45315534 -0.90870106 -0.5518943 0.27195585 0.34786424 0.520699 -0.44950217 -0.2144307 -0.016700597 -0.17226492 0.30254856 0.2742173 0.11522848 -1.1758478 1.1385345 -0.09655052 -0.21962582 0.5476348 -0.05827911 -0.066102594 -0.7220911 0.055663116 0.112977006 0.44759253 -1.0114852 0.6560597 -0.5681072 -0.9978914 0.6302902 -0.8078901 -0.5814103 -1.3183106 -0.27743813 0.37043494 -1.1482003 1.0768121 -0.4323897 0.49285832 -0.18716606 0.010110666 0.4989529 -0.7855033 0.19875565 -0.39332762 0.89919543 -0.5929544 -0.35915947 0.10681609 0.31443456 0.5966412 -0.18755348 -1.3456588 -0.44028956 0.20429932 -1.1393212 1.058949 -0.32801777 -0.7548124 0.18592782 -0.6877534 -0.94385535 -0.58839804 -0.08118814 0.1147196 -0.18188561 0.36507484 0.7441971 -0.4075727 0.22423033 0.36568147 0.9430752 0.9950467 0.9598901 -0.65369326 -0.61166054 1.4322784 1.4410714 -1.1386043 -0.288894 -0.18666674 0.6549353 1.1759945 0.75448066 1.2156205 0.5732569 -0.15092076 1.9791611 0.049183365 -0.25630778 -0.37602627 1.4978495 1.6136299 1.3535799 1.0188036 0.39519036 -0.9462563 0.6112261 -1.0311295 1.2247866 -0.13877021 -0.93340605 -0.10677915 -0.55194265 0.6489577 0.43303683 0.16056412 -0.010082549 1.3036608 0.5283031 0.10093595 -0.67757314 -0.6577296 -1.1211009 -0.103132635 -0.23768169 -1.381348
125 -0.05112544 0.3456852 0.9861086 0.47544566 -0.85640687 -0.37888387 1.4431849 -1.4943922 -1.3960098 0.38802978 0.54738265 -0.7984398 -1.1078389 0.77100664 1.4934778 -0.87440336 0.39163995 1.5599517 1.056886 0.7756788 -0.5600733 1.0413967 1.4150143 0.5748934 -0.20606633 -0.84594 -0.09400011 0.54635483 0.43129382 -0.13933727 0.81954265 0.07183739 -0.3568704 0.20416254 0.6766066 1.2471524 0.63211334 -0.074261904 0.011635594 0.26628187 1.4492638 0.9934287 0.99037766 -0.15061978 -1.0195119 0.012089925 -0.19527204 1.3147326 -0.41447845 -0.7064959 -0.16899401 0.5155656 -0.3366487 0.67295104 1.154626 1.8594767 0.2995558 -0.6242695 1.3649127 1.7587256 -0.45772332 0.3939207 0.31447685 -0.29120213 0.5238549 0.68470806 0.5393523 -0.043829825 0.97173864 -0.7343907 1.0078001 0.43962327 1.3357053 -0.70043594 -0.45777646 0.7430182 -0.2808745 -0.05933269 -1.1843877 -0.004221541 0.12698856 0.37923905 -0.013621665 -0.28649172 1.3173552 -0.25518656 -0.3316078 0.034270346 0.3521809 -0.64964193 -0.22345318 -0.72849536 -1.0200932 1.1965779 0.2378012 -0.013046832 0.101586364 0.9520745 -1.0413631 0.16349421 -0.46323606 1.1657114 0.57870984 0.00435843 -0.3154913 -0.36727914 -0.18027821 0.26610255 0.6296448 0.050844815 1.2583139 -0.2615243 -0.40650177 0.7100777 0.2713739 -0.058563933 0.51997155 0.15531424 0.99331856 0.8082867 0.18579972 1.4408698 0.45428893 -0.09684937 0.35920587 0.08054072 1.2340076 -0.61074805
36 0.08160232 -0.37352553 -0.31901523 0.55884993 0.7174819 -0.38395953 -0.68759245 0.7900399 -1.1041155 0.5563923 -0.6460076 1.855299 -0.10087521 -0.42395818 0.3705105 -0.6443563 -0.1752356 -0.19318275 -1.2765983 -0.08167695 -0.08751237 -1.2844479 -1.2644738 0.17207734 -0.35436788 0.20848706 0.11874575 -0.26428062 0.6372422 -0.3170714 0.80039936 -0.738759 -0.37324226 -0.11138264 -0.4696435 0.4837422 -0.94745165 0.7696896 -0.78811103 -0.66703254 -1.3691168 -1.2114441 0.49670026 0.79001844 -0.09163318 0.48266906 0.324371 -0.65427744 -1.702293 -0.216659 -0.5831603 0.24133912 0.4067669 0.9297646 -0.44107378 0.42602056 -0.69360197 0.6551192 -0.73365295 -1.2309545 -0.70067436 0.47393337 -0.6692829 -0.8438227 1.2776954 0.2851094 -0.6746357 -0.55028117 0.012762682 1.0673203 -0.023275886 -0.22260937 -0.046355613 1.4638928 -0.8244347 -0.46474 0.72003734 -0.92963266 0.97822696 -0.25928286 0.102682695 -0.7232067 0.17967391 1.065711 -0.03553844 -0.78649086 -0.15613946 1.1823896 -0.4964804 0.37059858 -0.9833532 0.37340453 -0.8810595 0.8763469 -0.41945153 -0.084588565 -0.37910905 -0.16312256 0.29447284 -0.08306787 -1.099788 -0.4213215 -0.35719705 -0.10893878 -0.91090983 -1.5946543 0.26311556 -1.0316365 -0.26005915 0.53428584 -0.04005234 -1.2983205 0.5533811 -0.4873041 0.16978975 -0.95270705 -0.18027674 0.43833697 0.39059657 -1.7705613 -1.2003012 -0.08760147 -0.13930841 -1.1294801 -0.9932072 -0.52275145 -0.6407647 0.65137523
250 1.596641 0.81053597 1.0153933 -0.5482122 -0.97533816 0.28753328 0.59585196 -0.28362808 -0.7216514 0.21753728 1.4229949 0.5704322 -0.46725348 0.0014611192 -0.64951617 -0.28150642 0.5596072 -0.26623818 0.17130703 0.38543224 0.39984617 -0.12141352 -0.25733316 0.5123254 -0.2740379 0.22281232 0.80718523 0.609889 -0.48715332 1.4071921 0.6454144 0.6194567 -0.46105793 -0.46767166 0.12213578 0.032708455 -0.1920606 0.08716675 0.93113905 -0.62666905 0.4199553 -1.634423 -0.3475365 -0.56403136 -1.7947081 -0.60932183 -0.5497072 -1.2094766 0.3863283 1.0285081 0.7916272 -0.40629822 -0.017117754 -0.16268013 -0.31596795 -0.9054454 0.31450495 -0.20751159 -0.8995553 -0.5974502 0.019342724 0.48956195 -0.983116 -0.34594992 -0.28112626 0.3926159 -1.7842106 0.31044227 -0.0898361 0.6734306 -0.71545994 -0.81224465 -0.49102086 -0.18441546 0.30116943 -0.116542764 -0.6264818 0.4593705 1.0538431 0.42154828 0.572837 -0.123721756 0.029099325 -0.024446841 -0.18360478 -0.17575127 -0.9425665 0.69393045 1.0602798 -0.7007205 -0.2343463 -0.3219241 0.94503284 0.68282974 0.7689428 1.8129201 0.45211312 -0.0008106327 0.3917402 0.8469006 -0.013742614 -0.65097713 0.16956952 0.97600484 0.59751886 -0.29005578 0.56883043 -1.3831915 0.0478214 -1.2376719 0.5828856 -0.5272346 -0.12912902 0.47383037 -0.101460345 0.7874272 0.48198068 -0.995086 0.14799652 0.5250772 0.99046296 -0.079827316 -0.46344712 -0.18416211 -1.3667107 -0.97832316 0.20776546 -1.9537098
71 0.158053 1.0836593 0.31147337 0.7108615 -0.23734504 0.46520656 -0.5550908 0.4143668 0.8093438 0.20445555 -0.6248234 0.7019561 1.4303844 -0.41168573 -0.20836264 -0.3967553 0.28332385 -0.28852725 0.32104114 -1.3863205 0.58893555 -0.7681078 0.7121706 -0.4872789 0.013192525 1.2844301 0.4506101 -0.23850812 0.2899406 1.3273786 0.5445294 -0.65376276 -0.13252321 -0.5626718 -1.1065987 -0.6457987 0.2708337 -0.6315827 0.7333215 0.41640902 0.08595946 1.745694 -0.18721424 0.956238 -0.144558 0.1487896 -0.8176917 -0.7854494 -0.2777161 -0.6825301 -0.30557993 0.4743483 -0.6894676 0.03234006 0.44137225 0.032345526 0.37177572 -0.2837231 -0.70778966 -0.12608582 -0.29969424 -1.4512876 -0.28969854 -0.22722553 -0.4942163 0.57036465 0.026402758 -0.24865864 -0.97401947 1.3922585 0.6119799 0.5204515 0.38811004 -2.7194731 -0.45277813 -0.32115826 -0.6523185 -0.6263978 0.8119091 -0.13484111 0.22759168 -0.6317962 1.0817152 0.11502685 -0.17709374 0.2837745 0.28804153 0.5328832 -0.43381107 0.17162633 -1.4104298 0.6398979 0.52473634 -0.33461836 -0.3928731 -0.8923551 -0.1781635 0.08698659 -0.18028975 0.31983638 0.6205352 0.09110418 -0.20610835 0.07348858 -0.72050244 0.76327556 0.6839399 0.19242875 -1.5439657 0.57372606 0.0672711 -0.6003973 0.5707728 -0.9476538 0.22961688 0.0441679 -0.1887773 0.24869506 -1.086237 0.84890085 0.062107172 -0.43726593 0.6331664 1.0535631 0.8489477 0.12096502 0.37722465 -2.0832796
145 -0.9915872 -0.5480648 -0.13920175 0.15303986 0.75671595 0.29478562 -0.8888399 0.99615085 -0.5637474 -1.31471 -0.37425646 -0.18838334 -0.23810726 0.55125415 0.22107266 1.1480495 -1.0076299 -0.98562974 -0.017838713 0.26490465 -0.25015214 0.3297721 0.34681407 -2.0461955 0.78609204 0.98824984 -0.39890435 -0.8438499 -0.95607275 0.04418451 -0.54928786 0.2003183 0.43000853 -0.87953985 0.29528737 0.7585071 0.05682675 0.5628653 1.4308268 1.166171 -1.2286441 -0.22300504 -0.7224635 -0.04811548 0.14335929 1.2105885 -0.078795984 -1.1733007 1.8506434 -0.60814434 0.3778642 -1.2737808 -0.98878556 -0.51236236 0.8489411 0.16018493 -0.89917785 -0.5979071 0.79451615 0.017207546 -0.31738952 0.97152877 -0.44597778 0.1134294 -1.023354 0.043680854 -0.9176104 0.86425555 -0.41896197 0.2630519 -0.3432131 0.7606656 -1.4356115 1.2839175 0.3977023 0.6470373 -0.33729732 -0.32002202 -0.007606193 -1.0006392 -1.0345012 -0.21485068 -0.5634321 -0.18808404 -0.26054648 0.39159122 0.703049 0.93766254 1.6342646 0.00507066 -0.6210825 -0.30961207 0.9047192 -1.0530614 1.2701204 -1.0330383 0.3776728 0.885127 -0.044572785 0.53634185 0.3111038 -0.7798286 0.39028847 0.010194597 0.07860966 0.850343 -0.081656225 0.5955418 -0.73161536 -0.40579402 -0.56269073 -0.7848948 -1.2084961 -0.3083713 0.9659989 -0.4138777 0.17430696 0.16253553 1.6268735 1.028923 0.95412815 -1.9838816 0.24400605 0.5021417 0.45561856 -0.77459836 -0.060590412 1.1374688
189 0.42479134 0.3275029 -1.0038209 -1.0633179 -0.39706936 -0.15191592 0.26893026 -0.82603955 -0.41311753 -0.49532375 -0.52713627 0.33500406 0.5922976 -0.46769193 -0.983494 0.57698697 0.15991524 -0.2693379 -0.5066417 0.48139977 0.61214095 -1.047672 0.8087469 -0.5158983 0.24645634 -1.4229091 0.9160788 -0.82637274 -0.42171466 -0.017947594 0.03199455 -0.31659883 -1.2843927 0.54957855 -0.046157543 1.1195531 -0.25306094 1.0274394 -0.8375034 -1.4156086 0.460323 -0.029906498 -0.42910406 -1.0289378 -0.0858645 0.0930425 -0.36744475 0.6931644 -0.48819774 -0.1330393 0.08748329 -0.4501892 1.0831902 -1.4939766 0.5446179 -0.21302983 0.58483505 0.33553284 -0.2772335 0.7816289 0.030510785 1.1757079 -0.38202524 -1.5719086 -0.047677886 -0.17895313 -0.03279164 1.1733459 -0.7290369 -0.54006433 0.14620054 -0.57734376 -0.34313273 -0.4962574 -0.16526331 0.3770059 -0.16622443 -0.15439956 0.4841329 0.1251182 0.41528147 0.6824222 0.2016711 1.2001765 0.3671353 -0.42288363 -0.23665838 1.4182227 0.757243 -0.9200778 -0.36250764 -0.42958856 0.5474647 0.66729987 0.52743536 1.3643751 0.9916562 -0.29146096 1.7674986 -0.19329247 -0.59966314 0.09636761 1.9490159 1.363463 1.2577232 1.0754107 0.031628657 -0.8313453 0.4859467 -0.7169041 0.89581513 -0.19352351 -0.77921957 -0.2938986 -0.62650573 0.32001683 0.7994324 0.443547 0.022874547 1.0325178 0.34580407 0.020183532 0.095184885 0.03863441 -0.027649032 -0.07398427 -0.33664948 -1.2905515
218 -0.0710127 0.19706173 1.0838453 0.47180834 -0.5154335 -0.18424147 1.3301015 -1.0817258 -0.5127923 0.119068235 0.37440687 -0.93629533 -1.2912806 0.37767404 0.55954057 -0.7894681 0.83703554 1.2966499 0.5235878 0.78938305 -0.38255307 0.7151042 0.4673995 0.56776875 -0.39964065 -0.5183294 -0.5998133 1.2886236 1.072622 -0.31056756 0.8753993 -0.69244874 -0.37957865 0.40529156 1.1213876 0.7337363 0.4032396 0.082694285 0.15635729 0.47975174 1.190375 0.652422 0.58057296 -0.5876215 -1.252863 -0.29193717 0.24099857 1.16568 -0.96695197 -0.98220575 0.23611921 0.7020823 -0.16577786 0.81872237 1.1700507 1.5010635 0.19131203 -0.23453303 0.7581068 1.2639889 -0.5450542 0.25209123 0.26145282 -0.6539169 0.9252913 0.8094523 0.41439646 0.13409577 0.7447272 -0.76519066 1.5288548 0.4664455 1.8184553 -0.42620656 -0.5661437 0.24595815 -0.4363758 -0.31381732 -1.4773546 0.21575412 -0.25030506 -0.07115556 0.22192395 0.7920902 1.3268273 -0.5642777 -0.8551469 -0.32388705 0.7246155 -0.0035424929 -0.38720566 -0.46283397 -1.5621394 1.3986264 0.33887216 0.17460722 -0.003162591 1.1415689 -0.9716544 -0.38163647 -0.16205236 0.68479955 0.5451404 0.5399972 -0.25518516 -0.40525064 -0.39329213 -0.2588872 0.4913453 -0.36714655 1.0974393 -0.26405662 -0.5242048 0.68494225 -0.4041296 -0.21640868 -0.016433688 -0.1591011 0.9154665 0.2762033 -0.009709934 1.4752958 0.7083732 -0.6046457 0.7828792 -0.09567964 0.82019615 0.16846374
13 0.20492853 0.44389522 0.65898293 0.78103316 -0.42104873 0.52694046 -0.44004148 0.46880412 0.79687035 -0.2657808 -0.7093673 0.77793735 1.5977523 -0.4920298 -0.526101 -0.026420545 -0.14033285 -0.15133777 0.30364376 -1.7286075 0.73867863 -0.6566374 0.47095218 -0.62004226 -0.024180984 1.4809281 0.43688485 -0.120525226 0.3877801 1.165643 0.57902724 -0.80806565 -0.12294446 -0.08188831 -1.1344671 -0.08902385 0.29725564 -0.17042875 1.1809685 0.5625366 0.5674582 1.9416785 -0.053689774 0.7570876 -0.48852354 0.06269593 -1.1510895 -0.60378575 -0.18618785 -0.8916408 -0.022141103 0.7990745 -0.8538049 -0.68945384 0.25866818 -0.20858265 0.43736067 0.10638544 -0.7237675 -0.13389733 -1.0578643 -1.462413 -0.5858205 0.0022152516 0.037774693 0.7418646 0.1657281 -0.71652955 -0.8632071 1.1941493 0.55584496 0.41484648 0.45410788 -2.6782787 -1.0498185 -0.23135038 -0.48299223 -0.36316663 1.1757237 -0.4721676 -0.038068444 -0.654974 0.6439646 0.4819384 0.003410957 0.4906491 -0.31721017 0.23802704 -0.104260944 0.42389524 -1.6332787 0.15737557 0.3478778 -0.08785477 -0.039617993 -1.2038505 0.059137933 0.08320989 -0.19513212 -0.3695421 0.73908496 0.019111823 -0.55558985 0.3120402 -0.6620755 0.69041306 0.3259112 0.2740815 -0.8787327 0.56708837 -0.01715771 -0.38083932 1.0581119 -0.94282365 0.04625128 -0.35637006 -0.4262461 0.3694768 -1.2208401 0.6630104 0.08325336 -0.25645888 0.62021786 0.40643242 1.1060764 -0.4014149 0.23923664 -2.2412424
132 -0.14749886 -0.8802873 0.18838322 0.7570169 0.5538038 -0.21079953 -0.46286756 0.57466716 -0.80952793 -0.008674142 -0.49111393 1.4996696 -0.28279626 -0.41992062 0.30638427 -0.5133611 -0.31083325 -0.08623008 -1.2402579 -0.049999304 -0.19051193 -1.3437401 -1.0170918 -0.13887462 -0.24385206 0.21696001 0.37974393 0.20822753 0.52190393 -0.107487485 1.009621 -0.6471564 -0.36931047 0.21703817 -0.026451949 0.76305354 -0.9930561 1.3069838 -0.05092323 -0.50112474 -0.83875614 -1.0460085 0.7266928 0.5380309 -0.7899408 0.51636106 -0.18205197 0.24445473 -1.7604336 -0.6478745 -0.6814511 0.6060615 0.33220237 0.21432413 -0.07500146 0.43884024 -0.8309841 1.1734335 -0.81454426 -1.2567389 -1.2224243 0.4617853 -0.5799238 -0.73829615 1.7278994 0.71531314 -0.82343876 -0.6442791 0.4505128 0.64098865 0.35181278 -0.18859047 0.073397785 0.9985389 -1.2630152 -0.58677924 0.7146791 -0.85227174 1.031631 -0.41211674 -0.40708956 -0.705106 -0.15718292 1.2190845 0.28956833 -0.27549314 -0.37743777 0.59529126 0.042064454 0.7019969 -1.19957 0.07507021 -0.9850407 1.1257439 0.036215283 -0.030111942 -0.10732606 0.20451245 -0.28345153 -0.6637576 -0.9907726 -0.12545912 -0.63938695 0.1579854 -0.90411043 -1.7950252 -0.4296219 -0.9136771 0.043905128 0.39328393 -0.09219817 -1.4076725 0.44709334 -0.3814487 -0.11579291 -0.84663236 -0.3307706 0.18759006 0.14231175 -1.6714729 -0.79385847 0.21575664 0.24438812 -1.3938601 -0.6967831 -1.041283 -0.4291523 0.6837834
124 -0.85642076 -0.3151154 -0.0207394 0.2597066 0.07368749 0.2471217 -0.9096783 0.83098966 -1.7263309 -1.1187866 0.17654334 -0.002134976 0.048005093 0.9941098 0.8972437 1.0450795 -0.71433365 0.15629171 0.046763394 0.39432666 -0.45610747 1.0165061 1.3133245 -1.3662062 0.5803926 0.25923723 -0.18576434 -0.86323166 -1.1714349 0.36526218 -0.6087895 0.725677 -0.18420638 -0.5869385 0.3382556 0.962002 -0.06818783 0.6226714 0.90423673 0.4941638 -1.3020675 0.6420606 0.37623972 0.92799747 0.15459937 0.910342 -0.078651264 -0.05377255 1.2359211 -0.47899917 0.17321348 -0.64123964 -0.9327489 -0.29772317 1.0865619 0.4990346 -0.024498401 -0.9277543 1.5028174 0.6757338 -1.0625377 1.0712575 0.15207559 0.52485704 -0.767768 0.06603578 -0.7936311 0.5501557 0.4268454 0.2313265 -0.25708207 1.3141551 -1.2671475 0.49587053 -0.38074315 1.1579711 -0.15895225 -0.027495017 0.65493906 -1.174208 -0.6677269 -0.2676107 -0.5931726 -1.2725942 0.7087002 0.13791156 1.5324982 0.8812246 1.1429644 -0.47960055 -0.2876312 -0.97841215 1.5207032 -0.142339 1.0591785 -0.9097486 0.76078874 1.250367 -0.3804642 0.5332593 -0.5116694 -0.03469748 0.29147628 -0.7792208 -0.6828839 0.7038668 0.473471 0.50318253 -0.41599956 0.059834205 0.51408297 -0.6958057 -1.1038266 0.10748669 0.8189771 -0.23992717 0.78083634 0.4861786 1.5696765 1.2431848 0.839361 -0.80127496 -0.35954964 0.19710687 0.13538721 -0.75184315 0.18203568 0.504868
33 -0.6903676 -0.024387667 0.062442463 0.16645043 -0.38683152 -0.09081315 -0.033013813 -0.14290611 -2.3151593 -0.51337314 0.52250737 -0.5474902 -0.3172615 1.2584907 1.318903 0.1565407 -0.2654262 0.536558 0.44251156 0.74569225 -0.62862986 1.1561261 1.9450489 -0.8580782 0.24287875 -0.50539374 0.3090751 -0.9363927 -1.2053453 -0.10388566 0.12158423 1.4637579 -0.27155662 -0.6170608 0.5118707 1.2240202 0.18379228 0.47170433 0.47724882 0.07131847 -0.7084758 1.0162841 0.86421347 1.171163 0.0060985377 0.6476477 0.07792601 0.94834775 0.755433 -0.5372228 -0.31872293 -0.10118422 -1.0780506 -0.7132346 1.2567605 1.102551 0.3170712 -1.0003916 2.3119462 0.7244385 -1.0815333 0.6582988 0.5875552 0.29602015 -0.23507388 0.26982397 -0.5038769 0.37399644 0.9379351 0.30323702 -0.064846754 1.1312877 -0.8579799 -0.29006225 -0.5381424 1.5094838 0.058556926 0.08022015 0.40639865 -0.9024128 -0.5263878 -0.029019358 -0.7940976 -1.1914431 0.9345332 0.571746 1.6351384 0.7559389 0.652397 -0.9206173 -0.45018724 -0.92249495 0.7196899 0.40967232 1.0358969 -0.6284841 0.9517168 1.4475921 -0.16181721 0.7375294 -0.730082 0.48101717 -0.08717847 -1.1552052 -0.762866 0.44830745 0.15794833 0.5870267 0.019105185 0.4256118 0.84151894 -0.8283341 -0.98935616 0.5397595 0.36284068 0.11919592 0.8370473 0.72616094 1.2754036 1.8193682 0.7127139 -0.2445452 -0.5454035 -0.22932199 -0.005383899 -0.47444367 0.7349251 -0.37021133
47 0.14389953 0.7360539 -1.2741365 0.3154997 0.02270269 0.42965817 0.49447045 0.7507441 -1.5584642 -0.10184644 -0.019223228 0.45488068 -0.30527958 -0.58379215 0.08894626 -1.1703151 1.0267583 0.015553021 -0.11337024 0.031518728 0.15456757 -0.3636045 -0.8415582 -0.1339459 -0.8722635 -0.9371056 0.09075569 0.71771765 0.87294394 -0.603303 1.4618841 -0.4679888 -0.013998185 -0.4156845 0.8623448 -0.366995 -0.8958794 0.588612 -1.1027199 -0.25302574 -0.82154244 -0.33445403 -0.20583943 0.60291266 0.28852603 0.0739555 0.79373837 -0.26708817 -0.71079487 -1.000376 0.07044974 1.3492942 1.1872445 0.8030704 -0.36188588 1.3455689 -0.712509 -0.47804093 -0.61142147 -0.40780866 0.3485791 1.0883185 -0.6472057 -1.4103707 1.3866321 1.6232412 -0.75626713 -0.319678 1.1852303 0.86989844 0.6232452 0.50512594 0.24202268 2.2157032 -0.5343664 -0.10725907 0.36515114 -0.32778308 -0.28658524 0.59765875 0.79149795 -0.40272185 -0.20916998 0.7763537 -0.9546184 0.20167832 0.121151365 0.77376395 0.15165935 -0.08379813 0.18140265 -0.29954693 -0.91324604 1.702851 -0.10273611 0.11670822 -0.31632486 0.59725964 0.44757345 -0.49331388 -0.86911654 -0.024725355 0.24718279 -0.20263563 -0.85002846 -0.33696043 0.7491919 -1.34237 -0.6254018 0.7070726 0.5021817 -1.5304092 0.7234899 -0.82016516 -0.05659285 -0.7301263 -0.8281121 0.2728961 -0.067464136 -0.55805653 -1.0552856 1.2108923 0.859828 -0.1895193 -0.06525677 -0.6883727 -0.18512666 0.83633757
208 -0.019499967 -0.78901553 1.0243341 0.9795098 -0.08933239 0.11319236 -0.2452281 0.3701246 0.6238052 -0.7722854 -0.5194045 0.6920491 1.1856804 -0.6203767 -0.41941407 -0.36175057 -0.2862286 -0.013794507 -0.2915388 -1.0885888 0.17917937 -0.6803368 0.025367476 -0.46077862 0.10186381 1.3426472 0.8378469 0.36037537 0.51581633 1.0874925 0.80982983 -0.61890715 -0.26479626 0.64363515 -0.74926 0.60929614 0.0014971171 1.0096166 1.834138 0.31648535 0.28424695 0.9928063 0.31074935 0.13606623 -0.9137916 -0.09427782 -1.164297 0.5386021 -0.7609505 -0.9069262 -0.33743998 0.87399596 -0.39289415 -0.97543746 0.63126403 -0.41560555 -0.16239762 1.4470185 -0.8762649 -0.48505396 -1.6948069 -1.1060499 -0.5396245 0.25751242 0.90631115 0.68647474 -0.5076456 -1.08718 -0.18447673 0.42912686 0.5672604 0.13355559 0.49979436 -1.9247067 -1.6794004 -0.66518575 0.041692004 -0.54335165 1.4203147 -0.6373153 -0.8901976 -0.62258154 0.13690811 1.0986898 0.34032422 0.1347731 -0.6930065 -0.32352644 0.4356326 0.6692042 -1.897979 0.29775348 -0.008499942 0.42355573 0.41241726 -1.0554489 0.2951847 0.48551926 -0.7797795 -0.98391503 0.49325758 0.20767014 -1.020721 0.6493549 -0.7054792 -0.3473437 -0.5643801 0.031900138 -0.08631788 -0.17601095 -0.39100996 -0.83324534 1.0824007 -0.65630794 -0.39824867 -0.31618986 -0.7093077 -0.0953853 -0.95110244 0.19800182 -0.083235115 0.028138243 0.3104776 -0.5728196 0.76410884 -1.2136037 -0.25422728 -1.221355
37 -0.0034838847 -0.41188267 0.6567325 0.82877994 1.0602595 -0.25798568 -0.64829063 0.29319698 -0.5613606 0.73275036 -0.47225642 1.4833088 -0.9027201 -0.14012904 0.6339964 -0.00048740258 -0.57328314 0.047344137 -1.1375976 -0.16947217 -0.29921773 -0.8191451 -0.31464326 0.69424677 0.85956824 0.3692756 0.055654693 -0.39573383 0.32574865 0.5055004 0.035021394 -0.41374096 -0.31755543 -0.47266078 -0.7732229 1.7639576 -0.25561586 0.8453985 -1.1629834 -0.72316873 -1.1623813 -0.79143786 -0.35470212 1.5095264 0.34252983 0.3721145 -0.7620506 -0.7294778 -1.4913844 0.5491732 -0.6007589 -0.1704639 -0.5358239 1.1010417 -0.0072496952 0.55104285 -0.06450897 0.7824675 -0.5763647 -1.1146646 -1.206249 0.2953433 -0.45339513 0.0524465 1.2276924 -0.48332882 0.9575781 -0.7714022 -1.0696604 -0.14392938 0.72450197 -1.3050624 0.15806 -0.5686973 -0.5973421 -0.18544605 0.92834026 -1.2984912 0.92019534 -0.09846193 0.005232794 -0.7064885 -0.49557957 1.9011514 0.9461114 -0.20842852 0.58902 0.017274149 -0.8284701 0.540057 -0.23161903 -0.190634 -0.21957736 -0.5331007 0.76137686 -0.6984378 -0.7834931 -0.800008 0.6524633 -0.40420556 -0.94066006 0.20744507 0.15802203 -0.97005606 -0.29819712 -1.0376394 0.063903034 0.1975666 0.6299135 0.20963871 0.0029449982 -0.34914815 1.1750313 -0.15489505 0.3080527 -0.20562027 -0.07006078 0.0417519 0.6464625 -1.1989579 -1.2475283 -0.6382519 -0.31735483 -0.41232803 -2.499217 0.50455785 0.35306352 -0.7524326
179 -0.11769606 0.41402686 -1.4338281 -0.3554961 0.0004345391 -0.3626624 -0.09321384 -0.5221109 -0.707153 0.41806704 -1.0834804 -0.1362518 1.2966125 -0.14066087 -0.6340752 0.7020504 -0.16777577 -0.070023976 0.22311276 -0.15483385 0.3698116 -1.0473317 0.49397928 -0.16946754 0.18419854 -1.0227946 0.5955317 -1.516761 -0.29784036 -0.76785994 -0.00019505576 -0.53023285 -0.2202951 0.59080136 0.04509216 1.3692285 -1.1151198 0.99605805 -0.34216088 -1.007143 0.23288059 0.0889904 -0.52063537 -0.38569644 0.446469 0.7026009 0.3093157 1.1080933 -0.5968954 -0.101863526 -0.08452146 -0.44809055 0.6553106 -0.8294878 0.9309229 -0.44632003 0.47607264 0.23213655 0.2514523 0.30355924 0.0045506256 -0.12982301 -0.49120802 -1.6297756 0.295176 -0.3705061 0.31592315 0.9486188 -0.0350878 -1.0307398 0.08995681 -0.060338885 -0.4663378 -0.28263092 0.22697586 -0.25421882 -0.65652764 0.41017744 0.6299388 0.3142531 -0.18356758 0.5857913 0.1008149 0.88120466 0.37578756 -0.14485282 -0.10949734 1.4773736 0.36540276 -0.7704882 -0.13777691 -0.015543236 -0.35615978 -0.018818513 0.5615057 1.1593293 0.75229055 -0.15837723 2.0656018 -1.2988788 0.019261401 -0.44301903 1.9465634 1.6168338 0.93681246 0.9540839 -0.69056267 -0.83930314 0.91215515 -0.683396 0.67884153 -0.26652548 -0.32286716 -0.25989735 -1.0458037 0.66640097 0.45678335 -0.085884064 -0.51009405 0.81447244 0.56383586 -0.86824137 0.2543155 0.3151969 0.52440614 -0.19570437 -1.2001506 -1.1414089
147 -0.6587095 -0.020765953 0.33982033 -0.3830696 0.016350739 0.0016357542 0.09732248 -0.012613729 -1.4400127 -0.75870514 0.18173662 -0.78809613 -0.84482825 1.1221981 0.39140183 0.044807866 -0.17372352 -0.11762379 -0.11648788 0.9339171 -0.12714404 0.5057905 1.2936206 -0.7556445 -0.09875456 -0.396404 0.32940468 -1.2915021 -1.131138 -0.4272868 0.5493288 2.1410606 0.19289644 -0.7924622 0.3310626 0.9376343 0.104475275 0.4385421 0.7163065 0.5698733 -1.1887877 0.40305313 0.34316868 1.2097443 0.2049033 0.43848717 0.31269693 0.8552981 1.2694422 -0.75207776 -0.27891195 -0.067187704 -1.2688069 -1.2799374 0.5861083 0.6872004 -0.06863413 -0.7150352 2.014797 -0.045636673 -0.8317771 0.5521357 0.6017349 0.19405378 0.20885232 0.3774012 -0.9758179 0.63964343 0.33314088 1.1183971 0.00195499 0.47795087 -1.1217521 0.15766403 0.08566195 1.6681031 0.10356828 -0.061093736 0.14210032 -0.61696154 -0.929882 -0.009600041 -1.1102561 -0.51671785 0.22786017 1.2751491 1.7889626 0.69662505 0.7898834 -0.6292216 -0.6440555 -0.35162887 0.23894848 -0.04929733 1.22606 -0.6080073 0.6106834 1.56829 0.19507349 1.0380129 -0.4295125 -0.1402339 -0.43457735 -1.2563444 -0.45821643 0.2350497 -0.382845 0.55313057 -0.20810194 0.37122834 -0.02621804 -1.2285316 -0.7468846 0.5624479 0.12949003 0.50587285 -0.008526546 0.8130819 0.83219844 1.4945668 1.2432234 -1.2539164 -0.5166283 -0.37740654 0.061250847 -0.27953678 0.38688943 0.0494623
131 0.06450877 -0.64454526 0.440174 0.82491606 0.9494942 -0.4881729 -0.70967025 0.32270318 -0.6584878 0.88457704 -0.71927536 1.8783728 -0.5041273 -0.2952977 0.771812 -0.32392347 -0.68757087 -0.0024400032 -1.5178672 -0.07094243 -0.23453811 -1.339838 -0.83292574 0.41041872 0.34567392 0.35296476 0.37141216 -0.46843234 0.46124893 0.07471417 0.29885405 -0.49732488 -0.4033473 -0.2968765 -0.6478218 1.3921379 -0.57265073 0.8316435 -0.9310594 -0.7712914 -1.3700689 -1.1944314 0.38035637 1.045746 -0.054034516 0.5982158 -0.5439207 -0.5696735 -1.7698925 0.4253294 -0.748545 -0.25333607 -0.3369242 1.0016764 -0.15892768 0.34713003 -0.2190256 0.9647802 -0.68749654 -1.1210271 -1.0703824 0.40950966 -0.53356117 -0.21831678 1.2785263 -0.24361186 0.20065276 -0.7439891 -0.76094556 0.47964835 0.32960182 -0.89334154 0.03510817 0.1794461 -0.66150534 -0.41768155 0.8350867 -1.3997936 1.1369706 -0.3873951 -0.08547559 -0.79773897 -0.12174101 1.5396531 0.7412407 -0.63259023 0.08052189 0.72550756 -0.7761746 0.5722269 -0.79963577 0.2558971 -0.607112 0.09010848 -0.00046512243 -0.30937442 -0.47756952 -0.5352903 0.28032637 -0.021371383 -1.0922889 -0.11524422 -0.1768543 -0.53304464 -0.5453699 -1.5741777 0.017417736 -0.21969008 0.26101625 0.5036918 -0.20218031 -0.67574716 0.7258044 -0.3211429 0.36659917 -0.44330588 -0.07947496 0.35286984 0.61918515 -1.5758452 -1.1091985 -0.4721225 -0.21371706 -0.9485716 -1.8874421 0.10140809 -0.173871 -0.19311059
153 0.15532288 0.21230565 -0.82017136 0.4913807 0.31388476 -0.04477319 -0.3047888 0.8893186 -1.4849191 0.3372155 -0.44755244 1.2787483 -0.13694917 -0.49114123 0.3167152 -0.9606995 0.4841935 -0.041886814 -0.69657683 -0.22188875 0.015240702 -0.86909765 -1.241687 -0.050661482 -0.69562083 -0.31668058 -0.06520815 0.29393688 0.8845594 -0.3986502 1.2112991 -0.8882781 -0.3265391 -0.20546712 0.1970687 -0.13820446 -1.0658914 0.7617836 -0.9096789 -0.5893621 -1.1136053 -0.7804087 0.30151823 0.6391455 -0.028923772 0.28124574 0.6368152 -0.5827497 -1.3999614 -0.7676941 -0.45362636 0.8086241 0.849942 1.0062574 -0.39002803 0.85312325 -0.74315906 0.069453105 -0.7112894 -1.0150453 -0.2188444 0.71733505 -0.6969208 -1.3483143 1.4174161 1.0764332 -0.8810907 -0.43037683 0.722202 1.1345683 0.18829049 0.277285 0.15311012 2.079295 -0.9277004 -0.31635875 0.50979 -0.6071178 0.30217835 -0.0026060024 0.4105104 -0.7479847 0.19138356 0.88335806 -0.5154932 -0.39631483 -0.2226116 1.1023128 -0.20144671 0.14634863 -0.6089215 0.10193873 -1.0232104 1.5476987 -0.49293202 -0.0071576405 -0.29119805 0.23836732 0.33294097 -0.39643627 -1.0764844 -0.36510128 -0.05858905 0.009841642 -1.1498989 -1.1226407 0.56735027 -1.4220042 -0.57579976 0.67035 0.34789586 -1.4837631 0.5756333 -0.7088795 0.054838564 -1.1073308 -0.35077763 0.3792384 0.14432137 -1.4156963 -1.2702491 0.7746716 0.3610929 -0.7499853 -0.31304166 -0.771909 -0.5313757 0.79638094
151 -0.09677883 0.37082496 -0.32952935 0.23601617 -0.00041105459 0.5022527 0.6933191 0.37803295 -1.2759502 -0.14096482 0.17212988 0.082037 -0.9355369 -0.5211065 -0.052932557 -0.866291 1.0111123 0.02648585 -0.011072825 0.30802327 0.06930218 -0.35056952 -0.50010735 -0.46497524 -0.94340354 -0.77311873 -0.085013404 1.3242204 0.8698427 -0.7928824 1.5403886 -0.72364587 -0.083627425 -0.30123907 1.6003231 -0.03298714 -0.84042066 0.5961811 -0.54222447 -0.06494424 -0.33984622 -0.33560333 -0.15934648 0.39577067 -0.7314429 0.19240546 0.5367769 0.45436078 -1.146935 -1.3285495 0.03672611 1.4178687 0.65009403 0.4543268 0.19888456 1.4777839 -0.7426652 -0.28155696 -0.23567902 -0.29650226 -0.23775448 0.78678733 -0.25073683 -1.604516 1.6394825 1.5370619 -0.62574667 -0.042258713 1.5325176 0.33124056 1.0959148 0.71150243 0.79780096 1.3593473 -0.77787423 -0.24704808 0.35106054 -0.58835924 -0.6286657 0.66668487 0.21591419 -0.29826516 -0.3631176 1.2159052 0.047616236 0.26227304 0.007949913 0.23353192 0.6870288 0.43540418 -0.23915064 -0.42444173 -1.516867 1.8800997 0.52032995 0.47098577 0.00040149133 0.98635924 0.107056946 -0.7829145 -0.7409569 0.14893758 0.07206282 0.29062158 -0.78330666 -0.59804344 0.05619733 -1.263809 -0.2455579 0.5421967 0.77844954 -1.2706734 -0.10779862 -0.33499122 -0.542815 -0.5565839 -0.778169 -0.066484295 0.09254439 -0.52736264 -0.69918317 1.382955 1.158497 -0.8120233 0.037922863 -0.6465507 0.32701477 0.95939
154 -0.05755974 0.4001951 0.64902043 0.3995867 0.6140941 -0.35727587 -0.3432185 0.028756533 -0.6686749 0.9779266 -0.47850925 1.3727627 -0.8671373 0.31253907 0.16943757 0.31971696 -0.17985067 -0.20210245 -1.2011395 0.4059091 -0.39367634 -0.92998207 -0.3159057 0.61976844 0.3028347 0.20268892 -0.24686863 -0.5726852 0.03521889 0.048754334 -0.44838542 -0.5428041 -0.21994115 -0.46506682 -0.574345 1.2265582 -0.34857 -0.010380277 -1.2241681 -0.8449022 -1.3372333 -0.96003425 -0.45118004 1.4216349 0.33791393 0.28548023 -0.4793456 -1.1104097 -1.1674137 0.9135426 -0.26416367 -0.4768159 -0.7663049 1.3496461 -0.31957704 0.6157769 0.47515306 0.31482112 0.015752284 -0.85826695 -0.6266834 -0.09010503 -0.10007819 0.07018395 0.48518032 -0.8986532 1.018416 -0.25793317 -1.4309675 -0.09726075 0.3141637 -0.67993087 0.26598758 -0.5224176 -0.013712548 -0.17051306 0.24328534 -1.0397636 0.9596346 0.18624592 0.09000634 -0.3199787 -0.4619402 2.2299001 0.786019 -0.77852 1.1407045 0.4063714 -1.1169693 -0.010109022 -0.48212886 0.10701346 0.25637028 -0.65915614 0.7149024 -0.37509596 -0.569667 -0.95517796 0.9099362 0.53045344 -0.5694129 0.37737855 0.23964436 -0.41299477 -0.19750889 -0.8083752 0.18553652 0.1850199 0.16854088 0.4816732 0.25541413 0.20758341 0.5192658 0.024665847 0.030452877 0.09348386 -0.10160456 0.22457556 1.2879204 -0.60107434 -0.63104326 -1.0142169 -0.733431 -0.31334746 -2.5266743 0.9733022 0.5892872 -0.30489948
72 0.17962104 -0.0021440422 0.9255976 0.7108246 -0.058096994 0.26571262 -0.2595641 0.64512515 0.78186345 -0.30945083 -0.5946197 0.3232233 1.7720898 -0.69391304 -0.7141805 -0.5821051 0.16720776 0.12184341 0.09191236 -1.1987021 0.3648174 -0.28733942 0.40156075 -0.70230883 0.06300454 1.5295757 0.66190904 0.3529626 0.60871196 1.1858988 0.67767507 -0.64949745 -0.32380706 0.17311248 -0.60807085 -0.17578219 0.21056361 -0.00557421 1.9725156 0.55722064 -0.08620057 1.5392054 -0.20717232 0.40592816 -0.68465346 -0.34167942 -0.7147566 0.19853921 -0.56254745 -1.0257365 -0.054513738 0.7158835 -0.56235266 -0.45879212 0.84815115 -0.60283774 -0.027478628 0.6900691 -0.6162789 0.055957887 -1.0713708 -1.5024571 -0.42671868 0.18291 0.011949185 0.40885478 -0.40002975 -0.7509219 -0.5862417 0.98196715 0.35927477 0.78044295 0.8128756 -2.5250187 -1.4507216 -0.89474785 -0.22750545 -0.590172 1.0248882 -0.2251883 -0.6504206 -0.55032825 0.66301465 0.73948616 0.08195546 -0.30243844 -0.26306096 -0.14231683 0.26655972 0.22558825 -1.9431313 0.7314598 0.16535893 0.19621226 -0.031249125 -1.267778 0.2511357 0.7046285 -0.55834466 -0.46590665 0.9982841 0.0074389493 -0.708123 0.7521319 -0.62661266 0.40543717 0.3150205 0.118261255 -0.87185 -0.39133522 -0.1273687 -0.6722786 0.759334 -0.83433104 -0.20065027 -0.008347936 -0.8348522 -0.09503458 -1.0287126 0.9881493 -0.29089153 -0.08732222 0.008555045 -0.024322862 1.3809031 -0.4251435 -0.29826277 -1.700412
228 -0.88431174 -0.2741387 0.11997192 -0.17394531 0.3862434 0.20246078 -0.5651473 0.6449853 -1.1904072 -1.1428536 -0.15799552 -0.4618632 -0.6397049 0.98143125 0.36991036 0.68662995 -0.5466222 -0.460556 -0.20999199 0.6162033 -0.16157486 0.6562187 0.86374104 -1.313128 0.53098005 0.30347082 -0.1760005 -1.2249725 -1.1006036 -0.05258924 -0.12227984 1.4366425 0.05205628 -0.7845661 0.46705222 0.7533631 0.032709565 0.71401775 1.2249496 0.7241339 -1.4795357 0.3624925 -0.042223908 0.8299013 0.2578931 0.5966212 0.18221405 -0.09600097 1.7635835 -0.56888753 -0.061279573 -0.6544008 -1.2150571 -1.0859727 0.77145743 0.313139 -0.25491673 -0.83341444 1.5938439 0.093887776 -0.83461 0.93190044 0.17457338 0.31663427 -0.43767968 0.21112083 -1.1683856 0.8092966 -0.03138012 0.760409 -0.24069758 0.8397616 -1.2937862 0.6490537 0.123250246 1.4580238 -0.2718104 -0.2506606 0.31277788 -1.0713992 -1.1240903 -0.3185708 -0.70492995 -0.6217012 0.23740384 0.6878895 1.5225761 0.95719373 1.2753484 -0.36692598 -0.75555503 -0.45891845 0.87858176 -0.3776745 1.3506019 -0.7735307 0.6093107 1.4502941 0.069760166 0.9130747 -0.20040385 -0.3964752 -0.036099438 -0.82509065 -0.3426309 0.60378206 -0.14728725 0.645391 -0.45822266 0.056648474 -0.19019945 -1.1228979 -0.9537677 0.30821013 0.33330798 0.08846969 0.1803359 0.5746693 1.3411762 1.4315886 1.3685628 -1.6790953 -0.32384333 -0.003460375 0.18376863 -0.63004774 0.01570282 0.6033657
217 -0.16117123 0.3232518 0.5679779 0.6817061 -0.8436974 -0.4900499 0.9752448 -1.2407836 -2.049496 0.36375836 0.4596405 -0.5733029 -0.4440335 1.1613795 1.8337551 -0.71598417 -0.059847716 1.4799755 1.0255549 0.76457375 -0.7034274 1.1650525 2.2261465 0.12911887 0.049704432 -0.901487 0.2618594 -0.47319326 -0.40699902 0.10995353 0.5576209 0.91828746 -0.2926751 -0.03899991 0.33341482 1.5513521 0.40740976 -0.035306387 -0.11188255 -0.1712599 0.917086 0.97004384 1.3578038 0.6396467 -0.6344734 0.37108052 -0.24491291 1.2796531 -0.00395226 -0.5928735 -0.6315464 0.40475917 -0.37710905 0.26829892 1.0428135 1.6841769 0.26114088 -0.71143055 1.6891692 1.5988182 -0.44519338 0.48101184 0.4017823 0.19534005 0.035599943 0.3686644 0.348528 -0.16864368 1.0363175 -0.4632972 0.01722033 0.64541626 0.5539448 -0.7613229 -0.6970851 0.9834196 -0.058902208 0.22937101 -0.2485887 -0.26922232 0.26052445 0.53986937 -0.40805903 -1.1378601 1.0743148 0.20047684 0.62476486 0.329556 -0.13190977 -1.1092557 -0.15781891 -0.9864741 -0.13428465 0.8410968 0.20094836 -0.44864908 0.23949575 0.7809326 -0.9294674 0.3597127 -0.81380033 1.3311709 0.4295773 -0.5816094 -0.69888437 -0.38065812 0.16103806 0.756848 0.46576467 0.478883 1.2381147 -0.44431543 -0.23772356 0.5165231 0.7888555 0.002693867 0.8370295 0.39694986 1.0246339 1.3296078 0.29076973 1.1591474 -0.000796397 0.16470009 -0.09532522 0.055725742 1.3063402 -1.0255527
116 -0.9156378 -1.097593 -0.3885654 -0.45198777 0.31449962 0.2022667 0.78554595 -0.12407462 0.82125777 -0.08355417 0.4977605 0.0559183 -0.45568177 -0.77388823 -0.4776908 -0.30592284 0.81637675 -0.09511748 -0.7826872 -0.75382966 0.62777495 0.58363026 0.581361 -1.4292047 -0.097321995 -0.49729738 -0.4044202 0.16404425 0.29871252 0.5231979 0.69947445 0.93957174 -1.2073199 1.1283709 -0.09085892 -0.019268585 0.22272196 -0.74631566 -0.52446187 -1.4108044 -0.13941817 0.13395837 -0.021297598 0.04957611 0.04066063 -1.5697801 0.88670605 -0.078670576 1.5109795 -0.9605829 -0.65807015 -0.6094766 -0.77253145 -0.0834251 -0.21632151 0.45870376 1.4419718 1.1189034 -1.176774 -0.38831162 0.5875736 -0.21924104 -0.19920644 1.2360607 -0.07916676 0.67523277 -0.26412418 -0.1866656 0.47256577 0.6221914 -0.56234115 2.2585614 -1.082535 0.16939552 -0.35384637 0.9105188 -1.0268061 -0.8564107 -1.1612027 0.6650041 0.16453335 0.8729781 0.2096911 -0.101037264 0.10985353 0.1391071 0.023505585 -1.4364718 -0.5553685 1.1078423 -0.9127337 -0.7860677 -1.1716964 -0.28564554 -0.2157145 0.13835302 -0.3135656 -0.82394654 0.166668 -0.1245879 0.8196392 0.7811109 0.91583115 -0.13403255 1.6363982 -0.93221146 1.1984719 -0.19932176 0.35041684 0.4505515 0.85784936 -0.88841945 -0.32907182 -0.32946172 -0.65220875 0.49344537 0.01029561 0.48598754 -0.24630456 -1.6211551 1.8319869 -0.33322167 -0.43264967 -0.97258097 -0.748579 0.7031898 -0.4155868 0.16917619
29 -0.653828 -1.368111 -0.56501806 -0.5922944 -1.0352823 -0.23226644 1.1289248 -0.48619404 0.22506447 0.17029491 0.50933486 -0.2822436 -0.5166803 -0.9171117 -0.86874837 -0.30608502 1.0084128 -0.48761007 -1.0926301 -0.08820166 0.2574436 0.11972154 0.10736319 -1.3625094 0.048720475 -0.29507977 -0.6192608 0.07680199 0.48753256 1.308712 -0.0006123945 0.6767451 -1.3231357 0.3537058 -0.2283383 0.24853289 -0.2591509 -0.9081197 -0.96323305 -1.0346012 0.23828866 0.26730037 -0.4221343 0.31353375 -0.31524643 -1.7503986 0.7161902 -0.39236417 1.3064985 -1.7152294 -0.71763283 -0.33235195 -0.48154017 0.38791242 -0.17034318 0.03359182 1.842644 1.258459 -1.043537 -1.1262627 0.55991274 -0.17748988 -0.17672756 0.5800902 0.52681255 0.51182544 0.128066 -0.0742366 -0.16554914 0.9340771 -0.71838 1.6709752 -1.2560592 -0.40726227 -1.0341079 0.60750985 -1.3913579 -0.95609504 -1.1342198 0.7843492 -0.4016884 0.43435642 0.04340811 0.7166686 -0.18653525 0.9289089 0.08115972 -1.5320915 -1.0390297 0.23926455 -0.9310452 -0.8974012 -1.1476041 0.2302299 -0.37195644 -0.3228248 -0.04099951 -1.4829792 0.31661823 -0.057202354 0.34420386 0.123022 0.8010991 -0.155327 0.79581803 -0.3670046 0.3710126 -0.37543225 0.014838168 0.45095834 0.9008664 -0.21344517 -0.07558993 -0.564112 0.3874076 0.4946439 0.45272487 0.47198373 -0.24606757 -0.99473995 1.2778015 -0.37359422 -0.45823464 -0.31303987 -0.60959786 0.59483075 0.39872685 0.14107722
90 0.014103908 -0.007382949 -0.7259683 -0.20983557 -0.12968723 0.2461015 -1.2291942 0.005862817 0.25028715 -1.407784 -0.21675147 -0.16298823 -0.39285636 -0.14324626 -0.49748906 0.3545403 0.41757008 0.068694435 -0.057531677 -0.19349848 1.1787255 -0.706221 0.73253566 -0.9667467 0.078826666 -0.015428751 0.94530064 0.7917998 0.5603837 0.5400576 0.33977783 -1.2820383 0.55682874 0.7213161 -0.12468834 0.36705926 0.5098676 -0.31540465 -0.45213884 0.604749 -0.4805763 -1.869514 0.5164032 0.011301699 -0.70408726 0.51243585 -0.14195874 0.00048836396 0.053849865 0.18416183 0.3353895 -0.770878 -0.39624038 0.78758866 -0.7237626 -0.95915216 -0.56378925 -0.004982128 -0.067908525 0.78473467 0.17113918 0.17166477 0.09055746 0.45630974 -0.3714388 -0.7950011 0.23552987 -0.23553573 -0.5605119 0.06343053 1.3570058 -0.95913166 0.42344052 -0.3981314 0.30461234 -0.52554566 -0.3262967 -0.28938082 0.86078686 1.2118814 0.7335912 -0.25521117 1.1188757 0.048545506 0.35928524 0.3727757 -0.18390426 -0.34135023 0.29173234 0.16211963 2.5107877 -0.63676155 0.6083311 -0.41608238 -0.9092549 0.58183014 -0.5564515 0.13409926 -1.0434437 -0.44322965 0.096158214 -1.3542361 -0.055663683 -0.24797548 -0.500225 -0.060915742 0.44803497 0.45908317 0.024634343 -0.9716459 0.4888184 0.761874 0.70270157 0.87211126 1.7147808 -0.10711462 -1.4855771 -0.50288206 0.16294841 -0.3607338 -1.9595983 0.23802532 0.61105627 0.73312813 1.1860542 0.73486865 0.6503171 -0.047955155
17 0.19215845 -0.6781102 -0.54051816 -0.7855654 -0.21752916 -0.8126386 0.076823816 0.077247776 0.928567 0.24444675 -0.5908633 -0.34651625 -0.45791736 -0.22981979 0.091818266 -0.7407965 1.1683966 -0.76153696 -0.36264947 0.4528814 0.5054501 1.2448872 0.67083496 -1.284663 0.50661665 -0.18629126 -0.09828481 0.43992445 0.61819804 0.1180621 0.07461727 0.95906955 -0.08061991 1.0030627 1.6235235 -0.75840807 0.12934351 -0.25663593 -0.41130304 -1.9652153 -0.044190638 -0.15204954 0.037472818 -0.15468691 -0.3348335 -1.4060259 0.71577996 -0.2630225 0.9856233 -1.1719244 -0.49619237 0.023918685 -0.32568374 0.22937258 -0.7461056 -1.3087356 1.2689711 1.5514683 -0.6553929 -1.3640321 0.61510867 0.2366542 0.6771943 0.04856849 0.57043386 -0.60736036 -0.505281 -0.4645455 0.7756892 0.010286425 -0.80811423 1.1408573 0.21905915 -0.29459378 -1.1255462 -0.11334886 -1.4055464 -1.7228659 -1.2146969 0.56793207 -0.81027037 -0.15527786 0.4413368 1.3815498 0.2624822 1.0534873 -0.82773894 -0.50627285 -1.2955097 1.3673018 -0.6455471 -1.165554 -0.58222705 -0.20806806 -0.63032156 0.05682967 -0.2477926 -0.0027119669 0.38899866 -0.010211068 0.3714309 -0.14749855 1.4640769 -0.5732826 0.27893582 0.111661464 -0.1873421 0.6310001 -0.84340197 0.20949651 0.13773419 0.44836575 0.18050912 0.23706692 -0.5052723 0.9373064 -0.31048727 0.2731024 0.051725682 0.23429626 0.7726943 -0.068430625 -0.88953096 0.8327547 -0.32193393 1.1593121 0.12917607 -0.15931168
205 0.39425382 0.67979246 1.1042347 1.115527 -0.8164518 -0.37642118 0.7267592 -1.1227235 -0.590432 0.5716641 -0.47012457 -0.108304024 -0.338083 0.55053926 0.90710396 -0.69671816 0.3854806 1.8998325 0.014805615 0.88362205 -0.08665151 0.57800084 1.4867837 1.3849862 0.7995049 -0.8819179 -0.93674654 -0.8893042 -0.37683043 0.49865013 -0.21625775 1.1116174 -0.6447677 0.32321048 -0.40659913 0.98266155 0.22439033 0.0885754 -0.16947353 -0.042644393 0.9037597 0.47916815 1.3760297 0.38933894 -0.27289978 -0.46082205 0.23141384 0.44868076 0.15823211 -0.5919207 -0.5106732 -0.007967979 0.93410385 1.1063125 0.17495136 1.2266635 -0.18781589 -0.06737979 0.060940452 0.815404 0.6869921 0.54209906 0.02456678 0.7645642 -0.2888774 0.534432 0.4185741 0.0834752 -0.51957864 -0.6081012 -1.2586724 -0.3499948 0.9354504 0.4338641 -0.3084527 0.34860674 -0.7949888 0.7913327 -0.12807412 0.48540732 0.08978203 0.78185964 -0.62963974 -0.82155305 -0.057106394 -0.06829931 -0.5122932 0.45571384 -1.0025165 -1.4991577 -0.014572595 -0.18783037 0.39941 0.1312279 -0.8370529 -0.44766274 -0.8007948 -0.9504165 -1.430752 -0.07214067 -0.95071954 1.4296709 0.9508507 -0.043983784 -0.7344466 -1.1820866 0.29238415 0.97831 0.6939575 0.1471361 0.05196868 -0.27149796 1.0938076 -0.044400573 1.0525986 -0.11006263 0.33341423 -0.32802898 0.6163565 0.5664197 1.1324363 0.89857864 0.1453483 0.7184019 -0.24459685 0.30530947 0.17871144 -0.55355453
167 -0.36170858 0.66578954 0.2086367 0.84423983 1.110876 0.20458415 -0.5920933 0.46386123 0.6360452 0.17456831 -1.2325622 -0.75852084 0.6858181 -0.34364885 0.26092958 0.28130725 -0.36362523 1.3707825 -0.21279423 -0.69807726 -1.3011622 0.76417893 0.18345417 -0.052783 -0.09965743 0.14770502 -0.43084165 -0.7412335 0.010995781 0.22769202 -0.9694799 -0.25665128 2.0795777 -0.75810325 -0.19629964 0.04380261 -2.0004919 0.09164982 0.35961357 0.94676113 0.7308475 -1.3828161 -1.0175717 -0.5163042 0.46189097 2.1293151 -1.011124 0.6038644 -0.4548951 -0.64893806 -0.9140813 0.23878182 -0.7468418 0.4545103 0.44755575 0.50232744 -0.825137 -0.4385127 -0.45171666 -0.30734456 1.2102895 -1.2252281 -0.5292008 -0.72316766 -0.6648627 -0.15619867 -0.3157519 0.814607 0.16429356 -1.0731733 -0.24703375 -0.06535096 -1.2116756 0.86352843 0.43538612 -1.4096396 0.0132138105 0.53147995 -0.35337612 -1.0516065 -0.07971862 0.15015103 0.14059737 0.4193272 -0.13784683 0.41953722 -0.79795957 0.64053303 0.8667546 -1.1126117 0.19976935 -0.419408 -1.1315087 -0.42194727 -0.23657283 -1.9336872 -0.70579195 -0.48897105 1.3332533 -0.5828541 0.8357612 -1.0732524 0.80143917 1.7727971 0.28774244 0.05021514 -0.2518885 0.41499022 -0.24030949 -0.3020414 -0.43714634 -0.22568257 -0.843668 -0.66099685 0.7879633 0.5881041 -0.43113607 -0.41083452 0.7237729 1.1135303 0.26090923 -0.6952509 -0.017531762 0.26021466 -0.20879765 -0.68340266 -0.12777781 0.49275604
146 -0.5607899 -0.15549362 0.3112422 0.6483821 1.3346945 0.22587457 -0.61110115 0.7719949 0.3890861 -0.49159816 -0.8894104 -0.57147545 0.24035369 0.28349078 0.18141863 0.77567047 -1.1234661 -0.15204677 -0.14603645 -0.076837435 -0.7659502 0.33537498 0.045086797 -1.2367568 0.46313354 1.0008693 -0.6633419 -1.0501935 -0.5478701 0.02687559 -0.71054655 -0.06806482 1.5020521 -0.9623869 -0.074136876 0.50822777 -0.8998791 0.19622855 1.161831 1.3363471 -0.15734479 -1.0967818 -1.0587364 -0.56151634 -0.084622465 1.8463607 -0.33103713 -0.6684153 0.78822124 -0.50725454 -0.16472428 -0.5889501 -0.7792552 -0.1114144 0.521052 0.3573821 -1.3830669 -0.41453913 -0.08779527 -0.08134369 0.478047 -0.087916315 -0.84034914 -0.2936723 -0.9487362 -0.008322116 -0.5549641 0.8748438 -0.521485 -0.31636766 -0.66072065 0.31791073 -1.0955734 1.3614417 0.6249846 -0.6604684 -0.09053925 -0.0037776025 -0.50525177 -0.99389875 -0.4499664 0.24327047 -0.43472612 0.23103103 -0.628369 0.41319188 -0.37852538 0.7295207 1.4270475 -0.30763993 -0.51693416 -0.20120095 -0.38393003 -1.1460838 0.5580007 -1.7443689 -0.3519102 0.06128897 0.30855155 -0.09456979 0.83475477 -0.96329796 0.63869494 1.1449966 0.22402547 0.11867402 -0.27396098 0.6666446 -0.69951123 -0.32077286 -0.8745261 -0.67308223 -1.0448608 -0.66158485 1.0796626 -0.14716147 -0.17175736 -0.33156863 1.3051993 0.9640778 0.81659156 -1.6299634 0.41532418 0.43966898 0.14082974 -0.8583766 -0.07085007 0.9643099
99 0.3495927 0.85373414 0.9986851 0.86346656 -0.8379343 -0.21318568 1.1504042 -1.7308106 -0.50047666 0.6913834 -0.23725383 -0.3048976 -0.7596002 0.25748208 0.9292446 -0.8847951 0.9232484 2.0150201 0.26634648 0.87942374 -0.20285559 0.7246465 1.0169398 1.669061 0.7157 -0.9327047 -1.0119721 -0.10996958 -0.0047172178 0.25076044 -0.28268886 0.80793625 -0.6532762 0.09256231 -0.04465908 0.8605889 0.77092063 0.14055239 -0.2992404 0.15326504 1.1699364 0.5957057 1.0855716 -0.094038956 -0.1327117 -0.7983531 0.38580465 0.41079137 -0.14196515 -0.62874216 -0.08675751 -0.1765979 0.6601874 1.3907704 0.80138314 1.415351 0.24886957 -0.43407542 0.41510007 0.8937771 0.68152297 0.30106732 -0.0072933673 0.4000922 0.057779465 0.83464897 0.6634153 0.28668714 -0.7183117 -0.7619845 -0.35068488 -0.4943323 1.2784381 0.36852914 0.12457915 0.64245653 -1.0230442 0.44810328 -1.0905167 0.58346 -0.23580644 0.52170235 -0.19813369 -0.074527405 0.1562369 -0.4118312 -1.1349952 0.64023083 -0.4011913 -1.4661453 -0.030753618 0.05237779 -0.2926335 0.17893453 -0.7057721 -0.22681144 -0.6481033 -0.7017694 -1.2027652 0.13421899 -0.6470701 0.9560202 1.0502236 0.16225198 -0.28257036 -0.66150135 0.13266663 0.53237784 1.0815898 -0.44546968 -0.1555124 -0.09668017 0.89103997 0.32900828 0.67986816 -0.012067439 0.20282419 -0.5471743 0.79722893 0.69555515 0.9205909 0.7834156 0.18116257 0.50587237 0.38752404 0.5035816 -0.073122576 -0.4562677
130 -0.20983264 -0.987987 0.58715457 0.8919333 0.9654429 0.012625794 -0.66206884 0.33254966 -0.106843926 -0.08890472 -0.57798487 1.3015747 -0.409546 -0.2424735 0.6057321 0.23292615 -0.74521273 0.06981571 -0.81562465 -0.7265495 -0.035996802 -0.6397225 -0.1318207 0.2574995 1.3227298 0.46754596 0.3949562 -0.3188025 0.32046393 0.817651 0.22858687 -0.3577829 -0.4593395 -0.24737383 -0.970536 1.7908932 -0.054191876 1.1842701 -0.39893627 -0.5186599 -0.31293207 -0.22819363 -0.2518901 1.1310824 0.024449091 0.42720383 -1.4053617 -0.033987384 -1.0827739 0.07541226 -0.7364473 0.078852475 -0.5204718 0.20500432 0.09815604 0.26212767 -0.23403712 1.0570842 -0.98737264 -0.96202207 -1.6174123 0.2614862 -0.5879049 0.37849003 1.3687638 -0.16709533 0.82282215 -1.0783129 -0.68974805 -0.201327 0.76501477 -1.4973658 -0.14679646 -0.76052636 -1.0851507 -0.036063917 1.0699536 -1.1359177 1.0984446 -0.4099112 -0.30283922 -0.7957953 -0.59433365 1.4622642 1.014782 0.55033135 -0.15287714 -0.30088052 -0.2132248 0.7294703 -0.21277189 -0.56633884 -0.25143623 -0.5334426 0.8008791 -0.8779832 -0.60498035 -0.600496 0.07930924 -1.197303 -0.6870903 0.14333478 -0.06165742 -0.8677966 -0.23154446 -0.9400279 -0.34073544 0.43471444 0.99910337 -0.042931803 -0.3852655 -0.4757237 1.568649 -0.23236041 0.32334805 -0.34391665 -0.20762165 -0.20216958 0.11168681 -1.2506504 -1.0172596 -0.2063473 -0.01248692 -0.5811395 -1.6949258 -0.06646971 0.074726425 -1.184913
196 0.24942577 0.6225966 0.4605286 0.59034103 0.16362841 0.3616901 -0.35902268 0.75495934 0.63006175 0.25513345 -0.47643882 0.3852432 1.9274789 -0.70141417 -0.44700247 -1.0516688 0.6369171 -0.027190762 0.07800875 -0.9685971 0.33782452 -0.3971274 0.681706 -0.6900948 -0.04245118 1.2501999 0.6790048 0.2364092 0.41666883 1.2233907 0.6727145 -0.50032294 -0.36393327 -0.53221345 -0.58639765 -0.62281257 0.18311594 -0.44186077 1.5689877 0.28397384 -0.7433383 1.3792082 -0.57603616 0.749645 -0.18832281 -0.2530361 -0.5162362 -0.11896713 -0.6555483 -0.72095346 -0.13659249 0.5402124 -0.31079614 0.36072847 1.022997 -0.41681698 -0.07737005 0.17659062 -0.72253 0.13812517 -0.27709195 -1.4623126 -0.30913514 0.027249506 -0.49925762 0.28827515 -0.56129986 -0.3776948 -0.8261851 1.2920452 0.2914354 0.89935184 0.51989615 -2.5176704 -0.9274794 -1.1550213 -0.33996302 -0.7374998 0.8094294 0.23229854 -0.34906068 -0.3862205 1.0578436 0.5093445 -0.09431811 -0.5441251 0.35598466 0.25011256 0.078651994 0.0067737005 -1.7843267 1.3295354 0.2786642 -0.16736633 -0.19340657 -0.9651936 0.075691916 0.64595497 -0.35699785 0.1981479 0.8863514 0.0656904 -0.28598052 0.56594115 -0.74748385 0.6086352 0.8622713 0.027712895 -1.3950933 -0.40189168 -0.14851885 -1.0085129 0.4215041 -0.98400915 -0.14007455 0.40745127 -0.6192823 -0.31407005 -0.9806111 1.2539251 -0.48720434 -0.16606666 0.064658046 0.5751934 1.0701342 0.007393164 -0.24125116 -1.7453316
240 -0.24660233 -0.31636113 0.94349 -0.54612124 1.116709 -0.620821 -0.5092532 0.53161997 0.41956845 -0.0989102 -0.79262877 -0.99382883 -0.4449891 1.2908678 -0.43384072 0.69259447 -0.70225596 0.25057852 -0.81886846 0.1932143 0.5820352 -0.12977393 0.11992518 0.37026542 -0.14619753 0.13256444 -0.5433309 -1.9895225 -0.74587077 -0.585619 0.62850225 1.3366103 0.9669051 0.17987007 -0.6433398 0.32650113 -1.0939251 0.0040306873 1.1699835 0.46260267 -1.0609819 -0.4520411 -0.054325227 0.6754119 -0.1265414 0.30931088 0.8289248 0.6609629 1.1715697 -0.36218095 -0.21763265 -0.26978856 -1.0205852 -0.5839623 -0.18967521 -0.83649904 -0.19571893 0.1814461 0.4562739 -0.5439644 -0.17750607 -0.4384391 -0.028844338 0.011535194 0.5843344 -0.35924524 -1.1649188 0.9191386 -0.8545599 1.1264535 -0.21691743 -0.6692974 -1.0708773 0.42715776 1.2345831 0.65140474 -0.65474206 0.31290972 0.23361428 -0.5882181 -1.2693143 0.09216828 -0.4303095 0.38074878 -0.2801942 1.1143199 0.89168465 0.8350911 0.8330471 0.42038345 -0.62655383 0.7554299 -0.7961848 -1.4455243 0.12524134 -0.73239434 -0.37835145 0.9341557 0.09665259 0.15322721 0.49329516 -1.1992618 -0.022056796 -0.10696982 -0.38053456 -0.8963727 -1.5422583 0.39472437 -0.9830375 -0.38868812 -0.5083873 -1.2919737 0.29107165 0.27476653 -0.014257194 1.0053438 -0.58378255 0.08129791 0.35247007 0.43734574 1.9668646 -1.854475 -0.88153553 -0.029375687 0.19509153 -0.62476045 -0.938242 0.47873956
22 0.15698545 0.5660888 1.0658728 0.80719113 -0.8677509 -0.55799526 1.5162977 -1.8224609 -1.0503827 0.6032628 0.1813067 -0.6556302 -0.8858051 0.76794297 1.4518621 -1.0071834 0.6028604 2.0588703 0.67960644 0.9113182 -0.48546836 1.0859052 1.3876415 1.2347978 0.23813052 -0.9171767 -0.5867779 0.039296996 0.21363826 0.08359707 0.25342125 0.5940783 -0.53314453 0.172241 0.2859123 1.25598 0.7042913 -0.132077 -0.1738901 0.12143849 1.4210947 0.9100756 1.2337571 -0.07894936 -0.4843748 -0.4347193 0.19599056 0.98635477 -0.2942942 -0.6822637 -0.077380665 0.1307186 0.17092887 1.1720715 1.089731 1.7138333 0.44885716 -0.57306254 1.0972631 1.5599713 0.21903029 0.41090122 0.17432015 0.14745174 0.24939635 0.706714 0.6939356 -0.0007434908 0.041966334 -0.8038883 0.25762716 -0.00981925 1.4279091 -0.24353024 -0.14439367 0.85595155 -0.6687395 0.29737297 -1.213111 0.23821075 0.047773052 0.50455296 -0.035817128 -0.32267043 0.80437976 -0.42225227 -0.6845069 0.39132145 -0.18554467 -1.206041 -0.08085255 -0.35913548 -0.63441724 0.6778014 -0.4320161 -0.27720243 -0.4644556 0.17259769 -1.3754264 0.24051252 -0.7140538 1.1844786 0.9020797 -0.06358732 -0.32861045 -0.48420247 0.044309903 0.46813083 0.87608457 -0.26526067 0.68963337 -0.25577134 0.34855744 0.54745543 0.6921618 0.020185653 0.4645999 -0.1305921 1.0501641 0.8482552 0.54886353 1.2318279 0.16476312 0.3854621 0.47184813 0.39267576 0.6579855 -0.56663114
248 0.013320937 0.29223758 -1.3947003 -0.7506901 -0.18845943 -0.37319803 0.3024183 -0.9410551 -0.87235147 0.013288096 -0.89203185 0.34723797 0.8532954 -0.05055968 -0.7344671 0.49312365 0.1387233 -0.3662941 0.05325344 0.465425 0.72196305 -1.2005514 0.57916015 -0.61444193 0.18562907 -1.126939 0.7411684 -1.0488923 -0.24009998 -0.3694041 0.23924544 -0.3948609 -1.0540389 0.9447606 0.0074911346 1.2703872 0.000995149 1.0455683 -0.6333218 -1.1871461 0.1702318 0.5100782 -0.16592926 -0.54577094 0.16001211 0.15293922 0.1255459 0.5201643 -0.5963286 -0.030729659 0.29533628 -0.700897 0.97201556 -1.0390716 0.61343545 -0.36362165 0.52524656 0.64154255 -0.12670478 0.95588547 -0.078202665 0.6505599 -0.41011858 -1.290502 0.31265873 -0.4909541 0.64238995 0.6433195 -0.4425179 -0.6566239 0.1441333 -0.1690357 0.02978901 -0.26213232 0.060557768 0.18616764 -0.49080455 -0.07340257 0.61871964 0.59316194 0.23743074 0.57046497 -0.08880605 0.8363519 0.25976193 -0.25155106 -0.15482342 1.1614094 0.21661738 -0.71307546 0.014985267 -0.26934886 0.27006614 0.26457876 0.3622321 1.4456512 0.9982619 -0.38294992 1.4181374 -0.63521034 -0.28054258 0.012168881 1.8734666 1.2073232 0.7316734 0.812302 -0.34257087 -0.58699346 0.628265 -0.2688576 0.515726 -0.055633575 -0.20773484 -0.35825813 -0.81003964 0.24841933 0.7087239 0.04161763 -0.21059613 0.67682654 0.08888148 -0.057285655 0.448928 0.5352694 0.8082224 -0.04892923 -0.53193396 -1.1244851
220 -0.15348269 -1.2398727 0.52606934 0.9493892 0.83080846 -0.2330606 -0.64869493 0.40174678 -0.3618624 0.015753787 -0.52974534 1.6516839 -0.3208997 -0.4250331 0.60676616 -0.18971737 -0.872051 -0.11271899 -1.2318296 -0.49192423 -0.102960825 -1.250345 -0.60664487 0.104585186 0.5721898 0.49302655 0.68476987 -0.2954412 0.33969164 0.4456563 0.6478822 -0.41411516 -0.36180162 0.065272376 -0.76886064 1.5571886 -0.45555007 1.3687507 -0.19411334 -0.5777603 -0.6372343 -0.79625607 0.42520395 0.7982412 -0.326839 0.6265902 -1.0012478 -0.013900011 -1.4649348 -0.12129465 -0.79134125 0.14376849 -0.17609534 0.08624959 -0.098381825 0.23393983 -0.50124675 1.4593624 -1.0182141 -1.2309204 -1.5663834 0.3117751 -0.6209213 -0.019273503 1.6172549 0.22878234 -0.08344545 -1.0610133 -0.23343119 0.26394376 0.55964535 -1.002835 -0.19151779 -0.07461307 -1.0850561 -0.40181687 1.025018 -1.1049755 1.447625 -0.5544608 -0.32397214 -0.7287194 -0.3989247 1.289628 0.6338592 0.11070824 -0.261376 0.20180002 -0.23711845 0.8828984 -0.81614864 -0.16373709 -0.59689677 0.13975868 0.34428328 -0.46751925 -0.39224923 -0.38806924 -0.213724 -0.8472466 -0.93739015 0.033678576 -0.5278771 -0.47306985 -0.5307547 -1.5693716 -0.5133545 -0.10496771 0.6370251 0.27902427 -0.4112088 -0.94610435 1.0880065 -0.38379273 0.23403926 -0.53874123 -0.19819069 0.08112637 0.0073062805 -1.6489544 -0.85306436 -0.25606212 0.06282533 -1.0365205 -1.4199746 -0.68006355 -0.172613 -0.36123562
215 -0.73842025 -0.6342908 -0.60617477 0.07537093 -0.12921603 0.23580006 -1.2218635 0.94348496 -0.55451494 -1.4716517 0.6258255 0.7333176 0.57322276 -0.23546624 0.44542837 1.3456222 -0.10739709 0.08092275 0.63885117 -0.15244102 0.19399613 0.24121767 0.9751027 -1.8523908 0.42240062 0.22440563 0.81332046 0.9077076 -0.6502985 0.042021304 -0.41363436 -1.4356725 -0.10394063 0.038556516 -0.13541952 0.7346578 0.57677025 -0.12960657 0.19129275 0.6100608 -0.6812369 0.06500862 0.075941056 -0.31946254 0.10363178 1.1070194 -0.70272577 -0.95245564 0.9728742 -0.67455465 1.582341 -1.3436036 -0.4093677 1.1390735 0.6733752 0.27141485 -0.23479003 -0.23306477 0.6614757 0.71892625 0.0059408676 0.8547731 -0.08491066 0.47485232 -1.186688 -0.27521586 -0.027508248 -0.13173367 0.119852126 -0.48624846 1.0847399 0.4795065 -1.0980705 0.604336 0.21941149 0.084417276 -0.16407368 -0.10889311 0.2137392 0.4099728 0.031979654 -0.20104745 -0.23998018 -0.4399095 0.4406084 -0.2208611 0.44229573 0.3374409 0.9396356 0.81653047 1.7206024 -1.021138 1.6321974 -1.0538894 0.108344175 -0.19249988 -0.25223604 0.35038364 -1.2467817 -0.12526134 -0.38154337 -0.5933255 0.8849521 -0.59337944 -0.022562765 1.4440811 0.9999006 0.012424383 -0.6260165 -1.0988379 0.5795316 0.5644132 -0.39910367 -0.5219604 2.1497583 -0.36746478 0.043464717 0.031735368 1.4608042 -0.053745687 -0.99386585 0.22326587 0.28045583 1.3115635 0.9741793 0.103931956 0.5324039 0.9996991
157 -0.003718532 0.49095887 0.6142135 0.23384053 1.0033782 0.27950844 0.14745004 0.7029651 0.20891404 0.010370884 -0.30010667 0.97985464 -0.7578096 -0.4505314 -0.6824683 0.7450922 -0.14678085 -0.5116379 -0.105072916 0.80425805 -0.24861424 0.5855302 0.44273642 0.41444013 1.6333362 0.3454633 -1.1557089 -1.0136392 -0.15324922 -0.39774376 -1.1899378 0.16258624 -0.48031133 -0.33485985 0.32605016 1.09991 0.032431602 -0.40742156 -0.5679224 0.101667024 0.0249522 -0.47932446 -1.7647717 0.9729898 -0.27299747 0.37965795 0.89054453 -0.88931215 -1.0885873 0.7966003 0.9335106 0.24287178 -0.18165416 -0.21051042 -0.14809376 0.79156303 -0.47941124 -0.51701427 -0.009798797 0.02285695 -0.5854735 -0.5402142 1.2232747 0.06149766 -0.42916888 -0.93597305 1.1959786 -0.0025230513 -0.44659957 -1.4096094 0.04705918 -0.5577816 0.7225864 -1.4025242 0.4306036 -0.21865425 0.944668 -1.2339362 0.54653966 0.5362886 0.8562241 0.38488933 -1.294832 0.9222041 0.8566621 -0.771673 1.0031518 0.23784862 -0.8592338 0.07792472 -0.048145745 -0.9675869 0.8246505 -1.206319 1.2348417 0.27065143 -1.0845304 -0.6359381 0.42778575 -0.1325841 -0.29515383 0.8569361 0.42474058 -0.33575734 0.3495383 0.31182897 -0.0982099 0.5078055 0.57888675 -0.8520796 0.751402 -0.010141659 0.59301645 1.0578847 -0.36713398 0.44055343 -0.7325492 -0.6003268 1.1790091 0.2862611 -0.24251738 -0.82664055 -0.58404094 -0.27947924 -2.1148913 0.84720206 0.39920947 0.33940676
197 0.073789254 1.5800099 -0.54132855 0.6925567 -0.6118065 0.65566057 -0.83631516 -0.2506397 1.0859216 -0.11060747 -0.54407334 0.7832209 1.0391349 0.08910652 -0.20090064 0.24905275 0.15638126 -0.19628179 0.60411566 -1.2765228 0.57117975 -0.8067542 0.36554247 0.046383012 -0.22818027 1.4250356 -0.022067662 -0.3935995 0.28365198 1.233512 -0.08272683 -0.58144224 0.1619676 -0.5796021 -1.5976344 -0.5833066 0.6283225 -0.32208806 -0.32905328 0.7451861 0.72724634 1.6392286 0.38739425 0.8106762 0.21917121 0.21643855 -0.6066713 -1.4299899 -0.11208644 -0.288789 -0.3093608 0.43010917 -0.79776394 -0.19140606 0.1476825 0.29567263 0.6235447 -0.90375274 -0.45218486 -0.22095409 -0.23256537 -1.1378942 0.0934843 -0.29932737 -0.62203765 0.40815324 0.6043918 0.3204514 -0.7960896 1.1653876 0.8970485 -0.04577666 0.18066959 -2.4720685 0.2400965 0.9724271 -1.19364 -0.14646453 0.4513072 -0.43893304 0.5476946 -0.64593786 1.3640177 -0.6779374 0.017468935 0.7779745 -0.01179944 0.80270755 -0.48516545 0.282921 -0.7514583 0.066502765 0.62408936 -0.6100095 -0.337091 -0.7605398 -0.3922246 -0.058938224 -0.09419121 0.38097337 0.40792733 -0.019779654 -0.46834204 -0.032840163 -0.2974027 0.86862147 0.284033 0.12159892 -1.4408726 1.0643684 -0.06942559 -0.33954552 0.34381735 -0.31592402 0.04990071 -0.08943198 0.2510942 0.413651 -0.8801013 0.40700382 0.7460796 -0.42636028 1.2857624 1.4107488 0.8220996 0.05528766 0.65702146 -1.5870126
25 -0.25740638 -0.89329267 0.6332015 0.8757589 0.25376394 0.47264838 -0.57662255 0.14636137 0.19128692 -0.7295941 -0.62756985 1.2564073 0.28153196 -0.10188651 0.07885963 0.5625813 -0.7134448 -0.0599407 -0.26210454 -1.4739597 0.2620246 -0.71452165 -0.1948805 -0.030839985 0.6376414 1.0442648 0.40188447 -0.10370953 0.34941337 0.9696795 0.46228313 -0.8178477 -0.28360504 0.19306427 -1.2693045 1.5030918 0.17420658 1.3701655 0.47419983 -0.1454311 0.6649532 0.67091256 0.051396992 0.8463507 -0.3206241 0.25038698 -1.7337933 0.04582731 -0.6894482 -0.46207353 -0.6716468 0.7630439 -0.5681553 -0.7111203 0.022167802 0.042854723 -0.008473502 1.1854568 -1.0092732 -0.93001163 -2.215326 -0.3405427 -0.7590909 0.4044349 1.6412216 0.3076728 0.6617875 -1.2096785 -0.47653785 0.023336003 0.753904 -1.0474328 0.06579642 -1.2383921 -1.5050851 0.19348118 0.51765263 -0.3767201 1.4229088 -0.57769895 -0.6503782 -0.7075038 -0.41812426 1.315535 0.8036341 1.069297 -0.6361978 -0.41698927 0.3208827 0.75927436 -0.7231951 -0.70607257 -0.20816009 -0.2938676 0.98977214 -1.1645799 -0.21852042 -0.410171 -0.16471392 -1.6249212 -0.22261517 0.20431016 -0.71392936 -0.103757314 -0.44528133 -0.65555894 -0.846988 0.28590047 0.94793755 0.18828757 -0.5793823 -0.41995984 1.8064159 -0.4110341 -0.13443752 -0.5783918 -0.31372416 -0.25681266 -0.6297248 -0.88887537 -0.38221627 0.05779134 0.3913891 -0.6408679 -0.50471526 -0.71903193 0.10167316 -1.5021268
233 -0.0016158042 0.48615053 0.65579325 0.33980572 0.8460007 0.0141418325 -0.18471661 0.39039347 -0.23591812 0.49951378 -0.24765953 1.1183842 -1.1530291 -0.076550275 -0.23554595 0.5887648 -0.056905657 -0.38428295 -0.6203414 0.51310986 -0.44351748 0.009628754 0.2827739 0.5002328 1.04953 0.2650237 -0.8960282 -0.6062349 -0.072423995 0.016570546 -0.91277957 -0.18997493 -0.29077902 -0.3347557 -0.031673625 1.2436467 -0.16214846 -0.14924438 -1.0929941 -0.45060623 -0.7140997 -0.6021132 -1.313176 1.3908285 0.23694094 0.23826626 0.15517303 -1.0974355 -0.9549292 0.91188836 0.32252836 -0.046608444 -0.5045888 0.73132825 -0.23080131 0.7546773 0.11106204 -0.112714216 0.03633401 -0.6664919 -0.61367947 -0.4342515 0.49852723 0.15303537 0.117728196 -0.77878904 1.3712529 -0.25343913 -1.0468609 -0.99800766 0.25747573 -0.64876026 0.48701277 -1.1268965 0.18093535 -0.22280352 0.5269805 -1.0185055 0.59099764 0.4260523 0.5682836 0.08244428 -0.99669266 1.8977516 0.7649843 -0.63418967 1.3394946 -0.10561506 -1.1280351 0.17436148 -0.07446017 -0.6159765 0.7077283 -1.0161008 1.276816 -0.28089485 -0.93512875 -1.0317066 0.92865163 0.12060735 -0.38341615 0.8072542 0.59175855 -0.5194929 -0.050659582 -0.05496731 0.1970476 0.47433573 0.4388373 -0.14961301 0.64529294 0.2429349 0.73920923 0.5695923 -0.13051754 0.21604457 -0.34358042 -0.20169811 1.2467071 -0.10740787 -0.5581062 -1.049297 -0.62337965 0.058893427 -2.7070103 1.000797 0.8189515 -0.091919795
32 -1.0052193 -0.59205294 -0.48524338 0.32238585 0.445678 0.42623883 -1.2511346 1.2417309 -1.1135254 -1.4529126 0.114840664 0.4622704 0.3624276 0.4504071 0.6727869 1.5763185 -0.72385967 -0.27680093 0.3314521 0.026399724 -0.2596773 0.6735212 0.9135567 -1.9881523 0.9540186 0.6970721 -0.04817559 -0.33135265 -1.145802 0.09791022 -0.8094647 -0.40790284 -0.094464995 -0.47356358 0.2280478 0.88106793 0.2612787 0.5373369 1.0756985 0.7137815 -1.2864634 0.5037364 -0.19513527 0.19563423 0.24189717 1.1801264 -0.23209019 -1.0125853 1.5059905 -0.4943198 0.9520657 -1.3945304 -0.7385964 0.17897986 1.2114666 0.34824198 -0.40652066 -0.8030223 1.0142009 0.62152016 -0.5940836 1.2514226 -0.25350097 0.39697975 -1.291828 0.032474283 -0.582076 0.53406805 0.052217904 -0.25205132 0.13675694 1.2184912 -1.4716471 0.9609073 0.107214294 0.75621283 -0.352906 -0.20064874 0.35815224 -0.7773729 -0.6115123 -0.26176643 -0.4373751 -0.8499423 0.52131975 -0.2430397 0.90771353 1.0913857 1.5452961 0.22529702 0.10216022 -0.87966985 1.7365528 -0.9193707 1.0385947 -0.73539394 0.39114693 0.9232986 -0.6472753 0.37145826 -0.13808584 -0.30691105 0.6956763 -0.41418037 -0.14544572 1.3399235 0.6073389 0.28867853 -0.6456061 -0.59045833 0.21317221 -0.37394765 -1.0559772 -0.37896532 1.3080424 -0.41752207 0.5203403 0.14090694 1.8435886 0.87427473 0.4899577 -1.0161623 0.09507692 0.84948105 0.51458734 -0.6048259 0.030614536 1.0168092
231 -0.046648987 -0.3114969 -0.21756616 0.5662716 0.40346068 0.090130866 -0.16292138 0.7887969 -1.0171431 -0.19966444 -0.19019379 0.83857644 -0.45080245 -0.5216664 -0.043031476 -0.7415063 0.31797007 -0.06928408 -0.7543598 0.18882152 -0.14642476 -0.8690745 -0.9725092 -0.4094724 -0.6853663 -0.10622479 -0.07360584 0.7331441 0.7485169 -0.36746025 1.2665712 -0.7705533 -0.26724193 0.14454988 0.81615365 0.08771382 -1.1975223 1.072282 -0.17914656 -0.250231 -0.77749276 -0.9856339 0.3961507 0.42839032 -0.88482195 0.2895279 0.65292 0.23116648 -1.550888 -1.1985737 -0.28656057 1.0863577 0.8434011 0.43781877 0.0053580254 0.7698415 -1.0627645 0.570499 -0.691868 -1.0399238 -0.6300926 0.70535696 -0.43010524 -1.3359345 1.5906405 1.1183145 -1.0986817 -0.22942886 1.0912988 0.6485871 0.4203858 0.45986998 0.3690674 1.6748668 -1.2017751 -0.6044714 0.42989984 -0.5607672 0.28585202 0.08794564 -0.1018167 -0.6015197 -0.069444366 1.0923793 -0.036657445 -0.17110047 -0.22392851 0.52928185 0.31307402 0.59446603 -0.8153584 -0.027692283 -1.1702794 1.6850427 0.033989005 0.20575532 -0.09620072 0.70167017 -0.22096288 -0.8739489 -0.9709843 -0.16723363 -0.23586877 0.37364566 -1.0611087 -1.3908396 -0.054587957 -1.3587992 -0.37471336 0.31174076 0.48638463 -1.7027887 0.019960273 -0.35137075 -0.40110654 -0.96323025 -0.58255416 -0.031477023 0.17472066 -1.2616483 -0.78976065 0.7568697 0.6338682 -1.1418555 -0.17651337 -1.079679 -0.31854355 1.3795106
183 1.4606698 0.8579845 0.62752247 -0.8403071 -0.73499155 0.5441955 0.570191 -0.52154225 -0.8095247 0.6759123 0.96811795 0.98385596 -0.29113674 -0.06266367 -0.097433284 -0.24403219 0.621831 0.19400123 0.49091202 -0.31545728 0.23859754 0.5280969 -1.0232068 0.64628106 -0.18216828 0.18593782 1.2237309 0.72335714 -0.20588477 1.2522782 0.610994 0.8496263 -0.56432116 -0.27747983 0.3198709 0.095118575 -0.024731431 -0.18960327 0.8186418 -0.3983962 0.44768497 -0.8602152 -0.13369294 -0.89929724 -1.504703 -0.25979304 -0.98054993 -0.7401673 0.14790618 1.8728089 0.7346307 -0.18272565 -0.056521595 0.41440836 -0.5991644 -1.3775299 0.76270974 -0.86602783 -0.5873652 -0.2336338 -0.14815567 0.16941585 -0.71287525 0.056471616 0.19131874 0.39166024 -1.5774317 -0.107283026 -0.026034249 0.32174262 -0.35362747 -0.7126134 -0.5196676 -0.10226501 0.6196968 -0.08314086 -0.55197614 0.61735666 1.3035952 0.52077204 0.56427336 -0.21359167 0.37788206 -0.26748452 0.5429695 -0.20843321 -1.1372164 0.68143284 1.2818006 -0.5868318 -0.010304483 -0.054726843 0.9669434 1.2962887 0.93968934 2.0029395 0.48679036 -0.29537538 0.31620786 0.7379196 0.45317543 -0.88732904 0.071952745 1.1633376 0.25146157 -0.39618436 0.29619336 -1.3142881 0.41264313 -0.5755616 0.5201327 -0.07317554 0.12546922 0.30985218 -0.445513 0.7997381 0.41747344 -1.2911254 -0.28177863 0.8966268 0.8108101 0.4878162 -0.598156 -0.6770929 -1.5310388 -0.8102297 0.5902968 -1.586047
54 0.06343437 1.0032462 -0.049701832 -0.5259167 -0.13558523 0.23663862 -0.13271207 -0.3116638 -0.04437738 0.515153 -0.4979943 0.31193957 -0.22432931 -0.6408025 0.22352222 -0.37471282 1.0312879 1.7703358 0.04436601 -1.3520099 -1.220753 1.4628965 -0.67253935 0.22654638 -0.43308035 -0.6272007 0.69380766 0.39445737 0.87105423 1.5380819 -0.6448194 0.24065797 0.540204 -0.13745657 0.18947577 -0.31599495 -1.3244208 -0.12887423 0.08450102 0.32136726 0.53541803 -0.4645925 -0.323775 -0.9585227 0.47266144 0.66979766 -1.6865119 0.6046162 -0.6688083 0.6269867 -0.9992556 0.51413774 -0.72283065 1.0025681 -0.15022607 -1.2408843 1.2914628 -0.8853073 -0.74700075 -0.30173934 0.8279088 -1.228422 0.06665097 0.40933117 0.23138331 0.29062727 -0.89223146 0.3318185 0.10232106 -0.6507938 0.1569904 -0.6307195 -1.3786451 -0.08574115 0.24507582 -0.7110192 -0.100463964 0.22282903 0.9332112 -0.8908608 0.042360913 -0.9206848 1.1813453 0.17792106 1.4547789 0.5680649 -0.45706114 0.41219807 0.6348608 -0.92590576 0.8907969 0.08811782 0.1162431 1.5349631 0.13780229 -0.40863734 0.16488378 -1.2476535 1.2459625 0.4574408 0.6775648 -1.274271 -0.10655358 1.8050776 -0.31129882 -0.059064396 0.10035103 -0.524364 0.37276074 0.61802757 -0.12119993 0.84364283 -0.21043767 -0.22558671 -0.17740001 1.0570929 -0.06744288 -0.4067954 -0.37483382 1.2619932 -0.56438166 0.54424685 -1.158249 -0.5282051 -1.5478443 -0.5794573 0.81721777 0.06381147
107 -0.2894645 -1.3643148 0.75573313 1.1037904 0.27319938 -0.032910988 -0.44451794 0.41556832 0.25932625 -0.9136808 -0.54502696 1.263901 0.44471303 -0.5336365 0.07421041 -0.13840649 -0.63714236 -0.18870956 -0.9154828 -0.96105605 0.13939 -1.2023846 -0.3203497 -0.35490295 0.4973644 0.8983179 0.94445735 0.17293876 0.41081297 0.89693946 0.9718207 -0.6086357 -0.3188107 0.7411158 -0.8132634 1.2108233 -0.33859968 1.6233624 1.1108971 -0.20020081 0.13451514 0.16610087 0.5362684 0.34454978 -0.83836746 0.32854894 -1.468028 0.64159703 -1.0272655 -0.73048246 -0.7045459 0.7677875 -0.21354026 -0.9680305 0.13544792 -0.11630659 -0.42882776 1.908215 -1.2084808 -1.1206714 -1.9989786 -0.4118223 -0.5997474 0.21632574 1.6523507 0.79686475 -0.43305418 -1.3515234 0.04304018 0.15143721 0.67574453 -0.56480235 0.03507822 -0.973419 -1.7240177 -0.5764354 0.5995582 -0.77602166 1.7487828 -0.7527278 -0.8551697 -0.7181988 -0.38999167 1.3834425 0.38659075 0.5366597 -0.75189906 -0.31191465 0.27966523 0.96932095 -1.4204764 -0.23166116 -0.221251 0.4156876 0.5596565 -0.7926809 0.0298801 0.038904954 -0.7872998 -1.357124 -0.19872518 0.26804754 -0.97325915 0.1009229 -0.77809286 -1.1650527 -0.9525137 0.025735231 0.41923085 0.13267294 -0.55025643 -1.0401523 1.4817685 -0.6125604 -0.14409147 -0.58020186 -0.6219339 -0.053772118 -0.61931205 -0.95471 -0.33873665 0.048798528 0.40061125 -0.93097925 -0.2125741 -1.4772398 -0.2186435 -0.779454
161 0.3157951 -1.41576 -0.70999116 -0.380906 1.0762005 -0.114890195 -0.039105915 -0.07917746 0.8411265 0.111389525 0.121645704 0.3718954 0.122881815 -0.70928204 0.60915285 -0.26380178 -0.6431208 0.28198725 -0.14843786 -0.1785239 0.110509686 0.15699394 0.12938298 -1.4125526 0.39817607 -0.33506042 1.0092547 -1.2584418 -0.21369445 -1.4574608 0.42965108 0.52335614 -0.7874241 0.23816277 1.1078199 0.25609818 0.7380216 -1.0380349 0.17437279 0.1448807 0.29651144 0.72925836 -0.19101058 -0.61623186 0.29245842 0.4527885 0.48936042 0.47265282 -0.28887832 0.242386 0.8756074 -0.20084098 -0.8108028 -1.1616216 -0.5740057 -0.51008564 0.5435094 -1.2159095 -0.0024456077 1.64835 -0.11326519 -0.22014162 0.70493543 1.0840007 -0.909036 1.3282288 0.6128681 -0.47149095 -0.39872319 0.7874448 -0.07323219 0.6916033 -1.1242737 -0.23174341 0.7878631 -1.1328166 0.4063964 -0.99183637 -0.3287982 -0.0213604 1.3178194 1.3252954 -0.192583 -0.68670744 0.7536143 -0.07189663 -1.4172413 0.24712345 0.21608804 0.7301274 -0.32581314 0.6412298 -1.6702808 0.9328141 -0.82570726 -0.23000492 0.85432076 -1.0405769 -2.20947 0.31773773 0.22690727 0.7320699 -0.6332695 0.6867311 0.06475008 -0.090483434 1.0444546 0.7834169 0.40681368 1.5803717 -0.6507881 -0.25073087 -0.12453998 0.07755944 0.031815782 -0.54006577 -0.7550546 0.91516715 0.026060604 -0.12817268 0.865709 -0.046935085 0.43253976 -0.33311647 -0.047357816 -0.34813416 0.34459957 0.5851831
100 0.2083197 0.4043686 1.0612013 0.95006126 -1.0070355 -0.6152395 0.9784549 -1.2613202 -1.4471674 0.46722195 0.11884892 -0.3356599 -0.34296882 1.0665965 1.5821415 -0.63108844 -0.019351922 2.099399 0.47537416 0.9246611 -0.52383816 0.95298356 1.9083778 0.9344534 0.32188892 -0.8649694 -0.39598194 -0.6892191 -0.4146793 0.5407252 0.1190493 1.0999198 -0.52603537 0.32955453 -0.16258031 1.4750541 0.26648006 -0.03545331 -0.13637695 -0.023765966 1.1110858 0.73448193 1.6842695 0.55117804 -0.6224523 -0.042815626 -0.01989918 1.0004766 -0.039617363 -0.609927 -0.39233845 0.21475995 0.35646042 0.9034941 0.61879915 1.4779627 0.12011802 -0.39774045 0.96449494 1.5442594 -0.0057345936 0.6702452 0.15214269 0.6665235 -0.19978835 0.37685883 0.40880278 -0.19783743 0.21622384 -0.6420343 -0.64008135 0.15084793 0.9172175 -0.1002004 -0.6413124 0.63150054 -0.4450213 0.7107395 -0.22545034 0.10223064 0.29306325 0.74907976 -0.5041837 -1.3062578 0.5921276 -0.102399886 -0.022035414 0.33655414 -0.556166 -1.499847 0.030837042 -0.6432326 0.27166396 0.6287663 -0.5196107 -0.54476136 -0.3667884 -0.101826936 -1.5961999 0.055150777 -1.0222905 1.4399751 0.83558947 -0.3280192 -0.82267255 -0.93541604 0.39940763 0.89118975 0.6744677 0.18916248 0.8964776 -0.3053235 0.46747464 0.26352 1.22936 -0.12407769 0.7115722 0.059214763 0.97783947 0.8866037 0.77048093 1.2007437 -0.013966945 0.5464873 -0.055612482 0.15853636 0.7418787 -0.73577255
120 -0.5412514 -0.8372245 -0.6392806 0.1722679 -1.5082052 -0.8353658 0.21714292 -0.5300835 0.0226665 -0.7584481 0.9198012 -0.43685934 0.21502122 -1.4671408 -0.17927912 0.06881333 -0.070023164 -0.87040067 0.22588542 0.3668909 -0.6079352 -0.027225109 0.19143073 -1.7631075 -0.41103387 0.3264721 0.2569164 0.83261305 -0.13676848 0.53694224 -0.49228346 -1.2518234 -0.29430053 -0.7205904 -0.30102605 0.6703996 0.36575246 -0.68725365 -0.7391347 1.0249474 0.7906449 -0.43299663 -0.482834 -0.89449805 0.39860862 1.3549521 -0.7501716 -1.2893791 0.30467385 -1.9168653 0.89046943 -1.6066996 -0.71552116 0.9031736 0.9297165 1.4068105 0.13465364 1.0651711 -0.08111267 -1.5043093 1.1789591 -0.27731514 0.25769448 -0.3282217 -0.44545218 -0.92896706 0.62747747 -0.16866535 -0.12503618 0.18808874 0.6400234 -0.8293067 -1.3697766 0.6732121 -0.27368405 -0.15039177 -0.124284126 0.13498877 -0.6419595 0.08841596 -0.32820082 -0.08443209 -0.5587418 0.8300571 -1.038837 1.4620894 -0.6544396 -0.62836146 -0.44370112 -0.5890676 0.52881765 0.20243838 -0.2022757 -0.093697295 -0.4096641 -0.6844308 -0.15445416 -0.7908267 -0.24454601 -0.7387849 -0.40910268 -1.1716726 0.07791395 0.5836317 0.29604307 1.4346219 -0.0022666457 -0.09317249 -0.15840524 -0.77493167 0.34009004 0.051464505 -0.6967658 -0.5277024 2.2010753 -0.215975 0.26830447 0.15336654 1.314247 0.47254562 -0.58095145 0.6266439 0.6326931 0.6273001 1.1229823 -0.48637095 0.9329778 1.5320349
230 -0.278535 0.5067527 -0.40345627 -0.110115126 -0.12530275 0.61466175 1.2468445 0.0642033 -1.3676758 -0.2309344 0.5254408 -0.41217342 -1.1601771 -0.3192005 0.040537648 -0.82718015 0.97664255 0.022941666 0.50321835 0.44596627 0.15220286 -0.055452842 0.04192869 -0.45457175 -1.1476142 -1.2048908 0.4183499 1.1628054 0.5750131 -1.0970849 1.6367922 -0.17757908 0.29544488 -0.4322639 1.6201011 0.0702756 -0.4440608 0.2134328 -0.53663635 0.2262191 -0.115735695 0.0022516614 -0.3477417 0.40141714 -0.39709195 0.28649005 0.35102308 0.8046515 -0.40901175 -1.1377118 0.2509514 1.4754028 0.31267852 0.10033578 0.20718063 1.7090145 -0.55267215 -0.66292304 0.24929734 0.25046617 0.018719718 0.80345076 -0.088542484 -1.3504755 1.5723213 1.5269454 -0.421148 0.08497283 1.7279619 0.22574657 1.4555999 0.59855145 0.5759239 0.9714015 -0.09116417 0.19470787 0.46242425 -0.38633826 -0.9035326 0.82380253 0.42746857 0.087176226 -0.6760256 0.8371303 -0.0025128291 0.8072646 0.5031078 0.1439991 0.83395797 0.32110628 0.18036301 -0.62059057 -1.4681954 1.5654074 0.87769616 0.582562 0.08850175 1.2395483 0.31581736 -0.23874712 -0.45004058 0.36596233 0.05265193 -0.21004073 -0.3404118 -0.06198928 -0.10655845 -0.92062056 -0.18454175 0.669232 0.7254573 -1.109486 -0.16575824 -0.15529208 -0.44896665 0.016051639 -0.90199834 0.22523397 -0.040916603 0.08760255 -0.37072614 1.2183552 1.2100456 -0.5336044 0.05603885 -0.42140576 0.75923353 0.70845103
108 -0.03888051 -0.8365949 0.9896965 0.8926933 0.06220218 -0.042728692 -0.2336403 0.45557848 0.6013862 -0.8668399 -0.32735145 0.2650847 1.06676 -0.47279847 -0.7402346 -0.59527946 0.15363403 0.34080172 -0.6327367 -0.1878046 -0.16358289 -0.3877179 -0.16720143 -0.39079744 -0.045028344 1.2468166 0.39817998 0.8395735 0.6341324 0.8529121 0.81164753 -0.48763993 -0.35180694 0.9409012 -0.043719504 0.30765483 -0.18609004 1.0947734 1.9848177 0.41764897 -0.22948474 0.42943144 0.44215852 -0.08262795 -1.2244586 -0.43082595 -0.22310512 0.9336535 -1.2053133 -1.0765028 -0.09956547 0.84082544 -0.079469346 -0.59969634 0.94008416 -0.57864183 -0.5077271 1.5342486 -0.6162003 -0.32682794 -1.4867971 -0.8926239 -0.19875714 0.20289987 0.6775534 0.54207486 -0.97878516 -0.73294574 0.12480943 0.22914153 0.40967956 0.50444424 0.7905929 -1.2668025 -1.7778728 -1.0054309 -0.047431324 -0.4373386 0.98161227 -0.33203563 -1.3091741 -0.49199882 0.22508495 1.119582 0.37765795 -0.5872252 -0.78918415 -0.45636317 0.71743625 0.50244445 -1.9801854 0.56957597 -0.235034 0.87505925 0.3186753 -0.8484222 0.3592357 1.0432061 -1.1653233 -0.99614626 0.6220791 0.07671606 -1.038649 1.1047081 -0.6830598 -0.6731911 -0.5278056 -0.23979422 -0.30587146 -0.7561953 -0.25547895 -1.1340412 0.521581 -0.32646653 -0.73738664 -0.24014063 -0.9011302 -0.36603004 -0.32635966 0.31275913 -0.13337666 0.16412713 0.04602889 -0.8878902 1.026628 -1.28714 -0.58051515 -0.14639997
62 1.4068556 0.9510956 0.32590285 -0.8061044 -0.9505298 0.61446893 0.19234724 -0.37974295 -0.14579895 0.15005454 0.5539572 0.6823692 -0.1084038 -0.5798561 -0.27891114 -0.14234892 0.6677969 0.6101312 -0.026660899 -0.3317535 -0.029279828 0.34576002 -0.34202284 0.6868847 0.006092266 -0.6543417 1.1918437 0.57847553 -0.17060195 1.1012939 0.22403213 0.4370583 -0.74156374 -0.25270724 0.2043288 0.064215645 -0.6850183 0.2177914 0.078614555 -0.6741145 0.46609253 -1.0593097 -0.32875016 -1.3382386 -1.0116878 0.03354961 -1.2553514 0.2782189 -0.17383225 1.3135445 0.1872165 0.0967883 0.21402252 -0.11579955 -0.1901602 -0.8225466 1.000619 -0.92838466 -0.565519 -0.13295576 0.15259379 0.4210508 -0.30901852 -0.6620199 -0.28562188 0.37943128 -1.7302985 0.5566877 -0.17272595 -0.16554199 -0.14625056 -0.86539584 -0.85889375 -0.3943726 0.18327735 0.16417004 -0.33541754 0.56852573 1.1249233 -0.12711577 0.2973386 -0.07823217 0.9513229 0.4064956 0.96456945 -0.5280083 -0.89906144 1.1441092 1.6369718 -0.89561516 -0.13266048 -0.11837674 1.0700812 1.3449925 0.89962286 1.6206733 0.4800319 -0.08306689 1.300169 0.5975347 0.007425763 -0.7444084 0.77358645 1.4127795 0.97966397 0.2761035 0.58573973 -1.2142875 0.54635715 -0.96684027 0.956548 -0.04451798 -0.46502057 0.24433976 -0.47333422 0.7823318 0.4203617 -0.49773204 -0.11218823 1.1550407 0.6555017 0.46381405 -0.9661621 -0.94853896 -1.6535839 -0.43423027 0.17154853 -1.569026
232 0.007315984 0.20341691 0.16166662 0.29972604 0.47211605 -0.5415349 -0.5503275 0.20759733 -1.0671622 1.1232347 -0.6655138 1.8603562 -0.41924384 0.2968714 0.3472128 -0.09899864 -0.118192725 -0.19063538 -1.4452788 0.3003317 -0.15418522 -1.4653678 -0.9636537 0.50762504 -0.38271552 0.1388298 0.010326327 -0.620513 0.28062528 -0.37501913 0.1729787 -0.80376756 -0.28561988 -0.4121938 -0.840939 0.83968395 -0.6113371 0.03336808 -1.2261146 -0.97282594 -1.6204562 -1.2049146 0.29080263 1.2702291 0.31128004 0.43874317 -0.22163224 -1.0708932 -1.4649656 0.6242553 -0.57948273 -0.44401044 -0.5114845 1.4565519 -0.57694376 0.6125326 0.30310115 0.41138396 -0.1616248 -0.9846114 -0.65624183 0.15045872 -0.45730048 -0.28838742 0.75657964 -0.6378569 0.30793458 -0.30006027 -1.189727 0.79392624 0.040820032 -0.44205984 0.02331875 0.57023907 -0.20938207 -0.24166618 0.28246167 -1.0144631 1.1720604 0.029302664 0.008606452 -0.47623014 -0.015706072 1.8751253 0.50492734 -1.0454612 0.54167247 1.1590707 -0.85250163 -0.033715133 -0.8207755 0.512144 -0.4514421 -0.022595942 -0.053254817 -0.15728076 -0.35440692 -0.7587904 0.73172796 0.71000487 -0.83035785 -0.11554484 -0.16098565 -0.1475066 -0.47073135 -1.3935939 0.2653807 -0.38518268 -0.11065653 0.9249385 -0.08426423 -0.23956423 0.40541047 -0.35299742 0.10756069 -0.41805312 0.02098492 0.5669252 1.1252499 -1.2711599 -0.76617867 -0.7196246 -0.6229643 -0.85153085 -1.866009 0.5564308 0.027455986 0.06372229
61 0.35665497 0.68258077 -1.1088121 -0.44361684 -0.35076207 0.0901859 -0.20154153 -0.48348662 -0.25006333 -0.1840808 -0.7875249 -0.0060081505 1.0813867 -0.661983 -0.58344704 0.5734959 0.06831251 0.4208635 -0.25119808 -0.13218606 0.29925823 -0.80848736 0.6344643 0.1380585 0.2701329 -1.3067279 0.84395665 -0.9181321 -0.15294637 -0.2255771 -0.0615291 -0.44830456 -0.43765798 0.36249828 -0.054414168 0.9732404 -1.1872948 1.0357827 -0.74779916 -1.1554486 0.49873683 -0.39469486 -0.67386305 -0.8276387 0.2485519 0.6598427 -0.52646995 1.4604697 -0.6106812 0.04118493 -0.29348 -0.21971147 0.8550498 -0.923303 0.6435788 -0.29874983 0.69580215 -0.16637328 0.04558459 0.31393838 0.15657511 0.44054613 -0.3666331 -1.8405198 -0.14900334 -0.14626259 -0.26081198 1.0451864 -0.20249075 -1.1645473 0.2180352 -0.33434755 -0.7465792 -0.48770484 -0.119035594 -0.053659815 -0.44596645 0.40530765 0.6750272 -0.03554259 0.010733403 0.54815364 0.6588746 1.144349 0.7014817 -0.612812 -0.3424569 1.6091931 0.9584233 -1.1806517 -0.14374399 -0.3109721 0.14677534 0.5381492 0.5400984 1.1142411 0.5782732 -0.08612884 2.3432255 -0.73194754 -0.1862782 -0.2958806 2.0715566 1.6266049 1.2300915 1.2106543 -0.13643205 -0.8488298 0.8252164 -0.97718894 1.1919758 -0.1725197 -0.6584001 -0.3014844 -0.84982103 0.6847257 0.42434555 0.08483315 -0.22293936 1.0783974 0.37308282 -0.37850735 -0.2179078 -0.18611665 -0.08943206 0.044074576 -0.8457689 -1.363134
52 1.0362597 -1.0264932 -0.5027146 -0.34338176 1.0777302 0.052904874 -0.46235058 -0.117484495 0.3305662 0.39623052 0.16275023 0.9696295 0.27039397 -0.3352769 0.9607273 -0.27061185 -0.54804134 0.19455399 0.122071415 0.15818001 0.0046962136 0.25016773 -0.1418758 -0.89463305 -0.18832107 0.047974568 1.0958282 -1.0368923 -0.22672412 -1.6784115 0.25142917 0.7717406 -0.06883391 0.30736628 1.4323825 0.26130146 0.95846754 -0.99667823 0.5052202 0.6193912 0.67399526 0.4538667 -0.50146174 -0.53580225 -0.014044477 0.86133546 0.5027058 0.16545737 -0.13331507 1.0113081 1.4941605 0.15265584 -0.92771053 -0.37448242 -1.0649397 -0.81426764 0.13233534 -1.3098763 0.46684864 1.6312841 -0.54428256 -0.6626897 0.9263493 1.0450678 -0.38346258 1.1942096 0.45773554 -1.1156294 -0.4511232 0.48771685 0.036486756 0.5433609 -0.7795987 -0.20153145 1.0623759 -1.507743 0.2885934 -0.082700305 -0.024910942 0.5326197 1.2949681 1.1849554 -0.4326039 -0.5899113 0.7393646 -0.29339004 -1.8092237 0.67634624 0.16158435 0.67816097 -0.29396516 1.1476513 -1.4936601 0.9361834 -0.69636387 -0.018915191 0.5703676 -0.46763378 -2.2781284 0.36302227 0.4430726 0.17722979 -0.69961494 0.6027501 -0.86696345 -0.12132455 0.5434699 0.98832464 0.12747316 1.1370583 -0.29219788 -0.47029427 -0.006923126 0.16294603 -0.14134578 -0.7923256 -0.7414421 0.48326242 0.038771763 0.5299551 0.75566727 -0.013519853 0.65939766 0.026515111 0.20185046 -0.46448854 0.7770676 0.83221364
75 0.08989234 1.6488099 -1.1060503 0.5600885 -0.6923518 0.39602023 -0.887687 -0.79040045 0.97500956 -0.41563675 -0.38269484 0.7884593 0.41151834 0.35667223 -0.23448797 0.5215461 0.100967504 -0.19525528 0.6536229 -0.77921 0.22131118 -0.916063 -0.1839423 0.39613643 -0.6355205 1.4116282 -0.016732391 -0.46652952 0.5445865 0.9267038 -0.49404812 -0.59988225 0.33406422 -0.23002127 -1.7174348 -0.2572228 0.5532432 0.3005193 -0.9597485 0.9209156 0.90585244 1.0627956 0.8259512 0.4172063 0.27286908 0.37793118 -0.22188932 -1.4203682 -0.17063424 0.104042836 -0.40863806 0.5084487 -0.6923885 -0.37266678 -0.0400164 0.43547803 0.45374554 -0.9428356 -0.17546596 -0.48776567 -0.4229423 -0.6824423 0.51826364 -0.50162613 -0.19380455 0.20383944 0.6884635 0.8221936 -0.4139923 0.7222415 1.1413425 -0.39502057 0.26189223 -2.0051541 0.6207515 1.6094574 -1.4431155 -0.121005565 0.26174527 -0.74274033 0.701676 -0.45434418 1.2478637 -0.8584726 0.2568652 0.78294325 -0.13798457 0.8873508 -0.5600632 0.3793093 -0.3342624 -0.1571824 0.6189975 -0.29000136 -0.11219776 -0.51375353 -0.31101266 0.04973747 -0.101342365 0.3824614 0.015547902 0.076182626 -0.8029761 0.07997462 -0.18515028 0.5909373 -0.22551456 -0.3230569 -1.3866792 1.25583 -0.068999164 -0.24590202 0.09200365 0.3089434 -0.12501134 -0.21551833 0.40188602 0.505602 -0.537481 -0.10638044 1.1067989 -0.33740458 1.762568 1.5054275 0.47566557 -0.32095575 0.82979554 -0.6644046
191 1.5554206 0.61239433 0.62608105 -0.8666715 -0.96394134 0.38772452 0.4632051 -0.33992973 -0.21644688 -0.272729 1.053339 0.6208856 -0.444219 -0.5353339 -0.78583103 -0.06368268 0.56597304 -0.11027616 -0.34193018 0.43091705 0.3595394 -0.09969493 0.13175061 0.17550358 0.10446777 -0.5178582 1.059532 0.4902201 -0.53792065 1.270159 0.29115728 0.34835133 -1.0738345 -0.32315436 0.1935727 0.065997005 -0.17154421 0.19053018 0.17946531 -0.96671504 0.48930687 -1.3378954 -0.3587169 -1.1539721 -1.4728503 -0.45408043 -0.82643574 -0.5491521 0.0064627863 0.7700513 0.44664705 -0.17300336 0.29802546 -0.83584064 -0.24144907 -0.5797272 0.53756565 -0.35946843 -0.9046605 -0.05697481 0.060806453 1.0911393 -0.5593888 -0.7941301 -0.5243516 0.41094664 -1.6399475 0.7669356 -0.4926839 0.48583803 -0.4392702 -0.9666531 -0.5476667 -0.4863694 -0.06830484 0.19020587 -0.14327668 0.0140313 0.7603364 -0.09302465 0.60939056 0.1368981 0.4113162 0.43411282 0.29046807 -0.35168955 -0.77272445 0.9522676 1.3235639 -0.71462333 -0.45270845 -0.38823143 1.1054015 1.0916476 0.70776033 1.638556 0.61336446 -0.07576221 0.82959205 0.9073025 -0.4555991 -0.23519611 0.5560742 1.01607 1.1176925 0.35938346 0.83346033 -1.2044934 0.09674887 -1.1154011 0.8209652 -0.3318513 -0.63176316 0.44345585 -0.04371294 0.46233174 0.5746286 -0.19139072 0.2815623 0.8521781 0.77736074 0.26832125 -0.6053548 -0.5108341 -1.6095178 -0.5631774 0.2868736 -1.78993
