333 128
118 -0.08963963 0.31237483 0.2864209 0.0076856934 -0.13295718 -0.2739745 -0.5528624 0.18682432 -0.18324085 0.2720968 0.8395773 0.11990613 0.47203737 -0.13448316 0.34551412 0.3105793 -0.32272112 0.014438316 0.37438735 -0.13487643 0.6182151 0.048701283 0.8024709 0.36193484 -0.03145479 0.4083425 0.18165779 -0.412072 -0.3801562 0.102301285 -0.57333803 0.9337748 0.22661318 0.31266624 -0.47718337 -0.10117902 -0.13600804 -0.025866412 0.6551799 -0.21757548 -0.09373842 -0.24787846 -0.39063996 0.44575468 0.0344067 -0.10155994 -0.04398626 -0.4686717 0.147387 0.009688277 0.03402331 -0.09782187 0.060407396 0.23154984 0.15819652 -0.0083462475 -0.56375617 -0.0018263166 -0.07860355 -0.9503023 -0.14595827 0.16738419 0.31093198 0.5751236 -0.11527697 0.5929618 -1.0314186 0.25244522 -0.1348079 -0.21524915 -0.1838566 0.292783 -0.21464366 -0.30561876 0.34496966 0.33357775 0.41415584 -0.7971342 -0.1269463 0.39158803 0.30407643 0.6205632 0.15858755 0.20482686 0.90962887 -0.52433157 0.04705077 0.2660474 0.14469467 -0.1476112 -0.46645164 -0.19443087 0.12922715 0.12839238 0.54638416 -0.45305327 0.9947304 0.0060318853 -0.5008675 -0.09378937 0.43963557 0.08801771 0.2363411 -0.037725832 0.26 -0.33724496 0.6472951 -0.1945036 -0.016173216 -0.77632886 0.416101 -0.62459576 0.1991954 0.6363951 0.4613439 -0.6823733 -0.042706482 0.49521592 -0.45017436 -0.049179893 0.16558434 -0.13370669 -0.01140307 0.025527684 -0.05275677 0.32170132 -0.8444412 0.023729347
261 -0.5599782 0.12194469 0.15872711 0.3667386 -0.6484208 -0.68499064 0.05100434 -0.68675554 -0.38137737 0.839902 -0.20851718 -0.09596219 -0.11867655 0.29030642 0.9596603 0.355872 -1.1342263 0.26289302 -0.35702473 -0.013731647 -0.14395493 -0.89597577 -0.57241267 0.3580909 -0.051050626 0.65808564 -0.48482153 -0.094446905 -0.18293545 -0.5502327 -0.43466014 0.10196411 0.055105384 0.69634247 -0.16525805 -0.47852036 -0.46874398 0.16313097 1.1396656 -0.16070616 0.43156424 0.35754913 0.4261768 0.17093073 0.10027946 0.23571634 -0.16173269 -0.6649021 1.0186971 -0.0019749918 -0.10599387 -0.1063503 0.9276669 -0.16896449 0.25854963 0.0878676 0.10881168 0.5765086 -0.5756555 -0.052413914 -0.25737607 1.0873325 0.22307566 0.25991955 0.42087048 -0.32298744 -0.65153843 -0.37020266 -0.11730037 -0.18694505 0.11820437 0.02585401 -1.0946223 1.36371 0.34873208 -0.08850658 -0.036953136 0.09007329 0.29675207 -0.29317194 -0.3568896 0.30724534 0.4789601 -0.7612987 -0.34105575 0.28778514 0.5233487 0.12242013 0.012437215 0.12975231 0.025959464 0.124112606 0.035533782 0.050532274 0.23695847 0.18268113 0.06664534 -0.007913093 -0.75032467 0.17890108 0.6841793 0.45603228 -0.10169943 0.32104883 0.001180739 -1.0229704 0.1782639 -0.38374713 -0.9576079 0.9623068 0.6304383 0.32146502 -0.12218371 0.43725598 0.24591486 -0.25216484 1.0167501 0.66063327 -0.2004373 -0.7739953 -0.3638772 -0.10659728 -0.55452764 -0.30378583 -0.24279547 -0.16717422 0.0010073135 0.38381252
255 -0.62062687 -0.044120762 0.43095303 -0.2203143 -0.4537769 -0.27861434 -0.2208318 -0.27170053 -0.6718966 0.53844947 0.29922673 -0.029887173 0.11727597 0.05049275 0.71416533 0.4691099 -0.43833342 -0.082853846 0.39466757 -0.21303691 0.64809006 -0.7087773 0.4151071 0.14119698 -0.16864201 0.16746138 0.13372971 -0.05818776 -0.19600284 0.12294119 -0.18880925 -0.169753 0.16468859 0.61311704 0.18781753 -0.544598 0.35094124 -0.060111694 0.7165194 -0.36325374 0.23805214 -0.2812117 -0.49585357 0.28418556 0.008717064 0.23990948 0.24183801 0.41030803 0.18399474 -0.37837282 -0.60595983 0.09974741 -0.024844218 -0.51265943 0.5578911 0.21092357 -0.6125594 0.4190939 -0.31946534 -0.0067615844 -0.09065009 0.9731918 0.18701106 0.30914032 -0.06278713 0.28666195 -0.9044929 0.30597395 0.19740789 0.05279978 0.2493811 0.30900675 0.16018817 0.67610973 0.12957789 0.1072498 0.68492687 -0.014041012 0.2268387 0.020633128 -0.2051722 0.5176569 -0.22410287 -0.8469595 0.5110239 -0.16094354 0.6147786 -0.24099672 0.631625 0.58403546 -0.008099178 0.41548973 -0.6026587 -0.1866083 0.6665672 0.5306747 -0.3525453 -0.004040327 -0.5735872 -0.029313197 0.26562485 0.15262279 0.5912288 0.09759729 0.33995757 -0.14119783 -0.4797294 -0.1257481 -0.22875679 0.36292928 0.7166007 0.012064356 -0.07495043 0.61429507 -0.23026843 -0.10063067 0.41599402 0.0203534 -0.13421318 -0.38716936 -0.053262047 -0.7430421 -0.5550815 -0.3115244 -0.3869076 0.10246341 -0.05318678 0.1462155
182 -0.4253519 -0.34595996 0.11964981 -0.13039269 -0.0732699 0.14818108 0.07888699 -0.012332514 -0.0748161 -0.15649594 0.27114764 -0.05194267 0.7745337 0.4489807 0.6035428 0.71670914 -1.1014179 -0.674301 -0.17838305 -0.5930547 -0.21152753 -0.082419805 0.1677722 0.21822147 -0.06983025 1.063845 0.028518712 -0.4856964 -0.30833957 -0.4332019 -0.2671345 0.2680459 0.09400616 -0.27938995 -0.21648067 0.8330841 -1.014222 0.11002897 0.16010267 0.014296765 0.11049493 0.17754334 -0.273122 -0.041537985 -0.2464272 0.018870287 0.016519267 -0.5225152 0.0044349525 0.70563066 -0.17309093 -0.2432647 0.09635396 0.23515126 0.13719238 0.07714834 0.16508418 0.5829584 0.3287034 -0.8087121 0.22519438 0.1310986 0.57215506 -0.051589634 -0.021319436 0.18377918 -0.51374227 -0.21435745 -0.16509183 -1.0478818 0.36575732 0.12747324 -0.8695621 -0.30283615 0.28886986 0.3869154 0.27539417 -0.37663227 0.19928564 -0.3821051 0.13228443 0.18665408 0.21563801 0.27544063 0.92118716 -0.07817706 0.24095027 -0.094482645 -0.16015983 -0.44802815 -0.05799602 -0.13404915 0.18541406 -0.0501359 0.44860822 -0.12803616 0.50658 -0.27534503 -0.32227516 -0.05630831 0.20843002 0.085460514 -0.17371532 0.60010415 -0.23925048 -0.27251327 -0.21180609 -0.3793705 -0.24037293 -0.7202842 0.6459913 -0.66942006 0.13729835 0.64761525 0.36243254 -1.0683258 0.88033336 0.5837467 -0.43558428 -0.2649139 0.6590722 -0.14407794 -0.5002634 -0.3206649 -0.555779 -0.30488023 -0.10153027 0.2507962
152 -0.083195865 0.1605819 0.43125775 -0.43644738 -0.25460324 0.070757754 -0.41132337 -0.1452296 -0.11423712 0.36786225 0.21395329 -0.30869034 0.24429063 0.082049005 -0.10051867 0.4517513 -0.084873974 -0.38792726 -0.24942131 0.53720105 0.21143539 -0.10807669 0.4343251 0.12804203 -0.24501719 0.30206206 0.22438343 -0.3740199 -0.8529476 0.25578067 -0.05136768 0.07377026 0.6711054 0.5765085 0.22605158 -0.40900898 0.06851137 -0.18273084 0.8483374 -0.23083735 0.48259756 0.23409279 -0.45601875 0.24728324 -0.2341002 0.3371002 0.3673622 0.32216468 -0.23547365 -0.07000486 -0.116729125 -0.5440531 -0.20178153 -0.1839241 -0.06792853 0.44160306 -0.42633998 0.84936225 0.21844609 -0.5930569 -0.59368384 0.17221421 0.1779155 0.38149643 -0.5687628 0.3777158 0.06506391 0.5307928 0.36358583 0.14051417 0.014226193 -0.1261359 -0.01385733 -0.4807273 0.16513416 -0.024146242 0.13408093 -0.81776786 -0.21450257 0.23824927 -0.024905104 0.7248307 -0.28455347 -0.22506553 1.0816767 -0.50171417 0.35369486 -0.296248 0.60837984 -0.112587504 0.2155781 0.17110536 -0.37890592 -0.44943193 0.29614973 0.13343616 0.38213953 -0.53359675 -0.74728936 -0.888438 0.17912625 -0.064322054 0.6153008 0.23888701 0.6466326 -0.20044506 -0.28600127 0.063073345 -0.35795173 -0.54756224 0.8448824 -0.44504848 0.48917586 0.5842941 0.22500725 -0.088031024 -0.3465272 0.5020948 -0.25362742 -0.3425524 -0.00024490902 0.0074281595 -0.6206269 0.18979011 -0.31256124 0.4550883 -0.28196135 0.51130635
166 -0.34077075 0.35422358 -0.474845 0.316938 -0.30069584 -0.1760776 0.18544824 -0.38604775 0.085115016 -0.14223383 0.16819724 -0.2636832 -0.31695268 0.30101433 0.28392696 0.21355022 -0.6205935 0.7295745 -0.41404083 -0.17073064 -0.25253198 -0.1851959 -0.4353388 -0.1381005 0.3644403 0.8939911 -0.8056079 -0.16569112 0.09377177 -0.27481276 0.013571789 0.86866367 0.07324725 0.17209424 -0.609482 0.44792214 -0.6661371 0.31565875 -0.18348892 -0.53540766 0.2351024 0.22865912 -0.08545761 0.27143878 -0.022780718 -0.17209743 0.021998392 -0.9053145 0.53233737 0.36620325 -0.09881459 -0.024990333 0.04418333 0.024440927 -0.13296804 0.35103655 0.27810085 0.27855578 0.2554927 -0.68611014 -0.0077062333 0.30383497 0.26962754 -0.08974724 0.08934152 -0.22511762 -0.47708765 -0.18965864 -0.5483231 -0.1444731 -0.08400358 -0.35201028 -1.1364192 0.22117858 0.4161876 0.78826123 -0.22734165 0.052967884 -0.25539994 -0.054940082 0.13854901 0.18183476 0.5244254 -0.2766707 -0.12842618 0.28036448 0.5209392 0.2603324 -0.5139341 -0.42412603 0.25904486 -0.85082823 0.09958162 0.71000713 -0.07445166 -0.43616903 0.41144836 0.23690283 0.3554039 0.86219144 0.3300888 -0.17024304 -0.15012802 0.4925008 -0.42661682 -1.1723726 0.8552023 -0.15659955 -0.8411077 0.17889276 0.28382188 -0.57257247 -0.1826654 0.43530908 0.41982785 -0.14553368 0.61988664 0.5692761 0.15914723 -0.72742885 -0.15771696 0.039762493 0.2854971 -0.1973303 -0.09623036 0.074389726 -0.20259419 0.25628725
230 -0.5682602 -0.477704 0.82513547 -0.4907519 -0.4449966 -0.22864819 -0.17276081 -0.5337569 -0.60744625 0.5947929 0.09657817 -0.12511152 0.09138382 -0.08161979 0.87243646 0.2797544 -0.7986843 -0.2993692 0.29692203 0.041759055 0.36335745 -0.7109897 0.07047801 0.25714895 -0.3724495 0.14340545 0.4906954 -0.13667612 -0.5396495 0.33751184 0.0904404 -0.44958556 0.59447044 0.7787012 0.58798367 -0.7127908 0.24259211 0.14012904 0.7393053 -0.58712006 0.15372735 -0.06709059 -0.8071578 0.09007328 0.11202093 0.45072922 0.0042824037 0.6587555 -0.062019765 -0.23301026 -0.61413014 -0.07088491 0.05310451 -0.24520202 0.16121979 0.22033359 -0.65414274 0.8031859 0.059220057 -0.0059199044 -0.02225788 1.0320344 0.11869778 0.37439215 -0.10600482 0.35952446 -0.4808851 0.18603054 0.23760545 -0.040785167 0.2049381 0.11508689 0.20320551 0.47911638 -0.1260597 -0.18074825 0.8087316 -0.16834892 0.0952473 -0.2608371 -0.18010823 0.50575846 -0.45924735 -0.47915083 0.6327209 -0.09913226 0.29067588 -0.46635735 0.7891186 0.4865418 0.2470805 0.44970888 -0.82353693 -0.55941916 0.64703673 0.7093684 -0.4514141 -0.026787661 -0.63944983 -0.3497845 0.15908024 0.28765893 0.8332575 0.051218666 0.4590513 -0.0013732123 -0.74912953 -0.17004405 0.11319449 0.018437905 0.7014198 -0.3101401 0.07114015 0.481064 -0.2893983 -0.041862708 0.26585189 0.31762353 0.015443348 -0.26670626 -0.10033959 -0.5219063 -0.8480647 -0.14639908 -0.33663103 0.18173014 -0.01836182 0.36248982
67 -0.0066667725 0.22659537 -0.32363942 0.30663902 0.12324914 0.05310269 0.23587173 -0.21263556 0.2316424 -0.10704339 0.46474716 -0.036113553 -0.53114986 0.15433529 -0.3747908 -0.32338506 -0.43694708 1.1748134 -0.22711027 -0.19954024 -0.16829813 0.11269412 0.24067493 -0.08317761 0.07853292 0.5519786 -0.19727439 -0.39166856 -0.004186571 -0.42606494 0.25044844 0.4342041 0.16508251 0.1894023 -0.6049133 0.08955493 0.08452021 0.00465356 -0.23036233 -0.13600592 0.13232197 -0.083231635 -0.24790257 0.32548454 -0.5456674 0.16631009 0.5424298 -0.40275306 0.027784096 -0.023635233 -0.24050307 -0.06327739 -0.5861015 -0.29681674 0.29833174 0.15570368 -0.10828945 0.22120975 0.30369595 -0.57552356 -0.10438496 0.24078123 0.24868572 -0.0339553 -0.22890468 -0.19553179 -0.63391125 0.1033644 -0.26905292 0.22401203 -0.03658994 -0.3340944 -0.8802773 -0.66417634 0.39117092 0.6972706 0.1408487 -0.49682766 -0.2769973 0.46699288 0.49938026 -0.28383404 0.17530675 0.031877205 -0.17801069 -0.20238972 0.47413725 0.2545842 0.13035016 -0.26716605 0.14461486 -0.93574613 -0.2909262 0.30313027 0.17094745 -0.5917954 -0.038637295 0.35216147 0.5898317 0.87107545 0.033274096 -0.43730846 0.3800257 0.31284773 0.2951872 -1.0905764 0.31750628 -0.18613984 -0.24438795 -0.65257156 -0.32351556 -0.6979904 -0.27505895 0.23466969 1.040231 0.32668394 -0.14854047 0.42292774 0.19804558 -0.18668129 0.19013923 -0.060253363 0.57062984 -0.34778017 0.38327295 0.24585043 -0.808245 0.26642507
112 -0.0007893883 0.3001375 -0.28884163 -0.40509218 0.06883267 -0.01513903 -0.4428865 -0.15841016 0.1211804 0.20204684 0.5982436 0.11607261 0.26300037 0.11839111 -0.39573005 -0.2675453 -0.23804222 0.27882934 -0.15922457 0.4843717 -0.16703975 -0.09079897 0.667766 0.050816406 -0.016343243 0.32241556 0.18276809 -0.25069112 -0.54232293 0.26396897 0.09542653 -0.13582532 0.22150877 0.35213977 -0.22883685 -0.28498453 0.41935095 0.07056013 0.35855076 -0.15568073 0.39505705 -0.022543851 -0.5229488 0.022115884 -0.09758744 0.13092309 0.38174662 -0.1468798 -0.5678063 0.040241394 -0.35223195 -0.44348285 -0.45050988 0.026347376 0.19687146 0.12809677 -0.41759446 0.5152581 -0.23285934 -0.17579438 -0.31093228 0.061203275 0.2296688 0.1996816 -0.52472293 -0.28458208 -0.34694165 0.27576256 0.26938498 0.25829002 0.30821672 -0.075465 -0.17837076 -0.4269054 0.40048432 0.059505206 0.17720965 -0.8652611 -0.15934002 0.25606585 -0.044200532 0.09930433 0.29634443 0.008695038 0.30164456 -0.30070814 0.62240434 0.012093822 0.9799095 0.01716851 0.21306264 -0.16658606 -0.27165437 -0.7506659 0.3734551 -0.43056422 0.32529527 0.217751 -0.2692596 0.0016653843 0.28425083 -0.05577861 0.4087446 0.08326344 0.5829668 -0.18243402 0.012104411 0.15198651 -0.2147162 -0.81890965 -0.21607329 -0.3670874 0.21088466 0.10522135 0.46760145 -0.23774573 -0.59344584 0.41231647 0.17313765 -0.22342521 -0.35485187 0.10228088 -0.073944174 0.12986858 0.06015458 0.6023177 -0.5613498 0.39292657
147 -0.37580812 -0.3227602 0.17499268 -0.56301713 -0.1917144 -0.42550287 0.0134273525 -0.57977456 -0.19222072 0.21431965 -0.04657332 -0.288025 0.07049917 -0.056655683 0.34413275 0.13543418 -0.3672129 -0.43145254 -0.022100093 0.6382228 -0.54494673 -0.39171633 -0.021835333 -0.24882863 -0.36279008 -0.11279891 0.45697594 -0.38124427 -0.5264778 0.2571901 0.2172649 -0.5724602 0.7108982 0.40401652 -0.077304624 -0.22548398 0.12962799 0.6015038 0.54136837 -0.7103299 0.14175089 0.3849658 -0.9891702 0.21609367 0.2443321 0.010875479 0.35820374 -0.05463268 -0.4039883 0.5163834 -0.5671582 -0.18121907 -0.5151019 -0.4090843 -0.3088629 0.16942063 -0.32215852 0.6062381 0.18587154 -0.7148844 -0.20501868 0.3734656 -0.015204445 0.30996054 -0.23880857 0.5155719 -0.34622502 0.024220342 0.08609714 -0.1211152 0.25042915 0.19062683 -0.29029757 0.14191146 0.23607755 -0.10098018 0.62792915 -0.639062 -0.17065082 -0.47437152 0.22559963 -0.07447237 -0.17170915 0.2677694 0.07190223 0.3574622 0.64425635 0.026138041 0.5420126 0.09032381 0.5892104 0.24377835 -0.24399555 -0.80362666 0.13764861 -0.30614623 -0.07286935 0.44484404 -0.086253546 0.29659393 0.16979936 0.17162304 0.8413519 0.00983973 0.06047561 -0.1637708 -0.40915567 -0.45659277 -0.17542009 -0.22347954 -0.055386536 -0.2843741 0.2401961 -0.0065791532 0.0282644 0.036761124 -0.04973161 0.44558534 0.26692468 -0.2859838 -0.33914772 -0.2707562 -0.40210295 0.4592656 0.029145189 0.3933976 -0.23938227 0.38604963
201 -0.22790658 0.29949 -0.25619447 -0.04442284 -0.44830766 -0.298587 0.11603199 -0.43011698 -0.13310085 0.08234871 -0.6023021 -0.02873617 -0.4361259 0.681176 0.14378636 -0.3596815 -0.13718164 0.30147335 -0.33489856 0.6044488 -0.24679065 -0.12174638 -0.74688 0.053808186 0.15796097 0.012970441 0.5160994 0.043635488 0.1373305 0.67937887 1.0658945 0.49093089 0.46727103 0.29418024 0.28888097 0.25188294 -0.0396529 0.7448451 -0.3058233 -0.8811434 -0.087347396 -0.35837176 0.09169868 -0.31264088 0.14608169 0.28557926 0.08506516 -0.84054214 -0.02131334 0.20662138 0.034029372 -0.47381407 -0.16116886 -0.21432266 -0.575883 -0.26657188 0.39146715 0.24389108 0.016148983 0.20748824 0.41410097 0.5188106 -0.21630557 -0.8194849 0.43644652 -0.5530901 -0.07249478 -0.1518831 -0.6885976 0.14430933 0.3677632 -1.3541386 0.08517146 -0.048954528 0.34863284 0.13056625 -0.51092803 -0.14630692 -0.44838265 -0.64733577 -0.15841137 0.15938142 0.22004882 -0.102474965 -0.60599256 1.1087532 0.10091851 0.03801595 -0.71937597 0.067451805 0.765758 -0.21249536 -0.43215123 0.10252172 -0.18499637 0.3026245 0.11953119 0.18447566 0.18882142 0.3740493 0.42111552 0.19940539 -0.5950795 0.112846985 0.14074299 -0.45664483 0.4695443 0.6831087 -0.4029007 0.68054456 -0.25643548 -0.5310484 0.19930702 -0.13044158 -0.3402946 0.21055312 0.3736509 0.379173 0.5916135 -0.7770505 0.07558378 0.50613993 0.2545755 0.6266527 0.47376958 -0.28357008 0.8397549 0.05193756
258 -0.15545999 0.41600838 -0.29247314 -0.23152736 -0.527886 -0.07537091 -0.15868513 -0.223899 0.053556126 0.28678006 0.49376756 -0.24675146 0.042232372 0.40978855 0.38630116 0.2595429 -0.35184163 0.029245052 -0.20215675 0.048218984 -0.26381394 -0.31922457 -0.40515643 -0.28988102 0.47135046 0.96749675 -0.4424273 -0.12702128 -0.035237405 0.24027194 0.23237495 0.40677592 0.24436216 0.4047055 -0.24777743 0.5215875 -0.55648214 0.25988704 0.13466401 -0.6061763 0.15220878 0.11648168 -0.24836646 -0.06911149 0.21951126 -0.3086917 0.091771655 -0.92956775 0.05045733 0.29616913 -0.1270231 0.08629426 0.14707546 -0.055455286 -0.15790914 0.66345567 0.3529679 0.30044076 0.19485265 -0.71076185 0.18720202 0.34944898 0.60574824 -0.41934603 0.07548016 -0.31784797 -0.22340222 0.3170504 -0.22380301 -0.13487877 0.093060955 -0.50983876 -0.89021474 0.46729815 0.026478091 0.3571721 0.11747465 0.14893098 -0.22890644 -0.34979498 -0.116733134 0.6331554 0.52647424 -0.5945238 0.28170338 0.25767645 0.7577128 -0.29335633 -0.15620765 -0.34053212 0.4946022 -0.6536209 -0.17059973 0.1095734 0.112883516 0.09363368 0.77327186 0.15751429 0.14521025 0.40987086 0.52282923 0.14090933 -0.08827911 0.5004907 0.07457804 -1.1103053 0.43149057 0.3498979 -0.98647076 0.14986223 0.67455655 -0.3221532 -0.19469105 0.3901301 0.24749088 -0.60862786 0.7790522 0.49625078 -0.0015463884 -1.5179148 -0.27392226 0.28260794 -0.32578996 0.19224611 -0.24989854 0.10528359 0.2556288 0.5502668
162 -0.05588185 -0.48731536 0.45380676 -0.48674658 -0.14236428 -0.11398056 -0.19590902 -0.48548368 -0.02572717 0.3768319 0.061033975 -0.49437752 -0.00030083722 -0.29672056 0.26342764 0.008017264 -0.4320191 -0.25500825 -0.01332143 0.42694876 -0.3808226 -0.34495878 -0.09407989 -0.31401053 -0.102319665 0.12440858 0.06508187 -0.5081733 -0.6842592 0.1390373 0.06982798 -0.42969677 0.83254635 0.72460175 0.20153847 -0.5052962 0.035389546 0.35136876 0.4788946 -0.6561539 0.3577896 0.43216082 -0.86930513 0.16588312 0.20052236 0.0719518 0.1169717 0.08973914 -0.2735215 0.08725842 -0.37163636 0.09584375 -0.16547383 -0.121669635 -0.358922 0.4299191 -0.3407619 0.6370034 0.33587718 -0.6577245 -0.19474131 0.4542144 0.1019615 0.35142443 -0.32669708 0.46802357 0.011120553 0.06488722 0.30168444 0.0012976789 -0.20489296 0.1056653 -0.26540884 0.36028805 -0.02384121 0.13087276 0.520486 -0.34547135 -0.1545566 -0.23076242 0.17103748 0.33978137 -0.25910774 0.0022157922 0.22659737 0.069832765 0.2731936 -0.21353868 0.60127676 0.10109598 0.45243853 -0.14551783 -0.3858954 -0.6606065 0.18263315 -0.10031076 -0.15353017 0.11754696 -0.117831655 -0.14280069 0.25818998 0.11794091 1.108444 0.04162356 0.04072958 -0.42412612 -0.43714806 -0.14087163 -0.0861255 -0.09304309 0.2978874 -0.5107086 0.14013734 0.18994106 0.19788165 0.21786529 -0.20821814 0.33167523 0.2562682 -0.516685 -0.3171086 -0.27359322 -0.5294739 0.30159366 -0.017500678 0.5384358 -0.1434993 0.7169141
176 -0.29515514 0.20550135 0.08137513 -0.19684017 -0.4425954 0.019267842 -0.2203079 -0.49378106 -0.10832974 0.0059213117 -0.1025152 -0.22945476 0.047750916 0.15117136 0.10195382 0.27296212 -0.47070155 0.05243268 -0.04661948 0.12562202 -0.26172757 -0.77324057 0.10685511 0.055264175 -0.19312641 0.037135776 -0.15308225 -0.25672445 -0.55714697 -0.073158905 0.07415628 -0.21152397 0.21323846 0.42424268 0.12419196 -0.22993127 0.05802374 0.13963509 0.3906255 -0.47366753 0.746036 0.0040766313 -0.3686774 0.053368364 -0.1432606 0.26212442 0.14883864 0.17060077 0.088589914 0.014497983 -0.46491402 -0.28160423 -0.22753693 -0.47194645 0.030054152 0.2477895 -0.24974112 0.81976193 -0.03560431 -0.5534488 -0.36554408 0.5854643 0.049537815 -0.061799496 -0.41087234 0.027422873 -0.47455555 0.05686309 0.15409078 0.045662638 0.3929541 0.19946434 -0.4237793 0.06410705 0.2636809 0.16483206 0.3839639 -0.49038288 -0.2513848 0.02419548 0.0048487266 0.45554364 -0.11254508 -0.3234795 0.4609597 -0.14295155 0.49511683 -0.14709853 0.863632 0.28539854 0.67586493 -0.23272854 -0.44425863 -0.39252338 0.18145484 0.286224 0.04281961 -0.053549808 -0.4171567 -0.085225135 0.31294045 -0.081183515 0.35274214 0.37489837 -0.086780906 -0.23948434 -0.084795244 -0.040703442 -0.12873186 -0.42914695 0.1518123 -0.38875017 0.08482006 0.2514438 0.203031 -0.014571695 0.108399875 0.1637973 0.27859634 -0.32590848 0.026653992 -0.2748556 -0.37367555 -0.24817535 -0.23490041 0.13853006 -0.22544952 0.33636415
293 -0.34571296 0.12965758 -0.34886658 -0.06282708 -0.24139853 -0.43525487 -0.31482294 -0.49731556 -0.11073477 0.6320144 0.34666285 0.15401493 -0.021417182 -0.100442626 0.49199003 0.27460447 -0.76413447 0.4462145 -0.2333525 0.2109013 -0.18975109 -0.7477784 -0.10171188 -0.20227651 0.23274705 0.5074987 -0.40781978 -0.2653152 0.00035414254 -0.15047634 -0.13442877 0.024767129 0.14513952 0.7154815 -0.21970172 -0.42578915 -0.0741782 0.43137696 0.45146087 -0.32850525 0.4344995 0.26108307 -0.26999256 0.064422466 0.10671333 -0.23119397 0.19318968 -0.47893697 0.16622321 -0.167631 -0.4277931 0.14118822 0.31872755 -0.28805405 0.079681 0.5612687 0.16596574 0.36898428 -0.3841333 -0.26077363 -0.1625059 0.51554364 0.43014118 -0.13369246 -0.19904514 -0.15458365 -0.33844095 -0.08982649 0.2761807 0.20777136 0.03701981 0.10778224 -1.0473815 1.0073613 0.44501546 0.23053262 0.37875178 0.21836059 0.065522574 -0.07837104 -0.1432427 0.1261164 0.63961667 -1.0030392 -0.26066095 0.21084903 1.0858144 -0.09425919 0.42929578 0.122066714 0.12890491 -0.1436024 -0.17708781 -0.19844247 0.076643266 -0.083038434 0.058435865 0.15511382 -0.34436125 0.40328795 0.59292763 0.17300446 0.40051854 0.19555616 0.11696265 -0.82857037 0.0952086 -0.2687815 -1.0044464 0.51218104 0.25876224 0.22637413 -0.5344825 0.11603386 0.19918787 -0.07569268 0.50644535 0.32338423 -0.118388094 -0.9511733 -0.6374199 -0.48055044 -0.41428727 -0.115202405 -0.06895344 0.3173518 0.12316068 0.2855748
248 -0.2367052 0.35188386 -0.27232927 -0.13832591 -0.2900484 -0.20240028 -0.020991817 -0.29863268 -0.036124814 0.26103544 0.119310156 0.24690124 -0.2534572 0.7527623 0.38503945 -0.41213974 -0.4018018 0.45967335 0.023091167 -0.06817069 -0.41408575 -0.18967669 -0.4605255 -0.16812013 0.23714785 0.6731632 0.2869853 0.004094059 -0.041209 0.26993772 0.6986909 0.2440867 0.08204316 0.43620813 0.027817577 0.42626396 0.23416303 0.37622955 0.066141985 -0.46268657 -0.04256348 -0.41992518 -0.36788967 -0.26930508 0.14786792 0.30022728 -0.004659065 -0.8583811 -0.2656629 0.36039978 -0.024721267 -0.061088003 -0.06078664 0.012146585 -0.1629441 -0.09676078 -0.099228 0.23487817 0.08036159 -0.16872357 0.5272267 0.84577066 0.34608227 -0.46014577 0.16090673 -0.5451768 -0.37694678 0.17742027 -0.30524874 0.015898502 0.41144395 -0.86340815 -0.1935833 0.16562752 -0.21931456 -0.12882075 -0.012172894 -0.17174517 -0.35021552 -0.31030336 -0.08358401 0.25558904 0.39298066 -0.013328052 -0.25909996 0.5026317 0.26417625 -0.14602044 -0.08150654 -0.059206266 0.36803535 -0.37871337 -0.38055378 0.00041898448 0.3563853 0.09951261 0.25106016 0.4226119 0.501702 0.43380398 0.48464045 0.2974328 -0.17380144 0.08945495 0.35160965 -0.89971983 0.3385225 0.72302693 -0.122032724 0.0937216 -0.24532446 -0.2838896 -0.16960745 0.1769113 0.22472239 -0.37290472 0.26639894 0.6072205 0.43551788 -0.9955498 0.055863373 0.49331057 0.12826923 0.15488721 0.041344114 -0.04973616 0.027319923 0.10692328
299 -0.3767095 -0.52974313 0.23212756 -0.42959535 -0.4194135 -0.35462955 0.24001972 -0.69025564 -0.111601785 0.34361833 -0.052926417 -0.4917989 0.07987158 0.20122842 0.36912295 0.1056395 -0.71258056 -0.06012827 -0.2620086 0.38792336 -0.59821814 -0.5564637 0.05951592 -0.04997218 -0.032809325 0.32678917 0.29481205 -0.42253685 -0.5327583 -0.00041962348 0.22221972 -0.576203 0.561183 0.2705127 0.0643934 -0.14775918 -0.18943805 0.40537968 0.33182266 -0.6054112 0.09866912 0.3222135 -0.7696464 -0.004602333 -0.047482677 0.19483691 0.21363598 0.12764314 -0.17741781 0.55977243 -0.52017117 -0.19666249 -0.39172179 -0.28363666 0.033976376 0.18579704 -0.45290565 0.79923815 0.27098036 -0.26687056 -0.14262132 0.50187683 0.19297744 0.34779474 -0.22954535 0.039020974 -0.3359632 -0.14372553 0.27148634 -0.26266143 0.46456823 0.06186487 -0.5163976 0.20544861 0.10091992 0.18611194 0.42064437 -0.42693657 -0.07852103 -0.48791805 0.036079656 -0.054941963 -0.02404133 0.06853493 0.08652547 0.13278171 0.62809473 -0.21185243 0.6165944 0.1346273 0.5585785 -0.19057515 -0.481826 -0.69520366 0.32332256 -0.21788111 -0.26108506 0.36847168 -0.009946392 0.3574444 0.08409734 0.06521663 0.7242588 0.090306364 0.19470686 -0.2924359 -0.4637134 -0.29233032 -0.15849163 -0.20461668 0.060799927 -0.25842378 0.010835118 0.20508932 0.23913209 -0.026029402 0.007023555 0.52606726 0.4393661 -0.33342966 -0.19591092 -0.38005197 -0.32368255 -0.06924076 -0.22513421 0.21353632 -0.24410716 0.7632067
217 -0.6757447 -0.04629939 0.03704371 -0.17165971 -0.49764085 -0.16933249 -0.11845213 -0.48987886 -0.3548732 0.18058866 -0.07136688 -0.041052137 0.22742583 0.30129585 0.44470534 0.40866375 -1.0900103 -0.07311395 -0.13680845 -0.03305812 -0.071867265 -0.92680407 0.1594532 0.33321908 -0.2550211 0.377529 -0.12075512 -0.16821285 -0.54990333 -0.44324258 0.035014234 -0.45023802 -0.05083398 0.3516093 -0.076420605 -0.28332147 -0.035537798 0.11682209 0.5629336 -0.22942829 0.77299917 0.07667203 -0.46202335 -0.18169129 -0.2575544 0.23352212 0.11606194 0.26458746 0.15796606 0.039234538 -0.6725057 -0.27259237 -0.019667648 -0.4282201 0.32050344 0.15447375 -0.21163464 0.8312616 -0.29239002 -0.10388131 -0.4493054 0.5258747 0.120926015 -0.11987761 -0.33218232 -0.0887502 -0.3742547 -0.037243705 0.25720438 -0.10337714 0.45620173 0.12384615 -0.5424104 0.12980323 0.31744263 0.1109038 0.29605785 -0.36073208 0.0004918627 -0.15384902 -0.2197174 0.31204534 0.09551417 -0.63472927 0.27844834 -0.13972682 0.56285566 -0.030679202 0.7005335 0.14469987 0.4060271 0.03692218 -0.3980661 -0.3623396 0.1558409 0.42371845 -0.10575221 -0.0921488 -0.8974719 0.13590242 0.16828343 0.09754814 0.40412414 0.45837155 -0.01891057 -0.20989685 -0.43265352 -0.27382743 -0.3716236 -0.2685743 0.29050678 -0.23232868 -0.07408896 0.23322062 -0.018260425 -0.13758893 0.28919154 0.2803134 0.30600646 -0.27861485 0.19177291 -0.46011966 -0.6099811 -0.5025087 -0.28001168 0.05160298 -0.05425275 0.26143983
47 -0.2296319 1.3242741 -1.3377593 -0.35350636 -0.0018479252 -0.057266492 -0.25784585 -0.21817534 0.14484458 -0.3820035 0.1379863 0.35060903 0.15317442 0.87635654 -0.23625545 0.1515778 0.59889793 -0.30886656 0.21617413 -0.038456876 -0.5347237 -0.06438749 -0.35477707 -0.93340147 0.12705745 -0.013984078 -0.33674207 0.4662234 -0.085484155 0.36648518 0.05860222 -0.16349007 -0.69863045 -0.23575915 -0.20280635 0.8708561 0.9964796 0.1487653 -0.3961469 -0.3251725 0.36433622 -0.26030546 -0.2572889 -0.056827605 0.35303634 -0.55892354 0.23417723 -0.6099162 -0.20741266 0.54886466 -0.07846473 0.006666735 -0.5092177 0.20548984 -0.3521804 0.50704795 -0.024312753 -0.24433033 -0.7852406 -0.14796312 0.15597339 0.17619106 0.24803808 -0.19104461 -0.34283572 -0.42846227 0.06954073 0.40965578 -0.42735976 0.5472183 0.5941753 0.3417366 0.13426086 0.19423735 -0.16886123 -0.051366 -0.3762807 0.13158073 -0.07200597 -0.012153899 0.00078524224 0.05971711 0.36860582 0.17085089 0.0049037207 0.27993926 0.5876836 0.123393424 0.39957383 0.18629207 0.31844604 0.13789715 0.29230067 -0.026079483 -0.15659675 -0.20285366 0.35367963 0.6670765 0.48196027 0.65235275 -0.24882314 0.08413819 -0.5789683 0.218078 -0.28909498 -0.20982675 0.33858845 0.6532311 -0.35271046 0.15821847 -0.65754646 0.2873363 0.4045829 -0.032343905 -0.6747431 -0.54726887 -0.20330872 -0.46108738 0.76599735 -0.23901027 -0.603565 0.5475901 0.23933358 0.2670983 -0.48611575 0.34261033 0.05808618 -0.22256128
144 0.3012527 0.55575764 -0.3239013 0.4783936 -0.24037209 -0.29558223 0.12772067 -0.15709174 0.22016813 0.20977494 0.46888182 -0.49779457 -0.4213581 -0.0052547343 -0.10239068 -0.32585683 0.0950274 1.2582554 0.029437674 -0.041362584 -0.34058765 -0.2293653 -0.19932313 -0.36043474 0.6130343 0.34407967 -0.80256635 -0.12425996 0.2603951 -0.2515152 -0.29498696 0.6366441 -0.20352708 0.2282146 -0.4663799 0.15380114 -0.11488233 -0.0627324 -0.20377362 -0.58052677 -0.16229148 0.055228986 0.4128578 0.38379616 0.253376 -0.33046338 -0.2354245 -0.86274993 0.74193203 0.02038919 0.30088958 0.5285243 0.043846294 0.2548175 0.24858443 0.31599662 -0.11257715 -0.35740197 -0.19284366 -0.45727882 -0.054351486 0.3756723 0.18731387 0.36628106 0.2143436 -0.37177718 -0.5925074 -0.22376074 -0.23742287 0.11442511 -0.332413 0.05069387 -0.7427067 0.9028656 -0.07889124 0.8426076 -0.40610105 0.07230958 -0.011781599 0.41310275 0.22870037 0.27040002 0.37965754 -0.020058453 -0.50285184 0.16209446 0.107636325 0.33867627 -0.107442714 0.09129797 -0.032658685 -1.1602165 -0.09169113 0.5025119 0.15010226 -0.65272874 0.09732643 0.6227458 0.7006599 0.97330505 0.31354296 -0.17911032 0.21690771 -0.011375759 -0.17916016 -1.2836449 0.842037 0.20714584 -0.5766886 0.6226655 -0.22623639 -0.26471782 -0.11456279 0.4977287 0.7633852 0.28032377 -0.097230576 0.06522565 0.63727987 -0.45128894 -0.5671573 0.054789685 0.5481773 -0.20826161 -0.008839237 0.2486661 -0.64313185 0.6838501
174 -0.17291543 -0.6215589 0.41512626 -0.34133124 -0.4360059 -0.26286134 -0.025243012 -0.75683206 0.13247347 0.36180654 -0.10798656 -0.6087932 0.088792816 -0.24915427 0.22194844 0.15507855 -0.4869639 -0.1763255 -0.15027343 0.50552714 -0.4881695 -0.7227694 0.099225044 -0.0379081 0.03791774 -0.033204976 0.26460359 -0.6499861 -0.8745985 0.0059762904 0.08659349 -0.41778588 0.71210015 0.50944036 0.07864332 -0.39389616 -0.30402637 0.35910293 0.5616567 -0.5186068 0.31398872 0.43240857 -0.61939514 0.042246927 0.011980951 0.2873243 0.06468064 0.07453775 -0.1825565 0.42413366 -0.3398642 -0.18092367 -0.11808456 -0.2302256 -0.20186508 0.18145922 -0.46507862 0.84480953 0.20017363 -0.56306285 -0.20790286 0.57296574 0.0036184362 0.27586916 -0.35684913 0.31094444 -0.21937402 -0.27405515 0.3895688 -0.4064408 0.36662647 0.33720496 -0.42330274 0.20638227 0.037336778 0.15798074 0.39629146 -0.78326964 -0.11618451 -0.21919073 0.15999621 0.3727076 -0.22835019 0.09572904 0.31735688 0.26086053 0.37937444 -0.22824432 0.63913095 0.2743733 0.65870345 -0.19923393 -0.37745664 -0.71164024 0.29169694 -0.14527851 -0.114575274 0.15844646 -0.28158128 -0.082538076 0.3799047 0.028663445 0.7514557 -0.026684323 0.031208465 -0.1627723 -0.25358504 -0.3124242 0.13364378 -0.35070094 0.21970634 -0.31617627 0.13805443 0.22137843 0.3638569 0.04539252 -0.22993277 0.4365512 0.33013815 -0.2986227 -0.10069958 -0.34338865 -0.3329896 0.05409457 -0.10781758 0.49068227 -0.21630435 0.88822854
109 -0.14178246 -0.17508455 -0.0261873 -0.38315293 -0.19922014 -0.033219345 0.04910448 -0.64902157 0.30653092 0.07369176 -0.05118589 -0.27146176 -0.023887105 -0.024952 -0.005414293 -0.04104632 -0.40101415 -0.13796332 -0.25011507 0.32793564 -0.7483194 -0.41757396 -0.083969034 -0.24401253 0.06107375 0.09076121 -0.19374134 -0.35531774 -0.71527576 -0.14803614 0.11628849 -0.7421442 0.2754578 0.37760997 -0.22067033 -0.08911438 0.012500515 0.21261266 0.40410247 -0.40031096 0.47736683 0.4095563 -0.6592275 -0.03559667 0.035984855 0.09891552 0.117310375 -0.086564325 -0.2429235 0.5549189 -0.31670028 -0.09467405 -0.2585668 -0.14738244 -0.2031071 0.31406656 -0.23266673 0.67009825 0.12855254 -0.5279124 -0.19737768 0.396892 0.11851014 0.21882072 -0.29849464 -0.11690512 -0.028729662 -0.15124413 0.12622054 -0.23237316 0.398641 0.21567579 -0.5201854 0.19741966 -0.05518333 0.019876905 0.19168316 -0.6028072 -0.15472263 -0.17234749 0.115644455 0.13370721 0.025140556 0.21572366 0.027613318 0.11684909 0.4503053 -0.16150536 0.65529716 0.016341588 0.73593795 -0.27146184 -0.11039318 -0.6790174 0.040778372 -0.26875457 -0.0746609 0.32290763 0.058754582 0.13936517 0.19932161 -0.011743498 0.67797875 0.21847618 -0.03898972 -0.42633867 -0.24807207 -0.16471814 0.0025541661 -0.54598683 -0.18038866 -0.23009574 0.18692017 0.10951227 0.42733687 0.036232777 -0.2754314 0.31856284 0.6613058 -0.3855578 -0.20303135 0.027002463 -0.29706633 0.0018455738 -0.084609516 0.43225303 -0.34959748 0.7191658
146 -0.42947096 -0.21902026 0.19221808 -0.29146877 -0.23538041 -0.04659723 -0.0568358 -0.9186811 -0.06964255 0.10852239 -0.13491172 -0.2993908 0.12907898 0.054001987 0.089219615 0.15827107 -0.6996474 -0.048617307 -0.050473187 0.07105757 -0.516122 -0.7960916 0.16918457 -0.009732497 -0.20225628 0.08764227 -0.120089084 -0.62355596 -0.80397403 -0.3704655 0.008369174 -0.53243655 0.3675841 0.392665 0.032322075 -0.31310314 0.123378396 0.2642674 0.35017762 -0.35515425 0.7720683 0.33016697 -0.8526803 0.16493943 -0.23596735 0.24288867 0.26010585 0.2144591 -0.074851975 0.26701972 -0.6942836 -0.16816485 -0.31538454 -0.47735345 -0.015949633 0.2873444 -0.5620929 0.98658204 0.1614918 -0.62925863 -0.40714988 0.7170263 0.10795104 0.3568093 -0.47860903 0.25220117 -0.26852265 0.056770768 0.27037513 0.0052939663 0.32054177 0.44403076 -0.39862028 0.049805872 0.26379028 0.23178707 0.47012153 -0.6582848 -0.23776373 -0.06828178 0.18636532 0.18434882 -0.22721644 -0.07427898 0.21234962 -0.12960416 0.49892387 0.023653125 0.9891302 0.23629247 0.66789716 -0.28579995 -0.4749486 -0.6326542 0.26299876 -0.27227303 -0.2147611 0.18182482 -0.21607806 0.118930265 0.2714239 -0.0998566 0.805554 0.31886467 -0.34067506 -0.27089834 -0.29386017 -0.31966674 0.06162133 -0.41301307 0.068876974 -0.3788376 -0.055049345 0.15554021 0.53608143 0.09168138 -0.0696184 0.35614666 0.44098976 -0.26087666 -0.19677743 -0.47787422 -0.3148715 -0.19468574 -0.30977547 0.3989956 -0.5090004 0.686323
219 -0.25606346 0.5265913 -0.4889169 -0.19377534 -0.38706473 -0.21708095 0.071884185 -0.2680438 0.085717425 0.1454676 0.34941518 -0.009916474 -0.16738506 0.69145083 0.23254973 0.124551095 -0.32615647 0.23667718 -0.19866548 -0.09814541 -0.29539987 -0.14717825 -0.24462025 -0.34779543 0.39331245 0.8987253 -0.3239245 -0.13524012 -0.03814769 0.18038897 0.34413525 0.110662445 0.022357512 0.3548681 -0.34502107 0.44487533 0.012247917 0.2973365 0.050159637 -0.547512 0.16837248 -0.124340035 -0.30757764 -0.10410053 -0.03481464 -0.14731444 0.32066083 -0.79347795 0.002688047 0.20256838 -0.25162598 -0.012742551 -0.15954858 -0.25603157 -0.048313808 0.3991985 0.26129338 0.27221844 0.058333237 -0.4974274 0.10331312 0.42376235 0.6585772 -0.41871035 0.05964344 -0.4629073 -0.35392165 0.4776349 -0.29285914 0.15373418 0.182962 -0.5674687 -0.7479892 0.35786632 0.13540882 0.25483334 0.18479635 0.24682091 -0.25953662 -0.23935345 -0.049698852 0.19781698 0.5314069 -0.3663134 0.0027705813 0.13091719 0.837961 -0.20305988 0.05074139 -0.16140077 0.39231628 -0.65138066 -0.19063495 0.030125922 0.1015503 -0.050095312 0.42449534 0.3028111 0.33120507 0.63994014 0.35391948 0.21642214 -0.097762465 0.48187304 0.3829614 -1.119286 0.22861198 0.3806432 -0.9722302 0.09270549 0.30692917 -0.22458504 -0.27812564 0.33761185 0.3378655 -0.37731776 0.58573335 0.46711347 0.2013394 -1.3687025 -0.2846091 0.22578561 -0.24850203 -0.0008249665 -0.1568532 0.10949913 0.014131452 0.38953227
221 -0.5237942 -0.94650173 0.6320074 -0.71888447 0.13136947 -0.31743807 -0.13985467 -0.76793706 -0.11703975 0.31935215 -0.16976467 -0.17147766 0.34835097 -0.48915893 0.60906774 0.23070173 -0.4644103 -0.69741786 0.1736276 0.22105952 0.10414622 -0.048669357 0.38808402 0.11444959 -0.1782698 -0.41001278 0.4677159 -0.64876676 -0.83477116 0.43174326 -0.23660143 -0.6367185 0.9378073 0.4283313 0.36234078 -0.7726369 0.2538005 0.498713 0.5991475 -0.51314753 0.18233638 0.4798692 -0.9373459 0.19226274 -0.059329726 0.2954742 0.16953029 0.5979576 -0.4833876 0.29978192 -0.7163042 -0.17655005 0.026062306 0.08119013 0.021592906 0.20829615 -0.77620316 0.87761045 0.25129324 -0.32189167 -0.010926371 0.56654596 0.19543226 0.9075315 -0.25396177 0.71435463 -0.2975619 -0.37017176 0.015255269 -0.3699929 0.1123514 0.5763238 0.24438347 0.2108189 0.49729598 0.10352477 0.70996547 -0.5468813 0.25409213 -0.31784323 0.14331323 -0.18762705 -0.38337296 0.38016355 0.6669474 -0.047808588 0.23449844 -0.3522402 0.8356476 0.42457253 0.22239017 0.5440395 -0.34878528 -0.91614795 0.47364694 -0.1430604 -0.8322925 0.11080106 -0.3596146 -0.42216745 0.13764165 0.04911835 1.2280959 -0.25455967 0.20811233 0.5763716 -0.8984545 -0.77750486 0.5577818 -0.42813212 0.31082466 -0.36736113 0.14762646 0.4086674 0.014134983 -0.022405835 -0.21900669 0.1968337 0.023895286 0.14525712 -0.36006618 -0.6849129 -0.63066584 0.043206222 -0.03045121 0.59910923 -0.18193842 0.51079184
311 -0.5515953 -0.4339233 -0.15401377 -0.4442383 -0.04326908 -0.20082925 0.025993077 -0.5362283 -0.07704216 0.17132716 -0.17083105 -0.028795293 0.27841753 0.32927507 0.58602893 0.10929802 -0.938286 0.024404863 -0.085822836 0.11846 -0.73358256 -0.4399135 -0.27212915 -0.1320591 -0.12952437 0.30605018 0.5181055 -0.336436 -0.3392669 -0.016640043 0.34801945 -0.47918758 0.516913 0.26895255 0.18865782 -0.012601119 -0.07646386 0.5870358 0.24358939 -0.414927 0.18377496 0.37975037 -0.7976684 -0.16155434 0.071391456 0.18534169 0.1887455 0.073159456 -0.41526017 0.5816999 -0.4773993 -0.20062694 -0.23950757 0.14369917 -0.30355948 -0.071884364 -0.017014083 0.8750931 0.27853435 -0.25104666 0.24287616 0.38160014 0.12750265 -0.09216228 -0.30812117 -0.061002403 -0.16530405 -0.3318985 0.18287292 -0.23592286 0.49466947 0.0047098277 -0.5791786 0.06498624 0.29733643 -0.13535933 0.49800476 -0.29324603 -0.053341813 -0.40737554 0.016609928 -0.2514017 0.20140973 0.16649732 -0.16586459 0.44138688 0.70419407 -0.21583319 0.5691762 -0.010840966 0.44018206 0.31677154 -0.15668033 -0.6296128 0.11145542 -0.1328725 -0.37115952 0.27937743 -0.0269366 0.16063648 0.23135109 0.20856057 0.5062595 0.013674433 0.072574206 -0.12491249 -0.49877092 -0.43380037 -0.09390689 -0.3444565 -0.22062325 -0.2411393 -0.13504264 0.056724954 -0.014873433 -0.11510589 0.24607368 0.5145535 0.09857519 -0.15336022 -0.18358013 -0.26651242 -0.32719752 -0.11294072 0.0043353345 0.19150236 -0.043310843 0.24476029
131 -0.23386031 -0.17248772 -0.19608147 -0.47035748 -0.038517013 -0.03324681 -0.12018058 -0.5201165 0.054142028 0.066972755 0.006643813 -0.15862754 0.1460932 0.16544159 -0.07914859 -0.012216789 -0.5752073 -0.12319545 -0.2671913 0.22666676 -0.7972808 -0.5090046 -0.06384046 -0.27333468 -0.06444499 0.30146682 -0.15573122 -0.31780645 -0.56084996 -0.16971014 0.30887687 -0.6109236 0.1850623 0.21939138 0.031509463 0.12731229 0.063889526 0.2935458 -0.026729142 -0.26519108 0.62922204 0.32652903 -0.6867431 -0.16764349 -0.07906771 0.08748635 0.25352275 -0.058024555 -0.48095536 0.37597916 -0.6037617 -0.21304291 -0.3977394 -0.1865435 -0.049339194 0.32506302 -0.15127699 0.6871535 0.14153342 -0.39349362 -0.22286786 0.3951248 0.31125796 -0.07480355 -0.47525883 -0.11294353 0.20917861 0.05307326 0.338252 0.045253474 0.33253202 -0.050744094 -0.4974013 -0.08456899 0.0774794 0.08295833 0.18065792 -0.43102106 -0.19522059 -0.23737931 0.05731487 -0.1020429 0.14844286 -0.10327721 0.05732638 0.10206491 0.559631 -0.20348777 0.7379993 -0.06144319 0.60062724 -0.3182883 -0.43093723 -0.6599568 0.17528348 -0.114102595 -0.14046064 0.20659514 0.0083240345 0.20078143 0.08390452 -0.08709898 0.578744 0.37839264 -0.1665644 -0.35903847 -0.45649466 -0.0019497008 -0.19944182 -0.3243687 -0.13861033 -0.3290673 0.027932603 -0.016604813 0.3053715 -0.08674931 -0.24731643 0.289635 0.60717016 -0.40007624 -0.21471009 -0.076951064 -0.32898656 -0.0037592768 -0.3376805 0.39127448 -0.06196847 0.5280051
150 -0.031042803 -0.47874632 -0.05011592 -0.56219345 -0.06657341 0.14339516 0.097437955 -0.42953506 0.36407584 0.07839575 -0.08595498 -0.2774723 0.109871015 -0.0073610535 0.31862646 0.03180221 -0.18354015 -0.15194805 -0.061991714 0.33287892 -0.9556504 -0.28300712 -0.38776532 -0.4185865 0.0022369842 0.10592081 0.32879028 -0.41107872 -0.49374577 0.24798243 0.38288438 -0.5809569 0.6311252 0.44868562 0.14891258 0.00029363704 -0.17510489 0.3024375 0.28506148 -0.61940783 0.111183725 0.47325873 -0.5935106 0.012622575 0.26615444 0.10057503 0.11196727 -0.049282286 -0.46239474 0.63264155 -0.04344489 -0.01778442 -0.19785944 0.25739703 -0.687138 0.19107427 0.06396172 0.793552 0.28766176 -0.49581042 0.33467555 0.35174304 0.10835921 -0.06668803 -0.18880668 -0.016952192 0.0013040351 -0.37184677 0.08852436 -0.52768034 0.5241535 0.2180539 -0.5281524 0.3202025 -0.17009039 -0.113889 0.4317227 -0.42993572 -0.010724879 -0.2616059 0.08740764 0.2928429 -0.05851775 0.3867023 0.08255528 0.54511094 0.5779061 -0.3239122 0.5614077 0.10617524 0.74113727 0.036023993 -0.011792706 -0.65722936 -0.02648771 -0.1644243 -0.2633034 0.30611083 0.26684397 -0.07972645 0.2984392 0.20091023 0.47922954 -0.07754614 0.11181883 -0.28170842 -0.26999444 -0.18799016 0.12599774 -0.47612232 -0.11233177 -0.24271965 0.150346 -0.02889931 0.100535095 0.011614478 -0.0020228783 0.12094717 0.20039923 -0.38307354 -0.17586042 0.042867634 -0.34822792 0.1894328 0.11330173 0.40839693 -0.049291316 0.5724558
177 0.14651537 -0.20314223 0.6299281 -0.4262361 -0.34159788 -0.2956121 -0.43275714 -0.29582456 -0.114940755 0.39124894 0.2903419 -0.47483432 0.1132759 -0.42119068 0.20497581 -0.02143079 0.093584076 -0.24993539 0.43336996 0.5996388 -0.305279 -0.5298837 -0.013882738 -0.30042428 -0.23401785 -0.41559425 0.08814701 -0.35303763 -0.574033 0.18606928 -0.011418297 -0.31340882 0.56490225 0.6752108 -0.08193764 -0.48345482 0.05752387 0.18471688 0.78580624 -0.6132719 0.06655051 0.3439884 -0.55654866 0.2846657 0.57621723 -0.09853548 -0.18272439 -0.15004037 -0.102751255 0.25148624 -0.067062914 0.14330953 -0.16138917 0.0031931344 -0.3383321 0.25948197 -0.4437789 0.26256603 -0.15405318 -0.5944596 -0.2248943 0.40584335 -0.2335522 0.6047707 -0.22506939 0.5702593 -0.21412438 -0.006828614 0.14533857 -0.19201387 -0.029426549 0.5690581 0.05644498 0.39360097 -0.4074377 -0.16951784 0.42539325 -0.82210344 -0.015377884 -0.019538565 0.23702015 0.7096723 -0.35421214 0.13238342 0.14166182 0.15572368 -0.10227341 0.09911867 0.53175163 0.16659969 0.4132903 0.1582648 -0.24812458 -0.5613065 0.18630475 -0.20297651 0.18106802 0.25389305 -0.2636945 -0.0951014 0.30016476 0.082333624 0.8984107 -0.026791096 -0.019587444 -0.25011462 0.14634031 -0.20251681 0.19191812 -0.13758288 0.18817107 -0.24098499 0.5405471 0.0398334 0.14802676 0.057920154 -0.44182584 0.17456232 0.3664216 -0.16031365 -0.27770457 -0.0030076192 -0.36021474 0.5226831 0.07863729 0.5623572 -0.44357732 0.52506727
301 -0.5747209 -0.4814 -0.23926291 -0.36765927 0.08444591 -0.05089834 0.109050095 -0.62724173 0.0074950345 0.20375341 0.026894618 0.21336675 0.42692348 0.28784308 0.5064265 0.15919814 -0.9939165 -0.031079492 -0.15199707 -0.10870499 -0.6549637 -0.35354254 0.23574665 -0.20160507 0.08689405 0.55172163 0.2312497 -0.4812025 -0.3917213 -0.24032702 0.24346995 -0.67915076 0.16589747 0.14331524 0.027485302 0.04325518 -0.037036207 0.5325687 0.0110491365 -0.08353933 0.32210377 0.51612365 -1.020823 -0.2756151 -0.18543531 0.119288884 0.16763607 0.20113645 -0.5089406 0.41674322 -0.81408405 -0.12908411 -0.095412016 -0.063475385 0.08329579 0.29844272 -0.103852175 0.76241475 0.29028374 -0.23970065 -0.06387012 0.3133079 0.5140632 -0.03452703 -0.46354672 -0.059158977 0.1309639 -0.04550991 0.44068006 -0.19160849 0.44277054 0.1796057 -0.72061527 -0.048026066 0.17654237 -0.065928556 0.5019197 -0.20746058 -0.1331262 -0.33981255 0.049236797 -0.37385494 0.3591325 -0.049487427 -0.028309409 0.04824202 0.83075774 -0.19895236 0.75760996 -0.15744822 0.3521901 -0.053542838 -0.15941392 -0.6291129 0.08963413 -0.26211008 -0.16157275 0.25108868 -0.1289677 0.3475291 0.021912148 0.07897056 0.70871234 0.26307517 0.045757756 -0.19876342 -0.57531136 -0.46974814 -0.30581427 -0.44566453 -0.05293832 0.023780266 -0.3827846 0.040897533 0.26092044 -0.17121322 0.07582154 0.56240183 0.18916495 -0.21211918 -0.20368601 -0.38941345 -0.3979945 -0.29190573 -0.42373082 0.34180063 -0.19175014 0.2752591
232 -0.35187113 0.48334092 0.10815625 0.056614175 -0.60927725 0.1951005 -0.29989192 -0.39388588 -0.5000424 0.30721986 -0.0006042145 0.048707422 0.5727409 0.50359577 0.31458405 0.45053878 -0.63736665 0.29417333 0.06896991 -0.11449277 -0.33676103 -1.0114704 0.05518701 0.22336105 -0.14674696 0.484188 -0.19944607 -0.18268575 0.01042388 -0.4817347 -0.109771915 -0.10073057 -0.07943164 -0.06516695 0.16995597 0.09215925 -0.35578805 -0.13627595 0.13884556 -0.1958603 0.50045204 0.1887354 -0.25862935 0.04360104 -0.029801868 -0.122552656 -0.012793922 0.31480056 0.27706173 0.089754626 -0.48452088 -0.3234466 -0.15431648 -0.110897474 0.30967167 0.46004063 0.042119067 0.8104827 0.09103165 -0.2581515 -0.5314328 0.07256479 0.17278156 -0.1721186 -0.24130952 -0.25924128 -0.15546404 0.40713558 0.27421546 0.23472777 0.14525834 -0.0283259 -0.69588125 0.01843429 0.14475463 0.30452287 0.15317993 -0.008825002 -0.19823372 -0.18680741 -0.24449551 0.4333495 0.16655055 -0.87655115 0.2713195 -0.31689674 0.5032711 0.07537363 0.7885473 -0.17063771 0.3851489 -0.18192317 -0.53412056 -0.203105 0.13642806 0.24980398 0.40715766 -0.17514138 -0.6019904 0.11573903 -0.024841556 -0.1528878 0.12685207 0.74070704 -0.4643526 -0.420197 0.00097012933 -0.13033813 -0.88039696 0.1623778 0.50560766 -0.2350673 -0.09630557 0.15942979 0.07917843 -0.29202533 0.56909186 0.16997136 0.16160814 -0.32977176 -0.20511828 -0.37754616 -0.53858626 -0.3437796 -0.7772488 -0.11618774 -0.1682587 0.40260613
179 -0.35527697 -0.3583287 0.25885674 -0.23022068 -0.16568656 0.07984241 0.14538081 -0.7768978 -0.082198344 0.2306821 -0.099239185 -0.09837185 0.18412474 0.091335066 0.14809708 0.16116424 -0.6105189 -0.059633873 -0.13028371 0.0049462314 -0.5766349 -0.7604141 0.37639025 0.07926338 -0.035623584 0.29167598 0.10661891 -0.6900052 -0.46857756 -0.24334449 0.12904236 -0.6286058 0.29141098 0.20632716 0.13540895 -0.11884535 -0.20307763 0.21702152 0.1278511 -0.27137035 0.38384104 0.34719518 -0.8974806 0.19893195 -0.26229253 0.31502026 0.23826267 0.21489935 -0.15918745 0.294285 -0.7433958 -0.09654983 -0.2799122 -0.45011592 0.20984106 0.40534854 -0.5157196 0.78764486 0.54961306 -0.58866656 -0.31272638 0.6223057 0.21784168 0.22697675 -0.28235516 0.18466282 -0.15996505 0.22146799 0.3581657 -0.27382037 0.41615865 0.2666593 -0.46953854 -0.020983374 0.103220284 0.1704264 0.50209415 -0.5346216 -0.23673053 -0.13252068 0.25086433 0.12220947 -0.13255318 -0.14259341 0.29091194 -0.028279793 0.6038662 -0.05288968 0.8361953 0.09239643 0.6606197 -0.38100412 -0.6335657 -0.70023453 0.3772339 -0.29016048 -0.032442965 0.13860102 -0.18570921 0.12268358 0.21765839 -0.11875105 0.78203946 0.37690046 -0.2540012 -0.26583406 -0.3310759 -0.3637278 -0.010225399 -0.41578877 0.19726525 -0.2031342 -0.1932367 0.096860595 0.6854458 0.040970728 0.05348495 0.43417704 0.33113238 -0.23638377 -0.12995231 -0.5511304 -0.42626253 -0.15108404 -0.53912354 0.21749909 -0.46560657 0.70452404
167 -0.36346176 -0.04535998 -0.27344105 -0.21647441 -0.10430454 -0.004992329 0.10744487 -0.402301 -0.088717714 0.20898154 0.1390404 0.20726788 0.24477746 0.52542835 0.1378237 0.05205969 -0.8805649 0.020984564 -0.35394186 0.23370194 -0.68014586 -0.49801332 0.07429968 -0.02065638 0.03235107 0.6594733 0.21409571 -0.21712838 -0.4338453 -0.27842447 0.55871123 -0.51513207 -0.0038607484 0.060761046 0.07561454 0.2739047 -0.4200866 0.30016074 -0.23387337 -0.26383305 0.33680636 0.13356884 -0.76106614 -0.31879216 -0.25584817 0.1561918 0.09056835 0.103279464 -0.3729889 0.34273064 -0.63139665 -0.35349724 -0.28395316 -0.31182528 0.051234577 0.46818498 0.021797318 0.6178997 0.40476328 -0.2376265 -0.21299426 0.20193896 0.42217147 -0.48396948 -0.4302304 -0.197494 0.38795137 0.277061 0.47168615 -0.11438787 0.40833467 -0.39312643 -0.729567 -0.2665942 -0.024519516 -0.019554721 0.15989064 -0.44502893 -0.43551618 -0.21961726 0.07995082 0.0109359715 0.44989523 -0.20542288 0.13870858 0.026394526 0.64287335 -0.18197222 0.55726653 -0.43968138 0.44347376 -0.52766603 -0.5409649 -0.5257036 -0.003373665 0.16219407 0.3405553 0.063784376 -0.3178816 0.24582814 -0.0815885 -0.0027618832 0.3912472 0.501094 0.17912044 -0.57528347 -0.42458677 -0.034625977 -0.59853095 -0.46439013 0.03892584 -0.19077495 -0.066806935 0.048789673 0.27444842 -0.083943784 -0.05246107 0.69870603 0.5098339 -0.2858535 -0.071372956 0.02714628 -0.45433226 -0.24196894 -0.65680504 0.010690078 -0.05264599 0.30671167
65 0.1478806 1.1364114 -1.2036784 0.042563573 -0.58619535 -0.625612 -0.31197077 -0.42649716 0.25471556 -0.036809467 0.10410089 0.054939143 -0.06079776 0.18633634 -0.57721174 -0.1284506 0.64930594 0.30195963 -0.14006138 1.1063513 -0.1496491 -0.5500158 -0.20942083 -0.42136008 0.5317256 -0.3896637 -0.2948639 0.21959895 0.18377961 0.681329 0.10130428 0.40942556 -0.38235876 -0.010759167 -0.57858104 0.19185841 0.5370562 0.5991397 -0.33610168 -0.49594647 0.12652133 -0.57765967 0.5107118 -0.26106957 0.36750096 -0.8092421 0.15020567 -0.860986 0.029501284 0.15249877 0.11839173 -0.18686229 -0.34561273 -0.28987294 -0.26974246 0.45823818 0.19046056 -0.41014126 -1.6274761 0.18015319 -0.032018457 -0.18672319 -0.14049336 -0.6040371 -0.22659533 -0.62620527 -0.2595751 -0.27055585 -0.1729992 0.5512345 0.5966326 0.3504507 0.0033810474 0.5827364 0.37611824 0.56969196 -0.54787046 -0.23485164 -0.014072021 0.0068789097 -0.117318325 0.091469556 0.4123039 -0.33261606 -0.37800217 0.66292083 0.62959075 0.37507585 0.22662967 0.38979805 0.613453 -0.33588526 0.19635671 -0.1205036 -0.38192055 -0.009877676 0.5972033 0.6751582 -0.04114631 0.88630533 0.26702064 -0.042884484 -0.68669474 -0.022663496 -0.08778954 -0.19831538 0.83409166 0.55371815 -0.60051143 0.42441025 -0.7019795 0.22267489 0.42368937 -0.37130338 -0.62946063 -0.08522187 -0.39014545 -0.527625 0.79247797 -0.4520186 -0.56454295 0.33654192 0.6193769 0.5120203 0.18829879 0.42727628 0.41889712 0.16223146
172 -0.13579838 0.35802668 -0.19754572 -0.12985393 -0.33468047 -0.094355725 -0.056467764 -0.4221474 -0.1568803 0.22216646 0.05569892 -0.27368486 0.21256076 0.51286364 -0.12592289 0.3148929 -0.12608711 0.07507118 -0.32384562 0.21577881 -0.4620058 -0.51052815 0.2467122 -0.1273325 0.010015294 0.25941133 -0.20512094 -0.3894366 -0.10272854 -0.2180068 -0.1115458 -0.21839483 0.09139738 -0.28686282 0.10453513 0.3418189 -0.14088237 0.03720385 -0.0746929 -0.18189628 0.33575058 0.3710281 -0.12736143 0.08471236 -0.19425645 -0.08816501 0.48211622 -0.21319656 0.057947613 0.3388556 -0.4409894 -0.35447228 -0.5276152 -0.43562508 0.37919936 0.5080275 -0.023032619 0.5611715 0.3040358 -0.24600255 -0.43875015 -0.039018296 0.23527808 0.10032723 -0.18717094 -0.21529052 -0.026831068 0.5343063 0.19881915 0.30433798 0.19305117 -0.20952344 -0.55397165 -0.074049845 0.43826243 0.52633893 -0.08650184 0.0254605 -0.12368837 -0.26569796 0.027234098 -0.083212234 0.24255821 -0.6707309 -0.04659634 -0.08948474 0.79157263 0.07473872 0.34296688 -0.13263078 0.32329342 -0.25629002 -0.5131664 -0.37540507 0.16715236 -0.31871408 0.27612305 0.02553425 -0.14823726 0.43901798 -0.07742354 -0.28479317 0.08829152 0.69720894 -0.23618564 -0.46872216 -0.12205325 0.02928268 -1.0593528 0.41409695 0.38145888 -0.11925418 -0.11695146 0.18054076 0.4297167 -0.19969586 0.30988848 0.30213264 0.36477742 -0.59090567 -0.5153588 -0.2506997 -0.26875383 0.067165725 -0.6676959 0.028727278 0.02556123 0.7154546
263 -0.2694638 0.5100472 -0.49289092 -0.11587937 -0.60401523 -0.17928445 0.042292416 -0.35241115 0.20843467 0.111791216 0.18233205 0.14663613 -0.13238804 0.81666905 0.3969868 -0.06252217 -0.25458512 0.2501916 -0.03220535 -0.17828248 -0.018407572 0.24278247 -0.38157716 -0.24558997 0.4386254 0.74248236 -0.17689879 0.02705224 -0.1216334 0.410026 0.40596566 0.19256191 0.07761904 0.48603427 -0.64303476 0.17460763 0.2877358 0.42096236 0.26764846 -0.5005212 0.04715141 -0.39370918 -0.084811814 -0.29614222 0.052778494 -0.16529681 0.27984294 -0.74247247 -0.064517625 0.19393414 -0.032034334 -0.082364544 -0.07266344 -0.06392729 -0.25911403 0.02469597 0.4161704 0.27936208 -0.50736475 -0.09971444 0.3507472 0.31428176 0.54142237 -0.43758088 0.16333382 -0.54304224 -0.5968877 0.2252814 -0.72173566 0.14489809 0.26111048 -0.5244668 -0.5151516 0.249624 0.07575585 0.15994672 0.26277778 0.26240513 -0.08564753 -0.36741987 -0.24404246 0.10470039 0.3572421 -0.13184798 -0.16027653 0.11127965 0.5458086 -0.04266716 -0.08768044 -0.032885615 0.39631858 -0.3582623 0.20986351 0.16854289 -0.055818662 0.08629426 0.17653537 0.3310107 0.34347525 0.60073864 0.22840792 0.437003 -0.38641682 0.21290673 0.64087594 -0.8496959 0.32239848 0.3813909 -0.65785927 -0.07019149 0.1390274 -0.31757247 -0.04059461 0.23081216 0.04026041 -0.43614617 0.6770207 0.22531939 0.010204756 -1.2459503 -0.006199028 0.4208741 -0.079116024 -0.056728873 0.46505457 0.23551719 0.021930007 0.1986218
310 -0.51184165 -0.34788072 -0.25185364 -0.39549348 0.16752179 0.038130324 0.076328635 -0.6600901 0.076343305 0.083791405 -0.2060784 0.11134674 0.38806576 0.25003105 0.3044054 0.19075753 -0.78318655 0.029018134 -0.08138995 0.0023654168 -0.8701689 -0.5456391 0.078860246 -0.17765686 0.12814577 0.31718683 0.054418366 -0.6253473 -0.34214538 -0.26408598 0.37999034 -0.6799642 0.24383856 0.15109509 0.15803443 0.08685512 -0.15045223 0.5075663 -0.18841046 -0.2668014 0.49325657 0.5758049 -1.0134611 -0.059457827 -0.14469497 0.07324062 0.17017396 0.21730834 -0.32291332 0.56401074 -0.80693626 -0.09733394 -0.20382741 -0.08752177 -0.20227304 0.43147892 -0.109992474 0.88206637 0.48445374 -0.42866355 -0.107041836 0.30947176 0.42810652 -0.09266731 -0.4205696 -0.10115457 0.3005556 -0.109582365 0.32827622 -0.17224881 0.46592888 0.18473534 -0.6458845 -0.031165142 0.27871343 0.021645458 0.37438473 -0.25225893 -0.23162347 -0.30495033 0.12649982 -0.1878947 0.27537453 -0.06595637 -0.011803467 0.13715854 0.7437719 -0.22831576 0.8096328 -0.047808364 0.653531 -0.20306313 -0.34717435 -0.6484233 -0.08314705 -0.38977987 -0.22915164 0.18153733 0.057646792 0.26708806 0.18292156 -0.20209505 0.7270861 0.27278778 -0.34736946 -0.22312036 -0.38471812 -0.48593968 -0.17004058 -0.49599928 -0.13508683 -0.096602954 -0.30023852 -0.07722434 0.32635826 -0.0042681983 0.058533184 0.30341494 0.4274548 -0.17901531 -0.2231426 -0.49442583 -0.43762004 -0.17365009 -0.45602548 0.3822385 -0.10468849 0.47981334
292 -0.104171544 -0.37653106 2.6077223e-05 -0.09262961 -0.04731454 0.3236602 -0.07668384 -0.1790123 -0.045472767 0.21075049 -0.109080665 -0.048510965 0.26765862 0.05883301 0.32924733 0.113703206 -0.8057463 0.54804665 0.021030547 -0.11274985 -0.63993776 -0.7116048 -0.25242558 -0.21784627 0.11884231 0.43783435 -0.036235526 -0.44112414 0.024261117 -0.48977318 0.36258757 -0.24491027 0.16466574 0.32205227 0.44641975 -0.14271505 -0.5392273 0.19725059 -0.3321185 -0.2611008 0.30216625 0.31526864 -0.5236975 -0.14845195 -0.018622527 -0.01786169 -0.24222721 0.30669045 0.037984494 -0.06954857 -0.2777536 0.1361394 0.046891686 0.2276103 -0.24438535 0.36197773 0.2571833 0.60848594 0.42506635 -0.10654894 0.05104197 0.20094894 0.20899493 -0.4905844 -0.32873744 -0.08844201 0.3792508 -0.24911644 0.5514069 -0.07114618 0.032627743 0.0038878454 -0.7831003 0.20593564 -0.11357411 0.1757242 0.3000516 0.061520413 -0.23747733 0.040433142 0.021499507 0.30004272 0.18660106 -0.42766243 -0.21511802 0.238065 0.2768185 -0.10266006 0.5866596 -0.21194479 0.38327736 -0.5156966 -0.40169528 -0.20486379 -0.14452794 0.11480297 -0.114784405 -0.1044334 -0.07368721 0.045608934 0.19953163 -0.09098717 0.5071088 0.29964477 -0.37831643 -0.5074949 -0.25185257 -0.21799466 -0.2529406 -0.0642971 0.12529127 -0.28268155 -0.30955222 -0.058674973 0.13703857 0.33611503 0.13472931 0.14413188 0.2405175 -0.10224567 -0.05962291 -0.44782513 -0.2768158 -0.36619857 -0.3069606 0.07586644 0.06806338 0.30924848
94 -0.19783047 0.5037673 -0.27264917 -0.3229913 -0.3089156 0.09370344 -0.21594761 -0.49157625 0.07859837 -0.13842529 -0.10455601 0.36079302 0.11031476 0.24460472 -0.023072356 0.06922915 -0.41106075 0.254042 0.05759624 -0.062328644 -0.44514903 -0.22340663 0.16799927 0.16411225 -0.00062789005 0.23873006 -0.07074704 -0.21074243 0.029760424 0.0963427 0.2715558 -0.2528934 0.06121404 0.054434538 -0.34834385 0.054229345 0.23603688 0.42924967 0.088022575 -0.067778856 0.41094625 0.1882239 -0.714144 -0.016085956 -0.15850596 -0.04449155 0.35913816 0.022892743 -0.25555912 0.3170685 -0.73006845 -0.54309976 -0.3629722 -0.08921399 0.030081822 0.09380859 0.18017799 0.7115568 0.21822727 -0.41595447 -0.36071372 -0.16690658 0.14621218 -0.12278138 -0.12958242 -0.38683292 -0.37214646 0.50505483 -0.40870592 0.34366181 0.3070305 -0.32581577 -0.66924083 -0.65017855 0.52635515 -0.07823466 0.5113412 -0.11894098 -0.34740824 -0.31580365 0.013251471 -0.41141132 0.32092714 -0.18162587 -0.059875105 -0.30709895 0.69514704 0.03221215 0.666918 -0.1424911 0.6942937 -0.16346464 -0.118358366 -0.39440164 -0.13928261 -0.21123713 0.19386484 0.09573678 -0.062253337 0.32312012 0.057594363 0.0012015622 0.10189171 0.6651707 -0.044598598 -0.12591927 0.27972254 -0.27485523 -0.60281354 -0.64863497 -0.19411613 -0.51537704 -0.09037013 -0.23240635 0.4105155 -0.030514693 0.35032117 0.15752344 0.3257939 -0.29986572 -0.07514866 -0.04014262 -0.3326174 -0.05151427 0.0032868653 0.3124174 -0.37855506 0.22785501
8 0.23733962 0.24832468 -0.49638665 0.049424782 0.8910504 0.3746782 -0.35367873 0.4604479 -0.12044197 0.40583134 0.6281309 0.25309536 0.04760753 0.3377044 -0.67622876 -1.2788936 0.009986164 0.85932565 -0.18055762 0.22259538 0.37956062 0.6995354 0.41462332 -0.10495122 -0.112919986 0.11700279 0.75648695 0.17440037 0.31999528 0.035012648 0.12325656 0.00015939206 0.3361506 -0.06840788 0.6276708 -0.1258641 1.0475637 -0.51433283 -0.3172708 0.15106177 -0.30715403 -0.5694929 0.4990129 -0.09716451 -0.424488 0.43307608 0.38198686 -0.6350777 -0.7401212 -0.6891409 0.49503055 0.35463774 -0.42515367 0.7740955 0.9704754 -0.26537532 -0.27684388 -0.5767103 -0.57817054 0.94453114 0.7552125 0.18687406 0.07980221 0.18756993 0.15577024 -0.53971046 -0.13952598 -0.4193633 0.07914959 0.5205055 -0.08246617 -0.8289764 0.7017221 -0.3498856 0.36516997 0.7024605 -1.0912268 -0.65649027 0.6411674 0.53216213 -0.014412934 -0.4191924 0.23628375 0.1565626 -0.48868588 0.38939023 -0.15835622 0.15033337 0.184484 0.15847512 -0.55346733 0.074018195 -0.62127644 -0.4816323 0.8071128 -0.25731188 -0.6922696 0.5013171 0.39797345 0.34832934 0.049495365 -0.2707998 0.6390019 -0.7421605 0.70330083 -0.33452195 -1.0023184 0.7620292 0.35677117 0.37714994 -0.95393336 -0.4743966 -0.09996344 0.19898082 0.2299087 0.1456552 -0.903589 0.12074374 0.4118475 0.10455514 -0.19303632 0.286465 0.8144112 0.3292271 0.8664767 -0.27169392 0.24127464 0.094611265
307 -0.5801193 -0.4476577 -0.120766066 -0.26180226 -0.07564298 -0.14682056 0.09787837 -0.8043996 0.07762999 0.09526479 -0.28470355 0.14010823 0.35592988 0.1299979 0.36359942 0.20717026 -0.91255516 -0.16952673 -0.23100814 -0.07490047 -0.5016945 -0.3891194 0.21916588 0.086469755 0.18359059 0.25128272 -0.09331835 -0.63727 -0.52547985 -0.23490854 0.14753713 -0.6366425 0.120541334 0.016086426 -0.029364439 -0.069730245 -0.16304871 0.5493919 0.012436692 -0.042832017 0.53779715 0.55990463 -0.7970841 -0.38256952 -0.3442683 0.14607288 0.14711362 0.27498835 -0.23242815 0.42153168 -0.9040267 -0.31906873 -2.0982498e-06 -0.16273369 0.13356829 0.2904711 -0.09703082 0.85098207 0.27715158 -0.21412641 -0.2663984 0.24386044 0.4065273 -0.03329588 -0.4187906 -0.08332615 0.22501189 -0.14316487 0.1995589 -0.1550694 0.2921835 0.16104488 -0.65950674 -0.104824334 0.43820542 0.13092972 0.32716298 -0.20710437 -0.14452527 -0.3871336 0.052573174 -0.44194683 0.26954556 -0.15922318 0.02943113 -0.02622549 0.50844747 -0.14271393 0.629617 -0.084464386 0.4613731 -0.19399612 -0.2740065 -0.56667143 -0.0305994 -0.14242521 -0.28711236 0.059121683 -0.27698433 0.23340763 0.037543416 -0.11482412 0.6258627 0.42607063 -0.20775335 0.010632126 -0.5123924 -0.5338247 -0.22812736 -0.3644565 0.0333392 -0.17113742 -0.28318065 0.045304053 0.37055653 -0.05574704 0.0421068 0.36132568 0.40481505 -0.16102278 -0.07735332 -0.4445626 -0.48184073 -0.3745261 -0.36820856 0.37276387 -0.058672845 0.4436804
119 -0.24166115 -0.5991687 0.09017968 -0.28276238 0.08028898 0.24383916 0.19806847 -0.77186114 0.43501687 0.05048163 -0.21856065 -0.09266573 0.15929568 -0.13473299 0.08980579 0.028332347 -0.3272435 -0.2020185 -0.100570045 0.021419153 -0.6301287 -0.44082066 0.24389635 -0.07963254 0.34442598 -0.1013429 -0.12109084 -0.7735843 -0.7114041 -0.15868124 0.18313059 -0.79253805 0.21793139 0.2799198 -0.059232607 -0.08417703 -0.18715504 0.2462447 0.22118874 -0.32505682 0.4299075 0.5562877 -0.7887421 0.09224656 -0.19732958 0.30340418 0.04102278 -0.004394856 -0.2490739 0.6683682 -0.45899507 0.059466816 -0.06767913 -0.06479507 -0.14449793 0.41157594 -0.31853446 0.72746444 0.37182024 -0.5520818 0.0632289 0.6070969 0.14620408 0.2489326 -0.22821432 0.018263785 0.14361396 -0.344146 -0.030871516 -0.7398341 0.6022949 0.4867095 -0.34294492 0.07884436 0.014394348 0.07467692 0.15521927 -0.7868597 -0.0338576 -0.040879063 0.27454042 0.24486479 -0.11421022 0.23810317 0.1896351 0.24590926 0.37615728 -0.20652714 0.5632749 0.2164992 0.85711646 -0.27067187 -0.22041427 -0.6962068 0.05467461 -0.4821517 -0.2760194 0.1835198 0.07045193 0.058512207 0.40908092 -0.24214794 0.7691443 0.09750558 -0.29964727 -0.054966748 -0.2325436 -0.39816117 0.48943058 -0.7300879 -0.10462033 -0.097154506 -0.017460281 0.052070946 0.66820776 0.06504171 -0.2061189 0.16477127 0.5558092 -0.18806559 -0.07024405 -0.26444638 -0.31945813 -0.086805135 0.0049990886 0.52429587 -0.25958553 0.6469773
13 0.58222175 0.31443563 0.3183743 1.195018 0.4700766 -0.028255282 -0.4185606 -0.06766368 0.20933723 0.24935481 -0.6243904 0.14841604 0.25489148 0.16453414 -0.2904115 -1.0775285 1.0712007 0.84258544 0.29197687 0.4219367 0.87678236 1.439917 0.61307615 -0.46169 0.07842639 -1.639455 1.1013219 -0.2701649 0.2923026 0.50822914 -0.6049901 0.69801366 0.78050345 -0.45900384 1.037463 -0.86293745 0.9107947 0.082516514 -0.10657338 0.80373496 -1.3750682 -0.039442174 1.8282461 -0.20929332 -0.33534604 0.39830148 -0.14757831 0.13578846 -0.18443258 -0.7831191 1.1706479 -0.1225739 0.838894 1.5930068 0.60734457 -0.35220653 0.21871638 -1.0210503 -0.9979252 1.6824564 0.45854437 -0.23823282 -0.53768337 1.0886085 0.047918238 0.10488945 0.8040934 -1.0769185 -0.5039898 0.6229661 -0.5874383 0.48780343 1.1006002 -0.6265653 0.15557882 0.5287902 -1.5751528 -0.97500896 0.60599864 0.8961969 0.10664151 -0.67208815 -0.873725 0.8648233 -0.102124244 0.46948716 -1.4414568 0.83849007 -0.28722963 0.14076664 -0.6430657 0.95098025 0.5584421 0.053435765 -0.033731073 0.108375505 -0.88113415 -0.26445553 -0.7052097 -0.83870685 -0.7718578 -0.5940358 0.13440746 -0.7078012 0.71449995 0.37051994 -0.7570177 -0.14602667 0.62879455 0.7711565 -0.35968646 -0.30109292 1.6979748 0.29502127 -0.40626863 1.3415228 -1.6385411 -0.1572417 0.16253306 2.2441313 0.32629478 0.20633188 0.96260273 0.10456776 1.002351 0.25084397 0.34290853 0.015003968
306 -0.55416214 -0.5086815 -0.0904898 -0.27850482 0.114772074 -0.15055788 0.063276984 -0.9312664 0.23810554 0.3055921 -0.30183077 0.2679545 0.2966726 -0.1120678 0.50304425 0.10453818 -0.6783887 -0.26080662 -0.10531841 0.07239916 -0.4677648 -0.32339424 0.25891843 0.03851183 0.40585226 -0.06249129 -0.052946575 -0.6840501 -0.5889913 -0.067339875 0.093280785 -0.77902734 0.2198546 0.3146109 -0.07987065 -0.28711635 -0.1680979 0.6414605 0.14543147 -0.2372238 0.43184882 0.6103386 -0.84733623 -0.07732709 -0.19187327 0.100152805 -0.055080414 0.26918504 -0.2765415 0.60408616 -0.8024675 -0.01199499 0.19012195 -0.15303023 -0.01613509 0.43956566 -0.33645803 0.73595965 0.28620434 -0.39956513 -0.09043001 0.40702116 0.34568325 0.25470898 -0.4102116 0.06184937 0.21088631 -0.35231137 0.20118129 -0.46295187 0.3577079 0.46291313 -0.51950914 0.29095578 0.30400896 0.008427957 0.37942705 -0.28424668 -0.07500566 -0.27090642 0.17997761 -0.2985537 0.27715334 0.027282951 0.067670576 0.04243564 0.53873914 -0.3303744 0.64287454 0.04747717 0.4708286 -0.084406406 -0.16148773 -0.7288021 -0.053977646 -0.2743541 -0.4119591 0.12590772 -0.23507494 0.10872786 0.23072165 -0.0830081 0.9139715 -0.016936779 -0.19867025 0.071568735 -0.43292928 -0.73165005 0.13805908 -0.5355447 -0.0803895 0.15089457 -0.2960008 0.10347702 0.35974056 0.0076947585 -0.04953277 0.24643202 0.3657512 -0.10571157 -0.2776698 -0.5490358 -0.5569294 -0.31193438 -0.280073 0.50229084 -0.114068516 0.4862485
159 -0.19208328 -0.16969901 -0.1972969 -0.19654362 -0.25145835 -0.016016124 0.18262772 -0.52347153 0.25000128 0.11190907 0.10109778 0.1783205 0.1279867 0.22701366 0.12524778 -0.037125137 -0.5734509 -0.053098146 -0.21895109 0.047758892 -0.361481 -0.25077677 0.27767068 0.0206343 0.3493377 0.4829984 0.0068214163 -0.49417976 -0.33091187 -0.09161837 0.42719182 -0.4788036 -0.019297091 0.16779567 -0.20637394 0.13308503 -0.16914897 0.42553365 -0.09788858 0.06490252 0.22789308 0.18893214 -0.68240935 -0.42247427 -0.29349703 0.012470053 0.1493458 0.056568976 -0.38940227 0.2578406 -0.6147474 -0.19682695 -0.016416872 -0.4462669 0.11044962 0.37523457 0.12168144 0.43880928 0.12310791 -0.19239669 -0.17176034 0.11922946 0.4608896 -0.30766273 -0.29156905 -0.17249657 0.30355063 0.26997805 0.26350775 -0.089312516 0.36352167 -0.1274954 -0.6239034 -0.25248802 -0.019033138 -0.021942917 0.28728124 -0.3207138 -0.28808108 -0.205951 0.067103714 -0.13922495 0.26920718 -0.2309148 0.052868355 -0.016644225 0.53192073 -0.1027237 0.43519193 -0.28541172 0.5379863 -0.6036723 -0.22453763 -0.44587827 -0.18623067 0.06427923 0.2946069 0.100211866 -0.19546331 0.3750103 0.08699286 0.07028385 0.34333545 0.39187062 0.17726648 -0.39191455 -0.19051827 -0.097528115 -0.3830975 -0.54122776 0.12730484 -0.028197521 -0.22136961 -0.13466822 0.42291215 0.04569728 -0.047239173 0.3915115 0.45346022 -0.47144297 0.08048755 -0.006279985 -0.3254081 -0.19590817 -0.26637256 0.3577442 -0.06460093 0.40423122
161 -0.0021580285 -0.07352766 -0.024172615 0.012192134 -0.06421244 0.066882975 0.09364481 -0.24013445 0.34887773 0.4938441 0.5684984 0.6559868 0.12680328 0.24319161 0.008047607 -0.20687483 -0.24904205 -0.02926458 -0.3641232 0.47026786 0.065252766 0.029668655 1.0545921 0.31198093 0.36962014 0.4494683 0.7704609 -0.41175407 -0.6436363 0.32401675 0.53320354 -0.2444883 -0.0076535717 0.32328087 -0.11216031 -0.21337026 -0.27507594 0.13979813 0.44766262 0.38350818 -0.25680837 0.087098666 -0.5783493 -0.18588777 -0.27990744 0.611926 0.014925357 0.2625301 -0.65057844 0.10861646 -0.3175226 -0.5973295 0.117937826 -0.36877725 0.32847923 0.38628712 -0.2106898 0.29602262 0.2857694 -0.11344033 -0.3161852 0.094402745 0.20991306 -0.11163582 -0.56219304 -0.037247032 0.45294252 0.65460527 0.5818607 -0.36916456 0.50345546 -0.23109126 -0.3293351 -0.88843656 -0.38171807 -0.69356716 0.24255748 -1.2340696 -0.42127982 0.434969 0.2259732 0.32840818 0.28327805 0.05855701 0.51816124 -0.16168822 0.50614864 -0.09834688 0.53319156 -0.57754266 0.1800055 -0.13390969 -0.3264687 -0.67039984 0.04819242 0.08566677 0.94907683 -0.25309682 -0.930688 -0.43474153 0.14749208 0.15597436 0.32779792 0.1409239 1.2621344 -0.11271999 -0.030606003 0.024596991 -0.16047803 -1.1476208 0.31065035 0.274565 0.2147672 0.07931675 0.70718884 -0.02209266 -0.721598 1.0181817 -0.11830054 0.15782617 0.02232554 0.4433172 -0.36118346 -0.07205536 -0.24100573 0.43632188 -0.4925321 0.075312
296 -0.2286701 -0.1845513 -0.38384435 -0.0135326255 -0.09582267 0.59743035 -0.6575952 -0.21792898 -0.07907932 0.4275525 0.098017864 0.060858767 0.8461789 0.28154856 0.68474996 0.4512296 -0.8484066 0.560979 0.052041825 -0.32522818 -0.41534308 -0.53389364 -0.3087102 -0.48394063 0.27353716 1.1405787 -0.07847797 -0.46503407 0.25844195 -0.40277997 -0.039168708 0.19795367 0.4645485 0.4463771 0.6721747 -0.3960044 -0.67888045 0.22887397 -0.23788497 -0.1729075 0.5184992 0.24086767 -0.3031852 -0.20944215 -0.020073632 -0.49481297 -0.08617706 0.124596395 -0.0723233 -0.46071702 -0.034770854 0.2602366 0.54345465 0.5857929 -0.44966355 0.6848633 0.7423509 0.83122486 0.017445687 -0.0537489 0.26736724 -0.14922133 0.6771959 -0.82996684 -0.44434023 0.03794451 0.26204687 -0.19452429 0.8772517 0.16884622 -0.23440658 0.06719178 -1.1271487 0.7709297 0.31888565 0.6304678 0.52666545 0.7947092 -0.0130916955 -0.023064263 -0.30754763 0.5828342 0.48882064 -1.0086632 0.093544535 0.0764523 0.83563805 0.011069065 0.79268986 -0.16076307 0.023977729 -0.43012723 0.105877295 -0.033782367 -0.1815159 0.23686817 0.12197903 -0.39067355 -0.38978726 -0.2628793 0.40783244 0.33371636 0.246605 0.21043308 -0.36154506 -0.66272265 -0.2702598 -0.1987762 -0.99683785 0.43295127 0.83490735 -0.2566817 -0.68308157 0.059015073 -0.27001774 -0.17340264 0.88529056 -0.094306745 -0.8483245 -0.8767732 -0.33941442 -0.7913892 -0.41850105 -0.26240334 -0.35398722 0.14617704 0.60122544 0.33117586
203 -0.019868359 0.4124261 -0.68258566 -0.120887555 -0.6443747 -0.40788272 -0.043068923 -0.43251458 0.38420215 0.16412844 0.4688475 -0.19000052 -0.21928224 0.425096 0.09472416 -0.30030793 -0.36449832 0.10096676 -0.45842412 0.31303546 -0.19319296 0.17282125 -0.5476577 -0.21676043 0.5703059 0.6953802 -0.4534886 0.011360192 -0.47186217 0.3331299 0.014736659 0.152144 0.06801214 0.5130834 -0.9637575 0.09791763 0.16221017 0.32301712 0.50972235 -0.6082507 0.19204538 -0.21298894 0.06691463 -0.49074966 0.21774097 -0.39681724 0.16275099 -1.1314695 -0.18374604 0.32388416 0.14538772 -0.06583214 0.046426203 0.15033437 -0.29780802 0.11682554 0.5266215 0.07736045 -0.8327399 -0.1325074 0.19778112 0.0806271 0.40757722 -0.35193416 0.048488937 -0.48317608 -0.42531732 -0.082057774 -0.5937219 0.059318475 0.05619058 -0.5328636 -0.746477 0.5168999 0.098580465 0.4075582 -0.16731867 -0.08257424 0.14075577 -0.3008453 -0.14393082 0.121757425 0.52854675 0.092825204 -0.21307023 0.29818574 0.49523664 0.09421514 -0.18805596 -0.16474918 0.31793168 -0.52970994 0.43236703 -0.06816122 -0.106387645 -0.023149477 0.4068577 0.5383331 0.1022578 0.67731565 0.31248966 0.5401598 -0.123149596 0.050248783 0.6249887 -0.94520956 0.3667659 0.44839567 -0.7753304 0.03167387 -0.07978939 -0.36660153 0.14845224 0.14294447 0.113883354 -0.47028133 0.14075977 0.34495443 0.40625182 -1.3731873 -0.3246732 0.8352048 -0.06824809 0.12008208 0.6509517 0.49657875 0.026838634 0.5140566
123 -0.43733907 -0.115078785 -0.54150045 -0.3942147 0.11596721 -0.20723034 0.13653189 -0.18098344 -0.102056034 -0.19247161 0.32484475 0.025680007 0.49943504 0.57038546 -0.018474642 0.3727318 -0.8658116 -0.17457452 -0.2969174 -0.086768985 -0.63068986 -0.3476863 0.28850174 -0.45933136 -0.26642445 0.5658302 0.04497598 -0.24340299 -0.28810406 -0.59981096 -0.055663783 -0.4887836 -0.14865017 -0.41120115 -0.050791238 0.42081615 -0.23047107 0.14830102 -0.40372097 0.05647542 0.36788756 0.21526088 -0.56780005 -0.2833957 -0.3274069 -0.21572025 0.5324729 0.16302429 -0.38388476 0.46651372 -0.8175102 -0.28351977 -0.5408728 -0.2903954 0.30585873 0.45722455 0.016047107 0.49745673 0.22198181 -0.14799471 -0.33100137 -0.19838339 0.6049359 -0.17742103 -0.654309 -0.0037436204 0.160859 0.15877967 0.5804496 0.11037591 0.30826974 0.13261347 -0.8273235 -0.2533622 0.33149406 0.38376448 0.2509587 -0.2652731 -0.0707343 -0.2975042 0.10291969 -0.43956634 0.45422524 -0.13613793 0.23819086 -0.23000377 0.799192 0.026825674 0.78638107 -0.4252826 0.044867538 -0.32136244 -0.1998526 -0.5423375 0.060344737 -0.22392207 0.030227553 0.0867669 -0.18277055 0.41683647 -0.4201255 -0.1281872 0.37244457 0.6437916 -0.052009083 -0.35758683 -0.7500715 -0.37675622 -0.722373 -0.3045078 0.028916458 -0.21930936 -0.068031356 0.0320382 0.23545182 -0.3431234 0.07466716 0.40958226 0.30676246 -0.020588381 -0.08712877 -0.36917153 -0.37400424 -0.3488049 -0.76875913 -0.072373904 -0.03650555 0.37000126
246 -0.21157005 0.6981571 -0.53577715 0.06912843 -0.7590242 -0.54210067 0.20406084 -0.4182377 0.32555452 0.0085387435 0.2859136 -0.0063300915 -0.2900597 0.87895566 0.24644685 -0.23890418 -0.14084642 0.18544944 -0.046035286 -0.21362813 0.23103712 0.44438112 -0.39806563 -0.18290322 0.58355945 0.54698044 -0.46059293 0.06601502 -0.21386304 0.3528181 -0.0072257575 0.16328683 -0.28400862 0.2553437 -1.1074108 0.2486148 0.5264328 0.33578372 0.342967 -0.5346421 -0.115196116 -0.6525832 0.23048863 -0.6260766 0.024748884 -0.37656173 0.19778986 -0.91889983 0.15510063 0.30288237 0.046285003 0.047370035 -0.09815946 -0.015998945 0.019894041 -0.0389399 0.33267358 -0.20125727 -0.92426074 0.11307458 0.3463978 0.19590448 0.5556331 -0.18302412 0.25689843 -0.5725572 -0.744582 0.054980952 -1.0506951 0.17677245 0.07092458 -0.36765996 -0.42903093 0.52730304 0.011497805 0.52551985 -0.093984604 0.23532651 0.16004822 -0.3124944 -0.18754531 -0.045072936 0.34173244 0.13197164 -0.23558208 0.021416662 0.146854 0.22019419 -0.35156405 -0.058632325 0.16074614 -0.5408164 0.36678928 0.31353855 -0.036950074 0.1018342 0.12629424 0.6195086 0.35127908 0.98824954 -0.03702369 0.44023168 -0.42015857 0.19588749 0.73684037 -0.9305672 0.3068117 0.53127915 -0.5495278 0.04644369 -0.1046454 -0.2572941 0.17123695 0.33974856 0.07921895 -0.5260277 0.35369185 0.112187885 0.48507592 -1.1927528 0.0664846 0.72493106 0.11446663 -0.26241428 0.62954855 0.25080094 -0.19192173 0.3479041
313 -0.19031355 0.29930738 0.039733764 -0.1849012 -0.40099162 0.3958682 0.1074031 0.34235436 -0.237761 -0.2807534 0.06125678 0.6210423 -0.29552412 0.99916434 0.46979424 -0.22027014 0.094481565 -0.015944231 0.8494156 -1.3158995 -0.06196392 0.2282653 -0.5457911 -0.36918563 -0.07369779 0.71822816 0.60318303 0.2736471 0.8926223 0.4326317 0.8213773 0.032184012 -0.4480605 -0.2009474 0.25691137 1.108631 0.42486966 0.032300405 -0.35816517 0.11817865 -0.6106223 -1.0092496 -0.34848973 -0.3537213 0.049017932 0.35747138 0.18008006 -0.5476686 -0.54806715 0.2046432 -0.16988203 0.30930018 -0.46188545 0.1279445 0.293718 -0.48324522 0.16976246 -0.3577153 0.4940547 -0.1064876 1.2292017 0.6986097 0.22849694 -0.79922926 0.56454706 -0.3151059 -0.7524608 0.76988226 -0.70021296 -0.14002238 0.42034414 -0.91238666 0.21767402 -0.29103538 -0.8615829 -0.35195124 0.6344567 0.41150236 0.055851843 -0.3255726 0.1449738 -0.078706615 -0.08638572 0.14308631 -0.029378198 0.499233 -0.16046524 -0.21154061 -0.37107855 -0.23158422 0.26127878 0.024522265 -0.56192195 0.21156153 0.71449155 0.7466361 -0.18313196 0.16036794 0.92064065 0.24659191 -0.12913324 0.6167205 -0.5982194 0.6652653 0.1116494 -0.53477794 -0.2826541 0.7566196 0.27866095 0.10441567 -0.053795237 -0.81755364 0.042945478 0.008347462 0.10757817 -0.47191918 0.9330607 -0.22678529 0.17001651 -0.5593579 1.1438925 0.38297725 -0.11390349 0.04475593 0.02756416 -0.6667156 0.19186352 -0.32898667
233 0.7275307 -0.06688984 -0.25217277 0.08286766 -0.2330786 0.48736796 -0.54770947 0.16904074 0.46256736 0.37820816 0.2353943 0.15488522 0.07000118 -0.3067829 0.26581734 0.092101365 0.17257072 0.6014054 0.2880768 -0.3500222 -0.46964356 -0.07575315 -0.099157475 -0.67160016 0.7916703 0.7135289 -0.03453119 -0.57646894 0.5654671 0.059792697 -0.0018957346 0.50393975 0.2560586 0.36985242 0.44433025 0.08453172 -0.5216252 0.28720078 -0.03608932 0.30350658 0.055356834 0.09173171 0.017482396 -0.088084824 0.20968066 -0.3558115 0.041719988 -0.63027066 -0.16272111 -0.3911765 0.3876674 0.46334326 0.45472115 0.34311002 -0.2373997 0.4843859 0.75087565 -0.040459625 0.1939334 -0.6269547 0.4103298 -0.16532312 0.39787322 -1.040551 -0.1211022 -0.052195664 -0.07782692 0.3023896 0.77097815 0.113478765 -0.33333153 -0.14815792 -1.027935 0.56326133 -0.16106054 0.25292534 0.6884098 0.81430393 -0.15080035 0.15163803 0.23975956 0.36159387 0.31350654 -0.67259055 -0.20331818 0.27412844 0.5674627 -0.15536094 0.14450197 -0.02550665 0.09883307 -0.8481929 0.25178665 0.07045661 0.08298378 0.08333534 0.5547904 -0.3323315 0.20309831 -0.2273328 0.6305319 0.54932797 -0.038054913 0.2919676 -0.12580982 -0.84208447 0.43736538 0.17175014 -0.7448608 0.44255373 0.5871229 -0.2944415 -0.45968625 -0.0151849985 0.5179733 0.18058187 0.47280362 -0.30700776 -0.47433674 -1.1088636 0.18799773 -0.2450448 -0.15133654 0.23009205 -0.059009068 0.21423046 0.4727204 0.38626096
253 -0.099307455 0.60000366 -0.59214497 0.0077267713 -0.69322354 -0.60648316 0.030271484 -0.33401048 0.2729874 0.08802934 0.35351762 -0.06841142 -0.05628641 0.7246107 0.08597642 -0.34447595 -0.27032396 0.16071333 -0.20379104 0.22217695 0.12506793 0.400524 -0.30412555 -0.042418726 0.46103448 0.3837245 -0.34513727 0.16705494 -0.37506065 0.34123453 -0.058576994 0.06369937 -0.19346404 0.1793258 -0.9914788 0.04806321 0.4224594 0.3584735 0.3675351 -0.4797351 -0.047568113 -0.5178087 0.35766828 -0.72424555 0.08902161 -0.40737772 0.18372229 -0.72539073 0.0030296184 0.28364533 0.11073736 -0.22560492 -0.112645775 0.10703642 0.019150449 -0.10407871 0.37626588 -0.08248395 -1.0674965 0.36492357 0.18079895 -0.059677027 0.44981635 -0.1536379 0.045042172 -0.6315808 -0.5275119 -0.071377814 -0.8096957 0.22570935 0.10187265 -0.3218056 -0.36596158 0.35773584 0.16827832 0.45278168 -0.1926153 -0.01618448 0.15167506 -0.28601316 -0.3327764 -0.17865933 0.42502034 0.17959778 -0.20767422 -0.06895174 0.15321077 0.2206749 -0.10225498 -0.05765324 0.11176444 -0.37475288 0.39606273 0.035898205 -0.14524862 0.10798615 0.13350858 0.5266246 0.074569374 0.7711988 -0.12046335 0.29029876 -0.38044515 0.06152707 0.8778423 -0.6107518 0.16718477 0.4401162 -0.6185351 -0.04762931 -0.25683233 -0.24360256 0.34765023 0.26934862 -0.080505535 -0.4927942 0.058522534 0.22881198 0.45400923 -0.83378035 -0.12146672 0.7046381 0.08943596 -0.2518847 0.61757743 0.3522689 -0.14618292 0.29592648
95 -0.05001173 -0.3226165 0.22530457 -0.451336 0.16986604 0.4155448 -0.052995764 -0.6758485 0.37332356 0.14829727 -0.11804214 -0.22316037 -0.029311823 -0.3106378 -0.19677179 -0.18290515 0.058821507 -0.05691409 0.10510667 0.21970202 -0.4060317 -0.36399046 0.3121879 -0.070601024 0.31029785 -0.40886822 -0.17867638 -0.7789007 -0.59668523 0.1289634 0.42174947 -0.6715431 0.40476334 0.5192552 0.1752038 -0.20534141 0.060784522 0.18301603 -0.009004733 -0.53860307 0.44110912 0.4926914 -0.9246826 0.28224337 -0.14980027 0.26032633 0.118908994 0.119936176 -0.36629352 0.43616363 -0.51264197 0.09991359 -0.20354228 -0.06370045 -0.14072411 0.65255964 -0.4358639 0.60358864 0.5215674 -0.5753391 0.08290983 0.66549057 0.007245284 0.2955394 -0.22330718 0.08843207 0.31967953 -0.029275281 -0.21137524 -0.43187913 0.38161588 0.2325143 0.028737003 -0.1779617 -0.0025762361 0.18482961 0.05387983 -0.839654 -0.25862035 0.1628838 0.29426584 0.5038032 -0.30315074 0.045478743 0.18974285 0.28106076 0.22868545 -0.20265968 0.5542381 0.21883869 1.0359278 -0.39100876 -0.58282375 -0.61463904 0.047869474 -0.39640036 -0.27164355 0.18890207 0.269843 0.0570492 0.42878276 -0.55773324 0.96317625 0.048034918 -0.3709851 -0.07963808 -0.015324133 -0.13599189 0.59657633 -0.66532195 -0.09696834 -0.19149296 0.04095663 0.0127493795 0.62481 0.38902846 -0.46057215 -0.04203829 0.7517582 -0.16782203 -0.24362503 -0.1614571 -0.13868684 0.16789974 0.095508985 0.70307654 -0.23120745 0.69463545
183 0.009812017 0.75708795 -0.55432135 0.0030782602 -0.72190046 -0.5451713 0.01655021 -0.41697896 0.30648047 0.35825944 0.21983847 -0.055260655 -0.44232282 0.6992219 0.020539422 -0.50431 -0.18418618 0.37804273 -0.39617118 0.4716491 0.15269314 0.47229126 -0.5241421 -0.02295794 0.5151658 0.38259926 -0.2843815 0.18805648 -0.45898744 0.48758125 0.17791758 0.10671148 0.08769545 0.5857796 -0.86394817 -0.20278607 0.6087999 0.2742155 0.57129395 -0.597779 0.047272976 -0.42624477 0.3358913 -0.5704728 0.092166886 -0.16270313 0.29341087 -0.8073383 0.021732839 0.07965653 0.2566702 -0.32460174 -0.023937397 0.11960078 -0.18259963 -0.0054772794 0.46658164 0.03081261 -0.9298147 0.3494703 0.118254066 0.17235973 0.37216812 -0.20956165 0.16775979 -0.7668065 -0.30927664 0.11087185 -0.8848309 0.5281515 -0.08379955 -0.84129226 -0.37947944 0.38167632 0.13358676 0.28230608 -0.41546822 0.04375141 0.0072973045 -0.19109859 -0.3748654 -0.021393074 0.39420134 -0.0046597463 -0.40862432 0.12024723 0.23592111 0.1389846 -0.212927 -0.04761553 0.2325895 -0.341725 0.28358752 0.056476437 -0.22126879 0.18964997 0.09891497 0.43508846 0.14197864 0.5698917 0.02342089 0.3853657 -0.2493942 0.0005348731 1.1506524 -0.95455676 0.2384018 0.6458679 -0.82115537 0.22962654 -0.18042813 -0.23053841 0.34505618 0.26849645 -0.025948128 -0.09236224 -0.063046336 0.3251063 0.5524959 -1.1082734 -0.29426607 0.93045384 0.039492283 -0.025306812 0.82547516 0.44853413 -0.004183123 0.42533287
284 -0.79441863 -0.6864582 0.41059497 -0.037236653 -0.34732753 -0.5107371 0.3383058 -1.1214514 -0.054282505 0.5112418 -0.60546947 0.29183766 0.16442099 -0.24583927 1.0586593 0.3690008 -0.5260363 -0.45276743 -0.007961106 0.09252772 0.10070508 -0.2309524 0.38498875 0.25633428 0.25988495 -0.41893262 0.2546009 -0.50042516 -0.2718046 0.105282985 -0.113568984 -0.7509152 0.32583264 0.21541314 -0.09465414 -0.6406396 -0.2862381 0.7354599 0.52715033 -0.27982047 -0.09601468 0.5171377 -0.63735193 -0.0920739 -0.08865493 0.12434223 -0.19923498 0.54248565 0.18675847 0.3780702 -0.8009134 -0.07000211 0.4492077 -0.46138427 0.2694614 0.2731113 -0.41770902 0.51388615 0.1260306 -0.0047601666 -0.2277848 0.4460882 0.18956017 0.4723001 0.002711627 0.2822722 -0.256569 -0.514193 0.06435789 -0.4604653 0.28385755 0.5805579 -0.44387528 0.7522172 0.29004923 -0.0012431054 0.6880443 0.16966143 0.0376948 -0.61672693 0.08127738 -0.4939632 0.09951405 -0.12105831 -0.005503216 0.08682844 0.373739 -0.2550892 0.28485048 0.16146529 0.24305096 0.31970727 -0.10066104 -0.4450552 0.08140907 0.041694064 -0.524957 0.1761668 -0.5148079 0.19953163 -0.100751385 0.13454989 0.778213 -0.041198887 -0.012805919 0.25936887 -0.5690729 -1.0642036 -0.027022129 0.120023094 0.22201474 0.37835997 -0.1990152 0.2606752 -0.017528899 0.15692002 0.2941616 0.1997265 0.15663278 0.08201032 -0.11169114 -0.9316196 -0.59912485 -0.3209699 -0.38406616 0.15973936 0.011633973 0.47778958
197 0.040436797 0.8210228 -0.73729 0.14471118 -0.73585373 -0.368188 0.10779765 -0.35984546 0.3109436 0.12060847 0.35247946 -0.1438575 -0.40729657 0.8647112 0.03192559 -0.463029 -0.21286988 0.36057132 -0.32106623 -0.015408395 -0.06542935 0.3591 -0.6339782 -0.29714718 0.57923704 0.6481929 -0.57658887 0.22677784 -0.2743862 0.2416254 0.04444454 0.18534666 -0.25160074 0.3630316 -0.86522543 0.2855126 0.4022752 0.13860132 0.2507902 -0.62202024 0.08590236 -0.48579 0.39780265 -0.60691905 0.109053776 -0.2917503 0.15973535 -1.1529945 0.14757404 0.17987978 0.2372978 0.050610047 -0.07019716 0.069259174 -0.057384588 0.022815157 0.52597374 -0.19576211 -0.8813761 0.08502191 0.2942863 0.28615475 0.44940925 -0.31517732 0.23954889 -0.6866237 -0.49106708 0.13262284 -0.82737803 0.32110316 -0.054400414 -0.7442003 -0.6000155 0.6370223 -0.063653365 0.53203964 -0.40788653 0.21754386 0.14370108 -0.25042257 -0.13983728 0.033523105 0.47231954 0.081108145 -0.40312248 0.1807821 0.24434716 0.18737844 -0.3785152 -0.085379735 0.21467693 -0.7361793 0.26732805 0.17209825 -0.04450169 0.11947704 0.22452825 0.60513 0.36439675 0.917632 0.013856378 0.5693955 -0.3396772 0.18491131 0.6766426 -1.1643844 0.2693617 0.80588686 -0.8796745 0.45256683 -0.19119726 -0.41904208 0.22343096 0.31499597 0.14215384 -0.3434191 0.22539826 0.20496252 0.72685647 -1.3330444 -0.2259007 0.9756867 0.05752796 -0.093719244 0.57252127 0.18815719 -0.012324994 0.4581725
92 -0.03702765 -0.51444566 0.30696857 -0.44294038 0.009652445 0.12143697 -0.0017905924 -0.74191815 0.4227943 0.16849865 -0.16888672 -0.38066995 0.24817315 -0.2819209 0.047568467 0.061756197 0.17978995 -0.37691185 0.046578966 0.38515085 -0.38520426 -0.3539757 0.40532035 -0.028761758 0.4872534 -0.41652817 -0.070595585 -0.93923783 -0.7551623 0.33148512 0.090025246 -0.5168697 0.52161294 0.37191507 0.13650395 -0.1942655 -0.17605251 0.37259978 0.13364351 -0.6261896 0.30940923 0.524702 -0.7175828 0.24872732 -0.02602316 0.14335026 0.010374794 0.048061196 -0.282864 0.6886493 -0.43574014 -0.02462314 -0.046102367 0.020346632 -0.32100978 0.62786067 -0.4336606 0.66132563 0.44640547 -0.62181735 0.053321727 0.49461344 0.14772104 0.42311838 -0.2386823 0.24322517 0.2771559 -0.1538087 -0.1672316 -0.6791673 0.40643665 0.49666148 0.062777944 0.004422102 0.11560508 0.23143008 0.08377623 -0.83653176 -0.15240006 -0.006548105 0.25228408 0.56956506 -0.24561232 0.23878591 0.49112627 0.20227928 0.27378416 -0.20277795 0.5438886 0.26965457 0.92821026 -0.32659775 -0.32975036 -0.73247147 -0.110516675 -0.4858581 -0.029484257 0.09676721 -0.008432282 -0.09152249 0.49719852 -0.40748 0.78763527 -0.106072426 -0.2682764 0.13448118 0.081646994 -0.23742732 0.53113854 -0.71330434 0.19491136 -0.028217161 0.15550673 0.10015088 0.47231427 0.03308402 -0.39276165 0.044423692 0.48913735 -0.24802178 -0.39862302 -0.2162744 -0.2981484 0.19791646 -0.0014288883 0.8043777 -0.13740249 0.74456346
321 -0.70276946 -0.82390696 0.19441654 -0.31440753 0.00848816 0.068945505 0.49080622 -0.7116724 0.11182361 0.251067 -0.38403547 0.14282884 0.37754303 0.28231063 0.9623175 0.13420871 -0.31401917 -0.47562465 0.20481826 0.039783444 -0.4244703 0.05293521 -0.001131543 0.05288554 -0.011285076 -0.06415744 0.7656781 -0.4174768 -0.22642829 0.28629532 0.45670152 -0.832691 0.54513663 0.21518338 0.027937459 -0.1308506 -0.29742783 0.57915 0.45535713 -0.48440343 -0.40690532 0.5168082 -0.73918337 0.090455644 -0.041726597 0.2041483 -0.083018914 0.19952828 -0.29473147 0.91858464 -0.26396173 0.05980569 0.21110953 0.13485937 -0.3198977 -0.13309202 -0.1840905 0.7299807 0.21425104 -0.010588496 0.50075895 0.46777076 0.10921929 0.41609514 0.20772322 0.18867795 -0.15441532 -0.6545728 -0.2834484 -1.1148915 0.84535545 0.367119 -0.21490727 0.37424105 0.0055391756 -0.37604752 0.51083595 -0.48563707 0.2253788 -0.5802629 -0.050505172 -0.04895011 -0.06457808 0.5113952 -0.017643197 0.5883394 0.43057033 -0.20413604 0.10876685 0.13368562 0.49124235 0.6769813 0.08044361 -0.59285563 0.011530218 -0.26690805 -0.62637347 0.38403937 -0.088929616 0.17464662 0.111048944 0.2972059 0.4523509 -0.35138115 0.13587697 0.24388914 -0.506473 -0.83780724 0.3893119 -0.47279507 0.013594519 0.17785244 0.03132406 0.02844522 -0.17727257 -0.11010653 0.48478407 0.25929847 -0.1319747 0.08825752 0.026134696 -0.38701266 -0.44627407 0.07269359 0.092972614 0.1515675 -0.02923762 0.19394436
212 -0.2731382 -0.11306854 0.3410964 -0.1747074 -0.0687531 0.14160043 -0.052327834 -1.0214785 0.29793623 0.28581327 -0.40355954 0.12847668 0.27136892 -0.16147837 0.30654567 0.17598763 0.050052214 -0.60505074 0.15573159 0.09695034 -0.29272658 -0.24590774 0.16223153 -0.07840155 0.20098658 -0.559416 -0.11906027 -0.61043847 -0.6608674 0.15922256 0.09510868 -0.5912516 0.18310493 0.3226898 0.19852422 -0.159224 -0.13867949 0.4596099 0.26181173 -0.30243355 0.38071412 0.6961219 -0.4410816 -0.07131049 -0.045348022 0.1268558 -0.29461524 0.15148981 0.00033788572 0.496425 -0.50623643 -0.069577165 0.4913313 -0.13246456 -0.20870471 0.5287336 -0.26099876 0.57665044 0.14756174 -0.43748122 -0.16019677 0.5755322 0.16691893 0.45151004 -0.19155836 0.2514312 0.5176615 -0.11389554 -0.15693215 -0.45623824 0.25870976 0.5197885 -0.08947481 0.2520482 -0.14252494 -0.31410313 0.009143559 -0.5770966 -0.17235878 -0.18991627 0.08598602 0.31764084 -0.10563779 0.03808268 0.32421222 0.16397193 0.028718133 -0.23013398 0.32993853 0.12164908 0.65553343 -0.06784206 -0.16008358 -0.5393654 -0.28448176 -0.013463604 -0.051689085 0.015502138 -0.2638388 -0.16740397 0.20653597 -0.07911922 0.46371934 0.10480624 -0.3938883 0.1621492 -0.04675375 -0.32263362 0.3113029 -0.31444645 0.27298373 0.37576362 0.016992565 0.027876832 0.23396559 -0.011847958 -0.05072865 0.17354383 0.33103567 -0.19864501 -0.33012655 0.052422244 -0.5105971 0.07399208 -0.35629994 0.4846172 -0.012684994 0.3882377
305 -0.45241877 -0.3685508 -0.08679072 -0.23496859 -0.018198349 -0.18112671 -0.032193743 -0.77188253 0.17992139 0.21754831 -0.279311 0.22337018 0.37516794 -0.052904807 0.3557472 0.18438107 -0.45544732 -0.24385932 -0.11067605 0.19359133 -0.37077376 -0.23817329 0.27221435 0.004161599 0.31209984 -0.16104582 0.019027859 -0.613435 -0.44879124 0.0011208239 0.13105522 -0.49069288 0.2251276 0.13514754 -0.033676323 -0.1886508 -0.21142384 0.6792844 0.03731439 -0.14335129 0.36655536 0.50803185 -0.60345227 -0.20991188 -0.21339758 -0.033618003 0.0019899537 0.20664144 -0.29207155 0.48017555 -0.681035 -0.22796175 0.17903912 -0.17031132 -0.0059179626 0.37047172 -0.15806155 0.67879945 0.18740869 -0.2290784 -0.17636792 0.11866328 0.28725255 0.042172875 -0.39900678 0.06533503 0.2342487 -0.2470035 0.15730181 -0.27286854 0.30712816 0.31351984 -0.4574427 0.012692792 0.42585978 0.12847604 0.32315406 -0.23768269 -0.17284507 -0.3332184 0.10586021 -0.29039493 0.29574716 -0.15271538 0.021673977 0.02623003 0.46429342 -0.1653169 0.49421978 -0.08988004 0.3843208 -0.058599576 -0.10205597 -0.5128078 -0.127807 -0.19797416 -0.15049902 0.034659453 -0.33113885 0.0991337 0.077937864 -0.18798502 0.58508605 0.18301865 -0.17252752 0.12861502 -0.19590192 -0.6139396 -0.08842053 -0.36708045 0.04216729 0.11320598 -0.27124768 0.012537251 0.23686932 -0.09253621 -0.0030480796 0.22613719 0.20560686 -0.12283137 -0.24351875 -0.4429862 -0.3527912 -0.1601279 -0.29915887 0.44826162 0.047766786 0.3842867
202 -0.26175514 -0.04191912 0.59086305 -0.051854335 -0.21967356 0.05754813 -0.025555547 -1.0060614 0.1820957 0.3485658 -0.39259198 0.019822136 0.03504238 -0.26821974 0.3538915 0.13928208 0.123929545 -0.44766033 0.34046182 0.15950347 0.026579652 -0.31466284 0.21340582 0.04317564 -0.0042478796 -0.7726663 -0.155646 -0.48290697 -0.68341815 0.1291197 0.11818462 -0.5428887 0.29259276 0.5658736 0.08902756 -0.44939944 0.027068095 0.34943616 0.48622993 -0.37953573 0.27322292 0.59604126 -0.48479867 0.13657457 -0.02510856 0.2345514 -0.32176825 0.3648117 0.26915717 0.27083835 -0.49366185 -0.018474085 0.44000158 -0.3412055 -0.2160783 0.486778 -0.42137927 0.5238549 0.001569803 -0.4125784 -0.2829901 0.7872176 0.0033900354 0.6939992 -0.17445296 0.4346144 0.3638927 -0.06218321 -0.27625096 -0.28390896 0.18296485 0.6583919 0.00901595 0.25021738 -0.2700842 -0.43822092 0.1482577 -0.6791815 -0.22329435 -0.052246798 0.13148467 0.45794925 -0.36646298 0.016847033 0.31063008 0.023555242 -0.12245689 -0.18938152 0.3616021 0.22256036 0.7015357 0.018563207 -0.30593377 -0.36844212 -0.2920344 0.081998244 -0.13568814 0.043802798 -0.3202905 -0.11798174 0.1252418 -0.19402245 0.6231249 -0.014141697 -0.24044323 0.08125845 0.0127111515 -0.4105915 0.4152844 -0.37227693 0.32083368 0.38007244 0.21732141 0.080297895 0.14606221 0.25865692 -0.15343471 0.10774816 0.37370875 0.0417462 -0.29216003 -0.070116565 -0.44676858 0.036146816 -0.20958222 0.5478782 -0.22023514 0.31136885
297 0.049635008 -0.08723026 0.07176554 0.0072926953 -0.27812606 0.57921195 -0.56938976 -0.26032507 0.059711684 0.43093187 0.07910065 -0.0028978623 0.5646626 -0.015103082 0.7239981 0.33341318 -0.4313545 0.5495441 0.20414537 -0.2542879 -0.19830187 -0.30593297 -0.2681339 -0.46690705 0.46189854 0.8595834 -0.2453563 -0.43069702 0.3083757 -0.0041899825 -0.08713481 0.32953247 0.47147146 0.5048598 0.68750674 -0.40804437 -0.5980687 0.25328526 -0.3954314 -0.33563936 0.2343122 0.13982874 -0.2313025 -0.2966234 0.15462352 -0.5148633 -0.47952533 0.46438012 0.08175784 -0.55818325 0.0017370157 0.32542527 0.5967971 0.5489346 -0.45118853 0.7707479 0.48471403 0.5685212 0.16544501 -0.050251435 0.13299273 -0.24188519 0.63022864 -0.48567834 -0.41925308 0.020804692 0.40188462 -0.09505163 0.7919182 0.32483616 -0.5112127 0.100696 -0.9017465 0.81353766 -0.12738578 0.65172225 0.5000817 1.0439714 -0.22212131 -0.0025843622 -0.32148606 0.7161962 0.32239532 -0.9217495 0.23408787 -0.20060672 0.28801003 -0.20982382 0.68511033 -0.24224491 -0.048457585 -0.7460313 -0.00057660363 0.16101314 -0.28309324 0.4850873 0.20686209 -0.3740175 -0.24658974 -0.33441758 0.17828101 0.2647614 0.35466442 0.17339742 -0.3354162 -0.6778184 -0.003754575 0.029905573 -0.7005383 0.36339432 0.88157153 -0.28041148 -0.5107743 0.17173205 -0.32574588 0.10757474 0.5417406 -0.23029457 -0.5313034 -0.7513603 -0.21375464 -0.59591776 -0.4061913 -0.33503836 -0.5024435 0.22333091 0.43527165 0.48116136
189 -0.356347 0.15266423 0.28123277 0.20003855 -0.46521506 0.38960853 0.032593954 -0.69876635 -0.07735824 0.27935877 -0.2309538 0.38235405 0.4523222 0.6391377 0.26148653 0.22762313 -0.57950765 0.022831522 0.07943452 -0.43853214 0.078414746 -0.55113417 0.6154913 0.2979297 0.12333409 0.30777287 0.1460417 -0.6234499 -0.4605195 -0.39125922 0.1808126 -0.2768762 -0.23816334 -0.0522905 0.41137388 -0.02599481 -0.14187835 0.031066068 0.024246244 0.28284162 0.42130297 -0.041222483 -0.28753838 -0.4746157 -0.6408685 0.38362062 -0.14136046 0.66382843 0.13624415 -0.055963036 -0.58064544 -0.41868758 0.1828454 -0.44623366 0.4352653 0.34370834 -0.24884716 0.7740719 0.15178555 0.068913005 -0.41412765 0.37186873 0.45492375 -0.20040326 -0.4608624 -0.11370141 0.37318826 0.45061347 0.43797067 0.05665625 0.37563816 0.04296429 -0.26808423 -0.5325728 -0.16716689 -0.083369486 0.08653663 -0.5094745 -0.40036935 0.08973117 -0.119253315 0.42733306 -0.10828763 -0.53347284 0.4986677 -0.5111686 0.061367255 -0.025596114 0.70338815 -0.15636271 0.34484193 -0.57518077 -0.54633677 -0.23859799 -0.0747298 0.53067404 0.331392 -0.39523137 -0.7180399 -0.16121018 -0.036716312 -0.09256457 0.067355104 0.61642486 0.026837068 -0.118933566 -0.3218325 0.071500495 -0.0800271 -0.55461246 0.6095978 0.058966495 -0.25451246 0.20903894 0.4246391 -0.0842673 0.09079329 0.41602826 0.15807101 -0.1511448 0.41630203 -0.14272113 -0.373003 -0.6897363 -0.6975753 -0.0094666425 -0.19880927 0.2040708
45 0.589138 0.9296398 -0.84601355 0.47393388 -0.14255859 -0.1973519 0.34215263 0.07844914 0.39829472 -0.80609804 -0.16685611 -0.40786162 -0.7508297 -0.37597755 -0.8155941 0.018943695 0.9644743 1.3586588 0.23080724 0.17998204 -0.89910096 -0.77288455 -0.32745865 -0.868379 0.3405656 -0.60066986 -0.71168995 0.03768564 0.95296544 -0.05592498 -0.02161044 0.45084128 -0.582579 -0.41222316 -0.30307907 0.5447776 0.18975858 0.07354948 -0.99947745 -0.16117667 -0.22507931 0.027655698 0.41905907 0.662717 0.42542425 -0.509156 -0.0636692 -0.1801774 0.7149048 0.017144158 0.030494213 0.24842146 -0.6964041 0.09098071 -0.1483847 0.304064 0.3405533 -0.7111725 -0.18694347 -0.6288364 -0.31351694 -0.10173897 -0.3315657 -0.23160158 -0.044985738 -0.3713424 -0.215853 -0.1714673 0.012432507 0.64982885 0.08588969 0.61594266 -0.695681 0.30826774 -0.30390683 0.49963817 -0.25600857 0.11041169 -0.17239985 0.7010203 0.6063716 -0.22909953 -0.064814 0.16286764 -0.54568183 0.7132671 0.2974431 0.41441548 0.3690172 0.2299143 0.639908 -0.7561832 -0.041512225 0.4042915 -0.32550418 -0.4042753 -0.06140736 0.6263379 0.9001684 0.8350273 -0.034207564 -0.53708357 -0.14343417 0.45877314 -0.9396258 -0.8199494 0.8797816 -0.05841698 -0.462982 0.36696205 -0.81378454 -0.31216845 0.57025856 -0.24994628 0.25042567 1.1848422 -0.7341874 -0.81762165 1.2307855 0.8233213 -0.107899785 -0.19768757 0.7454739 -0.027483262 -0.42651418 0.19781248 -0.48231047 0.298048
91 0.018646702 -0.24753122 0.37757725 -0.4058581 0.0018343924 0.41284043 -0.16697758 -0.6931075 0.3274923 0.3927047 -0.038021527 -0.12832133 0.115198605 -0.29295158 0.11080276 0.0014475781 0.23498413 -0.260366 0.27188745 0.17115666 -0.29164964 -0.39125463 0.36454582 -0.08121021 0.3859101 -0.3342324 -0.112556 -0.81265956 -0.5975323 0.34456542 0.30241463 -0.48716015 0.41764396 0.64876515 0.29113057 -0.17900985 -0.052613452 0.1941506 0.24034816 -0.49922702 0.31695664 0.5277342 -0.80872035 0.3664207 0.036448702 0.26816142 0.015101646 0.02176713 -0.22133702 0.40830973 -0.38055867 0.1622325 0.06013912 -0.06266584 -0.23621674 0.7288345 -0.42534363 0.5663332 0.46451366 -0.6701074 0.13591723 0.82230544 0.08153107 0.3907784 -0.17343436 0.23220594 0.30087027 0.15812278 -0.18522286 -0.5583196 0.33258408 0.34229717 0.11489048 0.032899287 -0.22419713 -0.102143705 0.18497053 -0.7246549 -0.2420872 0.111505516 0.2042223 0.80724317 -0.31950703 -0.09763042 0.36400446 0.2393594 0.29066482 -0.26936924 0.43697575 0.28125444 0.98099554 -0.3064634 -0.48221424 -0.601244 -0.0032746345 -0.28830135 0.012469996 0.039385665 0.12441549 -0.1575927 0.5921312 -0.36947936 0.79197156 -0.03166817 -0.3046686 -0.07624136 0.18187359 -0.03881066 0.53360635 -0.5566303 0.26691204 0.11971137 0.038703438 0.06026672 0.5719067 0.12760939 -0.19656596 -0.008724138 0.41695118 -0.38951996 -0.36956248 -0.058282956 -0.36359623 0.25885755 -0.03573144 0.7604539 -0.13190953 0.5990106
218 -0.3166368 -0.32541117 1.041192 0.046483982 -0.33224 0.002536814 0.08725264 -0.95314866 -0.03111125 0.41373047 -0.622608 0.11391429 -0.11433757 -0.36129522 0.6805728 0.14498797 -0.06454813 -0.24469675 0.48827693 -0.05826609 0.2597318 -0.33949965 0.21058337 0.3099392 0.051224504 -0.8965933 -0.040924028 -0.60958874 -0.31674722 0.083204016 0.20904005 -0.48700687 0.33823082 0.497905 0.24194586 -0.46552354 -0.18448764 0.43087202 0.2894976 -0.41602582 -0.04841273 0.43565628 -0.6570887 0.10624383 -0.052043322 0.32432905 -0.4685541 0.5666984 0.46361846 0.20468456 -0.5922919 0.11274497 0.4567297 -0.38481355 -0.059421714 0.37448952 -0.47303382 0.3763207 0.5125722 -0.30518022 -0.20700143 0.84076923 -0.083585784 0.6502768 0.11236627 0.5878722 0.24912536 -0.067255214 -0.39426905 -0.3400134 0.002346019 0.4039258 0.06358136 0.2041212 -0.2806079 -0.27079594 0.3538648 -0.37684333 -0.34287387 -0.22627789 0.24752903 0.31491366 -0.474279 -0.103911325 0.19621232 0.046815623 -0.4052126 -0.16378127 0.06436523 0.13919933 0.69474053 -0.07970656 -0.5887165 -0.16005118 -0.15694945 0.23804538 -0.26515457 -0.023027949 -0.23974921 -0.019726207 0.01906101 -0.29431573 0.83664024 0.14445513 -0.44366926 0.075740255 -0.04300799 -0.6016355 0.48944712 -0.17861088 0.38677803 0.10276637 0.11965947 0.14467187 0.2050185 0.55802405 0.07551711 0.0826039 0.5510071 0.2505275 0.037821565 -0.40872383 -0.49060854 -0.1552529 -0.24747407 0.29169276 -0.18746787 0.29168805
288 -0.011791307 0.096549466 0.056175116 -0.1841743 -0.14432916 0.62924784 -0.9646984 -0.3253504 0.04205128 0.69814825 0.1750524 0.35436505 0.49987423 -0.1464314 0.8314573 0.34266385 -0.4044233 0.1180106 0.20255889 -0.21541096 0.15872055 0.056664243 -0.3562642 -0.45099726 0.35729867 0.85292834 -0.29292122 -0.28710803 0.27384564 0.34068334 -0.15485421 0.22629315 0.56008536 0.7853662 0.74387723 -0.62068504 -0.31789654 0.32721242 -0.060457334 -0.26177517 0.3334962 0.25828862 -0.34129047 -0.32708764 0.22173843 -0.5504086 -0.27802667 0.23168458 -0.14155552 -0.78466177 0.026611546 0.34235787 0.95624 0.6694926 -0.4493862 1.0430671 0.69746435 0.44533682 0.047656313 -0.067825295 0.2994936 -0.15837212 0.6741167 -0.4228193 -0.3286702 0.2048317 0.55442774 0.17498992 0.5055729 0.4291665 -0.793064 -0.08629041 -0.81154346 0.92625755 -0.011113176 0.36518598 0.6019854 1.2953514 -0.09776226 -0.020134747 -0.35628122 0.65496856 0.380888 -1.2100837 0.24227482 -0.104734346 0.44856605 -0.20541424 0.4529032 -0.31713265 -0.15430816 -0.29860225 0.13749897 0.06543397 -0.25795394 0.6660281 0.2706483 -0.50817794 -0.53043824 -0.55764043 0.21483831 0.546067 0.35702175 0.20862095 -0.11478214 -0.6045722 -0.1324706 0.016948245 -0.8716597 0.53820705 1.1227409 -0.06325664 -0.55693287 0.12381382 -0.50568414 -0.022461902 0.7520769 -0.21843317 -0.8492817 -1.0427295 -0.5545447 -0.3351781 -0.72065127 0.010491478 -0.2464177 0.36105722 0.7433647 0.25619596
