198 128
59 0.08927086 -0.04581463 -0.30569246 0.1674474 0.05948528 0.023640484 -0.12860216 0.11755236 -0.07267092 0.07839081 -0.19010082 0.06510239 0.37179825 0.26408854 -0.04230871 -0.046252385 0.33611724 0.18085624 0.098506235 0.24489541 0.07559192 -0.033453666 0.0381761 -0.11056341 0.028075233 -0.24417473 0.23992726 -0.05696225 0.0011319028 0.13822065 -0.12947617 0.17429624 0.05526641 -0.099036165 -0.09561664 0.21146913 0.026756216 -0.1995484 -0.22766939 0.20653136 0.07512415 -0.32787758 0.14620075 -0.42624623 0.40801772 0.18861091 -0.09850344 -0.2085843 0.42119038 -0.17948891 0.3797481 -0.60840034 -0.24694489 0.29129001 0.16511968 -0.119683236 -0.22702597 0.1424952 -0.24390142 0.15572251 -0.055677924 -0.44841698 0.42402342 -0.11452456 -0.29896766 0.12586094 -0.04859899 -0.34575778 0.43914342 -0.10450186 -0.15871808 0.38595802 -0.9000306 0.19495514 -0.041283906 -0.036429778 0.18317313 0.09935508 0.17176127 0.13880466 -0.32233074 -0.06321323 -0.5721504 0.16025619 -0.12677427 0.00378064 -0.28499842 0.36160365 0.5084334 -0.53442436 0.044696357 0.13828374 -0.16403595 -0.0040346575 -0.17407146 0.25634032 -0.050101828 0.5869685 0.25947824 -0.04398336 0.17008765 -0.13987088 -0.41193306 -0.19318764 -0.055094313 0.026963511 -0.23252124 -0.07566312 -0.12563565 -0.25924432 0.049449608 0.26205522 0.49887988 0.2377154 0.037795495 -0.17267075 0.011409177 -0.25102174 -0.034804173 0.33436146 0.11407445 0.06734159 -0.0531795 0.11822373 -0.101804204 -0.27860683 0.041290294 0.37227127
135 0.055247385 0.1695807 0.25617483 0.20460728 -0.58396864 0.023714676 -0.3421659 0.27391133 0.16973788 -0.36133108 0.15434866 -0.16100052 -0.02962245 0.27229995 0.07140959 -0.1558198 0.012127133 0.0573971 -0.149923 0.004405255 -0.03187665 -0.15857756 0.3692711 -0.2891727 -0.1932818 -0.006067986 0.11391279 -0.22642396 -0.018640192 0.33446655 0.03968384 -0.10040821 -0.26657394 0.14555328 -0.12598792 -0.10595031 -0.017901877 -0.0766704 0.14049013 0.09368976 -0.026246918 0.013258429 0.32576773 -0.033635743 -0.044678163 0.44517803 0.48524657 -0.030311823 -0.009238747 -0.121372424 -0.09272532 -0.4105575 -0.030648751 -0.14568667 -0.2919537 -0.10375359 0.241459 0.1545727 -0.06692065 -0.015251207 0.058427136 0.28056479 -0.29826093 0.09746163 0.26642936 -0.0069941906 0.027468987 0.28314713 -0.113851294 0.0062476257 0.20193806 -0.11955891 0.26948047 0.19087727 -0.10894806 0.09371002 0.038568016 -0.24156432 0.120928586 -0.2562161 0.3118497 0.28588474 0.05569152 -0.2263851 -0.3403058 0.39218077 0.26426676 -0.20256677 0.07904266 -0.27380756 0.23062275 -0.041206446 0.10178848 -0.12844744 0.036353737 0.034719575 -0.2523366 -0.3679862 -0.5082706 0.39218414 -0.1975661 0.20988551 -0.066204295 -0.09766411 -0.12661532 0.12060918 0.17941198 -0.11370721 -0.3585277 -0.03320263 -0.30380768 0.19200234 -0.22068478 0.1605941 0.13832371 0.12046938 -0.36634332 -0.14413576 0.3685766 0.25022808 -0.074552946 -0.64322656 0.10516545 -0.192909 -0.1817089 0.030666234 -0.00875772 0.22040299
131 -0.040119074 0.21396595 -0.11085552 0.39584744 -0.38261873 0.106025875 -0.12996532 0.16785821 -0.06289787 0.014444222 -0.2176005 0.018192934 0.1197957 0.3051318 -0.09012866 -0.08932076 0.38887113 0.33521405 -0.16483544 0.24429397 -0.30332592 -0.2533221 -0.063384324 -0.10252879 -0.035415232 -0.28868556 0.24354915 0.0464176 0.13579534 0.31545904 -0.16599181 0.35067543 0.06501494 0.1391939 -0.20122819 0.27073348 -0.12849799 0.04645205 -0.25801247 0.1650347 -0.07603937 -0.22979087 0.32068807 -0.5132954 0.1520757 0.54473305 0.059749678 -0.15402678 0.53868306 -0.16881572 0.31382877 -0.34942314 -0.01984838 0.16762505 0.28913656 0.05658408 -0.42226833 0.33156714 -0.06831045 -0.098576054 0.12036893 -0.16419546 0.2514083 -0.27842093 -0.1856514 0.029669972 -0.16383955 -0.27695796 0.42870903 -0.117068216 -0.060837984 0.29691005 -0.8530157 0.54664904 -0.13678561 0.35481736 0.21084812 0.21407135 0.18633927 -0.025578368 -0.29914182 0.16857338 -0.65375304 0.1912553 -0.102656566 0.22123773 -0.11729257 0.23519927 0.5262633 -0.59742826 0.13536622 0.048682496 -0.08004569 0.045023877 -0.0062606097 0.3507091 -0.046935875 0.40745518 0.09688853 0.2549792 0.13459738 0.08478571 -0.19235983 -0.29941264 -0.3054626 -0.14313059 -0.1324574 -0.084361345 -0.16245711 -0.33084422 -0.06492702 0.18118015 0.40627733 -0.077273086 0.09802666 -0.037840635 -0.021528076 -0.22885962 0.24748272 0.393467 0.077214725 -0.09140752 0.1157557 -0.025600003 -0.223 -0.636342 0.1490526 0.54967105
167 -0.33579153 0.16817309 -0.5128631 0.45392486 -0.17929618 -0.07121622 0.103776924 0.15365432 -0.081158884 0.012374198 -0.31511825 0.097181916 0.2784213 0.16918269 -0.13226318 -0.12706368 0.3331397 0.3359445 -0.23674643 0.1822894 -0.11629918 0.20325541 -0.03877436 0.23184542 0.18429564 -0.21780026 0.03460162 0.10034604 0.052789997 0.11099607 -0.12787293 0.21052694 0.21345155 -0.037224043 -0.13291112 0.28217608 0.029334871 0.023737941 -0.28881896 0.38920698 0.24666798 -0.24841702 0.0419663 -0.44682774 0.32972166 0.62526196 0.08691112 -0.17301047 0.4752476 -0.64215934 0.32617068 -0.03842872 0.038280275 0.21576485 0.53813523 0.4434106 -0.7404036 -0.27628708 0.1002879 0.008911835 -0.103029676 -0.036531877 0.42636696 -0.26884383 -0.27996632 0.34544268 0.31311256 -0.2955563 0.2919679 0.07534435 -0.18106729 0.28415155 -0.874993 -0.122848034 -0.059006933 0.27053878 -0.009061095 0.40214244 -0.19529718 0.15755717 -0.25703686 0.21332963 -0.71008945 0.1145116 0.49215302 -0.24691018 0.05241556 0.17833573 0.215497 -0.29891676 0.18919098 -0.37089163 -0.18323374 0.11269738 -0.058155425 0.47341365 -0.3847088 0.11212743 -0.09537226 -0.06392309 0.30175537 0.06375013 0.0705455 -0.6871751 0.2659155 0.21361805 -0.22466935 0.0719845 0.019767763 -0.28235286 0.3022056 -0.20958628 0.73800665 -0.3000178 0.15074325 -0.32348123 -0.1634524 0.024247954 0.16836052 0.24583173 0.25492516 0.12001416 0.24205385 0.4315686 0.002340189 -0.7912988 0.35161713 0.32718313
98 -0.3688767 0.2786309 0.07797508 0.71360743 -0.72839063 0.04533826 -0.11689265 0.20220318 0.069926515 0.1115478 -0.20718463 0.021885179 0.00965832 0.23125201 -0.119682305 -0.23820904 0.46784 0.6630335 -0.3116105 0.179016 -0.7120493 -0.20621967 -0.19939822 -0.009419005 -0.09973915 -0.21097445 0.25715858 0.0908147 0.22848 0.31563202 -0.14471303 0.50376 -0.08924737 0.5252403 -0.43344805 0.40084574 -0.104581386 0.38166192 -0.24684577 0.17599009 -0.22369659 0.07299218 0.40260845 -0.41679665 -0.083295874 0.6691747 0.2820801 -0.15366504 0.46696907 -0.292798 0.14774708 0.094967425 0.3005835 0.06989622 0.4699688 0.31824172 -0.7075662 0.3206912 0.048865493 -0.22840843 0.19633225 0.109416 0.117618926 -0.34869155 -0.28373253 -0.060697418 -0.17066303 0.016091356 0.4585576 -0.18798546 0.1495807 0.1428789 -0.671357 0.64137554 -0.12556003 0.52442425 0.24368101 0.5223427 0.17014073 -0.054848533 -0.120108254 0.39236698 -0.61951405 0.1825212 -0.24843924 0.17885129 0.17214632 0.2186821 0.24480993 -0.66702175 0.20744732 0.13570875 0.0997926 0.001156487 0.20909294 0.4359372 0.05085732 0.33103007 -0.051993582 0.39970025 0.07350347 0.2606795 0.070911095 -0.34889257 -0.44801074 -0.46483952 -0.038073864 -0.11474241 -0.26519275 -0.36369187 -0.078243814 0.058257435 0.37546813 -0.5756499 0.12680295 0.07395488 -0.06572254 -0.08469945 0.39713982 0.4463923 -0.11795383 -0.032453693 0.06489011 0.07663777 -0.22462703 -0.8417927 0.23705597 0.50199825
69 0.42257395 0.08951811 -0.061879955 0.14401513 0.039812367 0.18300988 -0.20258367 0.3127666 -0.15739827 -0.17028768 0.098031394 0.0016124373 0.6425575 0.1738032 0.13239165 0.11805257 0.09991325 -0.5807787 0.38809192 -0.19915965 0.58501303 -0.17160863 0.34170902 -0.20119175 -0.09104071 0.04118418 0.12223476 -0.38335317 -0.32841098 0.4137524 0.0630784 -0.16017962 0.052273307 -0.29743803 -0.20331848 -0.23312938 0.2210186 -0.53254056 0.2581331 -0.05355277 0.16154067 -0.5508803 0.23842917 -0.46333802 0.20144413 0.37516525 0.0636185 -0.14637533 0.3895469 -0.2723834 -0.06540393 -0.6521554 -0.2014628 -0.13290639 -0.059620973 -0.6457515 0.10985782 0.20053887 -0.3250591 0.13567723 0.05430176 -0.20673466 0.021565596 0.25764844 0.34612995 0.52740425 -0.12280585 -0.07749218 -0.010010608 0.33801413 -0.26492944 0.28670818 -0.18007948 0.028488697 -0.1212914 -0.13166566 -0.0065662893 -0.56478816 0.29784897 -0.057488948 -0.023132524 0.12862332 -0.30575028 -0.19888653 -0.346573 0.14964865 -0.2025955 -0.16425005 0.12700689 -0.37286863 0.07184328 -0.23668222 0.06102064 0.3058133 -0.3165235 0.30065557 -0.21298802 -0.10677728 -0.2782732 -0.032717947 0.05230728 0.12579225 -0.59505886 0.2037769 0.109332345 0.39522862 0.02570289 -0.13055278 -0.23502572 0.089884154 0.12973619 -0.050615765 0.33048993 0.542071 -0.0008781041 -0.0047541074 -0.19686429 -0.47201556 -0.11681404 0.082433864 0.52516705 -0.32348058 0.08674269 -0.28194627 -0.49629238 0.0451083 -0.5192122 0.18143591
107 -0.097103685 0.20364058 -0.22478941 0.5817703 -0.34944174 0.043606784 0.0074036126 0.24025947 -0.14547896 0.13805948 -0.23138468 0.093146846 0.21043654 0.29596573 -0.09986098 -0.10891419 0.34734446 0.36279866 -0.07566661 0.08318527 -0.34386453 -0.15500769 -0.23875932 0.04922219 0.07043213 -0.211533 0.29788336 0.14051576 0.13923267 0.27056545 -0.10404966 0.4543171 0.22389181 0.1209761 -0.33126646 0.27669773 -0.008640114 0.21185347 -0.25287467 0.17039901 -0.057073146 -0.13260196 0.2432727 -0.6374696 0.11854569 0.45566773 0.05314622 -0.10609184 0.61737025 -0.26315275 0.22211474 -0.048887126 0.2048036 0.13564298 0.5654282 0.18397063 -0.6678843 0.17991808 0.018159028 -0.15057632 0.09706241 -0.19667335 0.2911499 -0.30389664 -0.18896179 0.18008433 -0.1522088 -0.2608559 0.46834952 -0.036815383 -0.12757395 0.3574621 -0.8488665 0.4646913 -0.109448366 0.4327504 0.13886453 0.36823043 0.04431044 0.050244033 -0.38050053 0.16881311 -0.76217765 0.32216856 -0.028093461 -0.09893283 -0.12401263 0.27648354 0.4093577 -0.54675436 0.04662168 -0.16433802 0.03940931 0.1994431 0.020441333 0.4116706 0.045449957 0.47085372 0.04873443 0.09320241 0.32073715 0.20592694 -0.118060574 -0.1956672 -0.22645438 -0.19619606 -0.031510517 -0.040959194 -0.08167181 -0.3376265 0.16488384 -0.080298 0.6656824 -0.3584424 0.105674356 0.007288481 -0.05744854 -0.19608314 0.18573496 0.3493904 0.15573104 0.216471 0.07706865 0.08831606 -0.15116584 -0.8901961 0.025697116 0.46892175
157 0.2480596 0.00012224424 0.07135115 -0.08999467 0.23939033 -0.06535699 -0.25401685 0.26617196 -0.25370625 -0.045344688 0.18212117 0.009276092 0.68204564 0.15855676 -0.26595038 0.0030713489 0.39788043 -0.43658325 0.580805 0.27298844 0.51896715 0.085294455 0.15443024 -0.3463775 -0.26930737 -0.06835416 0.5001036 -0.58479637 0.0024969461 0.30525622 0.16241291 0.09635005 -0.18696596 -0.41830954 -0.13814038 -0.13219835 0.19217746 -0.43781444 0.26239705 0.51084256 0.010309097 -0.5038611 -0.12773648 -0.18719451 0.5983254 -0.080541305 0.3878707 -0.09026295 0.27246818 -0.061892338 0.16171259 -0.5574931 -0.23649225 0.36764038 0.055986952 -0.3036576 0.085756116 0.06032139 -0.5923134 0.44698682 -0.20674601 -0.45145467 0.10357865 0.12075961 -0.10347505 0.17022899 -0.12105423 -0.042605694 0.07698231 0.24481867 -0.23898855 0.54465 -0.4257819 0.1831553 -0.17184733 -0.24083544 0.36104193 -0.3806917 0.43524522 -0.04728708 -0.07185153 0.08736369 -0.19875239 0.030499768 -0.45789832 0.33214596 -0.20149265 0.122142404 0.0013693203 -0.56765467 -0.07366233 0.18523274 -0.23898536 0.2993851 -0.17556576 0.111531295 -0.3686476 0.006447192 0.113514565 0.007831569 0.044681363 -0.10641445 -0.4004441 0.06999602 -0.12097905 0.15220398 0.3830567 -0.26261866 -0.19236676 -0.09958581 0.10120462 0.29122204 0.11720825 0.44977024 0.14945692 -0.18295115 -0.14091156 -0.48174942 -0.029927732 0.060751088 -0.11092982 -0.38793778 -0.047787346 -0.11959617 -0.2009241 0.33175018 -0.015564202 0.21422134
130 -0.19504502 0.010918422 -0.06630397 0.34469053 -0.1672577 0.015445631 -0.08830712 -0.08883367 0.00024893458 0.2130645 -0.19316888 0.09602096 -0.012017121 0.16164395 -0.16431257 -0.09368704 0.4156968 0.71015924 -0.12631747 0.3132016 -0.43240994 -0.08886552 -0.2089925 -0.087157615 0.019859103 -0.2604977 0.2636634 0.13056241 0.22364406 0.08352752 -0.21846615 0.3864563 -0.035897043 0.38477948 -0.15446277 0.4437918 -0.11146059 0.3463604 -0.3140573 0.07463046 -0.15819578 0.037173517 0.19185106 -0.21361732 0.03672916 0.14228824 -0.071553536 -0.13783833 0.25338227 0.09513097 0.31912744 -0.1501604 0.050931085 0.27840242 0.2506056 0.18620646 -0.37839165 0.28084418 -0.18545939 -0.01715177 0.05573867 -0.25508523 0.31980482 -0.30048895 -0.39843374 -0.27357957 -0.15448862 -0.11947148 0.56561255 -0.41484877 0.09688126 0.16360775 -0.72938716 0.49432433 -0.06623712 0.2696994 0.28585652 0.3342121 0.18620014 0.12190818 -0.3468473 0.03930987 -0.39480415 0.4083743 -0.18971275 -0.05343524 -0.17553075 0.52531964 0.37618804 -0.55568594 -0.0150501905 0.3136196 -0.042448796 -0.1525052 0.07930716 0.09299251 0.3389376 0.7479396 0.34495303 0.109439574 0.1534889 0.06984453 -0.06480795 -0.049833246 -0.4534953 -0.6048613 -0.16624108 -0.045324814 -0.14515021 -0.34990615 -0.09706392 0.20681651 0.33410445 -0.20462708 0.027767548 0.08307212 0.12414416 -0.067538686 0.22944666 0.35613993 -0.16404113 0.33969602 -0.12075621 0.07656828 -0.016384738 -0.47001746 0.1514878 0.35809788
6 0.540665 0.039370418 -0.29318044 -0.06399227 0.39680514 0.078532 -0.1830147 0.3199423 -0.3588508 -0.066468276 0.07168284 0.15231088 0.82046497 0.30487815 -0.13592614 0.10717357 0.27436557 -0.60804886 0.638906 0.08127908 0.75531423 0.0658741 0.16891724 -0.27605963 -0.0770626 -0.048614584 0.39511117 -0.4188487 -0.10831235 0.27769387 0.1385713 0.012967113 0.15998249 -0.6759052 -0.06973044 -0.21970122 0.2675358 -0.5760637 0.15510088 0.36575964 0.14396176 -0.6913998 -0.1484095 -0.49876577 0.65710384 -0.0057073855 0.17127167 -0.14537583 0.46294436 -0.19503622 0.18163909 -0.757351 -0.297261 0.40257156 0.24788436 -0.42988694 -0.010862874 -0.08107892 -0.58115613 0.34356308 -0.20909603 -0.699773 0.28257915 0.092290826 0.0067364303 0.5039597 -0.12011283 -0.37301543 0.24703601 0.34642535 -0.46919045 0.6591689 -0.64004165 0.032319136 -0.07457437 -0.22803444 0.14466773 -0.4096966 0.22667366 0.10797686 -0.31015256 -0.052270204 -0.52543557 0.06653351 -0.23545213 0.049026314 -0.43085837 0.21870784 0.29735848 -0.459281 -0.17480527 -0.08952037 -0.19550642 0.44945562 -0.37384412 0.24664025 -0.3074015 0.26620758 0.10854457 -0.2641654 0.27908185 -0.1318431 -0.61309206 0.18472391 0.14037326 0.47905523 0.23172072 -0.16197282 -0.042077564 -0.13359995 0.24665031 0.071926616 0.5166619 0.5575462 0.012050444 -0.18797547 -0.16119017 -0.6345035 -0.24484532 0.0827509 0.31373322 -0.109370366 -0.047349293 -0.10554373 -0.17931055 0.06778309 -0.26656047 0.21214235
82 0.0023717356 0.11402319 0.26791626 -0.05228371 0.11275497 0.0053222575 -0.15264189 0.24206015 -0.15435019 0.048556417 0.26391283 0.09824259 0.5431955 0.0946639 -0.35318294 -0.06642236 0.2845677 -0.5895589 0.56825405 0.24588697 0.25026336 -0.11722069 -0.09027435 -0.34735665 -0.2691891 0.031772476 0.40159756 -0.36379856 0.0986149 0.29882845 0.20060278 0.32576004 -0.13478483 -0.25287428 -0.22765075 -0.11478011 -0.011496513 -0.2376712 0.25332022 0.40546152 -0.06464641 -0.19047664 -0.25134128 -0.06039216 0.29151446 -0.16398032 0.33701476 0.12953198 0.32859245 0.18970355 -0.02842582 -0.031136323 -0.07883893 0.35233974 0.30111015 -0.02446908 -0.17382152 0.06226828 -0.6167968 0.1608163 -0.15632509 -0.46209538 0.025285378 -0.16717757 -0.3636876 -0.14368513 -0.3891524 -0.20975937 0.31078726 0.13672815 -0.15874335 0.5281692 -0.4192294 0.32730561 -0.25290316 0.022197044 0.39638895 -0.19849285 0.4546867 0.06444277 -0.0052270433 0.366369 -0.058331914 0.0277722 -0.52976453 0.46108446 -0.20211412 0.15385184 -0.117590584 -0.50958234 -0.16905822 0.37760457 -0.18597904 0.43070477 -0.026716186 0.17093915 -0.13971163 0.25031635 0.23850764 0.07676105 0.16143915 -0.11783252 -0.117056966 0.038424317 -0.51476294 -0.19750465 0.4020197 -0.23317038 -0.19189587 -0.25254324 0.04001192 0.03690815 0.04518029 0.04716983 0.11706624 0.07463265 -0.09449102 -0.5795641 0.18378043 0.14083894 -0.3055744 -0.18861322 -0.12294609 -0.27382815 -0.25893554 -0.030293891 0.123339884 0.2310544
193 0.2469474 0.15472054 0.30401298 -0.12678935 0.0834381 0.13430221 -0.25390095 0.1688411 -0.116323024 0.009822326 0.29568225 0.1510733 0.37283185 0.106749706 -0.27826324 -0.0581459 0.24166988 -0.50942475 0.4477946 0.18361333 0.24549459 -0.3047906 -0.0018056447 -0.49742383 -0.31646535 0.068175524 0.3307215 -0.14591397 0.10561742 0.35336316 0.1815649 0.21527804 -0.092518955 -0.21027875 -0.03624783 -0.19658883 -0.17094666 -0.2545414 0.18897332 0.06946257 -0.09957485 -0.15070932 -0.18114613 0.006982403 0.07286519 -0.18561126 0.19583717 0.116229944 0.2346227 0.43829745 -0.0180924 -0.28469497 -0.22660178 0.29062095 0.070413716 -0.24896218 0.10780673 0.24617264 -0.61549467 0.008366717 -0.016634021 -0.5051394 -0.05260899 -0.15944771 -0.2655929 -0.27889496 -0.5945757 -0.2583676 0.4248841 -0.05833016 -0.09854406 0.40507612 -0.29266113 0.48154297 -0.22427714 0.019201675 0.26414454 -0.3111571 0.50760525 0.111132585 -0.08576003 0.27366233 0.02671876 0.013349542 -0.7466258 0.55297065 -0.33841974 0.21892844 0.20693515 -0.46937475 -0.24784392 0.59419024 -0.18689914 0.23100136 -0.12608135 0.03416405 0.106837556 0.4928767 0.30245492 0.015185065 0.09604196 -0.19163038 -0.21211335 0.34340692 -0.6844645 -0.2610794 0.30049 -0.19009708 -0.2844739 -0.25712404 -0.22484946 0.08834476 -0.040460914 0.25386214 -0.094027154 0.35082912 -0.06533457 -0.7375193 0.07560249 0.2248478 -0.23432313 -0.11672436 -0.16740867 -0.46051326 -0.23539673 0.029404856 -0.07200912 0.15284581
163 0.36912566 -0.08509418 0.11502799 0.10878146 0.3231475 -0.030291129 -0.1871359 0.29480216 -0.28050584 0.22552949 0.27733228 0.24887079 0.77564 0.29463112 -0.3167719 0.017155427 0.37303725 -0.23203708 0.814156 0.06637419 0.34934357 0.29691005 -0.13087974 -0.4363527 -0.28167918 0.034947302 0.67339325 -0.59846437 0.060195968 0.20584796 0.2908696 0.31836644 -0.08353062 -0.38441718 -0.34477133 -0.17880088 0.29844418 -0.075018436 0.31065336 0.47088224 -0.23890127 -0.3151835 -0.2353899 -0.2570875 0.45465043 -0.47145858 0.51745456 0.0030731088 0.23554547 0.08629921 -0.11834305 -0.34483916 0.19832659 0.59548765 0.40384403 -0.21512243 -0.12686077 -0.046751045 -0.7012098 0.44109356 -0.20852539 -0.76212114 0.086425975 -0.014199146 -0.23534195 0.25139743 -0.3150692 0.070732936 0.35906574 0.21583663 -0.3318319 0.6292877 -0.41190633 0.38062894 0.071707584 -0.21982002 0.49952736 -0.0388243 0.31549522 -0.03511312 -0.1986593 -0.042671867 -0.41204953 0.24177973 -0.6874548 -0.08276771 -0.16842465 0.46707135 -0.07366023 -0.6019464 -0.41148517 0.25765353 0.012132881 0.4379317 -0.059105918 0.09262391 -0.006644873 0.5109202 0.27052778 -0.10715263 0.2341611 -0.011779937 -0.39338002 0.5369951 -0.22479534 -0.17798051 0.6540086 -0.35589343 -0.10482697 -0.19192143 0.21362346 0.11831725 0.28693977 -0.01242737 -0.0052164514 -0.04221697 -0.035349637 -0.60888207 -0.21981953 0.058259327 -0.2282782 0.11024059 -0.45799273 -0.12828043 -0.04979566 0.15420128 -0.22718097 0.048010733
191 0.47273755 0.08961149 -0.082462594 0.07330189 0.13020699 0.19796287 -0.2073931 0.33315206 -0.15293749 -0.1799396 0.1398879 0.010866562 0.6846882 0.23428969 0.10102585 0.1205303 0.061609298 -0.6775932 0.42980433 -0.16073297 0.70172244 -0.19145434 0.3764355 -0.26572838 -0.0071696555 0.005508074 0.12516327 -0.39198127 -0.37741977 0.45671806 0.07571391 -0.16518806 0.120020464 -0.35296357 -0.16510221 -0.23434094 0.17546608 -0.5784042 0.24406469 -0.0498064 0.23426752 -0.5942913 0.18688142 -0.47794405 0.2529251 0.39206558 0.040085282 -0.114205435 0.44455045 -0.22046965 -0.012407291 -0.7392835 -0.2624787 -0.095043294 -0.046601415 -0.60785025 0.08346209 0.13616227 -0.4215829 0.15596455 0.024131726 -0.31642848 0.12075214 0.2127286 0.2666874 0.52093846 -0.11846872 -0.23031163 0.0783749 0.3157812 -0.35323164 0.37143406 -0.3263241 -0.015003472 -0.19030331 -0.10760883 0.015042271 -0.6582417 0.28420183 0.0103306165 -0.09331042 0.16307943 -0.3328515 -0.18320717 -0.31821513 0.15767397 -0.29347128 -0.10782538 0.22061709 -0.39531174 0.05116801 -0.27141824 0.005188373 0.33195812 -0.39033777 0.33575678 -0.20050955 0.009181371 -0.22236621 -0.11253546 0.16056997 0.10698448 -0.6011385 0.18369436 0.10346168 0.4391311 -0.007979428 -0.096340835 -0.22111773 0.049101368 0.1311808 -0.07895105 0.40240604 0.66316026 0.007910124 0.0048521566 -0.20728545 -0.55259854 -0.08273299 0.13192455 0.53960073 -0.29152462 0.06496105 -0.33689407 -0.5155074 -0.017619953 -0.49463275 0.24485815
121 -0.5758236 0.24882683 -0.3544966 0.71214515 -0.57290757 0.12947023 0.10660381 0.120662816 0.3026518 -0.066810474 -0.28873944 0.09064368 0.22968008 0.042358562 0.02456154 -0.24262255 0.17380227 0.25560954 -0.49348313 -0.009365437 -0.23912553 -0.15473518 0.064195745 0.28018963 0.1592805 -0.09740254 -0.40721348 0.31468084 -0.17628105 0.28001937 -0.18497539 0.0199054 0.06926952 0.38826036 -0.24720979 0.27340972 -0.14024441 -0.031555235 -0.29968783 0.012081401 0.34865507 -0.028814936 0.3032612 -0.3680902 -0.10471209 1.1225952 -0.030218855 -0.09220909 0.4945998 -0.71916 0.11515898 0.031924587 0.06774269 -0.28944927 0.4544304 0.41147757 -0.85150236 -0.19547339 0.14357856 -0.3365139 0.15189207 0.40964085 0.33641416 -0.31501585 -0.32679072 0.2567724 0.28822762 -0.26582646 0.38999823 -0.05323105 -0.013825314 0.07708389 -0.7386668 -0.13646768 -0.18276459 0.45055097 -0.16276404 0.36005032 -0.1178917 0.19006285 -0.015274091 0.6831177 -0.51748735 -0.2378579 0.28888577 -0.096482895 0.18877529 -0.024782395 0.19319236 -0.32329902 0.52243406 -0.20502903 -0.02009122 -0.13055684 -0.079343215 0.71039915 -0.21180505 0.04543933 -0.34330308 0.04963511 0.20580885 0.23306774 0.1326774 -0.847066 0.1445442 0.11458303 -0.5989966 0.18684463 -0.28005806 -0.23967384 0.12575223 -0.46070197 0.7015859 -0.4097452 0.026266554 -0.026258757 -0.13793676 -0.030096672 0.32771832 0.3769381 0.3493004 0.03959269 0.26881456 0.25392702 -0.29872975 -0.97714686 0.3169986 0.3024635
148 -0.077781565 -0.010958933 0.48716718 -0.2257046 -0.005614424 -0.019081905 -0.30336285 -0.14326839 0.28707862 -0.32241797 0.4939748 0.06638577 -0.14429197 -0.11862464 0.0035506592 -0.025254508 -0.28905562 -0.09417981 0.10646854 -0.108759776 0.23920788 0.23972134 0.42996275 -0.42024526 -0.08787693 0.4175753 -0.06736062 -0.35662255 0.014231336 0.10722039 0.08700757 -0.30337033 -0.38323092 0.20832348 0.11117042 -0.15146042 -0.037162855 0.12460635 0.4177702 -0.08490852 0.11273665 0.30646527 -0.22201572 0.8118608 -0.38114643 -0.20627716 0.43070546 0.134638 -0.62972236 0.39273524 -0.47883037 0.13560122 -0.06380575 0.04944492 -0.4919081 0.001310324 0.60560524 -0.09304188 -0.45516497 0.038169626 -0.24369073 0.135024 -0.39589182 0.22359687 0.22672904 -0.3449217 0.06793411 0.48763913 -0.14797917 -0.2254135 0.38211367 -0.48976237 1.0744787 -0.4351698 -0.079899594 -0.17728832 -0.159751 -0.59355044 0.07790196 0.09554253 0.5874569 0.32055396 0.8453443 -0.24551219 -0.36169618 0.07149214 0.26588425 -0.09596903 -0.60206693 0.14809957 -0.13469173 0.16948974 0.17274106 -0.0683592 0.07347234 -0.41846648 0.05510886 -0.2394025 -0.39437586 0.030382501 -0.1805262 0.18969278 0.27836996 0.41695702 -0.22454658 -0.22781 0.3231406 -0.008852579 -0.37768495 0.0046968907 -0.3001727 -0.20233433 -0.4265364 0.17604356 -0.044235814 0.44418457 -0.42182153 -0.12742972 0.5331284 0.12912335 -0.17109796 -0.19529246 -0.22477585 -0.26123646 -0.07611403 0.49484816 -0.19661139 -0.31832346
95 0.7492806 -0.15116751 0.42530146 -0.02750505 -0.08381004 0.13814892 -0.5050323 0.20180596 0.17278431 -0.37285215 0.55960083 -0.0541746 0.17001787 0.23467065 0.34463787 0.19739346 -0.3565538 -0.14644001 0.26771745 -0.5648643 0.5976893 0.09738719 0.75632405 -0.690817 -0.08236593 0.2922067 0.11157847 -0.6649105 -0.3832 0.31283972 0.22988755 -0.5296468 -0.30474368 0.10131038 -0.08996158 -0.41290066 0.27122468 -0.13777335 0.53406477 -0.41313818 -0.082577944 -0.07276243 0.4053858 0.23071441 -0.3141748 -0.10338992 0.53326946 -0.08585882 -0.4990254 0.20951545 -0.5978068 -0.87278 -0.022837227 -0.2389654 -0.8271294 -0.7682891 0.9980454 0.22108305 -0.4405234 0.19664928 0.029674936 -0.0054263407 -0.52893645 0.5947344 0.87376064 0.26177645 -0.042308334 0.6579355 -0.25657582 0.051208638 0.17507139 -0.39303404 1.1574438 -0.076665774 0.0818413 -0.3767516 -0.14471114 -0.9080497 0.15311302 -0.2502573 0.4635945 -0.091806985 0.3671531 -0.35875472 -0.68009984 -0.042327892 0.11918581 -0.16592108 -0.21626714 -0.033207957 -0.15197635 -0.32738906 0.49582833 -0.14193672 -0.10800966 -0.37959906 0.10206491 -0.22254343 -0.6491145 0.032588262 -0.20304924 0.3754581 -0.42452243 0.9749696 0.029817045 0.07862006 0.3874844 -0.19607022 -0.4707233 0.32073227 -0.33572903 -0.015177116 -0.28817797 0.6436613 -0.07232635 0.38961035 -0.5358683 -0.2959745 0.10597021 0.08449547 0.3679045 -0.3615787 -0.32647455 -0.5089089 -0.22988954 0.72153306 -0.93095183 -0.19773906
99 -0.3177083 0.20784411 0.07891917 0.5858814 -0.4708488 -0.02755213 -0.10052201 0.14057715 0.05138095 0.20918584 -0.13499992 0.118328005 -0.022183124 0.27320403 -0.21732223 -0.27317318 0.3666839 0.67199427 -0.14526293 0.2567474 -0.6792852 -0.08123435 -0.34136945 -0.078358345 -0.046679888 -0.16253202 0.36285183 0.12839165 0.30478704 0.20317148 -0.08741207 0.6270604 0.002984944 0.410295 -0.38156903 0.40070248 -0.10797822 0.52045584 -0.26547968 0.26005375 -0.2368463 0.19191769 0.1633603 -0.30833673 -0.012315116 0.2881869 0.20024969 -0.056223866 0.36379823 -0.055931948 0.1858518 0.21855012 0.29582247 0.3046328 0.57488656 0.43038982 -0.69781905 0.16674548 -0.050123286 -0.152062 0.039361622 -0.20631483 0.22751592 -0.44901514 -0.47898886 -0.18043807 -0.20265989 -0.103616804 0.602492 -0.296246 0.116412885 0.21173266 -0.70530444 0.5651125 -0.078080356 0.49082485 0.29707992 0.5461254 0.098727316 0.09021104 -0.21563107 0.28981853 -0.55931866 0.3923978 -0.27390468 -0.014538651 0.04453898 0.47624782 0.2477661 -0.61416745 -0.004590307 0.20685136 0.09002569 0.08506154 0.22757895 0.30070275 0.21928024 0.6761037 0.18539244 0.23709148 0.19316427 0.17947775 0.1285663 -0.14239122 -0.54535973 -0.5990397 0.07686273 -0.11297956 -0.15750042 -0.48928192 -0.02046771 0.017969353 0.44910035 -0.61170363 0.12431716 0.13878652 -0.06755772 -0.13410711 0.41541666 0.48099473 -0.28791314 0.24704778 -0.08578462 0.12354798 -0.03516174 -0.87342465 0.25094512 0.4444529
134 -0.7992794 0.031040996 -0.37061885 0.3164737 0.30308324 -0.19693919 0.1638064 -0.25624773 -0.0680559 0.33347747 -0.36577645 0.06269769 0.08815982 -0.09368576 -0.35070816 -0.061409257 0.39342934 0.63559145 -0.038305275 0.42996782 -0.2175823 0.337289 -0.24080148 0.43640563 0.43389663 -0.3228892 0.056084972 0.20326121 0.08618964 -0.12248144 -0.3098005 0.31309 0.25223574 0.32964587 -0.101737306 0.70992017 0.010129221 0.4830282 -0.30154204 0.24624316 0.2582818 0.09281867 -0.269219 -0.048077967 0.283196 0.14281347 -0.4232008 -0.124427654 0.25083083 -0.14772151 0.54138607 0.51910895 0.04501993 0.27920628 0.51106524 0.62967265 -0.8406537 -0.26467258 -0.11245113 0.11071584 -0.1627947 -0.09684664 0.73037076 -0.32205233 -0.63094395 -0.25912982 0.39976805 -0.33709392 0.3617675 -0.3553214 -0.10943606 0.16320147 -1.0133336 -0.28359926 -0.20501149 0.29678315 0.2968583 0.3738814 -0.09952148 0.46366188 -0.44774482 0.19005772 -0.14292124 0.5648979 0.48449686 -0.46976358 -0.17082506 0.37164834 -0.049005564 -0.37326977 0.11718511 -0.021105628 -0.3013542 0.05096294 -0.016684782 0.24372347 0.31844902 0.47782016 0.3253932 -0.26745695 0.48164484 0.1207996 0.30850402 -0.46892196 -0.10226419 -0.5719799 -0.4139491 0.257594 0.15369807 -0.2509646 0.35671562 -0.2657867 0.73649335 -0.20434235 0.15951926 -0.17742169 0.16445753 0.27541733 0.29446504 0.26641017 -0.110383116 0.7229993 0.13317966 0.484142 0.066908486 -0.718263 0.39259607 0.34699684
68 0.4156343 0.064649664 -0.11569395 0.38995573 -0.20301537 0.21348616 -0.1987627 0.35994154 -0.12005729 -0.18679959 0.015303568 -0.09098611 0.5553811 0.27375215 0.2816601 0.16333053 0.10830441 -0.24611244 0.20828262 -0.31294334 0.41062474 -0.17380087 0.42312667 -0.13747951 -0.00024717406 -0.067690484 0.10291932 -0.3669356 -0.38473633 0.4555408 -0.044375286 -0.19113444 0.08579037 -0.10995204 -0.32122073 -0.10894555 0.26116446 -0.37240395 0.202618 -0.16279367 0.13520159 -0.5271605 0.54325193 -0.6543569 0.110507786 0.60880774 0.05807667 -0.23345584 0.45321262 -0.41617984 -0.06048305 -0.7850906 -0.04585145 -0.29839778 -0.12829761 -0.6776525 0.07520077 0.34643874 -0.13646618 0.08952905 0.19206831 0.0009663618 0.010479569 0.31362727 0.55898106 0.6209774 -0.013258786 0.059135962 -0.058044765 0.3079912 -0.23162979 0.14675201 -0.19213566 0.11356245 -0.08618155 -0.043055277 -0.034308888 -0.47463852 0.21151948 -0.19911686 -0.055978056 0.04249943 -0.45797607 -0.17013949 -0.24864823 0.00040218254 -0.10416302 -0.22765511 0.24347973 -0.40793845 0.19655953 -0.47649577 0.21071972 0.16782695 -0.28623185 0.33910272 -0.15571643 -0.1869858 -0.46443456 0.10773475 0.051870275 0.3276441 -0.62701255 0.14825174 0.21277522 0.33519587 -0.07346734 -0.08605675 -0.27587834 0.1779957 0.13641521 -0.031464484 0.4185695 0.48283562 0.038381726 -0.017901555 -0.19398966 -0.3036892 -0.07886901 0.1333651 0.67789364 -0.3307207 0.12662534 -0.24673489 -0.53640664 -0.106464826 -0.6383373 0.29341814
100 -0.2866787 0.15518638 0.036239844 0.53815746 -0.34919962 0.008728032 -0.045517296 0.11049691 0.038095385 0.28902808 -0.18806763 0.12367497 -0.014005742 0.30904737 -0.17708977 -0.18043177 0.39631453 0.69723874 -0.14001343 0.27184322 -0.6927996 -0.0776181 -0.36101642 -0.058737926 0.0276154 -0.22878627 0.35868552 0.07228739 0.273494 0.16583715 -0.13456993 0.6789939 0.08851176 0.41676748 -0.3898135 0.47521573 -0.105192766 0.5221809 -0.31441525 0.21158482 -0.25011128 0.10867837 0.17246433 -0.4111198 0.025608597 0.32259333 0.08627628 -0.09794401 0.46044102 -0.08164735 0.2371979 0.14408717 0.27403033 0.3685505 0.6087836 0.39922872 -0.80014604 0.19805159 -0.06758959 -0.10080791 0.023548571 -0.3495999 0.3356334 -0.4702601 -0.5169987 -0.12519532 -0.21934764 -0.19968185 0.6883085 -0.3187756 0.027410366 0.25096178 -0.9343266 0.56663936 -0.051415443 0.4786089 0.37485072 0.5890615 0.10292854 0.111742616 -0.31086683 0.19473007 -0.7074841 0.3860947 -0.17182395 -0.05346192 0.015066121 0.5394868 0.31928435 -0.6562401 -0.05579355 0.1837196 0.06357388 0.125546 0.21097896 0.3690386 0.26923484 0.8157599 0.29513636 0.21282281 0.24420649 0.14571454 0.020469321 -0.17144316 -0.48825842 -0.61570644 -0.03615112 -0.10800651 -0.08684637 -0.49733815 -0.014731288 0.04126271 0.52407664 -0.5499123 0.09141002 0.0504319 0.023396498 -0.13953742 0.34456715 0.49287882 -0.19098245 0.30400565 -0.14291127 0.11987434 -0.08007288 -0.9301783 0.250912 0.51181877
173 -0.04764342 0.26144776 0.6778056 0.3099645 -0.6961464 -0.003475574 -0.40502164 0.48795432 0.23440413 -0.17155738 0.38424337 -0.077153854 0.13137645 0.38252226 -0.10447582 -0.35737833 0.033335447 -0.1351398 0.20092662 0.124983534 -0.33326977 -0.14386389 0.03943425 -0.47600448 -0.4583695 0.13168733 0.43961892 -0.46346873 0.16735393 0.46979234 0.27500638 0.37446505 -0.33216295 0.07954249 -0.47424698 -0.16643526 -0.042902283 0.11553387 0.3107975 0.4530023 -0.27964205 0.20830043 0.08998203 -0.10533735 0.028850975 0.19598186 0.80209374 0.18880865 0.16760157 0.028666584 -0.27860358 0.038289722 0.28447613 0.17437024 0.18322212 0.07745281 -0.12421982 0.16737938 -0.26509568 0.0026254456 -0.059528623 -0.054998577 -0.37610972 -0.13740937 -0.11531896 -0.064604424 -0.29819387 0.25771108 0.12996753 0.07187297 0.15744357 0.15425187 0.10026793 0.4847322 -0.12136443 0.18253696 0.3806901 -0.019740887 0.28548524 -0.25648367 0.44000638 0.56286544 -0.090233 -0.14677358 -0.8500647 0.5550941 0.41043663 -0.021452693 -0.16013509 -0.59535724 0.051221713 0.28477073 0.20953296 0.3161429 0.23810472 0.2391687 -0.2219308 -0.05022192 -0.28716135 0.5732629 -0.1457808 0.23293528 0.02813371 0.028702037 -0.5405921 -0.18809605 0.68114054 -0.37217143 -0.44100386 -0.34198943 -0.23043668 0.15212797 -0.16440387 -0.2696562 0.21363747 0.200591 -0.4054415 -0.45728344 0.5346389 0.42538095 -0.5579293 -0.7139416 -0.15824515 -0.2650512 -0.25952896 -0.22399859 0.15438741 0.30828965
97 -0.3581318 0.1412755 0.030584708 0.5575056 -0.37518308 0.021941703 -0.007203661 0.06955093 0.054400217 0.27334613 -0.16342172 0.12121546 0.06981297 0.19724822 -0.20105343 -0.21270187 0.3727105 0.5713881 -0.114522584 0.22539966 -0.60005957 -0.16676392 -0.35914606 -0.02541902 -0.0007000101 -0.17454344 0.26142183 0.17298734 0.21758404 0.20637816 -0.13290635 0.57273304 0.030184634 0.45978743 -0.3725299 0.4371615 -0.12805657 0.4385885 -0.28233936 0.1359318 -0.18222958 0.13679254 0.18137957 -0.31545153 -0.060224622 0.32248008 0.03344256 -0.038463477 0.41958365 -0.03844016 0.20123269 0.19609901 0.25630477 0.21581303 0.55923396 0.355337 -0.74159753 0.21002701 -0.12448441 -0.17142193 0.09164044 -0.19713455 0.30922133 -0.4371023 -0.53396904 -0.19867821 -0.23237878 -0.18467495 0.6578158 -0.30908558 0.056240212 0.24660163 -0.8062658 0.5485063 -0.12801215 0.48415935 0.29262054 0.49957198 0.1750477 0.14208484 -0.27727765 0.32518956 -0.52252614 0.36551565 -0.26373637 -0.030117812 -0.061538592 0.46285504 0.2603927 -0.630654 0.025929678 0.25631738 0.053162705 0.050476458 0.15224013 0.34850615 0.30606198 0.7441853 0.24941035 0.15913609 0.24537407 0.1750305 0.07230901 -0.17017874 -0.55504805 -0.6440382 -0.093692556 -0.053315803 -0.17134632 -0.42915496 0.014078025 -0.03628464 0.49574804 -0.5634178 0.06340738 0.16923147 0.04818632 -0.16322136 0.34163463 0.4410446 -0.19533844 0.3600121 -0.102650896 0.078055345 -0.13422158 -0.86238116 0.20768404 0.4277027
166 0.07482209 0.09660675 0.2644563 -0.047968823 -0.02638573 0.04205223 -0.34274083 -0.3147177 0.26138508 -0.3505037 0.22397372 0.13388187 -0.4155906 -0.29639795 0.19745295 0.09526663 -0.22201605 0.36045325 -0.30879948 -0.3626956 0.12866539 0.20333618 0.5413112 -0.31677777 0.0035843283 0.44622847 -0.3639723 -0.095668666 -0.09858649 -0.0063362666 -0.06562465 -0.54725826 -0.40197828 0.52736807 0.18702793 -0.0921045 0.05590755 0.24382685 0.23229651 -0.54771066 -0.008994995 0.2041696 0.18999644 0.9443415 -0.6833131 0.05223638 0.20467527 -0.2410176 -0.9458719 0.26657444 -0.45865026 0.11537808 -0.20243555 -0.23583014 -0.6859695 -0.19224258 0.7876232 -0.0062881103 -0.11156884 -0.16562998 0.001961815 0.4998701 -0.37100095 0.35887235 0.6106264 -0.19011904 0.22220057 0.6655402 -0.311356 -0.27550733 0.63041764 -0.8616048 1.501465 -0.4535153 0.07294853 -0.09859882 -0.52550185 -0.6916802 -0.01361298 0.12700361 0.57466 0.12655559 0.86776537 -0.21022578 -0.1774675 -0.13205571 0.18196838 -0.11591367 -0.62632084 0.42381948 0.0115064755 -0.08963216 0.36678883 -0.35131168 0.068452924 -0.51724863 0.27126542 -0.42492142 -0.54032457 -0.056172006 -0.4058517 0.29073325 0.24941617 0.6976358 -0.14467253 -0.26297867 0.05014875 0.02783419 -0.36315826 0.2612803 -0.3567725 -0.3143178 -0.3568243 0.17669909 -0.12221696 0.5402902 -0.46255976 0.24612841 0.45405537 -0.029573558 0.28621563 0.053181365 0.018828837 -0.14006321 -0.03639655 0.53596395 -0.57708186 -0.48604232
178 -0.8479511 -0.011964614 -0.5013119 0.49373025 0.12147593 -0.18914495 0.16564454 -0.2755257 0.06939588 0.25494865 -0.41481444 0.11566046 0.08389867 -0.13432308 -0.19257662 -0.18253016 0.3309977 0.8261193 -0.23855132 0.29762706 -0.2643749 0.36536315 -0.18935044 0.49723026 0.37651294 -0.20621264 -0.10727186 0.2973692 0.008317497 -0.113144994 -0.3516849 0.16288468 0.15412176 0.41910884 -0.114393756 0.65919375 0.024528151 0.45071256 -0.34550244 0.16333185 0.32408357 0.11791046 -0.09624965 -0.045997653 0.17178905 0.3423081 -0.41385835 -0.13633308 0.1628674 -0.3376054 0.45351437 0.44155174 0.06796509 0.11749001 0.47391638 0.630563 -0.80102295 -0.3048676 0.057817344 0.05134913 -0.12984408 0.13119252 0.68755585 -0.2707787 -0.58440244 -0.08521563 0.51438445 -0.1868451 0.30526534 -0.36793712 -0.024107339 0.018686254 -0.84516597 -0.38060462 -0.1223801 0.26295796 0.103843346 0.455574 -0.18298778 0.41790223 -0.3267794 0.23099281 -0.16465378 0.44742286 0.4892108 -0.63023573 -0.024089927 0.34233084 -0.04734443 -0.30630094 0.26940793 -0.09335687 -0.16820472 -0.13235024 -0.019933637 0.28266293 0.22758578 0.3739605 0.11052935 -0.2442609 0.34086168 0.19262202 0.28555954 -0.5653884 0.08495476 -0.4288118 -0.5398338 0.28849673 0.035092507 -0.22273971 0.38738957 -0.2884083 0.79114836 -0.33482587 0.13653263 -0.17920849 0.1236052 0.38553265 0.26339146 0.2442729 -0.029678384 0.7156203 0.14235185 0.61155295 0.084031425 -0.7296896 0.33794773 0.19263396
104 -0.3583342 0.13088618 -0.058726624 0.55667543 -0.27308124 -0.09418698 0.00552349 0.055022307 -0.043531355 0.37366977 -0.17614292 0.18481272 0.012650445 0.22085774 -0.3323656 -0.20698386 0.35698056 0.7271572 -0.022423025 0.23981398 -0.6711892 0.064109676 -0.47872007 0.010595751 0.098774776 -0.17709477 0.39112297 0.21931463 0.33890155 0.008134593 -0.066513546 0.6883557 0.11765657 0.4199457 -0.35731813 0.5051046 -0.050800078 0.6697223 -0.32910842 0.27624142 -0.25355268 0.25807872 0.010255766 -0.1852507 0.008782097 -0.03624922 0.10872029 -0.0883534 0.27844504 0.022070747 0.22458707 0.43165562 0.3487078 0.39362484 0.6848664 0.5292046 -0.7368954 0.013056907 -0.1033192 -0.16776039 -0.005722002 -0.29122418 0.37134007 -0.4630863 -0.5448755 -0.26568753 -0.14768063 -0.19970109 0.64881206 -0.31951043 0.099071726 0.26361096 -0.70690143 0.43822607 -0.036359437 0.47676933 0.2566268 0.65760225 -0.009691289 0.22958292 -0.3462428 0.172403 -0.5151336 0.59196794 -0.16041353 -0.2625132 -0.10609279 0.61175984 0.18283619 -0.4886209 -0.113146834 0.2095093 0.07943003 0.09525254 0.24271698 0.20392905 0.39842278 0.8499776 0.38165078 0.0146401115 0.3774824 0.1630645 0.21131535 0.0056752674 -0.54825336 -0.7542673 0.097439714 -0.055629276 -0.046840757 -0.46039808 0.1284771 -0.10438249 0.5813586 -0.7348845 0.08841448 0.18272613 -0.00031752524 -0.046572074 0.34459278 0.44817075 -0.28804788 0.61712545 -0.14601918 0.2635837 0.120534144 -0.89466983 0.197325 0.39135695
169 -0.002942072 0.15609936 0.22055134 0.033986993 -0.034578722 0.13259086 -0.11486785 0.12956113 -0.12631223 0.13914998 0.104496256 0.11077375 0.32204384 0.15472223 -0.33589008 -0.07920627 0.38853234 -0.24776058 0.33484867 0.3493318 -0.04181047 -0.37014335 -0.18650302 -0.35720116 -0.23241007 -0.12976855 0.33863583 -0.021328805 0.19646476 0.37139985 0.036193516 0.41241267 -0.001160082 -0.061396904 -0.1359463 0.03725204 -0.252024 -0.09071722 0.010849795 0.14996855 -0.09495271 -0.12214949 -0.11485419 -0.22736697 0.11606097 0.0097712 0.061636724 0.130408 0.5085167 0.36597294 0.17741825 -0.18983008 -0.120789796 0.3411373 0.2876838 -0.041334603 -0.27677405 0.33539024 -0.5541965 -0.026751308 0.03426348 -0.5114921 0.14787662 -0.3632787 -0.49089694 -0.3775527 -0.5988481 -0.3678329 0.61038667 -0.1783207 -0.15096049 0.5126745 -0.7919774 0.65915096 -0.27443758 0.23853587 0.40995204 -0.05227469 0.5093768 0.1340912 -0.29693004 0.32966352 -0.21108659 0.17929992 -0.5973693 0.5085459 -0.3599012 0.34937966 0.38140443 -0.68 -0.17013682 0.61606586 -0.26087594 0.20358199 -0.073707774 0.18845162 0.17788452 0.6938078 0.44589573 0.112145975 0.23299202 -0.116175525 -0.15409368 0.05946932 -0.76671207 -0.4629507 0.11962149 -0.13415731 -0.26340267 -0.4092268 -0.16030662 0.13152142 0.14677742 0.04587349 -0.038003612 0.27366483 0.06609728 -0.6822932 0.205354 0.33933035 -0.28420627 0.020922048 -0.12963973 -0.37878048 -0.2607018 -0.34295258 0.15688333 0.3762022
4 0.17301296 -0.017912028 0.42382187 -0.33518344 0.12768683 0.05581372 -0.42295843 -0.2782059 0.30981356 -0.33203563 0.47735143 0.16488236 -0.27649447 -0.13134672 0.1296548 -0.013286871 -0.30736226 0.06829993 0.050535962 -0.17738828 0.27633452 0.24465184 0.51211303 -0.4939428 -0.14827392 0.5087538 -0.15516716 -0.22412862 -0.005775706 0.0447383 0.039215237 -0.4491846 -0.41410056 0.21652713 0.2420607 -0.22152135 -0.03383928 0.095888205 0.36082697 -0.3219578 0.059648152 0.27926105 -0.15996781 0.9029896 -0.48753265 -0.30636644 0.27811155 0.031134035 -0.8349282 0.55387616 -0.45715368 -0.08077638 -0.25993207 0.07470275 -0.6542125 -0.22718829 0.90739787 0.008364824 -0.4718395 0.009508026 -0.19081473 0.023599468 -0.36480507 0.28783214 0.30666795 -0.35697088 0.009236842 0.48509166 -0.07761112 -0.34959766 0.45976952 -0.6492081 1.2712839 -0.44141814 0.06676939 -0.26989833 -0.30627483 -0.66140157 0.08828666 0.187468 0.5516212 0.09693798 0.9433876 -0.24291606 -0.5143291 0.003385759 0.16003156 0.02438814 -0.44482645 0.22547247 -0.2001013 0.35510352 0.22933616 -0.24908344 -0.01410321 -0.5668833 0.2887577 -0.03013331 -0.31701475 -0.07001748 -0.3257534 0.08393793 0.14281133 0.7351441 -0.26798964 -0.2434951 0.19690458 -0.018008597 -0.41136545 0.048301395 -0.4434493 -0.08755365 -0.4582346 0.30647337 -0.23768337 0.5892549 -0.40383086 -0.14117222 0.3914195 0.109117344 -0.07188997 0.022725163 -0.280102 -0.25791928 0.0059090806 0.70473665 -0.4549453 -0.4804613
109 -0.40220797 0.053940434 -0.08810273 0.68954647 -0.4492627 0.0781386 -0.061030477 -0.07300521 0.2995964 0.1887123 -0.26227278 0.06583632 -0.09409244 0.15186647 0.0872367 -0.15874062 0.18531552 0.8706132 -0.38389367 0.025870323 -0.6147368 -0.11049718 -0.10376871 0.10489003 0.172511 -0.1634852 -0.05892442 0.25368792 -0.0042174254 0.0948816 -0.2880968 0.25126094 0.012429503 0.72974235 -0.34243628 0.5272826 -0.06080293 0.4968844 -0.34632492 -0.17971861 -0.043117102 0.24103712 0.4469169 -0.2838407 -0.2488467 0.5745293 -0.19579057 -0.17403997 0.23540474 -0.22908248 0.14720571 0.0243518 0.20976813 -0.084823504 0.28255892 0.24854946 -0.62362945 0.18851994 0.094786756 -0.21657445 0.17378679 0.09012028 0.32613558 -0.26828066 -0.30204713 -0.07701326 0.08333019 -0.031178875 0.52129793 -0.4528908 0.19033112 -0.107190505 -0.5719406 0.21849687 -0.009018363 0.39198503 0.10765584 0.48559135 -0.02514465 0.15052077 -0.17209747 0.23982549 -0.42310163 0.21410045 -0.06778937 -0.31747395 0.08609084 0.3439406 0.26158246 -0.46836802 0.24193145 0.02469423 0.2209119 -0.2562923 0.113359086 0.33798805 0.44929484 0.62552243 -0.009123783 0.15749618 0.13609053 0.3199338 0.013824884 -0.19502313 -0.23359162 -0.57277393 -0.49182403 0.08812994 -0.20320238 -0.26885155 -0.05493288 -0.108603135 0.54184836 -0.40434656 0.010619432 0.14856368 0.04463421 0.13708557 0.32252342 0.47507963 0.06010299 0.4216489 -0.07962298 0.19076394 -0.12995405 -0.815286 0.04700098 0.33630675
34 -0.14955996 0.13691027 -0.39787212 0.5902012 -0.2309625 -0.05577487 0.031900898 0.09018974 -0.27290413 0.28414607 -0.43092763 0.13638188 0.012716497 0.3751748 -0.22609991 -0.0035250194 0.5637885 0.9958961 -0.17803259 0.2968427 -0.6152206 0.22793828 -0.34164372 0.12696302 0.20759578 -0.41555095 0.48903513 0.09013369 0.3550652 -0.026456848 -0.23725587 0.65091157 0.28127706 0.22917882 -0.29595357 0.6096849 0.11155303 0.5421132 -0.4623901 0.3929486 -0.20623495 -0.13402759 0.18120514 -0.6909241 0.31026316 0.29938358 0.08815852 -0.34244737 0.5357342 -0.380351 0.49021715 -0.036351964 0.27206808 0.5292349 0.70771724 0.39713192 -0.8291321 0.106395096 0.08174816 0.042461656 -0.04125391 -0.42893535 0.51916695 -0.358102 -0.2559424 0.16769454 0.055352338 -0.20938122 0.58483464 -0.17385843 -0.0731093 0.3185287 -1.0712829 0.44590697 0.10894895 0.43176192 0.24301274 0.707844 -0.122902505 0.11372778 -0.594861 -0.19069177 -1.066499 0.6450809 0.2942901 -0.39890942 -0.072174944 0.61166257 0.4508231 -0.5644313 -0.09253328 -0.24992275 0.021186309 0.13631287 0.17520086 0.27925587 0.111942746 0.7232487 0.30485734 0.07076791 0.39114112 0.17554745 -0.07665546 -0.21165328 -0.12420584 -0.3779677 -0.018143462 -0.069523074 0.13730277 -0.44454587 0.21935602 0.09155919 0.8200019 -0.5110323 0.16621672 -0.19109133 -0.052632503 0.0733051 0.2199192 0.41445377 0.16461892 0.48542732 0.046592414 0.4093626 0.124134295 -0.9716059 0.16693936 0.5956456
194 0.3981445 -0.017725445 -0.028131345 -0.4463954 0.68849385 0.034924045 -0.16348426 0.06477309 -0.40466732 0.083876014 0.20899744 0.10688592 0.6991293 0.018837668 -0.34866163 0.20797707 0.27623335 -0.8087783 0.81175745 0.25479597 0.80306363 -0.062113367 0.095597126 -0.36253068 -0.049617924 -0.034755904 0.4182643 -0.33884597 -0.010471827 0.1621773 0.15001735 0.06598125 0.07548083 -0.56578106 0.119287305 -0.116129234 0.0788008 -0.53438336 0.220139 0.22342944 0.1110885 -0.500726 -0.41318926 -0.03694714 0.5083088 -0.5388304 -0.027592758 -0.04235062 0.25489447 0.370184 0.22133295 -0.48981658 -0.47761285 0.43580154 0.022640489 -0.45177847 0.2482654 0.090870015 -0.88483065 0.28333464 -0.21052332 -0.8274236 0.25800842 0.09613866 -0.14597121 -0.09633216 -0.35912165 -0.49547765 0.29147145 0.10665731 -0.3314346 0.6147636 -0.44797382 0.085783295 -0.26315552 -0.27482963 0.24786425 -0.63166356 0.50902575 0.29260975 -0.31566623 -0.036847636 0.047182426 0.17198823 -0.4294323 0.33590123 -0.7079443 0.23706348 0.12665272 -0.39487424 -0.3374384 0.3807463 -0.37777063 0.3999038 -0.3510512 -0.07279693 0.03806901 0.4622511 0.5135776 -0.4017806 0.31072333 -0.3171513 -0.4434725 0.4073135 -0.35411176 0.007317549 0.22409944 -0.11685796 -0.041160524 -0.09476005 0.063343495 0.11971507 0.16048686 0.715538 -0.057496276 0.083962254 0.0045123906 -0.6892019 -0.17735527 0.05388503 0.0381191 0.07859351 -0.12887107 -0.30914828 -0.18370984 0.38277423 -0.22363535 0.16570176
127 0.10710523 0.011313416 0.40782323 -0.060628302 -0.14221974 0.062421653 -0.4309376 -0.2638595 0.3604899 -0.3755504 0.35053623 0.0356159 -0.4056825 -0.14281245 0.2127871 0.063419506 -0.29885218 0.39492267 -0.24697864 -0.31929407 0.14236991 0.15363835 0.6286962 -0.45967922 0.015024309 0.37408227 -0.22990038 -0.19324125 -0.11653025 0.05671753 -0.038913794 -0.511583 -0.41996735 0.5756805 0.15203936 -0.06059111 0.007006339 0.27613953 0.27608034 -0.53141963 -0.012386673 0.33294773 0.2224309 0.87638056 -0.6695377 -0.016574526 0.3005037 -0.12174965 -0.8914064 0.38667795 -0.46495828 -0.11514165 -0.15186447 -0.23978972 -0.8131511 -0.21479395 0.8770137 0.0922031 -0.23497765 -0.09003898 -0.013051855 0.403229 -0.4235275 0.36707824 0.57852703 -0.3050929 0.16138151 0.6743399 -0.21330427 -0.37894514 0.61420965 -0.8345359 1.4318627 -0.3692289 0.021989085 -0.13911633 -0.36182013 -0.68898433 0.020905565 0.050160754 0.59383047 0.12534188 0.9015591 -0.23714298 -0.3356477 -0.08412026 0.22307657 -0.102944896 -0.4702429 0.27126437 -0.010480881 -0.033722367 0.39499307 -0.44164875 0.08497444 -0.57594293 0.33747116 -0.2572864 -0.5562603 0.040253673 -0.34250316 0.34719932 0.18643789 0.6950934 -0.20094973 -0.3463801 0.08028513 0.020600652 -0.45511788 0.21083055 -0.4831718 -0.17646432 -0.4582117 0.26168126 -0.09141638 0.57629555 -0.46934184 0.14826775 0.51784253 0.12324952 0.12642133 -0.041518103 -0.13511819 -0.2697412 -0.046055492 0.5707378 -0.548349 -0.3878566
195 0.20749214 -0.042534433 -0.088300064 -0.4398993 0.6002216 0.040343076 -0.21513264 -0.12284025 -0.2213023 -0.062351473 0.15509233 0.26731303 0.6434905 -0.11890556 -0.38529834 0.04289646 0.45148283 -0.5256973 0.58327675 0.40660048 0.7019316 0.098683774 0.1728208 -0.43381634 -0.3071377 0.05231613 0.2286755 -0.3282455 0.09346627 0.1387079 0.07150904 -0.12640293 -0.28779417 -0.47987318 0.23508467 -0.18535449 -0.019351278 -0.6387456 0.17188077 0.367985 0.16236863 -0.49762082 -0.4533706 0.26897717 0.5009126 -0.377532 0.15235622 -0.018912794 0.023505328 0.28093818 0.17445247 -0.5896051 -0.56977445 0.56567466 -0.055558372 -0.25174582 0.3189292 -0.032093756 -0.8721634 0.37715697 -0.30270648 -0.5775691 0.2139507 -0.025595663 -0.4150074 -0.19582279 -0.21297722 -0.22847371 0.30255726 0.037687898 -0.17185259 0.48335686 -0.39444223 0.014416032 -0.16047281 -0.41041458 0.21880421 -0.43729487 0.498733 0.24368824 -0.11663439 0.088162936 0.15491596 -0.012351609 -0.43913662 0.39331394 -0.48037475 0.34833044 0.032045927 -0.38113004 -0.22602607 0.73174876 -0.51352155 0.086424746 -0.30407164 -0.13679537 -0.22784007 0.31998405 0.44026962 -0.21927379 0.038903642 -0.4463167 -0.3175678 0.08351854 -0.26026002 0.07408122 0.16090097 -0.17317146 -0.22588755 -0.18280515 -0.046230778 0.2952615 -0.057367682 0.55996466 -0.10634112 -0.044944104 0.02523097 -0.61255765 -0.10750987 -0.04090326 -0.1921856 -0.06983829 -0.18524091 -0.15932262 -0.059236526 0.6396446 0.11144347 -0.10745888
153 -0.29271722 0.15408967 -0.4326908 0.7246017 -0.2911208 -0.039132524 0.052942313 0.099033885 -0.12894736 0.28869686 -0.4580794 0.17639671 0.08591459 0.35758117 -0.18309604 -0.09762703 0.5462244 1.0026828 -0.28027126 0.263474 -0.6424639 0.20243105 -0.3413444 0.18196115 0.19499637 -0.36847574 0.353221 0.12590532 0.2829963 0.034071602 -0.2565718 0.62231636 0.24440946 0.30736902 -0.3684116 0.6189116 0.0857674 0.51542586 -0.47683918 0.38507447 -0.14003965 -0.12591128 0.21519242 -0.69692063 0.27256745 0.5124276 0.0735411 -0.323089 0.5847419 -0.5194746 0.44792274 -0.0014287187 0.28767455 0.46722275 0.79989445 0.48383987 -1.0084187 0.0071819937 0.1015345 -0.0031615493 -0.042395372 -0.3403512 0.5786851 -0.44140527 -0.40774015 0.24724577 0.11370213 -0.22527418 0.6610694 -0.19035238 -0.08565466 0.30959475 -1.1903118 0.3630315 0.096874736 0.4732039 0.23241141 0.7880653 -0.13735169 0.1599083 -0.52337015 -0.012371247 -1.1120411 0.5327486 0.29691443 -0.43924218 0.013902798 0.6192959 0.40404657 -0.6206687 0.022341507 -0.2254796 0.035932105 0.09961579 0.15214315 0.44899943 0.068478286 0.7273975 0.22065353 0.07998007 0.3691515 0.19614086 -0.03775651 -0.37626004 -0.072592594 -0.34756652 -0.15943098 -0.05382882 0.06768911 -0.49447218 0.24529701 -0.023096777 0.9228289 -0.61215645 0.15342556 -0.22079122 -0.05341757 0.063149035 0.24719618 0.4424924 0.16127084 0.48719233 0.03482204 0.46760842 0.06999313 -1.1267736 0.24479753 0.5575652
53 0.5760106 0.07070751 0.026604762 -0.2502154 0.2772307 0.2645141 -0.30231985 0.13921353 -0.110925905 -0.19228478 0.29118675 0.15421274 0.53484446 0.09363782 -0.01675775 0.12787767 0.059280254 -0.7641708 0.44820154 -0.07894283 0.7549001 -0.29646432 0.38859183 -0.52788293 -0.15169169 0.11668096 0.07785398 -0.21232793 -0.17908685 0.39463142 0.10882286 -0.2237071 0.0027381787 -0.38525772 0.117499076 -0.35397503 -0.07092066 -0.6623159 0.2287938 -0.20546237 0.18200153 -0.45596308 -0.05349918 -0.08949272 0.08418299 0.015297359 0.006888152 -0.021502897 0.21447457 0.26683432 -0.05953402 -0.8341583 -0.52717906 0.11206475 -0.23967388 -0.6466345 0.4134413 0.21851094 -0.64703745 0.0581651 -0.023631955 -0.52002764 0.0017350605 0.10117962 0.098609544 0.068693906 -0.41835847 -0.33895665 0.29878098 0.048716083 -0.21281362 0.30402592 -0.15122144 0.09757365 -0.18806805 -0.20906116 -0.028724343 -0.71866715 0.4362655 0.18640503 -0.08082139 0.12925257 0.0061814883 -0.22654688 -0.54468983 0.4020536 -0.49047422 0.0875492 0.33087894 -0.29246604 -0.18443492 0.26336637 -0.16731882 0.14897314 -0.4094166 0.032593172 -0.013844873 0.36910555 0.07814774 -0.18780446 0.0894302 -0.22122736 -0.52910686 0.41811764 -0.2605521 0.22429857 -0.0012820645 -0.092760794 -0.30107692 -0.06298369 -0.20479822 -0.009602569 0.09564617 0.7664299 -0.20487444 0.28690463 -0.16623951 -0.7929132 -0.113397636 0.1629787 0.31950673 -0.15808587 -0.12187707 -0.525044 -0.34420338 0.25596055 -0.40853873 0.050161965
170 0.16010864 0.31675702 -0.39292473 0.6143592 -0.43101057 0.033733424 -0.11968071 0.461457 -0.29961056 -0.10912909 -0.35641223 -0.027751522 0.29503435 0.500229 0.036061376 0.0074560856 0.46012306 0.37295666 -0.139855 0.108460285 -0.19659525 0.051653925 0.033677727 0.05582899 0.013993145 -0.34099597 0.40126455 -0.24918002 0.09145731 0.34657973 -0.15497181 0.37365785 0.26697522 -0.18702868 -0.40102887 0.19899419 0.22600444 -0.029754663 -0.18794125 0.4635427 -0.035775296 -0.5871464 0.4525225 -1.0278689 0.5055424 0.8587437 0.2930588 -0.37573966 0.79022014 -0.7401302 0.3493898 -0.4712912 0.09579837 0.24472094 0.51283216 -0.012241056 -0.60151833 0.19305085 0.20766231 0.12054926 -0.0072946562 -0.19063638 0.2841613 -0.120480955 0.2375059 0.719185 0.113578014 -0.14943312 0.15470198 0.3194295 -0.26035216 0.39723802 -0.9600063 0.37054083 0.009514638 0.31871992 0.13281623 0.20661451 -0.03600052 -0.19395515 -0.35268387 -0.018734058 -1.2004536 0.20222755 0.28316054 -0.05950521 0.07136589 0.07774327 0.45801252 -0.59831554 0.18402469 -0.7003277 0.053473786 0.37150946 -0.009929573 0.5497179 -0.5186922 -0.048841063 -0.26388797 0.30464995 0.16899323 0.260989 -0.40217465 -0.3972148 0.23882617 0.378893 0.10415557 -0.18520403 -0.004747081 -0.25786626 0.29345217 0.10418841 0.7799853 -0.062369097 0.2980416 -0.4074324 -0.30611813 -0.11644653 0.19521166 0.2988711 0.5256208 -0.3186305 0.35448423 0.20859624 -0.24099581 -0.8358289 -0.040341627 0.6764516
85 0.21894595 -0.045500517 0.19241188 0.032098863 -0.04685578 0.07417802 -0.42188916 -0.27898023 0.119267926 -0.37728706 0.25328863 -0.018944947 -0.20938468 -0.25568533 0.31055775 0.23227625 -0.110005446 0.41739908 -0.12263068 -0.47032154 0.3583278 0.14374109 0.74128425 -0.31502113 0.054988895 0.28969654 -0.19738111 -0.2340601 -0.2364617 0.14272343 -0.16235091 -0.69734573 -0.3923645 0.5667026 0.13872573 -0.032143444 0.17586735 0.14915662 0.31861946 -0.7060753 0.10022819 0.038872365 0.4576454 0.68576133 -0.6289204 0.08925649 0.10935499 -0.284506 -0.78847915 0.29096538 -0.41238132 -0.33791947 -0.20496544 -0.44295388 -0.9597466 -0.54083776 1.0471618 0.34872472 -0.22646655 -0.010442351 0.10582592 0.5296728 -0.3947383 0.5984962 0.9229422 -0.13666956 0.18135348 0.7891243 -0.40856355 -0.26500386 0.53656065 -0.83741987 1.4113402 -0.32549822 -0.0378219 -0.2215735 -0.42394853 -0.8961097 0.13903438 -0.031221569 0.42275617 -0.046031944 0.86547315 -0.15523012 -0.2880649 -0.19306837 0.02021567 -0.2465728 -0.4263804 0.19602187 0.052544568 -0.25185493 0.38252446 -0.4670858 -0.077213585 -0.6054481 0.35994455 -0.4552913 -0.6851691 -0.023910746 -0.32521224 0.44154805 -0.051499814 0.8110519 -0.08882788 -0.30557615 -0.032803994 0.07950423 -0.49992487 0.43827277 -0.32087877 -0.1547549 -0.32131594 0.52735597 -0.088249765 0.5108849 -0.39119318 0.22159626 0.3550315 -0.031475853 0.47414878 0.04890594 0.017650915 -0.2692113 -0.1950497 0.72285277 -0.9007466 -0.36443138
113 0.53438324 -0.105094664 -0.45412868 -0.0519495 0.50377744 0.096419215 -0.22327699 0.09033299 -0.33128566 -0.08523827 -0.09855436 0.10110518 0.78299546 0.19340487 0.0016852481 0.2709184 0.36589727 -0.29617742 0.47064188 0.061426282 0.8310351 0.16428654 0.3839827 -0.22064936 0.0100079235 -0.17238733 0.2602789 -0.44592485 -0.23787269 0.15805438 -0.068393685 -0.25073278 0.023536926 -0.50407475 0.021445801 -0.06509692 0.34771717 -0.6394633 0.080297194 0.19911678 0.1943033 -0.8205964 0.102085784 -0.40760252 0.6293943 0.07051445 -0.028809309 -0.36552826 0.2944977 -0.26384625 0.27275518 -1.0882971 -0.44979677 0.26484177 -0.10731957 -0.64047915 0.27145755 0.07696445 -0.5241697 0.46123552 -0.11664616 -0.5200715 0.36645475 0.30770156 0.21746057 0.5191128 0.12285852 -0.17113599 0.08359341 0.2661534 -0.37144685 0.45555478 -0.5400813 -0.07889743 0.015168969 -0.41980103 0.083761364 -0.5022608 0.24803005 0.022628738 -0.3251142 -0.28623262 -0.42364112 0.05323199 -0.10011232 -0.09069519 -0.46840033 0.16344567 0.31898203 -0.39979458 -0.022473177 -0.14254044 -0.16821061 0.12933609 -0.42997485 0.10888336 -0.25353825 0.14294972 0.08523158 -0.25883242 0.11749435 -0.09812833 -0.75958306 0.1970068 0.34213448 0.45845023 -0.06414843 -0.11163459 -0.07098305 0.07792861 0.22015862 0.2703514 0.4331653 0.8226011 -0.0152718285 -0.30558187 -0.010872637 -0.34253427 -0.35548398 -0.012380768 0.5194512 -0.09513511 -0.0077603427 -0.013054056 -0.2146101 0.39718464 -0.41988686 0.15842113
171 0.005290493 0.06905737 0.4085082 -0.077952236 -0.15701121 0.043801907 -0.4110104 -0.28929827 0.4339186 -0.44715634 0.39442185 0.091740906 -0.43944362 -0.17904097 0.20413354 0.030405322 -0.34000188 0.3714453 -0.28558972 -0.31536958 0.17679021 0.27870074 0.6783566 -0.40591303 0.015180558 0.47662458 -0.35711133 -0.1789826 -0.12591605 0.05235943 -0.00926241 -0.5971262 -0.4719009 0.5920891 0.1950007 -0.08664656 -0.0046246587 0.25372928 0.31672803 -0.47354212 0.08574695 0.36540338 0.1055099 1.0084685 -0.7022496 0.06501931 0.35584906 -0.08851714 -0.98384917 0.30347973 -0.52867806 -0.031550895 -0.16818461 -0.21694736 -0.761132 -0.09639242 0.8502017 -0.090339504 -0.26293766 -0.13762124 -0.08705742 0.4604257 -0.41558808 0.35102674 0.54728305 -0.26920775 0.2869741 0.6770475 -0.209765 -0.36816767 0.64969176 -0.91541547 1.5301768 -0.5823941 0.0443594 -0.1148656 -0.4731225 -0.6818582 -0.066015035 0.14238735 0.6866894 0.24129869 0.95702565 -0.3317234 -0.25389105 -0.13177775 0.3415184 -0.13056858 -0.58296996 0.36048096 0.019985847 -0.00555205 0.37489223 -0.45393267 0.0401741 -0.5437473 0.27534336 -0.3664067 -0.6566624 -0.016634708 -0.35987723 0.3451027 0.30950952 0.6100311 -0.1435748 -0.24567935 0.05221266 0.07040583 -0.49156386 0.17532277 -0.46454543 -0.31752315 -0.41243556 0.19363515 -0.14615221 0.6240096 -0.5899885 0.122324675 0.6289958 0.1541349 0.15833509 -0.013762681 -0.116109595 -0.16566116 -0.0114670405 0.5516501 -0.467552 -0.48218727
52 0.3509731 -0.13210993 -0.10524012 -0.5180155 0.71833944 0.07682945 -0.20136845 -0.20204733 -0.21996333 0.021840952 0.16306472 0.30194378 0.54347104 -0.090411685 -0.3363613 0.1154738 0.33290473 -0.4397395 0.5793435 0.33274084 0.7068896 0.08448858 0.16434626 -0.486167 -0.2039861 0.051390417 0.22070235 -0.23980135 0.076402254 0.037548095 0.04978344 -0.13177593 -0.18707633 -0.4346776 0.31501237 -0.14092702 -0.036572304 -0.55472094 0.12068908 0.16015892 0.117001265 -0.42082608 -0.46068653 0.3053092 0.38137233 -0.5667198 0.00151854 -0.034571946 -0.06615566 0.43863904 0.17505229 -0.656486 -0.6061813 0.57138544 -0.1362744 -0.34980407 0.43765494 0.008544448 -0.8942356 0.3356462 -0.27093503 -0.7402229 0.25917438 0.0021841368 -0.3819079 -0.25352278 -0.2718144 -0.3032674 0.40438035 -0.10937142 -0.16235285 0.41507772 -0.31719956 0.010227319 -0.08926778 -0.43938452 0.16472168 -0.4494151 0.46208912 0.32780725 -0.20276816 -0.08390472 0.19197273 0.055311102 -0.45299977 0.26596344 -0.59564877 0.466453 0.15844443 -0.29601508 -0.3499367 0.75542766 -0.44831744 0.017660372 -0.3314085 -0.25488734 0.03368927 0.6130354 0.58594877 -0.35840377 0.089163385 -0.4713474 -0.3738897 0.35153252 -0.29792556 -0.040800318 0.07724761 -0.12342491 -0.17095077 -0.17100607 -0.12078226 0.26710662 -0.039833352 0.6344954 -0.20516683 0.086596444 0.07538026 -0.6131778 -0.19328447 0.0006291288 -0.11138405 0.16541713 -0.2942036 -0.20317537 0.005570017 0.6434034 -0.04789455 -0.1447412
146 -0.031852856 0.013326961 0.47560817 0.014548594 -0.31025 0.042617027 -0.46452513 -0.27034867 0.39946732 -0.4155451 0.41491273 -0.010993703 -0.4872212 -0.06414527 0.23952186 0.0054228613 -0.2884357 0.5782722 -0.23959981 -0.24967748 0.0054111322 0.2001488 0.6411944 -0.43224502 0.017645014 0.35274497 -0.15886703 -0.21364972 -0.046424337 0.1279118 -0.087682776 -0.46024376 -0.45379257 0.69111806 0.10041292 0.045912288 -0.0240493 0.41496488 0.28788927 -0.45326474 0.051379867 0.46375608 0.22610204 0.82324517 -0.6933682 0.055722516 0.3597883 -0.061734397 -0.8433637 0.42654127 -0.43813735 -0.10282393 -0.045574788 -0.2191372 -0.7856452 -0.10234102 0.8406538 0.17308196 -0.28274366 -0.08118172 -0.051581483 0.41494858 -0.4359207 0.33611268 0.5630699 -0.42201895 0.19203094 0.7154587 -0.1394778 -0.49142766 0.65411365 -0.88858956 1.3710256 -0.35746086 -0.021787079 -0.043041006 -0.30713767 -0.59885377 0.0005318887 0.033608228 0.59123784 0.18018766 0.9032492 -0.18568633 -0.37478155 -0.10666378 0.33982918 -0.095414855 -0.40020472 0.14877038 0.018222226 0.035607092 0.4160454 -0.49294502 0.0957004 -0.5859948 0.37608784 -0.20975454 -0.6335803 0.14381588 -0.29211268 0.44758776 0.2502901 0.5960871 -0.2817229 -0.4593813 0.086663984 0.06451475 -0.55286133 0.12407341 -0.5081796 -0.1368347 -0.42542815 0.1758038 -0.07533872 0.6559454 -0.5165225 0.13013712 0.7248289 0.28558367 0.015161051 -0.028317966 -0.17982025 -0.24316427 -0.056061417 0.45471647 -0.4706828 -0.27288365
122 -0.4513575 0.100630656 -0.47550723 0.3996718 -0.073109046 0.0013795424 0.07735366 -0.23694016 -0.0864875 0.32451773 -0.5284503 0.15864542 -0.025420003 0.081857435 -0.29875168 -0.11806424 0.5826731 0.869824 -0.32597438 0.49096638 -0.5224178 -0.053508062 -0.32518974 0.22095867 0.21894893 -0.43296066 0.08135381 0.5116616 0.2769117 -0.07912125 -0.3937228 0.42125732 0.18046862 0.4193005 -0.030357093 0.7177833 -0.19864261 0.3232913 -0.61801535 0.11393386 0.017672371 -0.03558083 0.07227886 -0.3040592 0.15767778 0.33475083 -0.39128366 -0.29232463 0.41841993 -0.12760173 0.68974346 -0.0043688156 -0.12511629 0.30653846 0.49535674 0.4030344 -0.73180604 0.124123745 -0.05829807 -0.1273472 0.08322403 -0.21387093 0.7164375 -0.46247724 -0.6691069 -0.296186 0.04850345 -0.4887716 0.7201326 -0.48169097 0.01809482 0.26207492 -1.2247777 0.3033229 -0.07113607 0.43807855 0.14799395 0.5927871 0.063016206 0.40167594 -0.63521135 0.076652415 -0.5831319 0.5772313 0.19424786 -0.17382692 -0.3495164 0.63109815 0.5930004 -0.5403244 0.12183392 0.33095157 -0.2782242 -0.21554297 -0.025895339 0.26327795 0.3678788 0.92107767 0.56135374 -0.10835388 0.3487741 -0.06378208 0.044909574 -0.4117608 -0.3535294 -0.55814075 -0.563882 0.13239218 -0.002691903 -0.43871036 0.0661832 0.0821911 0.71630657 -0.27552533 -0.011514613 -0.00068273215 0.19320135 0.06581836 0.20744582 0.44302952 0.02260613 0.64167106 0.13079873 0.37370828 0.03814027 -0.8348751 0.37722754 0.5084544
31 -0.7389045 -0.093377106 -0.49508733 0.4375427 0.27964163 -0.095017724 0.10012164 -0.4176597 0.19631717 0.42176488 -0.41056266 0.22215453 0.06775543 -0.18206634 -0.15434752 -0.21302553 0.3171015 0.8647478 -0.2058453 0.28269854 -0.30850902 0.2381108 -0.24416393 0.38973695 0.34694514 -0.1585164 -0.18260962 0.4756978 0.006332421 -0.18911524 -0.3863806 0.15143624 0.113365136 0.56283456 -0.05782335 0.69531184 -0.050412823 0.42517975 -0.44479012 -0.07802176 0.27338094 0.20687294 -0.10238182 0.09477928 0.023033842 0.15701535 -0.6371476 -0.17275198 0.062470697 -0.10821479 0.45972863 0.31016695 -0.09211933 0.16910842 0.4151429 0.49832565 -0.7241903 -0.21848845 -0.09334948 -0.019112447 -0.07158598 -0.08566604 0.7856111 -0.33933675 -0.8282565 -0.2738744 0.331673 -0.3173917 0.61385775 -0.6056063 0.04745243 -0.0019340147 -0.9202146 -0.3257076 -0.054349687 0.18014286 0.09022047 0.51518774 -0.0682309 0.6245233 -0.39649135 0.17589408 -0.10048753 0.4589199 0.20555559 -0.65687096 -0.22407244 0.6024338 0.12093156 -0.36740914 0.17147458 0.32243335 -0.15803482 -0.2983042 -0.07683315 0.23770218 0.5972087 0.88920695 0.4004333 -0.38010907 0.32549948 0.009901967 0.17764366 -0.3203013 -0.1262257 -0.6738891 -0.7676969 0.2931003 -0.03431693 -0.2917281 0.22230724 -0.24447884 0.80703014 -0.28384122 -0.05768791 0.02618361 0.23934376 0.24912727 0.13383128 0.34597975 -0.07064396 1.0228914 -0.06999326 0.54515976 0.08957848 -0.6708383 0.22948341 0.08958901
105 -0.2841236 0.105253614 -0.48915002 0.41802984 -0.11516648 0.03704688 0.06733767 -0.20320246 -0.13710885 0.28333917 -0.53967834 0.14932545 -0.07816517 0.1462616 -0.22994807 -0.038277842 0.5579902 0.9164826 -0.34886447 0.41682082 -0.53505045 -0.065268435 -0.29208207 0.19133395 0.25672138 -0.45113507 0.11980926 0.485589 0.27189347 -0.08802192 -0.40217233 0.42555177 0.24006793 0.40945137 -0.034598343 0.707996 -0.15568542 0.35587713 -0.6321743 0.06459998 -0.035558593 -0.07834669 0.18875016 -0.41359723 0.12965642 0.35258394 -0.37036833 -0.34834155 0.44785124 -0.14761959 0.6836726 -0.11247858 -0.10344855 0.28583458 0.454821 0.30673495 -0.6615072 0.19743684 0.012518286 -0.14265871 0.10949791 -0.26003745 0.69046503 -0.41175297 -0.47728202 -0.20545378 0.030158704 -0.4621228 0.6953927 -0.44811222 0.031496722 0.23043168 -1.148934 0.3545658 -0.03001397 0.45280683 0.084177405 0.5506437 0.02774148 0.34944358 -0.67258066 -0.058883328 -0.7061281 0.6071775 0.2534021 -0.22789593 -0.37129986 0.6191686 0.67031616 -0.49277216 0.081838556 0.16432388 -0.19342458 -0.20220274 -0.014790923 0.22715428 0.3660397 0.9157495 0.5249985 -0.082155086 0.35409522 -0.01777311 -0.03423006 -0.30741432 -0.30898154 -0.5118534 -0.52811134 0.11818026 0.017233547 -0.41126922 0.05731696 0.10021797 0.74239427 -0.23917122 -0.0030132835 0.014749402 0.1385268 0.08957152 0.20851344 0.45482755 0.18295543 0.63564116 0.14600739 0.3460424 0.046081003 -0.8584116 0.24770354 0.54866135
80 0.26031673 0.2812484 0.18509135 -0.07799762 -0.13402404 -0.062407695 -0.20532158 0.15038545 -0.5886856 0.08350401 0.013821064 0.07445055 -0.012736633 0.3297664 -0.5902103 0.0038763222 0.620885 0.21952522 0.34979534 0.5765978 -0.30790865 -0.11188642 -0.38893276 -0.41626346 -0.25208154 -0.32572788 0.89003325 -0.07052966 0.66794413 0.12604395 0.06607443 0.70172113 0.02479034 -0.23197152 -0.03548964 0.15905543 -0.12872891 0.25613824 -0.10241428 0.57174605 -0.4528598 -0.13510174 -0.18710029 -0.24173024 0.38736865 -0.4604975 0.45214102 -0.057992794 0.3480943 0.4970842 0.39763963 -0.06367987 0.03463496 0.7300986 0.35001254 0.11956522 -0.013132623 0.39909482 -0.3839372 0.061666675 -0.06508586 -0.6141779 0.029913193 -0.3141232 -0.16435 -0.47405604 -0.56707597 -0.19179559 0.38383543 -0.067936495 -0.00619644 0.565343 -0.52756184 0.9844847 -0.14343397 0.33398923 0.42970526 0.09597062 0.35568234 -0.06668158 -0.49217334 -0.1296139 -0.3778242 0.7257521 -0.42397442 0.49441382 -0.4128706 0.4923875 0.45186135 -0.56382847 -0.39536074 0.42316312 -0.25694257 0.31992894 0.15643767 -0.22874181 0.048074882 0.5503626 0.5968021 0.20532042 0.24534321 -0.11936966 -0.011061775 0.31013134 -0.8757829 -0.49679488 0.7613183 -0.29197133 0.00030620495 -0.4456919 -0.10432573 0.51362735 -0.025619926 -0.10509184 0.15847252 0.19104955 -0.07477897 -0.42992842 0.3058914 0.25873825 -0.45103765 -0.02708492 0.033304825 -0.17025939 0.13461064 -0.18220939 0.18305996 0.5533907
48 0.1416953 -0.025526108 0.14568204 -0.078878395 0.3884776 0.029815838 -0.31041723 0.22219527 0.046089157 -0.071913406 0.3108553 0.11543958 0.87972724 0.054322705 -0.11347303 -0.0323923 0.12059225 -0.8460677 0.7226716 0.01116626 0.78446084 0.096597105 0.29897925 -0.36060712 -0.2729912 0.20594859 0.13048796 -0.6376569 -0.31617558 0.30670768 0.24357918 -0.19905797 -0.28698587 -0.380861 -0.23149626 -0.32062957 0.25147375 -0.5994638 0.47532037 0.30607048 0.17598426 -0.40112033 -0.20123768 0.10791103 0.38709682 -0.044338264 0.26127696 -0.001728926 0.06933362 -0.09783704 -0.20330855 -0.41103354 -0.26492134 0.19862194 -0.0016121288 -0.39636838 0.11384485 -0.1949625 -0.75093424 0.38568854 -0.2241173 -0.33746356 0.055611987 0.18398985 -0.20675804 0.250729 -0.01955704 0.0055171605 0.059722308 0.30392817 -0.25617287 0.39767644 -0.10348934 -0.21974212 -0.12346432 -0.41369 0.2756993 -0.5690477 0.42723653 0.086018935 0.24962553 0.39875084 0.1519541 -0.3060231 -0.66376024 0.2379103 -0.11281191 -0.0033810795 -0.36381575 -0.41275674 0.001531097 0.30516917 -0.097401485 0.34319124 -0.27751946 0.2671825 -0.25830382 -0.051998034 -0.086833924 -0.13144445 -0.02470231 -0.09783936 -0.3936993 0.19729826 -0.025546692 0.2202902 0.21183787 -0.21496998 -0.29387152 0.022320785 0.12560439 -0.030658325 0.08727457 0.51616806 -0.0025417854 -0.07006597 -0.12676701 -0.56572324 -0.1119971 -0.004362251 -0.097000904 -0.33195588 -0.2141859 -0.20999789 -0.36686826 0.49079674 -0.17533359 -0.07754123
177 0.17723309 0.08007614 0.46738198 -0.0015879669 0.09782362 0.04325284 -0.19608855 0.12764771 -0.18263295 0.19744259 0.30114636 0.1843203 0.24103712 0.09243018 -0.26742417 -0.06134143 0.2535657 -0.20568824 0.544179 0.10063251 -0.08524826 -0.15372457 -0.2873778 -0.46458375 -0.3533408 0.12295953 0.52929777 -0.2712402 0.24691203 0.2479782 0.18343817 0.44664165 -0.13921925 -0.027721716 -0.25789303 -0.09857918 -0.027870283 0.18104124 0.23863824 0.09692497 -0.36140874 0.0096617285 -0.15886588 0.077618085 -0.034402713 -0.41918302 0.29109806 0.105031796 0.10363918 0.5451607 -0.18563928 0.16645002 0.11755572 0.3880356 0.22372368 -0.13564932 -0.0069853463 0.31890446 -0.52636665 0.07685472 -0.023971012 -0.52778506 -0.13393097 -0.16020998 -0.22378291 -0.30030057 -0.6451301 0.079730965 0.35375726 -0.08049392 -0.0014318811 0.32178274 -0.048845593 0.64171886 -0.11211501 0.069693156 0.40842342 -0.15172748 0.49490836 0.024722885 -0.04870394 0.18233545 0.038996466 0.2734915 -0.8540021 0.30078423 -0.21953465 0.3633092 -0.11863304 -0.49026346 -0.39221883 0.5279883 0.062393427 0.3847083 0.118968144 -0.06400838 0.30939904 0.54373044 0.3506011 0.1211238 0.054737687 0.005648803 -0.09705832 0.643724 -0.78656447 -0.6332799 0.5805769 -0.29235014 -0.20060982 -0.2605661 -0.09938312 0.092722416 -0.09566898 -0.15169962 -0.023317305 0.3585027 0.022630062 -0.53514606 0.12923911 0.12253288 -0.42897123 0.08351388 -0.31832433 -0.39450762 -0.16927467 0.00027068992 -0.1813025 0.071916945
152 -0.477308 0.23107581 -0.088036545 -0.06189369 -0.1874459 0.016340053 0.08525757 -0.26288208 0.5031558 -0.52406156 0.17900565 0.24306192 -0.1716114 -0.5457228 -0.014944244 -0.08400518 -0.3415398 -0.19289838 -0.6460495 -0.29921153 0.3622561 0.37472516 0.60041696 0.028465407 0.13296653 0.55261856 -0.9392966 0.10352127 -0.2167446 -0.061507363 0.07435173 -0.7315741 -0.34157896 0.3174846 0.3775928 -0.2136979 -0.1187974 -0.22341125 0.13685891 -0.16026694 0.49307117 0.17304912 -0.23818335 1.0532441 -0.54486567 0.5893613 0.43871444 0.0022237974 -0.7807855 -0.45847443 -0.49783027 0.43341535 -0.23852003 -0.33447522 -0.23072523 0.5458456 0.1361584 -0.87437874 0.016771398 -0.33904883 -0.22772002 0.876841 -0.18916276 0.07112905 0.14703226 0.120781064 0.7139262 0.2374963 -0.24085344 0.05059447 0.459776 -0.70635295 1.1937089 -1.1918961 -0.06520289 0.006389495 -0.8356899 -0.36921093 -0.39296675 0.34400827 0.8279511 0.7421411 0.6877976 -0.7949651 0.65302294 -0.08604136 0.5240319 -0.37938714 -0.9125168 0.8164934 0.31526926 -0.34551787 0.01077971 -0.37822184 -0.0059932917 -0.05130543 -0.5788073 -0.95327204 -0.7731577 -0.2806259 -0.21768789 0.07484593 0.7269115 -0.5055512 0.47435573 0.50805944 -0.24465218 0.24800676 -0.29997516 0.16259935 -0.10460642 -0.90598965 -0.13694471 -0.24244756 -0.09672523 0.23408285 -0.69706273 0.22376896 0.53599614 -0.1321087 0.46641162 -0.14801776 0.2834924 0.2237926 0.042938944 0.16264822 0.2160903 -0.684768
149 0.7520602 -0.09420507 0.262778 -0.15776993 0.43728918 0.06970548 -0.28507796 0.32005304 -0.32107574 0.030251525 0.46623045 0.1560164 0.6966165 0.34203562 -0.14408799 0.22487904 0.07381357 -0.59287477 0.9344615 -0.15604694 0.6712323 0.2161391 0.13978459 -0.6227262 -0.19306484 0.13614132 0.61599106 -0.74394214 -0.077943705 0.24673463 0.37262857 0.094789475 -0.011682442 -0.5029053 -0.21689 -0.3561041 0.36068156 -0.22401083 0.48164633 0.22685808 -0.19764066 -0.37213266 -0.19925077 -0.17202066 0.32579613 -0.56214696 0.4960297 -0.022203455 0.06956768 0.22787055 -0.27779517 -0.5566164 0.04140387 0.4689723 0.05287428 -0.56075907 0.32179058 0.046393823 -0.7882323 0.43393695 -0.21776153 -0.8347492 -0.104443446 0.24306887 0.23211268 0.32294858 -0.35460103 0.09434414 0.16897677 0.29718 -0.30333582 0.4605225 0.12472606 0.20550154 0.067916706 -0.34034795 0.3045552 -0.56139725 0.31145787 -0.047363374 -0.071052566 -0.1505631 -0.20267051 0.1074079 -0.7132239 -0.02404833 -0.26430917 0.27584273 -0.11828461 -0.36865303 -0.52986646 -0.0040974584 0.13491416 0.53042984 -0.15781434 -0.096334554 0.018407129 0.36271906 0.110941246 -0.17484784 0.21233474 0.04296054 -0.5302216 0.93133974 -0.16872111 0.0056586526 0.73497206 -0.3474409 -0.10073484 -0.038838275 0.091479145 0.03498877 0.123579286 0.42275926 -0.041691165 0.13212493 -0.24112515 -0.7066851 -0.19164151 0.039035838 0.086113326 -0.038072824 -0.42788795 -0.39316714 -0.14544076 0.4216032 -0.6092381 0.0006765937
94 -0.05492248 0.27035055 -0.3477411 0.5536133 -0.36075318 -0.041082364 -0.10980242 0.37526318 -0.14927283 -0.13934548 -0.32475263 -0.099740274 0.23469833 0.3761428 0.09080161 -0.062079906 0.27127063 0.31199393 -0.14886823 0.1145287 -0.14001693 0.07348941 0.06782979 0.17014202 0.07638957 -0.26417628 0.25704557 -0.176026 0.006221614 0.29684484 -0.172123 0.2542607 0.22433318 -0.12702101 -0.37281376 0.21811889 0.2137695 -0.0064400733 -0.13915908 0.43147334 0.10324491 -0.419551 0.38164985 -0.8275239 0.46148482 0.79175186 0.11468069 -0.26597267 0.6498446 -0.6884247 0.33928773 -0.27096254 0.05082947 0.11010332 0.41682288 0.09953164 -0.5492941 0.063584 0.26820403 0.115289725 -0.06279607 -0.03139027 0.288704 -0.065633714 0.16185968 0.61142904 0.27605903 -0.14407957 0.016323565 0.24531133 -0.19246532 0.24640757 -0.7825314 0.098912135 -0.057791788 0.28034833 0.06770415 0.120634645 -0.091959015 -0.114824645 -0.20935407 0.071666546 -0.8569711 0.16651219 0.35099122 -0.15215892 0.10659592 -0.035617553 0.2702759 -0.47839865 0.30403912 -0.72319263 0.060912393 0.31358913 -0.02135698 0.5082019 -0.4768749 -0.18569319 -0.34436888 0.24559861 0.1272493 0.27762073 -0.2341636 -0.49009275 0.26959115 0.35768268 -0.007857578 -0.07477486 -0.012996012 -0.2021038 0.3317158 0.022918178 0.7348569 -0.03457801 0.36638606 -0.39554024 -0.31432596 0.027656958 0.28837284 0.26936522 0.39533734 -0.2674965 0.39288807 0.29173183 -0.21630591 -0.7696981 0.024835274 0.57437426
117 -0.3256712 0.4990618 -0.11071617 0.1743709 -0.5147345 0.16895619 -0.081711225 0.3120208 0.11126957 -0.48207223 0.00928771 -0.018213024 0.49764952 -0.06613768 -0.19581984 -0.19897687 0.27381235 -0.7781417 -0.20013563 0.19546963 0.37718555 -0.37371108 0.43310526 -0.06548022 -0.18656431 0.0061091366 -0.36873782 0.0032280502 -0.133727 0.57591784 0.033849977 -0.20169012 -0.12652594 -0.18248513 0.000650945 -0.19618556 -0.2670439 -0.7480562 0.06913019 0.29316118 0.49622333 -0.453986 0.056862224 -0.17114249 0.16400869 1.1578275 0.33075348 -0.009875424 0.5378912 -0.5626036 0.088724375 -0.26056048 -0.4093379 -0.22994083 0.15177631 0.122227155 -0.35860476 -0.14139912 -0.23078692 -0.25833726 0.049878586 0.42864963 0.035058606 -0.19191289 -0.120169535 0.15198815 0.08675983 -0.37930983 0.07224933 0.31885555 -0.08931166 0.29081538 -0.4802858 -0.12544651 -0.49172446 0.29436538 -0.17444466 -0.39887732 0.24390621 0.089942284 0.22169825 0.9990463 -0.1362367 -0.6112886 0.0657443 0.8195201 0.02758226 -0.4421935 0.04457647 -0.29138434 0.528571 0.007851776 -0.43122917 0.13490716 -0.29457203 0.63728726 -0.8422188 -0.6422211 -0.4909137 0.18046932 0.015217334 -0.048267804 0.08329228 -0.95024014 -0.028470026 0.6642029 -0.20972164 0.033592064 -0.41775468 -0.15680407 -0.07232179 -0.32936388 0.19059074 0.22197846 0.07215735 -0.034420464 -0.3653542 -0.5029206 0.42151397 0.19699731 0.27449825 -0.83170426 0.55701 -0.18208653 -0.5413091 -0.38575745 0.46318248 0.3207819
110 -0.18702951 0.16678375 -0.6446985 -0.04495334 0.24854635 0.130242 0.083052345 -0.082311325 -0.101098396 -0.20719634 -0.19058858 0.17974445 0.5892196 -0.2423302 -0.15213348 0.0011302233 0.30712703 -0.52232504 -0.05525628 0.1939014 0.6759022 -0.120504744 0.2979004 0.14535066 0.120253935 -0.050174873 -0.3899049 0.21536794 -0.16924188 0.23200564 -0.18291648 -0.32375744 0.10031939 -0.32258567 0.29598773 -0.0053181006 -0.16499734 -0.76417106 -0.15345858 0.06763905 0.6546047 -0.57354665 -0.15407264 -0.11842449 0.30192673 0.6539383 -0.297518 -0.09572058 0.43003827 -0.39721373 0.35179925 -0.4177401 -0.64793056 -0.0029739784 0.13561493 0.01707937 -0.24453546 -0.22980501 -0.29367325 -0.05348751 -0.09277006 -0.014550255 0.48413277 -0.13201973 -0.3081181 0.18849258 0.1872721 -0.6493599 0.24940786 0.10425611 -0.28527606 0.3311425 -0.8029766 -0.44095296 -0.34654287 0.005436872 -0.28591335 -0.28377303 0.15281446 0.42503807 -0.23509495 0.42394778 -0.1487238 -0.27394608 0.41730535 0.1936125 -0.41174185 -0.043015182 0.2842064 -0.12757695 0.2849241 0.01799019 -0.5543922 -0.013106559 -0.4716096 0.38874307 -0.4838285 -0.025825154 0.021411402 -0.36600786 0.22545786 -0.28958437 -0.11347958 -0.7217854 0.2590966 0.5665273 -0.60793823 0.2428595 -0.15103415 -0.1079191 0.16238402 -0.28392428 0.5213164 0.42649904 -0.08697957 -0.17386517 -0.040320527 -0.32843402 -0.043699972 0.039442208 0.50654036 0.0035796778 0.38608325 0.11335778 -0.25040078 -0.21265455 0.2528783 0.0752149
106 -0.4331837 0.20992196 -0.39551637 0.7102366 -0.34660324 -0.13420002 0.023301125 0.0007443552 -0.08047006 0.29612866 -0.47317314 0.15505706 -0.17832279 0.25858194 -0.24238458 -0.17135778 0.41427624 1.1677514 -0.3523561 0.24029511 -0.7920053 0.24038942 -0.40641278 0.27370292 0.27779338 -0.32495177 0.26595426 0.38376907 0.3396587 -0.15836859 -0.24810456 0.5943839 0.2651627 0.5107592 -0.30471888 0.70565796 0.030744508 0.7817296 -0.53651047 0.27707312 -0.15897721 0.19028196 0.14475061 -0.33815697 0.09311936 0.26233816 -0.026788095 -0.34284845 0.29103976 -0.3435299 0.4590844 0.4087954 0.29566088 0.33827037 0.6905778 0.6294217 -0.86402416 -0.10432766 0.24448645 -0.1746104 -0.0034451946 -0.09516887 0.5520001 -0.4229836 -0.37788662 -0.06518922 0.21862261 -0.19715141 0.53914386 -0.32508573 0.14432609 0.11410591 -0.81144327 0.20419203 0.094331756 0.5554115 0.084386826 0.8318445 -0.28514826 0.27873123 -0.46838853 0.005271821 -0.7592295 0.70545703 0.30454153 -0.53683746 -0.028079048 0.5922301 0.30911365 -0.37943637 0.06718007 -0.16500618 0.08554208 -0.027665086 0.22861263 0.26943138 0.32124832 0.68193704 0.23664133 -0.028342389 0.39382234 0.2202069 0.23902586 -0.22527823 -0.22370054 -0.5825458 -0.15147823 0.056850947 0.07679079 -0.42612296 0.24905011 -0.1520366 0.86983216 -0.7290935 0.14621027 0.004580797 -0.11865012 0.2901121 0.38076922 0.49089512 0.027276734 0.69045407 0.1282766 0.59053886 0.24258885 -1.1222438 0.22620834 0.5067378
43 -0.53687155 0.086114146 -0.4418644 0.6438272 -0.17454979 0.005643851 0.10326165 -0.14010674 0.11707993 0.32069537 -0.524211 0.17398526 -0.06921436 0.14766775 -0.11244538 -0.13251881 0.4091574 1.0448272 -0.4475348 0.26475185 -0.65044 0.08807118 -0.2645817 0.29120263 0.32415125 -0.35990912 -0.02862993 0.35774323 0.12553735 -0.06052127 -0.39760572 0.43560416 0.24915193 0.59262437 -0.23516206 0.74783766 -0.080541566 0.53872114 -0.58990806 0.037359957 0.013996271 0.038503867 0.2218023 -0.36799708 0.03687518 0.58948934 -0.3556013 -0.319229 0.40885133 -0.3756161 0.48289478 0.13466984 0.08378809 0.22921231 0.5738228 0.50982344 -0.96898234 -0.034356534 0.12947485 -0.12818925 0.050867718 -0.12270153 0.7367043 -0.47287604 -0.5874471 -0.029903723 0.2309032 -0.34065375 0.688143 -0.46774277 0.038367715 0.10350887 -1.1639582 0.08217602 0.03063495 0.4488114 0.14751662 0.69369686 -0.15218776 0.37654617 -0.45347047 0.13140394 -0.7387922 0.43077916 0.3735735 -0.47736353 -0.07920268 0.6047079 0.37577116 -0.4876224 0.18142815 -0.035238482 -0.03917481 -0.15932554 0.068411045 0.44860384 0.36512133 0.8453019 0.3024509 -0.045329552 0.3449666 0.15249662 0.082695805 -0.42774782 -0.10908098 -0.5405337 -0.61129695 0.13345341 -0.009529553 -0.4139456 0.13660896 -0.17838593 0.9112862 -0.44573623 0.056639403 -0.102546856 0.07692712 0.22139668 0.3119625 0.50263494 0.19301175 0.6719302 0.07366178 0.48916337 0.010870171 -1.1083434 0.28284204 0.48091996
65 -0.44496763 0.0025537203 -0.24982111 0.5843833 -0.14866461 0.03995628 0.05725465 -0.17029111 0.19626538 0.3473711 -0.31605294 0.22370034 0.0021770725 0.107503474 -0.09276793 -0.17126179 0.30140826 0.8612448 -0.29650882 0.15525629 -0.55358845 0.012478191 -0.27341828 0.11975992 0.2131976 -0.19220112 -0.023241889 0.34523392 0.0886202 -0.014415371 -0.2705676 0.36156246 0.105572835 0.61699486 -0.24944709 0.57426876 -0.09073708 0.5040943 -0.44165638 -0.06970078 -0.02256599 0.17703792 0.18737286 -0.20303954 -0.12910429 0.36083397 -0.26983646 -0.17256258 0.25922978 -0.1434146 0.26576886 0.10961229 0.13589163 0.15817441 0.48764092 0.3938664 -0.77936924 0.006538596 -0.04094369 -0.14663143 0.06439135 -0.18219817 0.5530645 -0.42155778 -0.6036266 -0.13365582 0.059012257 -0.22697176 0.73775584 -0.49979347 0.088963605 0.0665633 -0.8475585 0.15906863 0.022027466 0.38501233 0.13593096 0.5899765 -0.030580899 0.35247776 -0.35378298 0.18575333 -0.5067265 0.36416048 0.02823584 -0.44159967 -0.0870119 0.61438507 0.29316518 -0.46133333 0.08760901 0.1736841 0.0693935 -0.21156918 0.07954229 0.33104408 0.4997199 0.9438997 0.2984303 -0.060320087 0.28966147 0.14112367 0.06647151 -0.1852607 -0.27330765 -0.652793 -0.5162339 0.10371016 -0.097016156 -0.3781033 0.045584828 -0.1753238 0.7042508 -0.49687228 -0.046622124 0.120497026 0.12789145 0.059057858 0.23196441 0.44394037 0.0026210663 0.7180255 -0.15982239 0.2881744 0.004841058 -0.8863546 0.17076571 0.27693057
120 -0.35713533 0.42181063 -0.24778263 0.22632825 -0.4369751 0.14161213 -0.10857314 0.2710254 0.10488209 -0.49181658 -0.028432198 0.037309095 0.634739 -0.13108599 -0.15675049 -0.18791352 0.3505319 -0.7305868 -0.17719504 0.1690748 0.48390636 -0.2887722 0.47844818 -0.035129666 -0.20160306 0.02259255 -0.3919842 -0.05216202 -0.19480076 0.54662967 -0.0103431605 -0.29789323 -0.22835708 -0.19259845 -0.013024979 -0.18728133 -0.1726351 -0.84760255 0.06404571 0.33345798 0.5502222 -0.5359665 0.10061757 -0.13773897 0.2285264 1.1726367 0.3095328 -0.067042045 0.48864868 -0.6752997 0.07505518 -0.35413873 -0.4614119 -0.21909298 0.13506964 0.09096421 -0.32919326 -0.17978501 -0.23890336 -0.15742438 0.010641612 0.45760578 0.08247229 -0.1335523 -0.14793843 0.23933022 0.18494488 -0.32786492 0.048161063 0.36450994 -0.10510247 0.30359313 -0.49590686 -0.21154095 -0.4588475 0.16635883 -0.18781462 -0.35858124 0.26412806 0.08301834 0.24710524 0.9529012 -0.14487228 -0.6536023 0.089148834 0.7253853 0.03266036 -0.42572638 -0.016683277 -0.29674634 0.5872395 -0.004255013 -0.41925836 0.08124859 -0.3106094 0.64922595 -0.92527884 -0.6888218 -0.50362563 0.15985875 -0.05512673 -0.08519972 0.0051118406 -1.0230167 0.10613752 0.7149773 -0.28032714 0.041431185 -0.4637713 -0.108677156 0.02402649 -0.2893858 0.22682613 0.23282374 0.09166277 -0.1485718 -0.33020118 -0.42120025 0.3390973 0.13154164 0.29446277 -0.80464685 0.53685254 -0.06972286 -0.5283089 -0.24677046 0.44426158 0.22985035
56 0.32082334 -0.0648885 -0.20954482 -0.41111258 0.6988808 0.071027815 -0.2949565 -0.03484582 -0.10233958 -0.10577851 0.15939313 0.2710696 0.83550096 -0.093868926 -0.19400528 0.06527387 0.31289285 -0.7705786 0.59617394 0.21629508 0.9627187 0.08648799 0.3717016 -0.44614676 -0.24905749 0.15324524 0.080105424 -0.37000853 -0.13472117 0.14188205 0.092186466 -0.3223859 -0.2869084 -0.5542417 0.19368418 -0.2651777 0.099686906 -0.8994328 0.21852194 0.28124693 0.27043 -0.601118 -0.359189 0.26723742 0.51495534 -0.2482504 0.07451743 -0.12986828 -0.011432266 0.08024924 0.109010816 -0.80505204 -0.75373983 0.4596232 -0.10951318 -0.4437299 0.39110607 -0.1578236 -0.893496 0.3548762 -0.30890483 -0.60614896 0.27591878 0.11267122 -0.33098087 0.05028344 -0.09172383 -0.31769925 0.29546002 0.13555032 -0.19646674 0.4348889 -0.3071096 -0.26721683 -0.121830225 -0.5558134 0.031215992 -0.5969275 0.47438866 0.33476013 0.00727455 0.11179776 0.14891268 -0.24111654 -0.44514728 0.33060464 -0.50652975 0.26260772 0.018795526 -0.2883319 -0.1417004 0.63088894 -0.40048262 0.08550602 -0.44681215 0.0039710845 -0.27730936 0.2980499 0.30960777 -0.37280852 -0.030482115 -0.51892513 -0.47325084 0.11870949 -0.040835753 0.33416063 -0.04017507 -0.13693142 -0.25301751 -0.076687254 -0.024196096 0.20324232 0.0686061 0.7341619 -0.16612111 -0.05511763 -0.062117677 -0.6475415 -0.25859544 -0.03254731 0.036508948 -0.09058091 -0.20944533 -0.1233219 -0.15927112 0.7037378 -0.0888357 -0.19620962
32 -0.70370233 0.051766116 -0.36237928 0.50613344 0.0010117955 -0.04769349 0.20711908 -0.20864668 0.15515913 0.38784567 -0.36698967 0.20663401 -0.011021314 -0.03985605 -0.27379584 -0.070140526 0.23282549 0.71609926 -0.2627231 0.21978283 -0.4885286 0.085785575 -0.30962142 0.289293 0.47184494 -0.23615359 -0.12281131 0.44848448 0.08570938 -0.18494825 -0.28338996 0.39884132 0.2632432 0.5974758 -0.17705883 0.718215 -0.13175817 0.5595566 -0.5037869 0.0031125068 0.09789181 0.28919566 -0.057801872 -0.03886661 -0.08831645 0.20579661 -0.4030417 -0.13645084 0.23172736 -0.14137278 0.34074432 0.4849406 0.102869965 0.1747858 0.6092868 0.6719357 -0.9373492 -0.2300511 -0.08091546 -0.26299238 -0.015279902 -0.1420824 0.7010559 -0.49064222 -0.6988295 -0.31545123 0.19603899 -0.4750243 0.7175119 -0.49149996 0.09463536 0.092409976 -0.8966387 -0.11524913 -0.11634015 0.44678083 0.074140556 0.59536797 -0.1518687 0.5453374 -0.3823678 0.25624883 -0.34921238 0.43246046 0.38481712 -0.48412767 -0.21673137 0.56027913 0.1170182 -0.2539989 0.07014814 0.060321137 -0.062119376 -0.09518097 0.08387085 0.30991897 0.5066937 0.9025867 0.43952882 -0.26832438 0.52031404 0.096472755 0.3049788 -0.37516388 -0.2600351 -0.6921366 -0.5672607 0.23573089 0.042071093 -0.3695606 0.19498624 -0.43107286 0.8083313 -0.5525115 0.033108704 0.11240885 0.09055417 0.18306924 0.34597492 0.44848165 0.039921284 0.90763426 -0.049392242 0.40874735 0.061458953 -1.0312642 0.32391384 0.35937923
39 -0.6859444 0.047669742 -0.35973036 0.60171336 0.012372232 -0.05746973 0.19738941 -0.14938176 0.09862832 0.44380042 -0.35613027 0.24281166 0.13332292 0.014334335 -0.28701606 -0.09284162 0.31560692 0.73023546 -0.15062337 0.21390313 -0.47883174 0.1322256 -0.36281604 0.27684268 0.42548585 -0.22530153 0.008238011 0.34263012 0.09574411 -0.101767674 -0.26502442 0.48501357 0.26445946 0.5535728 -0.29610616 0.727935 -0.06707612 0.57284373 -0.46040684 0.08475806 0.08187266 0.20173986 -0.04811657 -0.16682081 -0.011893821 0.22279336 -0.3227358 -0.14360572 0.34166422 -0.20346104 0.33001488 0.4687527 0.17462045 0.25889584 0.7414653 0.64278513 -1.0401258 -0.2036389 -0.15105283 -0.19422662 -0.04360607 -0.24683511 0.7429793 -0.49662793 -0.7350548 -0.19707693 0.15266895 -0.4526728 0.7686034 -0.43846992 0.014172428 0.20026325 -1.0431458 -0.05165486 -0.110833 0.45601204 0.15357746 0.63300765 -0.10549202 0.5194829 -0.430166 0.266489 -0.502667 0.49178556 0.29517418 -0.55923873 -0.20659348 0.62509984 0.109938234 -0.40365258 0.039843045 0.049298402 -0.027765822 0.0077295466 0.08486254 0.395484 0.48545897 0.97059613 0.4388913 -0.26791418 0.55975354 0.14604382 0.23254637 -0.3432743 -0.26149434 -0.7163786 -0.48313466 0.18876149 0.019992527 -0.41634217 0.28746453 -0.42079455 0.9374295 -0.6245848 0.051974915 0.065242715 0.10764529 0.10156206 0.30983925 0.4659141 0.03732807 0.9444922 -0.10538138 0.42430085 0.0093538705 -1.1067677 0.26892057 0.37975258
129 0.8956099 0.03242666 -0.15862757 0.005710853 0.27700505 0.19595265 -0.39731082 0.44340482 -0.21882868 -0.26508972 0.16814458 0.03824646 0.83576024 0.4400803 0.16728024 0.1990195 0.037656184 -0.6825216 0.5926924 -0.230353 0.9775775 -0.04246641 0.56820995 -0.4690463 -0.038295615 0.014200382 0.2812552 -0.59229714 -0.43500456 0.42387906 0.15600605 -0.26963955 0.12266648 -0.5907569 -0.13277854 -0.36362746 0.35521397 -0.7202651 0.30015528 0.0035892124 0.16213092 -0.7718514 0.23290063 -0.5567254 0.4675599 0.1696586 0.15798537 -0.26055655 0.34738022 -0.2575999 -0.0023780589 -1.2071583 -0.39955455 0.04632569 -0.19514029 -0.9334174 0.42131928 0.111706965 -0.54492384 0.3042742 -0.044053286 -0.58436435 0.11502433 0.42919978 0.49481598 0.7556928 -0.09227555 -0.1883848 0.03579225 0.3902825 -0.3943444 0.43151474 -0.1919846 -0.043047857 -0.0341323 -0.35869178 -0.042827446 -0.8472655 0.26107174 -0.037040092 -0.1161916 -0.124653645 -0.45860928 -0.15756969 -0.44974145 0.06410889 -0.39634702 -0.0080336705 0.35894907 -0.41905838 -0.07429989 -0.33977613 0.08126311 0.33443603 -0.47726268 0.22034381 -0.2506266 0.083704196 -0.23658088 -0.23990981 0.12106084 0.044806853 -0.9161017 0.53222895 0.24293736 0.6697355 0.1439389 -0.20628498 -0.21146947 0.100371264 0.0914975 0.07640954 0.4763531 0.9726819 -0.034037534 -0.046179406 -0.35096166 -0.6715768 -0.27914584 0.16413303 0.688797 -0.3650767 -0.03721846 -0.3080371 -0.41415113 0.275306 -0.78369266 0.22864266
87 0.15335076 -0.066440634 0.17370583 0.25435817 -0.42898223 0.13695514 -0.37796432 -0.067959815 0.18280214 -0.18315636 -0.024588145 -0.15369335 -0.15553138 0.09259022 0.19470404 0.13667284 0.17081429 0.57828027 -0.28395227 -0.09732328 -0.08045879 -0.30655634 0.4659885 -0.33867028 -0.040954527 -0.20877963 -0.019831514 -0.08408256 -0.14224562 0.1924612 -0.22854985 -0.27951422 -0.34017208 0.63842726 -0.051605325 0.18541989 -0.024775216 0.08289344 -0.049958862 -0.5030622 -0.14126511 0.02683164 0.7656649 0.075138226 -0.36310506 0.3323254 -0.004334563 -0.2658121 -0.19573511 0.16147405 -0.032177 -0.7728521 -0.15536983 -0.39776385 -0.7281172 -0.48076907 0.5629583 0.6067948 -0.109273 -0.05739795 0.3466465 0.34548473 -0.19003758 0.2330472 0.43213344 -0.27722836 -0.05327289 0.44367117 0.0038402018 -0.35816947 0.3785306 -0.3730635 0.3002604 0.40794832 -0.058672324 -0.026821509 0.0515797 -0.3236122 0.2902318 -0.2394988 0.11058294 -0.06474202 0.20807059 -0.095533736 -0.4053716 0.21485063 -0.061369054 -0.038328607 0.31238756 -0.28435987 0.21439885 0.074852236 0.19036785 -0.6068215 -0.010130582 -0.22394742 0.34866795 0.035819508 -0.26052576 0.35084003 -0.25074884 0.24551126 -0.29732886 0.2921934 -0.28560656 -0.40010944 -0.28327334 -0.021935934 -0.46270356 0.19206156 -0.49817604 0.32293853 -0.26762748 0.44487488 0.01903804 0.29545856 -0.08053374 0.09738524 0.22965987 0.2268817 0.16969018 -0.2191079 -0.0207366 -0.29998374 -0.21905175 0.29089344 -0.36016816 0.2024515
182 0.054718405 0.38922727 -0.3594047 -0.06118525 -0.19338128 0.2072503 -0.19659078 -0.046445556 -0.34879598 -0.3181097 -0.33525193 -0.08641634 0.13680436 0.08514783 -0.28218192 0.110627726 0.6185611 -0.09442156 -0.25530353 0.537606 0.23583788 -0.50393736 0.29179993 -0.11518177 0.0024667503 -0.50643474 0.028335717 0.2707468 0.13231015 0.37783927 -0.30944106 -0.057258993 0.117460914 -0.1534156 0.36781153 0.19411963 -0.36236188 -0.50056684 -0.32381058 0.053387504 0.2543524 -0.61714774 0.23607755 -0.36989716 0.30911496 0.7328943 -0.20858897 -0.2785721 0.5786311 -0.00031136372 0.7259113 -0.7794981 -0.6803997 0.048927095 -0.16560213 -0.17480399 0.07152431 0.4555454 -0.23281503 -0.15770547 0.2149548 0.026318992 0.32279515 -0.16271739 0.014077337 -0.26277423 -0.13346452 -0.59985083 0.21037392 -0.10768669 -0.12036714 0.38358337 -0.959371 0.45870414 -0.42810816 0.32384324 -0.006594802 -0.4099122 0.38790792 0.067319565 -0.51414466 0.21373959 -0.27249736 0.14416385 0.16332231 0.7554007 -0.59362733 -0.033735014 0.8782843 -0.4683282 0.29689798 0.1625629 -0.64426756 -0.13807641 -0.34794486 0.16649091 -0.2759965 0.009699818 0.1794727 0.10568076 0.15245458 -0.1802067 -0.2235786 -0.48965016 -0.33426484 0.20097734 -0.41603267 0.09553115 -0.18856964 -0.1632497 -0.2526408 0.336722 0.18388584 0.7473367 0.036361977 -0.03362333 0.031567916 -0.32068598 0.22213084 0.27231646 0.31138173 -0.40390313 0.594187 -0.22858976 -0.31089845 -0.21093623 0.2766352 0.6825849
17 0.40058243 -0.067089446 0.10190114 -0.48270193 0.22017045 0.18606228 -0.34653333 -0.3751839 0.0023060502 -0.22437584 0.0961453 0.07161821 -0.15944149 -0.19928311 0.0121942945 0.19675635 0.13739339 0.0460009 -0.045189228 0.12820399 0.34721452 -0.31726205 0.42673075 -0.5443238 -0.12044894 -0.00091542443 -0.06133006 0.089067735 0.054724995 0.016291039 -0.190406 -0.37223566 -0.33093888 0.16365476 0.4872147 -0.025798496 -0.23444785 -0.31353125 -0.03522946 -0.5133937 -0.02111511 -0.10495237 0.15142599 0.5355909 -0.2573917 -0.25484407 -0.20021483 -0.14954628 -0.4159688 0.69715345 0.09831697 -0.78819126 -0.70097977 0.0066077663 -0.8157765 -0.55945724 0.95941186 0.4976205 -0.4707963 -0.019787421 0.08455715 -0.16056553 -0.09881988 0.15554142 0.16887346 -0.61041135 -0.31733507 0.0062272577 0.20153427 -0.4478686 0.33450097 -0.2558496 0.39038983 0.19615142 -0.106768884 -0.2541507 -0.13702081 -0.6338762 0.43778 0.14943749 -0.0050251465 -0.19021736 0.6036641 -0.07580508 -0.4101274 0.45993817 -0.52564293 0.17009611 0.33837882 -0.016507272 -0.15450391 0.6053884 -0.19353838 -0.53509367 -0.19113325 -0.58518445 0.35492152 0.36040545 0.27787736 -0.051921442 -0.23835233 -0.29912823 -0.26430997 0.46397403 -0.48020118 -0.2788294 -0.24452454 0.0031085256 -0.35275647 0.053479802 -0.6252063 0.3974375 -0.49922004 0.74489355 -0.21899465 0.43866858 -0.02663004 -0.22966374 0.084668115 0.090540424 0.082502216 0.015841134 -0.096740626 -0.42602602 -0.043665648 0.74523544 -0.26637903 -0.12892944
64 -0.41785932 0.019166224 -0.3255196 0.62663275 -0.14877279 0.054830518 0.060935125 -0.18236895 0.13111672 0.35798708 -0.4004127 0.21353176 -0.0018277391 0.13505843 -0.12086259 -0.13419476 0.3769989 0.94215477 -0.31275752 0.20812275 -0.5861614 -0.021979125 -0.29327956 0.1551385 0.25794122 -0.28148445 0.014105547 0.39978483 0.09679191 -0.028683674 -0.33267802 0.41215694 0.16791816 0.6204357 -0.24057822 0.66243553 -0.092466764 0.5167903 -0.5113939 -0.080154434 -0.02344059 0.11782939 0.23331225 -0.31305334 -0.085712254 0.4026776 -0.36437318 -0.24255265 0.34804532 -0.16724017 0.3876217 0.058756273 0.10965701 0.16964628 0.5085004 0.3631795 -0.81917554 0.07396168 -0.013072075 -0.15774757 0.107527874 -0.21902265 0.63742554 -0.43071344 -0.59903324 -0.12962528 0.0568165 -0.30200666 0.78206384 -0.52226883 0.06709988 0.119554326 -1.0029445 0.23564136 0.0063447147 0.42797357 0.14603877 0.60984004 -0.018212806 0.36899972 -0.46326944 0.1376285 -0.6120972 0.46649462 0.072914585 -0.445887 -0.18774869 0.65207016 0.41173303 -0.5116025 0.10289267 0.14553617 0.033585742 -0.20972261 0.059577398 0.35469463 0.5414911 1.0264523 0.3723647 -0.06608207 0.34052867 0.13961524 0.01119589 -0.21060054 -0.28845292 -0.6773692 -0.5788872 0.11908402 -0.06626105 -0.40306947 0.0746013 -0.1291942 0.78646135 -0.44159138 -0.031314302 0.09041686 0.15791993 0.08467196 0.21932061 0.47761697 0.08462835 0.76030326 -0.08872499 0.30733392 -0.007601842 -0.962649 0.1654331 0.39346075
196 0.21429804 0.183145 0.32742494 -0.14242315 0.0058117067 0.105272196 -0.36742535 0.044631843 -0.05447439 0.019447442 0.21849547 0.21844627 0.17035167 0.091714315 -0.30111736 -0.14785066 0.345358 -0.18837847 0.3217905 0.3331458 0.005710654 -0.35771406 -0.0734584 -0.6195414 -0.39375156 0.06395769 0.40368307 -0.030119589 0.3120148 0.28607872 0.085359134 0.3058068 -0.25143188 -0.06562746 0.0154329995 -0.08687827 -0.26642013 -0.14400339 0.04002241 0.10171712 -0.2285084 -0.021400781 -0.15411302 0.19570565 0.025496406 -0.3126988 0.19917466 0.08993082 0.10162455 0.65863484 0.056880683 -0.29629332 -0.33588913 0.452411 0.02047798 -0.16416278 0.22669238 0.3695488 -0.62500477 -0.051889148 -0.043797616 -0.5758577 -0.035854943 -0.2820746 -0.42543274 -0.5721075 -0.7023726 -0.24052249 0.5830264 -0.27426887 0.122605 0.31656682 -0.28130913 0.6450531 -0.20027651 0.036418673 0.26730284 -0.17027132 0.5724267 0.15695345 -0.07633073 0.20752808 0.10654139 0.11317224 -0.85877556 0.6347686 -0.39734164 0.43399906 0.34255037 -0.51613975 -0.29329827 0.9235074 -0.19388576 0.04635996 -0.026194926 -0.1351745 0.22982612 0.75590986 0.4947779 0.10701574 -0.03717137 -0.3167001 -0.15930238 0.3699251 -0.9209794 -0.46467513 0.29219538 -0.23244432 -0.35189494 -0.39909276 -0.3981568 0.3404512 -0.19762915 0.13042337 -0.09859456 0.43271703 -0.031371497 -0.6941584 0.18008852 0.31732026 -0.4776796 -0.03613987 -0.2791145 -0.40344894 -0.09353223 0.08526233 0.057872552 0.13160348
25 0.027761586 -0.09772772 0.14065108 -0.09149947 0.25959 -0.0024642623 -0.28099287 -0.5662049 -0.02758772 -0.20068751 0.25054517 0.13191567 -0.2836312 -0.5112817 0.1854435 0.23147944 -0.014086931 0.6361159 0.015102966 -0.38634515 0.2874791 0.383317 0.47620848 -0.17695647 0.0892645 0.4084556 -0.12021185 -0.12888843 -0.05426176 -0.018580336 -0.23145474 -0.5664651 -0.377074 0.61387753 0.23420891 0.105257474 0.17016943 0.4094255 0.32851952 -0.701113 0.10566913 0.16119799 0.14376931 0.9400065 -0.6868728 -0.25432155 -0.0033831252 -0.22635606 -0.948803 0.54260856 -0.37970856 0.13156915 -0.110613786 -0.24027851 -0.78607845 -0.32115155 0.96897215 0.3050142 -0.30279112 0.069666356 -0.025426203 0.41116238 -0.2763319 0.52292025 0.7441732 -0.3565756 0.16155213 0.81052387 -0.31080797 -0.38589948 0.5612901 -0.8998479 1.4840331 -0.44984674 -0.019951481 -0.2131272 -0.40541837 -0.7557968 0.13643894 0.1625968 0.29766154 -0.14278622 1.0772545 0.11751839 -0.21931957 -0.4625725 -0.053675547 -0.059967894 -0.6768617 0.27571157 -0.15246665 -0.06542243 0.33498728 -0.42929533 -0.021978356 -0.8201512 0.5852458 -0.2600323 -0.4534064 -0.20992221 -0.22480753 0.41340822 0.16083819 0.929577 -0.21331403 -0.64286625 0.03275438 0.13709296 -0.39360198 0.38645974 -0.1618773 -0.2388923 -0.29391253 0.2268034 -0.15853748 0.6000089 -0.2525398 0.32726884 0.3817507 -0.13611265 0.3358597 0.57836604 -0.077892676 -0.1381786 -0.056881454 0.77592343 -0.8956865 -0.60023636
89 0.3613738 0.062825866 0.1035853 -0.08740979 -0.00261883 0.19399069 -0.33546832 -0.31522012 0.062092125 -0.3754878 0.13862316 0.060140003 -0.16803855 -0.36579013 0.2395291 0.29919332 -0.062193383 0.1516364 -0.23630826 -0.4426571 0.41871813 -0.12770812 0.6706209 -0.393251 0.044638168 0.24393015 -0.33149183 -0.08388697 -0.2587125 0.11823144 -0.14079325 -0.66898507 -0.36390683 0.483283 0.2595748 -0.10719447 0.052737165 -0.100834854 0.18646309 -0.79670495 0.023583319 -0.14966744 0.48792315 0.68360233 -0.64936244 0.19310562 0.0573097 -0.33628315 -0.69013995 0.2910041 -0.3450322 -0.4311381 -0.39242974 -0.46317267 -0.91071254 -0.58360285 0.9449399 0.3293614 -0.20846868 -0.14389142 0.2204125 0.49450898 -0.3364117 0.44072145 0.8181465 -0.15094106 0.025106294 0.52502126 -0.2759123 -0.16953738 0.49455917 -0.6895793 1.2412763 -0.15555054 -0.0717356 -0.15793173 -0.46343014 -0.9166803 0.22561644 0.014165395 0.34020618 0.019507304 0.7383103 -0.28836325 -0.20420833 0.08859055 -0.19814976 -0.22672074 -0.3280379 0.27232274 0.060232 -0.18662067 0.24468695 -0.47026482 -0.10453585 -0.51919764 0.2556197 -0.40065873 -0.47524157 -0.07044163 -0.31533152 0.23902917 -0.108450495 0.67961085 -0.14676526 -0.1678588 -0.14095677 0.023695149 -0.42826727 0.42290586 -0.4075549 -0.17333779 -0.3901456 0.5404913 -0.131471 0.49552312 -0.33721095 0.101053484 0.2417042 -0.1335008 0.6030907 -0.015688354 0.11668653 -0.4054112 -0.2435157 0.67858917 -0.770746 -0.3609887
28 0.40627825 0.079335645 0.44171855 -0.0855761 -0.30727085 0.14899065 -0.5299216 -0.09418447 0.3472024 -0.5704969 0.47325814 0.019442048 -0.27325153 -0.055455517 0.27096683 0.1166316 -0.33252203 0.15824118 -0.25290385 -0.44138297 0.3741231 -0.0063680806 0.8514716 -0.70193607 -0.03474327 0.372362 -0.21477269 -0.31024462 -0.22971766 0.23075563 0.06633637 -0.63867426 -0.48424113 0.49099442 0.1858969 -0.24064277 0.010602106 0.00036556827 0.3514668 -0.5966366 -0.021300271 0.14919293 0.39601827 0.7963999 -0.6756144 0.1601374 0.538692 -0.14681378 -0.84378743 0.3398148 -0.5626691 -0.5450379 -0.24847785 -0.35683542 -0.96956694 -0.40930453 1.0749706 0.13129823 -0.33083108 -0.11520044 0.051729824 0.40899542 -0.56378555 0.43223345 0.80078006 -0.17469472 0.07367075 0.6388452 -0.18428077 -0.23115335 0.5889855 -0.783029 1.5337653 -0.24775824 -0.05256685 -0.14061876 -0.43694457 -0.9380591 0.09024696 -0.05901089 0.6649337 0.1948516 0.80282056 -0.4715583 -0.42560664 0.15031038 0.17334431 -0.21668322 -0.34796 0.24378854 0.009073584 -0.17840317 0.40461248 -0.48851174 -0.0022964703 -0.56323695 0.13264738 -0.40023938 -0.73069346 0.07243166 -0.3475878 0.34374604 0.023424424 0.7095941 -0.1752066 -0.0923967 0.16312678 -0.056034073 -0.60096097 0.2684543 -0.6166934 -0.16995427 -0.52817935 0.45043916 -0.07759336 0.6329825 -0.6903301 -0.06995323 0.54995865 0.14345302 0.32164106 -0.32397068 -0.11166547 -0.47545362 -0.14817047 0.66696775 -0.6429087 -0.32973757
