415 128
65 0.134587 0.39892077 0.11412641 -1.0816457 -0.15073809 0.39612287 -0.80517113 -1.7231038 -0.22291976 -0.8836258 0.5744518 0.69013846 -0.19636905 0.3544401 0.2470705 -1.2106837 0.35430261 1.1311244 -1.028154 2.1086082 -1.2315124 0.031802785 -0.47695288 -0.95789886 -0.075156815 1.3801928 -0.8335232 0.24242897 -0.28537464 1.9913427 0.8245363 1.1502904 -0.44509694 1.0756693 0.6038328 1.0649238 0.9412393 1.1058387 -1.0469203 -0.19428991 0.431884 -0.5707769 0.33920473 1.469529 -1.2317572 -0.6635675 1.5943595 -0.9791958 -1.2795354 -0.68160105 0.5331095 -0.53803855 -0.07229298 0.1490839 -0.29253507 1.138595 -0.038960617 1.0899348 -0.67208314 0.8835012 0.5734373 -0.10169961 -0.1656279 0.54320663 -0.47951478 -0.82958746 0.036656056 0.68031377 0.5349643 -0.09390177 0.2833395 0.92710984 1.1650634 1.4629387 -0.03128056 0.7118312 -1.1200675 -0.3773954 -0.08562443 1.994312 -0.5541389 1.250424 -0.43688342 0.1846808 0.46270075 -0.31304264 1.1223723 -0.8485554 1.0846152 -1.0044376 -0.8959569 -0.9494306 0.11148304 0.08237572 -1.1783671 0.46584338 0.05332196 -0.35127524 -1.2928008 -0.027711602 0.009334376 -0.3325932 1.0788745 0.2928896 -0.1761605 -1.3313177 -0.074966565 0.56835973 1.1069915 -0.0885041 -0.7345432 -1.1622144 0.31680462 -0.47097078 0.30030635 0.5014929 -1.1987375 -1.2000085 1.3241689 -0.22315373 0.2074932 0.5697204 0.4238684 0.045312434 0.9706413 0.8469472 -0.17823121 0.48516795
76 -0.0796798 -0.30586487 0.36719796 0.17957567 0.11249864 -1.3101617 -0.08170581 0.48635983 -0.26002052 0.7720729 -0.5513014 0.60458106 1.4842976 0.48552972 -1.1642275 0.33246297 0.47777635 0.79824716 0.4782736 -0.29721394 1.2643448 -0.1340452 1.9955958 0.02245173 -0.5019607 0.8850292 -1.3402017 -0.6046716 0.4068561 -1.2507477 1.5893123 -1.1952262 1.0348735 0.14422503 -0.8432436 0.9962789 1.6271682 0.74872667 0.44815412 0.61542803 -0.7381906 -0.12753217 1.5773013 1.3049887 0.09367954 0.06597776 -0.24824928 -0.28856432 0.5856132 -0.92333674 -0.2090509 -0.40490547 -0.83760333 -1.453775 -0.7448278 0.029253725 -0.21448295 -0.4991656 -0.00494768 0.44827786 0.40104637 1.6569248 -0.937835 0.33921164 -0.75565845 -0.53651273 -0.1830914 1.6645293 -1.6448797 -0.39533508 0.798535 -0.26192278 0.9039216 -1.1713128 0.08989011 -0.70675904 0.46671996 0.4564064 -0.6935775 -0.01160509 0.29082727 0.8565058 0.19683664 -1.4726146 0.019292047 -0.5874187 0.6321214 0.3729995 -0.17261069 0.72905874 -0.1684524 -0.80733526 -0.5699784 -0.6358904 0.22370966 -0.85595226 0.41558078 0.18648867 0.33703935 1.0497494 -0.25798827 -0.07783285 1.2397192 0.40459007 0.27317196 -0.9645268 0.65352714 0.32606712 -0.74696535 0.770127 -0.22345148 -0.523674 0.5233047 0.36605558 1.1847918 -0.48317456 -1.4824512 1.5971569 -0.20507479 -1.349212 0.31508884 -0.23427163 0.696943 0.83895284 -1.0068724 -1.2865481 1.4909774 0.3236716
394 -0.9845346 0.26945648 -1.1121577 0.7304227 0.44462714 -1.1212164 -0.6197309 1.004655 -0.63255894 0.8437026 -0.22873525 -0.7120454 -1.3805636 -0.52471006 -1.3118026 -0.6526139 0.014785488 -1.2833562 -1.1468449 -0.76829064 0.25839746 0.7294781 -1.8042543 -1.5548817 -0.480428 -0.5278012 -0.276761 -0.9929155 -0.064218715 -0.1632868 0.6447793 0.6250165 0.08090921 -0.73011065 0.41099572 -1.511726 0.09934584 0.5143298 -0.02439617 -2.0426774 -0.9142465 1.2435229 -0.84463435 0.39977908 2.415389 0.3050234 0.3197172 1.7486262 -0.19162744 0.8789455 -2.0814455 -0.3323944 0.4855209 -0.22742218 -0.45422634 0.9545556 -0.21710083 0.81245613 -0.37068167 -1.5157093 0.22368188 0.043462507 1.3055762 -0.45478845 -0.28573972 0.026626477 0.03637567 -0.21662724 0.9872377 -0.941277 0.24450144 0.051940873 -0.331323 -0.2309466 1.1467475 -0.24701752 0.81416506 -0.2661913 0.65878516 -0.20588802 0.5026705 -0.8022183 1.6241667 0.57748467 -1.295588 0.39493486 -1.0217152 1.1559845 0.030259542 1.3020777 0.55873 -1.9220638 -1.2172904 -0.018175015 -0.17256281 -1.4030571 -0.5830589 -0.81945777 -1.1541088 -0.049389366 -1.152281 0.9176603 0.3546458 -0.27607498 -0.94517994 0.4136804 -0.16852818 -0.96400094 -0.66886055 -0.77856094 0.19699238 -0.6309847 0.49560058 -0.042933524 -0.54007316 -0.7023416 0.36837518 0.77540606 -0.056762 0.55548775 -0.24192534 1.3877014 -0.99847585 -0.49833483 2.1276112 -1.4039699 -0.5324927 0.6351865
42 -0.927191 0.62433565 -0.6541761 0.71317774 -0.15643051 -0.6564413 -0.5206203 1.6040256 0.3837732 0.38032484 -0.672182 0.86822385 0.41314888 -0.97353965 -0.477903 0.50995094 0.5735994 0.97388715 -1.7626384 1.0679789 -0.5509838 0.028432429 0.68038344 -0.3912153 0.28328565 -0.59421194 -0.6632197 0.33463997 0.3409141 0.78625864 0.12074324 -2.044037 -0.44308782 -0.63341683 0.032164726 2.1432936 -0.53245634 0.06319886 0.28766644 0.74737054 0.14421408 0.26588652 -0.085732654 -0.9557433 1.6343173 -0.011704625 -0.9234275 0.17205568 -0.9001119 1.1190673 -0.9217029 -0.49812645 -0.6399356 -1.4942244 -0.07682555 -0.08759571 -0.23102179 0.29542097 -0.11174735 -0.083972976 0.7148287 0.70058835 -0.098121665 -0.4867418 -0.48998514 0.34966534 0.10334137 1.6312677 -0.2134002 -0.5628113 0.48473835 1.4722129 -0.13481306 0.09152086 -0.108470194 -0.37587386 -0.25691548 -0.040894154 -0.51646477 -0.053924527 0.01855263 -0.24225289 -0.049094677 0.41727328 0.22471896 1.1874393 -0.18355277 -0.22422269 1.5778689 0.54492503 1.4064335 0.13920985 0.6554473 -0.088289 0.6552122 -0.23218532 1.6708347 -0.17564628 0.23878305 -0.6735174 -0.615369 -0.05544504 0.644297 0.5013311 -0.20861664 1.6910435 1.8582771 1.5499647 -0.36137876 0.11559436 -1.3433145 -0.23589532 1.3713468 -0.41159222 0.78492624 -0.3467728 -0.12169549 -0.15801653 0.6538841 -0.15206333 0.3829508 0.012690335 2.3704522 0.4451255 -1.141456 -0.81677836 0.6603749 0.6161242
206 1.095366 0.3757707 1.9556164 1.4539504 0.12560435 0.54138607 0.45654413 -0.8353407 0.9876748 0.25558007 -0.999878 0.59448206 -0.81287646 -0.09863619 1.1331704 -0.50416696 -0.4846739 0.12934338 -0.35752702 1.0239068 0.5030314 0.56683564 -0.12638392 1.8365803 -0.2885438 -0.09973543 0.2050132 0.13038373 1.8239521 -1.400451 -0.25455707 1.2911638 -0.6152323 -0.3937585 -0.4846612 1.5124811 -0.86837196 0.1626321 -0.547592 -1.3466496 -0.5427712 0.765845 -0.16450463 1.1168531 -0.20432253 -0.036931805 -0.4687138 1.1134648 0.1285699 0.11793397 0.2833199 0.27280217 0.59457123 0.7083183 1.5448867 1.3402144 -0.0016397311 1.2395005 -1.1653 0.8000181 -0.45442736 1.3544128 -1.4949795 0.4360062 1.1230485 -0.11123865 0.26680502 -1.3754102 -0.022172663 0.00869856 1.1195271 -1.5705287 -0.86029875 0.17326109 -2.0975657 -0.31550032 -1.1143903 -0.7903368 -0.90822154 0.39537823 1.4314663 -1.5401549 0.18056466 0.48730063 0.6189951 0.97787994 -0.1748586 0.6485566 -0.04415452 -1.0248046 1.0407789 -0.43045646 0.45661235 0.38289824 -0.5234115 0.39196315 -0.7813075 1.9367583 -1.1906507 1.1406198 -1.2976097 0.17770255 -0.06733831 -0.20481543 -0.91950333 0.03980208 -1.0819285 0.43975464 -1.4249101 -0.5471295 0.45605865 -1.0724771 0.52807283 0.3874038 0.2547072 0.36141047 0.4849834 0.32972923 0.2085107 1.2824349 0.277027 0.95818233 0.69623846 -1.1364745 -0.70574236 -0.064255744 -0.4254496 0.18838707
237 0.27722326 0.51715964 0.07938928 -1.2764909 -1.1185073 0.4400164 0.054285068 -0.13586678 -0.06349562 0.49513647 -0.94396746 1.0026702 0.49179605 -0.6572124 0.4419648 -1.2011125 -1.2169936 0.0014257737 -0.45701206 -0.38010055 -0.3868223 1.1226444 -1.0089786 -0.57904714 -0.95690787 -0.35996878 -1.4976608 -1.4603703 -0.9323599 0.6191686 -1.190117 -1.2329432 -0.4770897 -0.33272472 1.6043916 0.23022138 -0.055939425 -0.64844143 1.0585092 0.5295197 1.0528736 -0.5237926 1.0555083 -1.4721986 0.2840653 -0.1516631 -0.37768075 -0.32852623 0.5556772 0.5846999 0.7490923 -0.34137365 1.5024064 -0.89748406 1.3707807 -0.16883689 0.74602884 -1.0299208 -0.49706468 0.450897 -2.1441033 1.5140523 -1.5605973 0.22586307 0.34702906 0.14433305 0.379025 -0.9290476 -1.1447984 0.74158823 -1.0264803 -0.59758085 0.41530836 -0.13494489 -0.1633895 -1.8723227 -0.7489153 -0.3851865 -0.16948065 1.7029717 0.8597263 0.36771426 -1.3978708 0.043366596 0.06180304 0.70778483 -0.7537638 -0.35056606 0.8713675 0.85540813 0.027728295 -2.3452566 -0.7377522 0.44896722 0.31092498 0.5019755 0.30414292 -2.5836644 0.6692396 0.2762933 1.7752006 0.6038828 -0.5235062 1.2821522 -0.62888676 0.59363633 -0.6254139 -0.94487333 -0.53554225 -0.60728365 0.42166477 0.10749276 -0.4905754 -0.19435136 -0.016548783 -0.31561044 0.998029 0.57176095 -0.28885692 1.7302986 -1.1505265 -0.8033566 -0.6310606 -0.23069556 -0.55457366 -0.42784902 1.2225581 -0.9170482
26 -0.060961474 0.6948584 0.049015403 -0.37655112 0.41857436 0.83594245 -0.8562486 -1.6714071 -0.16095646 -0.4770249 1.0323663 0.6733555 -0.044999126 0.20237616 -0.11779229 -1.7673106 -0.46182135 0.011098365 -1.0889888 0.6781583 -0.4405846 0.2946169 -0.32965675 -0.95323354 0.07971353 1.7468717 -0.82753146 0.9935287 0.24043566 0.35953042 0.6617385 -0.49693936 -1.1926063 0.18106416 1.078708 0.93750745 1.6771758 -0.2708441 0.094508715 -0.23261571 1.8007897 -0.45388213 -0.2786195 0.08947356 -0.14200197 -0.71948874 1.5825387 -1.809533 -1.1501465 0.600306 0.38551897 -0.44710562 -0.3552654 -0.24746862 -0.8243672 0.34355992 0.3895913 1.1247088 -1.2644539 0.14898044 -0.10062892 0.43967304 0.62633806 0.28168455 -0.12596647 -0.9699741 -0.6247448 1.2318584 0.5706383 0.21976858 0.4663216 0.031916503 -0.16806942 -0.031319056 -1.1294997 -0.24655293 -1.47716 0.26810148 0.32913888 0.9956179 0.6332618 -0.072405785 -0.51140517 0.041229066 0.4009008 -0.22518642 1.5184402 -0.30387416 0.8565452 0.25183776 -0.7013076 -0.20518407 0.745632 -1.2726128 -0.033504367 -0.14426883 -0.100473754 -0.26692197 -1.9899801 -0.46750873 -0.61265427 0.09733844 -0.2651753 0.1402274 -0.6798094 -0.9803776 -1.0837766 -0.20817114 -0.24624649 0.38240063 -0.36899093 -0.86371225 -0.20380622 -0.23519348 -0.14841856 0.053193107 -0.039110187 -0.81271106 -0.3189766 -0.31471837 -0.998906 0.9706235 0.4862535 -0.24613585 0.31220886 0.072644785 -0.08037615 0.9374731
183 0.6494771 -0.23974432 0.5915466 -0.88760936 -0.8609741 0.89070517 0.06688301 0.06390813 -0.66680336 0.67686874 -0.31755382 -0.41552508 -0.12199614 -0.27950487 0.57518953 0.33964974 -0.61275506 -0.2041509 -0.41132686 -1.1510347 -0.3261008 0.8666149 0.100783445 0.19573817 -0.26122397 -1.1937904 -1.4227532 -0.61836785 -0.9820621 1.1033512 -0.28222522 -1.0620161 -0.7781529 0.35713464 1.6196355 0.8859104 0.19475044 -1.0217577 0.57985914 0.1983185 0.08224813 -0.51358414 1.1250985 -0.45551357 -0.9298328 -1.0447851 0.8959453 -0.6779299 0.31801018 0.3115282 0.00939365 -0.054393347 0.579794 -1.1285342 -0.9035693 -2.2409647 1.1653354 -0.46836072 -0.37092602 -0.8146346 -0.87443984 1.0867268 -0.6601591 -0.31873515 0.9915041 0.40899852 -0.18491161 -0.8005609 -1.53547 -0.9423959 -0.073465385 -0.75036174 0.46177068 0.29137412 0.8398296 -1.5921489 -0.8262098 -0.7232254 0.0059873215 0.8382959 0.8280331 2.091728 1.0905551 0.016761666 -0.01755361 0.05505055 -1.5855048 0.14591122 1.2189819 0.24868853 0.5878532 -1.2027875 -0.24543643 0.71787214 -0.21624835 2.2714434 1.0455025 -1.7030752 1.8621354 0.49449232 1.1811882 0.5981747 0.37158406 0.035010837 -0.68939394 0.498236 -1.5603689 -1.0890305 -1.4339964 -0.702363 -0.44767317 0.09591227 0.17076449 1.6828799 0.6576477 -0.42504403 0.5189818 -0.48670828 -0.7225057 3.002759 0.5911151 -1.0412111 0.17216852 -0.05740292 -0.5300315 -0.17872357 -0.022435302 -0.08361543
67 -0.10349988 1.25685 0.21417901 -0.30468538 0.12630425 0.5618914 -0.83344066 -1.2505955 -0.5930207 0.1897267 0.9063119 1.5096714 0.545522 0.0062923506 -0.94540906 -1.8263887 0.48264366 -0.8397159 -0.13554287 -0.91962224 -0.91589093 0.109343104 0.7122293 -1.0289801 0.34026155 1.2179524 0.115513735 0.46853992 0.32945552 1.205893 0.33777753 -0.047337513 -0.90353316 -0.44479486 1.1589335 0.021831268 0.7399757 -0.7144552 0.8841922 0.4666041 0.98493826 0.08055643 -1.1723609 1.0426362 0.23560613 -0.5777602 0.70960045 -1.9837117 -0.5551621 -0.2776948 0.15759017 -0.7299811 -0.1308465 0.45000735 -0.8440799 -0.17068405 -0.75999975 0.0035668535 -1.4175181 -0.48675618 -0.3610297 -0.41401175 0.6725884 -0.95996606 -1.7217535 0.20091894 -1.0439696 2.227988 -0.48447305 0.5346894 0.5759276 0.07392752 0.064877674 -1.4025323 0.8289683 -0.8927268 -0.5815873 0.20203394 -0.43440765 0.5938626 -0.6496078 -0.29635632 -0.5770759 0.29633123 -0.28356093 -0.16398345 1.268279 0.8091343 0.73429376 -0.9287842 -1.2731326 1.5834936 -0.0069186892 -0.46707392 0.054376785 1.0033684 0.5702147 -0.038538836 -1.8970512 -0.5844203 -0.47408953 0.016831268 -0.19828445 1.2146118 -0.10404436 0.099936366 -0.8086219 -1.1325216 0.007403436 -1.3486019 -0.5382262 -0.49461508 -0.4063798 -0.30731723 0.5471735 -0.29310337 -0.078060694 -1.2366844 -1.115715 -0.40289727 0.5397895 -0.3965694 0.6372945 0.8604822 -1.3915151 -0.17809236 -0.37897894 -0.43525818
172 1.3094072 -0.41487595 -0.7288418 0.6435845 -1.172328 -0.32014745 0.19753689 0.70122623 -0.4500703 0.57260275 0.60312647 -1.0588555 0.07643971 0.9081605 -0.06960865 1.7833828 0.30902076 1.0669134 -1.008903 0.60978913 -0.17875983 0.70343757 -0.06487102 1.4254209 -1.0021019 0.9485657 -0.16754624 -1.3785801 -0.49885824 0.21740901 0.45000958 -0.8252904 0.273176 1.0862366 0.078527 0.2862144 -0.2702698 0.097047485 0.5569927 -0.729528 -1.408484 0.40150464 -0.29165882 0.24757159 -0.45762888 -0.021818375 0.60471815 1.7060217 0.08655899 -0.9191421 0.7048022 -0.7454838 0.50907886 0.28170222 0.57081425 -0.9839686 0.34792277 -0.6977785 0.44701478 -0.44188365 0.0139148515 0.11140424 -0.71877694 -0.13822143 0.20310684 -0.19645451 2.1103208 0.111489415 -0.31264055 -0.07658102 1.2490389 -0.16030537 0.39787498 0.66242725 0.59966886 0.15885752 -1.2820289 0.1435677 -0.048353087 0.8630613 -1.568075 -0.43787286 1.6053141 0.6256056 0.48885477 -0.21754745 -1.03919 0.44702548 -1.3966953 0.07901663 0.46860817 0.4214139 -2.4682822 -0.30380446 -1.1617186 -2.8017602 1.32518 -0.2841161 -0.2881628 -1.4173573 0.6016986 -0.040526453 0.72436947 0.5734345 -0.067811266 -0.40227163 0.3850684 -1.0921171 -0.601095 -0.5885401 0.2262392 0.049879447 0.86152333 0.76049304 -0.2202073 0.45196933 -0.27342498 0.102099106 1.8068026 0.8011349 0.79175377 -0.05440646 -1.2390187 0.48222184 1.2050925 -0.47611588 -0.6746414 -0.1629187
399 -0.16648597 0.34653476 -1.5631672 0.67441237 0.7523171 -1.0767688 -1.0742306 1.8204318 0.027487308 0.49712792 -0.7258284 -1.6987764 -1.7027347 -0.34962964 -0.9858834 1.0251409 0.41028422 -0.34319952 -1.0713916 -0.63926804 0.28142098 0.24892525 -0.7245755 -0.81373 -0.03801736 0.3810399 -0.5366176 -1.1953593 -0.6738593 0.47778177 0.29765683 1.2956129 0.91795695 -0.27168277 -0.25428098 -0.5966058 -0.59181887 0.70410174 1.2022983 -1.5168852 -1.2012899 0.85730165 -0.034394983 0.21032803 1.0864094 -0.0044153165 0.09256243 1.5451661 0.6596442 -0.6617185 -1.7506937 -0.84485286 0.4518585 -0.71928316 -0.05396147 0.6276298 -0.85550743 0.11410014 -0.2755664 -1.7048489 0.6587565 -0.14751582 0.74283224 -0.18428096 -0.24356523 -0.087712735 1.0986269 -0.07665791 -0.13607188 -0.4258066 1.4354086 0.3529898 -0.018131414 0.23983385 0.89876395 -0.16940166 -0.041839834 -0.48704702 1.2066344 -0.08805942 -0.0807306 -0.87544215 1.5218759 -0.22481948 -0.748028 0.8348348 -0.87562144 1.1681278 -0.26395887 1.0133493 1.2693192 -2.3449156 -1.8689797 0.44919902 -0.18389681 -1.9792368 0.0787708 -0.84835273 -1.4037056 -0.42497692 -0.934658 0.34438 0.04755451 -0.2911565 -0.41698742 -0.57624424 0.72759056 -0.9086597 -0.89631 -1.6645929 0.034115918 -1.3544635 0.6895042 -0.07895969 -0.79710776 -0.8073088 0.07808611 0.56312925 0.72164696 0.5371457 -0.07456011 0.36072105 -1.5994662 -0.7682963 2.112815 -0.24660596 -0.4266322 0.15219565
157 -0.28946692 -0.018211583 0.7440684 -0.03811944 0.91265696 1.469405 0.08553537 0.8029389 -0.574458 0.79219186 -0.76226395 0.36844924 -0.7575642 0.5283182 -0.6304858 1.4545488 0.78948903 1.0500954 -0.936956 -1.3003016 0.26905787 0.6623217 -0.9223757 0.057517648 0.44816303 -0.19269784 0.027834361 -0.77293134 -0.42585644 -0.26542506 -0.2730154 -0.23798993 0.39507774 0.75073314 0.6711524 0.6893884 1.1007262 -0.80075747 0.4463854 0.725372 -0.6575407 -1.6268336 -1.1402063 -0.078939416 1.0749433 0.63646376 1.301862 -0.5889827 0.9833216 1.0735503 0.53758746 -0.4423831 -2.290851 0.11130272 -0.7836216 -2.3572235 -0.059147067 -0.45539713 1.4956361 1.0244818 -0.7621393 -0.48119858 0.86880094 1.3153304 1.5415145 -0.037336297 -0.325809 -1.4654596 -0.86490154 0.8518135 -0.34691784 -0.3989484 0.3629332 -0.2900891 -0.3430005 -0.6794882 -0.44983545 0.23172875 -0.5512005 0.8795815 0.7220237 1.6443949 -0.075344995 -0.8393599 -0.38403088 0.081843816 -1.2616346 0.96469176 -0.45638013 0.3281659 0.0353565 -1.4331404 0.27854273 -0.46195126 -0.6887888 -0.17468831 -1.0629243 -0.49194267 1.6635519 -0.8924378 0.8489347 -0.32903984 1.5909903 0.8421169 -0.2145118 -0.45066032 -1.081673 -0.18109019 -0.5153955 -1.2229741 0.07836365 -0.63074994 0.7616545 1.976416 -0.44294962 0.07395043 -0.4669638 -1.116821 0.20629859 1.0336034 1.2498192 -1.7355028 -0.39807525 -0.9185441 -0.38768417 0.31909397 0.1482079 1.4477816
139 0.36592317 0.5360998 -0.16286685 -0.6790724 0.6015393 -0.10659795 0.6124507 0.07313147 -0.270594 -0.012465414 1.5878682 -1.0410265 0.31801355 0.019272804 0.19806594 0.5809464 -0.94598836 0.031231359 1.3879176 -1.0381163 -0.038930945 -1.2151093 -0.06988062 -1.2003356 -0.7246951 -0.453955 1.094323 -1.4463166 0.5618423 -0.17038822 0.22900651 0.16234867 -0.33507597 0.5535646 0.9558513 0.13509592 0.35049775 -0.9014466 0.035213735 -1.8820944 -0.4550435 0.86872077 -0.3140783 0.9626688 -1.0559121 -0.2784494 0.31892288 -1.759484 0.10907544 -1.7233117 -0.03218715 0.3507903 1.3821392 1.0272605 0.49152038 -0.040519264 0.8430233 0.5507559 -0.5673291 -0.556265 0.46429515 -0.5615011 -0.50234306 1.2298079 0.36973545 1.8242161 0.2672873 0.19235191 0.74920565 -0.66211617 0.8858678 0.26798534 -0.31627908 0.42349976 -0.48245528 0.39704388 -0.12082006 -1.5068426 -0.26194575 -1.1187553 1.514407 0.67709893 -0.8522658 1.3578217 -0.32598153 -0.7454764 -1.0408629 -0.7345744 -1.9194794 -0.5086549 -0.7977603 0.24894351 -0.53426707 0.68397117 0.3304301 -0.7635331 -0.21627855 0.79136723 0.14466074 -0.17030008 0.9290876 1.8748845 -0.32193902 0.1846947 0.83532685 -1.3189384 0.71713036 0.4279961 -0.8582158 0.27835894 -1.5156668 0.55573237 0.7675378 -0.47224292 -0.5295622 0.78385514 0.019614652 0.49307364 0.15657592 -0.50771475 -0.19695237 1.0765663 0.61049676 1.0116403 -1.0833986 -0.14673866 -1.8539264 0.61551213
262 0.806517 1.2098687 0.111889504 0.3360831 0.039913733 -0.4256102 0.3498403 1.215483 0.6132584 0.20722589 -0.4160068 0.49832314 0.48467526 -0.07624682 1.2047957 0.282816 0.33416292 2.1512425 0.6561369 0.34412807 -0.6859894 1.2517745 1.269529 -1.7478107 -0.61218387 0.32142916 -0.521624 -0.5813247 -0.33470893 -0.44321394 0.35289255 0.28571478 1.1431794 1.2923408 0.46163252 0.69571036 -0.9212436 0.21683612 -0.5405495 0.32916743 0.7747596 -0.55882674 1.0875876 -0.08248285 0.5208538 0.36916578 -0.094739 0.6850996 0.724416 0.49718618 0.18123321 -1.1211644 -0.82293427 1.2725402 -0.18704352 1.1646063 1.7932987 1.6335597 -1.2874221 1.2567903 -0.29582927 -0.9391543 2.4655917 0.25118318 -0.81396663 -0.055228945 0.40069896 0.49924427 -0.91087794 -0.6354173 -0.6359161 0.046208348 -1.1560016 2.0831704 0.3444189 1.8899671 0.39305198 1.1652411 1.0232757 -1.9117818 -1.1327311 -1.7893795 -0.0070871394 -0.21005364 1.322461 0.4623744 -0.3212265 -0.19290696 -0.23204567 -0.0144509915 -0.75643617 0.62624365 -0.93747175 -0.49716544 -0.0057920082 0.52715254 -0.5384402 0.24151114 -0.3602914 -0.19779868 -0.026674554 0.038559828 0.4915665 -0.15393698 0.5966657 0.2036481 -0.33334202 0.24453707 -0.6674139 1.4890739 0.82402277 -0.7980229 -1.882969 0.4277943 0.04205497 -0.40724197 -0.2988791 -1.0496923 -0.18953292 -1.6294347 -0.4687046 -0.5258021 -1.8000244 0.78315556 -0.021199495 0.22251488 -0.34621432 0.90865606
150 0.6403058 0.8991352 0.21269639 -0.55107445 0.51485485 0.06417135 -0.89464194 -0.16775307 0.44027868 -0.541072 -1.4099202 -0.7804519 -0.5185373 -0.1892703 0.048646722 0.4746872 0.80473155 0.7513934 -0.261759 0.86746806 -1.041033 0.12424753 0.31006664 -0.73548234 0.56165946 0.3551505 -1.0179405 -1.1448617 -1.334437 2.09553 0.3316058 1.5303634 1.4774834 0.4779173 -0.5537839 1.1445882 -1.0095285 1.3214244 -0.6292808 0.18150443 -1.0543879 0.42651096 1.3881135 0.52465 -1.1945442 -0.30509943 -0.33042586 -0.3744785 -0.7586173 -2.0659394 -0.3000999 -0.47821763 -0.16928588 -0.1415083 0.52684593 0.7973481 -0.78877634 0.46167555 -0.23823021 0.5178928 0.53762585 -0.7840206 -0.053055793 1.0002933 -0.19753604 0.32316813 0.32056877 -0.79110026 -0.5596899 0.10525802 -0.00058291125 0.5214495 1.4397922 1.7186104 1.0025721 0.97707874 -0.37768194 -0.37506792 0.8562844 0.69246674 -0.95062757 1.3018128 -0.86868703 -0.3969047 -0.4679689 0.075304456 -0.4114344 -1.2183307 0.62241155 -0.5403981 -0.945258 -2.0091374 -0.53577316 1.5173488 -0.6633152 0.76012164 0.45071518 -0.21951544 -0.13539357 -0.07161039 -0.09130973 -0.38173625 0.5634697 0.36740267 0.31103665 -1.521161 1.0374248 0.26007876 1.1421247 -1.7484648 -0.4187204 -0.84557503 0.76821464 -0.057598025 0.72426945 0.17149705 -1.9670087 -0.74131536 1.8143308 0.67843 1.7252665 -0.3617161 -0.27765945 0.36965933 0.858695 1.1279942 0.22955169 -0.54880714
314 -0.24685322 1.0942838 0.038994633 0.32027817 1.25652 -0.19995138 -0.21659096 -0.3186095 -0.47597352 -0.33174634 -0.08193212 -0.5573723 0.7151738 0.79299575 0.43971682 0.9484736 -0.750526 0.93644696 0.8870821 -1.0047945 -0.6507783 -0.36521176 0.14995556 -0.7208698 -0.68119746 -0.27368823 1.281829 -0.7554298 0.9046475 -0.5226304 0.14484364 -0.20278068 0.58876354 0.002959794 1.2902685 1.1962411 0.3285603 0.50818336 -0.056426305 -1.2386494 -0.6151745 0.016633973 -0.3685871 0.4406642 -1.0221275 -0.7946961 0.8066278 -0.587836 0.03561763 -1.463431 0.18943259 -0.24263224 0.2988435 1.9532925 0.12773857 -0.3423465 0.8928062 1.3147504 0.043158855 -0.014114559 1.3903699 -0.017367033 -0.38518572 0.85300267 0.16491786 1.3158449 0.045868874 0.034700952 0.99530673 -0.059461687 1.1001416 -0.065627255 -0.6510029 -0.115214385 0.2200678 0.43262085 0.9421053 -1.4403005 -0.52040595 -1.0325276 1.7426441 0.524005 -0.95562565 1.7840426 -0.859351 -0.35807928 -0.14194413 -0.8779236 -1.1730254 -0.7240702 -0.43343067 0.9541373 -0.045616142 0.52101016 0.1652062 -0.8132235 -1.0504775 0.4365871 0.6914307 -0.8812001 0.39953464 1.2357569 -0.4604117 0.469865 1.2817589 -1.1809707 0.39561436 0.7164474 -0.46395957 -0.17799339 -1.6155345 -0.0788967 0.6296856 0.01012719 -0.7147064 0.9016818 0.14796863 0.63084596 -0.29739276 -0.7233659 -0.42577684 0.4166545 0.03590131 0.81837875 -0.566274 -0.8889697 -1.0483638 0.6461971
173 -2.2213128 -0.39830384 -0.9142723 0.10520675 -1.0973301 -0.49094254 -1.211311 -0.29510564 -1.5108738 0.08053305 1.4779209 -0.09657301 -0.03794226 -1.0066077 -1.1898416 -0.8115867 1.0861359 -1.5761807 0.16847642 -0.28019854 0.658853 0.52293366 -0.478928 -0.9234923 0.03507777 -1.9217917 -0.1740865 0.001658853 0.21551393 -0.6146045 1.3308417 -0.27239966 -0.48660207 0.06874155 -0.54237694 -1.1800214 -0.5201164 1.0178876 -0.97824585 0.04643497 -0.24513088 0.24245642 -1.3610704 -0.3356004 1.6873075 0.075580426 0.6630718 0.5020067 0.55361116 -0.08842298 -0.35222128 -0.14293827 -0.18640554 -0.14251478 1.4987262 0.79158944 0.34053552 -1.0351125 -0.5448512 -1.9467766 0.8867439 0.8758375 1.4408708 0.34619913 1.3183775 0.40112695 -0.6708769 0.043101832 -0.60732615 -0.04198927 0.18263415 0.4750663 -1.1911395 1.4631653 -0.39857712 -0.71836305 0.41356868 -0.5730721 0.6927654 0.6925146 0.36684492 0.330124 -0.07372478 0.014425082 -0.762556 1.0432404 -0.40322965 0.45599073 -0.7382805 0.47195792 1.1720961 -0.10771595 0.71434593 0.18003777 1.3303574 -0.55155575 0.10413587 -1.2036848 -0.5581858 1.4065683 -0.38091928 0.84448713 -0.45558497 -0.62725586 -0.5526663 0.083023 -0.12319663 0.008395025 -0.65059835 0.072172746 0.5286238 -0.8554671 0.6360493 -0.5251262 -0.86635005 0.09700351 1.4461604 0.58760417 0.015293633 -0.23785879 0.6689102 -0.25985053 -0.6140647 0.89355737 1.147559 -2.1236181 0.94945616 1.1880779
312 -1.0614904 0.0028367045 -0.21269219 1.6841351 -0.48980668 1.0337614 -1.683003 -1.300114 -0.6009769 -0.6680611 -1.0894264 0.90180826 0.22003318 2.3251972 0.7532002 0.36818805 -0.66446745 1.2036592 -1.3623292 -1.3962431 -0.8662208 0.78022456 -0.9047791 -1.1375784 -0.963363 0.30598256 1.719323 -1.2614036 -0.08573561 -1.2699978 -1.5509493 -0.24615514 0.71506006 -0.19526076 0.8959004 0.22302867 0.6285014 1.478844 0.46170458 0.99034053 -0.77183264 -0.9415938 0.9982245 0.069935225 0.8202726 0.49516955 -0.0037235264 -0.5094088 0.33364677 0.20974045 1.0909241 -0.7685991 -0.6873925 0.8067418 0.13347128 -0.5013572 -0.28369084 1.3908588 0.64376235 1.98936 1.1812109 0.4500052 -0.08224415 0.050783344 0.38111335 -0.40779948 -1.7098575 -1.1159705 -0.14564773 0.4385269 0.32751095 -0.862514 0.64644367 -0.6879518 -0.86158764 -0.32604125 1.1335199 0.07728816 0.14978856 -0.11751915 0.6546938 0.6233356 -0.07359998 0.07224619 0.83155674 0.037162334 -0.10695401 -0.23540409 0.063906044 1.6854692 -1.3797634 0.30822846 0.51846755 0.7080952 0.5473371 -1.0960609 -1.3887113 0.17389452 -0.6281882 -0.3845706 0.8507163 -0.35081592 0.060322937 0.52869254 0.38551626 -1.4093925 -0.58999455 2.304626 0.35672063 -0.28075486 0.023646312 -0.604456 1.6774637 0.80573916 -0.609125 -0.23880821 1.6098201 0.25245467 -0.3955001 -0.72265446 -0.83221686 -1.1821637 0.81967646 -0.45335376 0.07981093 0.080159694 -0.056363985 0.3353472
158 -1.0123676 0.11393163 0.59631443 0.5723137 1.220398 1.0616683 -0.48646617 0.17887503 -0.08242006 0.21308722 -1.4291706 0.33178738 -0.15315087 1.0293311 -0.52843505 1.2309731 0.7500623 1.4488225 -0.37385738 -0.65887773 0.0872284 0.6020376 -0.70613694 0.23075709 0.08883406 -0.015760265 1.0382572 -0.7415166 0.1061526 -0.7766746 -0.32125026 0.13889025 0.77065796 0.20659329 0.9731168 0.7138428 1.3611048 0.48525414 0.18144341 0.6068127 -0.51156557 -2.0092156 -1.7661058 -0.2077736 1.0956706 0.68370813 0.9924562 -0.26874363 0.7906485 0.72439903 0.761964 -0.92939794 -2.1728008 1.240993 -0.77073526 -1.2539561 0.018619876 0.14144841 1.6833781 1.6409024 0.3642111 -0.49142146 0.9152194 1.2807153 1.1274421 -0.403011 -0.53608465 -0.84987473 0.21113643 1.224492 -0.10335674 -0.51687247 -0.20406662 -0.35877872 -0.09432291 0.014775221 0.5544776 0.43268412 -0.47048733 0.57182926 0.6905077 0.896567 -0.4000436 -0.33776775 -0.37646273 0.15353824 -0.7356237 0.40461928 -0.29210097 0.26042926 -0.058322515 -0.8106557 0.63996387 -0.66271794 -0.10810518 -1.3464544 -1.2096598 -0.14560953 0.8860304 -1.5502746 0.30241728 -0.46415466 1.0852298 1.2452713 0.541789 -1.1427193 0.021209715 0.3127163 0.32763 -1.629707 0.47771522 -0.9973382 0.42090005 1.4483182 -1.1313179 0.3956432 -0.14920872 -0.46709153 0.37866756 -0.20214827 0.8652351 -1.3275611 -0.6278449 -0.6678651 0.038405176 -0.1258865 0.22374417 1.2072557
162 0.50258046 -0.22026858 0.7318599 0.34987682 -0.008625074 -1.1340716 -1.0793304 -0.32257262 0.03579371 0.34288448 -0.7825964 0.79020077 0.5565526 0.9525241 -1.8717501 0.5478863 -0.42703503 -0.79178786 0.78829336 -1.4541478 1.8870356 -0.37919256 1.3414435 0.14414448 -1.7640256 1.4634737 -0.804555 0.66875404 0.0320514 -0.25412124 1.4091573 -0.57402325 1.508054 -0.2927344 -0.1415493 -0.14399503 0.504585 1.0281937 1.6267318 0.6630279 -0.93566436 0.18266726 0.521751 -0.5138697 -0.843981 -0.76529187 0.35331324 0.47942588 1.7546628 -0.10654279 0.14655052 -0.0998588 -0.3687705 -1.7551957 -0.15586834 -0.5018476 -0.38604298 -0.14796105 -0.47040895 0.97969276 -1.3382013 0.09470902 -0.7382189 0.10598093 0.15039866 0.47724828 -0.010690862 -0.12534629 -0.04335065 0.02192782 -1.0390555 -1.3193866 0.22506586 -0.21911013 -0.45040315 0.6838216 1.2897806 0.22751704 -0.25862646 -0.40665528 -1.3489257 1.80781 0.24745227 -0.9617543 -0.8830006 -0.9526399 0.586188 -0.5602616 -0.023957197 0.12804224 -0.8029769 -0.75286716 -0.1723368 0.13198653 0.14121896 -0.19354162 0.44230068 -0.44190583 -1.5341022 0.61607575 1.2034124 0.063612044 0.2476104 1.2438393 -0.71993375 -0.83094233 0.08282888 -0.3889529 -1.0477875 0.8929036 0.38546193 -0.30848348 0.74253494 -0.078030765 1.6868222 -0.67060435 -0.48907226 0.70387584 -0.9557796 -2.9557424 0.97453636 -0.6348674 -0.73418444 0.7532099 -0.41222408 -1.8103353 1.019265 -0.61619866
19 -0.40763986 -0.06292607 0.55194026 1.5487318 1.6500964 -0.7401511 -0.8814426 1.2620003 0.6487634 -0.77073085 -0.84553367 -0.93005437 -0.19871807 1.3836708 -0.4554176 -0.58879006 -0.13427323 0.20226409 -0.39935148 -0.21128552 -0.44283566 1.0739871 0.54837215 0.37562585 -0.870652 -1.2838845 0.94115317 0.7143164 0.16147473 -0.0852249 -0.079522364 0.5137998 0.8318994 -0.73797965 0.4340364 -0.21438813 -0.29944086 0.2756545 0.2562071 0.54034936 0.88617486 -0.15413553 0.53928626 1.3968575 -0.2422935 -0.10743932 -0.02225072 -0.90207964 -0.69211227 -0.2609411 0.46739894 1.07032 0.3706846 0.12124259 -0.35112655 -0.23905452 0.80277956 -0.6615037 0.6494646 1.1060716 -0.31974074 -1.206116 -0.6067339 -0.00456412 0.030796744 -0.6012932 0.5139344 -1.724934 -0.026157815 -0.18592696 -0.28805497 0.4625766 1.6743121 -1.1160349 1.040299 -0.24926265 -1.5648615 0.67486364 -0.81086224 1.7239088 -0.22160393 -0.23055023 -0.23515376 1.5786752 -0.063418046 -0.8103656 -0.6481161 0.43585247 -0.38949472 0.6455924 -0.23085015 -0.23091924 1.5590823 -0.7287078 -1.4340312 -0.7387988 -0.1126502 -0.27455807 -0.95333034 0.08821345 -0.9345497 -1.0970217 0.12501027 0.14964405 -0.17289294 0.72671676 0.65836656 -1.0331315 -0.5451581 -0.83286446 1.3082659 0.8289846 0.4827668 -0.97533894 0.37754047 0.76449543 -0.43875 1.7430363 -0.6755089 1.1103212 -0.5154605 -0.030694196 1.9996746 1.3342625 1.2068356 -0.46043953 -0.49924186 -0.5482432
53 0.599205 1.1132748 -0.71686 -0.114251584 1.5350424 0.92682856 -0.32502866 0.4407612 -0.032923095 0.17693117 -0.54436445 0.6732025 -1.1029718 -0.08389461 -1.8146733 0.9307503 0.7471787 0.16206685 0.6663685 0.00089659344 1.0100814 -0.29295594 -0.27004874 -0.07072237 1.6381184 0.7415139 0.54828453 0.84468025 0.8780851 0.16871645 0.45623952 0.16280577 -0.0042543258 0.35160306 -0.81475365 -0.5809245 1.3987578 -1.2862432 0.025586748 -0.23491886 -0.39508983 -0.99494773 -1.8025758 -0.25846657 0.9500892 0.7797191 0.30829066 0.1639047 -0.25527397 0.7135352 -0.353149 0.22544056 -2.496007 0.7481216 -0.11886036 -0.8953831 0.45211822 -0.88818324 0.5774702 0.5074221 -0.37328064 -1.4843652 1.517808 0.75621325 0.436834 -0.4105099 0.33240628 -1.4567822 -0.3924753 1.0670202 -0.9390356 -0.10098598 0.36345336 -0.3809371 -0.39434704 0.064635485 -0.79909986 0.0019144872 0.5406608 0.788007 -0.070646696 -0.3264596 0.5015765 -0.57868034 -0.18799236 -0.22567157 -1.1937702 1.0165085 -0.13594149 -0.25435692 0.089267015 -0.92637897 -0.228044 -0.6984053 -0.10161415 -1.3873762 -0.76425725 1.2176363 1.1731561 0.40289944 0.16774897 -0.36531648 0.79736197 0.98306984 -0.2786264 0.10264601 -0.55575377 0.1370541 0.13368 0.19153681 -0.36932862 -0.27263594 0.3850915 0.5367095 -0.37204242 0.17201577 -1.3703045 -1.619748 0.27313182 0.22085896 1.4350536 -0.09991461 -0.7692096 0.54428947 0.5445878 0.2609815 0.6502723 0.60407364
331 -1.4647827 0.19242124 -1.4814829 0.33837727 -0.72429526 1.0918031 0.86308956 0.28523427 0.14927846 -0.53989583 0.47549716 0.56900615 -0.9681532 0.2501511 1.9845103 0.43611804 1.3077321 0.9580785 -0.04970898 0.49425948 0.44701946 1.4274533 -0.65738326 1.0400987 0.8683818 0.44139832 0.99892724 0.9249309 0.6825476 -1.0510333 0.4134816 -1.5042207 -0.32300124 0.18277818 0.19377245 0.48564398 0.45203802 -0.15384282 1.3476952 -0.048886154 0.794306 -1.8330404 1.2166137 0.8276254 -1.1321135 0.42461255 0.088292144 -0.10505228 0.011654973 -0.5746598 0.20413099 0.7873816 0.010139012 -0.4813597 0.026820788 0.074596755 0.7803412 -1.839466 -0.43214825 0.30315238 1.1801344 1.5332103 0.22010705 -0.025984306 -0.40094668 -0.36139575 0.29447806 -0.19599147 0.2583688 0.53595537 0.60310423 0.7357272 -0.39337027 1.186701 0.102251336 -1.1240739 -0.07557811 -1.6749518 -0.8825037 0.7428802 2.1319847 -1.768547 0.09126311 0.8311961 1.923514 0.4594924 -0.12934862 -0.41221675 -0.35744277 -0.8028218 1.4622072 0.18795991 1.0728575 -1.3330677 0.55558836 0.81577116 -1.3073157 -0.4191976 -0.0917454 -0.03732377 -0.7064523 -1.353267 0.23091866 -0.62440526 0.8358633 1.3324804 -0.36378473 0.5270573 -1.0613567 0.009891678 -0.35839847 -0.9163713 -0.73506427 -0.366302 -1.2345133 0.63694483 -1.0304298 0.6617789 0.24611026 -0.0391901 -0.2407372 0.4924837 -0.96589243 -0.18940948 -1.1874186 0.54264474 -0.63848716 -0.7886805
93 -0.32909906 0.42332146 -0.5343757 0.5878346 -0.012742724 -1.1425093 -0.56961316 0.33130735 0.38425046 0.478148 -0.92294365 1.3192297 1.3122022 0.11278374 -1.328424 0.5757433 0.49126658 0.30720368 -1.3145206 0.39917064 0.92891103 -0.7590498 1.238882 -0.36311764 -0.64881545 0.46356723 -0.7644157 -0.07764041 0.4490147 0.82458496 1.3804609 -1.8217078 0.3339564 0.10566742 -0.6987953 1.203798 -0.06496596 0.81137687 1.180309 1.4546753 -0.21071763 -0.09652847 1.3302355 -0.41146436 -0.1307835 0.042960666 -0.8136502 0.4422141 0.38198626 1.3017176 -1.7327789 -0.89690393 -1.4727514 -2.1053133 -0.36556426 -0.51839256 -0.09882387 0.15512928 0.6783247 0.09578258 -0.7963663 0.6975518 -0.26002884 -0.7180382 0.15083458 0.70008117 0.45701265 1.9428513 -0.6498404 -0.6642443 -0.03822414 0.06167639 -0.12363728 -0.348274 -0.356847 -0.33950567 0.18714441 0.042857282 -1.2915131 -0.5240307 -0.9155165 0.8526257 0.19832425 -0.84122586 0.2520121 -0.5915307 0.16621776 -0.4644513 1.4151227 0.7490156 0.29472443 -1.656294 0.8973552 -0.35278836 0.599983 -0.62088126 1.2978742 0.0064196563 -0.19794117 -0.10304339 0.13529791 -0.0058635753 0.6769908 0.90550375 -0.41094598 0.84122115 1.1057156 1.2314187 -1.1707724 0.74161947 -0.5684786 -0.43410608 1.670778 -0.18027951 1.9160286 -0.803871 -0.44218865 1.1582271 -0.38230136 -2.4831755 0.9459958 -0.1932122 0.99692 0.7277341 -0.82943654 -1.6481344 0.7945164 0.11342054
217 0.71405554 1.1162145 0.3242719 0.71916413 0.52353483 0.31271136 -0.1412873 0.52797955 0.6926793 -0.89173836 -0.07658533 1.2186301 0.19916005 0.4716579 1.1452992 0.22359703 0.48244146 1.6469806 1.4198878 0.1597668 -0.6362811 0.85315555 1.5423225 -1.5633225 0.18492714 0.9379204 -0.42790103 -0.8140363 -0.4727522 0.5767973 0.93363076 -0.35015684 1.9020323 0.48280397 0.60118335 0.25266752 -1.0795629 1.1309217 -0.763085 0.04290297 1.2774585 -0.6256781 1.6622788 0.6370218 0.016204104 0.72861403 -0.48812038 -0.32264647 0.99895537 0.16238192 0.70638734 0.10761091 -0.8020477 0.90370965 -0.32966354 0.47765622 0.57832724 1.2574401 -1.0845435 0.8659058 -1.4095976 -1.6661217 1.3347434 -0.016932031 -0.9717779 -0.19447158 -0.8740059 0.9670409 -1.1028485 -1.7234882 -0.24789405 0.36116728 -1.0768832 1.0360639 0.12275559 2.1116776 0.2751568 0.67857915 0.6288822 -1.6686264 -0.34552842 -1.0999655 0.07649262 0.9522674 0.90933794 0.19175921 0.15724419 0.38328934 -0.3086847 0.7525907 -0.33791205 0.66811305 -0.66857654 -0.74787605 0.86035675 0.36655653 -1.2678223 0.7618799 0.0038334958 0.068641804 0.23705687 -0.48739856 0.15196487 -0.018148307 1.4274534 0.60559255 -0.10575793 -0.09092635 -0.6218417 0.6920366 0.69911957 -0.76352334 -1.9641018 1.2324672 -0.6078915 -0.5963177 -0.2859372 -0.8890636 0.19647652 -1.0598804 -0.043834955 -0.96782464 -1.4706694 0.37079373 0.33554393 -0.13388933 0.15604152 1.0542986
145 0.25467035 0.28427556 0.839139 1.7607197 1.9580408 0.29328138 -0.90758556 0.5459831 -0.121409945 -2.275445 -0.57385874 0.3887534 0.59743845 1.0362643 0.6696708 0.04419582 -0.87726986 -0.4221772 0.03693635 -0.37548417 -0.7740255 -0.19876178 1.4353869 0.116055734 0.04484472 0.6803315 -0.21931006 -0.2844812 0.07505048 1.5185006 0.13952997 -0.8709802 1.6193584 -0.26380092 -0.42502126 -0.19373867 -0.8892647 0.16099155 0.7005266 -0.42199677 1.9552181 -0.70339864 -0.69522274 1.4745942 -0.7227912 0.96749985 -0.76220036 -2.075495 0.021782273 0.695627 0.3836881 1.1714239 0.6332215 0.37320277 0.3407874 0.21898402 -0.7598889 -1.3536114 0.045553006 0.5485673 -0.44498578 -0.93984026 -0.8849012 -1.1975771 -0.2760069 0.486699 -0.95478153 -1.081875 -0.7769836 -2.2016196 0.15358002 0.3706514 1.4395436 -0.86855745 0.73122233 0.67203903 -0.6758876 0.050532978 -0.66211045 0.8113115 0.70338917 0.6720897 0.05580588 1.4398929 0.36393502 -1.2467284 0.46100053 1.1631118 -0.8604113 -0.11962197 1.2645899 -0.45313546 0.7052044 -1.6543592 -0.29765776 -0.43552417 -0.5081994 0.8461738 -0.016681917 0.7137351 0.15389453 -1.0689747 0.4001735 0.51888824 -0.6338935 -0.45504218 0.555038 -0.5413049 -0.617229 -0.9582547 1.2995653 -0.0011260273 0.4646675 0.9654549 0.6911532 0.70685995 0.61043596 1.2831162 0.458313 0.2609446 -1.141708 -1.3574816 0.6071818 0.8353493 0.71346575 0.14716363 0.31979325 0.82109326
323 -0.38634288 0.030639801 -0.77523345 1.5982267 -0.31913367 1.0332464 -0.5723468 -1.6409596 0.19647844 -0.5891742 -0.81833667 0.91781205 -0.6511677 1.4557085 0.41156796 -1.2069796 -0.8597088 1.2791585 -1.3489166 -1.1885083 -0.43990567 -0.0132184345 -1.0673784 -1.8594552 -0.60590214 1.0638493 1.7070895 -1.125287 0.56627035 0.16022779 -1.4483284 -0.9137653 -0.21483049 0.61423963 -0.2025746 -1.6118536 0.51191056 1.1985177 0.085593194 1.511862 -0.24005261 0.5413843 1.3845103 -0.03397585 1.6183703 0.45191878 -1.6004219 -0.9241761 -0.14677942 -0.25711337 0.36630315 -0.23234205 -0.48847613 -0.61071754 0.7577507 0.2637982 -0.87814283 1.493422 -0.05290113 1.3193336 -0.17257072 0.49439198 -1.1741732 0.5167329 0.7092807 -0.50133663 -1.5771799 -0.9882578 -0.12761961 -0.31017917 0.42627817 0.5456391 1.2669394 -0.27004114 -1.3356 -1.3200936 0.38549018 0.6677122 0.9006172 0.021561889 -0.16937639 0.8372847 0.533401 -0.600325 0.97542953 0.003280814 -0.10412986 -0.5501551 -0.016921358 2.526663 -1.1131912 1.2229968 -0.14971605 0.97724193 0.54721445 -0.54652464 0.2483542 0.1303015 -1.1095175 0.5425539 1.4988543 -0.4995123 -0.4534523 -0.48062626 -0.30447686 -1.4789748 -0.5860619 0.97589654 0.70147973 0.4771854 0.51009005 0.9075638 1.9940181 0.46341506 0.24022779 -1.1943126 1.607566 -0.07976044 -0.7327853 -0.38163233 -0.97387624 -0.13598546 1.1569763 -0.29545987 0.5961824 0.18315138 -0.6795417 -0.91370916
98 -0.15312779 1.0717928 0.81343865 -0.75927603 -0.17628723 0.49268755 -1.1899618 -1.2513634 -0.16898717 -0.4412243 -0.1726434 0.673331 -0.087738805 -0.007717526 -0.395068 -1.4952915 1.3040513 -0.5206612 0.10396673 -0.48638833 -0.6628887 -0.32976058 0.019509016 -1.7046503 1.0849 0.36607924 -0.15093324 0.18184775 -0.7752769 2.513769 0.44079483 1.6442118 0.3342243 -0.24785271 0.28200647 0.4009146 0.066702165 1.335576 -0.13099293 0.88728034 0.5714331 -0.29067895 -0.028489213 1.8502082 -0.4920222 -0.2786713 0.088765785 -1.8215126 -0.4269924 -1.3815277 -1.1050903 -0.72978437 0.124559365 -0.13349319 0.098016456 1.0661749 -1.2094841 0.3627808 -1.0915647 -0.15480132 0.78768784 -0.6178223 0.92957544 0.38258976 -1.8729616 -0.10887238 -1.1707227 0.7459704 -0.038871665 0.28447312 -0.33463237 0.43036938 1.2750286 0.73827577 1.5572002 0.54499215 -0.7505089 0.10085585 0.06931659 0.80644006 -1.1087711 1.4675148 -1.1765325 -0.24042007 -0.9225229 -0.07340274 0.21088567 -0.7495588 1.5492301 -0.6584492 -1.795867 0.067185216 -0.10427283 0.94456184 -0.023360167 2.3947637 0.20975766 -0.065076046 -1.3316593 -0.1073979 -0.11904459 -0.51063925 0.5497849 1.6965344 0.30745405 -1.0049423 -0.3237865 -0.43756232 1.6468228 -1.610898 -0.74667054 -0.49021596 0.33015507 -0.11816206 0.83938 -0.20831856 -1.321967 -1.3030945 -0.17229173 -0.42283297 1.1905661 -0.7510975 0.25041124 1.1131533 -0.5084351 0.7937978 0.35088044 -0.94797516
315 -0.7479146 -0.26801983 -0.17739476 1.1521287 -0.6915847 1.1897191 -0.85088646 -1.1761369 -0.37331545 -0.5407787 -0.9828467 1.2941197 -0.33997077 1.4912947 0.5334043 -0.89422476 -0.64441526 1.2880825 -1.5124921 -1.3410381 -0.6345216 1.0585235 -1.3455486 -1.577219 -1.1226114 0.44157225 0.9051347 -1.4344407 -0.46633723 -0.36504036 -1.9880999 -0.8356561 0.33597568 0.26855186 0.8592178 -0.6877535 0.71273553 0.96960735 0.6410306 1.5707341 -0.22473341 -0.16075557 1.4117385 -0.22534269 1.3409351 0.74252653 -0.9644545 -0.69789803 0.6702409 0.42070085 0.9958198 -0.42038104 -0.5421393 -0.15731205 0.9201256 -0.4401251 -0.6354985 0.9425418 0.46011946 1.8401041 -0.44816786 0.9423157 -1.0237471 0.46309993 0.4595426 -0.5970302 -1.4154991 -1.157209 -0.4746761 0.4817017 -0.108645834 -0.4616851 1.1175137 -0.71804476 -1.3557614 -1.1008797 0.3717431 0.42882764 0.21140614 0.5912058 0.5333996 1.1044065 -0.55220395 -0.38615796 0.85754085 0.49876496 -0.24519281 -0.10416751 -0.17628713 2.330614 -0.98523945 -0.17617758 -0.06743741 1.0490773 0.66060686 -0.44505706 -0.9371897 -0.53080016 -0.70030516 0.03920231 1.6304054 -0.5317382 -0.09393633 0.28663617 -0.17956054 -1.0518681 -0.7723068 1.3665432 0.37962577 -0.09299591 0.4058468 -0.07061683 1.4487445 0.76082706 -0.51373625 -0.68352675 1.6314045 0.6882201 -0.4521741 0.023980165 -1.3419361 -1.0390884 0.83658737 -0.85492146 0.124096885 0.12791258 0.1751632 -0.39718547
276 0.7755985 -0.3446347 1.5259284 0.14182505 -0.68173087 -0.22494517 -1.0431505 -0.03836683 0.24912526 -0.34631267 -1.1187608 0.3372524 -0.10945593 0.34706295 -0.61956453 0.08178118 -1.0494835 -0.972919 1.3627028 -0.948796 0.874452 1.04447 1.6243346 0.5239542 -0.5298491 0.89590913 -0.5889226 1.2796726 -0.04962113 -0.90949535 0.47792152 0.4622732 0.846367 -0.56227565 0.35985935 0.5854978 0.6089774 0.944304 1.3211905 -0.24390686 -1.0984637 1.2728019 -1.7547995 -0.6209942 0.15700048 -1.8357955 -0.09441574 0.9466005 1.562663 -0.51427335 1.862522 0.47043088 0.7828157 -0.838063 0.14350235 -0.28552678 -1.7739735 -0.024219964 -1.8988233 0.08275458 -0.24856089 -0.041988492 -1.4524503 0.9703302 0.0818538 -0.74525994 -0.91642815 -1.8326368 1.2195404 -0.045056447 -1.103103 -1.1898879 -0.7918808 -0.30082864 -1.6131134 1.2758216 0.3953614 -0.048651367 0.35375556 -0.074190505 -0.26595622 0.6140719 0.097007655 -0.24045308 -1.093395 -0.07901658 -0.11946314 -0.45009476 -0.8912925 -0.748975 -0.95570064 0.44762954 -1.122082 0.5835961 0.30082226 0.23974045 0.012591303 -0.059475776 -2.0042632 0.588647 -0.0936503 0.031968247 0.34828222 0.35281214 -0.6033039 -1.3552772 -1.030245 -0.9626026 -0.2874609 0.7646911 0.86846477 -0.09586966 -0.33730948 0.2495365 0.26912642 -0.8106129 -0.16302921 -0.51715153 -0.2802348 0.15873952 0.45184168 -0.07089755 -0.09973181 0.19205967 -0.13618971 -1.1426134 0.30297506 -0.019763334
167 -0.1343355 0.94414026 0.2895812 -0.32860827 0.7304899 0.05192557 -0.6693797 0.32085398 0.6291592 -0.43695495 -2.1041307 -0.8639517 -0.51057476 -0.96696836 0.15263897 0.7529953 0.7761566 0.40303785 0.71401644 -0.342897 0.28348318 -0.10559365 0.24829155 -1.0619993 1.0051353 -0.88553566 -0.48069924 -0.6648376 -0.9701017 1.7942913 0.03954647 1.5750065 1.710967 -0.35716245 -0.84476393 0.621724 -1.2162212 1.5518532 -0.38086367 0.5209296 -0.66153044 -0.13923907 1.7009672 0.5043998 -0.8021502 0.10477005 -1.2795018 -0.69492304 -0.08467514 -2.046528 -1.6459004 0.02118074 -0.017074734 -0.51850426 0.86386263 1.0737938 -0.9459685 0.0086029 -0.46263883 0.19210798 0.83624935 -0.45020324 0.3522712 1.038114 -0.08535825 0.42680466 -0.53232163 -1.0775182 -0.46816397 0.21380258 -0.12337834 0.11690339 1.2978616 1.4351027 0.7426834 0.82574016 0.22548708 -0.6472919 1.2515584 -0.30518582 -0.04305417 1.4716606 -0.9773766 -0.9044829 -0.7616376 0.4647067 -0.8604142 -0.967193 0.6771142 0.19890742 -0.61048883 -1.982349 0.29840538 1.8075536 0.13394828 1.6154218 -0.117891885 0.17376122 0.18028916 0.115399435 -0.24827394 -0.09275979 -0.0053612334 0.512618 0.21913189 -1.1521841 0.9340386 0.2671177 1.2177671 -1.5611631 -0.2681571 -0.83943444 1.0182577 -0.20060787 0.5204414 0.5369912 -1.6738735 -0.25115067 1.1075189 0.39428228 1.5374819 -0.8138078 -0.44988266 -0.019676613 -0.08061706 1.271216 0.31139445 -0.76876503
21 -0.15317982 -0.23493965 0.20468166 1.3765031 1.9300178 -0.087914675 -0.23179017 0.7695352 0.55127966 -1.0559127 -0.25560093 -0.3920719 0.23762512 1.2637814 0.2476996 -0.766686 -0.39213252 0.32666746 -0.15062675 -0.44693157 -0.10371035 0.5090706 1.1242222 0.8205951 -0.31998232 -1.0328813 1.0035683 0.16271913 -0.047547143 0.40513209 -0.28763473 -0.18449365 1.0371141 0.28859857 -0.16656616 0.6877177 -0.22991 -0.36268562 0.78690594 -0.060895287 1.3108503 -0.20731093 0.1221671 1.1228058 -0.54429585 -0.23908971 -0.110025376 -0.13560267 -0.4121745 -0.35810542 -0.42258838 0.708172 0.81044567 -0.039469674 0.14409338 0.08900301 0.97988534 -0.47501123 0.9699551 0.34114292 0.8520557 -0.5413528 -0.11033451 -0.011341931 0.5466387 -0.45610693 -0.12798111 -2.0028093 -0.42604518 0.3594864 -0.949451 0.44548145 1.5592176 -1.3354594 0.61119366 0.29259497 -1.2674698 1.2255241 -0.6012976 1.2390147 -0.47259206 0.46771616 -0.4531803 1.1154454 0.66626537 -0.7773487 -0.23243241 0.6372011 -0.018229611 0.0901195 0.5534946 -0.23519042 0.47898275 -0.5728495 -1.351319 -0.24199003 -0.8637342 -0.3876425 -1.2418724 -0.11401529 0.008118931 -0.9720487 0.46069813 0.22922492 -0.8466518 0.32304588 0.25712562 -0.88641894 -0.73535126 -0.8525552 1.4702127 0.4987375 1.276865 -0.5389559 0.8920428 0.93670636 0.22209181 1.1447281 -0.8731513 1.5092641 -0.6186969 0.30981916 1.6074082 0.6110265 0.6540143 -0.37645185 0.07973872 -0.7229724
134 0.41755402 0.091863304 1.1649401 -0.02549271 -0.98978233 0.1336985 -0.43170837 -0.18849237 0.3588643 -0.81686276 -1.4387938 0.24649312 0.31216547 0.15452945 0.16074061 -0.010810703 -0.7415078 -0.15580742 0.921693 -0.12073654 0.34960666 1.2491513 1.7464218 0.1755181 0.8280737 0.25115648 -0.7607435 1.2017915 -0.11437423 -0.42808074 0.7306974 0.52205354 -0.0015691678 -0.04417078 0.18507262 0.77216095 1.3136911 1.1629994 0.73456347 0.2711867 -1.0164472 1.3734971 -1.2509729 -0.057789423 0.7230823 -1.5895767 -0.74235237 1.2406089 0.93088484 -0.16228122 1.4412684 -0.07097924 0.60683936 -0.050478417 0.020352002 -0.45794156 -2.1328123 -0.25399858 -1.4418886 -0.8035608 0.2750411 0.001769917 -0.9764897 0.8043258 0.1283776 -1.2466578 -0.49907616 -1.3432239 1.2786794 -0.13065873 -0.35362762 -0.74478954 -0.80976176 -0.91706437 -1.8035585 1.2474985 -0.253739 -0.24310102 0.014476637 -0.7346412 0.43579355 0.40638748 -0.0097598955 -0.53622913 -0.62509227 -0.3502979 -0.5446357 -0.22684807 -0.9346563 -0.5965417 -1.2297218 0.10119334 -0.9593088 0.4520338 0.46172875 -0.25582242 0.18306875 -0.17415966 -1.5202197 -0.10855415 -0.9671718 0.17924455 0.38805315 -0.11440017 -0.30604374 -1.4672362 -1.3606257 -1.2042422 0.15120398 1.0436199 0.79491675 0.1081194 -0.33521464 0.65138435 -0.5973417 -0.68737346 -0.6366943 -0.36798745 0.49989069 1.4131223 0.14668545 0.029901614 0.57163036 0.27141136 0.3996825 -0.5376451 0.022645786 0.23223323
267 -0.5401163 -0.14911081 0.021390306 0.04208093 -0.8622568 0.9139389 -0.18951511 -0.76818347 -0.065174535 -0.31665778 -1.124128 1.6229506 -0.43367362 0.59526414 0.28826374 -1.6268997 -0.75697523 1.0750258 -1.0825295 -1.0625434 -0.39294913 1.3305955 -1.2588427 -1.1627692 -1.0877075 0.3577167 -0.3162473 -1.3680029 -0.65368503 0.47368473 -1.9086558 -1.2681066 0.040505916 0.17262104 1.2175832 -0.5813615 0.60984963 0.23120314 0.9794562 1.421774 0.40270817 0.12470939 1.2826588 -0.63358533 0.87604946 0.5305547 -1.1489793 -0.39584577 1.0011493 0.544503 0.75825924 -0.072065294 0.088948846 -0.6156743 1.5386827 -0.45923507 -0.29088265 -0.055810764 0.06553778 1.2129638 -1.7078444 1.5403194 -1.7672584 0.708505 0.3109149 -0.56793064 -0.6515445 -0.9021949 -0.5958254 0.8642755 -0.42964616 -0.5968225 0.655647 -0.7693357 -1.3213441 -1.4702595 -0.24162999 0.15434238 -0.0695361 1.3592604 0.7483177 0.88598144 -1.2657402 -0.15500069 0.42771176 0.9438493 -0.25816482 -0.16186239 -0.1426535 1.9424869 -0.22539343 -1.3735545 -0.73955977 1.1329138 0.87003934 0.036523774 -0.672329 -1.4521897 -0.29060337 0.24878243 1.8974359 -0.25560337 -0.266101 0.7111427 -0.41519055 -0.1686743 -0.7699199 -0.00011006332 0.1057099 -0.32455248 0.4852347 -0.07072512 0.44404188 0.40774462 -0.5670616 -0.66942465 1.097067 1.1252351 -0.3386725 1.0103471 -1.4887892 -0.7837559 0.21771663 -1.0135499 -0.07911724 -0.30335334 0.82649463 -0.97995245
201 1.3804322 0.55255693 -1.2324903 -0.63785064 -0.5632982 -0.14949962 0.029829156 -0.56388456 0.12775056 1.0495396 -0.36035812 -0.37786138 0.28847066 -1.6750337 0.6915938 -0.30242756 -0.37957993 -2.2189813 0.0024154163 -0.60862154 0.39005163 0.39525923 -0.38531256 0.61378396 1.5228629 0.6622217 0.6101873 -0.99841976 -0.30048767 0.47313973 0.31044227 0.047097374 0.3984999 -0.41408354 1.2726059 1.1706818 -0.5113236 0.11287974 -0.58619463 -1.28165 0.25653934 -0.5320241 0.228325 -0.5689936 -0.12895927 -0.657155 -0.5921311 -0.06465501 -0.13535422 0.07755601 0.31618333 0.2537118 1.8750829 0.032392748 -0.24652833 -0.47902766 -0.09754082 -0.114132494 -0.45531616 -1.4340554 1.2260243 1.2148707 0.3181629 0.3306833 -0.35982442 -0.47524467 -1.3578843 -0.15622988 0.057482563 0.08121467 -0.216119 -0.50904673 0.39790565 0.09300028 0.25825447 -0.5769395 -0.7917525 -0.016140599 -0.44502613 -0.23129645 0.98271775 -0.7689135 -0.72606945 0.29210114 -0.74284536 1.0582346 0.050389197 0.24275796 0.17110538 0.3290041 -0.24779381 -0.7537622 1.1327934 0.7185764 -0.7399764 0.34126604 0.28046495 -1.5402076 -1.4352392 -1.3271738 -0.9245754 -0.24263076 1.0045297 1.2673384 -0.77583873 1.3734847 0.28650534 -0.3240751 -0.6970504 1.091667 1.7919366 1.6182677 -1.1830814 0.047827963 0.28832567 0.15374407 0.37604293 1.3655696 0.6636883 0.12616517 0.20739996 -0.048744533 -1.0605121 1.295196 -1.565114 0.4861772 0.30669746 -1.1034771
159 0.26286864 0.7239327 -0.73525643 -0.32319492 -1.1151612 0.9873176 0.006137274 1.2649807 1.0690234 -0.5225894 -0.1323826 0.8270499 -0.7094055 -2.116829 0.3635922 -0.37769285 0.48857704 0.25628394 -1.7698858 1.0441266 1.0402098 0.27702773 0.1710427 0.74599713 -0.042109955 -1.1215916 -0.6933186 0.47772408 -0.2779381 0.06340913 0.12769349 -0.8880973 -1.6228197 0.21369475 -0.04146041 0.740971 0.12799154 -1.2677236 0.38057584 0.63382965 -0.65673363 1.328754 -0.96745163 -0.9960274 1.6763927 -0.10726913 -1.0227844 -0.41204005 -0.5796967 1.3968819 0.044476245 -0.33326915 0.1366112 -1.6441398 0.11040837 0.04396944 -0.2740441 0.30225897 -0.0047629625 0.4788398 -0.07544675 -0.02484917 -0.043717053 -0.08224724 -0.14772701 0.10160696 0.8852002 0.5416718 0.9783683 -0.56934905 0.15878895 1.740975 1.2009708 1.299874 -0.31935328 0.69846404 -0.5212646 -0.9179636 0.4885561 -0.2577848 0.19002013 0.82469594 -0.5480703 0.8456428 0.14236677 0.23308036 -0.9942779 0.12763584 0.6041888 0.0070765484 0.97077256 -0.055612896 1.321643 0.1862481 0.5152646 0.54046243 1.7097014 0.33925807 -0.012882418 -0.7334739 0.04406965 -0.30490118 0.3403091 0.2872065 -0.003449168 1.1860583 0.71805465 0.6372462 -1.5636334 0.5947426 -0.7641453 0.16403775 1.973263 -0.22595121 -0.5097657 0.26464465 -0.42803848 -0.20674106 0.43867725 0.37959707 0.3823048 -0.31172526 2.9601355 0.7150767 -0.44398972 0.62487394 -0.99075294 0.4554723
43 -0.88052887 0.088923045 -0.34718952 0.6342239 0.24979006 -1.2481846 -0.53205836 1.3262147 0.14419036 0.8122258 -0.6843945 1.0267339 1.3856711 -0.07819349 -1.1996809 0.5821508 0.52346146 0.79312634 -1.1592042 0.8492156 0.042247098 -0.4550224 1.432274 -0.6252502 -0.17028871 0.120289564 -0.8540294 -0.25608376 0.57607615 0.5533478 0.9504769 -2.1144114 0.3424417 -0.21463636 -0.40016115 2.0016105 -0.059144225 0.62975204 0.69259465 1.0163931 0.041789483 -0.12978922 0.89624244 -0.17045873 0.4859523 0.2810663 -0.9610952 0.13783023 -0.2609188 0.7750725 -1.5334905 -0.53493434 -1.3595834 -1.9595866 -0.39086834 -0.16054855 -0.3391582 0.053996846 0.3268785 -0.16509308 0.38389462 1.100867 -0.505528 -0.47529122 -0.55209035 0.3306533 -0.084593646 2.3815138 -0.92196655 -0.7699622 0.5214112 0.5682287 -0.2807048 -0.5316675 -0.09390405 -0.9315395 -0.08449896 0.10608433 -1.307553 0.0007305071 -0.13424946 0.033955954 0.0288671 -0.56344235 0.23391142 0.36452132 0.12802242 -0.092812404 1.3934075 0.8421358 0.86413705 -0.9191628 0.36161363 -0.44575962 0.8428987 -0.6955565 1.3107735 0.1770507 0.3196106 0.0013506465 -0.21900779 0.14671704 1.2514102 0.7329861 -0.041206308 0.9924129 1.8195541 1.7988034 -0.65965873 0.33102438 -1.1263874 -0.55634975 1.1129245 -0.26332116 1.7114303 -0.71161854 -0.36735216 0.94748247 0.21984562 -1.2107844 0.62295675 0.22291079 1.6771141 0.5710783 -1.4206853 -1.6604998 1.2348014 0.4272809
334 -0.7148851 1.2174133 0.54623175 0.8616499 0.02530904 1.1080724 1.4442022 -0.59169185 0.6290567 -0.40934235 -0.85946006 0.63738704 -0.5937826 -0.111461796 1.6750908 0.44821724 0.1945031 0.63361186 0.3126338 0.16299288 1.280136 0.17342378 -1.439802 1.8560319 0.045078356 -0.6396443 0.4546926 0.84509903 2.3868878 -0.62341607 0.806561 0.27068102 -0.5135733 -0.570245 -0.33483407 0.29880863 0.05486717 0.35071468 -0.34203297 -0.62840086 0.07564011 -1.3041552 1.3039497 1.8228337 -0.58614504 0.7862424 -0.96670884 0.18459381 0.06019589 -0.61792654 -1.494077 0.8099333 0.8905893 -0.28091353 1.6124258 1.5327848 0.63833314 -0.37975115 -0.061003976 1.0710144 0.51029587 1.8986251 -0.17026639 0.17812446 0.18428898 -0.3078733 -0.06450131 -0.2699858 -0.18671493 0.87997574 1.6636143 -1.0810338 0.21957621 0.85353386 -0.46265927 -1.1063421 -0.26860735 -1.1007056 -1.3082592 0.103012115 1.9095033 -1.1810015 -0.30955252 0.16140781 1.1277012 0.9136544 0.12563764 0.3291022 0.26255935 -0.33204266 0.91405135 0.426902 1.6671599 -0.19395655 0.05048743 1.8003999 -1.5368134 1.6600513 -0.15044959 -0.07283638 -0.47147277 -0.7275202 0.064455815 0.25331673 0.29506326 1.3247302 -0.8892509 0.96314573 -0.78867674 -1.0504613 0.08503562 -1.3294814 0.9127301 0.42283842 0.10875295 1.0474966 -0.97670025 0.82574594 -0.25009415 0.4142028 0.6671081 -0.14478053 -0.4629611 -0.39844593 -1.9217454 1.155309 -0.58261746 -1.0889331
51 0.4314907 0.20933884 -0.81187874 0.41009155 -0.5445726 0.34351197 -0.83365875 0.4164255 -0.88983965 -0.39109963 0.22832452 -0.27627245 -0.55679005 0.7689438 0.0012028565 0.6740446 0.13465206 0.2932258 -0.6507973 -0.7445293 0.10275249 0.30898026 1.171871 0.2389203 0.3960477 -0.67100805 -1.1438273 1.0883834 0.46434894 0.5169816 -0.15897048 -0.038199574 -0.75094646 1.3451508 0.44434783 0.3958941 0.16221698 -1.5262145 -0.34519312 0.2992464 -0.5475103 -0.57731766 0.8807187 0.249492 -1.3272077 -0.6132754 1.4916208 0.064662434 -0.7374343 -0.51603967 -0.49563733 0.34483895 -0.63511425 -0.18987614 -1.2192862 -1.4115567 0.8633068 0.43699193 -0.8293787 -0.35512388 0.71601325 0.28719315 0.42721984 -1.184395 -0.0027282988 0.15281239 -0.42150447 -0.17734711 -1.0990036 -0.68979305 -0.004571479 -0.5671675 0.6445439 0.3184552 0.4250134 -1.0271938 -0.45803335 -0.78666306 0.4816964 -0.63040876 0.0072085913 0.7521692 1.8228546 0.07695354 -0.14007458 -0.1712371 -0.69361913 0.61909527 0.77407914 0.16584663 0.8740062 -0.55337393 -0.7511728 0.705373 0.7961362 1.679105 -0.31091088 0.52641565 1.9302199 2.2021236 0.30971864 -0.38720462 0.4104728 -0.8635838 -1.2499989 -0.40001997 -2.070524 0.9077235 -0.6441889 0.9050046 -1.3456752 0.43912593 0.4153903 1.4683056 1.3588161 -0.0058132927 -0.37275708 -0.89705926 -1.1232201 1.9143778 0.7383191 -0.71705776 1.3300253 1.014047 0.58805245 0.43876317 -0.82987916 0.5219542
79 -0.2237167 0.113740236 0.28404891 0.73130304 -0.50685656 -0.7895886 -1.4279488 -0.72067386 -0.2397073 0.26661792 -1.0472641 0.16842222 0.98383313 0.3188339 -0.69085747 0.70195407 0.4083772 -1.7625852 0.46095982 -0.82439774 0.50800717 1.1684455 -0.96556205 0.21162666 -0.5206094 0.04677192 0.3886593 0.6329272 -0.5521394 -1.2117313 -0.6935758 -0.22274807 -0.3514414 -1.2897226 0.74697065 -1.2518436 0.15739803 0.41158453 -0.024583733 -0.5413248 0.46420032 0.21742578 0.8952968 0.23198003 -0.35321203 1.0338377 0.9897825 -1.8401095 -0.7590031 0.73049307 0.5493306 0.93461716 -0.19745849 0.51993436 -0.119075015 0.17717615 -0.035953134 -1.5699264 -0.72853225 0.4800179 -1.9890987 0.08612245 -1.0355473 -0.44862854 -0.86300004 -0.54151064 1.0178027 -0.6427941 1.3915126 -0.9032644 0.68435013 0.80755645 -0.20526953 -0.98075753 0.74794954 0.01124236 0.13562578 -1.4086545 0.013817831 1.8068798 1.0862707 0.17627694 0.3575605 0.5676252 -1.3621445 0.27508956 0.061383456 0.28640226 -1.971182 1.5011647 0.16942331 -0.37505308 1.9875654 -0.60217804 0.19338666 -0.33707345 1.1179178 0.24839847 0.29203907 -0.4260502 -0.46250173 -0.21884128 -0.3922506 0.34380895 0.88942426 0.12207803 1.2147269 -1.2780478 0.6711812 0.033856012 -0.5910876 0.6292895 0.7645752 0.13200977 0.089325845 0.2904542 -1.3992734 0.3161867 1.8350359 0.1728268 -0.040673405 0.34761158 1.4059695 0.7894928 1.1381538 0.4650994 0.62819684 1.0774771
328 -1.4952514 0.6413015 -0.773052 0.030853853 -0.30165803 0.973973 1.3458303 0.303545 0.1909145 -0.59521353 -0.6049137 0.3013718 -0.9576326 -0.21758892 1.7201864 0.6300445 1.0464253 1.1302289 0.78718895 0.4982859 1.0722584 0.7669693 -0.9230571 1.2654823 1.0281944 -0.14279129 0.9652917 1.6487322 1.337163 -0.35668737 0.682217 -0.47084853 -0.2659554 -0.5106002 0.20400822 0.18221998 0.62427264 0.38884252 0.93125504 -0.049663886 0.9649664 -2.0662863 1.6824106 1.4879723 -0.88846433 0.84421307 -0.39250913 -0.4902069 0.079128146 -0.74565774 -0.9501015 0.9098584 0.42696208 -0.83700055 0.80900323 0.6395217 0.13582581 -1.4281656 -0.05689222 0.7703846 1.3425322 2.1313899 0.2946177 0.099125415 0.1798002 -0.44243625 -0.29442927 -0.091202706 0.36041126 0.5828714 1.2138678 -0.42278385 0.25207505 1.1396197 -0.1633276 -0.8491575 0.1106533 -1.6722628 -0.70780635 0.36664203 2.2589912 -0.82407796 -0.33282223 0.15558797 1.5243483 0.7550808 -0.037547346 0.2710382 0.41893995 -0.053282395 0.8401048 0.21238992 1.7038215 -0.24160637 0.6038111 1.4856282 -1.3821124 0.8169051 -0.27153417 -0.008778529 -0.6894684 -1.1464459 -0.24003752 -0.12553918 0.7255233 1.0393214 -0.3174891 0.47675908 -0.44917256 -0.12307219 0.20258687 -1.2573637 0.2931013 -0.10555073 -0.49191603 0.78933 -1.4358855 0.74159575 0.44433728 -0.17399266 0.3493516 0.08454679 -0.81543505 -0.4463661 -1.6822375 1.0485018 -0.6640866 -1.2168663
220 -0.24852657 0.28597715 -0.52566534 1.6236593 -0.32045275 0.5074082 -1.5350016 -1.4899935 -0.64916563 -0.6246396 -0.14764047 0.3851232 0.34547606 1.9610454 0.6232123 0.43815914 -1.4708023 0.7840421 -0.8003656 -1.4361736 -1.0452832 -0.17099048 -0.7503045 -1.8196442 -0.59245455 0.5457198 2.1627808 -1.5130934 0.60316825 -0.749022 -1.1672198 -0.22516252 0.014824464 -0.10432538 -0.055372756 -0.48456287 -0.07373864 1.2708865 0.099756815 0.13632663 -0.4246025 -0.00022720081 1.5079155 0.41558722 0.7118093 0.22124758 -0.4491592 -1.2821786 -0.38340414 -0.9094202 0.4507346 -0.54017943 0.5584086 0.4318551 0.4023113 0.284494 -0.16272824 1.5585705 -0.33236256 1.1490542 1.2994306 0.019118529 -0.17430414 -0.13340212 0.6005505 0.45264164 -1.6120586 -0.8710844 -0.14393614 -0.732103 0.77663064 0.16780235 0.79902375 -0.28284568 -0.92852384 -0.5644768 0.85220736 -0.18089126 0.6738306 -0.67766833 0.21925168 0.381543 0.78755164 0.19744848 1.2737757 -0.5822514 -0.21846682 -0.70010394 -0.12376989 1.5824523 -1.9442055 1.4298136 0.27346915 0.8357425 0.09505742 -1.1906594 -0.24291037 0.48620772 -0.9634372 0.19161215 0.5155809 0.22141182 -0.5788782 -0.15859534 0.2716581 -1.4089657 -0.07322667 2.0867188 0.69926965 0.21931946 -0.29121232 0.42559806 2.1721797 0.14866443 0.21415544 -0.5551222 1.6260436 -0.58450663 -0.34257597 -1.2107679 -0.86390585 -0.083860755 1.1612861 0.17749785 0.0952582 0.43196604 -1.0063158 0.009328797
294 1.2790415 0.023884835 0.50145084 0.17169546 0.68134683 0.46289656 0.98247087 -0.844363 0.51315314 0.6045201 1.3084567 -0.31500798 1.0161383 -1.1885372 0.8281623 0.5368239 1.0810438 -0.4448156 0.86719584 0.9321788 0.1787358 -1.6860249 0.378718 -0.41181803 1.4273611 -0.3068276 -0.49309382 0.32712364 0.8778837 0.10403347 -0.14243339 -0.92977136 0.48789033 -0.060861006 1.3313562 -0.55976856 0.68900967 1.7162571 -1.178547 0.4176497 -0.89207333 0.09191355 0.018201819 -0.5943823 0.38455668 -1.8459183 -1.6185367 0.024246642 -0.116618425 -0.96012247 0.10390877 0.39805937 0.668421 -0.5119341 -1.0502115 1.1378902 -0.23823261 -0.61017776 -0.076774605 -1.1596142 -0.61839837 -1.0546081 -0.35899615 0.14078043 -0.2913982 1.6658033 0.25366727 -0.5956602 0.108550355 1.3880856 -0.03981215 2.6677048 0.6742795 0.46916506 0.085421495 -0.59371936 -0.46090108 1.3664764 1.2209803 0.76781243 -0.6369778 -0.4412096 1.4338351 -1.1325802 -0.24560061 0.64418465 0.37555242 -0.7157623 0.12694526 -0.61012816 -0.48206443 2.3393795 -0.11769067 -1.7383176 -1.57326 0.37527394 0.730659 0.3582722 -1.1704559 -0.5239404 -0.4740355 0.28124067 -0.8581591 -0.3718348 0.18657097 -0.509683 -0.3602568 -0.03982173 0.2161829 0.3128365 -1.5518805 1.2592436 -0.23518535 -0.28169024 -0.86270833 0.9740329 0.062297262 -0.11596376 -0.87136656 1.7089084 0.6652833 -1.2339402 0.2860624 0.6199371 -0.51193804 -1.9940246 0.97630817 -0.40933755
14 0.084877506 0.094810724 0.1391882 1.0111144 0.91939676 -0.6751091 -0.6414001 1.342366 0.7494598 0.14580597 -0.53684974 -0.94441116 -0.69882214 0.7681902 -0.7757142 -0.88465464 0.20848647 0.7045329 -0.28860328 0.33872178 0.07092693 1.3338296 0.14019299 0.2882583 -0.6641096 -1.3293997 0.68766963 0.7966224 0.45696014 -0.46908927 -0.13063653 0.9109173 0.42034918 -0.73572093 0.9071063 0.023347983 -0.13686347 0.53397304 0.14577678 1.0870342 0.033033237 0.064818375 1.024852 0.83928406 0.12758015 -0.69933563 0.11608616 -0.24197236 -0.31455562 -0.6358428 0.83953017 0.33772925 0.3325725 -0.12106597 -0.25302505 -0.61912334 0.96935946 0.14182395 0.1793897 0.87651044 -0.124074474 -1.0490148 -0.48977968 0.53711075 0.10051176 -0.554703 0.65176225 -0.85043824 0.0025548313 0.5008822 -0.6579321 0.03447995 1.1974245 -0.6178829 0.23959307 -0.8175093 -1.7087679 0.4884254 -0.59150857 1.1171862 -0.47758928 -0.7458543 -0.51338285 1.2953815 -0.20387353 -0.234207 -1.2516978 0.13251704 -0.04207272 0.62323475 -1.2259212 0.16738603 1.0642482 -0.13928314 -1.123236 -0.62378615 -0.08629666 -0.90182626 -0.86279315 -0.22639444 -0.77495074 -0.64766854 0.07042955 0.034172196 -0.07639993 1.0849209 0.26349053 -0.47292247 -0.30399615 -0.0692625 0.54414344 0.4820309 0.097907685 -1.1057295 -0.10060463 0.58327824 -0.76279795 1.1531528 -1.087441 1.181281 0.035471287 0.35823393 1.6557223 1.1966176 0.9873171 -0.69642454 -0.667458 -1.0258341
260 0.12323425 0.06847385 -1.0664685 0.55246437 -0.34109172 -0.09797496 -0.5250903 -0.50229806 -0.22261713 0.05932073 0.9554536 -0.5550576 0.6225404 1.5873873 0.35514346 0.28737843 -1.9783723 0.3799067 0.3971622 -1.7485611 -0.8441219 -1.4416038 -1.0888994 -1.9208646 0.14693828 0.5373912 2.2975464 -2.0922725 1.234279 -0.05357685 -0.59124285 0.15276875 -0.7459486 0.13101748 -0.25092357 -0.5851776 -0.16261426 0.12141369 -0.06153129 -0.99068177 -0.14720403 0.3143633 0.8462955 0.94260186 0.63064057 0.37080628 -0.24714667 -2.4882174 -0.37198484 -1.3343886 -0.13645655 -0.33960837 1.4907345 0.34355026 0.5528694 0.6120601 0.31996956 0.7887748 -0.7070309 -0.05320234 0.8413604 -0.73441464 0.12027128 0.6227489 1.0587804 1.2590358 -1.4740165 -0.430337 0.046783473 -0.8121193 0.94867665 0.5183209 -0.23191056 0.20391412 -0.9588796 -0.786578 0.28983027 0.06181374 0.5738046 -0.87069744 -0.12578976 -0.22204512 0.9679109 -0.08280243 1.5170004 -0.8916634 -0.6994392 -1.126567 -0.6003783 1.2619619 -2.167282 0.9116769 -0.22640929 0.3863763 0.06543006 -1.613978 0.9723942 0.37796268 -0.62374675 0.40844896 0.52252907 1.2980175 -0.70144105 -0.74080616 0.32306826 -1.4250234 0.91816086 1.0138175 0.79645807 0.15507995 -0.10051392 1.2229174 1.4764203 -0.46999857 0.24669404 -0.6547579 1.0606853 -1.3567985 0.22721303 -0.80853176 -0.16158377 0.84599006 0.92939115 0.5209716 -0.23878811 0.45767885 -1.5484065 0.056738134
39 -1.0141797 -0.04495157 -0.30177003 0.673028 0.59463686 -0.80045736 -0.26603618 1.6267854 -0.14308245 0.7768843 -0.26153275 0.54760087 0.7756831 -0.25400522 -0.8019621 0.5279 0.6071137 0.93538857 -0.86286116 0.74814165 -0.88757956 0.24797165 1.0772805 -0.9193971 0.24490187 -0.21708336 -0.3272941 -0.33554247 0.41629222 0.15490846 0.16375591 -1.9460318 0.2610872 -0.39586607 0.296818 2.01156 -0.14756262 0.37771365 -0.010874213 0.234236 0.3246111 -0.15502495 0.37270406 -0.14620118 0.871029 0.47044206 -0.58181566 -0.11472245 -0.93869054 0.08801505 -0.9163332 -0.25634384 -0.7969345 -1.0606387 -0.008975435 0.31932288 -0.309107 0.06926647 -0.12925868 -0.21222115 1.1541041 1.017464 -0.43729794 -0.11529063 -0.84198344 -0.052819762 -0.36016217 1.9003012 -0.6759725 -0.5207144 0.69637966 0.93113816 -0.15475401 -0.43474773 0.19355392 -0.9096087 -0.23808838 0.20957622 -0.5962452 0.29602525 0.35069486 -0.47849917 -0.045607418 -0.106547534 0.29533398 1.2189896 -0.09178968 0.22466926 1.0030088 0.970742 1.0228207 0.017931798 -0.13907242 -0.18167931 0.57118386 -0.5853259 0.97476506 0.124884084 0.48612446 -0.12592514 -0.31414667 0.19026652 1.1292224 0.4357254 -0.004463869 0.7341414 1.8366373 1.5430608 0.16293706 -0.1381551 -1.2447088 -0.51749206 0.44220614 -0.15579873 0.99284875 -0.2943954 -0.16872047 0.46852764 0.7102434 0.09527981 0.17090297 0.3630868 1.5352085 0.16500124 -1.4377915 -1.2634051 1.3056768 0.60773355
144 -0.0657281 0.77550834 0.8970967 1.5833219 0.9988887 0.15526219 -1.4349666 0.28835434 0.38466367 -1.248641 -1.0592374 0.5793638 0.9075824 0.99565154 0.36778006 0.5614087 -0.21584162 -0.63194144 0.92843944 -0.53968585 -0.7282489 0.23416519 1.1156574 -0.41300443 -0.12666397 0.7563915 -0.29410315 -0.22460432 -0.44121352 0.73205113 0.26418364 -0.8499021 1.4926236 -0.91372955 0.1436857 -0.60038614 -1.044463 0.794496 0.19410564 -0.2124951 1.8953434 -0.32857975 0.5073394 1.2764204 -0.38452244 1.3992983 -0.45653513 -2.4810355 0.010823516 0.66765165 0.6563457 1.4612478 0.17696042 0.45343107 -0.18035623 0.48442313 -0.41027355 -1.2984715 -0.56019604 0.5252789 -2.1895938 -1.5473437 -0.7572187 -1.193318 -0.84494233 -0.018723296 -0.33684805 -0.46509126 -0.10455408 -2.4274049 0.72187144 0.7185899 0.6546663 -0.72981125 0.73857415 1.0355059 -0.19084015 -0.6584192 -0.2931694 0.7427942 0.7813862 -0.23480843 0.124772236 1.9627895 -0.31549215 -0.4610091 0.47194764 1.1576513 -1.2479728 0.9438457 0.8070661 -0.26171818 1.0866523 -1.535459 0.28977358 -0.3881205 -0.51132053 1.0969106 0.5562387 0.20746951 0.19206108 -1.1459603 0.10215702 0.115843855 0.40016323 0.3388272 1.026165 -0.969878 -0.6220855 -0.57600754 0.30764496 0.35293153 -0.5733901 0.7083553 0.17971684 0.012394859 -0.34955528 0.69198686 1.3961599 -0.21968749 -0.8955734 -1.5156026 0.46043366 1.0324025 0.99913895 0.34160963 0.48268268 1.3560566
221 -0.6927692 1.3388876 0.6685738 -0.077519506 0.22981887 0.38830122 -0.15909949 0.12859695 0.49681145 -0.6535585 -1.2919071 0.9127462 0.14404106 -0.7040689 0.16908431 0.5787623 0.6816299 -0.3199958 1.3234121 -1.9670614 1.1076334 -0.53810483 -0.5865479 -0.14173567 0.23999082 -1.4424535 0.49694297 0.13986915 1.1329916 1.3916047 0.4103792 0.90281653 0.28260732 -1.1461927 -0.39208665 -0.27467558 -0.6142389 1.0846456 -0.46300593 0.47616822 -0.24036305 -1.0182216 0.42823747 1.709235 -0.09569283 0.585763 -1.5399084 -0.335939 0.42938247 -1.4229131 -2.8059518 0.5492031 0.6288426 0.1388726 1.0810506 1.199477 -0.7744485 -0.7376216 -0.20713384 0.24619325 0.48184162 -0.09123513 0.12907499 -0.0680474 -0.9944661 0.19215336 -1.1265327 0.3278344 -0.58998525 0.34753713 0.60788447 -0.6109968 1.4564254 0.09873658 1.2060547 -0.40198854 0.31680742 -0.3685997 -0.28096887 -0.6157825 0.06429296 0.6363859 -0.7888689 -0.76275426 -0.3537392 0.777253 -0.398619 0.3208253 0.6355522 0.1717661 -0.6904208 0.62571156 0.75906736 0.8378207 0.43100926 2.5734317 -0.79751855 0.84965384 0.15898502 -0.7098495 0.08530496 -0.2802478 0.1990885 1.5216098 0.48196846 0.7175058 -0.25885513 0.4415914 1.1453199 -1.89687 -0.28067747 -0.49968424 0.9786324 0.37196702 0.6976004 1.0738393 -0.9692372 0.08271332 -0.8739812 -0.14448825 1.730164 -1.4580308 -0.3069271 0.38136506 -2.0694847 1.0715991 -0.31207797 -1.6734468
214 1.2553573 0.51232237 -1.5809642 -0.020197442 -1.4499174 0.47507954 -0.80522513 -0.87650716 0.15361404 -0.05275275 0.5487105 0.8460641 0.035326805 -0.7315961 0.58117753 -0.15668322 0.6688982 -0.40348753 0.5697525 -0.68757266 1.1184031 -0.108080626 0.6107502 -0.7158518 1.1339148 1.7983285 0.71538836 -0.5352135 -0.4912 -0.25942996 0.8406832 -0.5578646 0.98927385 0.26386872 -0.55661845 2.0759706 -0.89398885 0.61884063 -0.21665834 -0.9220413 1.0640926 0.2242061 1.0443772 0.36614913 -0.24840233 0.67586964 -0.23320413 0.4251269 0.966951 -0.33300105 0.06850907 -1.2848814 -0.7691168 0.37880483 1.3734654 0.4078965 -0.08681428 0.91935253 -1.3298413 -0.53834516 -0.67378217 0.18838404 1.1041662 0.34080306 -0.76687527 -0.10775684 -0.5923473 0.80832475 0.45945042 -0.1723022 -0.5019462 0.514275 -1.1109804 -0.059654273 -1.464436 1.1359344 1.2405462 -0.3410742 0.04983751 -0.48410308 -0.88487023 -0.4332353 -1.503555 0.9323102 -0.67714006 1.3402562 0.14492741 0.78788203 -0.85310817 1.073345 -0.46806312 -0.9045249 -0.84003204 -0.6061234 0.6715998 0.3823116 -2.3753912 -0.4682196 0.5453888 -0.70793587 1.3966024 0.8750079 1.1808177 -0.1727993 1.4269629 1.225008 -0.16887648 0.06317859 -0.031485904 0.43359065 0.13253412 0.10329614 -0.38726065 0.4654902 0.70946544 -0.27643687 -1.3232499 -1.5359685 1.0053406 -1.4544578 -0.24777396 0.2126288 -1.2296859 0.60047424 0.4972589 0.8342824 0.6810192 0.8243869
213 1.4865186 -0.2603043 -1.7615659 0.010201698 -1.6835686 0.17841943 -0.045603644 -1.0659165 -0.313047 -0.1312939 0.9987404 0.57093686 -0.09861951 -0.5806776 0.29788706 -0.195102 0.6971749 -1.1889182 -0.01041852 -1.1409335 1.4174292 0.0054328595 0.22005425 0.05454873 1.336975 1.9603586 1.0857722 -0.08165635 -0.34720644 -0.07424634 0.024071684 -0.5067349 0.57653505 0.6376615 -0.4595378 1.9398961 -0.55962014 0.25273818 -0.037961934 -1.1851447 0.6440334 0.5120366 1.1214371 0.43312252 -0.5079077 0.3108101 0.34955895 0.47097257 0.71759397 -0.45848012 -0.19202988 -0.91336244 -0.57239157 0.024692003 1.2982621 -0.28412503 -0.73287386 0.9077626 -0.9643575 -1.0502582 0.22234602 1.1978602 0.42046368 0.45325702 -0.74894804 -0.24346715 -0.8317237 0.3953438 1.2426474 0.24806051 -0.46085572 0.18100765 -0.7339716 -0.6298417 -1.7406934 0.47911698 0.79739255 -0.56770825 -0.5156976 -0.33863708 -0.5943023 0.1598819 -1.3470464 0.60565925 -0.79219276 1.0509287 0.07522002 0.55602413 -1.6906809 0.59193355 -0.47307932 -0.8517826 -0.40325978 0.0061093005 0.11847588 0.13853303 -1.7840872 -0.7350146 -0.1456586 -1.1934325 0.47722292 0.37090194 1.0477659 -0.06532179 0.9146784 1.0637829 -0.20483087 0.32700104 0.6007104 0.37365675 0.026389197 0.2687364 0.388245 0.7509086 0.532095 0.74002576 -1.5333226 -0.5894846 1.0983143 -1.0610924 0.13643165 0.85426676 -0.5677494 0.16139895 0.48979753 0.62319726 0.66179323 0.14417337
333 -0.96201444 0.704937 -0.06717424 1.0763603 -0.19330443 1.1259257 1.6982969 -0.6616824 0.4215157 -0.5143362 -0.17835063 0.19069794 -1.1124214 0.016864447 1.6123854 0.025874618 0.61629933 0.80426586 -0.4754209 1.0049762 0.74449 0.9760908 -0.9732272 1.7119256 0.4030771 0.34566262 0.8302971 0.701203 1.3205339 -1.3470677 0.3472203 -0.29024863 -0.19350043 -0.031252712 -0.4386726 0.33661693 0.14246519 -0.20577754 0.57550436 -0.47819287 0.3754487 -1.0721996 1.2608557 1.7032173 -0.9448196 0.4159886 -0.16851781 -0.24738201 -0.4515082 -0.88650614 -0.09590867 0.7667532 0.37860563 -1.0055455 0.84837633 0.8368814 1.1049572 -0.47760445 -0.6930062 1.0764292 0.9697906 2.3816319 -0.15904492 0.47934306 0.013277495 -0.51058596 0.019648602 -0.72473586 0.032778222 0.66135275 1.1799717 -0.385332 -0.7704703 1.6412834 -0.53471035 -0.8646985 -0.79515827 -1.648645 -0.9742792 0.99288577 2.3521562 -1.4692636 -0.012438131 0.99531645 1.4220197 0.7238951 0.073223315 -0.2841812 -0.10048021 -0.84267974 1.7610185 -0.14478655 1.3096392 -0.6468533 0.0042598546 1.2375016 -1.553124 1.1135942 -0.6706832 0.28116772 -0.98925453 -1.2285074 0.08813579 -0.18220916 0.5902257 1.3388541 -0.7105347 0.5125049 -1.3737051 -0.39027366 -0.04852563 -1.741716 0.4623377 0.075352244 -0.39657646 0.38553983 -1.0958529 0.92158806 0.39429682 0.28389952 -0.23824325 0.51434314 -0.6447202 -0.17121145 -1.4175137 1.107629 -0.5040892 -0.18808208
397 0.8128583 -0.12630875 -1.2825419 0.9025955 -0.5757149 -0.557059 -0.48474526 1.1869988 0.012136952 0.852558 0.18650718 -1.8520101 -0.74041384 0.3591414 -0.5542955 1.9378662 0.57334757 0.4250071 -1.0949625 -0.12647384 0.16281655 0.40404913 -0.49989492 0.67193156 -0.58605474 0.71612185 -0.6764224 -1.3275975 -0.82271814 0.45678264 0.47720736 0.098949134 0.50790447 0.5127912 -0.4906653 -0.024744397 -0.5711754 0.51524407 1.2252333 -0.97053343 -1.2834477 0.62824947 0.05916906 0.0431727 0.06996139 0.16325949 0.14890537 1.6082867 0.7061584 -1.14924 -0.68643683 -0.9991969 0.58121586 -0.48099917 0.21911192 -0.41867024 -0.20690633 -0.5780744 -0.1361451 -1.322815 0.6946545 -0.14254461 0.024252748 -0.19451618 -0.2263775 -0.581299 1.9763728 0.101116225 -0.44215292 -0.062525444 1.8373371 -0.104203105 0.15925299 0.8494209 0.50388575 -0.12983271 -1.3474392 -0.2615728 0.69184905 0.4451184 -1.3192214 -0.69886184 1.7144148 0.3802383 0.044923842 0.5278537 -1.1742463 0.6980091 -1.1676637 0.61202306 0.9108729 -0.6164447 -2.484497 0.20023273 -0.6432814 -2.8267844 0.9320681 -0.7047935 -0.916407 -1.3692274 0.0046561696 0.16804707 0.26747033 0.542082 -0.18806036 -0.6056943 0.24023053 -1.3383105 -0.72486436 -1.266025 -0.061189823 -0.54296184 0.84372705 0.48635474 -0.8158234 -0.20001583 0.0782587 0.42497018 1.3285043 0.39080182 0.58726937 -0.25625944 -1.6282015 0.07328712 1.9179053 -0.21289505 -0.30694246 0.08269099
30 -0.0683767 1.065028 0.3568163 -0.40624005 0.32779044 0.79851687 -0.92914206 -1.7420411 -0.56830096 -0.08649681 1.0310423 1.009256 0.1461872 0.17070106 -0.5659214 -2.00765 0.13674513 -0.33462307 -0.69906986 0.15789999 -0.92770046 0.1817594 0.18747789 -0.9196791 0.39912307 1.6582065 -0.45334226 0.83550334 0.22460297 1.0199593 0.67124987 0.057434943 -1.043976 -0.23809586 1.0922345 0.56307954 1.392675 -0.40998027 0.51541954 0.024212496 1.6089926 -0.19907638 -0.7426907 0.81769985 -0.030173933 -0.71656704 1.1989043 -2.1610553 -0.96485794 -0.022675935 0.39123002 -0.73820764 -0.303971 0.11327381 -0.8773033 0.18950412 -0.3384031 0.6802737 -1.3933779 -0.24517125 -0.09154835 0.08718724 0.7653127 -0.38727498 -1.0395488 -0.3985133 -0.83212346 1.9229466 -0.010007452 0.5224332 0.8210582 -0.022002576 0.025478609 -0.77615726 -0.042508453 -0.56716526 -1.0873669 0.21202223 -0.17536508 1.0075023 0.013877461 -0.1808728 -0.7315461 0.21912625 -0.018539926 -0.24417178 1.6711832 0.27472678 1.102054 -0.55806977 -1.0725323 0.8436966 0.349229 -0.7763332 -0.120637804 0.5644384 0.31418544 0.07331561 -2.2228937 -0.41388887 -0.65484434 -0.014575392 -0.31926277 0.67134684 -0.39750478 -0.58238053 -1.051848 -0.798432 -0.02960387 -0.8202338 -0.5438758 -0.7946575 -0.34442064 -0.39603922 0.1953905 -0.053132456 -0.19793575 -1.2752732 -0.5912516 -0.42244145 -0.17951782 0.45994353 0.57272255 0.23383036 -0.56116694 0.07974697 -0.27910766 0.19947095
378 0.21052578 1.4449757 0.6258027 -0.46894568 0.5032453 -0.8658689 0.8423711 0.8719833 -0.010726959 0.69085187 -1.0585113 0.6642906 1.2733456 -0.82481366 -0.25744683 -0.9260516 -0.69489896 0.5228307 -0.076871626 1.0994773 -0.24731053 0.98934156 0.31015894 -1.0976448 -1.4318589 -0.050351884 -1.4908849 0.07122384 0.113201745 -0.009086275 -1.2842199 -1.0673721 -0.3497423 1.6587085 0.1692991 -0.7131683 -0.91994065 -1.5351288 0.2796958 1.3824347 0.56413734 -0.4130526 -0.29119265 -1.0130513 1.5827934 0.20891552 -0.307621 0.2716711 -0.13126083 0.8124296 0.03951083 -1.0833552 1.1923044 0.12296155 1.6551516 1.6339564 0.75504017 -0.13727981 -1.0948982 1.1475811 -1.6442527 1.1518968 -0.36222938 -0.028342312 0.39141938 0.90749365 1.9286003 -0.2875769 -0.21924973 0.3592087 -1.6984324 0.93016034 0.7045254 1.3470532 -0.7680601 -1.2394109 -0.26365125 -0.380163 0.31663346 -0.049420014 -0.64304453 -1.3764346 -1.6247207 -0.32810673 0.29286942 0.4905319 -0.4568587 0.29865763 -1.0345947 -0.25785327 0.083168805 -0.17068742 -1.2100892 -0.53437656 -0.25040132 -0.1556014 0.73976475 -1.3292387 1.0938785 -0.00044340873 0.3767213 -0.6540517 -0.6431047 0.77724886 -2.3323367 -1.0084184 -0.1060735 -0.26207364 1.4567143 0.30838323 -0.040735606 -0.18697424 -0.6528281 -1.513977 1.0125266 -0.036234714 -0.038292795 0.7816372 -0.0385885 -0.58075565 -1.8870182 -0.48812348 -0.7143251 1.3358032 0.09387254 -0.15550186 0.67285997 -0.14193824
233 0.9685478 1.2126912 -0.87840044 -1.3964099 -0.9340342 0.14331743 -0.2583128 -0.33707634 0.39545396 1.0038556 -0.7600467 0.33558664 0.78897756 -1.7209829 0.7689512 -0.84731096 -1.1921829 -1.3356146 -0.31319046 0.09643332 -0.11646779 0.33893916 -0.8942149 -0.16722043 0.008324525 0.03110098 -0.9588401 -1.3811493 -0.54452723 0.33218706 0.025583131 -0.50906366 -0.30763915 -1.0088238 1.4679408 0.7388598 -0.4573317 -0.4194852 0.29327276 -0.5584049 1.1542097 -1.0440217 0.48573965 -1.7628195 0.114089906 -0.4911839 -0.41427195 -0.15347312 -0.24279357 0.27454105 0.9275107 -0.21853249 2.3853202 -0.7880399 0.6641641 0.5535394 0.6282441 -1.0759798 -0.73355454 -0.33071357 -0.80900365 1.088517 -0.6573162 0.030423718 -0.12649897 0.11054694 -0.106824644 -0.6897402 -1.0598054 0.6128271 -0.96723145 -0.3910446 0.5280478 0.20361425 0.49803594 -1.6187766 -1.1520216 -0.26395902 -0.18612577 1.1858463 1.0124984 -0.64917016 -1.3100547 0.12704757 -0.5613917 0.63460934 -0.28226095 -0.34472433 1.6410248 0.4720492 -0.20366247 -2.258696 0.043920103 0.120485485 -0.21012956 0.21182841 0.50378287 -2.4018812 -0.22289859 0.03139859 0.88296497 0.81749475 -0.19196299 1.7672721 -0.601865 1.0541036 -0.23292793 -0.75435 -1.1471387 0.13066348 1.3113087 1.107978 -0.94671965 -0.7322406 0.36363217 -0.09092213 1.1901882 0.4434485 -0.016500823 0.9063711 -0.44721648 -0.6088673 -1.1165344 0.7504611 -1.1608678 0.09612517 0.8771296 -1.0742241
313 -1.2460604 0.32341975 0.7428116 1.1281236 0.9504941 0.38499385 -0.9692961 -0.5863879 -0.062364995 -0.3101684 -1.6663934 0.049374472 0.67609537 1.617424 0.32964447 1.1841712 0.060138196 1.6986326 -0.14825726 -0.57104176 -0.594005 0.63902444 -0.1579314 0.18395466 -0.52271813 -0.06450855 1.5017024 -0.75125057 0.57493806 -0.91019446 -0.21912661 0.049755856 0.9518695 -0.098914646 1.5011542 1.3004184 0.98652726 1.5334222 -0.056423873 0.1793543 -0.5511071 -1.9515989 -1.1228627 -0.09452934 0.18736364 -0.111035146 1.1365651 -0.083162926 0.4068184 -0.082820415 0.81196594 -1.2957867 -1.1195147 1.9471884 -0.90716034 -0.6233344 0.2462362 1.1792686 1.1471155 1.4218824 1.6623943 0.09200994 0.39829957 0.75183606 0.7798494 -0.07520411 -0.8007603 -0.16314183 0.80184424 0.8497459 0.6918936 -0.53216183 -0.73221177 -0.22070467 0.39443162 0.36812228 1.457036 -0.16952431 -0.51067334 -0.18505725 1.0299463 0.6979728 -0.39165953 0.5758023 -0.5981757 -0.015308693 -0.06475206 -0.5251177 -0.10863649 -0.06439682 -0.24230419 0.16018243 0.7239699 -0.27098188 0.13074827 -1.2760862 -1.2484655 -0.23325478 0.52592826 -1.7963483 -0.2102839 -0.022507137 0.38009903 1.1163019 1.1530567 -1.6162223 0.43963715 0.68619776 0.4922322 -1.6786736 0.050306715 -1.2235509 0.37534043 1.0878185 -0.9869927 0.659228 0.41277474 0.081398584 0.017970005 -0.7788382 0.30012468 -1.006494 -0.34228304 -0.20243828 0.1441806 -0.8270408 -0.20619002 0.9237392
130 0.95138276 -0.014566072 1.859069 0.7702685 -0.16766818 0.71154696 -0.43280032 -0.4952005 0.92740107 0.33347958 -0.87881464 0.30580616 -0.6113793 -0.028887207 0.874686 -0.6861651 -0.4720668 -0.226145 -0.18199527 1.071415 0.16555254 0.80762327 0.84298676 0.99301124 0.7993722 0.2025169 0.109755464 0.6803197 0.94746214 -0.45719215 -0.20303875 1.1335039 -0.52167356 -0.25648308 -0.18447082 1.8564303 -0.7973742 0.8157714 0.04736166 -0.40089074 -0.51604414 1.3733877 -1.1987804 0.52374387 -0.08164302 -0.41313776 -0.6241574 1.2281555 0.122343235 0.62748855 0.39099976 -0.1187609 0.022981837 0.94992274 1.1757483 0.5696104 -1.2636167 0.97735494 -1.3010583 -0.20125075 -0.60856354 0.4135889 -1.1912228 0.5052578 1.3892965 0.15714581 0.03420036 -1.3882326 1.0934496 -0.3353685 0.557934 -1.2987176 -1.1982043 -0.22393285 -2.4326236 0.49804375 -0.8306254 -0.7616939 -0.3822432 0.17206779 0.52027494 -0.8025488 -0.020711461 0.16220148 0.37047353 0.44209477 -0.6509318 0.2767969 0.05448393 -0.7738393 0.052730553 -0.45516837 -0.03973508 0.6981651 -0.24274275 -0.05044153 0.18912275 1.1874524 -1.4650538 0.6188779 -1.1092832 0.5427895 0.063524894 -0.13279171 -1.3931562 -1.0234915 -1.1349454 -0.05749707 -0.6991854 -0.08928187 0.52441245 -0.5442799 -0.035538252 0.40683955 0.052198246 0.018557366 0.9146704 -0.33933207 0.5773457 1.2543147 0.20303035 0.92151964 1.1316642 -0.9186711 -0.07836835 -0.7526522 -0.53778774 -0.08421803
105 1.1023403 0.5235291 -0.33165893 -0.44000512 -0.10453609 -0.2245292 -0.4202565 0.19294037 -0.0017991663 -0.5645345 -0.7898447 -0.6974547 -0.50441885 0.3277343 0.1512608 1.1249496 0.7477667 1.3034574 -0.6499016 1.5670017 -1.286943 0.47619158 0.30556694 0.4112431 0.015208362 1.0037763 -0.75693995 -1.3959563 -1.0493652 1.8189541 0.614598 0.94902784 1.1630913 1.0355101 -0.0137717435 1.0804467 -0.73977697 0.9585426 -0.7396753 -0.40684682 -1.6154358 0.5963958 1.0426749 0.6561392 -1.3776424 -0.37944826 0.4295007 1.0081825 -0.97526973 -1.8749579 0.70029515 -0.66151375 0.019815413 0.36994836 0.75921077 0.34543154 -0.41454098 0.11160921 0.4511217 0.5093186 0.081489325 -0.44027427 -0.6149481 0.45861176 0.1905759 0.38479006 1.3009088 -0.43130845 -0.50672376 -0.16283284 0.5136345 0.4988475 1.363644 1.5812147 1.1775028 0.9813971 -0.4264451 -0.2838698 0.34132537 1.2391434 -1.3838127 0.7604441 -0.21640949 0.15221195 0.14210895 -0.3095389 -0.5354842 -0.64436394 0.12323656 -0.90331 -0.52263355 -1.5835413 -1.4389209 1.154631 -1.2020047 -0.55859077 0.7811448 -0.23909965 0.10205548 -0.43101692 0.1993072 -0.56259763 1.0594099 -0.070948504 0.44731244 -0.9830234 1.3281506 0.3362967 0.5179512 -1.3351271 -0.14767505 -0.69097567 0.85425436 0.25989687 0.7340735 0.3436117 -2.0572417 -0.50159913 2.703118 1.2085932 1.798398 -0.15674275 -0.55829436 0.57382345 1.2324151 0.7271318 -0.22520839 -0.6677819
363 -0.33638555 1.1929427 0.7575726 -0.28233925 0.73567027 -0.23029241 0.94549364 0.064195365 0.17576267 -0.03239829 -1.3485914 1.5495424 0.012229877 -0.56249976 -0.7511416 -1.8782511 -0.4593505 1.1987197 -0.036414884 0.9098172 -0.10649671 1.1645582 0.1271554 -1.1731349 -1.1865404 0.44831905 -1.237018 -0.018208731 0.2172909 1.217173 -1.2726669 -1.4669075 -0.31819877 1.9043971 0.0418673 -1.4528025 -0.3589134 -1.0915496 -0.0093312515 1.6983562 0.44383985 0.14484611 0.03777578 -0.5733983 1.4442297 0.17032647 -0.98751056 0.72084945 0.27280098 0.4132676 -0.11274963 -0.38436148 0.65041894 -0.32412702 1.8912959 0.9666621 -0.016265295 -0.011250231 -0.9037076 0.81511235 -2.1181543 1.6801659 -1.5922241 0.43906695 0.49181145 0.11991554 1.3690746 0.028833618 -0.2031287 0.41593686 -1.0389776 1.045303 1.1011685 0.5097067 -1.2977166 -1.5692736 -0.53818965 -0.5780835 0.2536555 0.3146075 -0.38133478 -0.49802858 -1.4290636 -0.085537344 -0.044440348 0.78009695 -0.09648226 0.37757665 -1.182979 0.5052916 0.7045328 -0.2826508 -1.8831782 0.4388483 0.6761898 0.015772441 0.29137838 -1.1431018 0.83112866 0.5331066 0.83116126 -1.0237288 -0.59836304 0.8412753 -2.2243073 -0.9257386 -0.4861079 -1.0482459 1.6368783 -0.08052243 -0.004684834 -0.2456579 -0.21641839 -0.98952055 0.61389136 -0.5353854 -0.16325144 1.2834209 -0.38237345 0.15124959 -1.6688145 0.13585602 -0.43913642 0.5575005 0.34056392 -0.6787993 0.6210079 -0.93065006
385 1.6669018 0.5712615 -1.803864 -0.52846575 -1.0526476 -0.117491886 0.3024641 -0.17984946 0.007389823 0.7125977 0.23029567 -0.27628464 0.1892758 -1.5754617 0.694794 -0.29854238 0.13154343 -1.954487 -0.6525236 -0.8864035 0.8603541 0.1455857 -0.24745889 0.109844595 1.6015192 1.3929188 0.5358543 -0.64415854 -0.20253704 0.2027415 0.19648588 -0.27589253 0.7238621 -0.16073011 0.5729575 1.9405277 -0.48735893 -0.35416156 -0.46107438 -1.1860899 0.65165645 -0.68270147 0.19146962 -0.5063769 0.034604277 -0.4646357 -0.06927701 0.20240822 0.1254599 -0.020252883 0.46242502 -0.41715232 1.0007068 0.11382717 0.5128891 -0.15474972 -0.6158107 0.3803497 -0.4528516 -1.066874 0.93219167 1.2904304 0.5338711 0.7709258 -0.77354175 -0.23174213 -1.1951746 -0.57457435 0.23019195 0.8694973 -0.63038385 -0.41135854 0.22910611 0.04002184 -0.65011364 -0.6024143 -0.60161763 -0.075534545 -0.92318404 -0.40663135 0.3118313 -0.9962408 -1.5312915 0.12910464 -1.1155227 0.9362754 0.13655202 0.21156251 -0.6696031 0.008257077 -0.7026042 -1.322876 0.5348241 0.26731077 -1.0970244 0.028216803 -0.9820192 -1.5113947 -1.2956018 -1.1902739 -0.5642748 -0.18546396 1.1320271 0.93614405 -0.50590944 1.3646634 -0.1500629 0.41108468 -0.46196035 0.725813 1.7633344 1.5496553 -0.96134645 -0.021642614 0.5500145 0.63947785 -0.055741183 0.7418209 0.4866772 -1.0579591 -0.15978609 -0.16694823 -1.2116278 0.8318413 -0.9777141 0.56469715 0.44373167 -0.75128937
199 -0.14877862 0.62480605 -1.5901595 -0.34241983 -0.6736517 0.53225225 0.6205856 -0.6416301 1.3355347 -0.8223977 0.28261125 0.852375 0.04231765 -0.6987887 -0.21693878 -0.54825723 0.41413546 -1.0974941 -1.1915019 0.16153342 0.81722516 -0.74662554 -0.274929 0.32844207 -0.78617305 -0.6073622 0.4627825 0.34584075 0.041880433 1.2965121 0.91473854 -0.463776 -1.3174725 0.863681 -0.20067902 -0.07314385 -0.22499128 -0.786106 0.30876172 1.087339 -0.30541837 0.37655696 0.8106152 -0.8243419 -0.8532784 0.5864962 -0.3950991 -0.2244367 0.18951075 2.5680096 -1.9276943 -0.80171466 -0.36690992 -1.2475866 0.53629005 -0.5331024 -0.06987232 -0.43776327 1.0598553 -0.7077799 -2.1625662 -1.4129411 1.1719722 -0.75769037 1.152928 0.46474162 1.2631466 1.4431112 0.88582736 -0.106020205 -0.9080363 -0.053604513 -0.13156135 0.7720305 -0.7218974 1.2731322 -0.47427285 0.15283215 -0.2340745 -1.4382017 -1.4012442 0.60162807 0.31156766 -0.6312541 0.51004314 -1.3761258 -1.2699045 -0.44688785 0.7025052 0.5550602 -0.5861381 -2.6676998 1.1418587 0.02318863 0.49664 -0.31618974 1.6467949 0.32580423 -0.71620566 -0.9959439 0.87196904 0.18591811 0.06832813 0.35166323 -1.0203872 0.72322917 0.31766707 0.033368386 -1.3476535 1.1035532 0.4599885 -0.2982794 1.5734173 -0.7162805 0.82413024 -0.4532908 -0.29724583 0.6913447 -0.078919336 -0.94872963 1.4493474 -0.8876401 1.2743744 0.37766623 0.49318004 -0.19531012 -0.6998605 -0.17653884
382 0.9000435 1.4561465 -1.3560228 -0.5779587 -0.77562374 -0.8623731 -0.33801785 1.266736 0.053566232 0.8412059 -0.6098568 0.00073858234 0.9872818 -1.2374939 0.77719784 -0.30724785 -0.393093 0.5564255 -0.7167477 0.20372161 0.459869 0.39458916 0.28752974 -1.2899303 -0.295446 0.34366375 -0.61843663 -0.71435475 -0.19040652 -0.9257558 0.4324361 0.37014207 0.46937355 0.48682484 -0.052346118 1.8631706 -1.1698416 -0.63054985 0.2660354 -0.10963642 1.1846021 -1.4027284 -0.111050345 -0.96196795 0.8636499 0.2115139 0.1536721 0.44389215 0.30592114 0.5450045 0.7199108 -2.0651305 0.31717858 0.82642215 1.4623663 1.7498157 0.8726653 0.5883086 -1.2119855 0.9108544 -0.50042623 0.33476132 1.5134511 0.4529793 -0.4473587 0.3164853 0.94601643 -0.42892635 -0.73184067 0.73621523 -1.3356701 0.34996802 -0.14537561 1.7373282 -0.23123893 -0.3093957 0.26242733 0.38847938 0.24872872 -0.30056846 -0.87523544 -2.0954607 -2.0602307 -0.09900566 -0.063195884 0.73655087 -0.16590485 0.095654204 0.01890677 -0.11163175 -0.7337046 -1.2964203 -0.6502108 -1.0147572 -0.76956594 -0.06051738 -0.8295017 -1.1368763 0.15407106 -0.09972096 0.68158025 0.602242 0.44677123 0.6175218 -0.53719586 0.09946699 -0.059158403 0.6459717 -0.49214867 0.93690246 1.362082 0.68492204 -1.0610931 -1.1769199 1.3836632 -0.1902771 0.02229079 -0.70054215 0.093625665 -1.6579692 -1.3838462 -0.7313116 -1.9020473 1.611499 -0.14814062 1.000944 0.13219474 0.6260808
264 0.7159438 0.5020168 0.965141 0.6599266 0.42241773 0.056430947 1.5251691 -0.07202924 0.120011434 -0.5384479 0.56797934 0.95246077 -0.17550184 -0.026373614 0.9274596 -0.08604667 0.12197715 0.8327249 0.5529292 0.19720654 -1.6152892 1.7660306 -0.7458729 -1.6694359 -0.6328666 0.29204372 -1.1099316 -0.39398286 -0.036116954 -0.23969895 0.25214738 -0.85828346 0.6716386 0.05182992 0.7710462 -1.2397926 -0.35406446 0.14622536 -1.2529544 -0.92846316 0.3369929 0.28097454 0.975963 -0.86137205 0.6686389 0.6302389 0.23613179 0.79424334 -1.0606114 0.8585891 -0.7471711 0.53572685 -0.53406787 1.2180806 -1.197518 -0.10216639 1.0400915 1.492402 -0.5749449 1.0517113 0.27028826 -0.8546236 1.634087 -0.31558043 -1.2003734 0.04991633 -1.5043849 0.6216956 -0.2341826 -1.5260572 -1.4115684 -0.99774724 -1.3445575 0.90368074 1.0340677 1.8528013 -0.08323279 0.9255111 0.030006701 -2.4325886 0.2672211 -0.20124 1.6519784 -0.28471363 0.8322766 -0.504905 -0.9142206 -0.85720694 -0.51217324 -0.017677872 -1.1282601 0.28486377 -0.12737274 0.070666 0.7369158 0.00051695056 -0.13619599 -0.13723509 -0.55370706 0.043455787 -0.54236823 0.28491852 -0.42733163 0.1932319 0.52794343 0.46761248 -0.7842696 -0.45751593 -0.23760954 0.88971984 0.6818457 -1.651694 -1.2024295 1.520716 -0.9723547 0.36101013 0.38256055 -0.27199042 -0.070279256 -0.8451884 1.1104878 0.47320828 -0.84975535 -1.2115228 1.0057408 -1.2154127 -0.58258367 0.7522706
124 -1.2456424 -0.46872294 -0.1706875 -0.1262766 -0.81928337 -0.14635487 -0.68230087 -1.0449711 -1.7847301 -1.7163188 1.2761464 1.1172236 0.6772185 -0.65972334 -0.3020693 -0.21815756 0.6497645 -1.0104396 0.7493844 0.109379426 0.55527055 -0.023554202 1.1131867 -0.32489818 0.57538855 -1.1986976 0.68426913 0.17102553 0.5538477 0.5969351 0.27785465 0.037214275 -0.3047343 0.73664576 -0.68506634 -0.11785649 -0.38509527 0.3525246 -1.0398331 0.5421283 0.35265806 -0.62017083 -2.117487 -0.4992164 0.01347663 -0.13454194 1.0167252 -0.20961809 0.54887986 -0.5667923 1.0370079 -0.4584137 -0.6002393 0.32619146 1.8699838 0.9874113 -0.026572142 -0.931055 0.13663363 -1.04656 0.87945354 1.6382344 0.47773585 0.54334635 1.8474308 0.8399868 -0.51037675 -0.18964332 -1.4823437 0.092624985 0.2466162 0.60390943 -0.5132736 0.66151726 0.1748206 0.49276918 -0.36897767 -0.26291668 -0.12893791 0.2942041 0.2778358 1.776666 -0.79103386 -1.4245468 -0.04224823 0.48954043 0.17689693 -0.0539421 -0.5845996 -0.59159464 1.8946073 0.17514914 1.0078679 0.29721668 1.2311869 0.5560347 0.414922 -0.50946915 -0.58116966 1.8578155 0.35406205 0.2188291 -0.21309409 -1.0387275 -0.23985362 -0.5940855 1.0640692 0.46487558 -0.6914106 0.37142044 0.99612844 -1.3077345 1.5413375 0.3976136 0.047202405 0.75119066 1.583511 -0.2783887 -0.04719729 0.22630316 0.675868 -0.39988303 0.1894645 0.43507802 -0.1342172 -0.4611583 1.5719354 1.1452196
174 -1.649096 -0.5596352 -1.4489269 0.67054313 -1.123185 -0.7952121 -1.23422 0.1231423 -0.73033655 0.93956137 1.2252233 -1.2039882 -0.15845057 -0.6820531 -1.3639573 0.16320446 1.0038085 -1.423359 -0.16675892 -0.7909867 1.117568 0.3332531 -0.5876536 -0.4034428 -0.391684 -1.5256101 -0.41483155 -0.19992335 -0.085877225 -0.37155658 0.968235 0.23871635 -0.38104382 0.0665164 -0.97461736 -1.0968217 -0.4596278 1.0259742 0.15362011 -0.2779881 -0.21366167 0.47373012 -0.8969803 -0.19763874 1.5035688 0.3293269 0.38385218 0.9202875 1.2227603 -0.5630159 -0.8781322 -0.45665115 0.40837103 -0.83948994 0.8429494 0.7060255 0.2733273 -1.1359193 -1.0180737 -2.6022887 1.2730367 0.55634356 1.1957827 0.022012638 0.58884907 -0.73848665 0.40960827 -0.05043386 -0.36609966 0.24711874 1.5088328 0.30306584 -0.92562336 1.148599 -0.5479282 -0.85896975 -0.7506029 -0.8823367 0.78477937 0.7910814 -0.52514416 -0.5075426 0.6123506 0.40929595 -0.42053404 1.4047084 -0.7351813 0.888218 -1.0942984 0.8799569 1.6470959 -0.03765428 -0.45364437 0.111849226 0.5402189 -1.7562563 0.055319563 -1.4819936 -1.1286157 0.2018249 -0.15843648 0.8436081 -0.2739978 -0.22941032 -0.78078383 0.08396203 -0.48985973 -0.9565308 -0.9077826 -0.2785676 -0.03464785 -0.57057893 0.89015317 -0.49634084 -1.2970849 -0.09504601 1.6131023 0.80666465 -0.0406119 -0.333827 0.35799 -0.3073706 -0.95292896 0.7364632 1.768333 -1.2973077 0.8504979 1.1475757
27 -0.008477646 0.36680955 -0.10614905 -0.7421926 0.15765372 0.42516625 -0.84481406 -1.4700849 -0.1273951 -0.6620043 0.8989882 0.55313784 -0.15930364 0.13867941 0.050540347 -1.3530455 -0.22378254 0.63609546 -1.1296961 1.4153568 -0.6348546 0.13566996 -0.62817353 -1.0261189 -0.18473096 1.46914 -0.91483307 0.5876915 -0.040281158 1.0192541 0.6406884 0.33753496 -0.90240836 0.70571357 0.638759 1.0185921 1.2714481 0.4522707 -0.410586 -0.36479008 1.1449988 -0.7005263 0.0030138427 0.6397835 -0.62483925 -0.644278 1.711521 -1.2401084 -1.011517 0.12621893 0.12515987 -0.49315286 -0.20876849 -0.14418916 -0.6637733 0.80290926 0.28771552 1.1598207 -0.9968321 0.46626937 0.5228353 0.23179683 0.20519184 0.51138264 -0.22932504 -1.1891004 -0.13261619 0.82009757 0.6174424 -0.07285462 0.38942635 0.5022438 0.48225826 0.7737819 -0.82849157 0.2186937 -1.4174558 -0.10968055 0.2825608 1.4406672 0.1346691 0.626401 -0.16780613 -0.04188595 0.5025966 -0.047760725 1.2780999 -0.55840725 0.7677283 -0.088733464 -0.520771 -0.89158005 0.3699713 -0.65950054 -0.7126809 -0.17449565 -0.20340085 -0.49454182 -1.6561279 -0.27319887 -0.326671 -0.051280312 0.44293937 0.13319242 -0.44942644 -1.2028672 -0.6090937 0.25403973 0.4899826 0.3263135 -0.4976933 -1.1332054 -0.04897302 -0.36038473 -0.15255716 0.29040566 -0.38212892 -0.78179264 0.4939183 -0.46746945 -0.6875191 0.9152784 0.34432125 -0.40197933 0.9906612 0.5622873 -0.0912821 1.0407115
29 -0.07922233 0.6879205 0.34163535 -0.82788736 0.057730388 0.641523 -0.9341148 -1.8642861 -0.34315237 -0.47805178 0.8455262 0.7998122 -0.19316353 0.22780278 -0.06260832 -1.9426179 0.4041429 0.24694684 -0.96108395 1.1869516 -0.9911145 0.040045816 -0.3086788 -1.2099485 0.34279737 1.6189246 -0.77524066 0.84466654 -0.22015283 1.5815369 0.6896171 0.7395215 -0.73476696 0.3315663 0.9251778 0.8461571 1.3225971 0.4769412 -0.039420284 0.116371766 1.3155968 -0.508002 -0.10411621 1.2117648 -0.73225236 -0.7510496 1.5313236 -1.9535798 -0.9831099 -0.22935607 0.27155358 -0.71689194 -0.12635358 -0.21424793 -0.7039416 0.80614513 -0.16785301 0.97352755 -1.1593826 0.3223645 0.4019232 0.024695074 0.5616417 0.21583815 -1.026844 -0.7267516 -0.49596477 1.3698902 0.435726 0.2873703 0.30148795 0.5745988 0.52934474 0.5089716 -0.010509168 0.175743 -1.2624332 -0.00665291 -0.08540058 1.6041493 -0.18205197 0.6252484 -0.63526666 0.17265818 0.08025255 -0.27592993 1.4721341 -0.5634942 1.3383117 -0.6958492 -1.1353741 -0.20670675 0.36587915 -0.33874246 -0.5336855 0.86919284 0.1897549 -0.2660874 -1.9701142 -0.091614895 -0.38008183 -0.33792302 0.38183606 0.62267995 -0.28819528 -1.1616693 -0.659535 -0.17494616 0.60614103 -0.3475193 -0.70209515 -0.9969503 -0.15276256 -0.5575507 0.26069218 -0.05510357 -0.7506755 -1.2072209 0.23889957 -0.57777435 -0.29027236 0.45635337 0.59329784 0.13301417 0.17555128 0.5319757 0.016078312 0.3552164
247 0.75928396 0.6884449 0.5629302 0.6154222 1.061116 0.5291769 0.8766205 0.38954982 0.21901652 -1.5671043 0.7281219 1.5350695 -0.35676488 0.28620782 1.1629608 -0.11285981 0.1672729 1.2150297 0.92511547 0.280437 -0.96643245 1.1140932 0.39444882 -1.5767622 0.3792935 0.8338231 -1.0605987 -0.7860195 -0.27547124 0.89694417 1.0350454 -0.90832186 1.5885643 0.25987825 0.8285792 -0.67436564 -0.87534946 0.7842263 -1.0039564 -0.65654856 0.84655005 -0.7681298 1.5402231 0.021086572 0.18129054 0.6475054 -0.26980856 -0.36011457 0.13949452 0.6993349 0.37457618 0.90987647 -0.49557862 0.8071082 -0.86621565 -0.51140225 -0.026308464 1.3732083 -0.707853 0.7259728 -0.6895201 -1.365674 1.0295557 -0.19147605 -0.9258585 0.06714005 -2.1577156 1.333026 -1.220066 -2.3784285 -1.0684781 -0.1594027 -1.1734891 1.0543319 0.5186727 1.6595469 -0.10390157 0.7441802 0.21922879 -2.4349322 0.8659273 -0.29357308 0.9999373 0.62711185 0.9790554 -0.67797667 -0.18787368 -0.1253631 -0.23994608 0.46976086 -0.4191887 0.5613014 -0.23611435 -0.44356278 1.5119393 0.085859224 -0.5547753 0.54605263 -0.13640364 0.5087429 -0.4399664 -0.5182592 -0.63312125 0.63860095 1.0860438 0.21223374 -0.4363783 0.15341844 -0.41663006 0.7752216 0.97472626 -1.3477943 -1.6029859 1.9936604 -1.273776 -0.10919693 0.4690292 -0.07326396 -0.16547662 -0.548656 0.98040867 -0.64258474 -1.1369123 -0.5558117 0.57920843 -1.2851785 -0.085946746 0.9213318
91 -0.11927631 -0.5597428 0.08069897 0.83542496 1.7655673 0.13689667 0.24526638 0.07633528 -0.0054785395 -1.8381261 0.20228243 0.2748444 0.6412704 0.7536598 0.62113035 -0.38793314 -0.32824874 0.10030883 0.015990362 -0.5132225 0.32318267 -0.20274162 1.4885129 0.944588 0.2695593 -0.75721675 1.1982701 0.03589993 0.3043881 0.9890867 -0.60059565 -0.5231578 0.86127746 0.963462 -0.45914572 0.81271577 0.09227909 -0.81184685 0.79038775 -0.24786371 1.2246482 -0.55481243 -1.0973973 0.733607 -0.9935221 -0.25450605 -0.0705477 0.10831203 -0.23299049 -0.28206393 -0.5536204 0.26520324 0.6556141 -0.008341593 0.5843542 0.6029567 0.37409207 -0.8446494 1.1943227 0.0051990678 1.2967846 0.45627928 -0.13131866 -0.042110026 0.95856744 0.06624122 -0.2690636 -2.022377 -0.86010355 0.53726107 -0.7248693 0.6057332 1.4496555 -1.1937765 0.80545735 0.8018908 -1.0277044 1.1718152 -0.66396964 0.98094434 -0.37870252 1.5240641 -0.29004022 -0.2203732 1.0063844 -0.7054113 0.13246906 0.52138394 0.091272265 -0.49106786 1.5927167 -0.33392093 0.067839906 -0.4249634 -1.1071376 0.27357534 -0.5265491 -0.033089172 -1.4709177 0.2753571 0.5197952 -0.85414577 0.6001214 -0.06754973 -1.153764 -0.5218183 0.7260255 -0.5474812 -0.77486116 -0.75386655 1.5303419 -0.09698287 2.1830153 0.052288417 1.1750245 1.1120209 0.7611544 0.48676425 -0.78325343 1.5303364 -0.5111066 0.35607368 1.3857951 -0.051037475 -0.05266679 0.15771984 0.81374854 -0.3768027
195 0.5468369 1.0424378 0.33764008 1.0809193 0.5433462 0.677621 -1.1584377 0.08808782 0.6392822 -1.1186318 -0.4434619 1.1463587 0.50991297 0.7834646 0.65183854 0.42356646 0.2535124 0.41042534 1.5575485 -0.2740905 -0.43208686 0.25352862 1.5300993 -0.8821182 0.30617097 1.173351 -0.2112085 -0.7079685 -0.561285 0.82282925 0.71186024 -0.73299557 1.8372755 -0.16628599 0.15881757 0.07880058 -1.2683332 1.0869504 -0.13920836 -0.2134994 1.8351146 -0.36698228 1.3407435 1.2752278 -0.37428483 1.324563 -0.5310913 -1.5356468 0.8708814 0.29031134 0.691055 0.7128957 -0.502071 0.542782 -0.099524446 0.3803663 -0.01466976 -0.031836033 -0.96579176 0.38877234 -2.2098558 -1.827017 0.19984023 -0.76086926 -0.94452274 -0.2625504 -0.65775996 0.61699116 -0.5353386 -2.200409 0.35316712 0.68844527 -0.31115767 -0.2697177 0.019870274 1.751959 0.30474672 -0.28779477 0.193795 -0.33200476 0.061002366 -0.528104 -0.25340083 2.0778382 0.14185874 0.099594794 0.33113998 1.1815702 -0.76121795 1.2428765 0.31440422 0.16544795 -0.07082261 -1.2495277 0.9478946 0.008204986 -1.5839032 0.9482395 0.96745825 -0.029564966 0.9318032 -0.7487939 0.3885149 -0.15053158 1.3700566 0.85009557 0.54712933 -0.5739296 -0.63219213 -0.13459776 -0.03456185 -0.17012015 -1.2512895 1.1907203 -0.2415684 -0.5365691 -0.7355552 -0.6102004 1.1224221 -0.5988509 -0.49430928 -1.3126607 -0.5550812 0.7252716 0.8635012 0.453583 0.61162615 1.399246
