135 128
2 -0.5945839 0.20047821 -0.400207 0.3854283 -0.16656825 -0.56556237 -0.09691926 0.37952775 -0.44061756 0.7274922 0.15954529 0.06317804 0.19172172 -0.18525887 0.47334388 -0.37831652 0.49899483 -0.27464256 0.6717753 -0.113786735 -0.23269103 0.12062366 0.24227507 0.19640502 -0.3083743 -0.26422435 -0.24794824 0.75421655 -0.23350266 -0.39367756 0.13222794 -0.35619712 0.018419482 0.04406674 -0.3346528 -0.3501523 -0.5009875 -0.31944516 -0.39573315 -0.57935834 -0.059620146 0.42593542 0.95048666 -1.1525522 0.13080275 -0.067906454 -0.29033577 -0.5359164 0.42039967 0.3340216 0.40475082 0.23262574 0.4097855 0.083692014 0.8686165 -0.024121044 -0.62688345 -0.14375989 0.24569522 0.03906827 0.07983868 0.061652396 -0.19181487 -0.23390909 0.47595146 -0.19321944 -0.8596624 -0.54982734 0.68244785 0.009163066 0.09744078 0.5843757 -0.012545417 -0.06328842 0.2752873 1.0038403 -0.995263 -0.45037386 0.5393029 -0.07889078 -0.70006496 -0.13578674 0.116805755 0.41136792 -0.047967367 -0.63519424 -0.12616752 -0.16129047 0.02216324 0.3445549 -0.1541599 -0.10106333 0.53289557 -0.0779023 0.96784925 -0.033860337 0.08605303 0.24404602 0.39159274 -0.09425233 -0.10879609 -0.49896282 -0.3741925 -0.680967 0.3447606 -0.32598218 -0.29134402 0.089652166 -0.085591815 -0.3149373 -0.21010913 -0.026253017 0.32265568 -0.23321551 0.19845201 -0.23866144 0.03627027 0.446116 0.35724485 0.2009175 -0.19618045 0.5038168 -0.124026455 -0.15731232 -0.4477112 -0.48364505 0.16127276 -0.13397878
79 -0.17351294 -0.26767716 0.06467057 0.6081192 -0.13849609 -0.5720835 -0.56114167 -0.6306572 0.08743583 -0.19308713 -1.4974576 0.06810142 0.43091372 -0.24702427 0.13552144 0.34997815 0.08155012 0.24534747 0.6424646 -0.94178075 1.0038934 0.83108723 0.2768076 0.56738263 0.20277952 0.5292659 -0.008537958 0.28345364 -0.18017988 0.23457661 -0.9627533 -0.6972401 0.39385477 0.3180873 0.34850323 -0.49401763 0.21200189 0.36867973 -0.04051535 -0.17881145 -0.04177403 -0.589389 0.9551342 -0.2874208 -0.83947384 0.4670115 -0.049374256 -0.032055136 -0.095399424 0.4653804 -0.74169517 0.10897517 0.4719303 0.8947284 -0.023974447 -0.23388335 -0.03710474 0.086183995 0.6458623 -0.07417077 0.37438807 0.43980247 0.49129218 0.2536971 0.2430568 -0.68208146 -0.44749928 -0.11392635 -0.030386534 -1.0495237 0.25185406 0.09066835 0.40518752 -2.1974283e-05 0.43704936 0.2171207 0.6886987 -0.30067956 0.13057268 -0.082008146 0.2616683 -0.10516746 0.5974592 -0.44542068 0.5538262 -0.25402367 0.051232666 -0.28960484 -0.62331957 0.94263643 0.9421747 -0.47200075 0.9075719 -0.17358306 0.38359493 0.59723544 0.0498013 0.046200506 -0.27997813 -0.571947 0.48534453 -0.00059895916 -0.14494377 0.098879695 0.20112486 -0.76169795 0.37945855 0.3060514 0.33190307 -0.5687776 0.51037836 0.4355235 1.3610802 1.0387529 0.7243368 -0.95947164 -0.5409319 -0.2553197 0.48816133 -0.014058555 0.37275594 0.69540733 -0.50413585 0.18310389 0.17968322 0.4606363 -0.05160757 0.6210453
56 -0.6144462 0.7768425 0.05954507 0.41118017 -0.7629936 -0.15274134 0.57830983 0.26215264 -0.21415694 0.21762529 0.18948707 -0.20869404 0.08483909 0.16066365 0.52884126 -0.19199151 0.12671033 -0.025356472 0.3842608 0.3875412 -0.2857394 -0.84044594 0.8925468 0.15617707 0.11253276 -0.102598 -0.1401993 -0.022273604 0.19695501 0.5824823 0.8559684 0.811463 -0.3212818 0.78063214 -1.141406 0.018573826 -0.39264667 0.43345654 0.36629885 0.16985445 -0.05174836 0.28758666 0.106261544 0.49873292 -0.040728766 -1.025115 -0.5817205 -0.2522555 -0.045094494 0.30969286 0.89546925 -0.59586596 1.0097471 0.081493236 -0.1878456 0.49315798 -0.63075966 0.25594205 -1.0360001 -0.19721001 -0.2711847 -0.14307389 0.121842615 -0.8437929 -0.42537218 -0.2679244 -0.3981762 0.25409782 0.04451795 0.8530113 0.691095 0.50457335 -0.25212017 0.36686587 0.10639448 -0.4373179 -0.20064853 -0.8411915 -0.38309953 -0.21398951 -0.23117083 0.70177644 0.075371385 0.34525025 0.15082568 0.17110525 0.12543118 0.7596614 0.39329454 -0.77626985 -0.12995532 0.95994467 0.22983016 -0.3474537 -0.46389285 0.47431642 1.1002868 0.5071902 -0.9049829 0.09554037 -0.1924547 -0.13923411 0.10477489 -0.023750752 -1.353444 -0.6464446 -0.86327016 -0.3495868 -0.771289 -0.8163821 0.22049335 -0.6773023 0.44834748 -0.785056 -0.302398 0.07336617 -0.21419959 -0.30796057 -0.012629528 -0.28867292 0.076376855 -0.39056504 -0.30132127 0.8156122 -0.44480816 -0.20996422 -0.8534749 -0.56967324
92 -0.05133426 -0.5101951 -0.21947482 0.2701482 -0.067645766 -0.40346685 -0.50969195 0.08616963 -0.093243815 -0.78832614 -1.2476281 -0.21894881 -0.06424499 -0.3223956 -0.47245657 0.4504492 -0.21626222 0.8963597 0.23560996 -0.38587973 1.2993188 0.59358686 0.50510395 0.13804866 0.46132377 0.3746352 -0.27345425 0.0071547097 -0.054869913 0.7150564 -1.0493679 -0.48371792 0.2313955 0.29129666 0.549626 0.22406892 0.30340478 0.5288253 -0.18410316 0.3241255 -0.19281642 -1.0010886 0.78535634 0.9456833 -0.96583945 0.70400834 0.20863125 0.33050206 -0.47201073 -0.16532364 -0.89799863 0.45627505 0.23500188 0.927534 -0.7099611 0.08662811 0.11002727 0.036974993 0.7429372 -0.009728823 0.623237 0.5924075 0.6974589 0.35861906 0.08507972 -0.602362 -0.2842737 0.32454613 -0.90270877 -1.0314621 0.22815841 -0.5687645 0.68547356 0.10812862 -0.18031944 -0.5236034 1.2039548 -0.3885609 0.15820779 0.4033006 0.752748 0.25096264 0.39059684 -0.53751576 0.62802845 0.09272173 0.15618378 0.21852162 -0.5275711 0.64715654 1.0558703 -0.3803556 0.4416529 -0.08927448 -0.16953912 0.28328645 -0.1413257 -0.0623476 -0.6210113 -0.2784861 0.50366235 -0.13242061 0.16902512 0.35961837 -0.503856 -0.44241732 0.5560142 0.71110594 0.49014232 -0.534379 0.39365435 -0.09335052 1.0269573 0.8890021 1.2289625 -0.96860135 -0.39868578 -0.03033599 0.3258379 0.4976434 0.046007905 0.4274432 -0.20585741 0.35998285 0.13663815 0.56010866 0.46974337 0.8278292
0 0.89729613 -0.40653464 -0.71453476 0.018227125 0.26794 0.36166403 -0.05063932 0.6554015 -0.15967897 0.24917819 0.7986581 -0.2465616 0.043086227 -0.11014749 -0.728244 -0.03160436 0.59631836 0.24920112 0.75528085 0.47714785 0.47990897 0.3141422 -0.23280062 -0.024285506 0.34887907 -1.4627538 0.15441266 0.6344576 -0.039038517 -0.76919043 -0.7181854 0.23559606 0.18885008 -0.13613087 0.17630273 -0.058017667 -0.06326993 -0.591582 0.058898803 0.2785411 0.31289962 0.090384014 0.2851598 -0.4040807 0.29829574 -0.16666567 0.36427036 -0.03822436 -0.004456367 -0.1027219 0.7456232 0.68050295 0.33853573 0.15922596 0.25085875 0.12509668 0.32797164 -0.17176676 -0.17047833 0.32846346 0.074445985 -0.57485396 -0.18338957 0.2758775 0.23544136 0.17116873 0.09623499 -0.9922444 -0.2704822 0.4690751 -1.1735809 -0.32364607 0.59697104 -0.27513734 -0.20752043 0.17046139 -1.0434049 0.19517279 0.60236305 -0.0037832735 -0.21444695 -0.055437148 -0.5954574 0.5027571 -0.39498514 0.072505206 -0.8761652 0.5013817 0.16765565 0.28181484 -0.58686805 0.17205164 0.042903576 0.9335758 0.16233714 0.08628344 -0.5618547 0.30463713 0.3035487 0.18243681 0.37323487 0.0032642696 -0.60473007 -0.38695815 0.042214144 1.4373586 -0.14118934 0.72510815 0.6211711 0.5900196 -0.95103663 0.12277402 0.19752282 -0.20838965 -0.34515047 0.33640617 -0.3482619 -0.3620841 -0.32343307 1.1708094 -0.053414673 0.66630983 0.71661675 -0.13068254 0.63834447 -0.33302474 0.32989845 -0.07185698
117 -0.3251115 -0.106896214 0.9286592 -0.34762502 -0.76830024 -0.32476395 0.33909982 0.15401556 0.25215435 0.5683204 0.36077088 -0.12723036 0.6745562 -0.5359533 1.0270848 0.009879657 0.031850103 0.24727833 -0.009632835 0.2672948 0.48242635 -0.16571112 0.29253072 0.17233597 0.3100049 0.00089337694 -0.5069649 0.5345336 0.20547105 0.39141542 0.39776167 -0.21852835 -0.7155311 -0.3614401 -0.6788074 0.6517984 -1.0223101 0.37125432 -0.30019656 0.5798573 -0.0028615554 -0.12612945 -0.18593569 -0.443169 -0.00596169 0.34987125 -0.4576551 0.2050617 0.36314183 -0.515439 -0.02010208 -0.017686218 -0.55966544 0.64054984 0.6571998 0.15441649 -0.26007625 -0.046896912 0.05950304 -0.3449486 -0.21805044 0.3438477 0.14690478 -0.35649776 1.3260477 0.6744627 -0.3609549 -0.27938268 0.80217767 -0.10969837 0.9735165 -0.29143122 -0.8852111 -0.28340915 -1.5696765 0.66484624 -0.96774083 -1.5195872 -0.40559083 -0.12004699 -0.9331403 0.13471296 -0.37448806 0.05151494 0.4121877 0.0031315123 -0.8919432 -0.22639897 0.33291715 -0.37660494 0.123804025 0.069627404 0.24151587 0.11485862 0.26891443 -0.3793171 0.25998515 0.7793024 -0.23972711 -0.48484504 -0.59971726 0.18459347 -0.5055666 -0.14573447 -0.8878102 -0.32952243 -0.6206503 -0.49369228 -0.28741413 0.31603906 0.3863345 -0.02146202 -0.45073503 -0.5359323 0.23329721 0.4166345 1.0734154 0.13177541 0.35652065 1.0824957 0.15956846 0.21032003 0.625966 -0.06691416 -0.38734502 0.080440015 -0.4012399 -0.32093763
33 -0.39230055 -0.12669331 -0.9952005 0.15655369 -0.083125 -0.6487938 -0.10508315 0.706586 -0.7088658 0.11955941 -0.22162665 -0.47298992 -0.08584337 -0.3395801 -0.9059778 -0.006274758 0.24634348 0.5266744 0.17936073 0.20202635 0.15012968 -0.13534997 0.25792128 -0.75380147 0.12243734 -0.21520811 -0.5512665 -0.5198068 0.27715656 0.0642739 0.4355191 -0.42941463 0.13460675 -0.5775113 0.38109213 0.72386914 -0.3216816 -0.10802332 -0.51281554 -0.111529194 -0.6042844 -0.4274684 0.3233135 0.2945123 -0.14157118 0.49847934 0.27163482 0.018901877 0.42438734 -0.237351 -0.8886856 0.8745622 -0.4087078 -0.3769252 -0.50349706 -0.31237143 -0.24373537 -0.036941074 1.0791408 -0.20465071 0.63107324 0.56334156 -0.16756895 -0.080888964 -0.32005498 0.0039630523 -0.3784784 1.0246397 -0.64778364 -0.40634453 0.090673774 0.11522567 -0.3137643 0.1183154 0.12620708 -0.1824522 0.87306345 -0.14291911 0.47739547 0.28384325 0.7130685 0.21881463 0.20499781 0.3721061 -0.24543792 0.19950257 0.21145745 0.2852438 -0.025923112 0.55198175 0.72043 -0.67203176 -0.83702654 0.090672635 0.53446907 -0.4923798 0.24680784 0.123929195 1.1932878 0.7864943 0.09395254 -0.34759983 0.5954479 0.520481 -0.18387774 -0.70875615 1.267802 0.68204486 -0.0055635856 -0.19705917 -0.72039974 -0.864596 0.24169403 0.1971412 0.6336313 -0.2837477 0.2407198 0.7125933 0.547707 0.6794277 -0.023997152 -0.34956864 0.2789016 -0.13181128 -0.821161 -0.321586 1.1470985 0.75885224
17 -0.5127366 0.18683933 0.20218754 -0.22482052 0.65287876 0.0006741097 -0.64837295 -0.108789355 -0.3194899 -0.412977 0.6270065 0.64338225 -0.2619629 0.3610412 0.56398594 -0.9773364 -0.25485623 -0.24341938 -0.7667985 0.46915588 -1.1790857 0.6257356 0.32676858 -0.69625825 -0.62896174 0.46216515 0.15389346 0.76235616 -0.27476445 -0.24197423 -0.20472413 -0.15724885 -0.4000378 0.46174735 0.421783 0.01402193 0.38092205 -0.6507844 0.0006879329 -0.8437213 0.67456967 0.13192672 -0.25997826 -0.09347802 0.07351527 -0.42068246 0.62534994 -0.9497743 -1.4219184 -0.05338012 0.49433017 -0.940275 -0.22783168 0.018272387 0.34402144 0.80386347 0.1456396 0.12157989 -0.967485 0.20789294 0.28432387 0.2455502 -0.100842305 -0.13778514 -0.22745892 -0.81237364 -0.17717321 -0.41636974 0.8983366 -0.07164319 0.40603477 0.86010075 0.3528249 -0.28904855 -0.060805652 0.6935914 -0.6251827 0.13706595 0.11394021 0.9380549 -0.3038473 -0.30720326 0.18086451 0.120126024 0.24821748 -0.4929195 0.8338731 0.024040658 0.11988223 0.005333682 -0.4733351 0.23769553 0.7132664 -0.1920492 -0.20756833 -0.6993263 -0.47870344 -0.16565087 -1.0288739 -0.553142 -0.34456223 -0.3504736 0.09601103 -0.65997416 0.2524871 -0.1897194 -0.46978658 -0.25359613 0.15522996 -0.29196587 0.004803254 -0.42262164 -0.52389 -0.54991055 0.1920995 0.44525874 -0.35706413 0.35595262 0.45916095 -0.26223716 -0.7962466 0.7740889 -0.03481377 -0.7582051 -0.26246464 0.17047673 -0.18430543 0.10512761
41 0.5573125 0.2675473 -0.76134 -0.111556545 -0.3200953 0.38525447 -0.20468234 -0.12134316 -0.6088238 -0.3196163 -0.015839018 -0.35820904 -0.10091649 -0.01682983 -1.2093068 0.5495072 0.31438515 0.60389024 0.06661124 0.5671457 -0.019124363 -0.5862506 -0.2622163 -1.5888839 0.57383984 -0.7715137 -0.23485616 -0.21062252 0.63599503 0.066203035 -0.01877629 0.1966712 -0.36748478 -0.555199 0.44782066 0.6557384 -0.115858115 -1.104125 -0.2436745 0.12885043 -0.026211724 -0.8317846 -1.0695263 0.23987494 -0.097103 0.28139174 0.8251211 0.11355749 -0.10452205 -0.44641313 -0.5359895 0.4702235 -1.0325743 -0.19130136 -0.97537374 -0.21406555 0.7488602 0.18075894 -0.048535347 -0.14476328 0.24316388 0.19677736 0.20362772 0.020588778 -0.7510262 0.5484737 0.42598277 0.016590338 -1.1006584 0.20730796 -0.6008147 -0.032097444 -0.6129084 -0.45381415 -0.45370677 -0.39728346 0.772454 0.20979872 0.37010595 0.06479993 0.789675 0.079973064 0.06281934 0.19623749 -0.35799077 0.4471688 -0.44582188 0.78378946 0.3480601 0.092715204 0.87800187 -0.56192183 -1.2472943 0.88105977 -0.11432462 -0.5100312 -0.26789394 0.7112247 1.2175078 0.84679604 0.086199306 0.22885503 0.4755074 1.0482777 -0.5215309 0.2716331 0.8016077 0.61297745 0.30755323 0.5747536 -0.9415884 -0.3576505 -0.0644743 0.19612746 -0.11322098 0.5893733 0.31406412 -0.49481001 0.5477909 0.9912166 0.34204537 -0.5775707 0.6808479 -0.36070347 -0.24941672 0.25656348 0.8745483 0.7997138
87 -0.16904896 -0.09905569 -0.15077162 0.20654632 -0.46768102 -0.22253259 -0.25350693 0.2090692 -0.0980368 -0.81657165 -0.927718 -0.15640356 -0.4436794 -0.29766038 -0.5288392 0.48674136 -0.20420422 0.7987723 0.07053079 -0.22490981 1.1210626 0.23397867 0.5349394 0.49558914 0.5919852 0.21111122 -0.33327022 -0.15559772 -0.17088264 0.95084643 -0.83986014 0.11875337 -0.20217332 0.68852603 0.123869576 0.23534533 0.25843364 0.4629923 -0.2895373 0.22937638 -0.36247492 -0.5738118 0.8753749 1.2472476 -0.76173997 0.29324406 0.36552954 0.26214176 -0.7719885 -0.59167826 -0.47412935 0.37717384 0.8616694 0.74296194 -0.658714 0.44508037 -0.027765302 0.18760501 -0.012685809 -0.11266625 0.34960362 0.56092405 0.5508998 0.49338296 -0.24326214 -0.7169498 -0.21836482 0.58195835 -0.8145775 -0.6758359 0.023208188 -0.43528578 0.76860994 0.7803565 -0.18373159 -0.7369806 1.1085179 -0.3310238 -0.013243341 0.31000972 0.7031366 0.3991279 0.06947369 -0.71892005 0.23624091 0.5134251 0.12998216 0.4708616 -0.34401104 0.041798044 0.5323166 -0.24376051 0.5313789 -0.1497014 -0.3783512 0.34152037 0.18668638 -0.2039607 -0.8171425 -0.34594086 0.3744053 0.21236823 0.54794407 0.1766139 -0.7550919 -0.31367323 0.21208577 0.6078024 0.4014037 -0.33449352 0.31258678 -0.17816834 0.9494411 0.82946944 0.9646182 -0.5383055 -0.842159 -0.26661396 0.21735115 0.06800723 0.38851082 0.19835192 -0.33814386 0.6868239 0.18600649 0.61201596 0.022513015 0.76876307
23 -0.90608734 0.3312626 0.20459165 0.40068096 0.4522621 -0.57293946 -0.7219947 -0.15592311 -0.534991 -0.15476187 0.25244156 0.4684344 0.08666653 0.28976396 0.52063566 -1.0619402 0.031708535 -0.23535597 -0.73022425 0.29624942 -1.3075973 0.5185845 0.285474 -0.39584932 -1.0614059 0.24517548 -0.18926238 0.80076534 -0.30714512 -0.2316978 -0.0434566 -0.341798 -0.32307485 0.13121799 0.2947351 0.26528025 -0.2296196 -0.81517285 -0.19653623 -0.846927 0.5875102 0.31315565 0.64640486 -0.68855053 0.36652878 -0.27090064 0.5597325 -0.93211883 -1.0627391 0.052487567 0.4990581 -0.2762062 -0.1391168 0.03226815 0.5846241 0.33726022 0.13103604 -0.10655355 -0.32879794 0.49774474 0.01346381 0.23813015 -0.22674629 0.091391094 0.32324216 -0.59764296 -0.6091582 -0.75525767 0.7408056 -0.19141163 0.43488866 1.3294486 0.25939253 -0.56379604 0.21054718 1.2811387 -0.90132886 0.3380475 0.3912309 0.6435439 -0.54296756 -0.59836805 0.09160382 0.32639036 0.09671638 -0.93367547 0.47618914 -0.1024032 0.01278448 0.26453182 -0.31660023 -0.4203781 0.65852445 -0.38041118 0.3373338 -1.0010426 -0.9279947 -0.18667197 -0.5124262 -0.769526 -0.74966073 -0.7113695 0.05144498 -0.61465114 0.34890115 -0.15573475 -0.25443754 -0.48918894 0.23445542 -0.7566195 0.30796358 -0.31109393 -0.30059677 -0.29847473 0.19530451 0.384278 -0.27996862 0.7122254 0.85453355 0.11908808 -0.67934036 0.8665365 -0.045779407 -0.7131572 -0.30783162 -0.25761455 0.10552221 0.22582704
46 0.08954899 0.29218915 -0.9046217 0.06711676 -0.16312368 -0.3321119 -0.24955204 0.13551538 -0.47872752 -0.43704662 -0.16777386 -0.3956527 0.19970854 -0.013308667 -1.2022557 0.14512329 0.24633028 0.5556048 -0.20296633 0.7583654 0.049465016 -0.25060076 -0.18199047 -1.4373758 0.14090715 -0.34811044 -0.58530337 -0.53176266 0.73401797 0.36232856 0.22122666 -0.2161543 -0.2477379 -0.81180435 0.5319112 0.84053284 -0.14383738 -0.38963467 -0.2837055 0.27839646 -0.50001955 -0.88415897 -0.4292518 0.5938471 0.017940592 0.45024374 0.7902115 -0.017648408 0.27653876 -0.2540137 -0.9475003 0.55276716 -0.9045348 -0.30148154 -0.89842474 -0.2586381 0.38873857 0.17099957 0.39920694 -0.26820296 0.65240914 0.60942113 -0.12124425 -0.14632562 -0.77597594 0.33512697 0.17421716 0.8884467 -0.89545375 -0.019790906 -0.23986542 0.1211987 -0.8041415 0.12912762 -0.38530418 -0.3128546 0.71586233 0.10362622 0.28754193 0.46472993 0.9805609 0.0440847 0.18214652 0.48641667 -0.3853466 0.502749 0.10404471 0.3590677 0.062530406 0.079382494 0.6931586 -0.6895491 -1.1375865 0.34004626 -0.07501089 -0.74604833 -0.13893086 0.3840436 1.1960232 0.8952201 -0.15967087 -0.15725252 0.7732573 1.1724786 -0.39028272 -0.39373648 1.1931114 0.5348666 -0.0031865349 0.33821726 -0.9426552 -1.0417734 -0.033137262 0.06161548 0.14769974 0.45673183 0.36334154 0.35358518 0.62537444 0.9200963 0.22641091 -0.51118 0.8155785 -0.25180608 -0.449612 0.16475908 0.779232 1.0781481
129 0.15387388 0.0056515937 1.0932249 -0.37602073 -0.5074528 0.21783257 0.30854946 0.23660235 0.7270763 0.43071374 0.2861308 -0.3920995 0.38664317 -0.09592188 0.7707542 -0.13320246 0.035198215 0.64079726 -0.18432713 0.66046834 0.61215985 -0.31443006 0.42820242 0.2846104 0.89294493 0.18266584 -0.45280197 0.4769377 0.6702108 0.37717888 0.76443195 -0.09642914 -0.73743844 -0.0045750067 -0.84620947 1.1327479 -0.76388407 0.609702 0.2278055 0.9189322 0.12850516 -0.27044582 -0.5655375 0.33079055 -0.064357385 0.058911234 -0.5873102 0.6178779 -0.26406708 -0.30272117 -0.33760035 -0.28249264 -0.76383924 0.7923064 0.07253309 0.18238336 -0.29175782 0.16649881 -0.38825557 -0.24136625 -0.37872896 0.06205251 0.27549556 -0.612979 0.5553411 0.54661 -0.33453378 0.16083579 0.6792323 0.07862718 1.0983121 -0.5050657 -0.7409005 -0.5191983 -1.6157701 -0.08293484 -0.4453327 -1.3472362 -0.5340676 0.3145847 -0.47895125 0.23602371 -0.31782544 0.012812841 0.28874087 0.33697236 -0.7425965 0.26819357 0.7103827 -0.44799268 0.31251475 0.3297488 -0.1362248 -0.04590322 -0.29707664 -0.22115718 0.16765212 1.318852 -0.4692481 -0.32745546 -0.43053716 0.57336104 -0.18418334 0.31712005 -1.6046689 -0.24503806 -0.59771055 -0.53660226 -0.37819302 0.43650532 -0.013920753 -0.3931611 -0.3030961 -0.62349653 -0.18157399 0.93760973 0.6142232 -0.5105486 0.08723363 1.122107 0.11542179 0.03576708 0.856437 -0.16509986 -0.63844365 0.256692 -0.95258164 -0.5337829
122 -0.7641228 0.066418305 0.33481976 -0.11172965 -0.9836439 -0.71028394 0.37994373 0.090492554 -0.30942622 0.4753784 0.5591139 0.1454273 0.86885196 -0.7753946 0.9686269 0.2126179 0.09823174 -0.13963537 0.32401815 0.021258218 0.22381127 -0.16926 0.32710242 -0.06604401 -0.18684459 -0.33148107 -0.47552884 0.55352366 -0.19294913 0.45518112 0.046748765 0.0010817455 -0.6932067 -0.41728377 -0.65538234 0.046066836 -0.9001977 0.02361717 -0.6806954 0.23786376 -0.0988376 0.06710964 0.08290548 -0.8775917 0.10212865 0.12586997 -0.21528524 -0.4080175 0.80176634 -0.5751871 0.6098513 0.0068403194 0.044446997 0.4337494 0.9912567 0.3796066 -0.1471916 -0.22694317 -0.062852174 -0.45731997 -0.011906225 0.40230453 0.084344335 -0.27297992 1.4814668 0.49509233 -0.20656337 -0.66823715 0.6904814 0.14076787 0.6005059 0.124355644 -0.90166795 0.083589375 -1.0973693 1.083332 -1.4618186 -1.4018183 -0.18532814 -0.4176256 -1.1649393 0.20868717 -0.3470234 0.19827692 0.41268587 -0.16246264 -0.8553213 -0.34851196 0.105263636 -0.46499878 -0.17030703 0.11339229 0.5792973 0.22879542 0.5639387 -0.2969727 0.5503536 0.2837583 -0.15883133 -0.4490098 -0.59220123 -0.2945692 -0.6745908 -0.47054204 -0.27540198 -0.37547892 -0.7187902 -0.3157916 -0.27640784 -0.092021585 0.5764923 -0.0041780304 -0.36048552 -0.6628403 0.35269713 -0.10033084 1.0554987 0.45777136 0.5407954 0.8295932 0.28895834 0.27774474 0.27783632 0.29628658 0.044780605 -0.17536694 0.006092063 -0.08668237
38 -0.8092354 -0.33189437 -0.790233 0.069982186 0.09425049 -0.8196371 -0.0012911733 1.1735505 -0.97550535 0.91003704 0.4695263 -0.30010334 -0.102759115 -0.5957145 -0.31236196 -0.51832014 0.44485795 0.26766896 0.4558768 0.12409727 -0.23243384 -0.072856665 0.6216754 -0.36500096 -0.056777958 -0.29775625 -0.46913964 -0.13323192 -0.06652534 -0.44924122 0.7914922 -0.45934948 0.12195541 -0.5857869 0.12944244 0.68636715 -0.68665427 -0.26668033 -0.7263048 -0.6023781 -0.32487252 0.17959996 0.6125655 -0.48351645 0.06726884 0.29220036 -0.02369111 -0.37092653 0.34100062 -0.3449116 -0.40593863 0.959641 -0.29027256 -0.5073184 0.3190532 -0.20338488 -0.65624124 -0.23387218 1.13108 -0.089606196 0.47756055 0.37500533 -0.40179002 -0.121216595 0.34740508 -0.11827256 -0.850992 0.63461924 0.15376692 -0.3796675 0.43875623 0.41445345 -0.100138344 -0.23781621 0.21041945 0.48871443 0.06022629 -0.6584548 0.6228254 0.19852458 0.013279049 0.2247116 0.056927215 0.49732605 -0.218553 -0.1317288 0.07755531 0.25413108 0.10071376 0.7687276 0.26877046 -0.49998513 -0.46809477 0.10238035 1.0860274 -0.65621513 0.41397855 0.13735412 1.0856562 0.57480437 -0.033287354 -0.46030104 0.21247716 -0.3695216 -0.02385395 -0.73388726 0.9268003 0.54839736 -0.06434683 -0.33359528 -0.68074924 -0.76109076 0.004978229 -0.16282262 0.6937551 -0.3242171 0.3216987 0.9794965 0.5599644 0.7178981 -0.35164994 -0.025127187 0.2567579 -0.2798172 -1.1243867 -0.84887683 1.241041 0.21733443
107 -0.2609425 0.21448644 -0.53677946 0.939604 -0.39187536 -0.7396208 -0.19237557 -0.84158576 0.019856302 0.19526076 -0.66365683 0.46490207 0.61975855 -0.24693227 0.24709931 0.092559166 0.4416 0.13136576 -0.07986077 -0.49194568 0.017451508 0.52127314 0.013300023 0.48644283 0.23008505 0.5631943 -0.08357564 0.66248345 0.20967813 0.03436145 0.7388303 -0.49634486 0.07348553 0.7403261 -0.054914355 0.049410515 0.41356975 0.29705295 -0.31999263 0.21239994 -0.16967267 0.80496556 0.6672056 -1.1261646 -0.41980454 -0.52512014 -0.064978816 0.034080435 0.29734924 -0.24150355 -0.053621083 0.14299771 -0.064113334 -0.18743014 0.8858015 0.11033788 -0.50969034 -0.42266393 0.43713307 -0.42295414 -0.6005687 -0.054263346 0.61183447 -0.24419974 0.6781718 -0.080953 0.26753706 -0.54382503 0.7167905 -0.5276282 0.19317798 0.6236389 -0.028702112 -0.46213165 0.49594033 1.3598319 -0.43756312 0.42997837 0.19127414 -0.16833806 -1.2316481 -0.4171794 -0.057624858 0.14660423 0.061916288 -0.84379053 -1.0404848 -0.50741357 0.33506095 0.25683978 -0.14548433 -0.6273961 -0.078252934 0.24955964 1.1642134 -0.17589438 0.22020908 0.33859646 0.9520489 -0.63541645 0.58176243 -0.009370225 -0.5512064 0.17250164 1.2170371 -0.67689514 0.14290386 0.3551445 0.37112275 -0.85169476 -0.32876563 -0.12197823 1.1083382 0.21820694 -0.17682615 -0.48868755 -0.57708865 -0.25233296 1.2406197 0.32173467 0.9659948 0.5146858 -0.6919596 -0.0626906 0.4689278 -0.8443495 -0.013020219 0.09060647
102 -0.238921 0.0034095717 -0.46561688 1.0297704 -0.06488993 -0.636748 -0.2593493 -1.0594591 0.4137332 0.07089093 -0.54927766 0.41569692 0.7910183 -0.19422981 -0.04967839 0.17735945 0.16533098 0.10041411 -0.1839351 -0.549746 0.31270802 0.85796803 0.043985836 0.5495693 0.32495275 0.67678404 -0.016228952 0.31124708 0.478943 0.12010338 0.6617686 -0.35249382 -0.17754108 0.29368332 -0.21789286 0.23237611 0.6750013 -0.026519593 -0.28562975 0.44509858 -0.065300696 0.33671468 0.21322441 -0.94560844 -0.023272965 -0.36267868 0.086751394 -0.00059119595 0.17747122 -0.23099251 -0.46810696 -0.419869 -0.35720363 0.30883265 0.6430152 0.20594542 0.14039215 -0.3945404 -0.050678216 -0.33022633 -0.33366245 -0.1632068 0.5633372 -0.19766234 0.48928517 -0.25626415 0.64877367 -0.088528775 0.6747567 -0.07888179 0.06347343 0.65326774 -0.53353584 -0.41848734 0.78732044 0.99856305 -0.13587844 0.741401 0.15936002 -0.09161101 -0.5939317 -0.6134622 -0.09161944 -0.4126542 0.102219954 -0.33991596 -0.8400052 -0.5350468 0.4977368 0.3671957 0.12707041 -0.76825017 -0.4422354 -0.075108044 1.0051639 -0.04394694 -0.18554659 0.21307091 0.9740884 -0.7457624 0.15493527 0.25640246 -0.27100044 0.5515257 1.4092402 -0.48621076 0.6547453 0.090759106 0.41186377 -0.95563275 -0.05412648 -0.30070016 0.8928253 0.15300658 -0.7194929 -0.41361856 -0.6533181 -0.9502529 1.0655676 0.044534978 1.3082744 0.43836918 -0.5440331 -0.20556687 0.4782188 -0.54036415 -0.24020848 0.24651207
120 -0.7823005 0.08170061 0.3956232 -0.10347721 -0.9961093 -0.72217256 0.4037643 0.15347968 -0.32856822 0.46738026 0.5481536 0.118240006 0.8385436 -0.80246925 0.92585725 0.20152551 0.12883149 -0.10904916 0.3154969 0.029590417 0.23577331 -0.2341717 0.36091304 0.03389329 -0.1811216 -0.34165138 -0.490723 0.46293363 -0.24388005 0.47862312 0.065767445 0.032307945 -0.6657752 -0.41559255 -0.64886147 0.107398234 -0.9112669 0.13450204 -0.65772635 0.2469054 -0.1038959 0.10965757 0.17227395 -0.7727381 0.0914907 0.11027435 -0.2165026 -0.3861801 0.74359566 -0.6273234 0.6013707 0.12889962 0.11428067 0.37098953 0.95784265 0.35117963 -0.17480715 -0.22250016 0.009315132 -0.449292 -0.047985096 0.384884 0.047402393 -0.19458449 1.4773275 0.4755247 -0.2378861 -0.6034627 0.6281031 0.09703546 0.64096594 0.10828846 -0.7832082 0.10832356 -1.1030952 1.0148532 -1.4141119 -1.4372193 -0.23445256 -0.41692305 -1.1258653 0.26937786 -0.3770042 0.21456456 0.37105677 -0.09493311 -0.8548635 -0.3149766 0.042383604 -0.47801137 -0.21881945 0.13058457 0.60387284 0.22865273 0.4911653 -0.30258086 0.6109654 0.23436932 -0.23993272 -0.4340324 -0.56700534 -0.27811 -0.61088806 -0.49212798 -0.38603568 -0.3779987 -0.70363677 -0.32827762 -0.29713523 -0.076158255 0.5960221 -0.012594389 -0.34746867 -0.59357625 0.38634107 -0.07431434 0.99358904 0.5358067 0.50683695 0.8349629 0.28784993 0.24288338 0.31191638 0.38531333 0.07496587 -0.19666407 0.005256053 -0.10339164
84 -0.2722336 -0.010295122 0.26954687 0.29893416 -0.08828836 -0.56468284 -0.4968644 -0.054950193 -0.2565538 0.58228785 -0.8149993 0.04612355 0.50432736 -0.23923084 0.47167134 -0.108007155 0.64077675 -0.13323289 1.3006339 -0.611019 0.6539703 0.5519386 0.34138 0.537993 -0.040602025 0.032604482 -0.06453615 0.53350353 -0.37182152 -0.33915195 -0.9854348 -0.746717 0.41868365 -0.09563365 0.2265441 -0.7740885 -0.4273847 0.21018104 -0.046483275 -0.8434886 0.08164897 -0.37460396 1.2232231 -0.9429938 -0.5807414 0.47756383 -0.15700707 -0.5641442 0.100153744 0.810315 -0.40228593 0.51493984 0.63828 0.63396776 0.5207143 -0.52260774 -0.4539888 0.20206308 0.6134304 -0.011884233 0.5273454 0.4239125 -0.12806238 0.19364381 0.31575063 -0.57244706 -1.1982532 -0.31613183 0.5254435 -0.88151026 0.37632376 0.2997263 0.5206137 -0.07409702 0.21152103 0.6286253 -0.3354222 -1.1960329 0.2614642 -0.111357115 0.014863973 0.00272405 0.68485415 0.16905315 0.24084465 -0.22902143 0.19373597 -0.22520396 -0.8223675 1.0208962 0.5576265 -0.17791687 1.4132195 -0.006896196 0.53227156 0.46812826 0.40671462 0.3522806 -0.27795738 -0.19834559 0.28238493 -0.09254013 -0.23217972 -0.539529 -0.21221438 -0.86915225 -0.004731193 0.20947376 -0.07473967 0.113657676 0.095645316 0.48858887 1.128009 0.7562786 0.7620088 -0.448507 -0.2761311 0.32325134 0.2808258 0.23741952 -0.10969605 0.8914538 0.12879488 0.15225132 -0.27156255 0.32095438 -0.09829619 0.2983512
69 -0.49354073 0.79650843 -0.037234295 0.36513856 -0.19136648 -0.21615982 0.16469012 -0.30315414 -0.57635635 -0.040662248 0.43221226 0.37248707 0.38124442 0.4360201 0.34451273 -0.64705604 0.046094906 -0.28882128 0.10669623 0.8809253 -0.6638208 -0.28155798 0.96409696 -0.90062416 -0.21193576 0.3213959 0.38613892 -0.27575347 0.59924966 0.7329784 0.83433485 1.0418702 -0.2836717 0.5861672 -0.38053632 -0.13052462 0.16638511 0.21970785 0.57389826 0.14829436 0.42609045 -0.2556848 -0.703148 0.46805438 -0.25448084 -0.9443625 0.060275923 -0.8103989 -0.587229 0.33503538 0.7956475 -1.0399221 0.19639236 -0.2375237 -0.39721242 0.5685695 -0.19625717 0.3564601 -1.4700485 -0.12967595 0.18274635 -0.10582821 0.2887808 -0.9796137 -0.6511181 -0.21993646 0.3285012 0.42687073 -0.028471006 1.0682882 0.85716575 0.64114136 -0.2606331 0.031434093 0.13584809 -0.34395087 -0.14232925 -1.1638271 -0.551207 -0.007771491 0.13554554 0.3880399 0.31153333 0.32959452 0.5080431 0.32401225 0.59877414 0.86998665 0.1401764 -0.77901596 -0.4086252 1.1036767 -0.14430912 0.13106667 -0.90719676 0.080673896 0.9095731 0.33527413 -1.2557653 0.26960012 -0.4509644 0.08527775 0.04007069 0.39416125 -1.0166358 -0.7748053 -0.5668209 -0.006488861 -0.6971343 -0.6756783 0.10328844 -1.0207036 0.1346921 -0.9864084 -0.55032074 -0.06757348 0.09143331 -0.44880137 0.20949729 -0.4225214 -0.083591335 -0.39812782 0.10706702 0.7347387 -0.23239738 0.04444737 -0.634938 -0.42957574
53 0.7053919 0.16853811 -0.5021047 -0.18313543 -0.30261186 0.767272 -0.22476548 -0.14478384 -0.6678476 -0.09795259 0.3041775 -0.22887522 -0.1951839 -0.112495735 -0.9872745 0.5941761 0.41669992 0.65171003 0.359712 0.4439144 -0.02877827 -0.64090997 -0.017310208 -1.3347999 0.8469574 -0.980866 0.04356591 0.21040016 0.4298497 -0.19192825 -0.20058349 0.48119035 -0.49285057 -0.24469589 0.23949625 0.5657249 -0.052196205 -1.4567116 -0.20893545 -0.03227424 0.49414325 -0.6279195 -1.2523296 -0.07441019 -0.16715862 -0.05145653 0.76957935 -0.0037823026 -0.64032245 -0.62090236 -0.05009219 0.3454882 -0.93979985 0.06781457 -0.73094195 0.038453545 0.91488194 0.08841835 -0.48448148 -0.00030125197 -0.04609425 -0.17643106 0.43595144 0.14483352 -0.48533055 0.42084992 0.4372181 -0.7391044 -0.92992383 0.3527368 -0.627669 -0.037080813 -0.219145 -0.98954666 -0.47876486 -0.25829002 0.42534 0.039744038 0.40501773 -0.046118062 0.43751013 0.14976472 -0.06950968 -0.020531436 -0.23380384 0.37330878 -0.8484509 1.1110831 0.5384803 0.17485492 0.7897118 -0.29223713 -0.9524294 1.1670487 -0.15122251 -0.32637584 -0.3215815 0.9525441 0.78761375 0.54748374 0.26511565 0.4279814 0.10813795 0.618007 -0.6814328 0.71867424 0.33635432 0.5903089 0.5256135 0.55064476 -0.79244685 0.03765229 -0.020656422 0.16815075 -0.24980201 0.65503985 0.058924843 -1.0692881 0.47734588 1.0973214 0.33882642 -0.31397542 0.602289 -0.36766168 -0.011892634 0.20139389 0.7688261 0.41521215
61 -0.70116675 0.8461263 -0.48404118 0.83406615 -0.5709532 -0.2532466 0.3822877 0.58899236 -0.13402842 0.55034673 0.056997865 -0.6103057 0.21749443 0.09507213 0.22859098 -0.029466588 0.6408901 0.15374091 0.9091105 0.01796121 -0.3671409 -0.99378663 0.76185715 0.5535826 0.11075624 -0.49135274 -0.564933 0.44935632 0.02585354 -0.15029766 0.83436763 0.04355974 -0.018265797 0.4215976 -1.3878262 0.092576474 -0.49257985 0.11314646 0.17573601 -0.22349036 -0.18053386 0.5959621 0.77713424 -0.1474976 0.32505792 -1.1540493 -0.9341313 -0.25740016 0.49601626 0.81009215 0.66610706 -0.09610679 1.0797677 0.21080692 0.0894384 0.09282578 -0.67788583 -0.09947631 -0.30467802 -0.12596025 -0.38340157 -0.3685626 -0.096608944 -0.83837616 -0.51165754 -0.5111554 -1.0665414 -0.2592794 0.14281783 0.6917192 0.37959492 0.9151939 -0.26616597 -0.25689 0.7780315 0.0623794 -0.5779664 -0.06945095 0.3621548 0.0016566016 -0.39096653 0.6343843 0.3719512 0.79195446 -0.27884927 -0.375588 -0.12725993 0.552576 0.5844514 -0.05216907 0.4531558 0.49663138 0.31318194 -0.7282626 0.33997113 0.5714099 0.85321623 0.9110937 0.14851514 0.2606964 0.16554911 -0.84109753 0.04512092 -0.19112186 -0.92069244 -0.6299573 -0.48987052 -0.5035183 -0.7472302 -1.1943804 -0.13928935 -0.6799291 0.92306834 -0.6249555 -0.2934715 0.14779729 -0.6406251 -0.03777737 0.10521929 0.114885814 0.013872923 -0.10042021 -0.37983152 0.38826084 -0.65508693 -0.82810575 -0.5078205 -0.4912633
64 -0.20559016 0.9531506 0.23417884 0.32203162 0.30741146 0.09504329 -0.14415123 -0.582033 -0.23776934 -0.23740241 0.32520822 0.5186149 0.5443449 0.5241358 0.017401045 -0.25430897 0.23430566 -0.22693218 0.08103181 0.6457265 -0.6073795 -0.54382074 0.67167586 -0.51134855 -0.30191386 0.75561196 0.4277978 -0.53674054 0.5467379 0.6463359 0.5737639 0.6972393 -0.049821142 0.00730163 -0.17689098 -0.09888447 0.8288892 0.5054881 0.5432693 0.1575979 0.620714 -0.36423352 -0.7401561 0.52375835 -0.16802655 -0.69996214 0.036987994 -0.7598463 -0.6165147 0.37293935 0.22550462 -0.47230884 -0.49543357 -0.29201218 -0.4559147 0.046557248 0.29320496 -0.039139632 -0.9372418 -0.024474282 0.05739353 -0.42825618 0.42332095 -0.45975468 -0.6869274 -0.003915234 0.58666223 0.23850732 -0.40005472 0.8743641 0.97359514 0.25500277 0.25524312 -0.74823546 0.40131313 -0.33931816 -0.23547609 -0.9110354 -0.5686368 0.18916167 0.46337718 0.31398508 0.67699784 0.1420917 0.41242853 0.4164065 0.58612305 0.6161322 -0.28026754 -0.51748013 -0.17318074 0.85588354 -0.23523651 -0.020694008 -1.1813711 0.082503065 0.64583594 0.31679046 -1.1304272 0.4697017 -0.17755352 0.016738223 0.099755205 0.58608645 -0.729745 -0.69014925 -0.28524986 -0.17717893 -0.73589504 -0.3879194 0.37490886 -0.6839597 0.011769017 -0.5337633 -0.5866656 -0.047010228 -0.013177508 -0.318603 -0.04593639 -0.51720333 -0.026439274 -0.50871944 0.49105564 0.9566586 0.4099858 0.036304567 -0.3341335 -0.46080855
7 0.47626573 0.18968429 -1.0126187 0.1618798 0.503247 0.2516171 -0.36682138 0.923671 -0.42169267 0.5701863 0.89110416 0.1301151 -0.22823778 0.13151626 -0.5101011 -0.22957471 0.9458774 -0.08732531 1.0024847 0.5127814 0.22584398 0.22174533 -0.082366996 0.11471614 -0.067928106 -0.91770947 -0.024656093 0.9377126 0.022028858 -0.67968637 -0.631487 0.1334748 0.24838473 -0.097483456 0.061249908 -0.690461 0.11235118 -0.48887184 -0.37629005 -0.29089952 0.0992538 0.23965667 1.1653832 -0.9365865 0.2298694 0.27882633 0.076319605 -0.35535502 0.2436195 0.22601527 0.65940386 1.1035303 0.1586278 0.050433304 0.9231341 -0.21062376 -0.4619649 -0.43817425 -0.1314254 0.4807853 0.0755161 -0.59819454 0.036874548 0.20200337 0.4133631 0.31424588 -0.47432873 -1.2008545 -0.021371366 0.6190328 -0.93290997 -0.38649672 1.0900403 -0.45594513 0.11093273 0.8244559 -1.8398794 -0.44478533 1.0886215 0.12249654 -0.58045554 -0.35185653 -0.0822232 0.38097355 -0.3363471 -0.5317326 -0.4639641 0.2409942 -0.24111366 0.092977606 -0.8647251 -0.012644622 0.37285897 0.5551125 0.7783048 0.12623897 -0.6376002 0.4184743 0.54065293 0.38639674 0.044766184 -0.42574486 -0.72378826 -0.6679652 0.4943436 0.88154536 -0.6477622 1.0141127 0.31987342 0.57962793 -0.9508135 0.100279264 0.45296395 -0.23946989 -0.021846209 -0.15711622 -0.2071451 0.1625608 -0.12571496 0.71518743 -0.5080333 0.84067637 0.6181103 0.21492833 0.252731 -0.76910436 0.56183904 -0.43899247
114 -0.008267477 -0.17489262 -0.19013208 0.8975108 0.2141902 -0.43066335 -0.46780887 -1.2863932 0.814563 -0.21507485 -0.53142047 0.3892468 1.0143689 -0.16965862 -0.34593967 0.34551412 -0.014210909 0.17236501 -0.030331908 -0.5109563 0.9360703 1.228506 0.1360295 0.5301153 0.62727386 0.73460454 0.074245244 0.05713184 0.7054008 0.32756442 0.08607588 -0.2555383 -0.47429588 -0.13416529 -0.20824984 0.27633733 0.97714585 -0.21500446 -0.17342356 0.65409213 0.12832499 -0.5006261 -0.29135132 -0.5193421 0.081637144 -0.06157143 0.3687574 -0.17490928 -0.19447978 -0.18077523 -0.98311126 -0.9239449 -0.5601024 1.0382193 0.24057235 0.3536484 0.8758037 -0.19528945 -0.66388327 -0.32443634 0.19990012 -0.08215745 0.58088666 -0.03461715 0.14284311 -0.5408516 0.9495547 0.33859116 0.55276364 0.1938294 -0.016318088 0.44938746 -0.8042963 -0.27823842 0.7007679 0.46570164 0.1549455 0.5311023 0.017434178 0.13217705 0.28218493 -0.636475 0.028155606 -0.95341116 0.22844082 0.43991888 -0.5431646 -0.43024388 0.40533698 0.5240867 0.51256835 -0.73184323 -0.3683631 -0.18309689 0.48020288 0.23504296 -0.39920926 0.27130604 0.5422985 -0.8112177 -0.12035956 0.6506228 0.007649493 0.9170535 1.1257311 -0.38455164 1.0311066 -0.014935039 0.4437786 -0.65573406 0.16999374 -0.45557502 0.81440324 0.24265358 -0.97728795 -0.22368187 -0.7925002 -1.6525065 0.8114563 -0.027811797 1.5889906 0.53202176 -0.060920455 -0.18654771 0.6011287 0.21000727 -0.6012304 0.5970771
44 0.109819785 0.29871815 -0.90013623 0.017990801 -0.15313625 -0.2492378 -0.24606442 0.1467397 -0.4715825 -0.44733238 -0.08142584 -0.3618527 0.116772674 0.02665727 -1.1603143 0.12584384 0.21718 0.52894396 -0.2769143 0.7805491 -0.04301245 -0.26855227 -0.2069712 -1.4647133 0.1535589 -0.3678803 -0.548127 -0.45269024 0.70139086 0.32019606 0.23572691 -0.17669673 -0.2880795 -0.71625674 0.51065975 0.8258532 -0.10880746 -0.4689741 -0.27998275 0.24585518 -0.44863042 -0.8056479 -0.5015334 0.5734005 0.040250286 0.39119074 0.79371226 -0.017760927 0.19747601 -0.3007615 -0.84050965 0.46554366 -0.9060947 -0.33070678 -0.8608204 -0.18447791 0.37918276 0.16025217 0.2912463 -0.25172257 0.5919945 0.5620648 -0.10126162 -0.16985743 -0.79061353 0.32783172 0.20635507 0.7927481 -0.8440363 0.028003993 -0.27552146 0.11893517 -0.7736397 0.10684083 -0.40975466 -0.29568765 0.6523965 0.18904626 0.30694047 0.47799984 0.885227 0.017552543 0.13791075 0.47502077 -0.39788568 0.44416204 0.08446451 0.38200888 0.14881825 0.021603364 0.62503254 -0.6472046 -1.1364169 0.34920698 -0.063511506 -0.75817895 -0.18318598 0.39274684 1.1637082 0.8622994 -0.15488148 -0.15798074 0.74612015 1.1061134 -0.34921035 -0.30306002 1.0904242 0.52968955 0.025918612 0.34251633 -0.97075945 -1.0125853 -0.10021807 0.0003997163 0.121324144 0.49940327 0.3425274 0.31089446 0.6103248 0.8828309 0.19340608 -0.48953077 0.7682889 -0.3147834 -0.44481596 0.13482541 0.76224136 1.0252256
14 1.1638548 -0.73397607 -0.5706162 0.008042408 0.5856436 0.23405603 -0.031884313 0.64214563 0.35069597 -0.20018788 0.91750515 -0.30155295 0.4908094 -0.21875511 -1.1545261 -0.086477235 0.44293955 0.5907279 0.57876074 0.7794195 1.1294606 0.7659189 -0.14754914 0.28210953 0.6477794 -1.3310801 0.22902416 0.21438459 0.12969857 -0.4313578 -0.82483053 0.2328752 0.21016185 -0.3553387 0.32484096 0.44270217 0.47588167 0.16561747 0.42951372 1.071147 0.37886947 -0.20166016 -0.0004245276 0.5503719 0.31940737 -0.39502412 0.58565474 0.001376051 -0.29399464 -0.34613833 0.44950178 0.5136155 0.37358573 0.36735123 -0.13683948 0.4347847 0.844608 -0.18419425 -0.24847524 0.11597027 0.44234863 -0.63486093 -0.2534276 0.3692834 -0.003244911 -0.14854428 0.769527 -0.28284737 -0.4683458 0.52747613 -1.0749146 -0.64469737 0.6550275 -0.061447773 -0.41921642 -0.43167713 -0.8927934 0.18321706 0.10424622 0.45460808 0.35078216 0.1673349 -0.7984345 0.5204079 -0.33412886 0.9023467 -0.8381234 0.5368628 0.11737012 0.3141285 -0.8055218 0.5403696 -0.06763267 0.9405816 -0.69879687 0.10783483 -0.4047823 0.088683955 -0.3848393 0.10396251 0.62206477 0.27065215 -0.40910047 -0.015634874 -0.24442053 1.5536857 0.3648349 0.7019698 0.6464935 0.6783969 -0.9747266 -0.44750366 0.13210744 -0.32809657 -0.57820153 0.5346352 -0.70281744 -0.5497759 -0.688844 1.4462235 0.30888164 0.7061806 1.2937522 0.18484631 1.3504378 -0.02079175 -0.026507193 0.14194508
91 -0.085453264 -0.50592196 -0.31112757 0.27199066 -0.09704443 -0.39241385 -0.43767703 0.18635148 -0.11564852 -0.70360214 -1.1955599 -0.27859133 -0.1769759 -0.34815395 -0.54931855 0.45107046 -0.20368502 0.89985603 0.25261 -0.40787712 1.2599531 0.5153549 0.52975136 0.19098493 0.52597135 0.34558773 -0.2879784 -0.10393519 -0.05491272 0.68456185 -0.89430994 -0.41943708 0.22332966 0.32266682 0.48205912 0.26774648 0.28684986 0.4968924 -0.22988643 0.27320945 -0.26938638 -0.90793186 0.8026134 0.98045266 -0.9197135 0.6604621 0.1904188 0.36390585 -0.45728773 -0.2231843 -0.9154182 0.49898368 0.29857495 0.83275217 -0.72897094 0.08762447 0.026923312 0.049748804 0.7418765 -0.032776397 0.5906785 0.57130176 0.63919854 0.36327967 -0.015832877 -0.61579406 -0.31219518 0.4740945 -0.9126975 -0.99621695 0.1841269 -0.53607726 0.68054277 0.19066598 -0.06972038 -0.60370183 1.3127594 -0.31413016 0.1811777 0.3724361 0.79046094 0.292963 0.3485062 -0.55196244 0.5231231 0.16240172 0.17155945 0.27871245 -0.46533927 0.6304305 1.0437337 -0.42297128 0.32709172 -0.11006908 -0.10238674 0.2930341 -0.05957628 -0.080932036 -0.47659904 -0.21305725 0.5228478 -0.08659258 0.27225703 0.3530617 -0.5003026 -0.4754499 0.63924253 0.7484498 0.47302455 -0.5488469 0.3053921 -0.14561747 1.043454 0.8992804 1.1859046 -0.9552171 -0.4651467 -0.060184233 0.31635004 0.4192516 0.10025878 0.33392105 -0.26980457 0.37070006 0.03453574 0.48033738 0.5017805 0.8229069
121 -0.75489 0.015043112 0.36146203 -0.104723744 -0.99301 -0.71365684 0.36756638 0.09873905 -0.2668624 0.5291193 0.39475498 0.11741448 0.80326766 -0.8508711 0.8998901 0.28549176 0.1282529 -0.06626239 0.3930002 -0.11210153 0.38857177 -0.15721439 0.3477992 0.12630083 -0.05257951 -0.22535467 -0.4800675 0.45044327 -0.21501142 0.46744186 0.060120743 -0.06712763 -0.65621907 -0.39717 -0.63606197 0.079421654 -0.864894 0.1296393 -0.72592324 0.20045121 -0.16646363 0.06884231 0.17767666 -0.826971 0.0060627353 0.20361201 -0.24523982 -0.3214757 0.78315765 -0.6209335 0.40509176 0.13017023 0.07541833 0.4395294 0.9540412 0.3146979 -0.21093659 -0.22250992 0.09374904 -0.5011446 -0.006931921 0.44897783 0.09720647 -0.18250994 1.4484451 0.4264313 -0.2642147 -0.4817209 0.6686425 -0.027329607 0.6408261 0.05865355 -0.8171714 0.12935296 -1.0208443 1.0013981 -1.2274498 -1.4331839 -0.1983121 -0.42756927 -1.0482471 0.24611591 -0.30517188 0.06964084 0.3888367 -0.07635759 -0.84458274 -0.35856348 0.05917389 -0.35061666 -0.052562244 0.01860887 0.5683965 0.200629 0.619061 -0.22611237 0.64702964 0.27681902 -0.08370618 -0.44600576 -0.46879134 -0.17639369 -0.5879877 -0.4536801 -0.27441746 -0.49477494 -0.55471057 -0.24860504 -0.25934327 -0.06297053 0.558721 0.050393827 -0.22786538 -0.45465094 0.43514356 -0.17259425 0.9484334 0.40458265 0.53503674 0.75960135 0.39831498 0.24457096 0.22000718 0.33995646 0.0056039398 -0.13260743 0.018147498 -0.0442158
30 0.042848337 0.0019346097 0.16600789 -0.8550539 0.7026683 0.47686028 -0.81011206 -0.055279877 0.20580548 -0.87049675 0.76770514 0.6193968 -0.38480833 0.21470158 0.22288045 -0.4621252 -0.38467118 0.13896438 -0.780845 0.5913073 -0.41522276 0.81712466 0.09864772 -0.75500524 0.09371185 0.51977247 0.041757107 0.90558493 -0.17232053 -0.094883464 -0.82892895 -0.41430825 -0.76031643 0.31786045 0.55088764 0.11623845 0.95488757 -0.5402799 -0.14908926 -0.56124884 0.514977 -0.37929735 -0.9026782 0.5476067 -0.124945946 -0.14557244 0.9253412 -0.8011245 -1.5801727 -0.40753755 -0.083059706 -1.1577823 -0.5388579 0.4936921 0.16534142 1.1855679 0.48529968 0.21198697 -1.2797043 -0.21396512 0.6808696 0.45294496 0.059468567 -0.034618407 -0.62061733 -0.9799438 0.18851823 -0.16250758 0.9106246 -0.21409538 0.10755204 0.13571505 0.22863407 -0.009613367 -0.74949 0.26453495 -0.53470826 0.09066097 0.084543236 1.4845079 0.0852064 -0.12474538 0.22165541 -0.2298377 0.18989433 0.13294974 0.8068503 -0.10899339 0.20408286 -0.11459893 -0.19392581 0.33140433 0.8602817 -0.07104747 -0.58766097 -0.53773797 -0.40451914 0.0888112 -1.1016041 -0.47703147 0.060992558 -0.06629636 0.28249064 -0.43741685 0.16758507 -0.08969599 -0.32764634 0.005169131 0.30539006 0.48280656 -0.39750165 -0.5394351 -0.60523045 -0.44892877 0.4159124 0.7635094 -0.5199054 -0.004019637 0.24571624 -0.03067423 -0.5595754 0.9145648 0.37220347 -0.92099994 0.0037353912 0.7824115 -0.41178486 0.5084362
45 0.15450542 0.31684124 -0.87661564 0.051743142 -0.2528357 -0.22812971 -0.26554707 0.022919312 -0.5099939 -0.43836048 -0.22620401 -0.37102303 0.15475133 -0.021082528 -1.1558082 0.25584713 0.2496704 0.5703377 -0.16134855 0.6767149 0.047534138 -0.30423886 -0.19533117 -1.4715258 0.22887546 -0.37768406 -0.5407458 -0.44690356 0.7152605 0.33702505 0.15885805 -0.17316498 -0.27633944 -0.71547496 0.52030337 0.77653027 -0.13940379 -0.51238227 -0.28800523 0.2426446 -0.44028553 -0.8770794 -0.51647776 0.48527214 -0.054099984 0.43378222 0.77797776 0.02539044 0.23107046 -0.27739727 -0.8936753 0.515975 -0.92573047 -0.26271412 -0.8973838 -0.26547778 0.41340694 0.18261823 0.34772545 -0.27185985 0.5573497 0.5758102 -0.006000607 -0.14262643 -0.7509462 0.37777767 0.19327955 0.6973477 -0.92015624 -0.03744643 -0.2771335 0.102563925 -0.7825296 0.03639405 -0.4086658 -0.28889042 0.7592183 0.11640767 0.30246985 0.37458184 0.9005811 0.026845751 0.18305449 0.41944385 -0.34379923 0.43620008 -0.006491217 0.40837464 0.11180622 0.09160925 0.7756055 -0.7006246 -1.1352521 0.42696416 -0.02733644 -0.6846004 -0.15636177 0.47380066 1.2160171 0.85415995 -0.09341217 -0.095855415 0.7006385 1.1607563 -0.3953327 -0.3362906 1.0992452 0.5627421 0.062947035 0.34656718 -0.9136095 -0.88675773 0.018275717 0.1259605 0.15437277 0.44042438 0.35757315 0.19670175 0.6857122 0.92426455 0.2819226 -0.5055029 0.72691077 -0.2730597 -0.4320546 0.19586866 0.78885955 1.0577935
90 0.006073983 -0.42034605 -0.29520097 0.3090803 -0.033937994 -0.36214143 -0.54457957 0.05242996 -0.08802818 -0.7618556 -1.2487522 -0.19294405 -0.06655993 -0.25758076 -0.54687285 0.44632965 -0.1365777 0.83081865 0.3281643 -0.3730816 1.272909 0.5955801 0.45782587 0.14539428 0.45641893 0.34408638 -0.22703768 0.0060318867 -0.02366946 0.6492677 -1.0735643 -0.44470307 0.2732522 0.29932413 0.55180824 0.10997235 0.37084985 0.50350165 -0.14638054 0.27069798 -0.2018775 -0.9853436 0.83028686 0.8861736 -0.94187695 0.65948534 0.22903126 0.26713565 -0.46373212 -0.06335971 -0.8755059 0.47542575 0.28016576 0.87530196 -0.6958055 0.030262485 0.10189652 0.05747896 0.6694705 -0.0050372253 0.6285644 0.5337355 0.669489 0.35875124 -0.04735534 -0.61211914 -0.27748185 0.31246135 -0.9083141 -0.9620333 0.13549604 -0.53742445 0.74102104 0.13346891 -0.04974125 -0.5321266 1.170742 -0.34098744 0.2036725 0.38552052 0.79864573 0.21048485 0.44506663 -0.50314623 0.55411375 0.11129134 0.18689042 0.22685072 -0.56725436 0.6563545 1.001431 -0.3699673 0.45405814 -0.07218116 -0.1668655 0.3533522 -0.13137116 -0.04437176 -0.5481264 -0.20921074 0.5409373 -0.109210625 0.19186474 0.38130438 -0.44558674 -0.42591736 0.55618286 0.7532747 0.47722095 -0.45612365 0.2914637 -0.089271404 1.1129694 0.9195707 1.1377355 -0.94291705 -0.48704284 -0.0734213 0.29711565 0.42212558 0.07067692 0.4389792 -0.18548232 0.39712375 0.16782278 0.54753286 0.4205306 0.8229357
37 -0.8494052 -0.36238375 -0.9687166 0.15886374 0.11148704 -0.8857777 -0.012300822 1.1736038 -1.0865304 0.9144752 0.42356294 -0.2582254 -0.16180767 -0.65823305 -0.41868782 -0.46597892 0.46766385 0.30220294 0.49760678 0.03619392 -0.22516018 -0.047010027 0.6749483 -0.3422986 -0.036653012 -0.25104356 -0.41452274 -0.18748388 -0.09918051 -0.43197855 0.86372554 -0.4458059 0.20311764 -0.49904352 0.18074548 0.65876055 -0.54459065 -0.2538203 -0.81614727 -0.62049395 -0.35931513 0.25982335 0.680015 -0.5337225 -0.012527996 0.25668845 -0.020830404 -0.3752939 0.34772566 -0.43920147 -0.40608788 1.0634196 -0.27331278 -0.60043055 0.34225535 -0.17881049 -0.70997417 -0.32153118 1.2663019 -0.106371894 0.45044938 0.3411583 -0.29741046 -0.09276996 0.3786347 -0.16615677 -0.7635935 0.62825805 0.057846326 -0.43599325 0.40906417 0.41161948 0.023801621 -0.27781284 0.39623725 0.5231953 0.16916005 -0.58891976 0.68905574 0.14449985 -0.030793983 0.23835658 0.074925035 0.4487808 -0.19413868 -0.18225034 0.0314656 0.26103306 0.07863552 0.8402788 0.2611913 -0.55106956 -0.55862206 0.16646807 1.2085755 -0.62901837 0.48120856 0.046409644 1.2028815 0.5838366 0.09461631 -0.48353386 0.18499966 -0.37978387 0.18286589 -0.7767862 1.0348258 0.71764964 0.0158571 -0.4708219 -0.68764985 -0.7557291 0.12264173 -0.09313964 0.7388228 -0.5485902 0.23664398 0.9660241 0.63898563 0.6553035 -0.28085145 -0.053271614 0.115928516 -0.20649521 -1.0420175 -0.967377 1.4184122 0.23660088
105 -0.21955456 0.14210537 -0.53157425 0.9623465 -0.32469952 -0.7094192 -0.21817857 -0.7969277 0.03561583 0.1353066 -0.7276152 0.38884822 0.5695384 -0.2130587 0.17618999 0.078126445 0.40343422 0.22383569 -0.1390257 -0.4822354 0.010018266 0.52864444 0.02568988 0.5029514 0.23679486 0.5510958 -0.09443588 0.6330372 0.19668722 0.01871812 0.71842116 -0.50598824 0.14039506 0.7583614 0.006464501 0.15170059 0.40889597 0.3058378 -0.270733 0.2596528 -0.14998992 0.78255916 0.69731736 -0.9969536 -0.43484357 -0.51496416 -0.0569094 0.122864336 0.2140783 -0.24086241 -0.06491749 0.18768546 -0.07181194 -0.17568047 0.77321136 0.07420171 -0.48019305 -0.44645047 0.5271605 -0.33650696 -0.62655234 -0.080808714 0.6354953 -0.21773629 0.65656835 -0.096275516 0.24765319 -0.56171596 0.59117174 -0.5766737 0.18588462 0.58931357 0.05668882 -0.5521995 0.52552277 1.27364 -0.31208512 0.55047196 0.22528675 -0.12372971 -1.1699681 -0.41534182 -0.073308446 0.15369344 0.07650485 -0.89908814 -1.0284724 -0.4430893 0.34583083 0.31081372 -0.076186776 -0.64928675 -0.13335097 0.22573021 1.1120661 -0.19596638 0.10720296 0.32584918 0.93241626 -0.64664125 0.5999775 -0.07159174 -0.5351805 0.20274363 1.1617961 -0.5984018 0.18853886 0.35735917 0.41947547 -0.94165343 -0.29723936 -0.11720622 1.1178782 0.25072017 -0.13838743 -0.5107169 -0.6130212 -0.23228298 1.2190241 0.38508728 0.8834145 0.50250745 -0.72091895 -0.092600524 0.45585522 -0.8698563 0.058326766 0.09098458
21 -0.7536501 0.39641812 0.23445818 0.3135983 0.39200076 -0.3965238 -0.64824045 -0.12330186 -0.44882354 -0.10759073 0.26881602 0.4042202 0.057709217 0.3329238 0.52780706 -0.9513719 0.080186486 -0.25719407 -0.53318286 0.30054614 -1.1856912 0.38711846 0.2708186 -0.33920044 -0.92152965 0.15745802 -0.14289014 0.7710025 -0.29355055 -0.2456416 -0.12697908 -0.25491628 -0.29795542 0.16857123 0.18871607 0.11438684 -0.21632455 -0.7442798 -0.08958805 -0.84979194 0.5610559 0.25462845 0.55377424 -0.59239525 0.32044163 -0.30670422 0.46398807 -0.8863162 -0.9807253 0.18333577 0.52365845 -0.31700805 0.005451698 0.06721445 0.5125475 0.30768588 0.08692442 -0.01526476 -0.47218627 0.43760768 0.027690876 0.1878239 -0.22941872 0.024115503 0.15421113 -0.58852834 -0.6337627 -0.74028695 0.707502 -0.08671416 0.36346632 1.2058243 0.25421622 -0.47636995 0.17620969 1.0884564 -0.8994727 0.21815225 0.35387966 0.58595574 -0.45985776 -0.4704431 0.14680523 0.3366583 0.056655724 -0.7991222 0.4909563 -0.031319525 -0.0015004252 0.18285224 -0.27793577 -0.24163911 0.7380198 -0.3534081 0.20572361 -0.77769345 -0.7454775 -0.059759963 -0.5756048 -0.64696705 -0.65185016 -0.6316962 0.051167212 -0.5953867 0.16615283 -0.14797704 -0.37446645 -0.4790157 0.120180935 -0.5897177 0.2312635 -0.25719926 -0.1976396 -0.3052032 0.1429812 0.43757316 -0.31104255 0.57372105 0.68242717 0.05941747 -0.64642376 0.802991 0.0040844115 -0.6034337 -0.3120839 -0.17287888 -0.06885889 0.14421682
128 0.1544638 0.008362572 1.1265284 -0.42032906 -0.6019574 0.21612704 0.36052263 0.20094627 0.737651 0.42258546 0.34161574 -0.37524423 0.4464375 -0.15397151 0.81421787 -0.066469066 0.024914088 0.64708316 -0.18310964 0.69401014 0.68281317 -0.34844804 0.42649674 0.26406252 0.9212606 0.1604749 -0.45945126 0.49393108 0.700788 0.45199984 0.7507569 -0.05626897 -0.8128242 -0.048682813 -0.8909259 1.1509067 -0.788343 0.6324142 0.2091572 1.0306627 0.1078473 -0.29643604 -0.65861183 0.34873006 -0.081306264 0.06684641 -0.60175925 0.634029 -0.19631976 -0.35502928 -0.2957008 -0.3255397 -0.78676546 0.84561557 0.07917535 0.23224215 -0.25287038 0.16011721 -0.43450686 -0.28277957 -0.38640478 0.073721044 0.30017477 -0.6438258 0.6170582 0.61366534 -0.26700664 0.1248257 0.6812717 0.12413067 1.1123857 -0.56410265 -0.8251275 -0.4957333 -1.7426922 -0.07552331 -0.5216174 -1.4484973 -0.59572345 0.2829705 -0.5180894 0.27211237 -0.35602856 -0.007440507 0.330893 0.39063525 -0.8222977 0.26101196 0.7321579 -0.5349382 0.29843175 0.38527405 -0.14085619 -0.0012072073 -0.35306075 -0.21905276 0.22113764 1.3512982 -0.5033232 -0.3387347 -0.45789453 0.6042833 -0.22683352 0.34697297 -1.6647141 -0.22086604 -0.66250974 -0.5403118 -0.40689966 0.48740646 0.025945688 -0.38623968 -0.35633254 -0.67091227 -0.1885311 0.96236384 0.7075246 -0.5399634 0.083254114 1.1826222 0.1791528 0.01461692 0.91664493 -0.1169681 -0.5729554 0.29701403 -0.98837626 -0.5422948
99 -0.33459 0.32587948 -0.0058680065 0.12111894 -0.841643 -0.15768057 -0.018909995 0.3913568 -0.14335813 -0.7507321 -0.3774031 -0.059253942 -0.53346866 -0.38169956 -0.49996302 0.4367855 -0.060108088 0.785592 -0.0203302 0.110416844 0.9773015 -0.11205435 0.6669744 0.7484857 0.7428398 0.017353494 -0.4723026 -0.17010748 -0.21426482 1.2012198 -0.5808676 0.61124134 -0.72663754 0.85636866 -0.32830197 0.43250453 0.17727524 0.45466933 -0.4526965 0.2486886 -0.3939737 -0.20996816 0.86937886 1.3994803 -0.5201509 -0.12420635 0.55813164 0.039515484 -1.0409037 -1.09955 -0.049602587 0.39920422 1.2225599 0.61394644 -0.4368104 0.8477724 -0.110120915 0.23794506 -0.721834 -0.2853908 0.15073605 0.5099647 0.424641 0.5614048 -0.33091626 -0.74702704 -0.14685592 0.70487446 -0.6033289 -0.2889674 0.033398174 -0.29839528 0.77699184 1.1414268 -0.44941553 -0.68740547 0.5922753 -0.6136928 -0.21915933 0.3511261 0.48002625 0.6050822 -0.2782639 -0.7095787 -0.08950344 0.9404781 -0.07943145 0.7265529 -0.14896642 -0.5308838 -0.014321274 -0.04604807 0.6490884 -0.07208626 -0.5998191 0.20025945 0.56201035 -0.14944425 -1.0771855 -0.42359 0.19863121 0.48583284 0.7813976 -0.0018951821 -1.1062512 -0.26105502 -0.13322192 0.47382525 0.24495889 -0.1147118 0.19594143 -0.44291773 0.77454704 0.55456746 0.69658166 -0.02630082 -1.1099862 -0.39844492 0.24672724 0.046720605 0.7090627 0.100424744 -0.12288191 0.99918795 0.30719355 0.5702937 -0.36459023 0.6718588
22 -0.8290125 0.30001235 0.14435028 0.29874566 0.49194494 -0.49949768 -0.6939461 -0.021324806 -0.54489166 -0.10667642 0.3797072 0.4577291 0.043789886 0.27802458 0.49348783 -1.0179642 0.08047508 -0.2887222 -0.58997643 0.30735862 -1.2351214 0.5058313 0.23298788 -0.37312308 -1.0774643 0.1004274 -0.17464232 0.82213724 -0.3719572 -0.3088647 -0.21531141 -0.32548943 -0.28047815 0.05611751 0.30049843 0.12412917 -0.24372673 -0.82704145 -0.22445971 -0.89305913 0.5653803 0.29672122 0.68587947 -0.7092029 0.39925075 -0.20500877 0.5432439 -0.95642984 -0.9498348 0.07359635 0.56756526 -0.18607754 -0.057060048 0.03551674 0.65710884 0.3191523 0.10985387 -0.12958232 -0.33585316 0.5164636 0.07969488 0.20008004 -0.28780067 0.13969645 0.34979984 -0.5470266 -0.64293694 -0.84305185 0.7157726 -0.13065767 0.28878027 1.1952846 0.34253922 -0.5025572 0.16941437 1.2694253 -1.064646 0.25236169 0.45288876 0.62458163 -0.54106164 -0.5595065 0.09338264 0.35792327 0.06617377 -0.89948654 0.4774389 -0.11027605 -0.063333765 0.23542903 -0.39991358 -0.3487993 0.7708466 -0.3165301 0.33883902 -0.9213769 -0.91984004 -0.20087089 -0.51302797 -0.67078316 -0.73795456 -0.74629146 -0.010919571 -0.7239527 0.3623278 -0.031152904 -0.34868875 -0.41182488 0.22630645 -0.5972392 0.24677439 -0.24658462 -0.32887632 -0.30946887 0.24771199 0.36669382 -0.22865087 0.7825309 0.7126963 0.13830575 -0.7639399 0.9038339 0.042380903 -0.6584604 -0.26118287 -0.25315827 0.14721234 0.1850804
12 1.1239611 -0.6674554 -0.45133144 -0.005853071 0.56556326 0.27387983 -0.012629126 0.5581898 0.3351808 -0.13208206 0.85163015 -0.272363 0.4797109 -0.19112593 -1.0201067 -0.06378737 0.44894767 0.49178407 0.60006255 0.67181176 1.0049096 0.652227 -0.1552038 0.31348336 0.5651462 -1.2441663 0.2746795 0.20862386 0.07794699 -0.47017944 -0.79678065 0.23218067 0.25947216 -0.33413303 0.28899083 0.31827503 0.43572578 0.1524677 0.4581095 0.94967496 0.40940955 -0.15992482 -0.010390037 0.4320565 0.2951501 -0.40135333 0.48040122 0.0053755 -0.26672307 -0.23844212 0.47860903 0.5020727 0.3634167 0.31603125 -0.103392154 0.34247243 0.7827204 -0.18086904 -0.21806411 0.14259171 0.35206136 -0.6629637 -0.24386653 0.36330464 0.0033490234 -0.10840995 0.7021347 -0.37387535 -0.42720872 0.4915478 -0.9887508 -0.59863347 0.67241436 -0.14018889 -0.33800897 -0.38573593 -0.8793241 0.15188989 0.07694817 0.35600105 0.2938092 0.17085877 -0.70436454 0.50968754 -0.31541857 0.79689646 -0.80108374 0.5041057 0.06444732 0.31573865 -0.7615925 0.56420714 -0.004025995 0.89341444 -0.6780941 0.15131097 -0.34374496 0.10177459 -0.39768612 0.1043706 0.61363494 0.26135966 -0.44215694 -0.06478071 -0.24125265 1.4777389 0.26453748 0.6035653 0.5684728 0.6428766 -0.8547217 -0.30746806 0.11990402 -0.2757518 -0.5777474 0.49300402 -0.6502116 -0.5173701 -0.70383793 1.3069608 0.2582045 0.64292955 1.1941589 0.2074939 1.305108 -0.024927814 -0.049530882 0.059878327
68 -0.49145767 0.7647502 0.07864752 0.30892906 -0.21745369 -0.18458207 0.1524283 -0.29903033 -0.48398942 -0.1433644 0.38495627 0.35335886 0.29174837 0.43230322 0.37065396 -0.63437396 -0.027116532 -0.20801613 -0.067960516 0.8746969 -0.64230984 -0.2626141 0.9336369 -0.80586743 -0.15905322 0.38125148 0.32417932 -0.24860907 0.5607092 0.7862565 0.80274034 1.0062265 -0.3699239 0.6560638 -0.38372552 -0.0029073819 0.15534456 0.25407547 0.5594469 0.17497975 0.40541968 -0.22466788 -0.6853255 0.61128473 -0.24344106 -0.9294103 0.102459595 -0.7053348 -0.7176212 0.20873399 0.7494888 -1.0598757 0.20993356 -0.18827656 -0.417592 0.6381351 -0.18469232 0.376123 -1.4872717 -0.1324066 0.12592386 -0.03886636 0.29151943 -0.8874059 -0.6497325 -0.2575581 0.32416588 0.46314266 0.0018344717 0.95453143 0.8628239 0.60607386 -0.23102081 0.11786905 0.027537491 -0.3851443 -0.062070645 -1.0511625 -0.60163504 0.058600914 0.13289458 0.36865187 0.23543915 0.243606 0.47649834 0.34370312 0.58505315 0.84001607 0.1836988 -0.82576996 -0.40504202 1.0343891 -0.10377382 0.06343805 -0.961185 0.013967272 0.8294886 0.28438774 -1.3292974 0.1491086 -0.4609836 0.13634901 0.1381714 0.37007302 -1.0655316 -0.7434799 -0.5816399 -0.07341323 -0.627389 -0.64195144 0.14859836 -0.99008226 0.08054402 -0.9174928 -0.4910591 0.049208052 0.016550856 -0.44397655 0.22578242 -0.4330778 -0.0705033 -0.37241745 0.06211508 0.6724717 -0.22611599 0.112572916 -0.70886326 -0.37448397
36 -0.85936505 -0.3803922 -0.81074226 0.11551342 0.16503944 -0.8455544 -0.051493466 1.0821145 -0.9300681 0.9183741 0.37690923 -0.23958035 -0.09753656 -0.62504256 -0.3283968 -0.47267056 0.41592416 0.25938255 0.4582615 -0.009542337 -0.19308491 0.010452375 0.6607762 -0.2904153 -0.03128108 -0.13438301 -0.41998094 -0.17261036 -0.07698149 -0.46405002 0.8205592 -0.52239454 0.15041028 -0.5759566 0.13968319 0.6658392 -0.5505461 -0.2544002 -0.7693887 -0.64753246 -0.31427652 0.18127784 0.5927681 -0.5355945 0.01363077 0.31060565 -0.046281278 -0.38822296 0.31304154 -0.35780394 -0.52259475 0.8991674 -0.339771 -0.48012638 0.3463923 -0.19443202 -0.638787 -0.28094536 1.1873147 -0.11453756 0.50272685 0.36411613 -0.34155086 -0.109457165 0.34009096 -0.22353545 -0.7938293 0.70415497 0.19849919 -0.43363148 0.4784611 0.42929873 -0.08695163 -0.2884928 0.38344362 0.5164235 0.18336415 -0.59013623 0.6360715 0.20618166 0.04930387 0.20248385 0.13785808 0.37247425 -0.17112757 -0.13121271 0.121651426 0.1905317 0.100299574 0.87447345 0.35021445 -0.5486794 -0.4920125 0.050078355 1.1602157 -0.6077408 0.43770438 0.09168576 1.1359198 0.53395504 0.023502478 -0.4330639 0.21789457 -0.34650463 0.1484658 -0.83851004 1.0590435 0.5556611 -0.02910982 -0.44736955 -0.6288424 -0.7481621 0.060946565 -0.077081084 0.68999195 -0.46086577 0.25110608 0.8979858 0.5944798 0.5882208 -0.26908657 -0.019753708 0.15928078 -0.3050235 -1.1003575 -0.8562614 1.2701212 0.24161184
127 0.123628706 -0.024622405 1.177503 -0.34524694 -0.5457908 0.14983197 0.27048728 0.10555551 0.7696798 0.43765894 0.13399376 -0.36316782 0.47009522 -0.13972676 0.8409877 -0.08413044 0.03968528 0.61597115 -0.1467425 0.53541625 0.70222855 -0.22573437 0.41936168 0.36968964 0.8977019 0.26983145 -0.44140744 0.5018424 0.64087886 0.38367623 0.68611693 -0.2059402 -0.7047385 -0.009623756 -0.81781524 1.0724493 -0.77040565 0.6614946 0.22589917 0.9006928 0.12448389 -0.2942944 -0.5113569 0.24547613 -0.14470413 0.11403993 -0.590565 0.61099035 -0.23552574 -0.26113623 -0.43380824 -0.29665568 -0.74930525 0.87668663 0.104793355 0.15333794 -0.26971513 0.18113652 -0.3053042 -0.2781037 -0.35650113 0.1333258 0.28898525 -0.5747776 0.615763 0.49155447 -0.3618907 0.15585218 0.7438837 -0.05703059 1.1554455 -0.4818133 -0.7451674 -0.51888126 -1.5995821 -0.016561689 -0.40106842 -1.3817109 -0.5636947 0.2822749 -0.48417747 0.21417452 -0.26311672 -0.03966331 0.34172475 0.3167135 -0.7561058 0.17361951 0.6470387 -0.3394097 0.41122064 0.27397105 -0.022052223 -0.057160284 -0.25492665 -0.17740752 0.20355089 1.310656 -0.48430845 -0.41153544 -0.38707072 0.61580276 -0.19294898 0.31604317 -1.5407023 -0.3456855 -0.55660963 -0.56919247 -0.36554742 0.42614412 0.07236744 -0.29322052 -0.22018477 -0.50561565 -0.12770066 0.8840474 0.5978002 -0.5175857 0.1466123 1.10121 0.19319971 0.103494026 0.8190236 -0.18900527 -0.60467696 0.33278435 -0.99324733 -0.47769764
13 1.0300237 -0.7502628 -0.53890735 -0.0077180187 0.541008 0.15275812 0.004512741 0.64553785 0.26916084 -0.09293285 0.8777033 -0.29231015 0.46479216 -0.24706654 -1.0241561 -0.13951506 0.4063778 0.5042358 0.5469894 0.6818499 0.9843164 0.73541486 -0.12888059 0.23543961 0.54129404 -1.2746375 0.22198705 0.18975571 0.063610666 -0.4926302 -0.7203987 0.16491376 0.23496377 -0.35899246 0.31537366 0.41432816 0.3523923 0.108993456 0.37193057 0.92125833 0.33444247 -0.12801729 0.031979922 0.39662713 0.3168476 -0.3596874 0.5317456 -0.022714976 -0.21442087 -0.3160096 0.44378445 0.49305406 0.36665985 0.28490612 -0.0647162 0.3932548 0.7333715 -0.1729278 -0.13627377 0.11717336 0.42088974 -0.56037015 -0.3154145 0.3327838 0.070016 -0.14077817 0.6472017 -0.24851288 -0.3548808 0.4350142 -0.9777863 -0.53030974 0.5687762 -0.04443784 -0.3618283 -0.32544175 -0.8278274 0.17520355 0.13023672 0.37431926 0.27604997 0.15213804 -0.766439 0.5424676 -0.32084563 0.781686 -0.7715889 0.4615832 0.11288661 0.36032704 -0.7543624 0.47404984 -0.053832263 0.88206744 -0.53274226 0.05704633 -0.34290794 0.05103295 -0.2736558 0.09373024 0.5646425 0.22470129 -0.40904197 -0.09932909 -0.16211425 1.414889 0.38180977 0.64731836 0.6086244 0.599664 -0.93044204 -0.4006857 0.09141526 -0.315251 -0.5025664 0.46772403 -0.607945 -0.41648445 -0.6094096 1.3602133 0.24519412 0.6747421 1.1652567 0.08430116 1.1653414 -0.07594714 0.036019664 0.13845873
59 -0.5625504 0.76596737 -0.42412603 0.83776444 -0.48860052 -0.22116058 0.2994015 0.3842543 -0.041412648 0.32431826 -0.026081285 -0.44557172 0.19643392 0.15883145 0.24150583 -0.06945649 0.5134231 0.14835915 0.7229632 0.030546954 -0.28321475 -0.7149317 0.7002397 0.5840819 0.128081 -0.36520383 -0.4065938 0.4760871 0.016587557 -0.030062702 0.66038 0.14356664 -0.023194028 0.6311888 -1.2205694 0.008064931 -0.268818 0.1683166 0.26196727 -0.108634934 -0.09229166 0.581946 0.73996615 -0.045570385 0.2245254 -1.1903126 -0.7823395 -0.22423244 0.25567842 0.72222596 0.7345167 -0.25938544 1.1419653 0.2590072 0.064386755 0.2552977 -0.58577025 -0.059878007 -0.48995757 -0.091521114 -0.38717517 -0.37448245 0.023226231 -0.7591654 -0.48419628 -0.57854414 -0.812029 -0.29936966 0.153287 0.6446058 0.30427435 0.85086447 -0.1071377 -0.15513502 0.7413725 0.04156952 -0.5267171 0.041333675 0.24109304 0.024853025 -0.40211383 0.51772827 0.26606834 0.6485408 -0.17988974 -0.35559693 -0.12139667 0.51980925 0.5400073 -0.119587585 0.26482257 0.5394183 0.3885828 -0.63088775 0.16980968 0.577644 0.7103538 0.75195235 -0.13218816 0.045776278 0.20906162 -0.68262833 -0.01596316 -0.17713001 -0.77001995 -0.4789855 -0.55670136 -0.4181735 -0.58429074 -1.1809102 -0.0703005 -0.6074603 0.9649943 -0.5624232 -0.3508177 0.07958269 -0.7814703 -0.21422936 0.1126542 0.024755612 0.092362836 0.035905294 -0.44877073 0.41334623 -0.38983962 -0.69501215 -0.64518976 -0.4501103
5 0.5018345 0.09874431 -0.92615813 0.15283357 0.38345164 0.22169963 -0.23059538 0.87704855 -0.35654345 0.48206228 0.76750576 0.027981851 -0.20405595 0.06529651 -0.55648786 -0.14547846 0.82450676 0.0014939489 0.88070446 0.47269347 0.29202273 0.16476214 -0.1017526 0.1595362 0.024223499 -0.92256665 -0.03229824 0.76624125 0.0122171035 -0.58007574 -0.5236074 0.17072693 0.25327322 -0.06370066 0.047385678 -0.5212433 0.06390009 -0.3539447 -0.29283836 -0.1098211 0.04038906 0.24225995 1.0285292 -0.6947946 0.20203139 0.18843716 0.06562555 -0.19977272 0.2602517 0.09802744 0.61536986 1.0648605 0.22678727 0.012913581 0.73374325 -0.16819286 -0.38560307 -0.39914876 -0.030461062 0.40075535 0.032695085 -0.54673004 0.032050863 0.20361492 0.38028225 0.31364214 -0.34526223 -1.0102184 -0.15490685 0.5316061 -0.8828346 -0.41101554 0.97637546 -0.33071256 0.042775333 0.6025003 -1.5288429 -0.32941407 0.9040228 0.06578314 -0.4950759 -0.23949572 -0.20100434 0.3730779 -0.33063287 -0.3797347 -0.52613974 0.27308598 -0.18511222 0.07013851 -0.8033169 0.00852581 0.23185895 0.5580897 0.6207666 0.115975074 -0.5244286 0.32704517 0.4874638 0.35548624 0.12111554 -0.32792276 -0.62511677 -0.5393564 0.35265872 0.90133655 -0.51810265 0.9307403 0.33200943 0.5078953 -0.86463183 0.07509377 0.4018458 -0.20199247 -0.0454332 -0.13650538 -0.20093729 0.124026865 -0.17426488 0.7256855 -0.36570913 0.67021835 0.5426715 0.2556746 0.31341732 -0.6942723 0.51981175 -0.36888948
43 0.055509873 0.24969688 -0.8927946 0.06225108 -0.15585406 -0.34004137 -0.27136734 0.119648956 -0.4882578 -0.4254387 -0.23823956 -0.3604102 0.13830513 -0.020409202 -1.114089 0.14429861 0.20638643 0.52744496 -0.21812393 0.64189804 0.01689576 -0.20198223 -0.1889143 -1.3812486 0.11784267 -0.28733513 -0.56040525 -0.4682279 0.6501517 0.3145981 0.19434 -0.2885802 -0.19082826 -0.7162065 0.56455195 0.77596015 -0.13390349 -0.39190736 -0.29959497 0.19852795 -0.501844 -0.802628 -0.36586276 0.50690484 -0.030745931 0.4651555 0.732901 0.010769357 0.26964894 -0.22825274 -0.9278963 0.53983885 -0.8517564 -0.31727654 -0.8314223 -0.26302004 0.30939254 0.15462618 0.4809834 -0.26013675 0.61158746 0.6184345 -0.0907059 -0.14132185 -0.7253336 0.28880802 0.12125999 0.8172664 -0.8352028 -0.12920006 -0.22708578 0.13614775 -0.7306822 0.118084304 -0.32197323 -0.25799772 0.75019425 0.16767439 0.3128026 0.43780223 0.889484 0.016315483 0.19965221 0.45407715 -0.34854904 0.3817317 0.108949356 0.29568583 0.056662098 0.13823077 0.7105647 -0.70944095 -1.0691928 0.3065095 0.027290903 -0.71932185 -0.13862975 0.34135523 1.200757 0.828231 -0.10048335 -0.18450044 0.72798914 1.0839286 -0.2735374 -0.40880236 1.1635358 0.54641 0.038559888 0.27213317 -0.9007407 -0.94317585 -0.004929234 0.11139277 0.22881784 0.35366964 0.34153497 0.39151794 0.6519258 0.8459707 0.18879023 -0.45398924 0.67360836 -0.29884583 -0.475359 0.12603897 0.8148247 1.0551418
6 0.51300436 0.085985854 -0.9344548 0.22060972 0.4674239 0.20809005 -0.27684927 0.75418633 -0.3915774 0.62143403 0.79624295 0.14425966 -0.11788352 0.08298109 -0.45185325 -0.23671617 0.90683204 -0.13729893 0.99201685 0.37902418 0.20546773 0.25317743 -0.112049475 0.2016032 -0.052976638 -0.88972545 0.102542065 0.81569237 -0.0022938251 -0.7280893 -0.5248727 0.1517407 0.3604367 -0.037246052 0.10337793 -0.6872921 0.11302452 -0.3979597 -0.26328728 -0.22534156 0.14706773 0.33344573 1.0751997 -1.0050076 0.1918144 0.14488925 0.05366635 -0.3206571 0.27056673 0.22430034 0.6928723 1.0411035 0.23392585 -0.06554329 0.89515805 -0.23918945 -0.41483366 -0.41772744 -0.06098567 0.4442251 -0.0019855613 -0.633797 0.013921291 0.21096377 0.44582123 0.30658945 -0.33941868 -1.1587541 0.011704334 0.54131854 -0.8976352 -0.29585406 1.0466268 -0.45055982 0.22182868 0.7950688 -1.6688833 -0.34602073 0.9297566 -0.030702194 -0.59748805 -0.33730674 -0.1433832 0.4052147 -0.32737583 -0.49984482 -0.5421902 0.22523952 -0.22270085 0.16931565 -0.9059908 0.026493238 0.29401624 0.63118887 0.7297204 0.16984363 -0.50643927 0.3348125 0.52881885 0.3188114 0.16821463 -0.29449254 -0.7686371 -0.63794106 0.5684055 0.87896234 -0.55007744 0.95510393 0.32890722 0.4974417 -0.8941651 0.17205764 0.48947063 -0.18314077 -0.15007102 -0.20112054 -0.23686193 0.08604085 -0.1293022 0.6552257 -0.35947123 0.7764182 0.50927734 0.22921674 0.376285 -0.7694922 0.5052427 -0.45731363
28 0.024982987 -0.002015014 0.18251066 -0.82256734 0.66429305 0.43087187 -0.76744235 -0.10224467 0.21463907 -0.84745944 0.6816973 0.5982353 -0.3733154 0.22028778 0.24706076 -0.46248204 -0.40379936 0.10351943 -0.802356 0.5501796 -0.43300456 0.7921264 0.06451721 -0.7583297 0.046760954 0.54344624 0.05555228 0.82590294 -0.16000672 -0.089219816 -0.7590261 -0.4182471 -0.7099219 0.32344344 0.56222355 0.09780682 0.8964433 -0.49255803 -0.11101747 -0.5449771 0.45934305 -0.35859504 -0.89483565 0.54408926 -0.1377904 -0.12229456 0.886417 -0.74893254 -1.491453 -0.35486877 -0.109620355 -1.1559935 -0.5259222 0.42559174 0.13729385 1.1195197 0.44093812 0.22151136 -1.1945668 -0.20826261 0.65320855 0.46696302 0.02608612 -0.057310548 -0.62182826 -0.9410859 0.1911232 -0.09511287 0.8968025 -0.23987846 0.1230803 0.15087214 0.17165744 0.032277815 -0.7064985 0.24164979 -0.43684813 0.115866825 0.054165795 1.4080073 0.09005057 -0.1249159 0.23729683 -0.20923468 0.19335547 0.107624896 0.82235676 -0.14804988 0.18055077 -0.11647928 -0.17370357 0.30088294 0.80346876 -0.09462998 -0.56544954 -0.52979225 -0.3827966 0.03877354 -1.0344169 -0.46112725 0.041296 -0.057667807 0.30086917 -0.38485223 0.1950164 -0.13584636 -0.27507123 -0.017280847 0.2686142 0.45542908 -0.3620018 -0.5201748 -0.60297364 -0.41921544 0.39788952 0.72175926 -0.46602306 0.037940502 0.24294277 -0.0966241 -0.5535077 0.8335955 0.3120285 -0.9163511 -0.039625693 0.76795167 -0.40877348 0.5033167
76 0.10069951 1.0675122 0.30652484 0.3942182 0.7322622 0.29422215 -0.53805625 -0.7514293 0.034088913 -0.40087843 0.2528575 0.6080273 0.81522703 0.50401187 -0.510386 0.13256249 0.5723373 0.060453653 0.17833178 0.546391 -0.267452 -0.60203385 0.5005316 -0.13883534 -0.18940865 1.0009162 0.3167721 -0.6129466 0.60958636 0.5990245 0.2641665 0.3171607 0.042152673 -0.5500972 0.011715018 0.1067222 1.4385874 0.6722933 0.36258838 0.29098043 0.7958047 -0.5542312 -0.5912447 0.5222035 -0.124351 -0.44954583 0.18121172 -0.7506057 -0.74359024 0.24486297 -0.38953727 0.21539183 -1.187361 -0.15646657 -0.44865048 -0.33897746 0.8077816 -0.4538365 -0.4944566 0.04687367 0.017643645 -0.6886367 0.6222372 0.042809542 -0.62912023 0.13500506 0.81042737 0.018287836 -0.751673 0.6815346 0.9856913 -0.1085834 0.74737036 -1.560193 0.5275284 -0.16334617 -0.48511037 -0.7815135 -0.417739 0.52492064 0.7357693 0.20633592 0.9451464 -0.030146671 0.2772402 0.57951176 0.3298909 0.49281698 -0.58553505 -0.17775735 0.053544533 0.4787225 -0.3463771 -0.021328965 -1.2991315 -0.0175911 0.2899921 0.49141783 -0.8641472 0.58220637 0.09356987 -0.008230803 0.107977346 0.85605174 -0.49630052 -0.54938793 0.105622545 -0.12046785 -0.6216721 -0.10225201 0.4075546 -0.5639531 0.117718294 -0.085598215 -0.6099273 0.030085115 -0.25230783 -0.34431446 -0.07908045 -0.19949956 0.19189763 -0.42491674 1.0462803 1.1584921 1.0406011 -0.027704395 -0.0113578215 -0.35336223
106 -0.24568999 0.20111473 -0.5581326 1.007467 -0.34574774 -0.7544126 -0.20694038 -0.8992376 0.08986889 0.06689983 -0.7307775 0.4467076 0.67910284 -0.22572002 0.15003425 0.14035761 0.38682067 0.16347803 -0.15270124 -0.50665134 0.054767713 0.55839276 -0.006118137 0.5276271 0.17938785 0.59796697 -0.08694142 0.58298093 0.21881655 0.08678721 0.70727456 -0.49060997 0.124740325 0.71672446 -0.037320234 0.07459985 0.5137023 0.37510255 -0.2606429 0.32224408 -0.18205166 0.78262395 0.6783631 -0.9979628 -0.3841488 -0.5599078 -0.05977377 0.07240201 0.31358346 -0.2305989 -0.073633835 0.12971179 -0.047496732 -0.17097037 0.7936473 0.09437413 -0.4125844 -0.4827497 0.46884766 -0.4040991 -0.6094534 -0.09706161 0.6410687 -0.220503 0.65487 -0.10823051 0.3722559 -0.5215682 0.589475 -0.5140236 0.16318221 0.61035836 -0.0046594897 -0.48361748 0.5845982 1.2916976 -0.36505127 0.59239256 0.16418639 -0.15279332 -1.1658205 -0.43158242 -0.048381217 0.12812297 0.07139543 -0.8363417 -1.0267824 -0.5283379 0.3117575 0.24802564 -0.12236318 -0.6349434 -0.11920535 0.18075293 1.0847461 -0.1599212 0.15095052 0.2458798 0.9240259 -0.670235 0.5966626 -0.0791045 -0.5280796 0.25529444 1.2656506 -0.6310437 0.20974046 0.3271807 0.39023942 -0.9625658 -0.23077625 -0.14523414 1.1348498 0.23122282 -0.22430147 -0.5400074 -0.62821245 -0.2661031 1.196206 0.29458615 0.9894243 0.4908152 -0.7196628 -0.00798893 0.6073602 -0.86640835 -0.0007691376 0.12214728
113 -0.10149957 -0.12518708 -0.25735816 0.89711624 0.18724626 -0.4182008 -0.40576357 -1.1411192 0.7597362 -0.18239966 -0.46976987 0.34035042 0.8991351 -0.14220245 -0.30871782 0.31331393 -0.016909538 0.16538742 -0.06511226 -0.47886834 0.8075699 1.0962906 0.16932459 0.5260434 0.5603337 0.6790253 0.020471558 0.072084576 0.6494215 0.2985689 0.18157586 -0.22245145 -0.46020678 -0.06416968 -0.2893369 0.2818654 0.9025281 -0.22247054 -0.18752779 0.59197056 0.08097475 -0.3788259 -0.20565516 -0.4789844 0.14414075 -0.12984082 0.2896953 -0.1526476 -0.13737111 -0.1468101 -0.8527907 -0.8932092 -0.46423838 0.9505771 0.24173595 0.3661559 0.7552622 -0.20333101 -0.6538383 -0.2836959 0.13183776 -0.114541724 0.5442056 -0.07897772 0.11326387 -0.5532938 0.8462183 0.31728014 0.54238564 0.24335903 -0.012215544 0.48497093 -0.7840895 -0.2516068 0.74028087 0.4454498 0.10592536 0.5916206 0.0612442 0.14329948 0.21030262 -0.58177245 0.025121901 -0.8757745 0.18589345 0.34994218 -0.5039245 -0.39341205 0.45034182 0.44496715 0.4700167 -0.686347 -0.3698906 -0.27677688 0.5066678 0.22220755 -0.37113115 0.2614464 0.5538952 -0.76594365 -0.13658085 0.53466856 0.024919068 0.8358814 1.081615 -0.38135606 0.9360051 -0.04525086 0.38814244 -0.74937457 0.1605652 -0.48771265 0.7807542 0.16831867 -0.9466994 -0.2226053 -0.7802228 -1.5254606 0.77129513 -0.07460105 1.4705554 0.47088125 -0.15378125 -0.16807187 0.49973688 0.090951115 -0.57947564 0.51624644
52 0.6722132 0.24152698 -0.50731206 -0.15499741 -0.26830778 0.7527933 -0.27305445 -0.19265999 -0.6548724 -0.14457275 0.24109237 -0.17423543 -0.20074484 -0.04679945 -0.9655738 0.583005 0.40139714 0.5974041 0.31666937 0.44568932 -0.07542363 -0.62978333 -0.032344285 -1.3511646 0.76983744 -0.88164383 0.03400514 0.20736627 0.43784985 -0.15923785 -0.2153084 0.4517537 -0.49415344 -0.23528886 0.26230454 0.5015369 0.003744119 -1.4363551 -0.21022157 -0.0730149 0.46858472 -0.6481561 -1.2056919 -0.075268485 -0.16741875 -0.017613957 0.7746188 -0.033275 -0.64070874 -0.56673557 -0.07835152 0.31416377 -0.9589895 0.058763273 -0.7102309 0.017539065 0.88717324 0.09506341 -0.50985885 0.008398327 -0.034525912 -0.15686457 0.46119934 0.1365298 -0.5323504 0.39896715 0.43210447 -0.7278137 -0.9071 0.35089993 -0.60765165 -0.0113877 -0.21136735 -0.9633054 -0.43484032 -0.2266272 0.40958482 0.057708997 0.4231746 -0.012136859 0.4504753 0.100664526 -0.00093174423 -0.050232604 -0.2207824 0.32178587 -0.7547391 1.0493766 0.490285 0.14279714 0.7829234 -0.31171522 -0.91746694 1.0890236 -0.14647691 -0.33198094 -0.35991424 0.92287046 0.7871481 0.53484195 0.2152693 0.392284 0.13375616 0.6395797 -0.6042717 0.64777607 0.31394726 0.57253534 0.48928797 0.5276095 -0.75428736 0.02912544 -0.008215373 0.18523054 -0.23591879 0.6216993 0.058511663 -1.0219606 0.501451 0.99026656 0.30532992 -0.31353456 0.5641264 -0.36067027 -0.03199407 0.21459943 0.74548304 0.4285236
82 -0.3138427 0.044925157 0.3403988 0.34177864 -0.07295566 -0.5636539 -0.5974669 -0.24977459 -0.2527142 0.5477361 -0.89007324 0.13931346 0.59925205 -0.25696802 0.5170834 -0.059848286 0.66314185 -0.15668418 1.3181678 -0.7264552 0.6217474 0.5937949 0.3551583 0.55211276 -0.04625628 0.13668543 -0.035466436 0.59129924 -0.4171141 -0.34860682 -1.058589 -0.80954546 0.393522 -0.084139414 0.25137863 -0.835054 -0.31295022 0.15920483 -0.06622746 -0.9478802 0.17030662 -0.39132062 1.1739181 -1.0545478 -0.6318767 0.44178474 -0.11071092 -0.66814077 0.0059149284 0.8314337 -0.4581616 0.44993514 0.58607745 0.6830567 0.56896144 -0.51442736 -0.36089537 0.18764126 0.58780843 -0.04644233 0.5213054 0.43716758 -0.066146724 0.24119157 0.29791182 -0.6570542 -1.1687036 -0.4272076 0.6020109 -0.968095 0.44867036 0.4116379 0.5306062 -0.18685915 0.3017863 0.7463227 -0.32958466 -1.1765306 0.25385663 -0.0913651 0.007529354 -0.008912385 0.78737 0.10976089 0.28109053 -0.26034904 0.19806126 -0.2662792 -0.86495435 1.1071141 0.6507364 -0.21717466 1.5195444 -0.015423501 0.5419766 0.4850645 0.4267808 0.39171124 -0.31769317 -0.2795619 0.34797624 -0.07833232 -0.24540134 -0.54633147 -0.13196015 -0.97172093 0.013101851 0.14408389 -0.04482629 0.060364127 0.1698021 0.5422293 1.1977606 0.8397897 0.7642557 -0.46386823 -0.3748641 0.25497338 0.39083117 0.18864788 -0.030996542 0.9604884 0.10156213 0.12142057 -0.19113068 0.37370762 -0.12786359 0.36211488
51 0.7340124 0.1842322 -0.53112876 -0.19698201 -0.2581212 0.801855 -0.23072927 -0.12665495 -0.6462911 -0.10090349 0.32254943 -0.2021325 -0.2492606 -0.070402116 -0.97302943 0.59174544 0.41167295 0.60238993 0.3238819 0.4489865 -0.07001174 -0.64065194 -0.07008649 -1.3261803 0.8035157 -0.9678527 0.04529711 0.24441905 0.42261964 -0.23093498 -0.22104114 0.48568535 -0.47487548 -0.22347529 0.26094574 0.4972629 -0.023351671 -1.4714317 -0.22472544 -0.047810737 0.47471333 -0.59084785 -1.2193782 -0.11567834 -0.14668135 -0.013114209 0.7551431 0.017276986 -0.60114706 -0.5965759 -0.025448063 0.35898983 -0.9465661 0.025631424 -0.6903741 0.022524774 0.8776146 0.071534865 -0.4882012 0.033931464 -0.06833667 -0.20782633 0.43720683 0.14637761 -0.48681462 0.4635248 0.43085864 -0.77984804 -0.9216165 0.3747578 -0.6939572 -0.07665461 -0.19022967 -0.97875893 -0.4509293 -0.23447396 0.37149307 0.095117934 0.4539984 -0.053678073 0.39013886 0.10590864 -0.06733253 -0.043866705 -0.2523537 0.30471537 -0.8150916 1.0627536 0.52991253 0.13756624 0.7362372 -0.3058474 -0.9457026 1.1468092 -0.107477024 -0.3085085 -0.39040592 0.9107878 0.8407698 0.5607205 0.24623463 0.39673433 0.08516637 0.5821468 -0.5779716 0.76829094 0.2797216 0.6010136 0.53431565 0.5739275 -0.7972209 0.09322001 -0.05490906 0.1563955 -0.24872762 0.6274641 0.08259439 -1.0406576 0.43762764 1.037879 0.28351176 -0.31464282 0.57652676 -0.37835062 -0.006425532 0.165571 0.76830894 0.36693487
83 -0.28194097 -0.013609972 0.270104 0.45245174 -0.10562214 -0.6149703 -0.4978028 -0.2639933 -0.14120941 0.56721 -0.9871181 0.025931364 0.6502029 -0.2539348 0.428649 -0.012713919 0.62496823 -0.12106671 1.3284888 -0.76902914 0.719694 0.58676976 0.37107491 0.63600296 0.03228903 0.1263533 -0.037947387 0.4374898 -0.31626725 -0.30568048 -0.9066064 -0.7722613 0.45837328 -0.072058246 0.16021417 -0.7658681 -0.31413263 0.24919415 0.012718516 -0.77817357 0.07611814 -0.3901301 1.1736101 -0.9568874 -0.5833697 0.39033127 -0.21917969 -0.5332171 0.14402339 0.897317 -0.51274127 0.37157646 0.6664653 0.7080781 0.4437502 -0.5504685 -0.3596385 0.1883434 0.61301416 -0.056466486 0.49254704 0.38076702 -0.06736096 0.16206342 0.24545655 -0.66149586 -1.0814893 -0.23245071 0.5044934 -0.8769898 0.3979214 0.40307653 0.39787883 -0.10852587 0.44339263 0.57614845 -0.12597553 -1.0212864 0.20706381 -0.18239842 0.09644074 -0.001581364 0.7450915 0.092326656 0.26316527 -0.18474741 0.1690043 -0.26061583 -0.78480875 1.1189375 0.7159121 -0.23074229 1.3351471 -0.096385404 0.5406147 0.6076 0.46299472 0.37708747 -0.19600523 -0.25554234 0.35877028 -0.039311294 -0.20971495 -0.3961569 -0.12040351 -0.97346723 0.16879265 0.12689339 -0.08210862 -0.08962679 0.17435652 0.46286678 1.2946081 0.8350184 0.6143827 -0.5228806 -0.4131235 0.11171116 0.3396769 0.12767349 0.08858588 0.8510845 0.0077817664 0.16944896 -0.19533631 0.33083507 -0.20068783 0.3489022
67 -0.45368657 0.7807094 0.04602886 0.32318857 -0.16928267 -0.14867832 0.18245609 -0.26564744 -0.48226857 -0.052869495 0.43317747 0.33856764 0.28889763 0.48865724 0.4002234 -0.6836936 0.010173292 -0.27558792 0.006900149 0.88540334 -0.69922155 -0.289127 0.91643494 -0.8006722 -0.21341294 0.3188625 0.36740512 -0.22529541 0.5704873 0.6852005 0.83737266 1.0215185 -0.2851359 0.6545303 -0.4071258 -0.09422247 0.13111511 0.24970832 0.6202208 0.15413953 0.41701812 -0.18200046 -0.6567328 0.5229335 -0.21085803 -0.9691173 0.015263814 -0.7224679 -0.6323289 0.35666022 0.8344919 -1.058312 0.2492119 -0.22801869 -0.39114767 0.57799417 -0.2381494 0.371963 -1.4854572 -0.07605718 0.100732416 -0.122034624 0.25825566 -0.9632003 -0.66637313 -0.2329133 0.2746822 0.40199164 0.014462157 1.0426786 0.8352354 0.6185308 -0.220303 0.059232447 0.10669684 -0.38110557 -0.13997276 -1.043413 -0.56546086 0.024475522 0.087711684 0.3599037 0.2586338 0.32310608 0.46974418 0.2794877 0.6082454 0.85080427 0.1788592 -0.81178045 -0.4530132 1.1100053 -0.1036597 0.051523983 -0.9235656 0.08413954 0.8273071 0.32290927 -1.3049977 0.20828511 -0.46615502 0.0833922 0.056189306 0.3410346 -1.0389836 -0.6979063 -0.6453631 -0.084235765 -0.68161666 -0.65990615 0.10461668 -0.9745018 0.10217301 -0.9814045 -0.56201303 0.017263064 0.048175 -0.42982566 0.145353 -0.45186064 -0.14037198 -0.3753196 0.06488109 0.67314065 -0.25624454 0.049607236 -0.71525 -0.47870743
29 0.013632167 -0.033334617 0.117266044 -0.8112289 0.6532043 0.42951843 -0.7142775 -0.07180116 0.14090127 -0.81871504 0.68841535 0.5801407 -0.40665096 0.21313426 0.21895514 -0.46805024 -0.40297183 0.08563928 -0.7866117 0.549968 -0.47220185 0.7518937 0.078991935 -0.810784 0.05363903 0.5001245 0.07684079 0.770067 -0.15347555 -0.09249267 -0.67182 -0.36105156 -0.66505826 0.33635864 0.55701137 0.100236624 0.8760346 -0.50775206 -0.1020972 -0.5363617 0.4564665 -0.32705328 -0.9266094 0.5454952 -0.14882192 -0.16864777 0.8721404 -0.7269455 -1.4438529 -0.3581196 -0.06678597 -1.1332637 -0.5022364 0.34743676 0.09540231 1.0995959 0.41440192 0.23054801 -1.1565468 -0.20376174 0.633899 0.4426142 0.033555537 -0.08304202 -0.65033305 -0.9115548 0.21235524 -0.06356294 0.82556134 -0.20523629 0.10226265 0.17198935 0.15418468 0.022626687 -0.6533081 0.19267176 -0.36407027 0.13658263 0.05402496 1.3493217 0.10095817 -0.10407126 0.21900666 -0.18014304 0.18843445 0.108683296 0.810929 -0.09353565 0.20742203 -0.114522286 -0.18194716 0.31988445 0.7170326 -0.04576928 -0.55361605 -0.5144358 -0.34098166 0.026483225 -0.9884057 -0.39720723 0.065886386 -0.06428567 0.29583052 -0.3709055 0.18104003 -0.13140443 -0.25769353 0.026954513 0.27180758 0.4096265 -0.3887257 -0.53322595 -0.5913039 -0.42954952 0.38800043 0.67033154 -0.44039425 0.027417755 0.24507758 -0.10374007 -0.5538817 0.76632 0.27587005 -0.8996194 -0.07009359 0.71432924 -0.34633115 0.47877005
89 -0.061545532 -0.45699623 -0.26430273 0.33411208 -0.094845265 -0.40351364 -0.46715972 0.030960532 -0.022518374 -0.72198147 -1.2156199 -0.19900765 -0.06621209 -0.3077486 -0.47167787 0.45207125 -0.21218692 0.82629704 0.25681034 -0.4268923 1.2806253 0.6146952 0.48851052 0.24311574 0.49607077 0.39829665 -0.24498579 -0.032654382 -0.022917125 0.6939735 -0.92532164 -0.42020345 0.20101604 0.34544057 0.4409604 0.1797691 0.35759965 0.5245111 -0.17415318 0.33761373 -0.2332773 -0.9047472 0.79669017 0.8752428 -0.90043855 0.608274 0.1765594 0.32366833 -0.42608905 -0.14703248 -0.868671 0.36095786 0.30975288 0.89916706 -0.65009177 0.10346634 0.07041061 0.04560081 0.6178245 -0.042836107 0.57297164 0.5288224 0.6723289 0.32024455 0.022677563 -0.630245 -0.23208465 0.3990879 -0.8058938 -0.9300555 0.17255443 -0.5048697 0.6225317 0.19889863 -0.034611847 -0.52335477 1.1910533 -0.30019227 0.14746311 0.3423732 0.72724867 0.20848745 0.35811847 -0.5865054 0.55470634 0.14492354 0.12820767 0.19237962 -0.46524987 0.597387 0.9711843 -0.37977627 0.3938845 -0.13148355 -0.10275131 0.35982066 -0.08444419 -0.06266858 -0.52037054 -0.29342225 0.48896948 -0.050436616 0.19478437 0.37864378 -0.3937732 -0.4521721 0.5610577 0.6857398 0.46629757 -0.5543165 0.34853822 -0.1185275 1.0720532 0.8630796 1.0579327 -0.9513942 -0.4915167 -0.15993641 0.3147051 0.3566094 0.17530833 0.39986745 -0.27638578 0.38131806 0.1359222 0.50732136 0.3516263 0.7793062
60 -0.55957645 0.70956266 -0.39437738 0.74747646 -0.41865334 -0.17358655 0.31541598 0.6040623 -0.07682939 0.49983495 0.072995946 -0.55044377 0.09554038 0.18849152 0.20740476 -0.17404443 0.5588672 0.1270765 0.82638013 0.094134994 -0.28185427 -0.7649128 0.7467358 0.5759094 0.14634947 -0.45368713 -0.41462362 0.41482344 0.028894657 -0.17058116 0.6789605 0.11685321 0.027263071 0.5371106 -1.2178643 0.04266493 -0.42095345 0.15802354 0.29143885 -0.21351229 -0.11654085 0.53733265 0.7848897 -0.021762118 0.2705732 -1.0949681 -0.82399154 -0.22297968 0.25167203 0.81513846 0.67123854 -0.17838404 1.135743 0.24144852 0.048153162 0.1506344 -0.68280035 -0.0021908395 -0.45042312 -0.03338879 -0.30479714 -0.3636529 -0.11671552 -0.7624427 -0.5583307 -0.58947855 -1.0178668 -0.1628942 0.18582064 0.6468579 0.32428792 0.8188002 -0.076866314 -0.13212515 0.7294233 -0.058316406 -0.48735252 -0.10342913 0.3133052 0.06107852 -0.2889375 0.55936134 0.3049752 0.693983 -0.24186696 -0.27452934 -0.0075345524 0.5956363 0.523007 -0.042586524 0.29231697 0.56513315 0.39915627 -0.66180986 0.2104104 0.59314847 0.7514144 0.81006217 -0.09071025 0.18068038 0.14607273 -0.6676244 0.053714775 -0.23355117 -0.9235737 -0.5053873 -0.50992805 -0.39851478 -0.6385862 -1.0517365 -0.19078659 -0.64740145 0.91803324 -0.5727978 -0.2962057 0.16408847 -0.7411788 -0.13276288 0.012702317 0.051276565 -0.059611585 0.018804383 -0.323847 0.3691195 -0.6337808 -0.6916966 -0.61366606 -0.49666607
97 -0.36343312 0.3652649 0.009086408 0.1400938 -0.84821004 -0.14381729 0.044880137 0.3547718 -0.12861206 -0.6571079 -0.3219317 -0.081426576 -0.50363463 -0.31113002 -0.4078406 0.3835556 -0.064484164 0.70094126 -0.034595486 0.12607631 0.8373743 -0.1779699 0.6704254 0.6968611 0.6956631 0.019788053 -0.4425324 -0.18260156 -0.14747518 1.1389096 -0.39172295 0.639583 -0.7224061 0.8684908 -0.42128685 0.42151293 0.1076877 0.4047372 -0.38673753 0.23144941 -0.38435918 -0.15452711 0.7694151 1.318232 -0.44948262 -0.2062383 0.46134084 0.046113353 -0.9663925 -0.9841474 0.017621953 0.26975408 1.1846265 0.5642278 -0.42413735 0.8109455 -0.15767145 0.25428373 -0.7794643 -0.27010706 0.07238771 0.4630414 0.38048777 0.4401648 -0.36823165 -0.7023795 -0.16400103 0.70252633 -0.5073558 -0.17701924 0.079732634 -0.19335702 0.631726 1.0969224 -0.38953876 -0.676768 0.56141454 -0.5840277 -0.22789747 0.29487383 0.43017876 0.58445174 -0.25811967 -0.6501513 -0.08994368 0.87595063 -0.07047499 0.72217846 -0.04913867 -0.5702057 -0.013111472 -0.0017993267 0.55887276 -0.11986031 -0.56547374 0.20610793 0.58909345 -0.08508448 -1.0044407 -0.39760205 0.13686472 0.47703385 0.7599722 0.012753496 -1.116237 -0.29341206 -0.16914688 0.37796786 0.16252677 -0.16067798 0.18813975 -0.46881253 0.7359388 0.44433275 0.56759965 0.037780203 -1.0393798 -0.43777248 0.24080911 -0.023104483 0.69335836 0.034768477 -0.1727273 0.9442259 0.19513476 0.50273645 -0.43900666 0.5653251
98 -0.33024716 0.3681121 0.13610078 0.07379648 -0.9112878 -0.102887206 0.08574234 0.35261306 -0.110180736 -0.6600095 -0.3168799 -0.06062487 -0.5037873 -0.33935726 -0.34798706 0.41179803 -0.08305769 0.71029043 -0.03363788 0.15403785 0.91626227 -0.21870562 0.6829478 0.73891073 0.7446304 0.03883161 -0.41793323 -0.21246685 -0.15287988 1.2275195 -0.4245219 0.71460867 -0.7523668 0.88009745 -0.43688178 0.41130862 0.08333335 0.50565046 -0.36453414 0.29688427 -0.37461165 -0.1823088 0.7259412 1.3828932 -0.50305814 -0.15915297 0.45100158 0.07784555 -0.9781608 -1.0588858 0.02721475 0.29387575 1.186659 0.5799001 -0.43170434 0.83173054 -0.16963583 0.27397758 -0.8200216 -0.29172036 0.06499298 0.47631496 0.42426535 0.46450573 -0.29772586 -0.6172466 -0.12595087 0.7161102 -0.5405898 -0.18431976 0.13323702 -0.32160842 0.6630071 1.1382433 -0.5354793 -0.7277279 0.54204017 -0.7472281 -0.33490428 0.24815404 0.41174117 0.62053615 -0.30191064 -0.696948 -0.048192512 0.957783 -0.10092135 0.73644996 -0.09938078 -0.66497743 -0.06567189 0.07748391 0.5946024 -0.06848405 -0.66377014 0.23344392 0.6418 -0.094684206 -1.1433936 -0.4097477 0.11605678 0.5680369 0.7341991 0.017476143 -1.2288913 -0.2767303 -0.272075 0.37844202 0.1340292 -0.068206914 0.2548269 -0.39936873 0.6865501 0.45239368 0.5922126 0.027828371 -0.9621371 -0.45523122 0.17523117 -0.012836327 0.7043418 -0.0053604185 -0.12509844 1.0450171 0.24779332 0.582732 -0.49100062 0.51699525
112 -0.084401585 -0.17330553 -0.193624 0.8571054 0.21808112 -0.4108509 -0.4537408 -1.133783 0.7716439 -0.22232558 -0.49067003 0.32873428 0.9150538 -0.14605837 -0.33766845 0.3063151 -0.047269877 0.17206474 -0.012000824 -0.47636738 0.89149785 1.1589777 0.18853585 0.5171492 0.56592196 0.6893806 0.041097492 0.022425232 0.64566284 0.33210668 0.05168476 -0.23109806 -0.47120285 -0.13581255 -0.251128 0.26983055 0.89668465 -0.22762805 -0.1652289 0.58266604 0.11602019 -0.5079712 -0.23545338 -0.42120454 0.1221242 -0.052619908 0.33905157 -0.18726638 -0.215084 -0.13375144 -0.93519324 -0.92681336 -0.4551108 1.045938 0.18319087 0.36598992 0.8323931 -0.16223116 -0.68955714 -0.2674182 0.23679763 -0.05682437 0.52041703 -0.044866007 0.0728926 -0.6035377 0.8289158 0.39264145 0.5128953 0.2236079 -0.003511879 0.45304367 -0.77700317 -0.20312117 0.70822906 0.3710768 0.18805808 0.50182 0.036611684 0.17362796 0.34243375 -0.5783777 0.04929095 -0.93336874 0.22888651 0.4514211 -0.419774 -0.37084714 0.38939482 0.49720153 0.5341726 -0.6817254 -0.32203966 -0.27515462 0.43849304 0.24410193 -0.38432723 0.23275709 0.44648552 -0.7686902 -0.1692937 0.5792899 0.06424782 0.8496744 1.0037931 -0.38813454 0.9799477 -0.043766905 0.38544992 -0.69316953 0.2016981 -0.47542685 0.7714027 0.2090997 -0.9022 -0.22575495 -0.7854707 -1.5551206 0.7295343 -0.082066 1.4541113 0.5096194 -0.07940249 -0.1740192 0.4891716 0.22860712 -0.59379286 0.5880736
81 -0.22762673 0.0013639005 0.46504998 0.32766542 -0.027309164 -0.49771824 -0.55842537 -0.37959474 -0.13649072 0.38510928 -0.9381126 0.13289489 0.60126835 -0.16912961 0.54059577 -0.06000278 0.501977 -0.16020238 1.0979495 -0.67986363 0.57721204 0.6047932 0.28427812 0.51907516 -0.09959967 0.19746977 0.038064662 0.50142056 -0.36994642 -0.24459577 -1.0329053 -0.7279851 0.41135392 -0.039805185 0.28708813 -0.7830361 -0.24760067 0.21496895 0.07057123 -0.766763 0.22316436 -0.4306989 1.0164925 -0.86649317 -0.599006 0.41406235 -0.1163559 -0.5527422 -0.069221966 0.83842427 -0.40479496 0.2832017 0.5416407 0.69634193 0.41392192 -0.4911445 -0.23176846 0.20618829 0.5142677 0.019037895 0.45820776 0.38812724 -0.018308157 0.23635493 0.2934478 -0.5935716 -0.97904736 -0.4259263 0.4844547 -0.8939029 0.44970402 0.3425096 0.4929399 -0.1934245 0.25909927 0.59666777 -0.20113738 -0.999304 0.12349125 -0.10409566 0.054945074 -0.05028203 0.72746485 0.060600016 0.3662226 -0.25700122 0.24068931 -0.2762561 -0.8422397 0.9977101 0.6143854 -0.14660427 1.4173704 -0.06016339 0.3235505 0.4887593 0.28591987 0.2848553 -0.48961154 -0.3584331 0.28363538 -0.057730485 -0.25562444 -0.4441353 -0.14670895 -0.82815826 -0.025077065 0.03202872 -0.026448274 -0.0027977568 0.3263283 0.5740837 1.0652162 0.7898334 0.6527403 -0.44031003 -0.31292453 0.18238333 0.28009295 0.10763734 -0.06865829 0.8799676 0.05538728 0.12852144 -0.06889676 0.44946817 -0.21162228 0.31675994
119 -0.5892659 0.026834691 0.45024812 -0.17240897 -0.8970476 -0.5856988 0.36233172 0.101677716 -0.12812547 0.45331505 0.46280232 0.064246476 0.8107452 -0.71629936 0.86505073 0.22965263 0.10965212 -0.042759623 0.26787868 0.04564434 0.34580278 -0.17725988 0.2442276 0.050735626 -0.033237576 -0.26686382 -0.4648008 0.4549924 -0.122954376 0.42152116 0.07916086 -0.06953887 -0.6423317 -0.4487562 -0.60708576 0.16013996 -0.8506991 0.16450864 -0.56938255 0.32207444 -0.12746978 0.027959365 0.035542443 -0.71517706 0.07784155 0.19251318 -0.2503095 -0.22182167 0.73615754 -0.5503124 0.38100243 0.075290084 -0.0655449 0.43725675 0.8643716 0.26915598 -0.14034386 -0.18386056 0.031797193 -0.45812938 -0.045457903 0.36937448 0.05722437 -0.21821441 1.3523448 0.51626 -0.20200242 -0.50490654 0.64571697 0.04751562 0.602985 -0.024553005 -0.8520855 0.04801194 -1.1517539 0.9016154 -1.2644612 -1.3385006 -0.23860067 -0.34892872 -1.0203968 0.19904292 -0.34055755 0.15475592 0.33849695 -0.045420002 -0.8488694 -0.35840014 0.102372736 -0.41590083 -0.08970281 0.070394486 0.4923709 0.20118932 0.4609679 -0.27044106 0.50826156 0.3517114 -0.11775796 -0.41103992 -0.5124154 -0.15674007 -0.5718702 -0.35113594 -0.37787166 -0.34557623 -0.60513854 -0.33376357 -0.2693756 0.08308269 0.47738048 0.015131827 -0.3312234 -0.53306705 0.31853297 0.03754325 0.97192824 0.38042483 0.43800405 0.8493934 0.3091539 0.23134588 0.36824968 0.25145853 0.025109084 -0.09183238 -0.0873391 -0.09077807
66 -0.38275626 0.68406916 0.17765902 0.24351569 -0.12803683 -0.14064851 0.15779217 -0.3820595 -0.42461255 -0.08086443 0.3185173 0.36863402 0.36320066 0.4258083 0.396474 -0.5794776 -0.037393544 -0.25865582 -0.020073766 0.78958327 -0.5796514 -0.2597868 0.83803225 -0.79028475 -0.18986936 0.44008145 0.41161785 -0.33831275 0.56640846 0.7268002 0.7668497 0.92968863 -0.23244992 0.51790804 -0.28252384 -0.07726555 0.1830178 0.33984601 0.6045947 0.20187055 0.44355026 -0.29789445 -0.75449145 0.52935976 -0.28131002 -0.7912684 0.040514 -0.6551787 -0.6166064 0.29056415 0.6189035 -0.96225685 0.043110937 -0.20851414 -0.42397624 0.46706176 -0.12078433 0.34565043 -1.2844235 -0.10366437 0.14046054 -0.08130904 0.29149243 -0.8498271 -0.56166875 -0.1389957 0.3724519 0.44293457 -0.041469786 0.8805721 0.909986 0.47943544 -0.20218194 -0.03430682 0.018183073 -0.38461304 -0.02733095 -1.1200635 -0.64565504 0.010519384 0.17978138 0.34456572 0.30089682 0.23882936 0.5317057 0.3503884 0.5694344 0.7526789 0.055093527 -0.70936507 -0.34665245 1.0185703 -0.14995871 0.11996243 -0.98096716 0.044834588 0.79831964 0.28418544 -1.2768407 0.2084408 -0.4066514 0.17328848 0.050229207 0.42013612 -0.9945798 -0.724134 -0.5090033 -0.074568 -0.6467396 -0.52661777 0.20092668 -0.8520863 0.035566404 -0.8343662 -0.4903958 -0.028059825 0.15993015 -0.40832978 0.13749021 -0.4143028 -0.09281793 -0.40032986 0.16299327 0.6822667 -0.13580297 0.15321748 -0.62004036 -0.40509868
126 0.035782967 -0.009471691 1.05285 -0.3580575 -0.6187211 0.111595325 0.35719648 0.22578554 0.621102 0.40529343 0.24034105 -0.36434242 0.38748732 -0.18044125 0.8021678 -0.07816053 -0.008201832 0.5781337 -0.1462572 0.5606334 0.61627555 -0.32480395 0.44896293 0.27876702 0.811208 0.15289119 -0.44394192 0.41996816 0.5691021 0.4473325 0.6832982 -0.057479836 -0.7381241 0.001795404 -0.845859 1.029835 -0.79651195 0.5940892 0.16179693 0.87326205 0.051113065 -0.25583282 -0.49358734 0.3255802 -0.096177034 0.07031915 -0.57052356 0.5510713 -0.16619962 -0.33657736 -0.26486716 -0.2922163 -0.5938718 0.77020323 0.086720146 0.229742 -0.29851186 0.1768722 -0.35703427 -0.27343208 -0.3342097 0.14464799 0.24988051 -0.58066016 0.5992338 0.49985388 -0.33269274 0.18576044 0.6448641 0.050117765 1.0723346 -0.46608442 -0.76802367 -0.34376723 -1.5661201 -0.07607653 -0.39710286 -1.3612939 -0.5502303 0.2126795 -0.4782454 0.28711444 -0.32804444 -0.008388965 0.31823432 0.34452492 -0.6996423 0.22090504 0.6403429 -0.46697134 0.3083338 0.32813334 -0.03993113 -0.058237314 -0.2715472 -0.1874557 0.2848943 1.169571 -0.5036775 -0.34282464 -0.42814013 0.5174109 -0.16621718 0.2494654 -1.546838 -0.30147728 -0.603029 -0.51972234 -0.39055806 0.3587632 0.10552545 -0.33169833 -0.29645845 -0.57318336 -0.07354653 0.81225675 0.6434487 -0.4088751 0.09687548 1.0154607 0.14841254 -0.00053629273 0.7329084 -0.085146435 -0.601299 0.27732593 -0.89965296 -0.47457528
74 0.042414397 1.0461377 0.20761926 0.4386241 0.6678695 0.24279362 -0.49263093 -0.66643703 -0.021317592 -0.39133683 0.25465906 0.5623105 0.7448949 0.48253426 -0.504424 0.09030976 0.55276585 0.045521352 0.20330356 0.5453913 -0.29078072 -0.5724255 0.5323836 -0.1499979 -0.18337943 0.8727329 0.30502254 -0.57514286 0.5638781 0.583 0.2623803 0.3686266 0.03450088 -0.4517982 -0.028054805 0.082309596 1.3462836 0.60717845 0.36098313 0.25102034 0.7391648 -0.49297413 -0.51727843 0.53091145 -0.10325115 -0.5202254 0.18075727 -0.7531244 -0.7244127 0.2479411 -0.28291723 0.16056347 -0.9791692 -0.15857768 -0.4404266 -0.25099063 0.735655 -0.4097798 -0.5562885 0.041992135 0.027032422 -0.66496843 0.56443053 -0.0036187768 -0.6666378 0.04995569 0.73711693 0.03365849 -0.7343668 0.70829254 0.89235914 -0.03153571 0.7159329 -1.4030305 0.5731244 -0.19080463 -0.450532 -0.71083003 -0.38424683 0.4842411 0.71808946 0.22250567 0.87959397 0.013104501 0.24026811 0.5603159 0.3516904 0.52962 -0.52677685 -0.19221255 0.023836166 0.5052247 -0.30204627 -0.027230589 -1.2393252 0.025773678 0.3277673 0.44287935 -0.85997105 0.57045025 0.09550618 -0.04266065 0.12541224 0.78749174 -0.50309265 -0.52641225 0.08102285 -0.10123474 -0.6027738 -0.17685264 0.35376495 -0.59504694 0.16696382 -0.12182988 -0.60297626 0.022267474 -0.31206566 -0.33961254 -0.07877202 -0.21170138 0.19024342 -0.4027695 0.93046653 1.1349809 0.96677923 -0.05150723 -0.030796545 -0.32147804
50 0.7371775 0.20087332 -0.5777359 -0.17222092 -0.2464743 0.7440099 -0.24508809 -0.11849435 -0.6273566 -0.1666638 0.27820465 -0.22824186 -0.22805566 -0.030210467 -1.0446646 0.5568054 0.4037173 0.6036111 0.27743214 0.5014502 -0.062479425 -0.6050813 -0.123952724 -1.3761724 0.74646837 -0.9636404 0.0048910165 0.17629527 0.45690677 -0.1911047 -0.22757645 0.44010648 -0.44901767 -0.27973875 0.30878136 0.5059948 -0.031249234 -1.4125904 -0.20108263 -0.009064817 0.3926039 -0.62065196 -1.1716912 -0.035319623 -0.11551308 0.025676755 0.79334325 0.029237771 -0.53504926 -0.55685246 -0.07568986 0.38329208 -0.93179476 -0.011189432 -0.73285455 -0.011825594 0.86495054 0.0926181 -0.43438405 0.013495628 -0.014553476 -0.16146539 0.37746322 0.1415589 -0.5569493 0.46830854 0.44787422 -0.67738837 -0.9567257 0.36084068 -0.72949815 -0.05976803 -0.23325977 -0.8775641 -0.45147744 -0.25926635 0.39503914 0.15312469 0.44680905 -0.016341254 0.46637544 0.08406818 -0.061878167 0.030078415 -0.2938128 0.32261387 -0.7453027 1.0162421 0.48608547 0.12528935 0.70977044 -0.34155032 -0.977665 1.1055454 -0.12823674 -0.352336 -0.41458178 0.8725313 0.8867997 0.606496 0.21069166 0.35903972 0.15138769 0.65659535 -0.5569084 0.73783433 0.35789078 0.6147682 0.5102565 0.59325874 -0.8618999 0.00968199 -0.05396747 0.15579131 -0.24752906 0.650466 0.082359225 -0.9389047 0.44429445 1.0452771 0.28200158 -0.32929948 0.6211831 -0.39287513 -0.016222881 0.17976956 0.76831776 0.45671847
104 -0.19439259 0.22926682 -0.5481216 0.9488169 -0.325151 -0.6468651 -0.23888378 -0.95378876 0.08894432 -0.05469438 -0.72308296 0.48013556 0.56824404 -0.15184508 0.14566053 0.15346193 0.3123191 0.1676066 -0.2873713 -0.47576037 -0.06585572 0.52257097 -0.059782162 0.4159653 0.17361888 0.63442546 -0.059020188 0.6080902 0.19747353 0.113071896 0.67693925 -0.44967666 0.078099504 0.79385686 0.019906783 0.076166175 0.6094929 0.2841864 -0.25639698 0.29321107 -0.14653905 0.77377474 0.53196883 -0.90435255 -0.406454 -0.59568524 0.015826656 0.0795003 0.1789493 -0.26513147 -0.026406435 0.0361286 -0.101632185 -0.19005446 0.7232434 0.16294025 -0.3465101 -0.45955968 0.3789598 -0.37565634 -0.6456628 -0.095269375 0.6836562 -0.21053377 0.5489292 -0.11733778 0.4514704 -0.58935606 0.54720885 -0.50568575 0.112700075 0.598856 0.013925007 -0.5015851 0.5529094 1.2414246 -0.29527813 0.73885083 0.1539533 -0.08999727 -1.1564585 -0.43624756 -0.04158696 0.08417205 0.08050476 -0.87584394 -0.9823124 -0.5108063 0.34969252 0.18618393 -0.121570274 -0.615513 -0.15955077 0.18311504 0.99792147 -0.19416009 0.07092586 0.2258613 0.8740336 -0.67994875 0.6127958 -0.07799361 -0.49565452 0.28382453 1.2983727 -0.5616638 0.15429291 0.30437475 0.43950552 -0.9538038 -0.23547743 -0.10892295 1.0474039 0.23115727 -0.22370821 -0.48715833 -0.6395109 -0.30215743 1.1987791 0.22256939 0.9301589 0.44937822 -0.79222614 -0.07646394 0.6294079 -0.8013773 -0.00771559 0.13899954
