2050 128
1121 1.0230232 0.2856758 -0.5487162 -0.7011414 0.8901651 -0.07341599 0.06063353 -0.15054655 -0.47441536 0.06648732 -0.7559735 -0.71753585 0.5126263 0.80154526 -1.3183144 0.09815017 0.83802134 0.86608535 -0.35635927 0.10010734 -0.21997407 0.14451599 -0.4780068 -0.39150727 0.03168316 0.7478149 0.6284564 0.12645842 0.2907209 0.091213375 -0.9305787 0.22001085 0.01019285 -0.69221705 0.3243693 0.38467586 -0.58098024 0.980168 0.19362313 -0.6898517 0.012503384 -0.1553097 -0.20893963 -0.56911176 1.3550608 -0.19417052 0.053884577 0.3826411 -0.753223 0.18750505 -0.06366854 -0.17528182 0.27503234 0.46697748 0.7091655 2.1049132 0.6350527 -0.12032513 0.24831481 0.38495696 0.029554954 -0.07034694 0.120802715 -0.36656094 0.55726033 0.50218236 -0.8967333 -0.8945478 -1.0972984 -0.24042721 -1.3587706 0.47857246 1.0626979 1.8010839 -0.94878185 -0.4735842 -0.22309539 -0.9178415 1.3734874 0.23751284 -0.58769286 0.21218729 -0.017086586 -0.6688921 0.4750876 -0.07894054 -0.8983045 0.022103528 -1.1428007 -0.7134445 1.692825 -1.187852 0.7118514 0.415552 0.50491774 1.0980703 0.3833993 -0.5763716 0.70955074 0.6777704 0.3089771 1.0705417 -1.0100143 -0.8232403 -2.123926 1.0807228 -0.81423986 -0.21504489 -0.21979454 -1.0699239 0.4850498 -0.35337895 0.17048949 -0.01170707 -0.009257622 1.154264 -0.7985928 0.3050347 0.024668705 0.68807036 0.8453486 0.763391 -0.21765225 1.8437362 -0.056148767 0.4811597 0.4838924 0.10657157
417 0.29524124 1.3491975 1.2720803 0.15764156 -0.16644289 0.20877041 -0.24668063 -0.40130293 -0.026134057 -0.1809263 -0.21851473 -1.0234846 0.38138103 -0.17064701 -0.3489858 0.35722208 0.41755354 1.5284715 -0.31492025 0.9101908 0.7081531 0.35572565 -0.9536591 -0.23777106 -1.3761818 -0.29688534 0.3110762 0.0071732425 -0.55124384 0.18534847 -1.0637132 -0.14146286 0.35656458 -0.14911643 0.86946905 0.9995107 -0.099377 0.88947874 0.41204563 0.35794505 -0.9695914 -0.77962714 -0.5728095 0.74733305 0.90130585 -0.12344028 0.076124504 -0.69832677 -0.07704485 -1.2439152 0.20434134 1.2583796 0.006500202 0.43552342 0.88575715 -0.45833018 0.6345879 -0.05246931 -0.38570237 0.6622009 0.59063196 0.28457555 0.1905094 -0.16454326 -0.08904077 -0.53949404 -0.41451478 -0.24390246 0.53150916 0.59083205 0.23491324 0.49137968 -0.5680827 0.70095587 0.60878825 1.4505275 -0.021832801 -0.42619568 0.01910883 -0.36725324 0.6171096 1.2661453 0.8263575 -0.28136358 0.08294511 0.8065184 0.33478928 0.21436794 -1.5519464 0.84728825 -0.32396683 0.53595686 0.2526249 0.763375 0.286444 -0.12864856 -0.55971694 1.1098921 -0.400718 0.2028328 0.10554948 0.4352163 -0.10860512 0.27581224 -1.336762 0.12211091 0.07836478 0.027845798 0.53315634 -0.22080776 1.0320891 -0.28886792 0.36515796 -0.46589562 -0.8433605 0.8705894 -1.2550459 2.2512767 -0.056770544 1.6476465 -0.816176 0.076430924 -1.5617281 0.36598456 -0.14579459 -0.090158455 -0.731307 -0.009576901
1201 0.29489347 0.5685378 1.0003586 -1.1455066 -0.3813241 -0.6082943 -0.21581256 -1.7677696 -0.1359503 -0.17553732 -0.056719497 -0.30037236 -0.82866263 1.1735175 -0.73603123 0.432119 0.37591365 0.93152994 0.542141 -0.3942745 0.82575905 0.37935263 -0.41750106 -0.82418895 -0.50815207 0.00061121647 -0.08853697 0.4341931 -0.08314492 -0.48788944 -0.38689566 -0.54586506 -0.22176854 1.0619951 1.1458074 0.25541818 0.46460587 0.15895016 -0.57209235 0.16662936 0.51685476 0.17847992 0.48817614 -0.7402365 0.21050486 0.58046836 -0.45307976 0.9586127 -0.3636698 0.57274455 0.11969291 0.87593126 -0.049474917 -0.40698713 -0.55293566 -0.23053865 -0.05971448 -0.2503987 -1.3059306 -0.50447184 -0.109463565 -0.77164197 -0.099993095 0.84822583 -0.029895814 -0.17132239 -1.3030337 -0.9263603 0.57621723 0.21664427 0.15248545 0.045969233 0.40562734 0.030238105 0.7854746 1.0183264 -0.18252285 -1.9774665 -0.7552257 0.10243967 0.41733548 0.46938547 0.087427795 -0.59497005 -0.21799113 -1.5996286 -2.0348158 0.76579005 0.10282233 -1.2200949 0.38126886 0.04837405 -1.1053988 -0.31705308 0.9895862 -0.533378 0.47609583 0.56993103 -0.97242254 0.6975341 0.7454702 -0.5660753 1.1692927 0.20373191 -0.43485296 0.90869844 -0.9051414 0.7975306 0.42820305 -0.9598352 0.45363176 -0.1043011 -0.6883167 0.057011124 0.27355218 1.0374106 -0.9555887 0.5921094 0.29511106 1.1508956 0.38469565 0.81059635 0.121851 -0.17890362 0.94335353 -0.400085 -0.6774671 -0.4943043
825 -0.5461163 -0.49437773 -0.1996849 0.7222277 -0.5233437 -0.13568676 -0.8766363 0.5421067 0.45689553 0.044489056 -0.16527277 -0.6840076 -0.5530178 -0.3491071 0.4490224 0.3870914 1.2115673 0.24462649 -0.25590828 -0.806962 0.30078918 -0.24071218 0.38668972 -1.2800268 -0.33913016 1.5276849 0.16213305 0.7297043 -0.13967827 -0.5320031 0.20441173 0.2182494 -0.98599213 -0.49792197 1.4294608 0.5769668 -0.20677128 0.71110326 0.7278248 0.93180704 0.70435727 -0.65294427 -0.9621211 0.89687514 -0.019407032 0.83852804 -1.40366 -0.33750537 -0.26957855 -1.8406953 0.6391565 0.12511346 0.26177943 -0.21934995 -0.38209572 0.102698974 0.51074344 0.17258574 -0.21028227 -0.1849612 -0.07013255 -0.87841964 -0.0059199403 0.49019384 -0.9975726 0.2471647 -0.076563306 -1.1850382 -0.3776121 0.4229568 -0.059354927 0.24035175 -0.21927688 0.7102588 1.9938918 -0.72421247 -0.96408427 -0.84597117 1.0607086 0.25482723 -0.058947083 0.2055272 0.37022057 -0.43809885 0.4384726 0.086499155 -1.0525504 -0.19572788 -0.18823329 -0.73569876 0.3204738 0.5119214 -0.10626373 -0.9558597 0.31015915 -0.8036435 -0.2239831 1.0999802 0.037152536 0.124493815 -0.07917717 0.20720932 -0.3244281 0.63709193 -0.4393008 -0.012238993 0.9931465 -0.23684168 -1.2741051 0.33046103 -1.1432657 -0.50563717 -0.06423484 0.28912058 -0.27562195 0.6970706 -1.3504484 -1.1043408 0.5346516 0.34348843 0.82859355 -0.004593177 0.69813216 0.18568066 -0.207896 -0.65822583 -0.29286426 -0.6669691
231 -0.23353013 0.7670515 -0.27569628 -0.2300455 0.48791558 -0.17324069 1.530158 0.45190158 -0.17488366 0.25106314 -0.31300372 0.48728418 -0.50702554 -0.43329537 0.8331581 -0.9470466 1.2825216 1.196615 0.28020316 0.052224077 -0.5002251 0.15001798 -1.0860008 -1.0358893 -1.2046914 0.8709135 0.94212973 0.5390506 0.66701186 1.3296919 -0.521975 0.09269674 -0.39631727 0.4316453 0.7672583 -0.0782763 1.0123473 -0.8820368 0.13088502 -0.47391945 -0.10074932 -0.036438603 1.1268173 1.0787106 0.6069675 0.05466708 0.36533698 -1.0064157 0.5229285 0.26326934 -0.76124066 0.769357 -0.30744678 0.1766549 0.79439855 0.10176108 -0.25351653 -0.40755168 -1.0105577 0.31376293 0.26295567 0.39706948 0.12611742 0.27198875 0.6751849 -0.40068638 -0.58780324 0.62281764 0.727017 1.2737266 -0.17859499 0.093843736 0.40556955 0.7808371 -0.67296416 0.43095297 -0.45832896 -0.044740103 0.9269277 0.50057924 0.50460374 0.10173869 0.24689034 -1.58728 0.74550354 0.33621266 -0.7575917 0.8941741 -0.04613143 0.4889664 -0.45953766 -0.76902413 -0.55628234 0.29614654 -0.06822515 -0.03464797 -0.75766534 1.2245109 -1.0426253 0.22696325 -0.7087811 0.43988663 0.069649175 -0.9571331 -0.4109408 -0.24893993 0.529759 -1.0119654 -0.24235448 1.4388185 0.07851464 -1.6018813 -0.22297494 -0.43339345 -0.10899832 -0.8284753 -0.8478244 -0.38630807 0.064104706 0.37293237 1.3966268 -0.69803756 -0.10970788 -0.1207923 -0.03183702 0.09691832 -1.1077201 0.36167157
894 0.24677087 0.8212697 -0.60295856 -1.1150893 -1.3815253 -0.4732087 0.32202393 0.41823667 0.42486605 0.63852656 -0.34101593 -0.5884048 0.23455735 0.08104062 -0.42234144 0.29567805 0.18444988 0.014097332 -0.5653996 0.45705843 1.5601827 0.5923476 0.18216035 -0.043514304 0.28256297 1.1759914 -0.61945766 0.32252282 -0.74536467 0.4950512 0.21167155 -0.5526526 0.9532851 0.81010115 -0.20770344 0.76263046 0.43364948 -0.42016658 -0.59214646 0.6066445 0.056752864 -1.631122 0.17030364 -0.099542744 0.5369583 0.21136089 0.6183889 -0.86829156 0.36075792 -0.21424943 0.14013588 1.0150987 -0.109274074 0.032465722 -0.9861973 0.74529016 0.6235636 -0.04699647 -1.0672337 0.7853087 0.11821362 0.21034 0.31684864 0.041390434 -0.024097001 -0.025513157 0.16406782 -0.090591885 0.41482505 1.0064179 1.0554581 1.2838606 -0.12956719 0.5983297 0.9740635 0.2602939 -0.8898628 0.5263209 1.0712584 -0.022170192 0.4383526 0.16907817 1.451786 0.016720906 0.9984363 -0.21424194 -1.0131023 -0.30870917 -1.1357918 -0.6046146 -0.07029544 -1.2929893 1.112001 0.1824201 0.6293034 0.8771066 -0.74454886 -0.88721323 -0.27312088 -1.0246719 0.75939023 -0.111706115 -0.4341582 0.3018958 -0.89510614 -0.3792812 0.20619284 -0.27523324 -0.09567204 -0.051736817 -0.77569205 -0.60358196 -0.40546495 -0.9084906 -0.05306936 0.10548637 -1.0109429 -0.28222373 0.4196215 0.6518663 0.2707881 1.8059461 0.3160378 0.114464335 -0.7088752 -0.8739977 -0.3914584 0.13831423
659 -0.43701172 -0.5935285 0.02630226 -0.2910243 0.9744912 0.61969393 1.1930621 1.2133645 0.70371205 0.74698734 0.039793678 -1.0908736 0.27680004 -0.7665697 0.24225603 -0.24160193 0.1769814 0.33220538 -0.4245595 0.053255912 1.1866244 0.14167601 -0.1571359 -1.3214867 0.43670487 0.563169 1.1864192 -0.009373047 0.026080992 -0.138807 0.19052213 0.7637995 0.2417792 -0.009395056 0.61409056 0.09684537 -0.25758573 0.51689446 0.72306186 -0.4017233 0.095507935 -0.62907654 -0.40741602 0.52152205 0.5229821 -0.15384302 0.91670465 0.23879313 0.07619783 0.4589231 0.5791896 -0.5048097 -1.5020598 -1.18035 -0.65174323 1.0351608 0.4206701 0.022572825 -1.1475531 -0.63052297 0.39089546 0.060247175 0.30792376 -0.62135094 0.22523844 -0.7459339 -1.661041 -0.9785829 0.46821445 -0.13110228 -0.6134891 0.8399298 -0.058082853 0.123178504 1.0177966 1.525308 -0.24868086 -0.25429276 0.5222326 0.29142302 0.18850356 -0.80220014 -0.25078622 -0.8898809 -0.40582332 -0.1517197 0.166674 0.77439564 -1.2344165 -0.4361522 -0.025116038 -0.6373141 -0.34836724 0.6485211 -0.18619688 0.69106984 0.34137395 -0.22459105 -0.20067422 0.47449353 -0.5036999 0.55073774 -0.74308014 -0.20660926 -1.2630738 1.2145619 -0.09463644 0.31685007 -1.0344657 -1.34246 -0.13395564 -0.12961258 0.30025604 0.2162005 -0.54463804 -0.4316134 -0.38202924 0.85746145 0.11101072 0.6838554 0.6175655 -0.0463898 1.6471992 1.1247524 1.1144483 -0.25959063 -0.7354483 -0.6614829
261 0.016903687 0.93317086 0.5506808 0.65199035 -0.010273443 -0.4509126 -0.35943812 -1.0059851 -0.040119022 0.47417346 -0.21675229 0.81871134 -0.81189114 0.00062412623 0.61971456 0.18934807 0.14385541 -0.013831477 0.012923164 -0.98643446 1.851825 -0.0067234314 -1.2808552 -0.498194 0.44200644 0.29744303 1.2037967 -0.041832015 0.73704594 -0.06882525 -0.65743536 0.16536619 -0.3131082 0.45455897 -0.26538518 0.022327084 1.1013292 0.09005437 1.6259949 -0.1633759 -0.20909874 -0.63893443 -0.982623 0.056637708 -0.39152557 1.1145022 -0.60026485 -0.6929778 0.76033527 -1.3023857 0.0021839305 -0.71281415 0.51728964 0.33528355 0.7804334 0.11637803 0.47746179 -0.31617168 0.18022832 0.06651643 0.15727621 0.48562905 -0.39305186 0.2687071 0.7166572 0.90473294 -1.6680794 -0.6640383 -0.0706099 0.9585312 -0.5465822 0.54871434 0.3307051 0.8765177 1.0855627 0.52111405 0.8888735 -0.0026897255 -0.07467691 -0.16801055 1.5678028 0.83490586 0.20425975 0.20172568 0.35050046 -0.92146784 -0.65829545 -0.46739522 -0.5497224 -0.5125276 -0.19305676 0.6687291 0.37302464 -0.4600329 0.8339648 0.7767375 0.060314354 0.5603987 -1.093693 0.35852036 0.3109645 -0.14015247 -0.3572445 -0.054974567 -0.7483528 0.5588364 -0.45949498 -0.05752361 0.03730869 0.53406554 0.19154547 -0.6041869 1.2475978 1.4393735 -0.13648593 0.92599654 -0.95623374 -0.07410897 -0.71586114 0.8508297 0.4277388 0.12999523 -0.5140495 0.6393845 -0.7731238 0.3910803 -0.8508631 -0.21732359
831 -0.81343734 -0.47535965 -0.40232712 0.6765994 -0.48979715 -0.30390587 -0.62531626 0.52126527 0.48824438 0.25705877 -0.47487316 -0.48268735 -0.42123896 -0.47124833 0.5494231 0.27668947 0.6834021 -0.13031387 0.004894531 -0.7975301 0.25054732 -0.29754454 0.3656527 -1.3494536 -0.39336407 1.47306 0.25756353 0.6832846 -0.16418388 -0.47912133 0.308915 0.40794945 -0.87472665 -0.37875032 1.3877114 0.6198581 0.043578945 0.43793964 0.8122406 0.8184169 0.57852715 -0.88126034 -1.2333847 0.7631572 0.113973215 0.9801488 -1.5671247 -0.24080746 -0.235285 -2.0306535 0.63350654 0.18126558 0.17572357 -0.26178965 -0.005498234 0.112167716 0.38144648 0.3884116 -0.29313198 -0.011887655 -0.46279842 -1.0225298 -0.1527254 0.30821753 -0.9026827 0.17163149 -0.39698344 -1.3607641 -0.43237028 0.59043324 -0.22893246 0.023275297 -0.32780266 0.4318196 1.8133183 -0.6282497 -1.0580487 -0.74024063 0.9899267 0.0845862 -0.045365635 -0.02655926 0.13992274 -0.49073365 0.59985304 0.3809808 -0.80720305 -0.043895587 -0.07587222 -0.555457 0.3500237 0.566547 -0.12523215 -0.7794291 0.2759852 -0.8950288 -0.22037306 1.2340367 -0.12743428 -0.017422248 -0.086546354 -0.056103233 -0.6819346 0.66604394 -0.20257285 0.049054816 1.1221755 -0.4332175 -1.3906513 0.16549307 -1.1359334 -0.85821426 0.1345124 0.21609919 -0.2124212 0.92928094 -1.3786873 -1.0236845 0.30801174 0.5891844 0.7209212 0.01028619 0.7864483 -0.08288798 -0.35796654 -0.34419635 -0.08352749 -0.9474054
660 -0.83383095 -0.44427565 -0.0020941778 -0.5406617 1.0149989 0.34979054 1.1527884 1.0484332 0.5652126 0.8015068 0.00032015468 -0.78591555 0.0644468 -0.7710485 0.23033318 -0.2268354 0.7567049 0.31413493 -0.432027 -0.05380426 0.942763 0.22877052 -0.27063882 -1.2981616 0.6465433 0.63947797 1.2941784 0.10495133 0.06960605 -0.41773733 0.23063247 0.6501262 0.4222872 0.031006774 0.93523395 -0.31062236 -0.050954618 0.29286715 0.21735646 -0.29736742 0.31246072 -0.3117155 -0.45691454 0.51018405 0.32989404 0.05811794 0.79866 -0.18590415 0.0028241551 0.377329 0.47421324 -0.5165471 -1.6568433 -1.273106 -0.64846534 1.2112342 0.325013 0.070071556 -1.1164254 -0.27035746 0.65920347 0.091635674 0.40906027 -0.45110855 -0.045694023 -0.8950449 -1.3155825 -1.0156857 0.66786325 0.31210414 -0.5127634 0.77372855 -0.019619582 0.06401092 1.0474051 1.0415789 -0.16517471 -0.4633451 0.21343483 0.61110616 0.20120347 -0.80543244 -0.050218064 -0.8939933 -0.4014107 -0.40554914 0.13587046 0.7930643 -1.0673811 -0.41137287 0.20658074 -0.40614945 -0.3206824 0.51884425 -0.31474623 0.4869345 0.40215603 0.031352498 -0.15210807 0.42841682 -0.6284828 0.5679189 -0.89698344 -0.057195984 -1.2174454 1.5159035 -0.13908327 0.3511439 -1.147215 -1.3375338 -0.0075251027 0.060155824 0.37779802 0.1362889 -0.4702744 -0.47297302 0.13740544 0.34372535 0.16747937 1.0193682 0.57545966 -0.42317566 1.7107507 1.3117243 1.016795 -0.042077217 -0.74061733 -0.6565764
888 0.22546968 0.5810385 -0.76875496 -1.241573 -1.5176128 -0.740156 0.12542105 0.49303755 0.37732756 0.7132326 -0.35901177 -0.35668266 0.20158793 0.39250463 -0.43749923 0.4322222 -0.100466125 -0.3918215 -0.68709356 0.5675389 1.4751006 0.46898147 -0.14181423 0.030260732 0.18565018 1.3700527 -0.32294807 0.15577854 -0.91980165 0.5948923 0.20654644 -0.26730147 0.8855456 0.6804397 0.024316967 0.69773036 0.734658 -0.26026273 -0.8057527 0.49435136 0.11330937 -1.4417298 0.29854217 -0.16726802 0.34950006 0.16270806 0.7892041 -0.9323793 0.19156808 -0.30414546 0.25029114 0.8129956 -0.1636794 -0.10210372 -0.9952612 0.6842534 0.542425 0.06379971 -1.2987674 1.0542662 0.3039556 0.55829304 0.3883761 0.16667324 0.15559204 0.12319966 -0.117620096 -0.16740997 0.033915464 0.9568211 1.0493225 1.404907 0.22371875 0.5653693 1.1596296 0.12756832 -0.82678735 0.55077946 1.0112504 -0.06378901 0.38661724 0.25770366 1.4408429 0.061371543 0.7962642 0.07544253 -0.57842535 -0.7529218 -1.2886938 -0.4698668 -0.21758297 -1.2473781 1.0951302 0.24793382 0.5790161 1.0703676 -0.83201134 -0.9208495 -0.60218984 -0.9457109 0.70146644 0.2364946 -0.35654855 0.4692724 -0.6574074 -0.25461048 0.51773113 -0.22755745 -0.17739762 -0.011700987 -0.8232546 -0.64628935 -0.5151156 -0.57537544 -0.16923183 -0.20002192 -1.1352342 -0.085463315 0.45906666 0.8194927 -0.00062072853 1.7031891 0.45923412 0.23126937 -1.0371213 -0.68892795 -0.28777456 -0.05242846
895 0.045445044 0.64954275 -0.5648069 -1.1587708 -1.1095586 -0.48891023 0.5629407 0.31256384 0.5536936 0.79867077 -0.23052873 -0.18864954 0.5481572 0.30082253 -0.8011035 0.46862057 -0.024766421 -0.28962982 -0.5544525 0.5243301 1.2004503 0.57024914 0.06657107 -0.1713358 0.08964527 1.4663728 -0.40179923 -0.05427184 -0.82214063 0.853884 0.49361616 -0.32107309 0.73486894 0.63834965 0.3493367 0.5092428 0.5817112 -0.41020647 -0.84786326 0.23149078 0.08662907 -1.1865942 0.5297495 -0.23479314 0.3763818 0.18687643 0.72299296 -0.9149874 0.002449025 -0.06858619 0.36821923 0.9245832 -0.28705168 0.25060266 -0.77459157 0.61732376 0.510436 -0.1426734 -1.2468685 0.8777224 0.5191774 0.45034093 0.25711685 0.14218429 0.23206657 0.40305483 -0.2902668 0.09292557 -0.14652202 1.09499 0.9813282 1.5319403 0.19786532 0.49545124 1.2196794 0.569827 -0.9503548 0.5653449 1.0503094 0.26614243 0.22454503 0.2063677 1.4697464 -0.011536707 0.7886376 0.3893911 -0.6080866 -0.789838 -1.5156833 -0.33360472 -0.34195352 -1.1908796 1.4850752 0.20956656 0.546912 1.1722759 -0.74011654 -0.6468832 -0.89339995 -0.7221722 0.721375 0.05409074 -0.12264759 0.4726147 -0.8663951 -0.13575552 0.35602352 0.09275183 -0.09256844 -0.22711791 -0.9706837 -0.86261475 -0.48656112 -0.6524114 -0.35453302 0.05603538 -1.0259748 -0.1742269 0.6763997 0.5311599 -0.012720133 1.4812022 0.55727303 0.39207694 -0.87834156 -0.83812654 -0.48975128 -0.02416896
1266 -0.23904845 -0.813504 1.2850081 -0.0629485 0.9846352 1.0548295 -0.27804622 1.0377923 0.25773326 0.8575637 0.24115667 -0.0656661 0.64390033 -0.70714134 -0.16912353 0.21984977 0.2580547 0.6723064 0.052487474 -0.8064673 0.92309034 0.20521097 -0.23079443 -0.4280531 -0.455147 0.41586933 0.86925954 -0.32646808 -1.0128733 0.36654943 0.6143328 0.40319058 0.2769644 0.7647459 -0.15022941 -0.050552376 -0.1596104 -0.4228402 0.19291684 0.24177027 -0.49785054 -1.3999491 0.42650756 -0.10326878 0.49677858 0.20163928 -0.64795566 -1.5114799 -0.395647 -0.49624538 0.400415 0.42997926 0.21540017 -0.5653288 0.2979374 -0.25177 0.09103049 0.2938731 1.0113957 -0.5847828 -0.29586565 -0.2081569 -1.0546062 -0.046383638 0.6017831 0.87780994 -0.58691674 -0.36961427 1.3717746 -0.41198635 0.20729521 0.15512298 -0.8267635 -0.025994094 0.08166355 0.40978047 -2.1385417 -1.2874659 1.3786582 -0.3826256 0.32432714 0.9478249 0.3112917 -1.399779 0.41895446 0.29677796 0.09179927 0.39792982 -1.8488917 -1.020124 0.8411609 -0.4947765 -0.35661158 1.4783074 0.108836085 -0.1373847 0.5536915 0.3118876 -0.11555376 0.46753225 -1.0413077 1.3641105 -0.7996242 0.27992815 -0.8740969 0.45109913 1.2061018 -0.54345655 -0.374032 0.08662462 0.19445543 -0.06042563 -0.040188342 -0.2478116 0.80327535 -0.29828238 -0.82717377 -0.06623973 0.1228138 1.0322907 0.5841667 -0.55497324 -0.43201292 0.9626435 -0.5163369 -1.0373293 0.3952935 -0.36594805
1 0.6438206 1.1082731 -0.84240687 0.06442041 0.72344935 0.40305102 -0.37105727 0.45658833 0.745237 0.30927488 -0.11248775 0.753251 -1.1340734 0.50344896 -0.112816975 -0.107744895 0.72412246 0.13530561 0.7091601 0.63496727 0.48933432 0.50561875 -1.4197866 -0.45568895 0.9395959 2.1214972 0.3114557 1.2460378 0.29279765 0.51492125 0.40781423 0.46950108 0.081534594 0.99896896 0.20856512 -0.8044438 1.2775359 -0.16726755 -0.16792862 -0.7958564 -0.060210478 -0.76754767 0.41003257 -0.30303496 0.48786438 1.0780119 -0.5462945 -0.8472235 0.019959368 -0.27987656 -0.21165918 1.6875904 -0.6405748 0.03343479 0.36021566 0.17361644 0.16048774 -0.24609937 -0.80173796 -0.019387 1.0265617 -0.2418847 1.1340845 0.41878238 -0.05787706 0.32289252 -0.63347185 -0.78929824 -0.42154554 0.83624685 -0.5759687 -0.5338528 0.72287005 0.06149449 0.31343767 0.119515575 -1.7951384 -1.3539346 0.54757583 0.3757157 -0.71332586 -0.5768129 0.447116 -1.8685378 0.0815925 0.3554329 -0.2830509 -0.42919534 -0.7654269 0.11970227 -1.8309436 -0.16365719 0.019707296 -0.60951304 0.6263675 -0.10508782 -0.5500103 1.0445107 -0.31789026 0.45849577 -0.30778986 0.7037643 -0.3666066 0.15586804 0.004189258 0.002222952 -1.146102 0.8606583 0.08326908 0.14748323 -0.5247433 -1.1331637 -0.26076046 0.252286 -0.7711462 0.052554373 0.12424231 -0.87257093 -0.62227917 0.041201625 1.3960313 0.2634559 0.25573513 1.4504128 0.4362607 -0.34371373 -0.40196797 -0.57028764
1267 -0.67540085 -0.7588192 1.1137475 -0.08744481 0.6734572 0.8917138 0.030746847 0.9913143 0.5179029 0.80870444 0.10430223 0.034384426 0.3031481 -0.6466434 -0.026559377 0.1559766 0.26161674 0.7519783 0.21630752 -0.85432243 0.87661046 0.21589597 0.028066507 -0.7017639 -0.44556385 0.29672155 1.086143 -0.41982993 -1.1388997 -0.06247398 0.8443826 0.51559514 0.29135546 0.80066174 0.07816877 0.3741356 -0.11327706 -0.33379522 -0.2278005 0.05571809 -0.4163808 -0.8871239 0.6852632 -0.16088544 0.47210175 0.33004338 -0.20176208 -1.313103 -0.3119727 -0.5521523 0.22334124 0.1842346 0.15089652 -0.75812006 0.26286605 0.16421421 -0.20956181 -0.042600036 0.76060313 -0.45523703 -0.13101342 -0.4065369 -0.8859923 0.33342114 0.6284213 0.8132959 -0.6966677 -0.4408687 1.3993264 -0.37554318 0.15415695 0.31255412 -0.7429791 0.2627062 0.39809865 0.43777114 -1.971826 -1.1539134 1.195718 -0.20441765 0.19836478 0.9825453 -0.06528669 -1.4261167 0.26680818 0.2502408 -0.16718821 0.208355 -1.6145314 -1.003593 0.9550987 -0.19217035 -0.17671876 1.4754188 0.20415257 -0.15998812 0.053812023 0.41668615 0.13794273 0.52079195 -0.6389832 1.3670352 -0.45032325 0.096295364 -1.0145503 0.5569222 1.2737411 -0.591298 -0.10796348 0.07677059 0.011305027 -0.081759214 -0.02165241 -0.10769877 0.77202576 -0.29540077 -1.3533813 0.23394929 0.50320673 1.167017 0.50107855 -0.3363996 -0.3335547 1.0037977 -0.577044 -0.93070805 0.5095493 -0.67117745
2 0.7760209 1.4287356 -1.2162613 0.2371071 0.43720636 0.4962553 -0.36915973 -0.09318445 0.9761807 0.29482013 -0.16226068 0.6070159 -0.86897373 0.5278613 0.006682511 -0.20172308 0.50002736 0.30103546 0.6982652 0.66537386 0.42794886 0.38625154 -1.2396528 -0.51602596 1.0196081 1.8270395 0.08313092 1.0811952 0.72730815 0.51372546 0.4798382 0.32408443 0.027507499 1.0072638 0.2316584 -0.4358004 1.1996068 -0.07385209 -0.3001069 -0.71941906 -0.3811201 -0.50743794 0.61338234 -0.3603835 0.6186239 0.99397653 -0.8412147 -0.57774335 -0.14681639 0.04810476 -0.31479147 1.4801639 -0.49932632 -0.080550656 0.39824447 0.3390446 0.1449117 -0.07502054 -0.78824234 -0.17955436 0.97201025 -0.2739242 1.294164 0.2764463 -0.19096982 0.49589863 -0.5897299 -0.63064075 -0.1946163 0.56182694 -0.66849256 -0.39808354 0.9508205 0.27572462 0.14110304 0.27632093 -1.6331826 -1.1990805 0.73053485 -0.107298605 -0.6019166 -0.7488711 0.9413968 -1.6811334 0.29104787 0.00694075 -0.4369255 -0.35945705 -0.6576065 0.053732034 -1.5014998 -0.29585057 0.05655026 -0.94567263 0.69212127 -0.48370004 -0.6042579 1.4469777 -0.538135 0.7154767 -0.18536174 0.7111279 -0.5217267 0.2161419 -0.19807093 0.0798175 -0.9632268 0.96032304 -0.16613689 0.0647908 -0.8253587 -1.1648599 -0.117758185 -0.02664083 -0.70963645 -0.017132185 0.3478745 -0.47135046 -0.3631046 -0.062169544 1.2654676 0.3456942 -0.0052799988 1.4404956 0.50380945 -0.16948064 -0.28322136 -0.51451397
990 -0.09993246 -0.20659067 -0.38600755 0.6555728 0.55257857 -0.75583076 -0.30439427 0.26497155 0.26358798 -0.6025905 -0.96669185 -0.4432727 0.3760472 1.4310712 -1.1941142 1.2056246 0.5866448 -0.14494686 -0.42094865 -0.2189115 -0.7362023 1.0130767 -0.57941747 -0.48007983 -0.3096303 -0.2979257 0.5473203 0.973807 -0.30606288 -0.18846504 -0.2681954 0.8770117 -0.22545214 -0.1646388 1.4760749 -0.12213938 0.5855217 0.08228028 -0.09156876 -0.7504977 -0.5992133 -0.8301609 0.14445199 1.140821 -0.31900033 0.65362644 -0.53686106 -1.3415151 0.07445837 -0.9228074 0.9971117 -0.5415745 -0.85181487 0.11375936 0.30621228 -0.6126009 0.3333491 -1.0786281 -0.2504846 -0.16111614 -0.5177545 -0.5874234 0.45920306 -0.34333867 -0.20728837 -0.047569774 -0.72299784 -0.8751637 1.079588 0.03817924 0.11069304 -0.4850382 0.6573682 -0.06153012 0.63831806 -0.06322668 0.19645968 -0.2177417 0.8549243 -0.9589646 1.113474 -0.23370473 0.183125 -0.63307923 -0.28223452 -0.43009183 -1.0619347 0.88213015 -0.5184357 -0.89902544 0.358424 -0.22570246 -0.4554509 -1.3998184 0.16965014 0.2248081 -0.6878551 -0.1458763 -1.1283938 0.85208064 -0.37531698 1.1526359 0.12639129 0.67786294 -0.3106373 -0.81585884 -0.37808356 -0.6460052 -0.3070891 -0.24239932 -1.8406978 -0.025862632 0.5134798 -0.7293692 -1.3379749 0.9011734 -0.088922024 0.149812 -0.79661393 0.046559792 0.49083722 -0.57554704 -0.7843667 0.27651033 0.65336573 -1.2760848 -1.5497361 -0.72315556
1265 -0.2801011 -0.81960976 0.8758649 -0.22009496 0.92028797 0.9383071 -0.12005719 1.2771935 0.46222156 1.0542021 -0.12965044 0.12841652 0.30422416 -0.69336814 -0.0758866 0.36752006 0.08868336 0.7239462 -0.06040145 -0.7729438 0.604045 0.2826802 0.33263206 -0.44268465 -0.45187637 0.20488708 1.3544115 -0.20309192 -0.76130176 0.114156716 0.6365061 0.28966764 0.14805204 0.89259225 -0.037296858 -0.085657716 0.062104113 -0.5104999 0.053598292 0.18471332 -0.30641776 -1.2457838 0.42802668 -0.048577275 0.41948014 0.16498262 -0.5254281 -1.4283204 -0.3513623 -0.45564193 0.054994095 0.19343178 0.22469664 -1.0014794 0.5186044 0.2120472 0.11473017 -0.25105128 0.8372832 -0.76539785 0.1817883 -0.16816755 -0.89529777 0.37336323 0.24473165 0.76059806 -0.61927617 -0.3323782 1.5177884 -0.08233156 0.298168 0.4291185 -0.5963001 -0.06474058 0.044895228 0.21380864 -1.8254039 -1.3331454 1.3043321 0.033289604 0.5819487 1.018033 0.29285342 -1.4311194 0.42347708 -0.08312791 0.15690418 0.63650197 -1.6286347 -0.8829739 0.6941358 -0.30735278 -0.2753289 1.5226798 0.051308256 -0.17562538 0.5424629 0.4624555 0.020513983 0.38524953 -0.41083896 1.3868028 -0.5036596 -0.0986724 -1.0764072 0.78416735 1.0647817 -0.26619625 -0.13919292 0.17022449 0.089160144 -0.07046229 0.14667512 -0.11349567 0.9570893 -0.11439505 -1.0905545 0.023827383 0.38453132 1.149604 0.5358457 -0.036168464 -0.5381782 1.1159829 -0.7710171 -1.0782065 0.6915087 -0.6205472
665 -0.74512005 -0.52016157 0.19069748 -0.3937641 1.3574836 0.502077 1.6107523 0.82427835 0.47575 1.0506772 -0.22264782 -0.7685911 -0.013576557 -0.64846885 0.09486293 -0.061855122 0.7781949 0.26274115 -0.18160428 -0.06425633 0.9129254 0.22286436 -0.30826074 -1.2999943 0.43547243 0.72615606 1.2623935 0.010319968 0.16151212 -0.45885018 0.24216929 0.7710819 0.35927516 0.092030324 0.9620609 -0.34613678 -0.2161666 0.19799204 0.021410191 -0.41913736 0.35406977 0.064333744 -0.29826352 0.32388175 0.07257871 0.13609941 0.80741566 -0.44133908 -0.25707272 0.44483352 0.5937782 -0.2640958 -1.6854405 -0.77413124 -0.48184547 0.9466662 0.08116515 -0.14274411 -0.66280603 -0.33909062 0.4423027 -0.061394617 0.4481369 -0.6484447 0.19607013 -0.748082 -1.6514884 -0.7801585 0.5682749 0.21693115 -0.72227514 0.9465204 0.02330891 0.043516915 0.9609755 1.1579502 -0.37045637 -0.5074143 0.49216232 0.8571435 0.07945291 -0.5393056 -0.081441715 -0.8696688 -0.30578548 -0.15393655 0.099022195 0.5537222 -0.9884784 -0.35578328 0.3009945 -0.505304 -0.16442145 0.75971764 -0.5787136 0.612056 0.54645866 0.22518434 -0.38353872 0.44217724 -0.72375405 0.4800781 -0.53749245 -0.09916277 -1.4410312 1.504268 -0.23908384 0.2945146 -1.1904356 -1.584409 -0.15624008 0.038350202 0.27593488 -0.043239154 -0.6420496 -0.48984063 0.13465181 0.58901423 0.288 0.7776497 0.3707482 -0.3168564 1.9147396 1.1379098 0.94796234 -0.20004319 -1.0716332 -0.6337944
889 -0.013865499 0.7347415 -0.75204843 -0.9688101 -1.3361771 -0.48210523 0.15741628 0.12976359 0.48564076 0.47377145 -0.42627642 -0.6876578 0.05828786 0.06059612 -0.7087601 0.5569025 0.008576098 -0.01292453 -0.574081 0.2893446 1.1559663 0.37103134 -0.2520993 -0.22662719 -0.10561835 0.9172231 -0.539409 0.060832325 -0.518971 0.15252559 0.4155163 -0.19547279 0.68000865 0.9684608 -0.23680611 0.8315949 0.83684117 -0.2911976 -0.69061863 0.49977353 0.24702355 -1.0927478 0.21437135 0.19140872 0.47566152 0.073646635 0.3324688 -0.5134356 0.27273166 -0.0090373205 -0.044551607 0.9515257 -0.31784365 0.2814365 -0.8347711 0.7322642 0.6012891 0.029205402 -1.4757731 0.8901517 0.36387283 0.22172093 -0.021381745 0.07320186 0.4233414 0.004540448 -0.27924594 -0.20918222 0.22022358 1.1576356 1.0016617 1.4709289 -0.059345916 0.14206621 1.203837 0.04354822 -1.1209207 0.82847625 1.2572516 -0.19831632 0.23648202 0.48990095 1.2545996 0.15582222 0.68514216 0.09226731 -1.0936729 -0.42594403 -0.7902434 -0.15619954 -0.21442385 -1.1560881 1.0058241 0.23081769 0.67523265 1.0950719 -0.660335 -0.7192464 -0.20114727 -0.6051777 0.9216235 0.020834157 0.009623832 0.58244455 -1.2124224 -0.5302061 0.31692454 -0.33135188 -0.06297208 -0.21737291 -0.72813964 -0.42611134 -0.009735918 -0.89544666 0.105201274 -0.042359468 -1.3787998 -0.3613141 0.46861547 0.8934937 0.14863569 1.807794 0.29019922 0.19398797 -0.65374583 -0.5128233 -0.05436258 0.19249389
322 -0.8830543 1.1498381 -0.19220024 0.07579109 -0.14777671 1.2402391 -0.0072117737 -0.296763 -1.2809017 0.9558333 0.06579335 -0.6124081 0.12261068 0.92057097 0.99472576 0.43761024 1.3595287 0.5842033 -0.18112552 -0.11379021 -0.1450142 0.11674715 -0.40080613 -2.0286815 -0.67061746 1.0443176 1.0541416 0.5793199 0.2703971 -0.7808611 0.20002872 0.032555543 1.0876874 0.541786 1.5321207 -0.6028668 0.5234763 0.08599375 0.3703422 -0.8386157 0.43821654 0.5878736 -0.6171445 1.0976796 0.08668348 0.2875573 -0.5123027 -0.0066530798 0.1417737 -0.035631005 -0.2247584 0.22688168 -0.5336561 0.382133 -1.127232 -0.4153063 0.56854063 1.158552 0.15730506 0.92930526 1.0333743 0.5652449 -0.02030055 0.51681 0.03520764 0.23758723 -0.11286711 -0.7014665 1.0446668 -0.57950056 1.041855 0.32106072 -0.7201475 0.25536376 -0.79314417 0.77716964 -0.43132922 -0.33974233 0.39473525 0.19126485 0.3872231 0.8797015 -0.6902052 -0.24889255 -0.5913003 1.0245842 -0.23430482 0.82535857 -1.01869 -0.7459276 0.09200113 0.41436937 0.1364978 0.35645518 0.8160919 0.6603626 -0.43998876 -0.26977047 -0.3517661 -0.41367558 -0.4387398 -0.44370311 -0.54060805 -0.80615216 -1.1928699 -1.0464977 0.10040042 0.28446135 -0.12001436 0.38669124 -0.24647628 -0.16841665 0.18551339 0.38487 -0.79476166 0.31435898 -0.9471227 0.80753094 0.7922342 0.20578909 -0.21765551 0.01647209 0.9972103 1.5855422 0.020247644 -0.2775952 -0.4049989 -0.3525778
666 -0.5985348 -0.51037985 -0.07532025 -0.41083995 1.5048897 0.76791304 1.2189265 1.0233269 0.75043845 1.0586336 -0.14586754 -0.7928361 -0.10198835 -0.6453847 0.19052432 -0.25389463 0.49807608 0.15393603 -0.5442784 0.27447182 0.92739326 0.028686097 -0.47457024 -1.5275651 0.43262294 0.6174012 1.2520232 -0.08182327 0.10983857 -0.32616428 0.00023871638 0.7868831 0.20616306 -0.28327882 0.93512356 -0.15557098 -0.0704815 0.29602915 0.09827342 -0.3539167 -0.066687346 -0.34616283 -0.17191562 0.42772245 0.44755167 0.15176 0.5693912 -0.12694158 -0.080554366 0.42490852 0.4259946 -0.414422 -1.4312327 -1.2450161 -0.8467387 0.91408473 0.17093581 -0.2918598 -1.1481211 -0.2744517 0.6681305 0.1398904 0.18308671 -0.7430684 0.31560043 -0.7758444 -1.6740172 -1.3124686 0.6766824 0.29227173 -0.760324 1.1797993 0.13073613 -0.035488363 0.87642014 1.0816214 -0.486744 -0.55747074 0.7173674 0.5238548 0.58061576 -0.8778643 0.008671407 -0.824948 -0.88135314 -0.5920983 -0.019854363 0.82624245 -1.3122764 -0.44870117 -0.103020966 -0.4183083 -0.30634484 0.6343578 -0.14093862 0.6162178 0.055107776 -0.024395706 -0.25303426 0.19535916 -0.50114316 0.61861956 -0.71134377 -0.22840817 -1.7380351 1.2505527 -0.22720018 0.45410585 -1.1958101 -1.4723265 -0.3427082 -0.12055866 0.11064862 0.34453547 -0.578197 -0.5489958 -0.08871494 0.8404178 0.1878149 1.0676444 0.46233317 -0.07135103 1.7954925 0.803509 1.2814918 -0.15384541 -1.0008421 -0.87457985
698 -0.25518215 -0.474781 0.28487062 -0.6848287 0.8499659 0.26204214 0.1323446 -1.4074163 -0.74663 0.9821768 -0.06916166 -0.13420472 1.0270041 -0.4920331 -0.49767727 -0.55720925 -0.36262262 1.3081591 -0.9780153 -0.62040955 -0.18701972 -1.4636229 -0.54193646 0.010598877 -0.5451412 1.6975452 1.2531815 1.1713605 -0.06928561 -0.04274559 -1.1387023 -0.78315294 -0.011190227 0.30898476 0.31515184 -0.14986378 -0.12371967 0.5682645 0.2976534 -0.9144746 1.3922294 -0.065014735 -0.34548742 0.24316685 0.8007384 -0.028878845 -1.1907305 -0.025221705 -0.6110509 0.60635597 0.4005097 0.4682437 -0.1778617 -0.10547272 0.9153874 0.04692345 1.231953 -0.77886075 0.06276407 -0.8309874 0.74192387 -0.22374037 0.13919716 0.16646117 0.9739248 0.67505103 -1.5129374 0.49428764 0.23304984 0.46836802 0.22450738 0.3321175 -0.12518941 0.62629706 0.47592574 -0.22758973 -0.83790576 -1.0537302 -0.26394942 1.0556494 -0.56420654 -0.31641483 0.16406995 0.46412894 0.30795464 -0.39726338 -0.828949 -0.60634 -1.8161743 -0.007800019 0.63433653 1.0744106 -0.4820541 -0.4566294 0.7569485 0.5781773 -0.05271256 1.6815265 -0.84028333 -1.0464572 -0.46066195 -0.27578366 0.33395338 -0.2910082 0.30248863 -0.12744159 0.8178619 -0.15264747 0.39797503 0.13867785 -0.03078805 -0.7523278 -0.0015981143 0.75428104 -1.133293 -0.40148908 -0.87756276 1.0920304 0.1485994 1.3015801 0.070931 0.63406974 0.41031083 0.6799731 0.27572778 0.31748372 -0.39229822 -0.7768456
896 -0.027764523 0.79188615 -0.44445565 -1.0575225 -1.1072154 -0.23040833 0.70604914 0.08185861 0.7298662 0.5847675 -0.35970625 -0.45520067 0.4616399 -0.0028700645 -1.0298126 0.5479626 0.03464722 0.040926512 -0.47558543 0.365425 1.1479784 0.51931256 0.22054298 -0.26772904 0.06707046 1.1384523 -0.70599896 -0.07563576 -0.51049185 0.5566783 0.7038528 -0.49210727 0.68001646 0.8182578 0.07160101 0.66413665 0.5430988 -0.5654165 -0.86072636 0.42314774 0.22475095 -1.1485004 0.40392938 -0.021282949 0.5370386 0.15106915 0.52181464 -0.63004655 0.1374811 0.22983935 0.1286977 1.1893436 -0.31253284 0.6659882 -0.7625597 0.70454335 0.66278 -0.24940671 -1.3394643 0.74532646 0.5817867 0.14705779 0.017322103 -0.00030026742 0.32562283 0.2838811 -0.17742497 0.17885171 0.07317417 1.3246349 1.0120664 1.6413143 -0.13559586 0.31094792 1.2358198 0.63400584 -1.162838 0.87468576 1.2255691 0.2725008 0.23409155 0.290535 1.507701 0.08991835 0.8323857 0.27976865 -1.106868 -0.53341115 -1.2546269 -0.2112767 -0.2554853 -1.2638174 1.6433685 0.21336278 0.6651211 1.2262611 -0.70377356 -0.5934562 -0.5092137 -0.63622457 0.96156883 -0.2352764 0.086621314 0.5339084 -1.2597203 -0.34395623 0.059090976 0.023599567 0.005243675 -0.44064543 -0.9241117 -0.7812058 -0.25763744 -1.0589904 -0.14694181 0.2025563 -1.069306 -0.47859648 0.775256 0.5215226 0.08427222 1.70066 0.4481901 0.28691477 -0.5251247 -0.8831987 -0.39993697 0.18408556
664 -0.3123195 -0.6202832 0.22022635 -0.09393993 1.5351294 0.8444093 1.6595795 0.825032 0.5555236 1.1339582 -0.28322768 -0.8648092 0.12606749 -0.47512394 0.05544928 -0.10547534 0.28920183 0.16673177 -0.13498066 0.2432179 0.9328992 0.043752987 -0.31701368 -1.3296388 0.05134165 0.6915662 1.137047 -0.17900074 0.1267297 -0.21533914 0.10315367 0.86560905 0.06780646 -0.01737131 0.6991855 0.011552292 -0.39744398 0.32348022 0.24396807 -0.5278221 0.028977882 -0.014409632 -0.05877819 0.23617108 0.16806915 0.04430058 0.76165247 -0.21614411 -0.35607588 0.5638789 0.5938537 -0.08102038 -1.4038256 -0.5090397 -0.48630488 0.5878845 -0.02847509 -0.32577586 -0.5721738 -0.5839985 0.20270552 -0.11216476 0.2606719 -0.86480755 0.5359858 -0.55894464 -2.021489 -0.7457697 0.3763966 -0.10552341 -0.87509996 1.1031895 0.04536717 0.047544368 0.77893597 1.4758345 -0.62693256 -0.43171218 0.94311655 0.6061389 0.22499505 -0.40989918 -0.25961718 -0.7163879 -0.36889535 -0.0169869 -0.0023259167 0.5045873 -1.1358546 -0.28678122 0.067297265 -0.66099024 -0.1508604 0.90486443 -0.42485437 0.7625518 0.35950005 0.06560805 -0.48896205 0.3468644 -0.5736863 0.4416028 -0.2070487 -0.22288042 -1.5975908 1.0808676 -0.2079814 0.32134333 -1.0155542 -1.6018826 -0.40909648 -0.15839605 0.103640266 0.04272872 -0.7436577 -0.4911543 -0.28068522 1.1206038 0.27788553 0.4750882 0.29447117 0.11577286 1.8119899 0.70299745 1.0016012 -0.44970444 -1.1235816 -0.71189624
1799 0.6658417 0.20862295 0.81820107 0.6953722 0.0331723 -1.3172475 -0.06288482 0.65059674 0.90158916 -0.6370843 -0.22096367 0.5401416 -0.51005876 1.1380894 0.7510925 0.9321464 0.86271155 1.4806488 -1.4229602 -0.16930255 0.03041342 0.6411058 0.31651366 -2.7667723 -0.70689297 0.32855693 -0.3015791 0.54065955 -0.04662622 -0.47785023 0.42548704 0.08823202 0.640213 -0.12104647 -0.058274463 -0.78600556 0.06014471 0.0027843092 1.0780746 -0.56525695 -1.1356388 0.61866564 0.0042132773 -0.26852998 1.5212471 0.93038404 -1.7133404 -0.59659046 1.18761 -0.2926381 0.4394836 0.16816817 0.43686885 -0.8259481 -0.49292648 -0.23398861 0.50596535 0.5432674 -1.8241214 0.23250268 -0.28183252 1.056698 0.2869459 -0.3055948 0.12212749 0.09853055 -1.3235931 0.36236992 0.38983455 0.27321166 -0.21354656 -0.19655421 0.83905 0.72546244 0.7724706 -0.3997841 -0.29047146 -0.06502062 -0.11828458 -0.0765096 -0.22850884 0.4166333 0.82914716 -0.8001829 0.6089261 -1.0824792 -0.73025656 0.14556548 -0.9214623 -0.06682435 0.7458855 -0.6311677 0.5450017 -0.8787525 -0.026284765 -0.70647717 -0.09561535 -0.17139266 0.3510258 -0.26602364 0.34052932 -0.27544883 -0.03598304 -0.4479809 0.123437 1.1127821 0.37376237 0.35685956 1.0074459 -0.00461367 -0.40362477 -0.11999323 0.052965045 0.6974934 -0.21322134 0.22397397 -0.5251403 -0.64772654 -0.6272496 -0.33085346 0.85648227 0.24585517 -0.38537362 0.6077078 -0.40087968 0.20540631 -0.97091395 0.3528347
1985 -0.97433114 0.23990275 -1.0298537 -1.5628403 0.34797788 -1.1324525 0.26081333 -0.5674689 -0.83870924 0.8803325 0.9958886 -0.5298788 -1.0059074 -0.018743837 0.68268126 0.0077730315 0.36463138 1.5017221 -0.18086137 -0.9888537 0.26308584 0.0787419 -0.27000117 -1.0086559 -0.5380596 -0.030375976 -1.0941713 0.35850433 0.4230097 0.3178534 -1.2391 0.019822136 0.6563933 0.1392598 0.46927857 0.5509097 0.16862042 -1.0219303 0.3612842 0.07102764 0.8934336 -0.32455152 -0.16766755 0.7783742 -0.511272 1.0669188 -0.5480748 -0.2956663 -0.9330651 -0.7591224 1.0440809 0.22720593 0.2743777 0.42642313 0.41973054 0.2657554 -0.47658646 -0.6861913 -0.6019844 0.46744195 -1.2192503 0.3722233 0.5962393 0.71518594 -0.08876563 -1.2956629 -0.23739956 -0.69789445 0.2870471 0.13092762 -0.83270717 -0.14187299 -0.01332782 -1.1596414 0.26691744 0.6646069 -0.38194993 -1.4906663 0.7853998 -0.18894194 0.07980989 0.06830144 -0.59244597 -1.4821149 -0.24821953 -0.3998601 -0.22453399 -0.7960305 -0.42220676 -1.5849469 0.7138049 0.15979496 -0.50476253 -0.18688117 0.005034299 -0.07050951 1.1184121 1.452968 -0.8690666 0.026047906 0.37145814 -0.6711203 -0.92006105 0.6467024 -1.5520833 0.34660074 1.090372 -0.696415 1.0892582 -0.9821121 -0.40682924 -1.2123504 -0.8632053 0.36323118 -0.44567734 0.1898605 -0.65383184 0.074497886 0.167635 0.32709286 0.71493554 -0.40559715 -0.28882763 0.6837911 -0.22324303 0.45296603 -1.4235699 -0.48007435
1157 -0.33664107 0.9521293 -0.51164776 0.31303284 0.4593046 -1.0478354 0.6415408 -0.045137156 0.65634125 1.3808094 0.32740644 -1.3471338 0.407485 -0.7180053 -0.012126061 -0.03271963 0.20284833 -0.3447778 -0.010351059 0.63836443 0.18791202 0.6824666 0.5478534 0.07387968 -0.38444638 1.4776381 -0.075576395 1.496054 -0.93164605 -0.6322225 -0.6374261 0.3765148 1.1473215 -0.27989548 -0.49297774 1.188734 -0.091902204 0.65098524 -0.28120714 -0.7690525 -0.30178207 0.011011601 0.24468958 1.2441795 -0.80285263 -0.6437432 -1.0298477 -0.2675296 0.34591043 -0.12046493 0.22005005 -0.27901188 0.40922874 -0.3883704 -0.43284112 -0.19310158 0.9120853 0.46087304 -0.90577394 0.92078614 -0.020376638 -0.7628446 -1.2470598 0.53369254 0.060558476 -0.20143272 0.14663061 0.84238756 0.43850058 0.67377186 0.52656686 -0.38455993 0.9967866 0.84675276 -0.3179897 -0.01924139 0.2243666 -0.6933634 1.211362 -0.4833292 0.45666605 -0.46773356 0.047505185 0.16841286 0.7076122 1.1269159 0.5839694 0.119061045 -1.2328757 -0.4538619 0.1011577 0.37409273 -0.78739494 0.05583234 0.793092 -0.46158078 0.46730798 0.29834622 -0.1819738 1.7302024 -0.19102873 -0.5755838 0.062773384 0.13214977 -1.450458 -0.8457411 -0.21571094 0.77255183 0.12488955 0.48334828 -0.0028868052 -1.8162224 1.291663 -0.6932948 0.22972359 0.24750143 -0.54094684 0.3716069 0.6200344 0.8635429 1.9443579 0.3716437 -0.1493834 0.7987687 -0.17247583 -0.51356906 -0.88155025 -0.23890445
324 -0.6619329 1.0063002 -0.20305729 0.052255407 -0.5077372 1.0710598 -0.28610802 0.51308197 -0.74996066 0.81128 0.030985998 -0.6514739 -0.31959876 1.2064139 0.9948167 0.1697566 1.4188118 0.6461591 0.000102014994 -0.09942504 0.2214943 -0.022207797 -0.4876922 -1.663056 -0.778044 0.95342356 1.3658798 0.5574988 0.24456923 -0.49289462 0.21603847 0.47353938 0.9069205 0.775914 1.457851 -0.5319928 0.7282015 -0.25237468 0.43190476 -0.65734893 0.5032923 0.31943747 -0.37190914 1.2004514 0.05305821 0.6905285 -0.1596682 0.056726903 0.043779604 0.45029998 0.06499266 0.08604164 -0.4843194 0.2768812 -0.95448726 -0.47111022 0.51033056 1.5393255 0.49131364 0.820571 0.88216525 0.8610806 -0.21157935 0.9749141 -0.3187042 0.069022425 -0.19689712 -1.0378509 0.9532767 -0.5529243 0.8179418 0.44450507 -0.045825742 0.20224474 -0.8783248 0.5083178 -0.67570984 -0.3658039 0.4638515 0.26777035 0.31126118 0.90755874 -1.1750317 -0.26142788 -0.5112185 0.7226088 0.1121405 0.57866585 -1.0218326 -0.27763298 -0.1301611 0.28615475 0.229977 0.7508127 0.6619186 0.79659766 -0.3537637 -0.43145388 -0.46381208 -0.08448936 -0.34436643 -1.0492133 -0.38261622 -0.7479435 -1.1525854 -1.3549985 0.23996873 0.39076057 -0.13349493 0.20125061 -0.157831 -0.043302108 -0.08363896 0.35672918 -0.68643653 -0.04470007 -0.89964336 0.42658415 1.0537226 0.26587638 0.26583448 0.19019796 1.0066931 1.1208216 0.25301954 -0.1680178 -0.41854146 -0.70200413
323 -0.7191752 0.9882092 -0.45832148 0.044958085 -0.51441187 1.1570994 0.0006167427 0.025453828 -0.999494 0.96411633 0.01421282 -0.7517351 -0.059387457 1.0366869 1.17566 0.24966782 1.1928569 0.7140257 -0.04401388 -0.21105972 0.36894268 -0.17809507 -0.533939 -1.5695953 -0.9975714 1.0633979 1.0002457 0.6107856 0.44866952 -0.7309756 0.26293683 -0.091299444 1.227116 0.76376116 1.5552179 -0.59712166 0.8386461 -0.15342169 0.2494321 -0.6281337 0.5574143 0.15589754 -0.5412981 0.9987296 -0.19177349 0.42478785 -0.34843877 0.103189036 0.12687209 0.41190815 -0.14680704 0.039326616 -0.5209115 0.35593426 -1.222927 -0.5260813 0.80160683 1.5314196 0.52354413 1.098943 0.95548683 0.72271967 -0.07455883 0.71425456 -0.09765775 0.070686266 -0.40145513 -0.9174549 0.99728113 -0.6321551 0.6415205 0.37571147 -0.48667356 0.35120028 -0.85164416 0.5563297 -0.7706539 -0.22921956 0.54392636 0.51398623 0.30526128 1.033782 -1.1805624 -0.4575628 -0.63247705 0.78869146 -0.08451095 0.570758 -0.7119705 -0.38560018 0.105400585 0.3710091 0.2963109 0.44366643 0.6237683 0.95301646 -0.20835684 -0.09718965 -0.3968365 -0.16882537 -0.28167483 -0.6683575 -0.42121965 -0.66242945 -1.3397044 -1.1004707 0.06808485 0.3143683 -0.0910273 0.25158083 -0.04276615 -0.22775212 -0.04491653 0.25247478 -0.80463296 0.16607395 -0.76913464 0.63038814 0.7738983 0.51404804 0.10017723 0.007901038 1.1739706 1.4358552 0.28580448 -0.15484846 -0.38240626 -0.4964097
423 0.14864065 1.2522967 0.8170483 0.14010385 -0.5665043 0.07617214 -0.4413049 -0.35541517 0.089160495 -0.36823168 -0.21889912 -0.8027357 0.73300683 -0.48037738 -0.19634834 0.5564376 0.3202831 1.536072 -0.06589752 1.0650376 0.93961424 0.46855536 -0.7137053 -0.16438897 -1.3920591 -0.28879708 0.46614972 -0.10787228 -0.3623405 0.23776615 -0.87364817 -0.2606313 0.2507147 -0.014557552 0.44147152 1.1309029 -0.056022506 1.0548811 0.53075033 0.2866705 -0.8347656 -0.84463835 -0.18741523 0.6212459 0.8193016 -0.3451509 0.094104216 -0.8211424 0.22573651 -1.3996131 0.15311465 0.95651156 -0.39654586 0.44940585 0.7935628 -0.29775798 0.81759155 -0.11019908 -0.6411448 0.5344358 0.4580834 0.45831782 0.4430182 -0.31081048 0.0984776 -0.38111627 -0.33256376 -0.21519578 0.5028274 0.46764842 0.05941812 0.59249586 -0.8336136 0.74980974 0.48602602 1.6623402 -0.34071964 -0.52384764 0.07995363 -0.2988197 0.38572264 1.0917604 0.9039693 -0.2918803 -0.03721524 1.1224847 0.12440081 0.07645516 -1.3922281 0.6340726 -0.15546912 0.19115214 -0.1073708 0.5895337 0.1926745 -0.020049287 -0.40828797 1.1616064 -0.2539766 0.24898608 0.44331115 0.29770973 -0.38507047 0.36937848 -1.4110957 0.021547206 0.24516675 0.03526203 0.49114037 -0.28311262 1.367251 -0.43839136 0.49269307 -0.45080662 -0.8662233 0.8356549 -1.0517637 2.2434695 -0.17224158 1.4914632 -0.5858095 0.037788767 -1.6711087 0.29965785 -0.120643795 -0.2846781 -0.57769346 0.07121505
1207 0.51258403 0.74557173 1.3794965 -1.056504 -0.30734006 -0.35879862 -0.43791142 -1.7145494 -0.35245964 0.13808227 -0.13350357 -0.25123546 -0.85670906 1.3400989 -0.9008546 0.6479659 0.61690855 0.9366285 0.48379162 -0.5064251 0.867567 0.15518376 -0.4296212 -0.99127024 -0.41294956 0.021747291 -0.092357494 0.24576735 0.14405811 -0.37360102 -0.34257206 -0.54911613 -0.31982836 0.92249656 1.0656425 0.0118264565 0.7192213 0.2909103 -0.59950554 0.51221085 0.35203725 0.022719337 -0.011351093 -1.0032411 0.5114189 0.31403798 -0.4131201 1.0288376 -0.4197409 0.5984489 -0.01192003 0.71571285 -0.0913465 -0.3782952 -0.32219395 0.15676975 -0.15267417 -0.3188022 -1.0092208 -0.7942623 -0.14000994 -0.69330704 0.15283799 0.8477901 0.082364336 -0.04334819 -1.4079374 -0.92616385 0.3983127 0.20696102 0.052338 0.26481873 0.46096504 0.44343597 0.5040875 1.1250433 -0.28088465 -1.5534339 -0.6893344 -0.08632314 0.58608836 0.71630645 0.29349086 -0.23881201 -0.56984645 -1.8804313 -2.123661 1.0347569 -0.009144646 -1.0833659 0.55382544 -0.03687758 -0.77002096 -0.06723812 1.0108435 -0.47638896 0.59349525 0.42279753 -0.57862544 0.6973794 0.6094368 -0.016925147 0.89050376 -0.17025223 -0.6437262 1.1790643 -0.8277985 0.8057251 0.24982248 -1.0135281 0.31391776 -0.0443437 -0.80921394 0.26087362 0.18972117 1.2312568 -1.4056389 0.31710875 0.22225675 1.0707299 0.4079606 0.7964458 -0.28224668 0.11136737 0.6163193 -0.039221074 -0.6125516 -0.6050108
1259 -0.11719196 -0.65848166 0.989758 0.016799122 1.1411221 0.88952714 -0.31489626 1.0935113 0.48833755 0.9178961 0.0043902635 0.115457036 0.58815444 -0.8714621 -0.07106065 0.28821328 0.26544046 0.8560819 0.024570704 -1.0653706 0.777113 0.19773258 -0.13813794 -0.7440922 -0.30855668 0.61560374 0.85365 -0.19066985 -0.5982122 0.5490813 0.57659435 0.5694355 0.21887287 0.69959325 0.0045753364 0.021672389 -0.029773178 -0.62415916 0.07325664 0.036008686 -0.4400212 -1.7830932 0.57207185 -0.027703997 0.5008303 -0.191931 -0.8109511 -1.2749054 -0.2552831 -0.5260802 0.25031945 0.35845467 0.17742646 -0.8020302 0.15764491 -0.1029555 0.18764275 0.10762544 1.2075248 -0.7104582 -0.63098985 -0.27561986 -0.93907523 -0.21590178 0.4504321 0.9527598 -0.57779765 -0.5004785 1.1972736 -0.22733104 0.32095796 0.33929446 -0.73472583 -0.0050707688 0.032492477 0.05633288 -2.1045554 -1.3045722 1.3872223 0.12468756 0.43392584 0.8277654 0.39424795 -1.346769 0.29089996 0.079529546 0.17137964 0.5485193 -1.763221 -1.2188369 0.99823123 -0.3585065 -0.37518954 1.3670475 -0.1464225 -0.06929403 0.59098876 0.5670312 -0.21619569 0.16535027 -0.6061288 1.2824833 -0.81154543 -0.06513849 -1.2517045 0.7465548 0.9583271 -0.32530296 -0.1266453 0.10805364 0.25655395 0.024413643 -0.054209154 -0.22227983 0.81455696 -0.20582893 -1.060646 -0.22902358 0.050721485 1.0704519 0.9302376 -0.45892042 -0.7466703 1.1144639 -0.73540735 -0.96958953 0.5224737 -0.2874527
1026 -0.5889714 0.803657 0.47517943 -0.85067374 -0.5482982 -0.07505105 -0.7988822 0.16621834 0.1072694 -0.20885123 0.66846126 -0.48820502 -0.11158152 -0.59471774 -1.0200859 1.1261754 0.090483874 1.5061263 -0.43388185 -1.5711943 0.41028747 1.028682 -0.46967784 0.67088276 -0.29233545 0.572296 0.46864635 0.9432003 -0.70423746 0.6245274 -0.09336302 1.0765688 1.3637165 1.203556 0.48696414 0.3902406 0.70760196 -0.6125518 0.8475329 -0.38328153 0.7253495 -0.96894044 -0.83293045 0.973456 1.0326334 0.017128082 0.10359807 0.31482342 1.0686471 -1.0299519 0.6443423 0.7541106 0.73078156 -1.1229823 0.47535968 0.119741164 0.7404148 0.014756769 -0.688409 -0.1265029 -0.33013874 -0.84776914 0.32355756 0.62972754 -0.2191972 0.6666936 -0.41038674 0.7836616 0.25341776 -0.83102393 1.573435 0.017757112 0.7643463 -0.27184233 0.81103003 1.4146502 0.023845252 -0.18466401 0.14688368 0.39390415 -1.1288762 -0.9983874 1.365062 -0.83319813 1.0776224 0.2678713 -0.45464832 0.13374104 -0.1526377 -0.37043047 -0.89484924 0.4888544 -0.3299351 -0.1446514 0.6996333 -0.51725507 1.0186505 0.54860705 0.15697563 0.44544217 -0.7785285 -0.5683372 0.04059198 -0.22336984 -0.7747415 0.3952941 -0.17440407 0.04221336 0.08590907 0.86081845 0.11485906 0.38834566 0.85781384 -0.59278584 -0.04803786 0.97005516 -0.27439958 0.92424643 -0.6460353 0.3927099 1.03689 0.22400257 -0.06359849 1.8600264 -0.68695945 0.69945407 -1.2194294 0.4382315
558 0.019373883 0.5584878 -1.2718312 -0.6190343 0.4811616 -0.6318876 -1.3005536 0.53773993 0.15511268 1.4804534 -1.3043265 -0.24950807 -0.6218232 0.11212594 0.23420338 0.26006418 0.56843626 -0.06504401 -0.71258587 -1.2693635 -0.20490594 0.45306575 -0.08830669 -0.3233632 -0.26978505 1.2196877 0.6536866 -0.6385179 -0.22594911 1.2407397 0.0017547753 0.09723737 0.23957624 0.16223495 -0.31352967 0.52852964 0.100552715 -0.23695318 0.3415517 -0.7905474 -1.0510721 0.7409189 0.16250798 0.08200604 -1.1089749 -0.39722556 -1.0260988 -0.37212074 -0.6597477 -0.48807353 0.6616622 1.323309 0.44478384 0.9761547 -0.41610315 -0.6076964 0.5705441 0.1772744 -0.87525123 -0.31875092 0.22918354 -0.3907039 -0.72858757 1.0566577 -0.087639414 0.47509715 -1.6355087 -0.1660522 -0.58977485 0.21556811 0.46458626 0.25575396 -0.7732993 0.009363659 0.35612103 -0.07247988 -0.083413735 -0.30927563 0.8268823 -0.44854528 -0.9559599 0.7354479 -0.38509098 -0.42400363 0.91244805 -0.56373334 0.0445646 0.52810305 -0.7986915 -1.3974752 1.519473 -1.165464 0.24387349 -1.3020831 1.0572501 -0.1070925 -0.0034765075 -0.9297547 0.25751165 0.03589638 -0.6221677 1.2115427 -0.15414116 0.11253689 -0.4134936 0.16766745 -0.3612781 -0.09976718 -0.4871182 0.22454786 -0.06862148 -0.07666333 0.6370707 0.49922284 0.5138672 -0.30445078 0.30692345 0.082207106 -1.0735893 0.4767807 1.76781 0.12595747 0.7985743 1.0895269 0.08819906 -0.34491068 -0.6917146 -0.13595101
797 -0.04202463 -0.6718359 -0.46407273 0.56114465 -0.5905937 0.5436757 -0.0026228628 0.08582984 -0.16134568 0.1643488 -0.2392567 -0.6651791 0.12123138 -0.46278545 1.247795 -0.64803827 1.5935847 0.06708314 -0.7279779 -0.9228542 -0.12444219 0.4695987 -0.38483268 -1.3979511 -0.8920364 0.9523796 0.7095178 0.6436311 0.5538603 -0.45430616 0.14995913 0.059073742 -1.0138297 -0.09981973 1.2475736 -0.2511859 0.8549537 -0.05315095 0.87252283 1.3026459 0.7914834 -0.7032789 -0.80075824 0.554452 0.15453517 1.4405802 -1.1379445 0.08299694 -0.17468962 -1.9749883 0.028168162 0.39175975 0.5007813 -0.66879 -0.5547438 -0.67400986 -0.40246877 -0.37023056 -0.5879122 0.50764924 0.19478816 -0.86416024 0.20479903 -0.010408588 -0.40856743 0.41990265 -0.68530285 -0.33934638 -0.3592418 0.2920074 -0.23412928 0.14143188 -0.66989744 0.3239432 0.90909535 0.101333916 -0.09535873 -0.45589656 0.6507626 -0.15810493 0.028395902 0.4073135 -0.017250042 -0.6825093 0.93510395 -0.7804128 -0.65525347 -0.36109 -0.037127174 -0.14619172 0.6059324 0.8569141 -0.13989858 -0.96304375 0.3267455 -0.8103507 0.27403578 0.5089186 -0.056085963 0.6188335 1.4546334 1.1570728 -1.1006374 0.5853512 -0.96336174 0.61703116 1.0029444 -0.033624005 -1.5076987 -0.2300675 -0.1641928 -1.2509459 0.728185 -0.20170377 0.74248123 0.605489 -1.1025804 -0.03926477 1.0447634 0.027558094 1.0467461 -0.32325634 0.6051064 -0.5029114 -0.33161464 -0.671254 -1.009086 -0.57282555
9 1.1244003 0.8933508 -0.30868474 0.3548397 1.0600053 0.2554113 0.32679677 0.38319945 0.19458096 0.70440346 0.06278733 -0.5923381 1.0303723 -0.5748875 -0.9769729 -0.8071948 1.2906913 1.0163747 -0.20245893 0.9145951 1.3544004 1.2713338 -0.041002233 -0.10144756 -0.61614674 -0.72331685 -0.12998275 0.4530315 -0.27980885 -0.045643963 -0.16281904 0.5616245 1.267411 -0.76939493 0.33506706 -0.6407365 1.383199 -0.68572503 0.7923322 0.6636062 -0.43600267 -0.4533847 0.60306406 0.4582329 -0.33251947 0.08360433 -0.5626628 -0.49384823 0.5102943 -0.34506354 1.182461 -0.1653505 -0.20543873 0.76004434 0.08822753 -0.05791701 -0.2278796 -0.8768304 -0.87564117 0.77272946 -0.040676467 -1.3617257 -0.27104202 0.4964177 -0.44826892 0.4622747 -0.017038416 -0.7843625 0.30314207 1.2678049 -0.7357115 0.043391623 0.6685696 -0.51031244 0.35091445 0.72542995 -1.5542608 -0.79378635 1.0151641 -0.25672656 -0.005590225 0.25525495 -0.04668046 0.5255456 0.039228115 -0.44171593 -1.3299913 0.44336396 -0.5464334 -0.31007046 -0.19446628 0.9376493 0.00063293864 0.5943487 0.03486254 -0.2500485 -0.6207366 0.27761304 -0.39235127 -0.26949733 0.19460885 -0.47389713 0.06357533 -0.67625815 -0.48887753 0.9140318 -0.09246046 1.0940166 0.38144216 0.16186936 -0.83081925 -0.011749578 0.5927128 0.08294365 -0.47384375 0.9357491 -1.1324935 -0.04530371 -0.5534854 0.96962863 0.029544257 0.83715457 0.7685652 0.24865587 0.6376735 -0.46637946 -0.6890538 -0.81886584
526 0.12753901 0.8576073 -0.554286 0.16564956 0.6448423 -0.69489455 -0.012408797 0.9659367 0.45967913 0.1025192 -0.7683765 -0.86289454 -0.61911166 -1.1584072 0.25415647 0.37679118 0.27452534 1.0787222 0.18360071 -0.030840745 0.3324694 0.26754862 0.2303945 -1.1639416 -0.3995609 0.2039975 0.8527814 0.25966403 0.17822237 0.6026025 -0.5891308 0.015482941 0.6515118 0.13144185 -0.5389811 0.46012527 -0.56850696 0.69681215 0.8268972 -1.0698419 0.28406832 1.257389 -0.91079414 -1.3583734 -0.010767508 0.6561735 0.013149083 0.7613887 0.8043856 -0.40141064 0.3181186 0.33707613 -0.35197702 -0.057637002 0.20231599 0.0026717712 0.6648869 0.5149207 -0.7970137 -0.80330944 -0.16832402 0.49179173 -0.34869823 0.61862665 1.216883 0.92364365 -1.7620836 0.33859935 0.43178597 -0.3250106 0.782647 1.3057553 -0.3855688 0.14349239 0.7175645 -0.7108733 -0.57835096 -0.5956971 0.2656615 -0.06463245 -0.9642913 0.83272845 -0.1392119 -0.17168784 1.2861845 -0.36909375 -0.48511866 1.1349589 -0.09146969 -0.98453295 0.13416754 -0.7341027 -0.29260597 -1.0000986 -0.1887271 -0.84934473 -0.4721199 -1.1938289 -1.0252659 -0.12722108 -0.0027419573 1.4695517 -2.230126 0.4238773 -0.8277791 -0.27472377 0.20468359 0.20445687 -0.6817129 -0.11625604 -0.47700307 -0.43131024 0.5445925 0.00550658 0.29210454 0.5706564 -0.972292 0.06141893 0.13761681 1.071799 0.6439797 -0.72640264 -0.0931786 0.9149678 0.74236625 -0.918756 0.57317764 1.2166727
254 0.07426841 0.8607888 0.75142974 0.7289482 0.043823272 -0.28360373 -0.7155286 -0.83319193 -0.18841869 0.2052729 -0.26904678 0.88383514 -1.0022857 -0.24934585 0.5486108 0.36834642 0.35253966 -0.3100739 0.12119696 -0.9359204 1.7290267 -0.07420887 -1.2263448 -0.6282547 0.7104137 0.10989054 1.0348469 0.3529123 1.0573698 0.43211195 -0.32731634 -0.1563288 -0.05893756 -0.017960561 -0.001596403 -0.16240455 1.1318738 0.5861613 1.5195755 -0.40699297 -0.1895863 -0.6737871 -1.0196935 0.16372779 -0.23506159 0.8879834 -0.53381157 -0.7283947 0.5368632 -1.3672947 0.0911684 -0.6747363 0.5005979 0.32112026 1.046234 0.360497 -0.26575026 -0.37438884 0.20225628 0.22316608 0.16747378 0.5281835 -0.20687184 0.49067685 0.64935255 0.8503346 -1.915756 -0.51591974 0.07319795 0.5879917 -0.31094044 0.572276 0.46144897 0.87727726 1.0431331 0.99458724 0.91348666 0.06372314 -0.24878891 -0.13116984 1.4154918 0.9238463 -0.07608128 -0.21796049 0.16452102 -0.8733763 -0.5518562 -0.31720167 -0.5751581 -0.5698666 -0.15250708 0.36292014 0.55930364 -0.5148095 1.0053563 1.0614306 0.21180545 0.7798078 -1.1799695 0.28032354 -0.003728671 0.23353757 -0.5503513 -0.13345195 -0.8054579 0.67808956 -0.2908278 -0.30802345 0.15600616 0.46644482 0.29598427 -0.6503558 0.84523576 1.5100423 0.03543583 0.9509356 -0.8230123 -0.40783086 -0.5776447 0.6895959 0.4718892 0.06731616 -0.34610096 0.62749183 -0.7777383 0.2617527 -0.63310564 -0.4194622
1128 1.0156667 -0.061843038 -0.6606198 -0.8875686 0.49452204 0.44307283 0.094577976 -0.019397939 -0.40529302 0.19021836 -0.68334955 -0.70906824 0.31641197 0.5995811 -1.1409869 -0.15573958 0.23727033 1.2700868 -0.5162647 0.0700517 -0.19751586 0.16767924 -0.49106318 -0.16864747 0.077385634 0.53700554 0.83968544 -0.063011974 -0.10301717 0.7669098 -0.4884637 0.33764404 -0.30319336 -0.68847644 0.12966245 0.49545956 -0.56678075 0.68316746 0.012076668 -0.62701535 -0.22691576 -0.14067839 -0.54407597 -0.18012828 1.4865078 -0.28063563 0.08948487 -0.124834746 -0.64894444 -0.20325069 0.075414866 -0.14508702 -0.05198825 0.15143867 0.36891127 2.1328814 0.4375838 -0.0588961 0.03527615 0.27688152 -0.12238801 0.19215587 0.48388705 -0.48333177 0.37965277 0.16623388 -0.2978603 -0.6219631 -1.2239515 -0.07838115 -1.3681873 0.05736979 0.8066562 1.7402476 -0.83985615 -0.48741364 -0.20233509 -1.2163043 1.3198472 0.18127315 -0.8163157 0.16283032 -0.21954437 -0.4857084 0.784231 0.054301575 -1.0122432 -0.22969507 -1.1453953 -0.7510487 1.264135 -1.3375622 0.7433753 0.13615799 0.20583083 0.90681547 0.45289323 -0.4734805 0.261254 0.52342516 0.2881332 0.8801666 -0.61946994 -0.27759594 -2.0423167 0.87316966 -0.72047925 -0.263803 -0.46931368 -1.0537258 0.656831 -0.57283884 0.47160465 -0.3552972 -0.09189022 0.8825108 -0.6751365 0.388275 0.11438287 0.22266734 0.85935366 0.6560668 -0.0064435336 1.7437968 -0.16235022 0.11976955 0.35974917 0.36780265
1618 1.1624218 0.91627175 -0.6607065 -0.050472394 0.27665183 0.0708831 1.1232756 -0.029271794 -0.2781086 0.39310506 0.14989759 0.6813515 0.2118307 0.02405153 -1.400664 -0.2416554 0.8286832 0.99143386 -1.510842 -0.7993547 0.11222179 0.5845436 -0.4038779 -1.4549787 -0.90534353 0.9180321 1.9307302 -0.009182775 -0.19957694 0.75224966 0.76750815 0.15667115 0.3383992 -0.22762017 -0.19254811 0.232221 -0.012582764 -0.80126524 0.817752 -1.044562 0.3407342 -0.12842084 -0.3600193 -0.25924158 1.0112274 0.25668743 -0.061493542 -0.59921926 -0.05568565 0.16301036 0.77166784 -0.019278783 0.6544609 -0.5306623 0.046465106 0.43553314 0.5936924 0.28140423 -1.0442816 -0.9564284 0.60226566 0.5016371 -0.45879447 -0.07338185 0.12284317 -0.05195228 -0.6057101 -0.304041 0.3077459 1.0205348 0.13042672 1.0776919 -0.16800863 0.42127222 0.45692232 -0.41387197 -0.15653807 0.57377046 0.57462144 0.4321392 0.8434613 0.87006557 -0.06604948 0.24833041 1.4365482 0.5546454 -1.5027704 -0.523012 0.69553524 1.3940312 0.29528835 -0.1769689 -0.70329046 -1.5777487 -1.1059816 -0.52048814 0.01619509 -0.08139022 -1.4295118 -0.8359374 1.2830911 0.24242376 -0.9492484 -0.2475492 -1.0751659 -0.18820165 1.0113735 0.06601938 -0.6747933 0.8083883 0.29550707 -0.24244168 0.4463011 0.62577367 0.22059935 -0.09845784 -1.0825163 0.81677413 -0.33146834 -0.12892598 -0.39513403 -0.14097646 -0.30918115 0.7214394 1.3992832 0.591914 -0.8439274 0.04582981
564 0.06764911 0.47482115 -1.349937 -0.55495435 0.86372054 -0.82958895 -1.5071402 0.5658596 0.53389454 1.5334189 -1.4864999 -0.22123656 -0.6965073 0.06685598 0.04368498 0.5869558 0.58428925 0.23241916 -0.89245504 -1.282115 -0.20407596 0.33787763 0.26179382 -0.007176367 -0.45840108 0.8550441 0.34418452 -0.8386109 -0.08195089 1.343888 -0.2936359 -0.007009981 0.48245862 0.46468803 -0.19663624 0.4549175 0.08834474 -0.17520435 0.6487568 -0.6202925 -1.0978018 1.0137742 0.006389435 -0.25903255 -0.8199262 -0.25891662 -0.9278079 -0.495808 -0.58716786 -0.58256733 0.7886864 1.2493604 0.055873994 0.9413347 -0.053093385 -0.89630216 0.6019134 0.41878414 -1.1251864 0.010192592 0.16797169 -0.41852424 -0.54281324 1.1913724 0.12888616 0.46791998 -1.6118478 -0.1447482 -0.40271848 0.011744629 0.42903173 0.39832407 -1.0064434 0.4473015 0.4499716 -0.106009446 0.108127184 -0.2577698 0.7498256 -0.64815444 -0.94987756 0.85800403 -0.3137667 -0.40480718 1.0213907 -0.39953455 -0.11421059 0.54455525 -0.47633684 -1.3347976 1.1920667 -1.3679612 0.18781492 -1.3986572 0.9756612 0.022212967 0.3071085 -1.3944615 0.12808731 -0.052552335 -0.45804584 1.2819508 -0.5252693 0.35342652 -0.4827784 0.025402227 -0.2739967 -0.1285123 -0.45021546 0.07318773 -0.27537277 -0.20343943 0.6300436 0.54956734 0.5792576 -0.28469664 -0.04603663 0.13569863 -0.7416746 0.52315825 1.675954 -0.013269484 0.75319195 1.1064446 -0.023924835 -0.6243531 -0.53338313 0.0913398
832 -0.8358135 -0.4774478 -0.112348415 1.0323738 -0.8438726 -0.19144696 -1.031409 0.5325621 0.32378855 -0.11551269 -0.49572024 -0.3945205 -0.41534388 -0.2810585 0.4274044 0.42997286 1.4627204 0.32527158 -0.30238527 -0.83335316 0.4351909 -0.29714292 0.14826223 -1.1146921 -0.4469206 1.4952122 0.13362768 0.9860107 -0.028289998 -0.31681916 0.20268196 0.16252746 -0.8818508 -0.16430412 1.713661 0.56745255 0.047323246 0.39220175 0.63825434 0.99672025 0.521624 -0.4252339 -1.133198 0.6783198 -0.051507443 0.84728736 -1.6398379 0.044818092 -0.24606276 -1.8680865 0.30352905 -0.07430986 0.31663615 -0.44173688 -0.19884947 0.38547155 0.4361244 0.12597413 0.0049083894 0.07150314 -0.26129055 -0.69930243 0.06563124 0.3592951 -0.92849475 -0.0155090885 -0.033540342 -1.281718 -0.96372706 0.6679519 0.048518207 0.41137534 -0.18592279 1.2097895 1.7329413 -0.6111619 -1.2071856 -1.1963228 1.2827994 0.08981282 -0.3271504 0.30604315 0.6594603 -0.40568188 0.53462315 0.6354373 -0.851084 0.22008932 -0.13180035 -0.52048266 0.1261888 0.50467473 -0.08780489 -0.8855092 -0.02422093 -0.95333874 -0.3832961 1.1551387 0.11705742 -0.13409033 0.14396228 0.31083733 -0.57323414 0.8342468 -0.09110894 -0.28046256 1.0579103 -0.19958872 -0.8399932 0.07714836 -1.3458599 -0.59253573 0.12657475 0.4858455 -0.37340182 1.0511944 -1.4730977 -1.1906154 0.2629838 -0.009616064 0.77592766 0.31484565 0.7598666 0.2914544 -0.17634383 -0.7788119 -0.2862852 -0.740832
259 -0.15774667 0.7518623 0.33268026 0.76259077 0.05717091 -0.5658779 -0.6681854 -0.6612242 -0.1301867 0.4802099 -0.57962143 0.69547695 -1.0517776 -0.41564623 0.82333827 0.2759566 0.15920928 -0.12122139 0.30497652 -1.004227 1.6725451 0.07146195 -1.368261 -0.61986476 0.75312173 -0.039939806 1.0386956 0.29561695 0.92575216 0.24494334 -0.4847701 -0.04913285 -0.5825786 0.12509285 -0.14482647 -0.15588464 1.4060727 0.29275468 1.5668101 -0.019713873 -0.015864803 -0.60541123 -0.78591835 0.24760741 -0.20380509 1.0333577 -0.23436739 -0.73431927 0.69018847 -1.3290172 -0.1499161 -0.7026911 0.54774255 0.22581601 1.0832456 0.46931055 -0.2917981 -0.7649222 0.3956633 -0.039536037 0.24229908 0.40365905 -0.104975976 0.30827639 0.73143303 0.8024565 -1.8333809 -0.6422322 -0.10749941 0.8202007 -0.43024158 0.66000533 0.5393371 0.72276133 0.9567113 0.6762848 1.1369246 0.01216758 -0.1643339 -0.24733031 1.6923815 0.7210181 0.25372106 -0.3871305 0.29216456 -1.106726 -0.74075866 -0.42052603 -0.4213038 -0.5754602 -0.20600353 -0.04586536 0.46565524 -0.36050627 0.76753026 0.74163926 0.18573286 0.5444338 -1.0108213 0.3107468 -0.033508494 0.19787554 -0.55727744 -0.12615615 -0.6417082 0.5947936 -0.04762875 -0.11648201 0.12844275 0.49228388 0.19900483 -0.5966318 1.1434017 1.3188591 -0.16251183 0.7089387 -1.0566978 -0.30018178 -0.3454957 0.88798237 0.42565206 -0.19550738 -0.5335664 0.44200078 -0.794018 0.5774182 -1.0966592 -0.34718782
230 -0.49211586 0.6570981 -0.3153514 -0.043341797 0.59703207 0.017678158 1.2027937 0.7666611 -0.22945976 0.19714098 -0.41339627 0.72481567 -0.6423021 -0.5280939 0.6526929 -0.80395657 1.2001075 1.0915616 0.45422277 0.18888676 -0.41003338 0.23919137 -1.2831112 -0.931304 -0.7467012 1.3934243 0.95020014 0.8773484 0.5676571 1.3961811 -0.28783607 0.17841473 -0.34208763 0.32084656 0.4317029 -0.5545858 1.0644368 -0.87867284 0.012757083 -0.5287071 -0.06475542 -0.24091797 0.9018861 1.147815 0.73120326 0.044387214 0.28545249 -0.88608646 0.46813992 0.10324577 -0.907308 1.1669931 -0.47112983 0.067969486 0.9640414 0.13748708 -0.37049037 -0.56351566 -1.1865153 0.36499944 0.67734313 0.4297667 0.19757926 0.31635883 0.57064295 -0.55331707 -0.45651266 0.35591498 0.14426313 1.496539 -0.056815997 0.18044104 0.2725632 0.5640018 -0.37430203 0.37867576 -0.8541832 -0.5147006 0.7010376 0.64685655 0.04975227 -0.098937444 0.0010881523 -1.7586148 0.5283902 0.5825662 -0.17476036 0.7607207 0.19253162 0.36984828 -1.1654156 -0.6663448 -0.6399598 0.40248087 0.2419961 -0.10996997 -0.62813103 0.88952017 -0.5592277 0.16161966 -0.87637174 0.55352414 -0.030046696 -0.6970019 0.060051344 -0.32982147 0.015720818 -0.61582977 -0.023237413 1.5486562 0.349675 -1.529857 -0.150068 -0.3851961 -0.33329237 -0.87232643 -1.0058569 -0.77878606 -0.18361808 0.31135213 1.3798797 -0.54317653 0.10699048 0.13685815 0.11544815 0.052240323 -0.9329203 0.3619381
783 -0.53896165 1.866392 0.12028705 0.19745935 0.7001937 -0.5175354 0.48888937 -0.21500783 -0.58553886 -0.12405706 0.2186903 0.18923403 0.69821715 0.1842243 0.29196572 -0.36673385 2.39649 0.90279555 -0.58826756 -0.065669194 0.7737018 -0.15986793 -1.6940662 -0.054712255 -0.30160245 0.011809795 0.3509628 0.8595994 -0.651554 0.56840116 -0.41852465 -0.4186339 -0.7229822 1.5361841 -0.16054508 0.062934674 0.81787586 -0.21185315 -0.10557334 -0.16710047 -0.75989306 -1.0459982 0.03709838 -0.39694896 0.3914559 0.46572766 0.027667878 -0.9770673 0.37835726 -0.19685349 0.7760573 0.08488449 0.26005036 -0.7121298 0.80986005 0.33514297 0.025910337 0.4670823 0.77304167 1.2241231 0.33801556 0.42743075 1.2286686 0.031682406 0.50230885 0.81359756 0.040145528 -0.49203303 0.38943928 0.77672136 1.263244 -0.37204656 0.6991569 1.0093217 0.11186613 0.18467543 -0.22776069 -0.33792564 1.1226065 0.3039166 -1.1810664 0.36779678 1.0434947 0.17118655 1.0194153 -0.31818667 -0.81807274 0.20784347 0.30279607 0.21062998 0.4272286 0.31648758 0.28456032 -0.05689136 1.4782864 0.19863425 1.183753 -0.18479079 -1.1275734 -0.94358313 0.6553116 1.1531342 0.52356577 -0.33606094 0.18198584 -0.534399 -0.9588595 -0.025259983 0.74110466 -0.75501305 0.1483103 0.6484786 -0.06307768 -0.6947411 -0.8077601 1.3036402 -0.21501167 0.21373136 0.58732 0.6129862 0.2948806 -0.6389074 -0.6449474 1.0810388 0.064136796 -0.56924653 -0.7491103 0.2156054
544 -1.1726946 1.382967 0.51972103 -0.63209975 0.6430434 -0.028148722 0.2961141 -1.1333673 0.38742447 -0.18443093 -0.27889633 0.8257622 0.12332076 -0.33707884 -0.06606182 -0.82661885 0.4555552 -0.2520198 -0.31307825 -0.6584493 0.34134287 0.31280965 -0.5748758 -0.08350271 -0.49018997 0.9150854 0.117229365 -0.75732136 -1.0583954 0.15554611 -0.0815986 0.37773618 -0.124039434 0.16063818 0.13832946 1.5108763 1.4155991 1.5391005 -0.54837984 -0.17936279 -0.34985098 0.2276517 -0.05740421 -0.47249362 0.679571 0.59452397 0.25141117 -0.06276727 -0.7028558 -0.45701072 0.80855656 0.52652216 -0.4567009 -0.92173237 -1.588715 0.5660695 -0.33844417 0.3446208 0.5224433 -0.23257539 -1.0300313 -0.0609987 -0.36763868 0.84733516 0.20068645 0.26435715 -0.2633643 -0.20278569 0.37547454 -0.1103938 -0.073507875 0.5308544 0.8466039 0.863982 0.74530685 1.029325 -0.053697497 -1.3851649 1.0558083 -0.77144045 0.39395866 -0.59840226 0.31868204 -0.218061 1.4393772 -0.189339 -1.0446963 0.3737035 -1.487886 -0.367444 -0.32901514 -0.31359702 0.043975756 0.7325359 0.47825322 0.34629384 -0.51135564 -0.023471612 0.3975678 -0.602562 -0.8150207 0.36417887 0.16813985 -0.4095067 -0.5446369 -0.01622951 0.9588637 -0.38603193 0.9988499 1.3360527 -0.49872226 -0.79015774 0.22713462 0.06291097 1.096338 0.48045614 -0.16464628 0.03210455 -0.566192 -0.028418176 0.7990118 1.2262871 1.0117155 0.88677305 0.6369412 0.011474654 -0.2702636 -1.2771577
1650 -0.106782176 -0.37549347 -1.1543638 -1.0997362 0.7661487 0.14775957 -0.14155631 -0.61392653 0.35298112 0.7605977 -1.1612725 -0.23661204 0.7126447 0.50625926 -0.4183606 -0.5764183 0.79307455 0.66067404 -0.42069733 -1.0895996 -0.37024188 0.3825688 -0.8088505 0.18302219 0.15921979 0.908717 1.1175553 0.7154641 0.28343308 0.09387627 1.0068513 0.70027673 -0.058205213 1.187743 0.67875904 1.0821829 -0.38627878 0.05669822 -0.9650918 -0.66063285 -0.322726 -0.5003935 -0.41721123 0.16798356 0.70496476 -0.07462426 -0.092236586 -0.041785207 0.2992653 0.7841977 0.45799822 1.5227555 -0.88304114 0.2676178 -0.22201261 0.32699877 -0.82465106 0.54366535 -0.5615309 0.097562686 -0.5702151 -0.23456666 0.47826964 -0.73704284 -0.26196557 -1.0767666 -0.666923 -0.92156863 -0.4682285 0.058155272 0.76722634 0.20248537 -0.4396187 -0.1948278 0.64153826 0.86825246 0.769249 -0.6977885 0.1563885 0.32067138 0.5348092 0.75766665 0.671734 -1.4517019 0.26797068 -0.5076871 -0.38596058 0.651446 0.40611067 -0.85470456 1.2603602 -0.41473255 0.43619287 -0.0038219192 0.56388366 -0.16396181 -0.019365925 0.58262914 1.0668186 -0.1105544 0.3415152 -0.4256005 0.025255613 -0.54375166 -0.023629175 0.39129028 -0.12733991 -0.49293 -1.2963866 0.75002176 -0.8037191 0.56503546 0.72954 0.53731155 -0.42025232 1.2751937 -2.161083 1.1345309 0.23741324 -0.010906489 -0.4240056 -0.38126987 -0.29490697 1.8486131 0.8354012 0.55421096 -1.3210869 -0.32237726
623 -0.77460843 -0.17664957 -0.3695544 -0.7044009 0.3804604 -0.39697218 0.8175206 -0.38931486 1.3041067 -0.4814403 -1.0962925 -0.10288362 0.48793688 0.3639256 -1.2309271 1.3797544 0.21623875 1.2428442 0.28204313 -1.410467 1.305686 0.27618158 0.29100156 -1.050917 0.07655806 -0.27156478 -0.35921806 1.3054646 0.23881382 0.6752181 0.17874499 0.46129718 0.07656271 0.028431313 -0.31115198 -0.50321734 -0.008490036 0.53169316 0.2908648 -0.66166216 -0.3853852 0.17157482 -0.37682056 0.24544276 0.56728834 0.3623701 -0.34780124 -0.34838128 0.70758045 0.8927963 -0.17659035 -0.28327248 -0.26453456 -0.15366508 0.52345043 -1.029675 0.7061609 -0.5425376 -0.4204979 0.6119718 -1.047229 -0.13442051 -0.005358291 -0.26774448 -0.09872317 0.0072091543 -1.5121839 -0.13151163 -0.19098772 0.5050913 -0.25765085 0.17190373 0.9004226 0.26826954 0.7637075 0.45608857 -0.26022324 -0.48282298 1.2663901 -0.8140791 -1.6351593 0.22716744 0.358982 -0.57060516 0.78192425 0.3230518 -0.094270416 -0.58188295 -0.29705968 -1.1819922 1.2411628 -1.2325488 -0.47603768 -0.14629614 0.024250703 0.17360368 0.0035391012 0.06252117 -0.39942592 -0.021788588 -0.3039285 1.1517557 0.6782338 -1.3508655 -0.53129554 0.4871782 -0.2777583 -0.8510621 -0.16489194 -0.96264166 0.9831858 -1.361148 0.21892928 -0.06893767 -0.22131446 1.0112978 -1.2121255 0.8477201 -0.57185364 0.30071256 0.5176822 0.6129901 0.07630023 0.43987426 0.56658506 0.23120251 -1.0046872 -0.21053177
692 1.6390935 0.7451476 -0.36340895 0.5901625 0.9932419 0.16911665 0.40162775 -0.23875685 -0.41313007 0.6723613 0.45227525 -0.001752332 1.4474623 -0.8791878 -1.721417 -0.7747985 1.2138187 1.2362431 0.6350725 0.14378291 0.60500294 0.6909864 -0.9432752 -0.6001812 -0.051409308 -0.6473712 -0.7172958 0.8441235 -0.34205085 -0.6407892 0.38444403 0.04594051 0.6024639 -0.21598312 -0.37258965 -0.16742682 1.3811682 -0.0157371 0.7458525 0.11242701 -0.432683 0.22907712 0.55458724 0.6819564 -0.14890179 0.58816993 -1.3292487 -1.0978297 1.2314727 -0.12869987 0.13804504 -1.273709 -0.04223195 0.81577873 0.011593531 0.49687755 -0.011940811 -0.28081226 -0.43412516 -0.07988127 0.27732548 -1.7628378 -0.06533134 0.36609277 -0.29223126 -0.14117579 -0.7673404 -1.3130828 1.2231555 0.5404352 0.16960534 1.0306692 -0.20750815 0.34381554 0.759167 0.2771415 -0.86986953 -0.77376777 0.36104077 -0.3737256 -0.37809455 0.1640158 0.4216581 0.71620935 0.37615412 -0.07513281 -1.288407 0.18222877 0.43553218 -0.8860208 0.83444875 0.70121884 0.17300667 -0.10488127 0.8952991 -0.57459736 -0.70638424 0.6135623 -0.42987046 -0.11979101 0.4708993 -0.3211031 0.5682009 -0.73323494 -0.46698573 0.5133157 0.31183052 1.3204286 -0.08455273 0.22580445 -0.6442668 0.024451118 -0.24685833 -0.8117302 -0.38859436 0.99751645 -1.9753906 -0.39441067 0.0025175822 0.70800036 0.23703808 0.18781799 -0.62361115 0.37983605 0.59209067 -0.24444444 -0.16132249 0.21775213
977 0.40341315 0.6576005 -0.4497195 -0.61232936 0.22772159 -0.5308901 -0.75065535 -0.24417646 -0.99703544 0.057881262 -0.9111149 0.3303858 0.23914173 0.7125986 -0.09043081 0.42360276 0.6148338 -0.51812404 -0.03133699 -0.26431173 -0.76007175 0.72362065 -0.12737492 -1.3280774 0.14482039 0.6605711 0.54604757 1.4979918 -0.44993898 0.42766085 0.23599668 1.5009806 1.2600478 -0.062480416 1.1518812 -0.28254485 0.11494198 0.1669708 0.5622764 -1.3803757 0.39971006 -1.5636128 0.33019483 0.8290338 -0.0252928 -0.47444823 0.10079841 -1.4138273 0.22521698 -0.6384269 1.3759301 0.1136646 -0.45624423 -0.19998887 0.7063319 -0.45488566 0.2967621 -1.1207845 -0.48249203 0.66941994 -0.06676776 -0.14603606 0.58773464 0.14803816 -0.6662313 -0.34286126 -1.6593002 -0.0008773192 0.43480176 0.22583032 -0.57461333 0.36575994 -0.0039441427 1.2798376 0.102666646 0.39979053 0.154261 -0.56833386 0.7861029 -0.5633835 -0.03387072 -0.7542087 0.74326503 -0.6173962 0.6994685 0.06867857 -0.6748509 0.320888 -0.47628072 0.2566318 0.98921853 -0.29036677 -0.18613362 -0.4694765 -0.24015242 -1.1159419 -0.47735566 -0.42145506 -1.4560273 1.139905 -0.44154218 -0.36482808 0.2575482 -0.20648564 0.59738284 -0.61948013 0.19849981 -1.0695579 -0.8040007 -0.35854578 -1.9293193 -0.14313586 0.7851367 -0.14884764 -0.84621316 0.88057 0.29055956 -0.36051202 -0.16072214 -0.5325465 0.00085793633 -1.0312591 -0.5833998 0.14333068 0.6479866 -1.5029503 -1.6500691 -1.2534077
347 -0.8551452 0.9006184 0.14903767 0.09237438 0.04668293 0.7549336 0.49124333 -0.3445815 0.41963273 0.22558296 -0.5948041 0.05269203 0.51287043 -0.13641894 0.20094664 0.53119564 -0.043931343 0.8960045 0.029232744 -0.4608164 0.27707213 0.51183844 -0.3013953 -1.0028051 0.49841455 0.49021924 1.1074375 -0.5360202 0.3670776 -0.65850013 -0.42488408 0.32103255 0.16270913 0.2874438 -0.30480102 -0.28182143 -0.07047869 0.8253683 0.03285681 -0.21878818 -0.69821686 -0.8303423 0.5430915 0.74990755 1.2406595 0.47276857 0.10249622 -0.11409149 0.9855413 -0.4252181 0.05075348 0.86883456 -0.53791785 0.7109894 2.1550584 0.72979975 -0.41266763 0.19709316 0.62221307 -0.2761591 -0.099360004 -0.14257154 -0.95415825 0.8763187 0.342944 0.50103563 -1.4108515 -0.40705696 -0.015797313 0.42766872 -1.0676017 -0.7487309 1.4167525 0.4976998 0.20878062 0.5640865 0.25792634 -0.7467589 -0.0019337292 0.15195501 -0.28097472 -1.4161537 -0.8207293 -1.3694481 0.32270667 -0.04590628 -0.7644644 1.1439917 -1.2008963 0.0011053892 0.001671997 0.9337449 -0.6507574 -0.4758869 -0.10549108 -0.77206427 1.0077504 0.80797863 0.5125036 -0.32932505 0.018108841 0.8086515 -0.77415085 -0.4273449 -1.6717844 -0.9019988 0.021591414 -0.60323447 -0.27938136 -0.35331368 -0.5207296 -0.49743825 0.9796825 -0.15994881 -0.5490309 0.9781968 -0.661056 0.06549298 -0.2787469 1.8270953 0.41415414 0.9422168 -0.0075224075 -0.052280325 -0.10084697 -0.70193464 -2.4041154 0.7979006
1264 -0.08522298 0.54312307 0.31490707 0.52256966 0.97396994 -0.17511442 -0.1727594 0.69347143 0.49065962 0.43841484 -0.027061269 0.08259849 0.7051203 -1.1311425 -0.15857005 0.105188705 0.4258248 1.1327547 0.28104785 -1.4928945 0.5899602 0.059337076 -0.27653196 -1.4833333 0.6887444 1.242244 -0.58583415 0.5451673 -0.18259318 -0.107777305 0.39279333 0.7932209 -0.12638804 -0.09824039 0.8616489 1.0047114 0.27066994 -0.22096439 -0.36074188 -1.0467237 -0.42880136 -1.4761244 0.91957986 -0.29664263 0.9534396 -0.8680239 -0.55845517 -0.18025708 0.0046982546 -0.5041179 0.120623924 0.37806526 -0.6074635 -0.8005993 -0.5545673 0.0934423 0.21313821 0.07286373 0.7435204 -0.3163953 -1.816389 -0.46939927 -0.5164971 -1.0125945 0.14916232 0.38028443 -0.43975 -0.1461531 0.30007455 -0.43073466 0.25653934 1.1894327 -0.7961631 -0.023283985 0.25402856 -0.3375006 -1.467046 -0.47885904 1.0143707 0.8200591 0.28334135 -0.19161288 -0.3007351 -0.80229795 -0.36715254 -0.01735176 -0.47956902 -0.12311108 -1.3613803 -0.6876007 1.1750618 -0.114761926 0.53425866 0.35751483 -0.76617396 -0.28038177 0.2339227 0.982919 -0.26525548 -0.19117253 -0.054251257 0.4298561 -0.531189 -0.30133876 -1.3525348 0.6158469 0.50759876 0.14835468 0.41755074 0.25376347 0.29566565 0.54674715 -0.5236623 -0.3539203 -0.13253693 -0.41493848 -1.6191343 -0.25906014 0.019360596 0.85264915 1.5379909 -0.32495153 -0.6513539 0.60236126 -1.2380924 -0.5939605 0.25414062 0.39402193
1897 -0.6285536 0.9692514 -0.1434294 -0.14040901 0.12594458 -0.24431133 1.7309551 0.62616783 0.30137014 0.98606306 0.08904409 -0.7504094 0.26477212 0.51971394 -0.35218236 -1.5099292 -0.410747 0.8352439 -0.82804036 0.1286632 -0.41350752 0.26662526 -0.34636602 -0.5338753 1.0747545 0.6337715 -0.2677057 0.5206574 -0.7584467 -0.56350565 0.21935785 -0.032218568 0.6462023 0.47345927 -0.8477243 0.8594742 0.27638513 0.15074666 0.036567215 -1.1472461 -0.40279448 -0.33983195 -1.3578781 -0.3652038 -0.77854276 -0.24776481 -0.7206903 -0.8864352 0.76558495 -0.29415676 1.3466743 0.35863042 0.28718066 -0.18463095 -0.2727682 -0.33744234 1.4156477 0.7151265 -0.9864461 1.2104719 -0.37299064 0.43802938 -0.37173945 0.35131177 0.21369186 0.21873672 -1.05354 -0.18859455 0.36085975 -0.2758187 -0.6788353 -0.47055712 0.18084566 0.017156212 1.1461322 1.2663814 -0.59837335 -0.5952555 1.5043787 1.0882196 -1.0168145 0.23008686 -0.09623692 -0.7451069 0.43480238 -0.58983994 0.33821592 0.41127178 0.046259824 -1.1600995 -0.47955373 -0.87916493 -0.30189648 -0.18508856 0.00045735968 -0.956109 -0.015592204 0.62681437 -0.011225878 -0.54706377 -1.3477916 -0.78681785 -0.27793512 -0.68360317 -1.4753036 -0.14453346 0.619357 0.8412788 0.9196129 0.028863281 -0.2379016 -0.9365469 -0.25013945 0.76268 -0.24861287 1.0682504 -0.8044417 -0.2419419 0.79025286 0.39057302 -0.5455302 0.044002585 -0.31214607 -0.501164 0.4227698 0.34177706 -0.4992164 -1.4525084
2025 -0.21387742 1.5933686 -0.9409729 -0.46987703 0.022427019 -0.30191985 0.28772312 -0.23873985 0.8093878 1.3575691 1.0703262 0.04251787 0.36814493 -0.7209138 0.33984277 -0.20852268 0.03497859 -0.2628228 -1.0329823 -0.25068069 0.3865517 0.68771726 -0.18646199 -0.3394728 -0.9587791 -0.118367404 -0.13179334 0.63587207 0.24762033 1.5016669 0.5249564 -0.5530993 -0.3996501 -0.16127774 0.15101133 -0.11883968 -0.76738364 1.074274 0.14038856 -0.7322274 0.8134895 0.5736337 0.59523356 -0.44060355 0.45648488 0.45513543 0.1404891 -1.6883203 -0.033811636 -1.6763211 1.3546902 0.9920593 -1.3337302 0.29817033 0.5669934 0.35569778 -0.41203317 -0.16798556 -0.007711799 -0.43394697 0.01324366 1.262035 0.39609796 0.26641548 0.065877795 0.2112891 -0.79625386 -0.860762 0.15879458 0.95663667 -0.19601165 0.19916204 0.3472726 -0.9992301 -0.11652147 -0.05963465 0.1938072 -0.70577455 1.4357039 -0.36336672 -0.5306918 0.41906166 -0.08888973 -0.94191265 -0.23897953 -0.2130079 0.0030772926 1.1039312 -0.44544145 -1.0423132 1.2645255 0.4405864 0.1307095 0.6090628 0.1691829 0.80497766 0.724797 1.1643838 -1.2164402 0.60748464 0.40416104 -0.1373208 0.43476313 -1.0915018 -1.2635735 0.64002573 0.59083796 0.4794162 -0.052365333 -0.19059655 0.6447377 0.30277073 0.9544494 0.25759754 -0.77192765 1.0699061 -0.6504709 0.14329854 -1.0020149 -0.017239392 -0.1941332 0.52868426 0.23515862 0.80665165 0.45165116 0.6892754 -0.029382482 -0.24565837
1750 -0.10162167 1.079317 0.41740116 -0.38303772 0.1923845 -0.3287295 -0.02344452 0.40299687 -0.38246694 2.0284739 -0.7351341 0.35240167 1.3456445 0.6665608 -1.363154 -0.56442094 0.6695176 0.02768155 -0.63795835 -0.039191045 0.33349553 0.59625095 -0.58585596 0.37844768 0.4353527 1.111026 1.3353534 0.022705832 0.010609492 0.5643263 -0.7798255 -0.33761743 1.2947031 1.4617596 -0.36547112 0.018444858 0.20799874 -0.44784015 -0.08681615 0.34193474 0.29454878 -0.022406677 -0.07526348 0.6213442 0.18213065 0.53495675 0.29717737 0.30360425 -0.2706753 -1.3387382 -0.096908055 -0.3550492 0.112626545 -0.8424219 0.28941303 0.7111308 0.6714117 0.96146876 -0.41554537 -0.113050915 0.9071479 0.71378374 0.2778484 -1.2179562 0.18908663 0.48069832 -0.53254783 0.14730012 0.5343615 0.50477904 0.51542807 -0.15431762 -0.08404356 0.7280219 0.19579592 2.0171459 -0.78240544 -1.374998 -0.70757645 0.56842035 0.964327 0.13573694 0.28502122 0.5006078 0.71620566 0.03536522 -0.758669 -0.30151471 -0.45440385 -1.319661 0.9790419 -0.35899416 -0.17804572 0.086839266 -0.59863615 -0.5553886 0.27879325 -0.07187268 -0.9361843 -0.84856725 -0.7473369 0.19177929 1.2295654 0.8526072 -0.44105724 0.16502674 0.22110842 -0.43471023 -0.04024142 -0.799578 -0.5108466 -0.30988142 0.0149597125 0.68038934 0.5817733 0.50417984 -0.96895814 0.18324643 0.75970954 -0.55406684 1.7480717 0.4097846 1.0027707 0.5119441 -0.07691964 -0.37242258 -0.06841504 -1.4027054
1123 0.7559929 0.042830702 -0.15672992 -0.8191348 0.3585784 0.26536942 0.11330881 -0.0011594512 -0.25357026 0.23721462 -0.7163579 -0.5577536 0.36924604 0.67519885 -1.1403269 0.014696098 0.55780697 1.1841981 -0.43172872 0.25401384 -0.1357832 0.018345352 -0.4168288 -0.106764585 0.041235294 0.70014805 0.7937988 -0.056710955 0.16253747 0.7831666 -0.6193056 0.36237508 -0.24873245 -0.6511369 0.2683292 0.28402543 -0.371644 0.8632686 -0.062888615 -0.4626515 -0.25722778 -0.1790347 -0.4206954 -0.31374642 1.4865633 -0.21558839 -0.04301755 0.007301263 -0.7630388 0.019201925 -0.21152736 -0.12748593 0.081495695 0.14032273 0.36324322 1.943106 0.55136764 -0.0695281 0.21109094 0.2615948 0.05563889 -0.04308832 0.3290809 -0.50298 0.53206575 0.100160494 -0.4788131 -0.80010706 -1.1275544 -0.059348132 -1.3400227 0.08893022 0.8322826 1.8697777 -0.966147 -0.29721522 -0.5453209 -1.1111779 1.2561095 0.18357675 -0.56861347 0.06689905 -0.26668236 -0.40807378 0.6224714 -0.16808365 -1.1529545 0.06740472 -1.0172669 -0.75626737 1.3226264 -1.1744283 0.9456879 0.1101982 0.25107202 0.7943668 0.3699658 -0.41883346 0.5378242 0.80043066 0.31126472 0.68938935 -0.67479336 -0.4299693 -1.8865854 0.9968995 -0.6062127 -0.083162695 -0.40345052 -1.1413679 0.50442755 -0.7394292 0.3679061 -0.061606042 0.00408103 1.046341 -0.87383485 0.15590902 0.21663646 0.4290066 0.9360569 0.5894746 -0.41463974 1.8723246 -0.20512722 0.08968816 0.20440832 0.15688275
1711 -0.022644918 1.3268205 0.29212165 -0.44765574 -0.41599607 -1.03574 -0.38864368 1.0173753 -0.35151404 0.67671835 0.3339241 0.020570077 0.6025814 0.68600625 -0.45475695 0.31290233 0.3644721 0.8593081 0.18235755 0.042974673 0.108709216 1.15826 0.07321542 -1.3064834 -0.831403 0.56131387 0.11918062 -0.90517163 -1.6771957 0.2051805 1.2116216 -0.07882627 0.68643194 -0.07808508 -0.052902073 -0.00992862 0.64488786 0.6400052 0.41090187 0.27312845 -0.22545347 -0.65629226 -0.5842955 0.23397478 0.9661146 0.33319554 0.22292076 -0.14218149 0.75094837 -0.38941446 0.46615812 -0.14788762 0.5002238 -1.8589528 -0.78648895 -0.27484936 -0.25405896 0.1285051 0.098361626 1.0237125 -0.6292211 0.24356776 -0.788807 1.0699106 -0.3636157 -0.81751883 -0.8609838 -0.7745997 0.18189806 0.3758517 -0.5886973 0.8585082 0.049797434 0.60196537 -0.21921946 0.49613452 -0.18108591 -0.43328843 -0.36292017 -0.06939335 0.39955992 0.4653392 0.79765993 -0.25591135 0.12630545 0.16505322 -0.72084993 0.13073748 -0.23969321 -0.6290048 0.485624 0.22505747 -0.3401888 -0.46757314 0.07987835 0.018801598 0.058356013 0.9626056 -0.29778585 0.5314909 -1.1585392 -0.025485687 0.7724805 0.6255277 0.41335997 -1.3185804 0.20503324 0.03425753 0.5509775 1.0222877 0.35184693 -1.0573364 0.13197249 -1.042906 0.97397155 0.59292996 -0.86151785 -0.24917649 -0.12619092 0.5051296 1.0661322 0.16478162 -0.7697413 0.7481789 -0.6262643 0.2043757 -0.7509108 -1.0007927
995 0.13164866 -0.05033987 -0.7660295 0.64741343 0.52669907 -0.91567636 -0.04221045 0.21899216 0.39852232 -0.6954866 -1.4619927 -1.1897897 0.27969122 1.2831625 -1.3635494 0.20929158 0.5555382 0.3726292 -0.45798975 0.5638598 0.17099783 0.7888075 -0.15717244 -0.748586 0.107112214 0.21327333 0.4055763 0.9726812 0.40321016 0.83103323 -0.7349236 -0.61941636 0.6753238 0.31726816 1.1460642 0.5871485 0.30861226 1.1547053 0.95489687 -0.12710841 -0.9034757 -0.57279253 0.22459441 0.9403837 -0.73102224 0.77159756 -0.25081062 -0.69923854 -0.48987356 0.7052079 0.5021977 0.38722005 0.040457264 0.3686972 0.35669744 0.6948762 -0.09823969 -0.30658278 -1.509816 -0.65010166 0.2132396 -0.21856098 0.7103384 -0.66777235 -0.18480878 -0.49682775 -0.06421494 -0.8705708 1.4067931 -0.57524145 0.40918607 -0.11463837 1.042384 -0.4263394 1.4512951 -0.8703795 -0.057757415 0.06111943 0.33317912 -0.62106216 1.0572058 0.35711747 -0.22268423 -0.28833732 -0.084147096 -1.0037335 0.052252833 0.07498061 -0.47970432 -1.406024 -0.7720646 -0.6456597 0.9970314 -1.1004905 0.4347072 -0.10857044 -0.27711204 -0.15669674 -0.24030045 0.70813555 0.10412835 0.62150824 -0.16329163 0.07813277 -0.5155171 -0.029279653 0.40899178 -0.9015591 -0.9813009 0.24611689 -0.59954876 0.40858078 -0.18886337 -0.9121695 -0.7616434 1.7292118 -0.06458516 0.18598147 -0.4133905 1.2299879 0.23436314 -0.18323353 -1.2297586 0.36366677 -0.16130632 -0.37425134 -1.2359897 -0.84755456
1200 0.09865988 0.625226 1.1758306 -1.0553092 -0.5741778 -0.3658364 -0.3290259 -1.411889 -0.033084985 0.09615854 0.15185784 -0.09322588 -0.81948626 1.0738931 -1.0407565 0.632469 0.8247888 0.8886937 0.43373027 -0.30014384 0.6077001 0.22505966 -0.26486394 -0.9025311 -0.44617563 0.103816256 -0.2029105 0.33181837 0.14438023 -0.55861294 -0.45205325 -0.6898887 -0.058213186 0.7766242 0.94843996 -0.21435286 0.37258473 0.33352467 -0.4735861 0.055139642 0.35316962 0.05708842 0.4102287 -0.8720764 0.376546 0.26248786 -0.55986714 0.6374473 -0.49339238 0.55179965 -0.112126626 0.7342138 -0.173852 -0.44228178 -0.26204067 0.15561582 -0.071775556 -0.34743148 -1.1145163 -0.62840074 -0.09066033 -0.8551899 0.12421642 0.7769085 -0.22742291 -0.0058594784 -1.1091695 -0.9627558 0.2797832 0.13323607 0.040943053 0.10944765 0.6806962 0.4734597 0.18355085 0.7390989 -0.11125562 -1.4795365 -0.11868137 0.09531829 0.56004447 0.09940516 -0.15942043 -0.21944462 -0.2192171 -1.7339466 -1.8500203 0.63135076 0.056519642 -1.1433411 0.5322138 0.05636721 -0.50057817 -0.4029872 0.9586644 -0.4520302 0.49851662 0.30436337 -0.73271936 0.81649595 0.62432903 -0.20180275 0.99478155 0.022742134 -0.61995023 1.082252 -0.6203702 0.8347494 0.35704204 -1.1894518 0.37904084 -0.13648766 -0.9088158 0.58218384 0.30834436 1.082162 -1.0386634 0.38254616 0.5789272 1.1313576 0.39299476 0.6152413 0.08933685 0.12039986 0.73328793 -0.15837884 -0.3551667 -0.29819378
481 -0.17185977 0.8959594 0.4985904 -1.3147852 0.80793715 -0.69209915 -0.25175744 0.99757403 0.56781936 -0.1299357 0.005276601 0.6260476 0.074273735 0.050029684 0.002077157 -0.56273955 1.3673451 -0.55423975 -0.035981283 0.13291727 -0.31747758 0.26541403 -0.17424646 -0.6510989 0.017383948 -0.14694846 0.7500444 -0.65594155 -0.39711705 -0.34012023 -0.029509816 1.2359558 -0.9230414 -0.58530414 1.3602086 -0.74373496 -0.47592652 0.065727904 0.011532494 0.042376515 -1.5638674 0.62112975 -0.08921486 -0.299829 1.7169036 0.6797719 0.03262799 -1.3220735 -1.2737286 -0.3088876 1.541646 0.8009321 0.59543484 -0.110493205 0.8195483 0.72145665 -0.34637457 -1.1196519 -0.0401244 -0.0441955 -0.41248894 1.0563163 -1.0158285 0.5381316 -0.15714237 -1.1437135 -0.851546 0.35565978 0.21116221 0.72524154 1.3803897 -0.028089812 0.4544195 -0.8760887 1.0736098 0.24377415 0.3954851 -1.4008446 -1.4378831 -1.1575185 1.0295472 0.32698855 1.023238 -0.9205532 0.77165586 -0.20298497 -0.01759517 1.5262824 -1.3395716 -0.16407463 0.1797745 -0.9058384 -1.2560722 0.25050494 0.9698589 -0.8113944 -0.23920795 0.3667867 0.08795127 -0.08377007 0.5207936 0.5600884 -0.8698346 -1.092675 -0.052654743 -0.852482 0.7176481 -0.44465855 -0.13147359 -0.60934705 -0.28880244 -0.0045336694 0.7836522 0.3289991 0.27454805 0.49272278 -0.58564425 0.4172693 1.332773 -0.23031595 0.003411626 0.5569976 -0.24816997 0.6772761 -0.71148986 0.41632035 -0.67403954 -0.227771
743 0.86988026 0.7925604 0.13390937 0.072366074 -0.34842718 -0.44889015 0.13088948 0.020454263 0.8355444 0.33258635 -0.04002076 0.12162466 1.7320501 -0.13929477 -0.3403992 -0.31894138 0.50184923 0.6991743 0.16942659 -0.10893668 0.17080717 0.53893006 -0.21625608 -1.427406 -0.37272146 -0.8088874 -0.16638896 0.6703652 -0.8150244 -1.0149729 0.2729758 0.23057802 0.49044976 1.0138226 0.32839584 0.4730156 0.60405034 0.7518719 0.3821626 -1.2155871 -0.014897665 0.30811754 -0.5138195 -0.12565199 -0.06489069 0.29433206 -0.0062584723 -0.9093899 -0.6940899 1.3348252 -0.17011683 0.6178182 0.81336313 -0.20080899 0.2899752 0.78240055 -1.502289 0.5009814 -1.3926957 -0.38453063 1.3136706 0.3228678 -1.6209372 0.84992564 0.73301804 0.5074535 0.23765662 -0.27119705 0.62007487 0.8945716 0.64776754 0.50552416 0.89221287 0.15308803 0.7722362 0.70301646 -0.18508014 0.39289185 -1.1341124 0.26800758 -1.386913 1.3734952 0.5213028 -0.77591276 0.4949777 -0.6946061 -1.4205308 1.1017274 -0.35048297 -0.4368431 0.9686013 -0.28492206 -0.042668995 -0.052377224 0.36767375 0.511171 -0.6044075 0.57685226 -0.7390667 0.37818804 -0.52009314 0.7681834 -0.06732644 0.07209166 -0.6592713 -0.2698645 -0.41790408 0.8631522 1.4280593 -1.730207 -0.8043705 -0.721516 0.4469756 0.18018183 -0.2452599 0.7644752 -0.41782936 0.38606176 0.6214545 0.72921294 0.7987995 0.24541707 -0.08279076 0.856157 -0.3593397 0.1923574 0.0037602785 0.30115384
26 -0.6538678 0.030042319 -0.22182584 -0.5455503 1.1037736 0.17100646 0.22023712 -0.5356136 -0.11333346 0.29670852 -0.30919778 -0.22939304 0.5685639 1.1321 -0.22568901 -0.84448475 0.15375587 0.91773206 -0.059543014 -0.54649454 -0.5670241 0.6049446 -0.4767317 0.11220545 -0.8478859 1.2266835 -0.41327104 -0.3514311 -0.43250048 0.35480583 0.67426735 -0.28815112 -0.65785706 0.71709675 0.28957433 1.3149375 -0.11420357 0.24948446 -0.109319225 -0.99811417 0.8853261 -0.59579194 0.11110216 0.38385317 -0.11429295 0.097284704 0.78658605 -0.78108305 -1.1760651 0.6797644 -0.15266272 1.4378248 -0.2864985 -0.66978073 -0.7087486 0.9429734 -0.09817942 -0.3011608 -0.229035 1.0035628 -1.1804304 0.6725894 0.73612165 -0.08446024 1.0314176 -0.7402791 -0.5115981 -0.8510998 -0.042974938 0.18048151 0.3414174 -0.399936 -0.4641212 -0.34438893 0.6213187 1.2899123 -0.42310134 -0.59376657 -0.11180123 -0.40687928 0.46178025 0.7512667 0.5769604 -1.3602339 1.1548948 -0.57176673 0.04753637 0.8492325 -0.13374168 -0.02593407 0.43151668 -0.19111182 0.4384771 -1.3497871 -0.21781924 -1.0078969 -0.8023659 0.5555716 -0.86503947 -0.9654864 -1.10636 0.78606486 0.22643131 0.17342766 -0.55828416 0.65316033 -0.22989239 -0.41543916 -0.28483874 -0.5299078 -0.82004607 -0.069793135 0.35149935 0.39784443 -0.5262902 0.9587556 -1.5145938 0.35714355 0.43815798 0.017168712 -0.19474152 0.42236578 -0.5818786 0.7165376 0.1533278 -0.12128723 -1.4507923 0.02389316
321 -1.051607 0.35822365 -0.48971096 1.1320692 -0.26936653 0.7058046 -0.06529377 0.08297239 0.8885089 -0.4067247 -0.4252854 -0.48921993 1.2079145 1.4344949 0.46158716 -0.21641837 -0.4062443 0.9959711 0.8567909 -0.788181 -0.4556839 0.4400523 -0.5887523 -1.0302817 -0.14603834 0.9823464 1.8685635 -0.62055194 0.1678969 -0.45601752 -0.58471614 -0.52127045 0.51612306 0.7732884 0.08685469 -0.3082669 0.008851383 1.1437384 0.77171105 -0.16885181 -0.65271294 -1.4892896 -0.25134453 0.663572 0.63411427 0.19956346 -0.14335535 -0.023268793 0.30423182 0.953274 1.121989 0.12072372 -0.18087146 1.2101523 0.91638637 0.083612815 -0.33370522 1.1111664 0.49042556 0.2764448 1.2610655 0.12827326 -0.6248891 0.9049215 0.32239425 0.20070069 -1.1647484 -0.8634665 0.29226166 1.0931462 -0.89052093 -0.415837 0.24321923 0.83718127 -0.6049524 0.59858716 -0.3826262 -0.80847853 -0.22797838 -0.009214892 0.016704746 -0.1002955 -1.0022182 -1.1260213 0.30477583 0.46401253 -1.364329 -0.16810021 -0.9966737 0.0012185277 -0.34744757 1.0415161 -0.08085363 0.32846302 0.45485473 -1.3570871 -0.2502593 0.6584275 0.12120007 -0.08875634 -0.20286255 0.7433781 -0.47737303 -0.6162015 -1.3488325 -1.400467 0.5323892 0.086528674 -0.019783666 -0.5777628 -0.51862055 -0.7025711 0.71741575 -0.45645785 -0.66702855 1.1523541 -0.15672043 0.68132377 -0.45521596 0.9204593 0.15445597 0.33808413 0.07385227 0.44890603 0.3501448 -0.27444774 -1.5814786 0.5732173
1154 -0.031744998 0.73824245 -0.4621918 -0.32359385 -0.585636 0.65466577 0.2656754 -1.0897187 0.42995173 0.69825315 0.3883192 -1.0482701 0.168959 -0.106888376 0.58522326 -0.8829953 0.3407779 -0.20147069 -0.08632055 -0.032124523 0.27307317 0.86150426 -0.78344303 -2.2791688 -0.18916282 0.37626198 0.90230894 0.29393676 -1.6487948 1.1115861 -0.50082093 0.56400794 0.29524943 0.05697824 1.4547205 -0.38750774 -0.37150273 0.77422285 -0.6703599 0.08595768 0.56243277 -0.39971504 0.8271882 -1.0925659 0.5805387 -0.5961911 -0.5375827 -0.40436068 -0.15792394 0.5734945 0.864649 -0.18855429 0.28158605 -0.8758562 1.1108383 -0.112071864 0.14838773 0.121023886 -1.6681508 0.85596144 0.5164132 -0.64044213 -0.46814767 0.95815235 0.28267476 -0.3299372 -0.8529256 0.22127432 0.8578406 0.6913156 0.488418 -0.23844361 0.007085416 -0.44634667 0.11490725 0.36452037 -0.13429669 -0.9461352 -0.33898264 1.5055169 -0.9178753 -0.8705982 -0.27184573 -1.4706637 0.65013945 -0.9642441 -1.7070732 -0.63400745 -0.16565417 -0.04391204 -0.33067188 -0.7525238 -0.45549792 -0.19845806 0.7989027 0.29209727 1.0715518 1.0208715 -0.24198346 0.25281468 -0.1771633 0.87082535 -0.21579051 0.9342393 -1.3834519 0.81691176 0.7438046 -0.6573622 -0.3497092 -0.61977386 1.0324043 -0.7281042 0.7641674 -0.73384213 -0.75088143 0.77598816 -0.63168895 -1.099057 0.06310104 0.33082646 -0.07915155 0.20296893 -1.0888783 1.1276492 -0.78401923 -0.144373 -0.12251452 0.7427547
1155 0.038123377 0.77864593 -0.43251848 -0.5491353 -0.46116096 0.517664 0.38161412 -1.4046403 0.035484623 0.6345244 -0.0973056 -0.7876 0.32044294 -0.123228714 0.42157924 -0.92847914 0.49496526 -0.4614764 -0.03718787 -0.17938037 0.13256697 0.7405558 -0.4715511 -1.8526897 -0.16000795 0.5672871 0.6457872 0.017823631 -1.5182604 1.0366466 -0.4115106 0.08148118 0.09170552 0.23420706 1.4505326 -0.30770767 -0.38117728 0.90609795 -0.63640565 0.41529322 0.3866323 -0.4331762 0.4574779 -1.2136728 0.83421475 -0.5336374 -0.305869 -0.26400512 0.32033402 0.6066959 0.9430327 -0.1977858 0.14536537 -0.66564935 0.836433 -0.127194 0.1304412 -0.0030836808 -1.4464674 0.5189863 0.45003065 -0.5023854 -0.05379825 0.7670308 -0.3295683 -0.3212125 -0.46929005 0.39502072 0.53356534 0.50143075 0.8587482 -0.25745115 0.08806435 0.043232977 0.016905058 0.7058131 0.010018561 -1.1065953 -0.37374696 1.201139 -0.94333637 -0.85374904 -0.19758724 -1.3605688 0.8056517 -0.7926017 -1.5590723 -0.24350542 -0.13250683 -0.49616936 -0.2532306 -1.0089905 -0.6139953 -0.20888062 0.8062233 0.0932708 0.8568647 0.8516762 -0.40257058 0.30561486 0.19539672 0.42311332 -0.5093177 0.93150103 -0.78542954 1.1116751 0.84588 -0.38324487 -0.28229943 -0.73449016 1.0532786 -0.86554646 0.74036235 -0.92794484 -0.5944048 0.618921 -0.5358536 -0.9062977 0.03992826 0.41788033 -0.2114762 0.39646924 -1.017683 1.2041842 -0.7789989 -0.42614704 0.04774878 0.7044103
931 0.45526928 -0.5105512 -0.789129 0.16875933 1.3969233 1.0928081 0.6792426 1.0245048 0.9582482 0.69236624 -0.2850216 -0.7743661 0.394309 -0.27408677 0.0217262 0.16801138 -0.8141946 -0.14342946 -0.80442876 0.435624 0.685328 -0.648417 -0.96199864 -1.4415323 -0.31253248 0.30301872 0.41878033 -0.182799 -0.06536988 0.33111513 -0.2561893 0.63231766 -0.60634196 -0.64432967 0.4056226 0.7302319 -0.13372318 0.93564516 0.48124665 -0.55720544 -0.8079539 -0.24966282 0.07338332 0.36261365 0.8345093 0.13343324 -0.13458341 0.59221286 0.28763306 0.1996823 0.4692911 -0.56517726 0.06279455 -0.97969174 -0.36743525 0.3115216 0.11668309 -0.49296778 -1.0922194 -0.4415811 0.52761513 0.3918001 -0.71759325 -0.7684457 1.193207 -0.24638532 -1.5693463 -1.3558947 0.39754695 -0.44638553 -0.5278053 1.3864335 0.45284095 -0.15779564 0.21513598 1.1325594 -0.539496 -0.12620215 1.3163545 -0.41882634 0.6554938 -0.5080781 0.2959242 -0.6305606 -1.4769462 -0.18002488 -0.13613823 0.7157467 -1.114019 -0.20384793 -1.1107011 -0.43614644 0.13896155 0.41549304 0.8183323 0.8114608 -0.3818653 0.0021615739 -0.33397454 -0.4394252 0.03674779 0.1923068 -0.08787336 -0.35209653 -1.34635 -0.42426616 -0.16692847 0.37824383 -0.17188345 -0.4131361 -0.82170403 -0.9892742 -0.048813306 0.57248574 -0.61171 0.04042607 -1.4239054 1.074259 0.22109051 0.49771592 0.67047393 0.669526 0.635622 -0.31517142 0.8205624 -0.29355937 -1.1680439 -0.7798689
890 -0.10480051 0.568827 -0.7228465 -1.0714103 -1.1709396 -0.5104631 0.3872456 0.067012124 0.6361144 0.63692313 -0.32938698 -0.29984418 0.32546723 0.30381653 -1.0250305 0.6432202 -0.1991594 -0.33969116 -0.59272665 0.4483583 0.91203386 0.38044575 -0.26966214 -0.2719241 -0.17673519 1.2434725 -0.33755547 -0.21425919 -0.6951337 0.5177339 0.614852 -0.032985065 0.57038146 0.7570239 0.2802827 0.6145912 0.9614044 -0.2762502 -0.94422626 0.2235822 0.24789342 -0.8576632 0.48986745 0.0037440755 0.3238537 0.05976561 0.52113616 -0.575756 -0.057062626 0.068063974 0.24534076 0.88371396 -0.4178476 0.4035112 -0.6916416 0.633657 0.5130492 -0.04982665 -1.6354635 1.0328577 0.6914395 0.46195626 -0.019260904 0.24418381 0.5615777 0.3593736 -0.60349643 -0.051370457 -0.32052943 1.2087958 0.9637892 1.6833423 0.271982 0.14099619 1.438207 0.32846585 -1.1052365 0.85178614 1.1668596 0.06422959 0.0726463 0.4563538 1.2958571 0.12221923 0.564733 0.6231446 -0.68903744 -0.88944817 -1.2244638 0.030547751 -0.45010024 -1.119332 1.3835752 0.23367135 0.6158678 1.3511901 -0.72480756 -0.5926477 -0.81544715 -0.4207819 0.9149992 0.15932834 0.16595265 0.7210516 -1.0644222 -0.32034278 0.4947155 -0.014173943 -0.084671184 -0.35361964 -0.9161258 -0.6624603 -0.13638012 -0.67770356 -0.18290995 -0.09055418 -1.3135287 -0.23812789 0.6825609 0.7828007 -0.09124349 1.5921854 0.48740578 0.43044594 -0.84606886 -0.56655645 -0.16028455 0.033325266
1895 -0.5825843 0.65177155 -0.33735597 0.00010623227 0.10876989 -0.1502957 1.1564013 0.21773966 0.5411141 0.90305156 -0.116181105 -0.81906945 0.27060634 0.40668613 0.027737014 -1.6898412 -0.41893312 1.225872 -0.8543628 -0.094258904 -0.44810066 0.44331652 -0.021797929 -0.6978757 0.8526717 0.7620648 -0.18872036 0.50078213 -0.8261809 -0.31025386 0.28873497 -0.11371491 0.78093046 0.6698428 -0.6866278 0.98765594 0.31940955 0.43385506 0.022342525 -0.92725044 -0.5465359 -0.5991537 -1.2285345 -0.61137486 -0.8043211 -0.4009429 -0.5724049 -0.756164 0.77985674 -0.54667765 1.3500346 0.25039062 0.2673779 -0.112515144 -0.27028844 -0.09240142 1.612773 0.8535679 -0.94355273 1.239526 -0.36456203 0.25432113 -0.37564895 0.4757153 0.12887931 0.2260686 -0.91370696 -0.030010452 0.47459152 -0.20186506 -0.6801261 -0.31471115 0.18933614 -0.15442131 1.1427538 0.9305163 -0.6984506 -0.42142355 1.423268 1.5349674 -1.1940142 0.3010073 0.3541714 -0.60845536 -0.019539211 -0.9093881 0.51320004 0.39434448 -0.15149781 -1.0471761 -0.4622435 -0.98203015 -0.7234279 -0.031469792 -0.23847964 -1.001903 -0.1844962 0.676003 0.26992616 -0.47548366 -1.3082747 -0.5542105 -0.22001342 -0.24821076 -1.3904505 -0.2500318 0.8815051 0.8628081 0.37822068 0.057810817 0.11773877 -0.9039636 -0.575612 0.91127664 0.09733432 0.98877734 -0.39491984 -0.080463655 0.6555083 0.517444 -0.99808276 -0.16885228 -0.19275278 -0.37146208 0.25104615 0.53687227 -0.18239415 -1.6044326
416 0.06545903 1.4620081 1.0657423 0.26761505 -0.43535274 0.05516203 -0.1976117 -0.55669963 0.14218813 -0.26533008 -0.3475439 -0.59274983 0.7216735 -0.119640864 -0.60791016 0.4802691 0.3251563 1.3866376 -0.13842925 0.768923 0.8135967 0.5329348 -0.9251909 -0.35595757 -1.3593429 -0.040179495 0.27475974 0.114916734 -0.41834044 0.39264733 -0.8949914 -0.07058173 0.15581171 -0.05314218 0.37700644 0.6382969 -0.07442162 0.7544844 0.6085579 0.29532334 -0.9799397 -0.95870167 -0.3951 0.13866764 1.2222232 0.12234588 0.22527526 -0.5311578 0.12697536 -1.5300318 0.3157521 1.0312642 -0.21948321 0.66620934 0.8780343 -0.30545002 0.60543734 -0.12643856 -0.8043468 0.17447555 0.67940384 0.31292456 0.058833014 -0.27480024 0.084455684 -0.44346523 -0.17802346 -0.41021916 0.31257185 0.44361365 0.070246994 0.67534703 -0.9667088 0.5583767 0.37562245 1.8163729 -0.2949749 -0.6295295 -0.14764068 -0.34353232 0.40017992 1.1559092 1.0506674 -0.4821016 0.1687013 0.8838773 -0.01430199 0.14340097 -1.5543015 0.6094151 -0.19247346 0.1862956 -0.16809072 0.65909433 0.33148816 -0.36363238 -0.5717908 0.91526335 -0.097004846 -0.17872466 0.35641578 0.2456765 -0.41086295 0.21015042 -1.3950002 0.18149559 -0.18554226 -0.07771825 0.42314348 -0.34652597 1.0113069 -0.40835992 0.6681759 -0.4994137 -1.276496 0.9295648 -1.4520894 1.8968104 -0.21144246 1.560712 -0.44454974 0.01633965 -1.2911365 0.13669538 0.06557025 -0.06344836 -0.6092245 0.23387505
